solver_type L2R_L2LOSS_RANKSVM
nr_class 2
nr_feature 6620
bias -1
w
-1.108583977059545e-005 
-5.257261642131601e-006 
-2.72345955094352e-007 
2.963669272052879e-007 
8.265709927153488e-007 
-5.724602007422116e-007 
3.622394568574388e-007 
8.698804004292101e-008 
-4.125154140437377e-007 
-2.451999555867076e-007 
0 
5.817681952094243e-007 
-7.826650618088852e-007 
0 
2.826556318669203e-007 
0 
-2.22244552517295e-006 
-3.049856136774491e-006 
0 
1.490856503456019e-007 
6.772239911270429e-008 
-1.385582754333436e-007 
0 
-3.152043748829105e-007 
-5.811547557479066e-007 
0 
0 
2.158928246700487e-007 
0 
0 
0 
4.884816240161847e-007 
0 
0 
0 
0 
-1.237476573492329e-006 
0 
0 
0 
-3.152043748829105e-007 
0 
0 
1.818915921763444e-007 
-3.152043748829105e-007 
0 
-6.008570895041666e-007 
-1.386922048839179e-008 
-1.273921054316524e-007 
0 
-7.297649277584764e-007 
-3.152043748829105e-007 
-1.668444482347803e-006 
6.449788771736156e-007 
1.082166719054161e-006 
-1.817837856829294e-006 
-3.160980927310133e-006 
-3.9873262710118e-007 
3.146237737312499e-006 
-6.203545853579124e-007 
-2.10569868773016e-006 
1.543814508514918e-006 
-1.730067031265528e-006 
0 
6.421994624550025e-007 
2.282150952526113e-007 
9.049317457856488e-007 
4.405297156243969e-008 
1.046950245892258e-006 
-7.018990082523385e-007 
2.876843369021478e-007 
1.112520132539534e-006 
1.162313591115085e-006 
1.403463201376905e-007 
0 
0 
-3.155860872976425e-007 
0 
0 
0 
0 
0 
0 
-7.87644896822777e-007 
-1.135232796653722e-006 
0 
4.944459179060096e-007 
2.547633392846164e-007 
0 
0 
5.219886596441934e-007 
1.112520132539534e-006 
-1.237476573492329e-006 
0 
0 
-1.907549619640523e-007 
0 
9.24542743252541e-008 
2.453234620792531e-007 
0 
6.772239911270429e-008 
9.24542743252541e-008 
-4.301455395173786e-006 
9.296393237467948e-008 
-1.111175311958697e-008 
1.490856503456019e-007 
0 
9.24542743252541e-008 
0 
-7.086787354834452e-007 
1.309026463489059e-006 
-5.391090253813992e-007 
6.250874876999195e-007 
1.934725645975859e-006 
7.209765571503324e-007 
-5.558345830504805e-007 
6.300977996345377e-007 
-6.376738696835165e-006 
-3.495491851320933e-006 
-4.781736956354482e-007 
-7.961830645866123e-007 
-7.141550999087959e-006 
4.117355940929849e-007 
-9.302076581669521e-007 
-1.135232796653722e-006 
9.579161826801647e-007 
-2.239272978518379e-006 
-1.647425501658174e-006 
1.6449886239182e-007 
0 
0 
-1.864252357262654e-007 
1.019542751347326e-006 
8.771342574540759e-007 
4.116506159093149e-007 
1.32630287891918e-006 
0 
0 
0 
0 
0 
0 
1.064737107929213e-006 
2.519555304624577e-007 
0 
-1.907549619640523e-007 
0 
0 
0 
6.975456405745124e-007 
0 
5.233947575293401e-007 
0 
0 
0 
0 
-1.907549619640523e-007 
0 
0 
0 
4.944459179060096e-007 
-1.649405299098081e-007 
1.119987037117033e-006 
0 
0 
0 
-3.142215366271386e-007 
0 
2.453234620792531e-007 
-6.284823165027604e-007 
2.280607932940323e-006 
2.65013839524731e-007 
-2.098363309692173e-007 
2.667127954750293e-007 
-3.542065531533864e-006 
5.055090810212446e-008 
3.29960082901386e-006 
1.86676834549228e-008 
-1.13935047072282e-006 
-1.238640254662879e-006 
-1.237476573492329e-006 
0 
1.022569902008795e-006 
-1.356518796877446e-006 
-7.399611692472799e-007 
-3.152043748829105e-007 
-6.969771368085605e-007 
0 
-3.152043748829105e-007 
0 
0 
0 
-1.392773070789914e-007 
-7.543823619729663e-007 
-1.648674853559485e-007 
0 
0 
0 
0 
-8.200284217708105e-007 
0 
4.868688618169538e-007 
-5.025782075331158e-007 
0 
-1.385582754333436e-007 
-1.237476573492329e-006 
0 
0 
4.383415079771272e-007 
2.547633392846164e-007 
0 
0 
0 
0 
1.490856503456019e-007 
-1.649405299098081e-007 
3.638039271843879e-007 
0 
0 
0 
-5.935882718258522e-007 
-1.385582754333436e-007 
4.441126360395045e-007 
-1.271221201631702e-006 
-5.074812377336182e-007 
-2.201222740067781e-008 
1.490856503456019e-007 
-2.476957307987763e-008 
-5.503201013403977e-007 
-2.350997955561538e-007 
-7.811548288278782e-008 
-2.095341031676867e-006 
-7.484628625895749e-008 
5.615147591800223e-008 
3.416614276843061e-007 
2.434206708657671e-008 
-1.36691400687218e-006 
-3.924269321443482e-007 
-9.585866972041544e-007 
3.378054592884796e-007 
-2.584102361833254e-006 
8.187576951319163e-007 
3.859840153392153e-007 
3.567055373095169e-007 
-4.158658239449971e-007 
9.908270661729213e-008 
0 
-5.002855072737195e-007 
-6.322926081733693e-008 
1.037311408649446e-006 
0 
0 
0 
6.685197879073865e-007 
0 
3.072045120414515e-007 
1.455182666379925e-007 
0 
0 
0 
0 
4.171756109530682e-007 
0 
6.772239911270429e-008 
0 
0 
0 
0 
0 
0 
0 
0 
0 
0 
4.944459179060096e-007 
0 
0 
0 
0 
1.422991245361726e-006 
0 
0 
0 
0 
0 
0 
1.219554651605842e-006 
1.778298081534328e-006 
1.020328548544446e-006 
-5.565447162062914e-006 
5.454749488617493e-007 
2.826556318669203e-007 
-8.200284217708105e-007 
2.060770273137927e-006 
-1.506954017463764e-005 
-2.869374030199096e-006 
2.343159066144579e-007 
1.504686658161911e-008 
-1.423901809218594e-006 
0 
3.442030393101608e-007 
5.817681952094243e-007 
2.950927254819312e-007 
-5.239037078051011e-007 
1.41591459883821e-007 
-1.649405299098081e-007 
0 
0 
0 
0 
0 
1.940988912093329e-007 
2.00140722578548e-007 
0 
0 
0 
0 
0 
0 
-1.907549619640523e-007 
6.273564724620514e-007 
0 
0 
-1.459951607215742e-006 
0 
0 
-5.701610958248768e-007 
-5.250407058521281e-007 
0 
0 
4.944459179060096e-007 
-1.907549619640523e-007 
0 
0 
0 
0 
0 
1.446600174561845e-007 
-2.07056086798191e-006 
-3.851597422553417e-007 
-3.451628193308331e-007 
0 
0 
-1.864252357262654e-007 
-1.864252357262654e-007 
3.981698757260372e-007 
-6.288126173811305e-007 
-1.843765532264855e-006 
-1.602626814304013e-006 
2.602371122778199e-007 
2.30456227847121e-007 
-2.541156190774466e-006 
5.330856811109287e-007 
-1.085152007791418e-006 
2.140396237352977e-006 
6.780161520304121e-007 
-1.247182222933992e-006 
-1.323662140653692e-006 
-5.021689663106777e-007 
-1.50875933303499e-006 
-9.059169172950446e-007 
0 
-1.50874636652155e-006 
9.513132977012076e-007 
1.490856503456019e-007 
0 
-1.864252357262654e-007 
0 
1.455182666379925e-007 
0 
-1.102762367431663e-006 
9.858246170334798e-008 
0 
0 
0 
0 
0 
0 
0 
-1.273921054316524e-007 
0 
0 
0 
0 
0 
9.516833670725679e-007 
9.935414468130253e-008 
0 
0 
0 
6.441237670999569e-007 
1.490856503456019e-007 
0 
0 
-4.30890910774804e-007 
0 
4.944459179060096e-007 
-3.247188105620212e-007 
0 
-1.201109602274132e-006 
-8.200284217708105e-007 
0 
2.826556318669203e-007 
0 
-4.005912929332697e-007 
-1.887039741842788e-006 
2.734581834046961e-007 
-1.585119392134541e-006 
-1.12323032369356e-006 
4.121622102115124e-008 
3.134841124920916e-007 
5.709916661593036e-007 
4.058872527311245e-006 
-2.909907268808238e-006 
-2.660266142332823e-006 
3.545972148606471e-007 
-6.5075632921095e-008 
5.803909530567386e-008 
6.806449975059135e-007 
-2.094030996032546e-006 
1.138569685005967e-006 
4.487582215678689e-007 
1.175443651651443e-006 
0 
1.027067615582229e-006 
3.072045120414515e-007 
0 
5.817681952094243e-007 
1.112520132539534e-006 
0 
-4.111431906842814e-007 
0 
0 
0 
0 
0 
0 
2.826556318669203e-007 
2.158928246700487e-007 
4.944459179060096e-007 
0 
-1.864252357262654e-007 
0 
0 
-6.804143024358815e-007 
0 
2.453234620792531e-007 
0 
0 
0 
0 
-1.385582754333436e-007 
0 
2.826556318669203e-007 
0 
5.817681952094243e-007 
1.538598088079089e-007 
0 
-1.237476573492329e-006 
-1.243197569499247e-007 
-5.935882718258522e-007 
6.772239911270429e-008 
0 
2.826556318669203e-007 
-3.608519574746377e-006 
5.817681952094243e-007 
-1.722188162766199e-006 
7.979711666943669e-007 
7.434569952368552e-008 
-3.425286805499343e-007 
1.501186363083352e-007 
-1.536493177299145e-005 
-6.919936771701259e-006 
2.481831335155559e-006 
1.360044194576974e-007 
-8.695559972198668e-007 
-3.121216468815397e-006 
1.28273655132567e-007 
-1.104541533315444e-006 
-2.012526162942865e-006 
8.745824314663344e-007 
1.654262084047207e-006 
1.112520132539534e-006 
-2.687129166640284e-007 
1.356853553046366e-007 
0 
-1.907549619640523e-007 
2.826556318669203e-007 
2.453234620792531e-007 
-2.978927026528898e-006 
0 
2.826556318669203e-007 
-1.299020318354412e-007 
-2.098363309692173e-007 
2.826556318669203e-007 
3.072045120414515e-007 
0 
0 
0 
-1.003856002791156e-006 
0 
0 
0 
-1.907549619640523e-007 
0 
0 
0 
-1.273921054316524e-007 
2.628099011662977e-008 
0 
0 
0 
0 
0 
8.483933844941993e-007 
-6.775219350638691e-006 
0 
-1.973267051303689e-007 
-2.980360099952871e-007 
1.490856503456019e-007 
0 
0 
-2.236169897863961e-006 
1.026296440734979e-006 
1.44889206922094e-006 
-1.850630854648678e-006 
4.812364130953253e-007 
5.542914669178737e-007 
-2.834403816474535e-007 
4.078056309137437e-007 
-9.020243831616968e-006 
-3.267996420823135e-006 
-3.982162778682715e-006 
1.045430684085564e-007 
-6.218794233138083e-007 
-1.972353610313675e-006 
-5.348198421288262e-007 
3.675354513782974e-007 
5.130101447931579e-009 
5.817681952094243e-007 
3.064678727746463e-007 
-7.512091551468885e-007 
7.825036944223643e-007 
0 
0 
2.453234620792531e-007 
9.447532981014598e-007 
0 
3.195726244065197e-008 
0 
0 
5.817681952094243e-007 
0 
0 
0 
0 
0 
0 
0 
0 
0 
0 
0 
0 
0 
0 
0 
0 
0 
0 
0 
0 
0 
0 
9.5627401982138e-008 
0 
6.250309071816612e-007 
0 
0 
0 
2.56006950670086e-007 
-4.12726421936296e-007 
-1.873773535747204e-007 
7.404513821393308e-007 
-3.966831198223951e-008 
-2.153140236088065e-006 
6.814416345641995e-007 
1.43919921600747e-006 
7.270564251271493e-008 
-1.567891820630752e-005 
-2.978567480297728e-007 
1.468509944282533e-006 
-1.759679977839279e-006 
8.650072351478795e-007 
4.007376610234678e-008 
-1.500712520847315e-007 
6.089410342957285e-007 
-2.595956589406018e-007 
1.112520132539534e-006 
2.44237659717743e-007 
1.162885950843265e-007 
-2.264150217711956e-007 
0 
1.490856503456019e-007 
0 
0 
-1.273921054316524e-007 
8.075070136956456e-007 
0 
5.817681952094243e-007 
0 
0 
0 
0 
5.107251675509823e-007 
0 
0 
9.691703722609055e-007 
-1.273921054316524e-007 
0 
0 
4.191509313718198e-007 
0 
0 
0 
3.076057609545395e-007 
7.231134224294894e-007 
0 
0 
2.453234620792531e-007 
0 
0 
0 
3.459014188288317e-007 
-1.385582754333436e-007 
1.490856503456019e-007 
1.112520132539534e-006 
0 
-3.181470673957046e-007 
-3.373768890681674e-006 
-2.612104158867697e-008 
1.992561645279599e-006 
-5.686410307161751e-007 
5.883681461216556e-007 
-8.878799132177475e-009 
2.465897812358141e-007 
4.20846073138394e-007 
3.601376993393024e-007 
-1.797927410505484e-005 
-4.457250857933725e-006 
-1.92916598170839e-006 
-7.666988118360706e-007 
-1.716248410414339e-006 
-2.760438063170707e-007 
4.346542127565602e-007 
-1.299989200030731e-006 
7.672525415642394e-007 
2.453234620792531e-007 
2.724413274271228e-007 
0 
0 
0 
2.547633392846164e-007 
-7.143721028384048e-008 
6.75601761835606e-007 
0 
3.53810952017741e-007 
1.490856503456019e-007 
0 
1.000070211357679e-006 
2.826556318669203e-007 
0 
0 
0 
0 
4.944459179060096e-007 
0 
0 
0 
0 
5.580821278985521e-008 
0 
0 
0 
-8.277130767280619e-007 
6.772239911270429e-008 
0 
0 
0 
0 
3.072045120414515e-007 
1.473981281551636e-006 
-4.721463503107491e-007 
-5.072012541549232e-008 
0 
2.122859835342747e-007 
-1.574324364129054e-006 
0 
2.453234620792531e-007 
-3.897281104611799e-007 
-1.279081976785697e-006 
-2.601835183692672e-007 
-2.045960684811044e-006 
-3.379150794643409e-006 
-1.274705309621194e-006 
0 
4.950192552193879e-007 
-3.959205599355146e-006 
-4.62393616773676e-006 
-2.835583900922784e-006 
9.595281286482369e-007 
-1.283957653639917e-007 
-4.046301288099188e-006 
-2.558298631316487e-006 
-2.211304133743467e-006 
-1.279720510228395e-006 
7.377700928304193e-007 
-2.754585914475916e-006 
0 
-1.472867202746746e-007 
-9.559843192731751e-007 
2.902529883183272e-007 
1.107862331533898e-006 
-1.50130457215259e-008 
5.264192027754415e-007 
1.487690507250211e-006 
6.772239911270429e-008 
5.817681952094243e-007 
0 
7.894339852997974e-007 
0 
6.284955116395893e-007 
0 
3.072045120414515e-007 
5.653112637338406e-007 
0 
-6.009903643187515e-008 
0 
0 
4.865203752317538e-007 
6.772239911270429e-008 
1.374906367980093e-007 
1.281398452092658e-006 
0 
0 
0 
7.334271651108912e-007 
1.112520132539534e-006 
0 
0 
2.453234620792531e-007 
1.040713068259534e-006 
6.772239911270429e-008 
2.625111601800218e-007 
-6.279843878544793e-007 
2.278654423040547e-007 
9.24542743252541e-008 
-6.020501058118208e-007 
2.948308094206441e-007 
-1.273921054316524e-007 
-1.452010279910263e-007 
-1.279749325330341e-007 
-3.110278472767643e-006 
6.974230270956135e-007 
-2.397582289016989e-007 
-4.367330169295418e-007 
-3.202575011080179e-005 
8.277205689456214e-007 
1.215833723597683e-006 
6.287488797975423e-007 
-5.726032835310791e-006 
9.886815752909862e-008 
7.62966631363522e-007 
1.066618807516401e-006 
-9.546535600638676e-008 
-2.414122904769688e-006 
8.768517764557515e-007 
5.376435253092838e-007 
1.109929071274394e-007 
3.072045120414515e-007 
4.271742301749394e-007 
0 
8.711676358644142e-007 
3.347119802404004e-007 
2.027958336541523e-007 
0 
0 
2.453234620792531e-007 
0 
0 
0 
0 
1.971428137534787e-007 
0 
0 
-1.907549619640523e-007 
0 
0 
2.826556318669203e-007 
-1.688658556833594e-007 
0 
6.772239911270429e-008 
-6.788294666183859e-007 
0 
0 
0 
5.817681952094243e-007 
0 
0 
2.826556318669203e-007 
-2.780072295837715e-006 
-6.518934117457128e-007 
0 
0 
0 
-1.273921054316524e-007 
-9.849689516806185e-007 
3.392653119678235e-007 
-3.689662595337283e-007 
4.063117286074028e-007 
3.339062658309986e-008 
8.578035507765802e-007 
2.105803051774515e-007 
-9.72888837096312e-007 
-2.547024978038007e-007 
-1.15611949420818e-006 
4.109011694513626e-007 
1.382145587917566e-006 
8.774855394276827e-007 
-6.626562521738332e-007 
3.43268559528835e-007 
-7.601079569027341e-008 
2.756576473068033e-007 
-4.621905849347552e-007 
4.377017724771022e-007 
5.304791337715732e-007 
1.188971436794462e-006 
0 
5.817681952094243e-007 
1.112520132539534e-006 
2.53088786507725e-007 
0 
1.038342021543203e-006 
-5.369699221183222e-007 
0 
0 
3.072045120414515e-007 
3.59683295664161e-007 
0 
0 
-1.864252357262654e-007 
-7.122022674687348e-007 
0 
2.547633392846164e-007 
1.490856503456019e-007 
0 
0 
0 
1.027067615582229e-006 
-2.098363309692173e-007 
0 
0 
0 
0 
0 
0 
0 
0 
1.287371808032886e-007 
-1.950423520836955e-006 
1.292466516951575e-006 
0 
0 
6.772239911270429e-008 
-7.512091551468885e-007 
-1.649405299098081e-007 
1.218943086115159e-006 
1.402923695199298e-006 
9.303805783554253e-007 
2.448836441066071e-007 
-7.593565139852748e-007 
1.750543081095545e-007 
-5.041485861314354e-007 
1.933451935658114e-007 
-1.524409773023627e-006 
-3.198746822834966e-006 
4.329642374865297e-007 
-1.609920086698513e-006 
-1.0903411103064e-006 
3.3176441607096e-007 
9.850106180674078e-007 
-2.165223082579332e-006 
3.554105541284142e-007 
3.172352927549022e-007 
6.90709021727811e-007 
-1.385582754333436e-007 
1.613068735667881e-006 
8.592290927473137e-007 
-8.200284217708105e-007 
8.067748182996212e-007 
9.44202486542903e-007 
0 
-1.694078576869798e-008 
-1.649405299098081e-007 
-1.649405299098081e-007 
0 
-1.552680948375239e-006 
5.817681952094243e-007 
0 
0 
0 
0 
1.26212303369403e-006 
1.365131383728221e-007 
3.072045120414515e-007 
0 
3.59683295664161e-007 
0 
0 
6.975456405745124e-007 
-1.529809208833789e-006 
8.365192333467165e-007 
2.826556318669203e-007 
1.490856503456019e-007 
2.886808715400332e-007 
0 
3.072045120414515e-007 
7.856927507020987e-008 
4.295791170216346e-007 
1.040198129735956e-006 
-1.273921054316524e-007 
4.015053536033201e-007 
4.324674825106611e-007 
6.772239911270429e-008 
2.547633392846164e-007 
1.090918952393161e-006 
-2.119031367227001e-006 
1.654934760061605e-007 
1.865130488613387e-006 
-2.564892725044535e-006 
7.988908535862951e-007 
8.985270278860073e-007 
8.901245701388655e-007 
-1.594631148764891e-005 
-3.226371702916025e-006 
-1.314587213763744e-006 
8.213649029141181e-007 
-5.040246458505784e-006 
-2.106567729663877e-006 
-1.48969635558158e-007 
-3.520221115598059e-006 
0 
-4.021813199854236e-006 
1.12498667141707e-006 
-1.358083821912507e-006 
3.276115332192808e-007 
0 
6.878304771249742e-008 
2.158928246700487e-007 
-8.200284217708105e-007 
-7.394474327304947e-007 
5.220356767620197e-007 
-1.864252357262654e-007 
0 
0 
0 
0 
-3.747768608790256e-007 
0 
-4.885565586174788e-007 
0 
0 
0 
0 
0 
3.714447738939692e-007 
1.112520132539534e-006 
0 
0 
0 
0 
-1.135232796653722e-006 
0 
0 
0 
-5.655318228430778e-007 
6.772239911270429e-008 
-1.554119853665032e-007 
-3.181470673957046e-007 
-1.973267051303689e-007 
-7.068364389379303e-007 
2.826556318669203e-007 
-1.923969596580953e-006 
0 
9.383613578437927e-007 
9.621877110195742e-007 
-2.513917289510928e-006 
-1.18083634120692e-006 
7.262660971494633e-007 
-6.802888960532455e-007 
-3.130510225343522e-006 
0 
1.736619098846099e-006 
-2.782727313358992e-006 
3.392108999171837e-007 
1.570229614541475e-006 
-7.990089953401393e-007 
0 
1.184709879521751e-007 
0 
7.063250437261941e-007 
-2.339410556089576e-006 
1.124367336196615e-006 
7.89106366363952e-007 
0 
0 
0 
0 
1.455182666379925e-007 
-4.071630360995863e-007 
7.592052731725617e-007 
9.24542743252541e-008 
0 
0 
0 
0 
-4.071630360995863e-007 
-7.585288017356598e-007 
4.944459179060096e-007 
0 
0 
0 
0 
0 
1.477754604980827e-007 
-1.907549619640523e-007 
0 
0 
0 
0 
-2.098363309692173e-007 
0 
9.995382923217438e-008 
0 
1.000070211357679e-006 
-4.071630360995863e-007 
0 
1.092807889153584e-007 
-1.273921054316524e-007 
-9.212273147169382e-007 
-7.585288017356598e-007 
2.736108413652165e-007 
0 
0 
-4.042718736311072e-006 
8.830805928258819e-007 
-3.403214074976528e-006 
-1.12981875979363e-006 
-3.703446757304951e-007 
-3.76992537293679e-007 
0 
-5.64154638281733e-006 
-3.11766220596026e-006 
2.930563702998852e-007 
1.091487337522453e-007 
-3.104149620908082e-007 
-8.64220701545616e-007 
-1.936981534156341e-006 
-2.087137345347877e-006 
-1.395651774277583e-008 
-1.691239223808584e-006 
9.894650717463593e-007 
0 
-5.122060176170656e-007 
-4.885565586174788e-007 
4.984050393807768e-007 
0 
0 
0 
1.555314986538125e-008 
2.471607054395198e-007 
0 
-2.098363309692173e-007 
-1.649405299098081e-007 
-1.385582754333436e-007 
0 
0 
0 
0 
-8.200284217708105e-007 
6.772239911270429e-008 
0 
0 
-8.215880019707113e-007 
0 
0 
0 
9.24542743252541e-008 
-1.273921054316524e-007 
-1.649405299098081e-007 
-1.907549619640523e-007 
0 
0 
0 
3.964819181871344e-008 
5.815356032110678e-008 
1.169354256796505e-007 
7.013368716645173e-008 
5.067524352968929e-007 
0 
0 
-3.880816670944212e-007 
1.001459327439964e-006 
7.003805439753545e-007 
-9.623988190629186e-007 
0 
-2.552204814666506e-006 
2.822318580219559e-007 
-2.653380390261986e-006 
-1.671275644344067e-006 
-5.872916099530536e-006 
-3.606907024828698e-006 
6.939632503349928e-007 
2.362313478922085e-007 
-2.460137918896078e-006 
-2.172167980436797e-007 
8.223471461128314e-007 
3.570328829292597e-007 
6.084730072246737e-007 
-2.923326353414603e-007 
3.010504061998845e-007 
-8.175593337730037e-008 
2.509127772615824e-007 
0 
1.018027841851252e-006 
5.572212081428457e-007 
0 
0 
-1.282273512859578e-006 
0 
0 
-2.098363309692173e-007 
0 
0 
0 
5.817681952094243e-007 
-1.973267051303689e-007 
0 
6.970485965508621e-007 
0 
0 
0 
0 
1.112520132539534e-006 
-1.031758191220344e-007 
-1.273921054316524e-007 
-8.200284217708105e-007 
-1.81484889318657e-008 
0 
0 
-3.152043748829105e-007 
0 
0 
-2.897170695321733e-007 
-1.098142738130062e-006 
-4.632770859953647e-007 
0 
-1.580054488013947e-007 
1.365131383728221e-007 
-3.152043748829105e-007 
-3.152043748829105e-007 
3.827338780081959e-007 
-1.195840440036886e-006 
-1.372639085833467e-007 
5.103889559739299e-007 
-2.325354664160194e-006 
-1.076866845587875e-006 
6.932084132487684e-007 
-1.152167911898025e-006 
-8.290574338508468e-006 
-1.467706046606448e-006 
2.510464923229529e-007 
5.097897328262554e-006 
2.279355000677069e-006 
-1.854774875544055e-006 
-1.313154937181773e-005 
-3.320591225558521e-006 
-1.097476909102183e-006 
1.99822240599847e-006 
1.023743257302656e-006 
-7.43171330945275e-006 
1.301721571869618e-006 
-2.977368020280731e-006 
-2.898283933406798e-006 
3.162448546937549e-008 
4.983062006321128e-006 
-4.30601629696443e-006 
-3.304541625393091e-007 
1.522537706298948e-006 
2.03799471190517e-006 
-4.658817555562509e-007 
2.223868985027903e-006 
-1.488373023114732e-006 
-4.895482836892904e-006 
1.132274086028968e-006 
-9.795338225470336e-007 
2.957938557653413e-008 
2.613082947498874e-007 
-1.471856315861412e-007 
1.498707475712919e-006 
1.178504029264947e-006 
-8.27767805918002e-006 
-8.747149992416909e-006 
-9.355242111907797e-006 
-9.226760846755122e-006 
-7.137614509232529e-006 
4.005299546285585e-007 
2.381691508861205e-006 
1.222075208909645e-007 
-6.988006754394521e-006 
-7.426429055169353e-008 
8.15099984397932e-008 
2.956115572938587e-006 
2.541910445081784e-007 
6.375333805605227e-007 
-3.420885424986929e-006 
-6.208654259547927e-007 
-1.557291313653505e-006 
7.73879338531193e-008 
-2.341650998610529e-006 
2.630472482725409e-007 
1.096308416892451e-006 
-1.046849632993663e-006 
-4.631412594077734e-007 
-1.379349541338522e-006 
-7.027036150092191e-008 
-5.18676114078858e-007 
-7.094826132685034e-007 
-6.292498992795105e-007 
3.110506198030104e-006 
-8.415523094093572e-006 
-3.537323846640226e-006 
-4.799980838546092e-007 
2.042691030824709e-006 
-3.937686155161076e-006 
-3.152013137354285e-006 
-1.144057747460104e-005 
-1.386864655133246e-006 
1.526218555798547e-006 
-1.266365057489396e-005 
-1.745648593429293e-006 
-8.496047386094902e-006 
-1.743041292711652e-005 
-4.021634267782257e-007 
-3.597509410016112e-006 
-2.694611001640636e-006 
-2.44904007900606e-006 
-5.29643298583511e-007 
-1.11869199056455e-005 
-1.222390131168422e-006 
1.226887449116829e-006 
-1.087963762175973e-005 
5.905025469726647e-007 
-1.616549193580476e-006 
2.075960796162024e-007 
-5.362622209096401e-006 
-2.001071726027089e-006 
-9.1574476488075e-007 
1.213960081469011e-007 
5.630172858476143e-007 
-1.755468859707037e-006 
3.572266589564685e-007 
-9.418010923540378e-007 
-1.242881701721839e-006 
-1.287986315850615e-006 
1.465646655168505e-006 
-1.577812605012376e-005 
-8.956794535156743e-007 
-2.967276574767428e-006 
-8.534983607551433e-008 
-3.419604280275178e-006 
2.808145642091357e-007 
-1.002459512980146e-006 
1.532031250900359e-006 
-7.003878702533032e-007 
-2.680564152322257e-006 
-2.823316773354276e-006 
-2.404219049043851e-006 
-2.12589514399461e-006 
-6.533691589768889e-006 
1.56097190344488e-006 
-7.854872136276919e-006 
-8.35620301938566e-006 
-2.711302806973978e-006 
-1.936065527566562e-006 
-1.140337365661497e-007 
-1.17367230353449e-006 
-4.405022136594294e-006 
-5.330174189748458e-006 
1.15111103972904e-006 
-8.788020619259087e-007 
-6.956412889562597e-007 
1.806387950597873e-006 
2.128148806564582e-006 
-1.365287362628595e-006 
-2.009135330394678e-006 
4.436492432864645e-007 
-1.679122687335692e-006 
-6.863603250375521e-006 
-1.096292376893291e-005 
-3.51593538013273e-006 
-3.083991796781301e-007 
-6.759327200331114e-007 
3.808408441600971e-007 
4.918982736790009e-007 
1.013759397945853e-007 
-9.392611681705788e-006 
6.422165792466468e-007 
-2.738769714975881e-006 
3.255329955520746e-007 
-1.207676034853207e-006 
-8.146464636844221e-008 
-2.464412387457091e-006 
-1.157062128388814e-006 
-3.229813290596472e-006 
-1.849919496013655e-006 
-3.515515347639487e-006 
5.274760254814747e-007 
-1.801412075878944e-006 
-1.581951341419219e-006 
-2.052458458872807e-006 
1.103045119619845e-006 
-4.063244153542669e-006 
-3.330176808303636e-006 
6.850201771136753e-008 
-5.251652689011649e-008 
-6.942416150819872e-009 
-1.917377075274547e-006 
-7.372135339816874e-007 
2.038705632335874e-008 
8.086292545627388e-007 
-4.189102965418559e-006 
-1.018629438968917e-007 
3.106913104355553e-006 
2.027501532175971e-006 
-9.086533252558554e-007 
2.426055958668257e-007 
1.22896963775054e-006 
8.352560700247163e-007 
-1.771358281300238e-006 
-1.73825966371489e-006 
7.892185636803508e-007 
7.475094323649102e-007 
-1.38721415415882e-006 
-6.821217796523782e-007 
2.476060456101918e-006 
-2.913948909907026e-006 
-6.413640509430457e-007 
-1.161619154729601e-005 
-6.911749481740887e-007 
-6.174744707536188e-006 
-5.24461965499243e-006 
3.649446820210216e-007 
-1.878771175882941e-006 
-4.149800893477025e-006 
9.837829872438197e-007 
2.62071720678269e-006 
1.914193937199806e-006 
-4.276585120809425e-007 
-2.33291808575016e-006 
-1.981008995302475e-007 
-4.8036695367581e-007 
-4.64030400570866e-006 
-2.614432975375811e-006 
-9.199813505470981e-008 
-2.00000964809776e-006 
-2.216742394153214e-006 
-2.747049418578334e-005 
2.123977391726765e-006 
-2.386858855312394e-006 
-8.353236725657841e-006 
9.566232118612297e-009 
-6.758494794472499e-006 
7.585027441002602e-007 
1.643408869175352e-006 
8.948052967606278e-007 
-6.755502439043569e-006 
-6.787720711909831e-007 
-1.156322864604872e-006 
5.795686268668549e-007 
8.920455813829713e-007 
1.164653487489158e-006 
-5.805260241539983e-006 
-1.216512170938035e-006 
-5.136831810383489e-007 
-1.768039945833623e-006 
-2.080834878165172e-007 
-3.373076199158068e-007 
2.912316837309969e-006 
-2.847200612652103e-006 
2.886519662068308e-007 
2.301707167714544e-006 
9.713673264004819e-009 
5.95616072802136e-007 
-3.15912999790738e-006 
2.826012223352819e-006 
1.788947399421043e-006 
2.478776304238732e-006 
-1.262674880803122e-006 
-1.906944495191526e-007 
3.41812789736036e-007 
-3.591072617657511e-006 
-9.427828801902411e-007 
1.96343710760093e-007 
-9.945233732401719e-007 
5.159039187445709e-007 
6.484021274081083e-007 
-3.430479889737491e-006 
8.169290539719141e-007 
-2.144213477498053e-006 
-2.109892196859929e-006 
-4.587606076194818e-006 
-2.923518277390717e-006 
-1.867598804961321e-007 
2.590996058184185e-006 
1.368821725029869e-006 
3.730363420402695e-007 
-1.982724554929036e-006 
-1.442420231966334e-007 
5.254485324755543e-007 
-8.521660720099348e-006 
-1.498269944144508e-006 
4.677870127123219e-007 
1.01050804377787e-006 
1.781766857717347e-006 
-7.017931313960893e-006 
-7.642847811406499e-006 
1.831299764291209e-007 
2.294886590707948e-006 
1.172013080559911e-006 
-6.477393132908e-006 
-1.713762958535608e-006 
5.046422178210349e-007 
-5.781954349441527e-007 
1.094596243354747e-006 
-1.099272116044793e-006 
-6.658880923827231e-006 
3.358603396632546e-006 
2.016008319285036e-006 
-6.453964299373405e-006 
1.367390171568137e-006 
4.85755347846052e-006 
-1.490794476136553e-006 
-2.078552006578501e-006 
-1.766727119453253e-006 
-3.772556895903371e-006 
-1.531969285659334e-007 
-2.332361057139387e-007 
-9.193686885288182e-007 
-1.250153087675397e-006 
-1.60513007003977e-006 
5.142015235727544e-009 
-1.539040865518956e-006 
-2.607846077656326e-006 
-8.947014037305231e-006 
-7.058179104425917e-007 
-3.836425119693928e-006 
-6.678036205585551e-006 
-1.198945462347931e-005 
-5.59938121485968e-006 
-2.81707429151385e-007 
-1.137612571459946e-005 
-1.527308500806403e-006 
2.141047599544572e-007 
-2.407752641528685e-006 
-1.143747237117228e-006 
-3.263019987449988e-006 
-4.539945098252883e-006 
7.006005487094061e-007 
4.71021816403748e-007 
-1.417752092908224e-006 
5.124801585430644e-007 
2.045894362583888e-006 
-7.983423288967647e-006 
-1.817474058203261e-005 
-5.042070225755095e-006 
-1.19572278898122e-006 
-6.320269734036977e-006 
-1.373415579758636e-006 
-1.01845245155597e-005 
1.071851099568321e-006 
-2.403038937002424e-006 
2.494146491550602e-006 
-3.313893355452344e-007 
-7.803266283613716e-006 
-6.212542726414969e-007 
1.371754211959613e-006 
1.582785585706665e-006 
-9.414291059243765e-007 
-4.524057087938704e-006 
1.045603983361521e-006 
-1.34115594644696e-007 
2.455476479448945e-006 
2.960431227055807e-006 
-9.320307190654429e-007 
-2.524591117142239e-006 
1.794088831890527e-006 
-2.118895543900417e-006 
-7.462632895315675e-007 
1.013170954289031e-006 
2.094762504224879e-007 
-1.909114233270292e-007 
-1.057214175924648e-006 
-3.347386109474501e-006 
-1.997786226843501e-006 
3.722332199407301e-006 
-2.328390968827914e-006 
-1.461652165245954e-006 
1.003843381660197e-006 
-1.655067671957003e-006 
-3.741572849766354e-006 
7.52285334364568e-007 
9.483548952540399e-007 
2.17528193466149e-007 
-2.394148106702644e-006 
5.857696427597858e-007 
1.278624950950436e-006 
-1.174841201536197e-006 
-2.964336457520921e-006 
-1.761109429260511e-006 
-1.445260014637228e-006 
-3.460396143845453e-007 
2.72169423219426e-006 
-7.687937826095358e-007 
2.717666918491502e-007 
5.802456451294042e-007 
9.951951157293724e-007 
-2.090102952124926e-006 
1.027027705489443e-007 
2.785185923291297e-006 
1.933772257634963e-006 
-9.078862058437665e-007 
5.46073880649339e-007 
-2.076519955090979e-006 
4.802572845118033e-006 
-4.397824473539891e-006 
2.819938055566644e-006 
1.632281012324977e-007 
-1.39973074391055e-005 
-4.40248725486422e-007 
-2.849526582566499e-006 
-3.995478897606018e-006 
-3.599266169819209e-007 
-1.351478671728792e-006 
8.19579562637295e-007 
1.194571854524731e-007 
2.928627353560212e-006 
1.251626326837781e-006 
3.940853074423182e-007 
4.273705261796488e-006 
-1.24512863381761e-006 
-4.994802170085265e-006 
2.472681120948838e-006 
2.553096411882962e-006 
-4.817514171201827e-007 
-1.284248645378222e-006 
1.723012631186834e-007 
-1.647769451673363e-006 
1.982766819298673e-006 
-3.433183828601782e-006 
-4.776372436359874e-007 
-1.586630804350866e-006 
-3.67821145077025e-006 
-6.490827144470472e-008 
-3.96425797085408e-006 
2.848181475599929e-008 
-2.086607664316485e-006 
2.313652021953173e-006 
6.878005289071187e-007 
-1.362072017829829e-006 
-2.802208836786874e-006 
4.005518995182024e-007 
-1.519800154885977e-007 
-3.987784446437165e-007 
-3.30143916480051e-006 
-9.316743294422804e-007 
3.991609456668404e-007 
1.731389851214997e-006 
1.989992221458215e-007 
-2.629714191396322e-006 
9.43600152413569e-008 
1.98573290997109e-006 
-2.328346071702675e-006 
2.954372323215309e-006 
-8.192030766349255e-007 
8.143726145938876e-007 
-7.064854836753759e-006 
-2.001683494838987e-006 
2.034405528398003e-009 
-2.044275591454637e-006 
3.628447472668573e-008 
1.17059722227934e-007 
5.749963856279595e-007 
-8.720072398343254e-009 
-8.30988673442766e-006 
8.060846093494971e-007 
-7.727814363832685e-007 
-3.241208434165381e-006 
5.084572702053461e-006 
4.786687702438127e-007 
-8.848330512279959e-007 
-9.22819706253623e-006 
-9.955595891400811e-007 
-3.702748688525042e-006 
-7.939943303194762e-006 
-3.697459596550086e-006 
-6.229154340118899e-006 
-2.608759221434627e-006 
-8.539909084680988e-007 
-2.465379133319727e-006 
-2.032937231603289e-006 
-5.692421736097464e-007 
-4.233836403827107e-006 
2.376847338478259e-006 
-5.719850739878862e-007 
-9.455293089257288e-006 
2.167956834143023e-006 
-7.776257971188794e-007 
4.160997682761435e-006 
-9.645622993346481e-007 
4.529225104176213e-007 
-3.805289558196013e-006 
-6.582292307194371e-006 
-8.661135255327343e-006 
-6.755507031361308e-007 
4.939108123924784e-007 
-1.132432384978948e-006 
-2.539116334551814e-006 
2.333505195957989e-006 
-1.566710604841616e-006 
-3.031025167247784e-006 
9.009128926047868e-007 
-1.125045153847769e-006 
-2.748500085970652e-006 
6.08108209080851e-006 
1.313352196237928e-007 
-1.739055506718343e-006 
3.183899094040911e-006 
-2.522233431663052e-006 
-1.103607389403651e-006 
9.8347688771613e-007 
6.872930468907404e-007 
-9.636819586030811e-007 
-2.449166773643902e-006 
-8.026835371434662e-007 
1.033893171208493e-006 
-9.279963307502038e-006 
-4.381454938548469e-007 
1.596499820335278e-006 
-1.889001932714909e-007 
1.467933761297188e-006 
-3.06040660987971e-007 
2.603498606627596e-006 
-1.109356135053605e-005 
6.165454631239217e-007 
9.426535321011042e-007 
-2.840714042521516e-006 
-4.290185124528738e-006 
2.915766427126344e-006 
-3.031840020732765e-007 
-1.662531202100285e-006 
-3.547710504131991e-007 
5.240608249682698e-006 
1.919822009305984e-007 
-1.72665380374228e-006 
-2.087689872621873e-006 
3.920875877854821e-006 
-4.57397936018364e-007 
3.382880116357175e-007 
-7.776672379663439e-007 
-5.628022297197947e-006 
-1.191175356339211e-006 
-4.600054597305013e-006 
-3.682059937275361e-006 
-2.226671774893412e-006 
1.597460227362723e-006 
-3.694283102953578e-006 
-3.188869982487976e-006 
-1.035166575700846e-006 
3.799668605856324e-007 
-1.280487142065091e-006 
-4.42252630393373e-006 
-6.416609459890926e-007 
-2.467520215944072e-006 
-5.74717010847325e-007 
1.184503956609073e-006 
-8.32705848631516e-006 
-2.837280806269281e-005 
-1.554499074560839e-006 
-2.313544984208659e-006 
6.810424063944206e-007 
-1.889564092985346e-006 
-1.341472386307224e-005 
-1.006886453020638e-006 
-7.842105164209764e-006 
-5.486459342293758e-006 
2.143000612165077e-006 
-1.535134347347463e-006 
3.048442150512633e-007 
5.833780021380511e-007 
-4.421570643136593e-006 
1.328969528637382e-006 
-1.284005308752848e-006 
2.658051691129807e-006 
5.708398062714817e-007 
2.944189690141581e-007 
-4.981611912364828e-006 
4.979052000255299e-008 
-3.991765335516322e-006 
-1.848113205613261e-006 
1.337621604714115e-006 
-2.466100384357287e-006 
7.929539943003872e-007 
-1.28132718356516e-006 
5.299173164837423e-007 
-1.098881400102772e-006 
-3.539386985464321e-007 
-1.525640809441515e-005 
-2.769252234759835e-007 
1.990690931324947e-006 
8.927294993818624e-007 
3.826196905455028e-007 
-1.455033914651608e-006 
-1.833794675795219e-006 
4.350867561164233e-006 
1.941234082482006e-006 
-6.148301056492937e-006 
-7.171480835318217e-007 
-1.051069349232771e-006 
2.341968677700586e-006 
-1.655636512708098e-006 
2.148385293939475e-007 
-2.177398898280386e-006 
-2.636223335449493e-007 
-4.126636189469692e-006 
-1.326698592702429e-005 
-1.768543122196274e-006 
2.836956163133337e-006 
-3.180772901032335e-006 
1.138433496203258e-007 
-2.494963510416042e-006 
-1.012701971253811e-006 
7.313513339753746e-007 
-3.468052911382844e-006 
-2.492963659374053e-006 
-9.206969552937116e-007 
-3.951023983869566e-006 
8.780890924724616e-007 
-6.097896692352522e-006 
-6.307092904408276e-007 
-8.545311262727394e-006 
-1.40499632515826e-005 
-7.762440138894296e-008 
3.948190353726176e-006 
-8.15121291898895e-006 
6.766242891167691e-007 
-2.370186597780005e-005 
-4.718794408660005e-006 
-1.872412044545812e-006 
-1.304214790376175e-006 
-1.445020073352496e-007 
1.047656422490439e-006 
-2.241446721368526e-006 
-1.125253608459855e-005 
2.731797350808383e-006 
-2.981223571537631e-007 
-1.167899963677842e-005 
-1.118709618159657e-005 
6.612581319253513e-008 
4.091414168500332e-006 
-1.75952742050988e-007 
2.002296579192626e-007 
-1.096570629215414e-005 
-3.343967957526636e-008 
-6.279564726086771e-007 
-4.359701154362952e-007 
-6.679735934429167e-006 
-3.821649880959185e-006 
-5.45991972586218e-006 
-2.046831578354976e-006 
2.911246136397599e-007 
-2.930285708144163e-006 
1.600418923051676e-007 
-2.285421253127665e-006 
1.589271150326776e-006 
-1.283171266261821e-006 
-1.427673500291253e-006 
9.644694763210967e-007 
1.811541910515537e-007 
-1.85737743747368e-006 
-3.160967261598475e-006 
2.13670628971395e-007 
-4.963696291252469e-006 
-2.699587711339742e-007 
1.255465303442378e-006 
-7.632183210420099e-007 
-8.212600615969061e-006 
-7.633928959434202e-006 
1.863903875730026e-006 
5.589204998582559e-007 
-3.714244070254751e-006 
1.467603759678308e-006 
-1.321307599115006e-006 
3.683610406067163e-007 
-8.709545638931875e-006 
2.996563584207382e-007 
2.788255718441625e-007 
-1.2727985381708e-006 
-2.409063152000625e-006 
-3.539980997422808e-006 
4.88147705998513e-007 
-2.040045785864518e-005 
-4.347756175950951e-006 
3.42929086549746e-006 
-3.120010320529498e-006 
-8.197754286138416e-006 
-1.996951867207044e-007 
-7.671349101488589e-006 
-8.620781619226996e-006 
-2.975887989650409e-007 
-1.192205617038716e-006 
-2.110084835733543e-006 
-7.655597089694254e-006 
-2.908842939629441e-006 
-8.943591566714823e-006 
-1.213351221582351e-006 
1.295277954389242e-006 
1.404538866619377e-006 
-1.036251375380723e-006 
2.836731530638216e-006 
6.642809904983572e-007 
5.649662321408416e-006 
-1.157224019643092e-007 
-2.158205094818539e-006 
2.862215932885634e-007 
1.175227671174087e-006 
2.543885920849464e-006 
-1.282069607465625e-006 
2.040387031239246e-006 
1.932194320305641e-006 
2.522357777339298e-006 
-1.500062277253876e-006 
-7.616845659972316e-006 
-1.57000977558601e-006 
-1.679403736249048e-006 
1.602643581810528e-006 
-3.492263330608463e-006 
2.128422039389351e-006 
2.383651394494235e-007 
6.026896845780306e-007 
-2.486096595849761e-006 
-2.476866920010786e-006 
-1.260043457839971e-005 
-2.661142295242224e-006 
1.269928440034229e-006 
5.136438153578251e-007 
-2.375317805549026e-006 
-4.633415747327604e-006 
-7.355473249823071e-007 
-1.280055395602482e-006 
-8.524586259739329e-006 
3.131384528316608e-007 
-6.971253736056931e-006 
-9.011877474797378e-006 
1.259135537275204e-006 
-1.631054813448514e-006 
4.864844643260349e-007 
-1.226489918547245e-006 
-5.938579843597812e-006 
-5.80752306309885e-006 
2.013391304207798e-006 
-6.397390853483279e-006 
-2.750327257119576e-006 
-3.277418632420487e-007 
-1.567112830703005e-005 
2.760172759505321e-006 
-2.461080884543615e-006 
5.361624512177439e-007 
3.127917268003842e-006 
-1.241661215222987e-005 
1.31592713364008e-007 
2.425136946567888e-006 
-5.799067759892394e-006 
-1.229896155754875e-006 
-1.038637659108514e-005 
-3.908739436753303e-006 
-4.375993985993927e-006 
3.308482701399285e-007 
-1.93996834719299e-006 
-2.174170673541699e-006 
2.134000331883834e-006 
3.263595229843288e-006 
2.494469581912518e-006 
1.027547619465708e-006 
-3.489086243590614e-006 
2.178444111962005e-006 
1.399736717874641e-006 
-1.955858721503101e-006 
-5.341709034321334e-007 
1.616064433218463e-006 
6.696986728796999e-006 
2.385252381076363e-006 
-4.179324511726169e-007 
-1.02536774272401e-006 
-3.080506911901547e-006 
-2.036024403518488e-006 
-4.477723710962704e-007 
-4.69802227413103e-006 
-2.331940391147722e-006 
1.024018441469685e-007 
8.122705113437903e-007 
-2.518892306704947e-006 
-1.775636986809509e-006 
-2.86103091021034e-006 
-6.010357555920076e-008 
1.193441161006825e-006 
3.892942457985562e-007 
1.625829509900176e-006 
1.102923177509469e-006 
3.888587308173844e-007 
-3.544379624808291e-006 
-2.649701056255523e-006 
-4.627831379661236e-007 
-6.337056551232179e-006 
-4.669007774609073e-007 
-2.35490752529779e-006 
2.403859930866078e-008 
-7.615882145949012e-007 
-2.716249841721878e-007 
-9.017457381437212e-006 
-9.653072327176445e-008 
-2.558012357218979e-006 
-6.777828018456923e-006 
3.458810609463555e-006 
-2.72283498108343e-006 
1.263511569324797e-006 
4.603146601591126e-007 
-2.904809764885395e-006 
-8.480816492819165e-006 
-3.913154852130237e-006 
-8.886939845881395e-006 
2.897854357824592e-006 
-1.184182778865278e-005 
-7.685675742887687e-006 
1.413788517548093e-007 
-3.45471318543078e-007 
-4.179918368457936e-006 
6.200042249073105e-007 
-2.389523834604971e-006 
-1.874559107522959e-006 
-1.148607538468928e-005 
-8.133666415004821e-006 
6.696381281903278e-007 
-5.772241659594298e-006 
-2.478407638691644e-006 
1.407984315484481e-006 
-1.579562519970186e-006 
-5.973681597646886e-006 
1.185753210746876e-006 
-1.037345705675405e-006 
-4.448581250100676e-007 
2.090488831525457e-006 
-1.901403369615128e-006 
2.812109738509423e-007 
3.248659760187743e-007 
1.679609548294091e-006 
-8.90272372049689e-007 
-1.795699208573652e-006 
-1.198974399874442e-006 
-2.530358982058899e-006 
-3.502347987742123e-008 
-4.922117717706077e-006 
1.874078759105005e-006 
2.496680294173888e-006 
3.293581967763467e-006 
-2.932294499219782e-006 
-1.901412505156411e-006 
-2.673303601574076e-006 
-2.865121675235713e-006 
6.530632268055381e-007 
3.090430175570179e-006 
-2.821269386144594e-006 
1.019711818696516e-006 
1.430414593624354e-006 
1.091601310772133e-006 
1.296963671012067e-006 
5.596482878815019e-009 
1.627706487319346e-006 
-4.150900629531812e-006 
-7.27604125433046e-006 
3.030204969834396e-007 
6.437384739652982e-007 
5.454401380551945e-007 
-1.335956260662668e-006 
-2.34225533751311e-006 
1.594451802950828e-007 
-7.001974504584732e-007 
-1.057854246654713e-006 
5.700794008606717e-007 
6.349950821406923e-007 
2.115067612584404e-007 
-3.597113486711415e-006 
-5.705427907919469e-006 
-2.79256649780101e-006 
-1.884459521721952e-006 
-3.698827897640438e-007 
5.831990869701849e-006 
-7.464311284796027e-006 
6.308664127400139e-007 
-2.060246524426961e-006 
-5.221704054118793e-006 
2.525647045582061e-006 
2.617790000535898e-006 
-1.367429581552385e-007 
-9.370468261104852e-006 
-3.382765711486823e-006 
1.288416465637831e-007 
2.336447625894619e-006 
1.14573605708397e-006 
-2.398101806564658e-006 
8.136513853498317e-007 
-2.105900290654571e-006 
-5.569384115559183e-008 
-1.818418524771586e-006 
5.333772984426691e-007 
-1.740036433550936e-006 
-9.114547094318397e-007 
7.289495577962504e-007 
5.994580479574602e-007 
6.575261068695242e-007 
-4.957012107940003e-006 
-1.427993087808081e-006 
-2.148621879660844e-006 
1.608672878836617e-006 
2.527966130074835e-007 
-5.217502526917671e-006 
9.933883273514451e-008 
-6.645688265890002e-006 
-4.373878661821778e-007 
4.279030196336343e-007 
4.167666381407466e-007 
-1.177359128907289e-006 
8.825545619004846e-007 
-5.444234799046679e-007 
8.815298325434534e-007 
-2.538991645851108e-006 
-1.602502348381763e-006 
4.16036447300427e-007 
1.337636735808883e-006 
-4.793964662237798e-006 
-7.999224013863335e-007 
1.817956956901873e-006 
1.239960762252642e-006 
-9.236892720713045e-007 
-4.537280651641262e-007 
7.04639484555742e-007 
-1.557866478155667e-007 
-5.984823115871915e-008 
1.396667733247388e-006 
8.857429160569518e-007 
-3.462631439575605e-006 
2.026018928293371e-006 
3.239661801068282e-006 
-2.203931824158296e-007 
-6.424568966587972e-008 
-5.666332347478451e-007 
-9.176673003496705e-007 
-2.67983368222624e-006 
-8.282873989855998e-006 
4.324706575960969e-006 
-3.576707251055306e-006 
-8.805644895172965e-006 
-2.721648177888267e-007 
1.401078016116192e-006 
-8.703183627204895e-007 
-1.601730981327331e-006 
2.163784100438154e-006 
-9.015362175546472e-006 
-5.260916503209434e-006 
-2.376367549731189e-006 
-1.913903872712928e-006 
-2.282851598319814e-006 
4.735995081450441e-008 
-2.98233398839556e-006 
-3.440153697906615e-006 
-4.815324021528433e-006 
2.402665539352117e-006 
1.247496860544752e-006 
-1.204605809110727e-006 
1.536782773319265e-007 
1.50294982385356e-006 
-4.782979844593412e-007 
6.03034971919994e-007 
1.807129713366044e-007 
6.201587897782915e-006 
-1.763947819946258e-006 
4.297516161702544e-007 
2.831795873999225e-006 
2.86770253877428e-006 
3.086555338321971e-006 
9.984229320681051e-007 
3.488084977208539e-006 
-2.705569918311814e-007 
9.575496806635298e-007 
1.166490278649488e-006 
-4.790231143567142e-007 
-4.777969742760504e-006 
-1.038643649273012e-006 
-3.390315480572979e-006 
-2.791410012088685e-006 
3.780759170285339e-006 
6.061034593724345e-007 
1.176806664615415e-007 
-1.45005970538615e-007 
1.500433947594721e-006 
-4.969066243248741e-008 
-1.136860368843433e-005 
-4.341397111354158e-007 
-1.341885292455803e-005 
-7.498794171222352e-006 
-3.13594581386393e-007 
2.828782202295902e-006 
-1.486826064573612e-006 
-1.082068244783688e-006 
-2.84211374582978e-006 
-2.38871235505068e-006 
-1.229233156448793e-005 
-3.433812199045758e-007 
1.373553768009066e-006 
-5.041917699634569e-007 
-6.661893949017906e-007 
-6.176689425925419e-007 
-2.908408652293234e-007 
-1.552322438788038e-005 
-4.349063347162801e-006 
-5.408695602780423e-006 
1.656432845902642e-006 
-1.931234031187044e-009 
-2.073002341113758e-006 
-7.747277195550566e-007 
-3.251764694750845e-006 
-7.559844108763044e-007 
1.416186721846914e-007 
-1.451483477534889e-007 
1.537164030047449e-006 
-3.742299877173963e-007 
-1.24520812212086e-006 
-1.321150634280029e-006 
-7.991841823222491e-006 
-9.641567387593785e-006 
-7.596571606144648e-007 
-4.908555384302549e-006 
1.823435328142618e-006 
-2.07527573291979e-006 
-1.621009471718731e-006 
-1.575496664103317e-006 
1.177544595373312e-006 
8.882320086945106e-007 
-3.935592354976957e-006 
-3.981848343732103e-006 
-5.293403266983015e-008 
-7.388620352869767e-007 
-4.152207909931258e-006 
-1.910126417331845e-006 
4.162253195373309e-006 
-1.15420279331673e-005 
1.422890456710988e-006 
3.410504321054484e-007 
-1.401797676825694e-006 
-1.349288985851453e-006 
3.302346827764519e-007 
1.175784993215827e-006 
1.273261242771053e-006 
8.334981933074131e-007 
5.671513225032724e-006 
2.78734980896669e-006 
-1.907519526751904e-006 
9.035267752721838e-007 
3.758161957550235e-006 
-5.404602048090675e-006 
2.001757617479607e-006 
-1.717417437978231e-005 
-6.409499761637617e-006 
-7.134329785745395e-006 
-9.014227957502573e-007 
9.925534101535468e-007 
-1.406919638201715e-006 
-2.890688839966484e-007 
-1.225149065835712e-006 
-2.526892302066413e-006 
-3.172246693483125e-006 
7.067084748873334e-008 
7.485776396695381e-007 
1.650975842022538e-007 
-4.917123501796764e-006 
-2.289267502225116e-006 
3.604525416918093e-007 
-1.254042210301002e-006 
-1.406801985035421e-005 
-3.455869448176037e-005 
1.522996267029422e-007 
-1.806805922735159e-007 
-4.452166698256315e-006 
1.095789144950088e-006 
-2.053734779265713e-006 
-3.413521013286857e-006 
-2.249027937158251e-006 
-2.697796284263717e-006 
-2.266106274117738e-006 
5.05903842022569e-007 
4.582778674680988e-006 
8.187843876020313e-007 
9.800834906565284e-008 
-3.284875181779684e-006 
-8.613438261378021e-008 
-5.22526797394356e-007 
-5.312637422561254e-006 
-4.36364882624221e-007 
-5.53229761646615e-006 
1.011456484813332e-007 
-5.697458648566902e-006 
-3.244251740259859e-006 
-3.203501724107059e-006 
1.293105597688827e-006 
5.235619490677823e-007 
1.656380447797668e-006 
3.373454072272656e-007 
-1.859427208486958e-005 
-5.750446243908601e-006 
-6.262667799395998e-006 
-2.796347186071201e-006 
3.496653868604432e-006 
-3.43829639768082e-006 
-2.500152163007142e-006 
-4.658716107023801e-006 
3.310427954329503e-007 
-2.854758662692658e-007 
-1.367467117657449e-006 
-9.213518330384798e-008 
3.159988335840368e-006 
4.952307819378863e-007 
3.40577851472804e-006 
2.780487329729388e-007 
-2.366769417476258e-006 
1.80767380677943e-007 
-8.464009708320991e-007 
-9.88349904012839e-007 
1.221322131067484e-006 
-4.312080400997539e-007 
-1.450003526355921e-006 
2.759099802475191e-007 
6.944811430475307e-007 
5.282595832401262e-007 
3.709672838803215e-007 
1.243025884694939e-006 
1.176526295574687e-006 
-1.940390299908102e-006 
3.950282117878329e-006 
-1.117949497245744e-005 
-9.023776400254757e-007 
-4.560378660732615e-006 
-1.750467999558339e-006 
-1.719170766177629e-006 
-3.386352783321229e-006 
-1.240709279007508e-006 
-2.069562068433936e-006 
-6.240594585168974e-007 
-1.975222142233428e-006 
-2.004029113125696e-005 
-5.921887195334166e-006 
-2.538055935968988e-006 
-3.891041761075567e-006 
-1.496627015388866e-006 
-1.656292251481097e-006 
-2.063805036202418e-005 
-1.267319441215076e-005 
-8.381434317096691e-006 
-1.830216470087892e-006 
-4.192938776946022e-006 
-1.602040957812926e-005 
-1.278298323300035e-007 
-3.01010245140872e-006 
-5.535842800725062e-006 
1.467848216880881e-006 
-8.809659420937686e-006 
-4.524030150837753e-006 
-9.413733198399745e-007 
1.53936102665251e-007 
-5.075958747314369e-006 
-7.536636493267176e-006 
-5.439900226481768e-006 
-2.143383864078249e-006 
-5.572548993979643e-006 
-7.467590959929232e-006 
-4.162285456764669e-007 
2.761865348192301e-006 
1.010182466752068e-006 
1.614099240277799e-006 
-2.059271339292662e-006 
7.558066397199674e-007 
-4.8900282601689e-006 
-2.167344599719809e-006 
-2.941281458474115e-007 
-1.363529895189511e-006 
1.656912263393674e-006 
-1.001088570128115e-005 
-4.857432544127727e-006 
5.510424601068595e-007 
5.263667651031667e-007 
2.130117469236644e-006 
-2.018043092244391e-006 
-3.246360988011853e-006 
-6.841989937051157e-007 
-2.53454339728079e-006 
-2.659876310588052e-007 
-1.907549619640523e-007 
3.97068047009131e-006 
-6.68044331172789e-008 
-3.378728834327368e-006 
2.386975535155575e-006 
-8.022956720113212e-007 
-1.104807743538269e-006 
-3.309070055492686e-006 
-1.081560048290183e-005 
-1.055442454151415e-006 
-5.193208927334236e-006 
1.212491606820998e-007 
1.641128668779021e-006 
-1.04260651233187e-006 
1.966628837799883e-006 
-9.715505961331733e-006 
-3.963512219669761e-006 
-7.046203864023885e-006 
-3.352248947701988e-006 
-1.435148063647308e-005 
-6.808067546786827e-007 
-7.159725110935452e-006 
-9.768576071835796e-006 
-4.555477980899514e-007 
-3.112706148869831e-006 
-4.609842053899349e-006 
-4.716085549254805e-007 
-1.877428633366424e-006 
-5.57302570048695e-006 
1.023396091307526e-006 
9.36572707673304e-007 
-2.142289959746568e-007 
9.628685583335165e-007 
-3.42932657067695e-006 
1.190772129636745e-006 
-6.643608255990612e-006 
-6.484875681934447e-006 
-1.436908376762284e-006 
-9.734234747834534e-006 
-2.181289026209212e-005 
-4.931023612014025e-006 
-3.912544972700637e-006 
-2.143581251012048e-006 
2.825538178753776e-007 
1.34985645349063e-006 
-1.629820634865037e-007 
-7.32317763218193e-006 
-1.517321853412301e-005 
-2.479032039679837e-007 
-1.079177371292964e-005 
2.786157932516249e-006 
-8.853751453078419e-006 
-7.412706020459397e-007 
-4.614765256302274e-006 
-1.302857824157415e-007 
6.312532219634281e-007 
2.033730556382314e-007 
-5.595653783893666e-006 
3.532414629686778e-007 
-8.145214843625924e-006 
-2.986342907242416e-007 
-3.338849992634013e-006 
-6.21554552818684e-007 
-3.212042463519064e-006 
-3.154524592501894e-007 
-3.783464135499392e-006 
-2.280069358392339e-006 
-1.907826554852293e-006 
-1.327792852441796e-005 
1.031970276704657e-006 
-8.328728179903939e-006 
-7.293003657572687e-006 
2.28172583616466e-006 
1.317117196163762e-006 
-2.644493356511706e-006 
-2.303663042927036e-006 
-6.639998072142674e-007 
-2.109419021825718e-008 
-1.286542546361116e-006 
-1.76512417729027e-006 
1.502885063953495e-007 
-7.104156391923567e-007 
-1.759134880419733e-006 
9.597337521584747e-007 
-7.389058023123929e-006 
-9.322228409895855e-007 
2.61044860114609e-006 
-1.124845861351084e-005 
-1.074715573268075e-006 
-3.03635528041346e-006 
5.427068451174224e-006 
7.092265162281382e-007 
-6.334128364739783e-006 
-2.50518392745797e-006 
8.031692895515157e-007 
1.856775600575985e-007 
-1.730854458701997e-007 
-1.096426747408471e-005 
-2.503529066512417e-006 
8.660478794926676e-006 
1.997704075734851e-007 
1.176727999020516e-006 
7.700721954143907e-007 
-2.55932290695891e-006 
-8.416120255744777e-006 
1.574322661730769e-006 
-9.306001914731134e-006 
-6.159318180615133e-006 
-1.500951122832734e-005 
-6.780573457728329e-007 
-3.893550238539619e-006 
-4.467065592170101e-007 
-3.436741192265122e-008 
-2.674130769491311e-006 
8.130859969513612e-008 
-3.614839089353145e-006 
-5.316010037496143e-006 
-1.754875154339263e-006 
1.261972809920084e-006 
-8.748397562520278e-006 
-3.091298286978005e-006 
-5.153090468097796e-006 
3.529699796702312e-006 
1.152682720497348e-007 
1.812745533140392e-006 
-1.31284369849572e-006 
-4.392991914824742e-006 
-2.71585740921721e-006 
-2.765326745603937e-006 
-1.293323389855613e-006 
2.638288753890299e-006 
-2.322218957969334e-006 
2.349917560231734e-006 
-1.569227644105268e-006 
-4.837424887152647e-006 
-1.335520335280944e-007 
-2.303051224638483e-006 
-4.337990290144454e-006 
-7.629068862006198e-007 
-1.730837032591537e-005 
-1.116662491655999e-005 
-3.329626211522043e-007 
-1.594964496759556e-006 
-1.593832767003017e-006 
2.024426726560003e-007 
-1.782181656357534e-006 
3.152249050434336e-006 
-1.661952322726441e-005 
-7.961599444347668e-006 
2.080955172715375e-006 
-1.455220646993117e-005 
2.444443239751416e-006 
-9.346489035521136e-007 
-2.965136439020572e-006 
3.081491271163177e-007 
1.869506454682233e-006 
-4.673702531381665e-007 
-1.864252357262654e-007 
2.03559527724206e-006 
1.978618727734939e-006 
1.516610898517419e-006 
-7.849262763795761e-008 
-5.806441332556794e-006 
-1.983486098506776e-006 
-1.122954794384458e-006 
-6.694377733610368e-006 
2.944788203205705e-006 
-8.315051003427404e-006 
-1.767724374549105e-006 
-1.767416125988009e-006 
-3.811487927851187e-007 
6.099733751291389e-007 
1.012436436751069e-006 
7.278589936546418e-008 
1.290787317360899e-007 
1.006946596303328e-006 
-2.26045712961198e-006 
-3.02115400496068e-006 
-6.763189775358485e-007 
-2.703901342786575e-006 
-2.289879979150165e-007 
-1.685960842259451e-006 
-9.509706964739786e-006 
8.328020405238218e-006 
-2.11558318283603e-006 
-1.406120182787486e-006 
-2.918910602472059e-006 
1.187504110897409e-006 
-3.188167503886728e-007 
-7.534208069278285e-007 
6.550182178372841e-007 
-4.52110718402932e-006 
-1.366062442930096e-006 
-8.577057846149028e-006 
-3.165733495610539e-006 
2.275848735526635e-006 
-2.073257212903472e-006 
-2.611925134294732e-006 
1.794610861469551e-007 
-4.578197826135636e-006 
2.638290270688234e-007 
-1.167870687347318e-006 
1.596413096363458e-006 
3.980708777743706e-007 
-2.895395636322172e-006 
-8.026369320167722e-007 
4.654285449255472e-007 
-3.890971941144713e-006 
-8.912535506940983e-007 
2.757032056827985e-006 
-2.125535813092513e-006 
-3.275508423838178e-006 
2.723187319148503e-006 
-7.372545778213803e-007 
-3.175223952221865e-006 
-3.755677661955219e-007 
1.302994603374362e-006 
-5.021620173100783e-006 
-9.576273939023331e-007 
9.921882672614743e-007 
5.649441450052719e-007 
-6.26124691681897e-007 
3.159688771194999e-006 
2.136950352749508e-006 
4.148718647208272e-007 
-6.973317567277602e-006 
-1.003462972071564e-005 
-8.891177668165563e-007 
-4.876326374406729e-006 
-2.861905668350625e-006 
-9.774572814760866e-006 
-2.873127649624538e-006 
-8.618158514992481e-006 
1.738173290644669e-007 
-1.107529048222396e-005 
3.918284861506971e-007 
-1.884531423333344e-005 
-4.406381116063606e-007 
9.675150080690927e-008 
1.815076721669494e-007 
1.85089432376233e-006 
5.140887280647394e-006 
5.272114612488535e-006 
9.28370343586831e-007 
-3.296575598607648e-006 
-3.573621010509509e-007 
-7.097825377858786e-006 
2.563386940437844e-006 
1.895587168753231e-006 
-2.054584682455505e-006 
1.918743734276003e-006 
1.234128048883705e-006 
8.646242938191284e-007 
7.358660039662457e-007 
3.982310432994838e-007 
-1.347826051099138e-006 
6.714231932671431e-007 
-8.182840159647606e-008 
-5.390674706997954e-006 
-1.714770109218559e-007 
2.739205035921999e-007 
1.098683914454119e-007 
4.506974538701453e-006 
-2.007762371220891e-006 
-6.945383710534055e-006 
-1.127553514807906e-005 
9.02443028715401e-007 
-1.855330103608628e-005 
-1.059879519084855e-005 
-8.575479890773494e-007 
-1.570549078043024e-006 
-1.265589602856029e-005 
-3.14796735886837e-006 
-5.038206327939974e-006 
-1.067099525886031e-005 
-1.889691220957039e-006 
-4.117192960409857e-006 
-7.47662296007242e-006 
-3.781091650002279e-006 
4.079125817217838e-006 
-2.717477314419893e-006 
3.384700889682214e-006 
2.766126259423554e-006 
5.850011932975837e-006 
-2.953213658944817e-006 
-1.090675920099883e-006 
8.587466332844133e-007 
6.547502557685485e-006 
-1.809741459384485e-006 
2.325415139899215e-006 
-2.294371422679848e-006 
2.868078223754064e-007 
-3.990069466779511e-006 
8.615750057661586e-007 
6.641685953390205e-006 
-4.995290533461476e-006 
-3.60268677932321e-006 
-9.364550072484423e-006 
-4.089730791584696e-006 
-4.491869507614598e-006 
1.069797924015915e-006 
4.130732305905225e-007 
5.173528659058683e-008 
-3.120717696010588e-006 
2.663074330397955e-007 
-1.125824633458496e-005 
-1.119737874702993e-006 
-2.549153372969038e-005 
1.559220979978306e-006 
-1.710298520208763e-006 
-7.84180002195452e-006 
-2.259528065211252e-006 
-1.22427368165774e-006 
-3.005283047228641e-006 
-5.142234065686144e-006 
-1.097916157371093e-005 
6.483762161378446e-006 
-3.187896575122999e-007 
-4.370500322655179e-006 
2.10065298083892e-006 
-2.921720736615941e-006 
-5.952954647613735e-006 
-6.505889885122977e-006 
-3.181000257201107e-005 
-1.026439022929623e-005 
-8.082777986213346e-007 
-9.182030233627252e-006 
-2.5093082303287e-006 
-2.803519562532515e-007 
-1.77329708788361e-006 
-2.691509918337208e-006 
3.505353703137852e-006 
-8.994046828774971e-006 
-4.244347672167888e-006 
-2.095054324289492e-006 
-1.281188710553654e-006 
-1.850603819260732e-006 
-2.384370896875689e-006 
-2.645142831138832e-006 
-4.259184915504918e-007 
-3.440780458936845e-007 
9.775787217305096e-007 
8.152388679870028e-007 
-1.579788466881124e-006 
-7.42584934650268e-006 
-1.455790996763733e-005 
-6.334576900703509e-006 
-3.257070986609403e-006 
-3.281796288421234e-007 
-1.166255229532103e-006 
5.517401194474379e-007 
2.185780267709393e-006 
2.925182450537561e-007 
-1.528357091927409e-006 
6.527459336531448e-007 
-1.43475359745322e-006 
-1.579201440638907e-007 
-2.497537686480342e-006 
1.346301411665068e-006 
-9.725689024684442e-006 
-9.433247146100438e-007 
-4.530639678217459e-006 
-1.667707113293775e-006 
-9.854413812717189e-007 
7.296939816059758e-007 
3.423355506532017e-007 
-1.825708684664353e-006 
1.204651310838702e-006 
6.035308851976241e-008 
-5.222173429551902e-006 
1.55349038349895e-006 
9.018669091691456e-006 
-6.813973519250147e-007 
-4.417411056915475e-009 
6.993938859480491e-008 
-4.521807560360639e-006 
-1.017729367006298e-005 
1.654527156141225e-006 
-1.290141160800349e-005 
2.795277252796399e-007 
2.825923732792972e-006 
1.104132301260821e-006 
-1.992548702222524e-006 
-2.070579712048596e-006 
3.677865423158251e-007 
4.249234133511498e-006 
1.849321053024151e-006 
6.639282284503753e-006 
-4.959919887206219e-007 
-2.380672439453477e-006 
-3.654946879988142e-007 
-6.019699079101383e-006 
-3.486312041562328e-006 
-2.848194323301741e-006 
-5.863365454327119e-006 
-7.186407827822239e-006 
-1.552231085731946e-005 
-1.110849899796083e-006 
-5.279801805166386e-007 
-2.963953798605526e-006 
-2.336070342769399e-007 
-3.803494807795572e-006 
-2.432187696195502e-006 
-1.773792985921683e-007 
-1.105481002878658e-006 
-1.838836953740353e-006 
1.453873808729472e-006 
-2.301862636389637e-006 
4.220897450139132e-007 
-2.081470667439587e-006 
-1.602948610016731e-006 
-8.832112298041232e-006 
-6.835857450403409e-007 
8.650761912417201e-007 
-2.637896108879166e-007 
-2.367092373172242e-006 
1.185377215814822e-006 
-9.426730283725422e-006 
2.395713206014951e-006 
3.781975262134249e-007 
1.581926319767965e-006 
-5.783735285309499e-006 
-3.975860334964925e-006 
-1.987603529748249e-006 
-1.649908751649881e-005 
-3.621918668261372e-006 
-2.395521890557573e-006 
4.206859981125568e-007 
-3.723369161215365e-006 
-1.771437041499502e-006 
-1.562139039949189e-006 
-1.176290778097554e-005 
5.07010939241916e-007 
1.512724931321328e-006 
-1.778862633780434e-006 
-2.037772017919703e-006 
1.759489629512601e-006 
4.299451649661451e-007 
1.125377633122553e-006 
-8.232610553686229e-006 
-1.048106069429889e-006 
8.30991124149948e-008 
-1.229017729028121e-006 
-8.051133271043032e-006 
-6.141208709806873e-006 
-2.148578221248355e-006 
-2.216652144369082e-006 
-8.577338941944821e-006 
-7.994744588662874e-007 
1.513271283150582e-006 
-1.440450921312307e-007 
-1.231970992889673e-006 
-4.579572332958558e-006 
-5.205961346368564e-006 
5.876998267120186e-006 
-8.355905938531994e-006 
-3.786362748527432e-006 
1.54582786127837e-006 
-7.636778571386272e-008 
-7.352058218634884e-006 
-1.025030257154727e-006 
4.90084152514608e-007 
-1.575847192185792e-006 
-1.460908623475934e-007 
-3.335718114228514e-007 
-8.855032369012395e-006 
-4.572861528713243e-006 
-3.465259587881384e-006 
2.480074789938546e-007 
-7.000863563664049e-007 
-6.95033166713693e-006 
-4.233453314593963e-005 
-1.284045875674074e-005 
6.365508307871647e-007 
-6.290307414073106e-007 
2.083298852615184e-006 
-1.361093044777566e-005 
-2.02354101418955e-006 
-3.847187475094572e-006 
-4.281987999474014e-005 
-3.478176538404952e-007 
-1.826333188054221e-006 
-7.534730803061759e-007 
-2.621607413529533e-006 
5.668816662141834e-007 
-1.580075201746971e-005 
-1.510107136197949e-005 
-4.755900973101165e-006 
-2.759256763203562e-006 
-6.571132243494958e-007 
-5.169600382462389e-006 
5.925985304979455e-007 
-1.463210807107926e-006 
1.205791135826927e-006 
-2.587157857597588e-007 
-2.301581991464957e-006 
-1.020727612680275e-006 
-1.210585989110018e-006 
2.239083107203641e-006 
1.48399195087668e-007 
2.484241655657518e-006 
-1.591901978471645e-006 
-9.972024027974232e-006 
-8.490148036721069e-006 
-7.473821674966928e-007 
-1.355644789927368e-006 
-1.342605405514063e-007 
-5.940041557019939e-006 
-1.155522672079503e-008 
3.76950537920355e-007 
2.543475468886156e-006 
-2.583779447356372e-006 
3.60246242582761e-007 
-9.634983242271679e-007 
-1.656967718917475e-006 
-1.095577721987078e-006 
1.085898838645457e-006 
1.394878280344363e-006 
1.528670494137227e-006 
-1.162055845702036e-005 
-1.595377977242073e-006 
-9.56146020305459e-007 
-5.161041250154718e-006 
-8.472028413406149e-007 
-5.244306810499701e-006 
-3.911890421312472e-006 
-4.342690786568266e-006 
-1.55336646505997e-005 
-5.58376186289848e-006 
-7.912178857090994e-006 
-1.786393104767103e-006 
-3.255444287157186e-006 
-1.210314907844947e-006 
-1.008091187587821e-005 
-1.333134874468889e-005 
-1.693514491225437e-006 
2.818075962940148e-006 
-1.003752950694523e-006 
2.729056116339042e-006 
7.151412599153026e-007 
-3.574505168076631e-006 
-2.588191423685202e-006 
-1.187597174428286e-006 
-4.707319588097789e-006 
-5.963864010322093e-007 
2.406803354401564e-006 
-1.123378134283369e-006 
1.786897041642769e-007 
-1.350183206849364e-006 
-4.964585974741544e-006 
-4.575552583877398e-006 
-5.202731601136061e-006 
3.722286120164906e-006 
2.66611767433155e-006 
-5.979544028951549e-007 
7.280876589341896e-008 
4.648910823468462e-007 
-2.554271740863716e-006 
-5.328738461224759e-006 
-3.311539331573783e-005 
-2.293659619868105e-006 
-4.529403513399091e-006 
-2.787756739896767e-007 
5.997545816516754e-007 
-1.660150510213562e-006 
-1.585750390212255e-005 
-1.195425762947964e-006 
-3.808604299915828e-006 
-1.058633712451962e-005 
1.625757414392008e-006 
-3.628932443172584e-006 
-3.1821509928424e-006 
-1.669188221957173e-005 
2.007712720780414e-006 
1.613379843215549e-006 
-4.716161349672239e-006 
-1.155310044112427e-006 
-1.010581650472023e-006 
-2.703700710559976e-006 
-2.372264246674479e-008 
-4.233945074360465e-006 
-5.452032573107625e-006 
-9.367215346141362e-006 
-7.692033595998815e-006 
-1.386805826322091e-007 
-1.455637453068113e-006 
1.058697505092273e-006 
7.166496806612018e-008 
4.477485924987201e-006 
1.027526415749295e-006 
-4.264871272676189e-006 
8.351381634878539e-007 
-2.164195603846963e-007 
-1.560030832801694e-006 
-1.089497232957174e-006 
2.842342248914743e-006 
3.98543188112061e-007 
-7.900876728993707e-007 
-7.892706720411255e-006 
-7.153856095954595e-007 
-1.34856014106961e-007 
-1.453967679370066e-006 
1.219419579265647e-006 
-2.195911968567934e-006 
3.607842365304486e-006 
4.303121698720395e-007 
-4.722258863024314e-006 
-7.960104039076769e-007 
1.082196159633828e-006 
-4.061484614434849e-008 
7.35290881676133e-007 
8.593051236171066e-008 
1.225535929944755e-006 
-4.308676866823372e-006 
-7.116460716222352e-006 
1.926192793335356e-006 
8.386118290576487e-006 
4.249010320452411e-007 
-2.419564670852231e-006 
-1.357058062921079e-006 
2.023331130205722e-006 
-2.064943861297274e-006 
4.23317592327689e-006 
5.982044421747319e-007 
-2.254421941352145e-007 
6.660824736048291e-007 
-2.892725749947932e-006 
-8.964383637126677e-007 
-1.253132695348617e-006 
-1.179812900746599e-006 
-2.084607228930878e-006 
-1.090881300137273e-005 
-3.435484698554816e-006 
3.488247996628066e-006 
-5.677613454770419e-007 
-4.461565001731723e-006 
-7.285585806464358e-006 
3.934097868188471e-007 
-1.501104155865039e-006 
-3.543950807920933e-006 
1.368299285056115e-006 
3.42902506901773e-007 
4.434291233340171e-006 
-1.78086664888322e-006 
5.195480536439723e-008 
-6.887334562593315e-006 
-1.990076543806283e-005 
1.048909825956057e-006 
-2.499825200278177e-006 
4.157300266615625e-007 
-9.049725845551798e-007 
-1.862942613750593e-006 
-1.275193111433918e-005 
-2.20145211948179e-006 
-3.202454875217701e-007 
1.423151891328696e-006 
-8.2501472487952e-007 
-9.813850743062e-007 
2.388492379024604e-007 
-3.915022943690817e-007 
-3.623249402499523e-006 
-2.026992065282049e-006 
-1.284495428373885e-006 
-1.979749904249686e-006 
-4.365037079778678e-008 
-3.21664964089129e-006 
-9.128542353998176e-006 
-2.026010608790074e-006 
-2.015557158182636e-006 
5.098763427247152e-007 
-1.551293914650246e-006 
-2.533568331526096e-006 
-2.585136316275935e-006 
2.144098760367205e-007 
-6.092056624785568e-007 
-8.656213331127184e-006 
-2.710961299224261e-007 
-5.81431518257323e-006 
-6.260415198744468e-006 
-3.967847220504079e-006 
-2.967853703322554e-006 
-2.544334414260792e-006 
1.275349427345745e-006 
-2.850044867152471e-006 
-1.368916358339523e-006 
-1.397609256096568e-006 
-2.296664268397411e-006 
3.684248123688303e-007 
-6.167180394986807e-006 
-6.788660637278823e-007 
-2.57973171267534e-006 
-5.670172320866503e-006 
-4.228609841900841e-006 
-1.144302757239398e-006 
-1.493232275526944e-006 
9.997003435352964e-006 
-1.508083268106253e-006 
7.197290204417368e-006 
-1.178516204078574e-006 
-1.430565442524924e-006 
9.24542743252541e-008 
1.392126934770798e-006 
-3.802998658219642e-008 
6.769064367169393e-007 
6.076184258830213e-007 
-1.404888292912137e-005 
4.103422901309814e-006 
-2.765491038143485e-006 
3.731796025104336e-006 
-8.579774050068295e-007 
8.53281238512394e-006 
-5.243249616781062e-006 
-4.683426261215841e-006 
2.933950437249793e-006 
3.987137583969659e-008 
-8.308830458422974e-006 
8.40170010966336e-007 
9.07117360403562e-007 
-2.720496695376914e-006 
-4.792295309705446e-006 
-3.222848042242117e-006 
-3.424371356355147e-006 
4.062013426259337e-006 
-2.79465612228167e-006 
-5.281856175529845e-006 
1.810499255666791e-006 
-4.034630022936699e-006 
-5.835079950173686e-006 
5.011287406317726e-007 
-3.872806507502574e-006 
-2.122530306989259e-006 
-5.228242955112735e-007 
-7.771994902077983e-007 
-2.461982693574166e-006 
1.052077738464374e-008 
2.862366417548446e-007 
-3.61018594363838e-006 
-4.069227713693721e-007 
-2.972147267985272e-006 
6.301926685554769e-007 
3.561984528924353e-008 
1.113776098030688e-006 
-6.224461469773722e-006 
2.452500336695552e-006 
2.741667298405889e-006 
-6.738325701409645e-006 
-1.712615995063317e-006 
2.751299974780712e-006 
-6.321992890001009e-006 
-4.140968800713295e-006 
3.832543988077585e-006 
-3.738737983831972e-007 
-1.269316090402679e-005 
6.576141502278279e-007 
-2.186845279783284e-006 
-9.25456010206927e-007 
7.156862896973038e-007 
-1.497840007274038e-006 
7.583473754143148e-006 
-3.002032924740214e-006 
3.541941462953268e-007 
-4.189120636533218e-006 
1.325539542054956e-006 
-3.533430357933921e-006 
-1.03100004269909e-006 
-9.189664388580297e-007 
-1.332711948971208e-006 
1.201128761434737e-006 
4.049637846551021e-007 
-1.078732673301745e-006 
4.553611062436989e-006 
1.319785144226475e-006 
-5.872976031160115e-007 
2.134805848607326e-006 
3.120402559216857e-006 
-1.467727103145907e-005 
8.881630349280522e-007 
-1.806171712614593e-005 
-2.351951408840038e-006 
-5.274857883395246e-005 
-6.481077886165711e-007 
-6.575427741708704e-006 
2.958992392760218e-007 
-7.568236305006298e-006 
6.974506699580811e-007 
-3.452264164711806e-006 
-3.44980019429254e-006 
2.477644390974831e-006 
-1.547642430678108e-005 
-7.217273985659334e-006 
-1.53346786263747e-005 
7.007839279655609e-006 
-1.202888246600004e-006 
1.216249455246092e-006 
4.421720021258247e-007 
2.562069492825684e-006 
-3.727477487276773e-006 
6.686950854944283e-007 
-2.56309689376348e-006 
7.889169249851625e-007 
1.002154542933927e-006 
0 
1.776903835831696e-006 
-2.75703114548142e-006 
5.317752772790242e-006 
9.482501405983919e-007 
2.199383761608995e-006 
-1.041969523024779e-005 
-1.748681083521445e-006 
-1.020292940168545e-005 
-1.578016578075027e-007 
2.471607054395198e-007 
0 
2.083302134616418e-007 
3.809397052329661e-007 
2.561239576908034e-006 
8.159716749780049e-007 
-7.717381986882603e-006 
-2.594538829707744e-006 
-1.140314849119813e-005 
-2.827835795344063e-007 
-6.158838629883694e-006 
-8.043700767115467e-006 
-9.283584720805248e-006 
3.026086472981786e-006 
-5.933728785124294e-006 
-2.079140565886821e-006 
-1.145603539529895e-005 
-5.482737598229762e-006 
-7.204645105736573e-007 
-1.701563590513996e-007 
-9.365340862317198e-007 
8.891223265515822e-007 
8.368579748051935e-007 
-1.401106366337255e-006 
-5.777277706758136e-006 
-7.036745349332339e-006 
1.681237977593312e-006 
-3.986385053119548e-006 
-1.995090495858831e-006 
-1.283635668952411e-006 
-1.454896004539856e-005 
1.230833451519151e-006 
-3.635259819695946e-006 
2.019539348015542e-006 
-4.325029512245963e-006 
-9.247314880433031e-007 
-7.304948571778817e-007 
1.984125820546959e-006 
-1.008309385585178e-006 
1.759433625897815e-007 
3.705583367658206e-006 
-6.375501233984833e-006 
1.421486736977345e-007 
-7.162605782400596e-007 
-5.493551528668291e-006 
-9.19929926391709e-006 
-2.485493095802865e-005 
-3.288964301913567e-007 
-9.585623327216501e-006 
-2.054148910881705e-006 
1.278680148400884e-006 
-8.284246547075338e-007 
7.732487732449153e-007 
-8.057380309214114e-007 
1.001003201907713e-006 
-3.257148931465384e-006 
-4.455061444585004e-006 
-5.017763088282911e-007 
7.732841407345398e-007 
-5.009269469105185e-006 
1.399639890787748e-005 
-4.044504028097944e-007 
6.664042989798308e-006 
-3.721970851938665e-006 
2.124230473873546e-007 
-3.728504714525308e-007 
8.855218919593213e-007 
-1.447553464316617e-006 
1.190524027712235e-006 
4.137213055544467e-007 
-1.652095187603133e-006 
-3.086969851429013e-006 
-7.920803199423638e-006 
-2.217759989255599e-007 
3.875844097830255e-006 
1.09036738589632e-006 
-1.303420720895026e-005 
-1.114603092358471e-006 
2.547273063794279e-006 
-9.930565553092664e-006 
-5.38573741116479e-006 
-5.690396046014711e-006 
-1.68758044464296e-006 
1.339151373874279e-006 
-2.785937722415665e-007 
3.620783361157532e-007 
2.037230901560257e-006 
1.137770733282211e-007 
6.90212423792497e-007 
-7.470579660312588e-006 
3.867985600696853e-007 
-1.29851517870963e-005 
-6.043879400915133e-006 
-7.166640753192055e-006 
1.994285713540506e-006 
5.574018292973244e-007 
-4.74045547376065e-006 
-1.099219688240674e-005 
5.170638433325074e-007 
-5.204135717288365e-006 
-1.395436128251199e-006 
2.922553346911223e-007 
2.540029646112553e-006 
4.906469241585062e-007 
-1.436997442319773e-006 
-9.873393134129988e-006 
-5.288214394448619e-006 
-9.502647567889653e-006 
-4.523830602728871e-006 
-2.633478670953416e-006 
-6.428865270552149e-006 
-5.115142061616241e-007 
-1.158290953955378e-006 
-5.967227594867556e-006 
-1.291584447420808e-006 
3.902429222624732e-007 
-7.543183089381417e-006 
-2.070481912106573e-006 
-6.164411683014917e-006 
-1.718708068758833e-007 
3.829798425197923e-007 
-3.67222624000309e-006 
-5.49669216233817e-006 
-1.013933843701544e-005 
-1.34063486256302e-005 
-7.570239737961903e-006 
-8.891760733378539e-007 
1.078204124479835e-006 
-4.982041289739517e-006 
-2.939792606831043e-006 
-5.298291634847366e-006 
8.049768149429889e-008 
-4.063666237088044e-005 
-3.22155215479225e-006 
-1.982046949114689e-005 
-6.814355502173154e-006 
-1.136569290793152e-005 
-2.675481310156053e-006 
-1.184249531241975e-005 
-1.846404590180448e-005 
-1.876645938262648e-005 
1.065515353691793e-008 
-6.095314324050252e-006 
-4.522078232242697e-008 
-3.111529264978748e-006 
-6.458962798010369e-006 
5.569011749303258e-007 
-1.199710155131029e-006 
-2.270802747836544e-005 
-7.524697785115812e-007 
-2.103078846809219e-005 
-6.355946137660486e-006 
-3.104254495782967e-006 
-8.344600540410713e-007 
-4.600727932623993e-006 
-4.594876706432291e-006 
1.665621356197779e-006 
-4.201272066154511e-006 
1.361511559594438e-006 
-1.385582754333436e-007 
3.826876532487375e-006 
-1.16679256070505e-005 
-2.771165508666872e-007 
-3.738129227417075e-007 
3.710757359938473e-006 
0 
-1.315755467594788e-005 
-2.471302249571295e-006 
0 
-1.818964594681011e-006 
-3.312586325696499e-006 
-5.875348911643314e-006 
-1.166791976028716e-005 
-9.110554724730138e-006 
-3.436773220444579e-007 
-6.916021072232962e-007 
-8.581763952055029e-006 
-9.199165436124148e-006 
-7.667416723824019e-006 
-8.443261522026555e-006 
-1.599596544104345e-005 
-5.465358263448374e-006 
-2.206536724745125e-005 
-3.405143322608259e-006 
-1.807613648228816e-006 
-8.855886569643969e-007 
-9.3697387261009e-006 
-9.053643057200679e-006 
-8.726610697503081e-006 
4.555865117032984e-007 
-6.227180860969755e-006 
-8.97532497102986e-007 
1.085755135849704e-006 
-9.246517609019759e-006 
-5.935948520897801e-008 
-3.899270241865596e-006 
2.013616572414116e-006 
6.06598163426839e-007 
-3.283731144829584e-006 
1.544663908159132e-007 
5.817681952094243e-007 
-1.615686785231384e-007 
-5.138331900113827e-006 
-1.352516619840734e-006 
8.083778942239076e-007 
-1.717568467298738e-006 
-2.070866930193451e-006 
-3.483946064025609e-007 
4.968087080957231e-007 
1.157632878390411e-006 
-1.279804276716175e-006 
-4.228229496792884e-006 
-9.187393302956926e-007 
0 
6.662391502177145e-007 
3.3257638073562e-007 
0 
-4.295620341856484e-007 
-1.021572448754416e-006 
-2.727216845900003e-006 
9.853156933619283e-007 
-9.776734568047006e-007 
-3.864283135320789e-006 
9.833019467452205e-007 
-1.407171800911195e-006 
1.489479142575172e-006 
-1.871154559445518e-006 
-4.282175030653006e-006 
-2.153391979853993e-006 
-9.849689516806185e-007 
6.332031561760817e-006 
1.114564237855546e-006 
0 
4.304551442264919e-007 
-2.464639450556545e-006 
-2.057366430014757e-006 
-6.46582103507112e-006 
-1.275806216993549e-005 
-2.439112187803084e-006 
-2.463788446615231e-006 
-2.139663675090479e-006 
-1.487952920737963e-006 
-1.662828226753648e-007 
-8.0049543114193e-006 
-1.073021717548203e-005 
9.713728812964936e-007 
8.555329986726698e-007 
-2.604157006862424e-006 
-8.882823790483843e-007 
-5.354981330598632e-007 
-2.242187803451128e-006 
-3.113628206201569e-006 
-9.937814249905187e-006 
-5.549560742849358e-007 
-1.927413964110463e-006 
1.293236022929766e-006 
-4.146301851286293e-006 
-5.178619034598522e-006 
-2.767748751091167e-006 
3.630141284810581e-006 
-2.963191861766633e-005 
-4.654952011536556e-006 
-5.393478082498857e-007 
3.011406971810088e-007 
-5.660499992457567e-006 
-2.330613473460519e-006 
-2.751641391480484e-005 
-1.44363056934883e-005 
1.331286479585444e-006 
-4.228583948493893e-006 
4.280543440032177e-007 
-2.477965639333509e-006 
-6.716386229294845e-006 
-1.071301532114099e-005 
-1.355204292592975e-006 
1.187342695811016e-006 
3.021708445150544e-006 
-1.20647104756123e-006 
-1.100268916622132e-005 
-2.896792755097425e-006 
-5.613934504326492e-006 
-6.367593573097525e-006 
-6.27432412200814e-006 
-1.802506273509205e-006 
-8.519891324686414e-006 
-4.007575659647983e-006 
-4.215700310950499e-006 
-1.764772958497065e-007 
2.288656810342601e-006 
-3.343158223084404e-006 
3.488583176280731e-007 
-1.522077618571496e-006 
-6.419012903836716e-006 
8.054732794315981e-007 
-4.382607571199319e-006 
-2.436714136625943e-006 
5.076434544444954e-007 
-3.395611605004299e-006 
-4.986909924892835e-006 
-1.701851368106388e-005 
3.978292278277501e-006 
-5.284863063002387e-006 
2.989576193229238e-006 
-1.906675505229499e-006 
-5.099775213118513e-006 
-8.989597246318083e-007 
1.128623457575509e-006 
-4.461531554953792e-006 
-1.012124328673686e-007 
6.305879703794652e-007 
-5.511474334209615e-006 
-4.121268060796511e-006 
-2.900132625742755e-006 
-1.452093992436679e-006 
3.531522580435864e-007 
6.878064932862876e-006 
-6.377935851438254e-006 
4.019309290859632e-007 
-1.504216825340049e-006 
-3.47291319467383e-006 
-3.631218441219673e-006 
-9.576651804319578e-006 
-4.985418861757849e-006 
5.420846906398414e-007 
2.599482492004769e-006 
-2.559039935692354e-006 
-8.921865486957316e-007 
1.733115470527699e-006 
6.252812164757586e-007 
-2.162561105997856e-006 
-3.981178826519646e-006 
-5.444693047873716e-007 
-7.959595476521626e-006 
-2.802376699402388e-006 
-4.428702924509604e-006 
-1.270174751514331e-006 
2.617110077337597e-006 
-3.359383437367923e-005 
-4.14219911970424e-006 
-1.575587908634341e-006 
-7.347899661774413e-006 
-2.065053950359759e-006 
-8.295769232102687e-006 
-3.265760692396566e-006 
1.527259419953335e-007 
-1.450346443682289e-006 
-7.196879517405829e-006 
-1.10259108195755e-005 
-1.923368185876862e-006 
-2.35546049688235e-006 
-3.909592125248083e-006 
-6.671091475978743e-006 
-6.555630533071339e-006 
-8.669086285217356e-007 
-4.761475015372903e-007 
-5.711476855519975e-006 
-3.910668097606954e-006 
-8.851309804685315e-007 
-1.470397469712492e-006 
-4.541142039718135e-006 
4.833712474825124e-007 
-1.015344758492788e-005 
-2.629155499164367e-006 
-5.711840532378593e-006 
4.714375996261618e-006 
-2.10020661623966e-006 
-3.032679089009267e-006 
-8.689838660180496e-006 
2.393040767188401e-007 
-1.135232796653722e-006 
-9.335740145372054e-007 
-2.098363309692173e-007 
1.753432794756777e-006 
-2.106668434061263e-006 
2.453234620792531e-007 
-1.32218956053543e-006 
2.017679995866931e-006 
2.807715670386576e-006 
-4.590599703867319e-006 
-1.564810987253899e-005 
-6.141769355343707e-007 
5.542609354527768e-006 
-1.494283953999942e-006 
2.232980991317788e-006 
1.055795695249639e-006 
-3.152043748829105e-007 
-3.815099239281045e-007 
1.437378030605845e-007 
-8.631460767035887e-009 
-2.985125971164561e-006 
0 
-2.401166650097283e-006 
-1.298222873448134e-008 
-2.412097235584534e-006 
-1.927365340671673e-006 
-1.686480766028278e-008 
-3.933092739176926e-006 
-1.920115386145127e-006 
-2.406244742102077e-006 
-1.061733745245312e-005 
-9.342370360330245e-006 
0 
-6.420845130506916e-006 
-6.994956714410467e-007 
3.849312204192957e-006 
-6.702012889845363e-006 
-1.014209427963052e-005 
-2.825544161846368e-006 
-7.108523429667422e-006 
-1.111021805417963e-005 
-2.450631330808556e-006 
-1.404335736218479e-005 
2.405587705549714e-006 
2.466204089414681e-006 
2.878207088398615e-006 
-5.376395380127619e-006 
-1.521799954820311e-005 
7.46784720598678e-006 
-2.528865795547624e-007 
3.122746793979824e-006 
-6.448607286798056e-008 
-7.836320611726374e-006 
-4.131943501683039e-006 
-2.498980007558995e-006 
-4.46382045512886e-006 
-9.260581135456954e-006 
1.864622318891374e-006 
-1.7563690378008e-006 
-1.954650712757043e-006 
1.083884739319623e-007 
-5.638413659429567e-007 
-2.998959368713915e-007 
-8.521475327248824e-006 
-1.917600322965919e-006 
-1.156845846051421e-006 
-1.964002260519567e-006 
-5.021247917245669e-006 
-3.053647264059811e-006 
-2.706939179865697e-006 
-1.484461909208334e-006 
-6.737762320250461e-007 
-1.120433943567971e-005 
-7.086842315967946e-007 
-8.370574859207672e-006 
-4.78298931735252e-006 
7.297167089771432e-007 
-1.637180593634954e-005 
-4.738956271449954e-006 
-1.345910649690136e-005 
-1.269839984435153e-006 
-1.790989544762824e-006 
2.71763732457112e-007 
-1.789965758066333e-006 
-8.837347111906201e-006 
4.74811716172722e-007 
-1.036506810000926e-005 
-6.305748039627704e-007 
-1.079527278744268e-005 
6.889824348867592e-007 
-2.40118218604561e-005 
-1.644347544765358e-006 
-9.789462453032564e-007 
-1.504876461655852e-007 
-5.064070278130029e-006 
-4.357577195240529e-006 
-3.605652847072586e-006 
-2.944358054158047e-006 
-2.179858151437465e-006 
-6.619486761271637e-006 
-3.74176070292436e-006 
-1.927808008879367e-006 
-2.212534825904154e-005 
-1.307974695032949e-006 
-5.394268886152802e-006 
6.314305840225014e-007 
-2.064004426162956e-005 
-1.157267318955569e-005 
-5.918733700269231e-006 
-3.715637731098339e-005 
-9.515103988314471e-006 
-6.459637723281632e-005 
-1.370609364247366e-005 
-1.090550150605015e-005 
-3.937041121831071e-006 
-4.15754683263442e-006 
-8.060339053866206e-006 
-1.933528263777383e-006 
-4.479137273493866e-006 
-7.890829674137608e-007 
-1.600429907371608e-005 
-1.825944123826539e-006 
-7.415972417630998e-006 
-7.996856718473588e-006 
-8.183936500882931e-006 
2.212477027499117e-006 
-9.335502824053194e-006 
-8.97817598613583e-006 
1.003341008481389e-006 
3.48264709378645e-007 
-4.645218474502667e-006 
-3.167496977936656e-006 
-2.083241717080817e-006 
6.600942684240871e-006 
6.565341706134869e-007 
3.454580236398256e-006 
-3.890625121599407e-006 
1.468494047717937e-007 
-1.939405860257593e-006 
6.314314993759293e-006 
1.457620498020969e-008 
6.352688348437028e-007 
-1.288455022125622e-006 
6.772239911270429e-008 
0 
-5.964011291186385e-007 
-5.88015101007224e-007 
1.265404871061157e-007 
-2.863333293485797e-008 
-3.322439169227686e-006 
-4.822957760250111e-006 
-1.598191399270209e-005 
-3.090383357795345e-006 
2.050683670482655e-006 
-2.246444966140977e-005 
9.482009723652925e-007 
-1.508114230601491e-006 
-4.516204663173752e-006 
-1.941269557986132e-006 
-3.169569838244143e-006 
-1.488114801225724e-007 
-7.719991005761893e-007 
2.042893637173705e-006 
-1.214713005503488e-007 
-6.857382779500145e-007 
-1.153635745321263e-006 
3.444146911648079e-006 
-4.537262084878326e-006 
1.470666623676494e-006 
-2.796092319662172e-006 
-6.898693864278988e-006 
-6.815573773771048e-006 
2.302034208497713e-006 
-2.377919581202793e-005 
-4.409295445713584e-006 
-2.238948647816595e-005 
-3.025053622158104e-005 
-1.028982355293354e-005 
-3.638065131430436e-006 
-2.472043716742669e-006 
-6.166866366559864e-006 
-7.402609696039967e-008 
-3.918444837185873e-006 
-2.768833885981416e-006 
-2.902901533659559e-006 
-1.553191723270561e-006 
-8.658506414119499e-006 
-1.513668401635128e-005 
-5.1795367118935e-006 
-6.735479473779918e-005 
2.339279919383997e-006 
-2.494478815750103e-005 
-3.230966423196932e-007 
-2.263603189190609e-006 
-3.188810901468822e-006 
-8.174023124442226e-007 
2.751799354998513e-006 
3.707294603509947e-006 
-1.542041551795655e-005 
-1.447236817269009e-005 
-5.198167847940948e-006 
7.104776506581954e-007 
-8.429959038356042e-006 
-1.229864294300831e-006 
-1.200585882512155e-006 
-1.696876167799998e-006 
3.063314326491963e-006 
7.275500270666314e-007 
-4.156748263000308e-007 
-1.563335001694646e-006 
-4.995382242654046e-006 
2.131672056281218e-006 
-1.911077153238272e-006 
2.29616080636727e-006 
2.989248777702111e-006 
-1.396451541819653e-006 
-6.097289152361831e-006 
1.662510545493489e-006 
-2.431103627618816e-006 
-7.550101830595094e-006 
-3.429337660021911e-006 
-7.268635006113282e-006 
-2.842817478209968e-006 
1.459377570304032e-006 
6.164108753265625e-007 
1.376035455373023e-006 
-5.570099678503671e-006 
-1.414316787610648e-006 
8.634691992900087e-007 
9.089294540577331e-007 
1.143195890080676e-006 
-9.039197418424882e-006 
4.91678669857376e-006 
2.642410802781814e-006 
-5.992130727859231e-006 
-5.24673592816067e-006 
1.424934331828858e-006 
-1.493490216883923e-006 
-1.988026860619566e-006 
-8.652223971975536e-006 
-4.368772848100391e-006 
-3.072893527786969e-006 
1.405199378237459e-008 
7.652249993667523e-007 
-3.037366498576673e-007 
-7.261863188797671e-006 
4.075897017040544e-006 
6.80689519336694e-008 
-5.082950561118954e-006 
8.254913538112959e-007 
2.254721286719193e-006 
-3.321374037961708e-006 
-1.870914708825472e-006 
-6.78415095707904e-006 
-3.498319385883393e-007 
-3.307245563764146e-006 
-3.511936530674051e-006 
-1.192996969476012e-006 
8.354583248626963e-007 
-5.60297215457388e-006 
1.745241638789635e-006 
-2.858282305190088e-006 
1.829282437291677e-006 
-2.638896021049955e-007 
1.172345575887821e-006 
1.177420749057086e-006 
1.461154305315354e-006 
3.138823022505254e-006 
-6.71129945526406e-006 
2.860466068004301e-006 
5.229477291164145e-007 
-1.696643739999005e-007 
2.767486040171048e-006 
9.066599919763748e-007 
-8.125101229467182e-006 
1.840510127359637e-006 
1.511654549893785e-006 
-1.980734675616286e-006 
-2.761554824448069e-006 
-1.691608926004626e-006 
-1.151426035954815e-008 
1.725679168330129e-006 
-1.142682901202795e-006 
-3.434417450777214e-006 
-2.77309931080146e-006 
4.62983197134432e-007 
-1.802249558249611e-007 
1.043971760640566e-006 
-4.324221169036616e-006 
1.545830034414658e-008 
-3.195394388659449e-007 
-4.714230778078305e-006 
-1.562384896436451e-006 
-1.464835322457821e-006 
-1.073761238490581e-006 
-2.119190406153173e-006 
-3.602960349737723e-006 
-2.212489488641523e-006 
-3.595112550397626e-006 
-7.043317466162167e-006 
-2.871224357176093e-007 
-2.018252954010498e-006 
6.110932402213247e-007 
-3.537493348232929e-006 
-2.417065176501379e-006 
-3.723153494257541e-006 
8.927420085751492e-007 
-4.494477586815903e-006 
5.51672666146229e-007 
7.282296700945841e-008 
-1.207650949804548e-006 
-1.769360781435563e-006 
-1.747127532634513e-006 
-7.255329205352804e-008 
1.823006435513516e-006 
4.06467147603412e-007 
-4.29811065092875e-006 
-4.784626481308402e-006 
1.519045089853049e-006 
-1.149577304795213e-006 
-1.073994546735654e-005 
-5.779509385558037e-007 
5.37047658462176e-007 
-3.552382474389438e-006 
-3.28019351252072e-007 
3.134819586178848e-006 
-1.236702712595754e-006 
-4.154296736607275e-006 
-1.844925352659559e-006 
-1.249577379452608e-006 
1.701400577767469e-006 
-2.676245159320769e-006 
-9.524643711868744e-008 
-5.262228063549042e-006 
1.581427654333072e-006 
2.368430560873245e-007 
-2.040826674917014e-006 
9.759141862457495e-007 
1.27282264031104e-006 
7.559786784958358e-007 
-3.611867138842129e-007 
1.508826351428555e-006 
1.232785585010961e-006 
8.234658506744032e-007 
-6.607585580361466e-007 
-3.777116913582286e-007 
1.532427997162009e-006 
-1.423194194127774e-005 
2.340427298870795e-006 
-4.218469705171539e-006 
-5.176591513018375e-006 
-1.356537825258639e-006 
-7.636054592295072e-006 
7.417822010718804e-007 
2.185327106199318e-006 
-1.777341933537416e-006 
-9.88705941249155e-007 
-8.089798560583636e-006 
6.826441244170098e-007 
2.101372218720488e-008 
-1.676695583428184e-006 
1.096507897455299e-006 
-2.111413485845299e-006 
-5.992415115060885e-006 
-4.242393734652744e-006 
-1.265054099702652e-006 
3.917983649755299e-007 
-5.720984758657591e-007 
-4.511144285298555e-006 
-2.34438541238199e-007 
1.361160093294431e-006 
-2.424113814446129e-006 
-1.917804986019014e-006 
8.709182459120731e-007 
-4.836572288627982e-006 
-1.02474874800358e-006 
-1.196528846203986e-006 
-1.203789056612149e-008 
7.815742462962821e-007 
-8.909688743057179e-006 
1.01757007708025e-006 
-3.603969431949709e-006 
1.023262185509241e-007 
1.376149051408505e-006 
-1.55215891658445e-006 
9.527499206795442e-008 
-3.418800457578935e-006 
9.591089398775124e-007 
5.041946687726354e-007 
4.896022398324542e-006 
4.137999389377349e-007 
2.174447858452627e-006 
-8.43819950364939e-007 
-6.360683739821661e-007 
1.857264265435286e-007 
-1.766227632830464e-006 
-2.636981381519406e-006 
-3.204028485692884e-007 
-1.459229380008755e-006 
-1.455953286787027e-006 
9.997562583912112e-007 
1.180299176445136e-006 
-1.402014695119953e-006 
-1.115724284716635e-007 
1.963986263731062e-006 
1.614736895203221e-006 
-2.178964863996645e-006 
-3.071113812092967e-006 
-7.24531138865424e-007 
-1.220801719750298e-006 
2.231901649406419e-006 
-1.603248981485002e-005 
-1.57964909701602e-006 
-9.237436744517835e-006 
-6.121053271000906e-007 
-5.057474916314006e-006 
-4.724425156222783e-006 
-3.655997944904658e-007 
2.106071554620844e-006 
1.113129340764941e-007 
1.259547754423659e-006 
-4.579854953188822e-006 
-1.842157982162361e-007 
-5.240974217076696e-007 
-7.276992351921609e-007 
3.301796357437433e-007 
-6.377886149704555e-006 
-1.288528693850823e-005 
-1.751916508410389e-006 
-6.445422466941443e-006 
-2.251732908001266e-006 
-2.027463793903389e-006 
-5.172011145612485e-006 
1.660617901715706e-006 
-2.07007933464788e-006 
-6.722155492114499e-006 
-2.378992098352613e-006 
-3.378839640019008e-006 
-3.016038497197712e-006 
1.217722286087762e-006 
8.008297055998494e-007 
4.920063976856482e-007 
-1.800838078426253e-006 
8.782735648643134e-007 
7.562856788669203e-007 
1.290895762822102e-006 
-2.796381484137105e-006 
-2.911400809148654e-006 
-2.260886460989888e-006 
1.678082017392234e-007 
2.849181007866259e-006 
2.696276211375117e-007 
-5.801346389960824e-007 
1.505399166357839e-006 
5.2979016138109e-006 
-6.219711127173805e-006 
-5.427016670524323e-006 
-3.471278814136712e-007 
1.209293035418588e-006 
3.514145037935038e-006 
-5.095573738496484e-007 
-1.430808728094634e-006 
2.598596078543735e-007 
1.459671654797688e-007 
-3.63362410207263e-006 
1.281972200393521e-006 
1.291797246058273e-006 
-1.132402161372503e-006 
6.233084549871581e-007 
-2.323726707815107e-006 
2.906647478013997e-006 
3.948157335351667e-006 
-1.481715727815328e-006 
1.523431120096199e-006 
-2.325482545318286e-006 
-7.059641181986085e-006 
-1.192557466966126e-006 
-2.510725846841728e-007 
-2.878701656530327e-006 
-3.080865502558271e-006 
-1.527844526585472e-006 
4.286624047683429e-007 
8.065449594651495e-007 
5.620438999819932e-007 
-5.153244253116519e-006 
2.065607732850302e-006 
-2.115702858975981e-006 
-5.445377742392599e-007 
-3.707220337960817e-007 
-3.270869455276742e-006 
-7.54808893749233e-006 
-1.6599772284911e-006 
-2.542526610113274e-006 
2.823770069322383e-007 
-3.553573275040032e-007 
-7.842004748942934e-006 
-3.022757499485825e-006 
1.216596925984929e-006 
-9.349198224975005e-007 
2.059305688519252e-006 
-1.114739782983461e-007 
-6.980575505598022e-006 
-6.757067757235479e-006 
-9.134507755098198e-006 
-2.801585519001508e-006 
2.34323353029371e-006 
1.759084140572458e-006 
-1.535838452961699e-005 
-1.167902826952863e-006 
-1.599510154540071e-006 
-3.150856325164432e-006 
-7.373667740179364e-006 
-5.81598909965019e-007 
-3.567754386689735e-007 
-3.511468332559002e-007 
-5.263360482260206e-006 
5.253779375792043e-007 
-3.566269243367168e-006 
-1.320574418874366e-006 
-1.370263317580182e-005 
1.068079386908711e-006 
-9.306690856734473e-006 
-7.924890219473787e-006 
-1.01604149716101e-005 
-4.51615439131322e-006 
1.983079994120556e-006 
-7.901792913008426e-007 
-2.774427877834415e-006 
-4.276886382877134e-007 
-8.873262283500633e-008 
3.449411738116196e-006 
3.773012931515002e-007 
-2.017346247491761e-006 
-2.034977560614984e-006 
-3.90107101323689e-006 
6.111065175322079e-006 
-2.041942722047699e-006 
1.000743455052774e-006 
-5.774229996405488e-006 
1.491842765246784e-006 
-1.37493118380095e-006 
-1.001235156037158e-006 
8.073541794160466e-007 
-2.637882997393182e-006 
-4.652925527081224e-006 
6.986058890971288e-007 
-1.194945887465442e-007 
2.38377030587821e-006 
-1.718330887899635e-006 
7.490570657302092e-007 
2.755486940900933e-006 
2.102375510346678e-006 
-1.558697112782435e-006 
1.320668099849063e-008 
-1.447070535682779e-006 
-1.647039545008128e-006 
-5.082371945906069e-006 
-3.997629899617605e-006 
-2.058165882413796e-006 
2.325916666967747e-006 
-3.947179944822232e-006 
2.324605861752418e-007 
1.223235289324486e-006 
-6.128999171314125e-006 
2.600300846499458e-006 
-1.010349725838969e-006 
1.502460858172481e-006 
-2.522230005818686e-007 
-1.143351217527716e-005 
-3.997197762712858e-007 
2.469571437262589e-007 
-9.786440990020118e-006 
-1.079447713250406e-006 
-8.831943079755747e-006 
-5.23659278352477e-006 
-2.118601986752705e-006 
7.972061785916241e-007 
7.593921021985591e-007 
-2.846268743237965e-007 
-4.561302879742928e-006 
1.115410097248405e-007 
8.275744668863265e-007 
1.297843761755085e-006 
1.135137218680548e-006 
1.285720230185324e-006 
-1.630854822921868e-006 
-6.992249517973635e-007 
-5.443165164274265e-006 
-9.638953547525553e-006 
3.770661908609845e-007 
-4.301835623529094e-006 
1.427620850140714e-006 
-4.84502006175385e-006 
9.936583594391821e-007 
-7.949121646410921e-006 
1.768481442829857e-006 
-2.549319542982163e-006 
-1.897612405405786e-006 
-3.305570113438418e-007 
-1.363626924277903e-006 
-1.779970347352994e-006 
4.109683106127541e-007 
5.761843082359065e-007 
-3.084041906473555e-006 
-2.827749716650037e-006 
-2.708056835603559e-006 
5.625449982580527e-007 
1.713836390921121e-007 
9.727042395642047e-007 
4.229627038860266e-007 
-4.810861874459279e-006 
-4.887417947986367e-007 
1.383945887376039e-006 
-4.258222641323774e-006 
5.592197902954418e-007 
-6.288068709939545e-006 
-2.071287963869374e-006 
1.112125024512263e-006 
1.333396493447873e-007 
-8.985164254685174e-007 
2.674301399185091e-006 
1.822803321828707e-006 
-3.885498100332065e-006 
-1.788934738573852e-006 
-8.533727142908329e-006 
-4.566442880618688e-008 
4.293570069117031e-008 
-7.715715420923083e-007 
-2.197730620689218e-006 
1.117835778115536e-006 
-8.143853613221679e-006 
-3.023206128542899e-006 
-2.631420060763217e-006 
-2.694321814394469e-006 
-4.630787482113393e-006 
-3.589852834612249e-006 
3.0808273308006e-006 
2.575814060923462e-006 
-2.217571617816253e-006 
1.959221372226713e-006 
-9.769089963914526e-007 
-9.644531212005303e-007 
3.275021194836094e-007 
6.111207084997117e-008 
-5.038466419810653e-007 
3.003153571355919e-007 
-3.670372048389836e-007 
2.256265001496874e-006 
1.107672901831778e-006 
-1.481406441232358e-006 
1.351485873116055e-006 
-1.544795388458855e-006 
1.664722140749111e-006 
-6.581182459779229e-009 
6.513081539092794e-007 
1.093051720142537e-006 
1.858079673359201e-007 
1.091447651779498e-006 
-7.659751366057286e-007 
1.174343798736335e-006 
6.633207994387455e-007 
-4.124357576764846e-006 
1.53940791959251e-007 
-1.241175874139935e-005 
-1.281995027305996e-006 
-2.026584719323504e-006 
-1.170863531294966e-006 
-1.178862301350103e-006 
-4.105369648901756e-006 
-7.65031253004455e-006 
1.196374618438858e-006 
-2.957951289897025e-006 
-5.739573404948883e-006 
5.532693409998479e-007 
1.357748738907376e-007 
-2.207747446525374e-006 
2.722353046392918e-006 
-6.326831385174714e-006 
-3.649184226877782e-007 
-5.908160897858633e-006 
-3.091016089190198e-006 
7.843656722675984e-007 
-1.397433302820084e-006 
-4.947321927717697e-006 
-2.140689204926601e-006 
8.171605449583497e-007 
1.118008041046931e-006 
-2.061081402623264e-006 
-5.401921968419429e-007 
5.294654122112443e-007 
1.600052260819446e-007 
-1.424620862215393e-006 
-8.03799560841353e-007 
-6.726515991596834e-009 
4.878614932233255e-009 
-9.096439828066529e-007 
-7.696847711040184e-007 
1.33830933894846e-006 
2.147520047886287e-006 
-4.856395383558112e-006 
-1.654542637532269e-006 
-2.260714082783371e-006 
2.511972507201689e-006 
1.146596160024711e-006 
3.048752887132226e-006 
-2.364030778268604e-006 
3.507829319176635e-006 
-7.278660349868384e-007 
8.900429533948147e-008 
-1.869478051955864e-006 
-2.113827681489967e-006 
7.498115589700723e-007 
7.952121693164684e-007 
-2.173404221118231e-007 
-1.812548070913582e-006 
9.984000190579242e-007 
-8.58872737089885e-007 
-1.432248624031514e-007 
-6.223193189417154e-006 
3.370357731044167e-008 
7.34009771823959e-008 
5.337323444416416e-007 
-2.914921906089503e-006 
-9.407096618889919e-008 
-7.074088894426751e-008 
5.274175423788814e-006 
2.240687508643126e-007 
-6.85383367121214e-007 
1.329128239330905e-006 
9.31666321366663e-008 
-1.326286236527623e-006 
-2.616250828332462e-006 
3.618257500843792e-007 
-3.578896735875414e-006 
-9.621546530431846e-006 
1.399906401358093e-006 
-1.397743793083614e-006 
-2.725891641197733e-007 
-9.581635322922747e-007 
-5.142427274215343e-006 
-8.320113498066664e-008 
-4.086515338243119e-006 
1.706035595565433e-006 
-3.168256487260296e-006 
6.420788383353169e-007 
-1.63699902270863e-006 
7.945271747044558e-007 
-1.147755024083879e-006 
-2.570822399108096e-006 
-1.558792589715966e-006 
1.044038739875491e-007 
-4.807073507557966e-006 
-1.73065729043682e-005 
-1.550519419366484e-006 
-2.420182900824695e-006 
6.696314552315882e-007 
-2.552555561684834e-006 
-1.119707422706748e-005 
-3.611827641387124e-006 
-6.267283265464241e-006 
-6.140282609147991e-006 
4.328969028737693e-006 
-3.095960152495138e-006 
2.430733382435577e-006 
1.373746686795789e-006 
-6.296690555661146e-006 
-9.411960132407808e-007 
-1.195803564178612e-006 
-4.391425598502396e-006 
6.091684198307167e-007 
-4.512094888457474e-006 
-1.736526325701089e-006 
-7.642873164018067e-008 
-1.141239758357596e-005 
-8.050151251371033e-006 
-3.209743190561591e-006 
-4.395568878115595e-006 
3.446939251061388e-006 
-8.038291353461232e-008 
1.810349569906694e-006 
-8.50691162349997e-006 
-9.535843788756545e-007 
-6.076158416671724e-007 
2.297227018087893e-007 
7.135973495545237e-006 
1.788371237809556e-007 
1.90013758488268e-006 
1.981079276034746e-006 
1.692095469110652e-007 
-3.00079716504538e-006 
1.343463894891148e-006 
-1.843935049432673e-006 
1.432107116288034e-006 
-2.110785973510769e-006 
8.677812725114902e-007 
3.029875849176421e-007 
-1.998451631777805e-006 
-3.986446686774456e-007 
8.373571182668755e-007 
1.171532028427344e-006 
-8.449820116331174e-006 
-2.062225088206927e-007 
3.053587182475139e-007 
-4.330387944522307e-006 
2.872282811791031e-006 
7.414159061870807e-007 
-1.560771961210878e-006 
3.054142394551998e-006 
-1.118423310914996e-006 
-2.089046121816408e-006 
-3.391918429343676e-006 
-2.665705880476191e-006 
1.194217019991608e-006 
-6.734110715322792e-006 
-5.052663871504632e-006 
3.833398989160116e-006 
-2.841441882814223e-006 
2.192081945220174e-007 
4.697157486735965e-006 
-2.394606956298632e-006 
-2.665333413033183e-006 
-1.213032369160207e-005 
-4.376797668472773e-007 
5.081924766676472e-007 
1.809425328521378e-006 
1.266263306200193e-006 
-1.877029491032793e-006 
-2.893933286248877e-006 
-1.180233114861852e-005 
2.575702456538545e-006 
-3.695402144324108e-006 
-9.526278025784819e-007 
-2.661103851708096e-006 
1.713953233674281e-006 
2.468429822932726e-006 
-7.317171377229383e-006 
3.296279831579819e-007 
-1.983129441616699e-006 
1.182679110782229e-007 
-5.323337800370912e-006 
-1.135120416116633e-006 
-1.573180519119928e-006 
3.211343518895815e-007 
-1.017986324473003e-005 
3.20661201950104e-007 
-3.751133472540497e-006 
2.795037256807631e-006 
-8.536035375905426e-007 
-1.569030567703504e-006 
-2.133254483964644e-007 
1.662478013637522e-006 
-1.899350293233082e-006 
-3.82472073017341e-007 
-1.29120389507717e-006 
-6.027375172482339e-007 
5.815971844130229e-007 
-1.486469265818827e-006 
-3.103595130016524e-007 
-2.473502625005835e-006 
-7.491588142817696e-006 
1.604157281119961e-006 
-1.655725257831554e-006 
-1.428363946304146e-005 
5.58263534539078e-007 
2.486481606233732e-006 
1.414923752224847e-006 
-1.46650869299093e-006 
3.168110407150913e-006 
-1.00296135817022e-007 
-1.117001373200425e-006 
1.232212896507059e-006 
8.330224614160476e-007 
-1.258214256532562e-006 
-1.228020439442588e-006 
-5.516930402601232e-006 
2.496650427141238e-006 
-2.009766823102967e-005 
-5.613031780652871e-007 
-2.421212175960752e-006 
7.577354718050152e-007 
-7.898710707101919e-006 
-3.471186134593088e-007 
-6.216595855516129e-006 
-1.386431808973291e-005 
-9.211255568263346e-007 
8.305665285760268e-008 
-7.928719850394058e-006 
-1.22008089503931e-005 
-4.350409453981482e-007 
4.292262471784593e-007 
2.653137698078888e-006 
1.319495352148599e-006 
1.03087691201503e-007 
-8.841287507959405e-007 
-1.024930007190544e-006 
-5.026468095386634e-007 
-1.16150013702326e-006 
-1.373351274102852e-006 
-3.34867424473898e-006 
2.516851070683383e-006 
4.004837711342088e-007 
1.533064640715454e-006 
2.153298099015226e-007 
9.553882903470873e-007 
-1.624238577817866e-006 
1.551388273402499e-006 
-2.818250510749449e-006 
-5.29157939011563e-006 
2.129644735560432e-006 
1.913231687846945e-006 
2.186284355104514e-006 
-2.739978270282198e-006 
-2.412679372962229e-006 
-8.693079297411366e-007 
-1.329893004373006e-006 
-2.201012331711428e-006 
-4.230942429663206e-007 
-9.625137523832347e-006 
1.596388602200795e-006 
1.593516842303413e-006 
-9.298237392043601e-008 
-4.427556537553064e-006 
-1.13813246606945e-005 
5.084487387404683e-007 
-4.265277240881704e-006 
3.75208651329485e-007 
-1.058230131639419e-007 
-1.22182581586774e-005 
-4.756354572504596e-006 
-1.513382756159372e-006 
-2.150649375958541e-006 
2.906190674402047e-007 
-1.942378392156427e-006 
-2.140641855304298e-006 
-9.363667844680811e-006 
-2.471967419455767e-006 
-1.286940939754116e-006 
-1.781427211003599e-006 
-2.866278996526262e-006 
-1.101904370371386e-005 
-2.012035711787258e-007 
-6.077863395049724e-006 
-2.870307242465169e-006 
-6.304821620448606e-007 
-9.272437473858051e-006 
-1.695893205319382e-006 
-1.299741383963043e-006 
-2.271993143563666e-006 
8.59771245553656e-008 
