solver_type L2R_L2LOSS_RANKSVM
nr_class 2
nr_feature 6620
bias -1
w
-1.451247982945609e-005 
-6.743766135077323e-006 
3.046575734079618e-007 
3.638972885829485e-007 
2.651333479219733e-006 
-3.337200602399567e-006 
2.423480841234481e-006 
4.574410561179816e-007 
-3.930181382763438e-006 
-1.412203180919352e-006 
0 
1.541385690815838e-006 
-4.208355334095441e-006 
-8.371324933839934e-007 
7.071139376578361e-007 
0 
-1.514497720809802e-006 
-3.342550795973763e-006 
0 
5.022089874596157e-007 
2.800699924694113e-007 
-2.161932628728949e-007 
0 
-9.862982009731929e-010 
-1.035330102671592e-006 
0 
0 
-9.601971875241232e-007 
0 
0 
0 
-1.500340872538458e-006 
-1.734767050571017e-006 
0 
0 
0 
-1.053018447527536e-006 
0 
0 
0 
-9.862982009731929e-010 
0 
0 
4.867056727287017e-006 
-9.862982009731929e-010 
0 
6.306857660589191e-008 
-2.298432960575873e-007 
-1.610551945879832e-006 
0 
-4.188293842955851e-006 
-1.074262440348769e-006 
-6.632771238021491e-007 
-1.51739248023764e-007 
3.300114716569971e-006 
-2.711587180192027e-006 
-7.173214163853708e-006 
7.091884327117228e-007 
8.581563869410965e-006 
-6.717709585605167e-006 
-5.255690103886367e-006 
7.025834880354021e-006 
5.950364393250417e-007 
-1.903110803373477e-006 
4.300481378936625e-006 
1.185830393296538e-006 
1.835218978770789e-007 
9.005119021002724e-007 
1.525993320229924e-006 
-2.069554287757557e-006 
6.190288796335686e-007 
2.24080651597749e-006 
3.447586353285812e-006 
-1.487875884509631e-007 
0 
0 
-1.391241437087652e-006 
0 
0 
0 
0 
0 
0 
-5.758666540941757e-007 
1.626451564384699e-008 
0 
3.808570860136019e-007 
7.834944647178975e-007 
0 
0 
1.680779255124401e-006 
2.24080651597749e-006 
-2.158859541435418e-007 
0 
0 
-2.321033196800708e-007 
0 
-5.410699138150769e-008 
7.547036098400178e-007 
0 
2.800699924694113e-007 
-8.92557347145672e-007 
-1.615799535751042e-006 
2.319218768564737e-006 
-1.857243734619515e-006 
5.022089874596157e-007 
0 
-1.050979619206733e-006 
0 
-2.642878743977927e-006 
6.445340795232493e-006 
4.500548983515585e-006 
1.53444562172734e-007 
-4.545774914246352e-007 
5.51391741863361e-007 
8.029757254897601e-007 
-7.577839063742165e-006 
-2.283988445494482e-005 
-2.715004386174014e-006 
3.419542423566859e-006 
-1.592213922625207e-006 
-1.25456817041678e-005 
-2.974715860314383e-007 
-2.612163898271188e-006 
-3.621613338300649e-006 
4.0455624436048e-006 
1.208508817732706e-006 
-7.494456788612412e-006 
-3.636211945108467e-006 
0 
-1.126653307150535e-006 
-1.90221309742244e-007 
1.738948337232312e-006 
1.836293708405122e-006 
1.865070046952529e-006 
9.796230399682867e-006 
0 
0 
0 
0 
0 
-1.919054711432641e-006 
1.962713657061431e-006 
2.333028076141491e-006 
0 
-2.321033196800708e-007 
0 
-6.614909084232202e-007 
0 
1.758122642603321e-006 
-1.126653307150535e-006 
8.316307424158949e-007 
0 
-2.183985541239165e-006 
0 
-7.924014042821081e-007 
-2.321033196800708e-007 
0 
0 
0 
3.808570860136019e-007 
-2.05153181419709e-007 
2.860185455408087e-006 
0 
-1.126653307150535e-006 
0 
-2.10612069585698e-006 
0 
-4.821487688544185e-006 
-7.388090879524906e-006 
2.426940290717544e-006 
1.738364949024056e-006 
-4.881455366747088e-006 
4.936714685069216e-007 
-3.239122814563651e-006 
-1.112251093190814e-006 
1.278643903190042e-005 
-4.025879543543355e-006 
-4.838578548647008e-006 
-2.891630410824254e-006 
-1.289162096291337e-006 
0 
-4.624273072236994e-006 
1.242011116013221e-007 
-3.484656014942097e-006 
-5.693745309470983e-006 
-4.38328299524363e-007 
0 
-9.862982009731929e-010 
0 
0 
0 
2.728624029247415e-007 
-1.378969954530293e-006 
8.100670674313144e-007 
0 
0 
0 
0 
1.725081384482022e-008 
-7.924014042821081e-007 
2.268222123209732e-007 
4.95589095648952e-007 
0 
-2.161932628728949e-007 
-2.158859541435418e-007 
0 
0 
-1.63652227436391e-006 
1.308160294901634e-008 
0 
0 
0 
-5.974049284509687e-007 
5.022089874596157e-007 
-1.278429323567505e-006 
2.185997581765727e-007 
0 
0 
0 
-4.331593959543913e-006 
-1.289469405020691e-006 
5.379089625142136e-007 
-3.34061055345272e-006 
6.488145153750134e-007 
7.687877742094864e-007 
5.022089874596157e-007 
8.77521648337106e-007 
-1.545299476030541e-006 
-8.552421077014948e-007 
-3.740857961705511e-006 
-1.252753603275782e-006 
-1.071452250287517e-007 
3.555117042981297e-007 
2.178327556823079e-006 
-8.361472642032813e-006 
7.699419797402442e-006 
-5.165220832221903e-006 
-2.770841992983084e-006 
9.985775111746833e-007 
3.507038226018916e-007 
5.050296642664276e-006 
6.529070744964595e-008 
9.479504053220886e-007 
-8.907501737847322e-007 
-3.37852101991053e-006 
0 
-1.093376102558787e-006 
-1.640227752835036e-006 
2.738026270856091e-006 
0 
0 
0 
1.843489217626707e-006 
0 
7.319599564737726e-007 
3.563445286379414e-007 
0 
0 
0 
0 
2.120891400388192e-006 
0 
-1.135333640086767e-006 
0 
0 
0 
0 
0 
0 
0 
-6.614909084232202e-007 
0 
0 
-1.391849917339382e-007 
0 
0 
0 
-1.073276142147795e-006 
5.061650972351812e-006 
0 
-7.924014042821081e-007 
0 
0 
0 
-1.903110803373477e-006 
2.77756292345913e-006 
3.399978296348894e-006 
3.364634326007758e-006 
-1.230047238038322e-005 
2.59359719877166e-006 
-2.101582512795007e-006 
-6.00617618412439e-006 
3.939379327338551e-006 
-4.390640044802426e-006 
-4.091674233887389e-006 
-1.172783083333154e-005 
-4.180864804593425e-006 
-6.658553011818511e-006 
0 
-8.836159365698542e-007 
1.541385690815838e-006 
-2.367930535984081e-007 
-5.960801526308815e-006 
-7.837140698577349e-008 
-2.405082630718042e-006 
0 
0 
0 
0 
0 
-8.321314376581217e-007 
-2.15330954175583e-006 
0 
0 
0 
0 
0 
0 
-6.871744317377358e-006 
2.495298776079616e-006 
0 
0 
-4.361552857894594e-007 
0 
-7.924014042821081e-007 
5.503575151728407e-007 
-1.746986516669701e-007 
0 
0 
1.734085290582031e-008 
-2.321033196800708e-007 
0 
0 
0 
0 
0 
5.474145564872351e-007 
-2.697502451305885e-006 
-1.704282554750205e-006 
6.775229329631306e-007 
0 
0 
-9.826227140243524e-007 
-1.90221309742244e-007 
2.405202861905679e-006 
1.235203545182848e-008 
-4.744234127082773e-006 
-5.700314347529554e-007 
7.843027940622351e-007 
-5.891764885643478e-006 
-1.87768069194152e-006 
-1.278031334748806e-006 
-6.585237563255092e-005 
2.678233907695991e-006 
-5.305355307990065e-006 
-2.390065126999508e-006 
-5.698815922906672e-007 
-1.726264455182995e-006 
-4.285490366495824e-007 
2.341113395724478e-007 
-2.237362706241906e-006 
2.556817292086407e-006 
3.231920940950347e-006 
-1.17687457921897e-006 
0 
-1.90221309742244e-007 
0 
-6.154672796492833e-007 
0 
-6.368176830194583e-007 
-7.093990047912727e-006 
0 
0 
0 
0 
0 
0 
-1.903110803373477e-006 
-2.20745613146755e-007 
0 
0 
0 
0 
0 
2.294446034128879e-006 
5.996290332541673e-007 
0 
0 
0 
1.127586419799419e-006 
5.022089874596157e-007 
0 
0 
-6.420920574393589e-007 
-3.029764110524016e-006 
3.808570860136019e-007 
-4.524198014333056e-007 
-6.614909084232202e-007 
-3.435137026480766e-006 
1.725081384482022e-008 
0 
-2.198929752005738e-008 
-6.614909084232202e-007 
-2.129873908747573e-006 
-7.938731579274099e-007 
6.490301444999527e-007 
-2.736415935125722e-006 
-6.345239765148365e-007 
2.953709070977446e-006 
3.793479424358765e-007 
3.947787141741452e-008 
-2.399456846998522e-005 
-3.273160178783459e-006 
-7.188715736670896e-006 
2.568807590505868e-006 
-1.714045785591338e-006 
1.411816031471722e-006 
1.583771123311838e-006 
-5.703316122578522e-006 
7.953648524074172e-007 
9.20828456117302e-007 
-2.654054895801643e-006 
0 
2.039757364244785e-006 
-1.193112465407235e-007 
-2.199929449298332e-006 
1.541385690815838e-006 
2.24080651597749e-006 
-8.371324933839934e-007 
1.157368044702468e-007 
0 
0 
-6.614909084232202e-007 
0 
0 
0 
7.071139376578361e-007 
1.011476015091017e-006 
3.808570860136019e-007 
-1.903110803373477e-006 
-9.826227140243524e-007 
0 
0 
-8.896763025330852e-007 
0 
7.547036098400178e-007 
0 
0 
0 
0 
-2.161932628728949e-007 
0 
7.071139376578361e-007 
0 
1.541385690815838e-006 
-3.125107349511105e-006 
0 
-1.008287358425652e-006 
-9.999781653472482e-007 
-1.706317250586161e-006 
-5.540769293706505e-007 
0 
-8.541741294610337e-008 
8.553511542925018e-007 
4.494315337740577e-007 
-2.573266160875934e-006 
1.936467558529008e-006 
-2.565669477028393e-006 
-3.996869087686966e-006 
5.168080163650717e-007 
-1.586745574484545e-005 
-9.198430389496834e-006 
3.092406976252378e-006 
2.200531436948107e-006 
7.154696896891252e-007 
-4.286398662722199e-007 
-1.156557835370592e-007 
-5.466203527852781e-006 
-5.155926182151921e-006 
1.841712817742875e-006 
8.513380662060122e-007 
2.24080651597749e-006 
1.71168060681665e-006 
9.614992046796725e-007 
0 
-2.48540993398114e-006 
7.071139376578361e-007 
7.547036098400178e-007 
-2.607087920478969e-006 
0 
7.071139376578361e-007 
2.096456293497423e-007 
-8.352032618892177e-007 
7.071139376578361e-007 
7.319599564737726e-007 
0 
0 
0 
8.216438173793442e-008 
-5.974049284509687e-007 
0 
0 
-2.321033196800708e-007 
0 
0 
0 
-2.20745613146755e-007 
3.898119952472077e-007 
0 
0 
-1.11070939909137e-006 
0 
0 
1.986643055156499e-006 
-1.393860309191088e-006 
0 
-2.316741882865505e-007 
6.245878438492712e-008 
-2.42177773636705e-007 
0 
0 
4.200154434782084e-006 
-1.069012731037575e-006 
3.431873066096055e-006 
-7.091670213752818e-007 
1.897223248142723e-006 
1.848097067364969e-006 
-4.085110499253386e-007 
3.985269457475551e-006 
-2.950808924775764e-005 
-1.447614443900945e-005 
-4.820349059352174e-006 
1.300110317956946e-006 
-3.200624696362323e-006 
-4.255551978223742e-006 
-2.7641124673203e-006 
-2.559679636883943e-006 
-9.042293033341539e-007 
1.541385690815838e-006 
-1.992347875556463e-006 
4.389666695255995e-007 
2.214757001014212e-006 
0 
-7.924014042821081e-007 
7.547036098400178e-007 
1.434487802232495e-006 
0 
-4.827682193340878e-007 
0 
0 
1.541385690815838e-006 
0 
0 
0 
0 
-1.11070939909137e-006 
0 
0 
0 
0 
0 
0 
0 
0 
0 
-1.963785800534528e-006 
0 
0 
-5.974049284509687e-007 
0 
0 
0 
0 
2.477771598017055e-006 
-7.924014042821081e-007 
2.327664577913369e-006 
0 
-5.974049284509687e-007 
0 
6.751052154445633e-007 
-1.752277107941063e-006 
-1.424819970012236e-006 
3.695915914586513e-006 
-8.361144650985846e-007 
-6.294279800463283e-006 
-1.462022166215749e-006 
1.481665403221767e-006 
1.343666444086603e-006 
1.121007608528247e-006 
-9.005635447852443e-006 
2.881983028714626e-006 
3.929885703891497e-006 
3.750076348631592e-006 
-7.204550546972162e-007 
-3.15328834250107e-006 
-8.803316368646322e-007 
-8.794189547007139e-007 
1.185652604932189e-006 
1.505708304125745e-006 
1.303401470010547e-006 
-2.014592112075659e-006 
-1.629533897666101e-006 
-1.185783472693273e-006 
0 
0 
-2.20745613146755e-007 
1.522868279224285e-006 
0 
1.541385690815838e-006 
-1.11070939909137e-006 
0 
0 
0 
1.295617902053096e-006 
-1.126653307150535e-006 
0 
2.013085643805611e-006 
-2.20745613146755e-007 
0 
0 
1.309274267731396e-006 
0 
0 
0 
-1.280610466122656e-007 
1.337463389358515e-006 
0 
0 
7.547036098400178e-007 
0 
0 
-1.126653307150535e-006 
-1.810523790091364e-006 
-2.161932628728949e-007 
-5.05538518463081e-007 
2.24080651597749e-006 
0 
-1.526125074974621e-006 
-1.766706702252166e-007 
-1.887224975477803e-006 
3.945792842078067e-006 
-3.785562013342809e-006 
5.28324075544409e-007 
6.178383540747002e-006 
3.203624740538749e-007 
-3.726428900606843e-007 
9.416134691165384e-007 
-1.417954890249591e-005 
-3.048095636204489e-006 
-1.279650406602447e-006 
-2.053383381430598e-006 
-4.965427205711247e-006 
-9.3462386130391e-007 
-2.670578915806036e-006 
-8.131302962678884e-006 
4.799241645231303e-006 
-3.57311643786012e-006 
4.692329787257856e-007 
0 
-1.073276142147795e-006 
-2.571899543955012e-006 
-1.396894838776934e-006 
1.073787177065777e-006 
2.722048981389635e-007 
0 
2.326734818718742e-006 
5.022089874596157e-007 
-1.126653307150535e-006 
2.297573294460794e-006 
7.071139376578361e-007 
0 
0 
0 
-1.126653307150535e-006 
3.808570860136019e-007 
-3.908043776840668e-006 
0 
0 
0 
1.003486358724061e-006 
0 
0 
0 
1.873686966843166e-007 
2.800699924694113e-007 
0 
0 
0 
0 
7.319599564737726e-007 
4.826767939447721e-006 
-2.060393913876271e-006 
3.865436155190371e-007 
0 
5.590231001498378e-007 
-1.10183621050771e-006 
0 
-7.021585136921151e-008 
2.229726008639909e-007 
-1.570289808255375e-006 
-1.91955192533538e-006 
-1.130065263030804e-006 
-5.029556453069155e-006 
2.582529146265903e-007 
-3.074495199625901e-006 
7.147415156426624e-007 
-1.088783129917464e-005 
-1.344339105666789e-005 
-7.378137369724428e-006 
-2.110558395581131e-006 
-1.608804432012043e-006 
-6.512792483134909e-006 
1.233645692676632e-006 
-6.757495262616826e-006 
2.179561392284285e-006 
1.527570091904599e-006 
-1.736339143912217e-006 
0 
1.557929617919839e-007 
-2.212555090623233e-007 
1.516103187073239e-006 
2.580378738803484e-006 
3.179144246023653e-007 
-5.212583740746984e-007 
4.25155459599335e-006 
2.800699924694113e-007 
1.541385690815838e-006 
0 
2.819099159997621e-006 
0 
2.352449247339177e-006 
0 
7.319599564737726e-007 
1.414227875315672e-006 
0 
1.346091005554537e-006 
0 
0 
7.242306462334899e-007 
2.800699924694113e-007 
1.519989690917978e-007 
-2.235336159301106e-006 
0 
-5.974049284509687e-007 
0 
1.015798123661314e-006 
2.24080651597749e-006 
-8.371324933839934e-007 
0 
-8.16431534681666e-007 
6.109620799903502e-007 
-3.011867182467056e-007 
1.595849402381034e-006 
-1.33821008867215e-007 
1.826722400914206e-006 
-5.410699138150769e-008 
-7.886370335473267e-007 
-1.974694344837631e-006 
-2.20745613146755e-007 
-1.47724463082442e-008 
9.867339347347446e-007 
3.758331445635246e-006 
2.901952975109538e-006 
1.142251766171937e-006 
-4.792356856276146e-006 
-4.671442633381104e-005 
4.180072087805489e-006 
4.417000163088504e-006 
4.007560129266202e-006 
-6.562809383270059e-006 
-5.157299432434105e-007 
7.749880571095503e-007 
1.165370951957688e-006 
4.231073535234913e-006 
-2.270032296598948e-006 
1.449658430328645e-006 
-1.064963337160965e-006 
1.718009740849387e-006 
7.319599564737726e-007 
5.528589968640091e-007 
-5.974049284509687e-007 
1.560916491670656e-006 
-2.143067568686587e-007 
2.860772711256746e-007 
0 
0 
-2.557747876083735e-007 
0 
0 
0 
0 
1.603515809674366e-006 
-1.11070939909137e-006 
-2.237362706241906e-006 
-1.069235813064064e-006 
0 
0 
7.071139376578361e-007 
5.487055119507258e-007 
-6.614909084232202e-007 
2.800699924694113e-007 
-3.623624560473478e-006 
-2.992330853580443e-006 
0 
-5.974049284509687e-007 
1.541385690815838e-006 
0 
0 
-4.650545997935807e-007 
-1.837700217832979e-006 
-8.112520606314956e-007 
-1.11070939909137e-006 
0 
-8.371324933839934e-007 
-1.331455012238125e-006 
-1.879023675748892e-007 
1.545647648016212e-006 
-4.633566080917614e-008 
-4.803012770455858e-007 
-2.187365969109088e-007 
1.654163802272251e-006 
1.087961152306411e-006 
1.825625533818063e-006 
3.494293685784757e-006 
-2.018003695132776e-006 
-4.619214695438389e-007 
2.912379685548438e-006 
3.146567417294899e-006 
-7.009174334106791e-006 
2.429246961128208e-006 
1.388397152288247e-007 
-1.440681959302707e-006 
4.228810367341514e-006 
-2.667557729797007e-007 
2.16277151559439e-006 
2.659205506473847e-006 
0 
1.541385690815838e-006 
2.24080651597749e-006 
6.019035184417873e-007 
-5.974049284509687e-007 
1.603839464685496e-006 
-2.348563349238123e-007 
-1.772200307514592e-006 
0 
7.319599564737726e-007 
1.151895778534359e-006 
0 
0 
-8.517122181654642e-007 
8.03697518345448e-007 
0 
7.834944647178975e-007 
5.022089874596157e-007 
0 
0 
0 
2.039757364244785e-006 
-1.737123534659967e-007 
0 
0 
-1.126653307150535e-006 
0 
0 
0 
0 
0 
-3.526204040393814e-008 
-2.500756240983849e-006 
2.145604387479597e-006 
0 
0 
2.800699924694113e-007 
-6.518587244903348e-007 
-2.05153181419709e-007 
8.088516621340945e-006 
-3.123221051260312e-006 
-3.562026869346557e-007 
-1.436885439067726e-006 
-1.08456146886258e-006 
-3.079971316290902e-006 
-2.28376285672628e-006 
3.539317179605572e-006 
1.926406549626695e-007 
-8.405425129678316e-007 
-2.493868447687798e-006 
-8.546723721871304e-006 
2.205461018811165e-006 
1.316945393821524e-006 
5.672832661916412e-007 
-6.810229134026428e-007 
1.034301933705693e-006 
1.31403193293732e-006 
1.931777154488322e-006 
-3.340766646176992e-006 
6.212361377406774e-007 
2.177919322571675e-006 
-1.056025328302976e-006 
1.1739374826196e-006 
1.454778944644711e-006 
0 
-8.341049403425337e-007 
-2.05153181419709e-007 
-2.05153181419709e-007 
0 
-2.168722523445158e-007 
1.541385690815838e-006 
0 
0 
-4.118984160730973e-006 
0 
4.146606505246782e-006 
5.863191037899434e-007 
7.319599564737726e-007 
0 
-3.665427119623696e-007 
0 
0 
1.379200313399109e-006 
-6.417847487100062e-007 
1.440039566790776e-006 
7.071139376578361e-007 
5.022089874596157e-007 
9.767444859913828e-007 
0 
7.319599564737726e-007 
9.469225863626708e-007 
1.676828828537967e-006 
2.231669829843624e-006 
-2.20745613146755e-007 
1.886082299272194e-006 
1.262859267072177e-006 
-5.540769293706505e-007 
-2.748098522124718e-007 
-1.559981727140059e-007 
-1.907664611037895e-006 
1.577807809616704e-006 
4.459350628853825e-006 
-3.241055888513612e-007 
-4.618680321886664e-006 
2.282497934041593e-006 
3.583621831209842e-006 
-2.732752323482552e-005 
5.14593320956793e-006 
8.051067111521349e-007 
2.359716151714734e-008 
-4.688399190868828e-006 
-6.511522761386257e-006 
-3.712875143219416e-006 
-4.129597971401973e-006 
0 
-6.947951350639808e-006 
9.125327130756565e-007 
-5.57907513500628e-007 
1.969916545498719e-007 
-5.361936089545995e-006 
-8.965846700373895e-007 
1.011476015091017e-006 
-8.198816795391739e-007 
-8.59151999128574e-007 
2.630120331481365e-006 
-1.90221309742244e-007 
0 
0 
0 
0 
-3.788655348857057e-007 
0 
4.019377875317375e-007 
0 
0 
0 
0 
0 
1.224629256651012e-006 
2.24080651597749e-006 
0 
0 
0 
-1.734767050571017e-006 
1.626451564384699e-008 
-1.11070939909137e-006 
0 
0 
-6.109688545657765e-007 
2.800699924694113e-007 
1.981661167525878e-006 
-1.114339841250046e-006 
-2.316741882865505e-007 
1.913831025806368e-006 
7.071139376578361e-007 
-2.298113299258154e-006 
0 
-5.26642588943664e-007 
-8.992310848562522e-007 
-4.603554742280069e-006 
-6.237650362078576e-006 
2.251039262040451e-006 
-1.333923503276039e-006 
-1.019744576499366e-006 
-1.073276142147795e-006 
1.174108827078096e-005 
-1.000101801259711e-005 
-2.94352491229022e-007 
1.697049861253872e-006 
-2.778759762188233e-006 
-6.368387715807152e-006 
-3.75318232418344e-006 
-4.333391036500092e-006 
3.774087663079942e-006 
-6.377745387131899e-006 
3.36631720186582e-007 
1.997877764025214e-006 
-3.16200664024767e-006 
0 
0 
0 
-4.276505842349155e-007 
-4.053865417525472e-007 
9.844410184759031e-007 
-5.410699138150769e-008 
0 
0 
0 
0 
-4.053865417525472e-007 
-8.007610329145001e-007 
-5.235051381379671e-007 
0 
0 
0 
0 
0 
9.801569815733344e-007 
-2.321033196800708e-007 
-1.073276142147795e-006 
0 
0 
0 
-1.737123534659967e-007 
0 
-2.694975615613026e-006 
0 
2.046554955287955e-006 
-4.053865417525472e-007 
-5.959341017996964e-006 
-8.901027948361248e-007 
-1.34739892029729e-006 
-1.048225355665556e-006 
-8.007610329145001e-007 
2.573942831169044e-006 
0 
-6.34173499277848e-006 
-1.673310749433794e-006 
1.946719503015749e-006 
-8.627828865980795e-006 
-1.511367613471918e-006 
-1.488115502526621e-006 
2.8395025020011e-006 
-3.691255018947235e-006 
-4.522127142921372e-005 
-2.851501535436205e-006 
-1.897347112994502e-006 
1.355160998350171e-006 
-1.190613067580385e-006 
7.002053705044013e-008 
2.194790445841057e-006 
-4.405515358715144e-006 
1.044949510107729e-006 
-4.330655152174111e-007 
3.956626134280209e-008 
0 
-2.18815493873491e-006 
4.019377875317375e-007 
1.20711303533539e-006 
0 
0 
0 
3.184664231324625e-006 
6.462380235330279e-007 
0 
-1.737123534659967e-007 
-2.05153181419709e-007 
-2.161932628728949e-007 
0 
0 
0 
0 
-1.109402493305716e-006 
2.800699924694113e-007 
-8.371324933839934e-007 
0 
-2.187759714055667e-006 
0 
0 
0 
-5.410699138150769e-008 
-2.20745613146755e-007 
-2.152995073895073e-006 
-2.321033196800708e-007 
0 
0 
0 
-1.309291641777796e-006 
5.867253799698038e-007 
1.710780899373153e-006 
6.258130831685231e-007 
2.001411889064552e-006 
0 
0 
-4.637775079666212e-007 
5.949990309734884e-007 
1.522562878332233e-006 
-1.794578694631914e-006 
-8.371324933839934e-007 
1.629682336612646e-007 
1.366388085933356e-006 
-2.320990545642934e-006 
-1.965694385272222e-006 
-2.421742909728836e-005 
-1.398780440558823e-005 
-8.146261505887467e-007 
2.119938020799977e-006 
-1.376778071113902e-005 
-9.814871487925341e-006 
1.060099720889182e-006 
-5.857842631456894e-006 
3.642989089432154e-006 
-3.779490927834076e-006 
-1.482693972252715e-006 
-2.350372404975235e-006 
-9.315738306515641e-007 
-7.924014042821081e-007 
2.560636695522978e-006 
2.267106171281616e-006 
0 
0 
1.095334596988122e-006 
0 
0 
-1.01084484684999e-006 
-1.724058235601505e-006 
-1.073276142147795e-006 
0 
1.541385690815838e-006 
-2.316741882865505e-007 
-1.073276142147795e-006 
5.698598996835814e-007 
0 
0 
0 
0 
2.24080651597749e-006 
-7.379423608343808e-007 
-2.20745613146755e-007 
-1.90180389758782e-006 
-6.894039499268112e-007 
-8.371324933839934e-007 
0 
-9.862982009731929e-010 
0 
-5.974049284509687e-007 
7.136822225545415e-007 
-6.046377926764046e-006 
-4.351222007352582e-006 
0 
1.940381373727835e-006 
5.863191037899434e-007 
-9.862982009731929e-010 
-9.862982009731929e-010 
4.847929734983745e-006 
-6.122316920754748e-006 
2.417431163759413e-006 
2.089958271994089e-006 
3.489049331578121e-006 
1.152209580039784e-006 
4.824237981349777e-007 
-2.34526522775054e-006 
-7.370887965855469e-005 
3.976236165310191e-006 
1.640958885353515e-006 
1.047047877557468e-005 
6.840781514237645e-006 
-5.863639595244209e-006 
-9.990727683069278e-006 
-1.38531293435996e-005 
-1.307304307680594e-005 
4.035159987004967e-006 
2.301684717408426e-006 
-4.562969721171579e-007 
1.567549375107741e-006 
-6.068195421438453e-006 
-1.913200586633393e-006 
3.968452873302139e-006 
4.361352294647679e-006 
1.392914445613821e-005 
-1.253124339721172e-006 
4.976603641991333e-006 
6.17819297732166e-006 
-5.852465059059288e-006 
7.227143501235847e-006 
-5.584647663618251e-006 
-1.27115198335905e-005 
4.117573644113221e-006 
-1.930417048033898e-006 
-7.846505430492439e-006 
-1.904848235499306e-007 
6.176771119503139e-008 
-9.634319649789887e-007 
-2.929674505124902e-006 
-2.421059204106126e-005 
-5.487446851169585e-006 
-6.084034500970658e-006 
-1.181132230388683e-005 
2.264674903497023e-006 
8.396977377394961e-007 
6.072017579944524e-006 
-6.384078710904557e-007 
-1.186808413227214e-005 
3.04338731460114e-007 
-1.103123954477851e-006 
2.018216477207176e-005 
-3.37621029866361e-006 
-1.211192248116093e-006 
-4.578420903613506e-006 
-1.711405546060599e-006 
1.012827235520696e-005 
-2.39059478617148e-005 
-2.997239035241888e-006 
-3.111847917859979e-006 
2.784955425777169e-006 
-1.669670144904465e-006 
-1.796583298211742e-005 
-1.413161757721342e-006 
-5.438845406748423e-006 
-6.944855731595583e-006 
6.58593263914939e-007 
4.07559290406221e-006 
2.863341685157673e-006 
3.752444753283074e-007 
-3.036112286438252e-006 
-3.947883868582503e-006 
1.003837339651025e-005 
-5.888292144264866e-007 
-6.491845469113281e-006 
-3.609232303738218e-005 
-1.089642034440668e-005 
4.736646567141424e-006 
-1.051796575087926e-005 
-1.24633212127347e-007 
-3.102062292363694e-006 
-2.520988029595813e-005 
1.756422208961641e-006 
8.226229843203442e-007 
3.35275792412619e-006 
-3.265116525664696e-006 
3.459039175607633e-006 
-7.316745717859332e-006 
-1.163646936179468e-005 
-6.00276569077819e-006 
-1.264243694246549e-005 
-5.669566694196149e-007 
2.954163438330741e-006 
-4.239060724778486e-006 
-5.481976050400595e-006 
-6.667019992454649e-006 
-5.420857476505884e-007 
-3.226897031529426e-006 
7.650922597843311e-007 
-8.570602696691449e-006 
2.224481914264382e-007 
-4.960131471347775e-006 
-5.119480100895458e-006 
-1.514796769207604e-006 
2.899332042921417e-006 
-2.12596402244433e-005 
2.824146981634965e-006 
-9.688421331279784e-006 
-1.770220540835772e-006 
-4.79628571273169e-006 
5.476202594001507e-006 
-4.42695608961458e-006 
2.218289201430663e-006 
-4.770559944549606e-006 
-8.041734069371137e-006 
-6.265813823101942e-006 
-4.782582706261539e-006 
-1.174846116226234e-005 
5.533011694765674e-007 
1.341430916278417e-006 
-4.748261536550365e-006 
-8.550006378357896e-006 
-9.506109162751086e-006 
1.931548746858626e-006 
-4.365894598970951e-006 
3.112219559687179e-007 
6.120765487841777e-006 
-5.199994830853314e-006 
-4.291948913088446e-006 
1.421121519736452e-006 
-1.858018795613309e-006 
6.719554303978414e-006 
8.186716199121591e-006 
-1.122526422682297e-006 
4.290409256872112e-006 
1.106788334409328e-006 
4.815781994816028e-006 
-3.428599209652012e-005 
-5.538055180533541e-005 
-3.008386053219951e-006 
-8.758719077280322e-007 
-1.886138995106869e-006 
1.658475932702395e-006 
3.332035893813024e-006 
2.13954363872384e-006 
-1.259442115590081e-005 
-2.843895670562039e-007 
-1.440614024109171e-005 
2.287203563935427e-006 
-2.63748278690867e-006 
-4.046289356278217e-006 
-1.841474730255955e-006 
-1.845898356285042e-005 
-6.59046400716523e-006 
-2.856220729021073e-006 
-3.097213823535597e-006 
4.026342907009887e-006 
-2.589116368332631e-006 
-2.995041416223266e-006 
-5.400448695553579e-006 
-4.37794435783272e-006 
-2.168649986148413e-006 
-6.350510779830538e-006 
-4.99412108338167e-006 
2.16042414134391e-006 
-1.783534291811636e-006 
-9.684456024637875e-007 
-5.133393850288783e-006 
1.00019956658565e-005 
3.873451207950706e-006 
-6.917116886749357e-007 
1.741717000890671e-006 
5.589033821343611e-006 
7.707831858476151e-006 
-1.465825003732823e-005 
4.313581666249976e-006 
-3.431680828326428e-006 
-3.59497587515412e-008 
-5.134436651667412e-006 
-5.954826518923582e-006 
3.842278717465751e-006 
2.261554756473959e-006 
5.439737390420108e-006 
5.066742630461474e-006 
2.129487115130605e-006 
-6.21140979249305e-007 
-6.372931399347453e-006 
-3.416863462234524e-005 
-7.205912523286521e-006 
-1.592670191141089e-005 
-5.004161082491656e-006 
-6.557356408451227e-006 
2.936515217999632e-006 
-6.805980543109994e-006 
3.377708118468798e-006 
6.944178118745638e-006 
-1.047248673764994e-006 
-5.518873320573246e-006 
-1.509394626937444e-005 
-2.243788699705063e-005 
-3.499674944049886e-006 
2.759369438280895e-006 
-5.631810592834701e-006 
-8.973446712146552e-006 
-3.012892875501459e-006 
1.270078938468142e-006 
-4.396297747493682e-006 
4.377518079877193e-006 
-8.706998326541622e-006 
-2.945314400942173e-006 
1.454339259794453e-006 
-2.44866469696732e-005 
2.044656189609399e-007 
3.577054536763927e-006 
1.532790568731501e-006 
-1.943227964623343e-006 
-2.814389419540631e-006 
-2.187908119101678e-006 
-2.207976121383092e-008 
7.804604898539399e-008 
3.234411596267909e-006 
3.588429004445297e-007 
-7.085810523127668e-006 
-4.170062775648435e-006 
-1.724295731681891e-007 
-5.758551492363941e-007 
9.898645376930773e-008 
5.70630510678718e-006 
-1.054350888185767e-005 
-2.950443955866234e-006 
8.574792023705545e-006 
-7.339234549921501e-007 
1.920024806043513e-006 
-8.232523574860801e-006 
6.859335993225162e-006 
3.918502614162687e-006 
9.889530713731281e-006 
1.705420090332254e-007 
1.983701016789992e-007 
-1.324491234835406e-006 
-1.297388139567514e-005 
-4.921024726811412e-006 
5.047548612490354e-007 
-5.570730768615736e-006 
3.321403622010111e-007 
1.973544143104573e-006 
-9.88472417577507e-006 
5.533118802167032e-007 
-8.687966722613574e-006 
7.216681538472924e-007 
-9.619412953907994e-006 
-2.537771068071067e-006 
-1.642369505144671e-005 
8.680986202468624e-006 
5.92292687064051e-007 
1.637884545867755e-006 
6.17842952997552e-008 
-5.145750190516278e-007 
3.388806719399994e-006 
-7.155207487174307e-006 
3.955504830529066e-006 
-7.048662944300431e-006 
3.565218763286334e-006 
2.767816026997383e-006 
-1.021734101001227e-005 
-1.160175432786366e-005 
1.046371965760413e-006 
8.671313676849812e-006 
-8.767103816701928e-007 
-1.427193148388458e-006 
-5.598637882397167e-007 
-1.910183420626534e-007 
6.483487528009326e-007 
-5.127507206235081e-006 
-3.779505278972784e-006 
-2.37628902262067e-006 
7.151746407032413e-006 
-1.155025098019541e-007 
-1.5599928203137e-005 
4.817171193001035e-006 
1.068025622161164e-005 
-4.393015582999537e-006 
-6.09072407166446e-006 
-4.621518778677389e-006 
-1.202303227975577e-005 
-2.294410943958018e-006 
-2.642697396205229e-006 
2.251917051731024e-007 
-2.851197523209863e-006 
-3.307737686984339e-006 
-3.426964252374406e-006 
-4.449573970708299e-007 
-3.64261209076741e-006 
-1.46757011339989e-005 
-5.794197458399497e-006 
-1.237052517896157e-005 
-1.25854561316892e-005 
-3.724724246270678e-005 
-9.820983655335437e-006 
-5.554163602060051e-006 
-1.834444449078463e-005 
2.059791783684661e-006 
3.839689745123852e-006 
-3.783053143511284e-006 
-3.041684500807849e-006 
-1.75844536255382e-006 
-2.168717762741775e-006 
-9.968762784112476e-008 
1.162843901206581e-006 
-1.102704071433807e-005 
-1.085194056745825e-007 
2.78454438239214e-006 
-3.772941684854235e-006 
-9.846311193145956e-006 
-6.469265578365105e-006 
-1.477405714066912e-005 
-1.022576544637726e-005 
-4.893290863692003e-006 
-8.20939021780927e-006 
3.52264006550529e-006 
-2.268808659236746e-006 
-1.743195664267777e-006 
-6.166935102063398e-007 
-1.488955582729063e-005 
-1.701392242485701e-006 
7.652273740204615e-007 
3.727240780485371e-006 
-8.376674400192884e-006 
-3.705798645408895e-006 
9.57671406705037e-006 
9.253930553842625e-006 
3.263201466803107e-006 
1.003483407348156e-005 
8.195097839447027e-007 
-5.664172393627146e-006 
3.753435044219103e-006 
1.283800802221376e-005 
-1.156140000335835e-005 
4.785980181280296e-006 
-2.039331516601559e-006 
-5.363944180372026e-006 
8.307351549682306e-006 
5.221477201625622e-006 
-1.443570476034423e-005 
-7.894589064988656e-006 
8.749836580719906e-006 
-7.44574615115547e-006 
-8.47256705667653e-007 
-1.544352460539232e-005 
-7.88202001236899e-006 
-3.751836926470466e-006 
3.072434472879166e-006 
5.659305372620412e-007 
-3.356516686472e-006 
6.30215228881642e-007 
-3.30582447362122e-006 
3.702847101781382e-006 
5.685821869589486e-007 
-2.551622493806659e-006 
-6.729038808575644e-007 
-1.020707388198313e-005 
1.503101986733249e-005 
-5.971921446205643e-007 
5.705932779309984e-006 
8.287722394733727e-006 
6.483449964004937e-006 
2.981604451912547e-006 
-1.037961749194098e-007 
1.072089499295455e-005 
4.450104073298888e-006 
2.857118590885712e-006 
-3.321733786486629e-007 
1.320817575450716e-006 
1.279521123318934e-005 
8.149429464384095e-006 
6.411946033615262e-006 
2.180344653875889e-006 
-7.760826927115333e-006 
-8.329792753858419e-006 
1.984998139539571e-006 
-1.815007248303095e-005 
-4.553068839272041e-006 
-7.421718766789366e-006 
-5.087759617969993e-007 
7.918997142505233e-006 
2.444377552820079e-006 
4.317271144723936e-006 
6.172342407657522e-006 
1.092924256406233e-005 
-6.601484757197193e-008 
-6.375139280924829e-006 
9.085541626211685e-006 
4.183929812941294e-006 
1.010402885115723e-006 
-1.091744610140662e-005 
-2.27255917432091e-006 
-7.750127661094775e-006 
7.452336127187824e-006 
-1.270702688741921e-005 
-2.251943678593957e-006 
-8.346400544887364e-006 
-2.845134251297143e-006 
-2.782765392602797e-006 
-4.040960936170827e-007 
-3.928816453561763e-007 
-7.282429665812345e-006 
-8.924716586636869e-007 
1.482165881003789e-006 
-1.429339025407413e-005 
-1.652500824076189e-005 
-1.863375353173882e-006 
-2.400507411549119e-007 
-2.552198176084997e-006 
-9.634949821707235e-006 
-6.328914815811109e-007 
-2.236332247829862e-006 
2.662772583951774e-006 
1.064926667016578e-006 
3.293555606000638e-007 
1.023603465192449e-006 
9.931959370436676e-007 
-1.272892956948409e-005 
1.038464837430632e-006 
-1.148565150999805e-006 
2.88245292055762e-007 
-1.112941342880329e-005 
-5.930391934232731e-006 
3.530990699906545e-006 
-6.302193533853469e-006 
-4.239591820765707e-007 
2.652891359034665e-006 
1.316624306236176e-006 
-4.280383959187896e-008 
-1.035508691928548e-005 
-9.637801318461648e-007 
-2.281184694505921e-006 
-3.619437722078909e-006 
1.806184992544219e-005 
5.962529013910739e-006 
-6.448245400158307e-007 
-6.003937201254362e-006 
2.148432889618007e-006 
-1.003521393277075e-005 
-2.012561021396653e-005 
-1.321447433934635e-006 
-1.416632893559226e-005 
-9.4242579465753e-006 
-3.658975229419562e-006 
3.261554425111149e-006 
-5.655903591234584e-006 
-1.012056411534398e-006 
-5.953886860909599e-006 
-1.972770653781929e-006 
-7.776622217583108e-006 
-2.158767531531757e-005 
4.623419467368702e-007 
2.454267195914718e-007 
-3.898686069929384e-006 
-1.597444801703457e-006 
-1.53300420369418e-005 
-1.388168256209642e-005 
-1.149270328039156e-006 
2.21505319308758e-007 
1.239952259779531e-006 
3.719094742295012e-006 
-7.338811731156633e-006 
-2.035591957520253e-006 
-1.310319585670578e-006 
-3.281723491971189e-006 
-1.829833862197505e-005 
7.508749475494691e-006 
-4.364845670660275e-007 
-2.757829356808285e-005 
1.137876236909696e-005 
2.55210375427388e-006 
-1.770014180819192e-006 
4.783986766099968e-006 
5.548826811731594e-006 
-3.93015478715522e-006 
2.351678682408953e-006 
4.716668401377638e-007 
-1.157146013561544e-006 
-6.798277371821849e-007 
-7.06062126057126e-006 
4.745619345785643e-006 
-6.81530217160573e-006 
-2.512089105370619e-006 
-5.445316991639307e-008 
-9.188342402455649e-007 
3.945415996218098e-006 
-5.779582126567174e-006 
6.090474831873477e-006 
1.667788905482158e-005 
-3.571003608555238e-005 
-4.578612457937014e-006 
-4.741224282210332e-006 
-7.369728556316649e-006 
3.264277502816614e-006 
-3.958226818603406e-006 
-7.641309021556701e-006 
-2.492896075833039e-006 
1.623877032505752e-005 
-1.564532089443926e-006 
-4.533297643983448e-006 
1.669986596744255e-006 
8.078332163405674e-006 
5.809004592936837e-006 
-2.784599331475887e-006 
1.489718922071764e-006 
-2.209062507819375e-007 
3.152945315449058e-006 
-9.632233223239417e-006 
-2.92584631035745e-006 
-3.316080948946193e-006 
-1.532261124558262e-006 
-1.375380536260233e-005 
-7.773752410532065e-006 
-2.191231185260093e-005 
2.14378560359321e-007 
6.319463781825076e-007 
-9.718562614493346e-006 
-5.62952315848695e-006 
1.143791255765565e-006 
5.410693747038443e-006 
1.634193683205839e-006 
-1.173664176491424e-005 
-3.093559416275193e-005 
-8.346967458748217e-007 
-4.877858433003294e-006 
-5.213800283905674e-006 
-2.334998381809818e-006 
4.053700418004037e-006 
6.928306039894616e-006 
-1.56178401159628e-005 
-9.41008073067625e-006 
7.274860108313253e-006 
-1.08590847503229e-005 
3.495583687043927e-006 
7.970896379213628e-008 
-2.575301486332587e-006 
5.375369445059029e-006 
-2.337641022945768e-005 
2.957916439941191e-006 
-4.416481619367892e-006 
-4.556827505416187e-006 
-1.026555320660455e-005 
1.312301748308181e-007 
-1.136242230553935e-005 
-9.802159172455439e-006 
-3.658834199235639e-006 
-8.786382383577293e-006 
8.820889849590755e-006 
-1.463719126148161e-005 
-2.784918319596403e-006 
1.831464600547146e-006 
3.243242950528883e-006 
-4.034277456701974e-006 
4.682392352731423e-007 
-6.354390860681503e-006 
3.371132839489204e-006 
1.946198161099579e-006 
-1.18982840870855e-005 
1.797662273383365e-007 
7.79256806221716e-006 
8.946279774678816e-007 
-2.179275216489234e-005 
3.124146782363567e-006 
3.446501149133459e-006 
9.364148223773852e-006 
-1.340505174557131e-005 
-1.100024079501764e-005 
-2.35697273935762e-006 
-3.650202166051448e-007 
-1.041047620603986e-005 
-1.014672673777513e-005 
-8.541593764245925e-006 
8.74619399545505e-006 
4.417565931905776e-007 
-1.495232789344304e-006 
-5.398140100433434e-006 
-7.755201402814334e-007 
-1.76372293546943e-006 
1.378251171424767e-006 
-3.594514037708009e-006 
-6.318196162284436e-006 
-4.660130248217159e-006 
-8.232470309794951e-007 
-3.775553835499278e-005 
-1.210961268886609e-005 
-9.583654608774921e-006 
-2.391103127995676e-005 
1.97723543160143e-007 
1.625548522281437e-005 
-7.548574192585681e-006 
-2.683157478857332e-007 
-2.920539512518631e-005 
-6.443662631041913e-006 
1.729571652837489e-006 
1.446483609896153e-007 
1.329669048098228e-008 
4.681130482580986e-006 
-4.70122546709933e-006 
-1.854628243409944e-006 
2.239835615790271e-006 
-1.361954633568763e-005 
-2.167371867329856e-005 
-2.325563741545546e-005 
-1.452479193038724e-006 
9.886080296434835e-006 
3.75495305487206e-006 
1.536717880388291e-006 
-2.413383856309112e-005 
1.948746532798308e-006 
-4.149380562005195e-006 
-4.3885851926143e-006 
-6.666657832097743e-006 
-4.312940644255606e-006 
-6.984419159813627e-006 
1.434550810210966e-006 
-3.241475301347518e-006 
-1.979920156134743e-006 
-4.176189707040302e-006 
-4.786276110012483e-006 
5.145805049695339e-006 
4.250062411051599e-006 
-5.548218869095566e-006 
8.921370770589728e-007 
2.949663577881021e-006 
5.115400173341149e-006 
-2.727286929781851e-006 
2.462566814783241e-006 
-3.663192902259978e-006 
-3.323747829244675e-006 
1.225238426212195e-005 
-2.721326583876647e-005 
-1.138438003199699e-007 
-3.716938456126806e-006 
1.000601919378523e-005 
1.914237449598105e-006 
-7.715451096337404e-006 
-2.10092237789147e-007 
-7.866268291297206e-007 
-3.006468392335005e-006 
-2.299169016539061e-005 
-2.186967750281785e-006 
-1.881610653853462e-005 
-6.556587882505779e-006 
-6.368946257189904e-006 
-4.019359360518413e-006 
-5.926603400085343e-006 
-5.46501894077812e-005 
-1.105352110686706e-005 
3.754845207907631e-006 
-1.054982505874952e-005 
-2.361324802550169e-005 
6.477773133221892e-006 
-2.763655320663379e-005 
-1.066708207121712e-005 
-1.24773336419963e-006 
-2.462543919835937e-005 
-4.15926309249964e-006 
-1.824746027494511e-006 
-6.405323702448798e-006 
-1.269425290817506e-005 
-1.121261173668046e-005 
6.836590426348239e-006 
2.660545098279233e-006 
-7.151272206654193e-007 
9.785299951509728e-006 
1.306109265870305e-006 
1.185596568865532e-005 
5.547834125388278e-007 
-3.513974844982413e-006 
-4.433224299481933e-006 
3.026623936080381e-006 
1.066043402010564e-005 
-3.055753300760739e-006 
2.579359312932425e-006 
8.105691506369119e-007 
6.482753202322893e-006 
2.321503753305306e-006 
-1.542887208407266e-005 
-2.643174339592576e-006 
-9.954985068687539e-006 
-1.085087629784386e-006 
-4.60391524818776e-006 
-6.405383154482004e-006 
9.32284249962239e-008 
-1.778418446664464e-006 
-7.288757940627055e-007 
2.797777575889511e-007 
-4.651055179880594e-006 
-7.734748531758767e-006 
6.563691396584377e-006 
-1.181008182555338e-006 
-6.527127432952891e-006 
-6.934352868472521e-006 
-1.256964648312099e-006 
1.4389393882056e-006 
-1.729299595317054e-005 
-7.62774754543683e-006 
-2.918619939761119e-006 
-5.89253414900452e-005 
-3.890488138147469e-007 
-1.673036729590028e-006 
-2.32886647044303e-006 
7.014176831196616e-007 
-5.039722996162809e-006 
-1.667107689709363e-005 
4.419247641931419e-006 
-6.142710213635626e-006 
-4.145560391251022e-007 
-5.133486222220532e-007 
-4.696926862353708e-006 
8.352817392214431e-006 
-2.217905810538915e-005 
1.624389028801098e-006 
1.286450172469556e-005 
1.766558865112344e-005 
3.025467001634787e-006 
-4.7571628094336e-006 
2.133314439026319e-006 
2.177185514120323e-006 
-4.248122467339218e-005 
-5.421801307667271e-006 
-6.64895299079892e-006 
6.773480689699725e-007 
-2.310938258921358e-006 
-1.151536069065546e-005 
-2.904770180732369e-006 
7.384208158591561e-006 
5.37895626123302e-006 
4.931487209677869e-007 
1.213809999642533e-006 
3.834113881927343e-006 
-3.415034001005917e-006 
-3.592991797493361e-006 
-7.124117889293357e-006 
2.904200325512283e-006 
1.631464318138733e-005 
4.681222377140154e-006 
7.383688554176929e-006 
-1.88406739639283e-006 
-5.419335365086585e-006 
-6.130272332758918e-007 
1.380548976056229e-006 
-9.547950205114099e-006 
-1.2494686677785e-005 
-2.988747987703935e-007 
-1.113053426213627e-006 
-4.141308713045205e-005 
-9.527488604465928e-007 
-2.479661565009446e-006 
2.542386844991432e-006 
5.839487385079305e-006 
3.777420433938256e-006 
-4.459744218614653e-007 
7.920066077713307e-006 
-3.34862333742535e-006 
-6.222172575156626e-007 
1.661300284433429e-006 
2.567339654041251e-006 
-1.490314439039924e-005 
1.556745739112917e-006 
-1.794615191733183e-005 
3.569758148766664e-007 
-2.166548857068985e-006 
4.45174932533079e-007 
-8.004908153781824e-006 
2.816827096378753e-006 
5.756392457672871e-007 
5.720476121375104e-006 
6.249754438107511e-006 
-5.823218568097358e-006 
-1.445249922415948e-006 
1.303502236833342e-006 
-6.769940090303527e-006 
-5.481529136769078e-006 
-1.696543790813859e-006 
-2.414177493657072e-006 
9.017442212707565e-006 
-1.107693574078683e-005 
-3.571912699935178e-006 
-4.835025261485249e-006 
1.939912884919503e-006 
-3.510429829977692e-006 
-7.75364158172848e-007 
5.766146467428414e-006 
9.048630305183837e-007 
-2.451083932038286e-005 
-6.133325092994701e-006 
6.685039090119218e-006 
-4.477792384851983e-006 
-1.187938598057797e-005 
-1.484497702212961e-005 
6.347998764860998e-007 
-5.13045853123039e-006 
1.336377950801242e-006 
-1.024382534032986e-005 
3.290684800104425e-006 
4.628503620663799e-006 
-1.841372188501262e-006 
-3.540052198751139e-007 
3.346704077136914e-006 
3.806765957623754e-006 
-1.575514759331477e-005 
-1.61746901037914e-005 
-5.028587202787223e-006 
-1.66213942638801e-006 
8.499169303228396e-008 
9.042372059627848e-006 
-6.185982532269245e-007 
7.0274702055245e-006 
3.379128775525809e-006 
-7.687740593994968e-006 
-9.772156187458016e-007 
3.533184203044679e-006 
-1.801559207480336e-006 
5.917157242031271e-007 
9.375882838336898e-007 
-4.535941696854236e-006 
-1.100214181549124e-005 
4.771029759485345e-006 
1.400739491711224e-006 
-1.189460294647613e-006 
-5.536625532630508e-006 
1.378927685684003e-006 
4.856015992996911e-006 
1.719637555095576e-006 
7.83807925272685e-006 
5.441140034062075e-006 
-1.581924825557421e-006 
-2.192580746470427e-006 
-3.0295924804967e-006 
-1.131195870532026e-006 
2.834451306648375e-006 
-3.419147842780164e-006 
-8.868487508969512e-007 
4.618594092766958e-007 
4.185244543021764e-006 
-1.122396849393784e-006 
-8.8661460108636e-006 
8.816453055392512e-007 
-5.858166280069109e-006 
-2.304254885563811e-005 
1.374010961179949e-005 
-1.587510229202712e-005 
1.380933159466089e-006 
-2.152028046560764e-006 
2.411126057432115e-006 
1.868982551011339e-006 
-2.562139391644657e-006 
-9.987385236501473e-006 
-1.136628995622831e-005 
-3.880160521302877e-007 
-1.413517702296443e-006 
6.764297894781246e-006 
3.962621514489122e-006 
-4.448295101158672e-006 
-1.235093487435135e-005 
8.739819634186225e-006 
-1.684794379298069e-005 
-1.09111892685181e-005 
-1.968952226069931e-006 
-4.207583493256257e-006 
-9.029326725335934e-006 
-1.4932910490995e-006 
-9.867547529319491e-006 
1.438841524957794e-006 
-1.696823947930389e-005 
-1.390235870092438e-005 
-9.942956031172325e-007 
-2.067393973767421e-006 
2.874215651268746e-007 
-1.268933657500244e-005 
-5.725613184338049e-006 
-1.677415634642388e-005 
-5.227018428152427e-006 
-2.797630436018994e-005 
-2.282135151315313e-007 
-8.066076165740119e-007 
-9.632287641999128e-006 
-2.905146562559102e-006 
2.842688229825639e-006 
-1.819287538422244e-006 
-1.212589616056749e-005 
-2.997953506372703e-006 
2.54915785256926e-006 
-4.161825599629402e-006 
-7.136417110036189e-006 
-8.156125146287799e-006 
4.230028459794222e-006 
3.358255925970194e-006 
-1.346443702208456e-005 
-7.414603621361497e-006 
-4.556823231690938e-006 
2.12642571864974e-006 
-4.451496539030641e-006 
1.234146786190022e-006 
-1.666246888851759e-005 
2.841285666133307e-006 
7.412702584932348e-006 
-9.584760914977155e-007 
-2.024204714614731e-006 
-6.103407392696148e-006 
4.314064289225593e-006 
-1.443833389802664e-006 
-1.67921854596333e-006 
2.302056663085845e-005 
-5.247847698599469e-006 
-1.482582404114801e-006 
-1.163144162655372e-006 
2.690423196766281e-006 
4.618313369413691e-006 
-2.153461318248147e-006 
1.256963383093955e-005 
-6.562508491769981e-006 
-5.649056577093648e-006 
-1.60472860869236e-006 
-4.319744966696572e-006 
-8.121136844065506e-006 
2.111947199709242e-006 
-3.05448722663178e-006 
-7.801152095732243e-006 
-4.884965498703191e-006 
5.425787508723884e-006 
-2.46698385933506e-005 
-5.049577707906072e-006 
-1.499014312115803e-005 
4.301925105228744e-006 
3.438826061692862e-006 
2.531616997318294e-006 
-1.833149303625219e-006 
5.270008257722364e-006 
-7.688202161221608e-006 
-2.898441514976853e-006 
-6.9774924219691e-007 
4.31712911140891e-006 
8.625529635778468e-006 
-6.878911164098566e-006 
-1.151333845540212e-006 
-3.499128266546893e-007 
5.506615597305152e-007 
2.109962125614108e-006 
-1.155838175824577e-006 
-1.345942747691718e-005 
-5.007782813807383e-007 
-1.915297475461624e-006 
-2.755105142048164e-006 
1.092745045556105e-005 
-6.864027484715391e-006 
2.7978890273051e-006 
3.294463825343329e-006 
3.311189515765636e-006 
-3.811648201914487e-006 
-1.802115567813542e-005 
1.724599327102456e-006 
-2.182856430057556e-005 
-2.094586559800744e-005 
-3.542488998812878e-006 
2.766641104943616e-006 
-2.773768643185064e-006 
-3.017209301663046e-006 
-1.265537102293787e-005 
-7.428609222786173e-006 
-2.079542818108711e-005 
-2.103110686646131e-007 
2.273318927369421e-006 
-4.465968837820272e-006 
2.214008149161451e-006 
5.641719845421832e-006 
-1.157220022214157e-005 
-4.202017489960729e-006 
-4.545515017961739e-006 
-3.499549678120072e-005 
2.687046483752921e-006 
3.324869999879505e-006 
-6.279952260211242e-006 
-1.123142896114378e-006 
-1.087301761284839e-005 
-1.022609962755007e-005 
8.767182902607648e-006 
1.251320722079405e-007 
6.270371704479538e-006 
-5.378683539637383e-006 
-8.627895490853388e-006 
2.378787411893022e-006 
1.474672536842909e-007 
-1.191164117893856e-005 
3.185727802543988e-006 
3.508495154080609e-006 
7.051551473782731e-006 
-7.759426883381632e-006 
-4.925517182421263e-006 
5.847711010997138e-007 
1.313446122312389e-005 
-4.343541640108367e-006 
-6.317964193570623e-006 
-2.539946189327289e-006 
-1.234219732897244e-006 
-1.179034659680444e-006 
1.80623942409774e-006 
-3.67503454563946e-006 
1.248295896888644e-005 
1.37328983228792e-005 
-2.330616749518271e-005 
-7.243459736590228e-007 
-1.324068417480834e-006 
1.902208042247496e-006 
2.334011454160765e-006 
1.51012186325117e-006 
-3.05415252267324e-006 
-5.904467872672088e-006 
2.877096142838139e-005 
7.599417277025607e-006 
-2.056613080571618e-006 
1.094706035205534e-006 
2.692428704155683e-006 
-3.339820617058725e-006 
-1.017390184741216e-006 
-2.259778627469544e-006 
-2.934260178857493e-006 
-4.937991012243531e-006 
-4.396712869564383e-006 
3.365218657492966e-006 
-7.986633390626683e-006 
1.013162217799456e-006 
1.382771405178419e-005 
-1.151902382767423e-006 
-1.450925862757422e-006 
-1.994208411180923e-005 
-1.44105431251036e-006 
-1.344061147145527e-005 
2.278658524872823e-006 
-2.772364096345403e-006 
6.070581534670556e-006 
-9.070563172040906e-007 
-1.020442287131301e-005 
-3.570938909792591e-005 
4.305964846856712e-006 
1.83593277385496e-006 
-3.955184356756137e-006 
4.292598511088773e-006 
1.479327379124501e-005 
-4.135307082006433e-006 
-7.195122238137806e-006 
1.63949556921782e-006 
-1.185826256070044e-005 
-2.052005217059934e-006 
1.301965446633441e-005 
1.021699809898485e-006 
-2.545677496292571e-007 
-1.755247474733727e-006 
-1.676922106846828e-005 
-2.540245803014967e-005 
-5.085383609315821e-007 
-3.449849126540251e-006 
-5.078835873895347e-006 
2.853324302338676e-007 
-1.421528284641675e-005 
-5.66059413807819e-007 
-6.72629032116643e-006 
-4.720748008617195e-006 
9.00978031502546e-007 
3.593446376400801e-006 
1.124906550613454e-005 
-8.878352574644329e-006 
-3.427995205722511e-006 
-5.123898741940553e-006 
-5.069637312401259e-006 
-3.259411330470637e-006 
-1.138986705210804e-005 
2.918150546368156e-006 
-6.763361550422874e-006 
-4.699022895982548e-006 
-2.027557348520628e-005 
-4.433537438487437e-006 
-2.968664309913988e-006 
1.165481717364266e-005 
-2.208496569392631e-005 
1.744967433017969e-005 
-2.003241116232491e-005 
-5.003336084203065e-006 
-2.407982527670957e-006 
-4.160879123357476e-008 
-1.87724380277101e-006 
6.742028404504426e-006 
-2.737886400492753e-006 
4.521261943441467e-007 
2.002946820962741e-007 
6.552404631981908e-007 
4.278977427038162e-006 
-2.268366822040012e-006 
7.459380761999945e-008 
-4.533021966515213e-006 
-1.823638438379335e-006 
1.652634957496382e-005 
-1.829150951118242e-005 
3.214189697889379e-007 
-3.384338433196653e-006 
-1.147033327822732e-005 
-5.412374505583668e-006 
-4.242470886995829e-006 
-1.562722782394292e-006 
-1.717801673628749e-006 
-1.180292026348252e-006 
-4.987635484087003e-006 
-4.394730057830842e-005 
-1.054377625521232e-005 
-6.893122203720974e-006 
-5.210588703896087e-006 
-6.153911822953832e-006 
1.083675384221654e-005 
-1.351936537971185e-005 
-1.875579454232501e-005 
-1.576936883355485e-005 
1.910117542195768e-006 
-2.71130029786689e-005 
-3.633252913863023e-005 
-4.01882880228538e-006 
-5.641319148155313e-006 
-1.184315769069645e-005 
6.338178501887795e-007 
-2.188337490555391e-005 
-1.758360749264987e-005 
1.239451894034501e-005 
-1.111136195881572e-005 
-1.554595930412234e-005 
-1.036058325835985e-005 
6.77860874669451e-006 
-1.101174480184282e-006 
-4.954713805283247e-006 
-8.104588259484009e-006 
3.904868135525345e-007 
-7.624394971303641e-006 
2.134096110510173e-006 
4.584299353958082e-006 
1.537997282696744e-006 
2.260886645650512e-006 
-1.592576592234904e-005 
-1.013252950952551e-005 
-3.214124246689622e-006 
-1.279686257428148e-006 
4.842228787409546e-006 
-1.60599703512507e-005 
-2.104160595159877e-006 
-9.439001154339118e-006 
3.254881361601476e-006 
9.64812826432603e-007 
5.762524709144459e-007 
-1.05087162151073e-005 
-8.262651492615309e-007 
8.591335410222165e-006 
-3.297151153905073e-006 
-4.706828732163883e-006 
2.99065297817341e-006 
-2.252450308674319e-006 
-8.8641005160141e-006 
3.291430709015272e-006 
-1.075044636187683e-006 
1.621607003646242e-005 
-9.163677845626018e-006 
-2.38006277053195e-005 
3.298949954650738e-006 
-9.241695788273628e-006 
-6.39009723721293e-006 
-4.563421822988198e-006 
-1.938150675009817e-006 
8.413478937936191e-006 
-1.137088525964131e-005 
-3.118864062377113e-006 
-1.94045341365242e-005 
-3.863105566688682e-006 
-1.812400813251305e-005 
-1.420768957885675e-006 
-6.624101797089562e-006 
2.157580369454391e-006 
4.287976476482565e-007 
-6.431793251422287e-006 
-9.400939471146939e-006 
-3.28753178141443e-006 
-2.327375703263119e-007 
-1.609861498913812e-005 
5.422283635438295e-007 
6.875554420932853e-006 
2.176428868815402e-006 
4.317559608094088e-006 
-6.206065003088525e-006 
2.615257516047673e-006 
-3.021075542600573e-006 
8.307666457920056e-007 
-1.964734971276378e-006 
-7.079990490793114e-006 
-2.300854712305288e-005 
-1.308643692319555e-005 
-5.885629006732945e-006 
-6.589166059067937e-006 
6.915485862462845e-006 
-9.821587515921658e-006 
1.307133852721092e-006 
-2.502642118406983e-006 
-1.930637137727449e-006 
3.430211832924164e-006 
-8.297180732539459e-006 
8.696560900382833e-006 
-4.683373661695482e-006 
-5.580802212275823e-006 
-1.374875978826582e-006 
-2.639854861416362e-006 
-6.079658221870158e-006 
-6.205111320377524e-006 
-1.525831376979688e-005 
-1.148988871224573e-005 
-2.192572307468077e-006 
-1.292437046349408e-005 
-5.388566907247328e-006 
-1.29652261886621e-005 
-1.250018593633646e-005 
9.636279394790215e-007 
-7.819682560343325e-006 
-2.440539690861164e-006 
-9.015188708103501e-006 
-1.022401345037964e-005 
5.051567780511359e-006 
-5.095542150397468e-006 
-8.82640929907071e-006 
9.080774202697065e-006 
-1.596386322500377e-005 
-4.230000131856192e-006 
1.715356790481848e-006 
6.299021621732931e-006 
-1.993662396940567e-006 
4.899102843441504e-006 
-1.29798250641053e-005 
-4.323020976904872e-007 
-4.849868022377401e-006 
-2.68635611451691e-006 
-1.658536221098105e-005 
-6.374034159880528e-006 
-3.249039106643656e-008 
-1.205917023617987e-005 
-1.018532845144599e-005 
1.015214156601238e-005 
-2.973379458544942e-006 
1.102313022797432e-005 
-1.300942819495736e-006 
1.446413627755978e-006 
4.711573084235525e-007 
4.904146082497984e-006 
3.219833581947516e-006 
-2.3347511835811e-006 
-3.731681691341192e-005 
8.732324803976616e-006 
2.102046301422536e-005 
2.942626769910884e-006 
4.944233412483036e-006 
-1.705215257289095e-006 
3.494427549517892e-006 
-1.037764116377363e-005 
2.955871153857411e-006 
-6.528595438538199e-006 
-2.229782731270278e-006 
-7.906527454737767e-005 
1.871884578578836e-006 
-4.034420224194757e-006 
9.082392165114121e-006 
-1.32466250554454e-006 
6.352442853106264e-007 
-3.577309924792742e-006 
-2.248821059131187e-006 
-4.202255222697288e-006 
-3.462198529334153e-007 
6.309566703451545e-006 
-3.103902993798181e-005 
-1.580313975170927e-005 
-2.446517742317026e-006 
9.305921425381412e-006 
-2.830291974907553e-006 
4.67365622111239e-006 
1.824284213091391e-006 
-3.608783031305812e-006 
-2.291075715324801e-005 
-6.619442218629094e-006 
5.734883966771839e-006 
1.060485295506121e-005 
-1.351011341317316e-005 
3.89648486252419e-006 
-8.720204074327535e-006 
-1.287454105376778e-005 
8.601320607035179e-006 
-1.213057640139378e-008 
-8.723321702623139e-006 
2.971721665921204e-006 
-1.329186890289456e-005 
-1.564921353929793e-006 
-2.293652716816111e-006 
-1.34731553951451e-006 
-6.940917729135959e-008 
-3.189777823115165e-006 
-3.893002745206908e-007 
4.305293137433413e-006 
-2.623293135916202e-005 
-5.497458971375553e-006 
-8.632668838611947e-007 
-1.7487385150366e-005 
1.772203533197724e-005 
-3.052219987430498e-006 
5.048762343016991e-007 
-3.659673402554304e-006 
8.756101016506004e-006 
2.670447911850166e-007 
-1.263497451890039e-006 
5.98357044627362e-006 
3.449142192418786e-006 
3.214978892308603e-006 
1.620971695651342e-006 
-5.633412952098302e-006 
-1.914321857326043e-005 
-3.064423100362837e-006 
-7.898693219976254e-006 
1.426917084581874e-005 
-1.981935243529166e-005 
-7.954185093059573e-006 
-1.508581847937333e-006 
-1.381349203905889e-006 
-1.26170470536229e-005 
7.725226524028259e-006 
2.202634046501273e-007 
-2.561079330551815e-007 
1.426004759570806e-006 
-3.271426624223001e-006 
-8.785331282624842e-006 
3.741347107006809e-007 
-4.516050274334127e-006 
-4.637670297453503e-006 
1.311138268568227e-006 
-3.309296829867066e-005 
2.146468325098855e-005 
-6.34100850154391e-006 
-1.003516659671746e-005 
-1.375747861141684e-005 
5.692104360493009e-006 
-5.258238282033554e-007 
-2.330668673131783e-007 
2.20450636634728e-006 
-8.916539261359219e-006 
1.085847373267623e-006 
-5.034202916987872e-006 
-4.921290692625062e-006 
4.623991350125304e-006 
2.978539019966331e-007 
1.839228886628811e-006 
-1.727466920776923e-006 
-1.46941572642603e-005 
-1.738268898822075e-006 
-1.145957933798936e-005 
-2.198058230119287e-005 
-2.755279099522194e-007 
-9.744251487442591e-006 
-2.130804019723533e-006 
-8.337011612626855e-006 
-3.089602956074158e-006 
-3.795868443691164e-006 
7.208472879553028e-006 
-6.056893404061752e-006 
-5.080558177661392e-006 
8.485391220157714e-006 
1.172057604550322e-006 
-8.180973110253323e-006 
2.795402103525516e-006 
-9.92809760401586e-007 
-8.255411795789349e-006 
5.438290150578995e-006 
-2.391839787035298e-006 
2.756311567376941e-006 
-1.17006935127417e-006 
9.422396577446471e-006 
3.856509170873679e-006 
3.13833324546442e-006 
-3.007354031413411e-006 
-1.293853187741352e-007 
-6.054270705440649e-006 
-3.668116520296248e-006 
2.795252192498097e-006 
1.508896816592269e-005 
2.402846911438027e-006 
-7.791419866421008e-006 
-3.117625599712586e-006 
-1.362214541041079e-006 
-1.799739122396228e-006 
-1.252477008944614e-005 
-2.867568236690647e-006 
-3.510193675838244e-006 
-1.682334504612246e-006 
2.135503158879127e-006 
1.127278525785777e-005 
1.079855653304587e-005 
1.250810166340606e-006 
-4.41819709393802e-007 
-9.375426224386666e-007 
1.698033260362495e-006 
-2.17405120849826e-005 
1.880625760746306e-006 
-2.074573825973914e-005 
3.100987591966862e-006 
1.680990448656037e-006 
-6.088852524516311e-006 
4.514823130778412e-006 
2.716092639091811e-006 
7.197958484758175e-007 
1.328857306808919e-006 
1.993052445715979e-006 
-1.862022477617813e-005 
-1.242550971267245e-006 
3.53157068015058e-007 
-9.193260389358856e-007 
6.922467048168547e-006 
-1.825220144407083e-005 
-1.702436159058241e-005 
-6.376898446479003e-006 
-1.218329786220568e-006 
-3.158138922063872e-005 
-1.462219995230584e-005 
-1.901238864033065e-006 
2.405737496958635e-006 
-2.069209253397425e-005 
-6.95146995640034e-006 
-7.564319448471787e-006 
-8.543036875725061e-006 
-1.239496164047484e-005 
-5.163000865531469e-006 
-4.587241862091198e-006 
-1.479497563667116e-006 
-2.848756783709339e-006 
-2.185221611326734e-006 
7.722677777332083e-006 
1.67630345557493e-007 
1.664640862271282e-005 
-1.503653805696017e-005 
1.148934396627056e-006 
-1.865626900636864e-006 
1.210726051321199e-005 
-2.684396220698346e-006 
4.384526652693367e-006 
-1.983131452944412e-006 
-1.299145753005718e-005 
-2.558600118893924e-005 
6.478256583551284e-006 
-2.100998911338168e-005 
-1.565560444931788e-006 
-6.726203558435628e-007 
-4.688977394581286e-006 
-5.071511860418939e-006 
-6.828281806809107e-006 
2.418577415644474e-006 
-5.527910863954993e-007 
-1.266137120605568e-007 
-7.735362020869159e-006 
-8.829707687249264e-008 
-4.496920103208497e-006 
7.387409275604028e-006 
-1.018856914210716e-005 
3.959945910422244e-006 
-2.94831937646236e-006 
3.022112943633274e-006 
8.528513515612876e-006 
-2.569220954570471e-006 
-4.588397684455055e-006 
2.767638774112812e-005 
-2.403630039272528e-005 
3.207334272935758e-005 
-3.354734325232473e-006 
-6.384834205389779e-006 
4.710780017810371e-007 
-3.78514941438064e-006 
-8.593280317091569e-006 
-1.061809428684569e-005 
-2.850977227629186e-005 
-2.099944266880186e-005 
1.638309558733782e-006 
-1.255956648043905e-006 
-2.522960174458212e-005 
-2.256910972731766e-005 
6.482203449699087e-006 
-4.143596068426621e-005 
1.97681014650091e-005 
-1.104462106631473e-005 
6.272827565967776e-007 
2.191090154478634e-006 
-3.409274543402883e-006 
-3.373680579220264e-006 
-8.183518508528181e-006 
-1.878763429133729e-008 
-7.913885587512243e-006 
-1.394558171576989e-006 
-2.655497010693154e-006 
-1.059032980261132e-005 
-1.932076848040162e-005 
-1.341988041368713e-005 
-3.28215877645882e-005 
7.063451244591083e-006 
-1.491221952222051e-006 
3.116306568337156e-005 
6.399606940104672e-007 
-3.888717847991371e-008 
3.809989631739188e-006 
-6.379177630324383e-006 
-1.265316466903753e-006 
3.553970332023165e-006 
4.099708711348266e-006 
5.790321144479463e-006 
-1.562052217081264e-006 
1.039746164712922e-005 
5.184980282304224e-006 
-6.990665962394042e-008 
-1.938699613603336e-006 
-6.497911417484118e-006 
-1.590532604782705e-005 
-1.030213277476765e-005 
-6.304211774698629e-006 
-8.916102758422144e-006 
1.586788390509772e-006 
-1.015661628678746e-006 
-9.774015680150378e-006 
-8.378855572534525e-007 
1.763335310153723e-005 
-2.13883084967808e-005 
7.81662512232648e-007 
-1.108333247667219e-006 
-3.2435682208803e-005 
1.355581205803806e-006 
-3.317312080559344e-006 
-1.174112186340793e-005 
-2.54781381110079e-006 
5.333676295068632e-006 
3.478506365422882e-006 
2.256395634068215e-006 
-5.243375730636194e-006 
5.978436582035115e-007 
2.78686587215118e-005 
3.993905626722887e-007 
1.707663694573807e-005 
-1.101776029010356e-006 
-8.768143719496042e-007 
-5.020462243413459e-006 
-1.383625435529434e-005 
4.485772713674148e-006 
2.682188376972773e-006 
-4.493489679318438e-006 
-4.034593409084127e-006 
-3.083408856998523e-005 
-3.286466086817e-006 
2.260462359390102e-006 
1.788804942872673e-006 
-4.134731298815065e-007 
2.96434875641332e-006 
-1.529547546636645e-006 
9.261568890245173e-008 
-1.930637624591236e-006 
-1.692974924938861e-006 
1.169490630957609e-006 
-5.088689576949685e-005 
-6.637821530667558e-006 
-1.572532290614241e-006 
-4.086064145998391e-006 
-6.798674463386389e-006 
-5.768308761611278e-006 
4.629531583729616e-006 
-1.591565720389508e-006 
-2.808330658029008e-005 
6.403804940551866e-006 
-1.371598954333154e-005 
8.248763854532662e-006 
1.397374248259073e-006 
5.451178390195042e-006 
-3.523354985661537e-006 
-4.090349269566356e-005 
-3.507730500417497e-006 
-1.512782192181149e-005 
-5.973060542415126e-007 
-1.803845756476563e-006 
6.057209708104091e-006 
-5.379741945034319e-006 
-2.20945185388586e-006 
-4.906796903713168e-006 
-2.839591617972989e-005 
4.149330284004801e-006 
5.826474127339823e-006 
-4.669304648840442e-006 
-1.976068289079434e-005 
2.548353171618515e-006 
-3.688745209703087e-008 
-6.729766499991228e-006 
-1.88348264237915e-005 
-9.483618454233732e-007 
-1.58855882044543e-005 
-5.975627768422923e-006 
-1.121277289292713e-006 
-1.823540425952311e-005 
-4.85811677050409e-006 
-5.073901829431339e-006 
-3.988575445313042e-005 
-7.05683146396308e-007 
8.271219719573487e-007 
-6.518882564986656e-006 
-1.57794479035293e-006 
-2.241420632403014e-006 
-3.693321983856046e-006 
1.821634895752841e-005 
-2.653782033648794e-005 
-5.570492721388665e-006 
4.413998382497099e-007 
1.536482052337371e-006 
-1.539984255947272e-005 
-4.126246408569884e-006 
-1.807583692351972e-006 
-4.899109648548057e-006 
-2.399524476539366e-005 
-9.387350568122605e-007 
-1.10324308722898e-005 
-9.310595857341225e-006 
-1.279628463945795e-006 
1.269815596343888e-006 
-2.166012994303974e-006 
-2.946473307196144e-005 
-4.006628344411928e-005 
-1.356694399152969e-005 
2.214350771469937e-006 
-4.898430960787701e-007 
5.255549805980659e-007 
-1.332911656593809e-005 
1.614613937592758e-005 
-7.020910449262297e-006 
-6.317428070577888e-005 
4.303899617745385e-006 
1.831278179959653e-006 
1.934782503635868e-006 
-1.094775796818408e-006 
-2.773060118724974e-006 
-3.956079408758313e-005 
-2.382024887943206e-005 
-3.649400729699591e-006 
-7.288655366691744e-006 
-9.064715358499696e-006 
-6.866167405759954e-006 
-6.182605443176268e-007 
-3.716190913433602e-006 
2.74395555560356e-006 
2.484125523685576e-006 
-6.396318326461671e-006 
-3.90228856415082e-006 
-1.290839260391249e-006 
9.202240844497132e-008 
-1.385863795324857e-006 
4.517198303553284e-006 
-3.930719994140434e-006 
4.153038257299381e-006 
-4.142883841986611e-005 
3.550731501890894e-007 
-3.434675965493127e-007 
-4.009654256126356e-006 
-3.514345624206601e-005 
-6.591080747211809e-006 
2.723066679017641e-007 
5.328632444133606e-006 
-7.248193310810611e-006 
2.196367423049975e-006 
-1.604524878266227e-005 
-2.95368201559497e-006 
-6.120119085980011e-006 
-1.194279076781562e-005 
3.584748574140657e-007 
-2.083128838433792e-005 
-1.43709929586532e-005 
-9.007843473560156e-006 
-1.343582915133531e-005 
-1.946434964743761e-006 
-8.030772789868824e-007 
-3.980618088124834e-006 
-1.025327837339914e-005 
-2.756282728197422e-005 
-1.689150698209893e-005 
-2.661064309404312e-006 
-4.462835637614956e-006 
-1.792925579191772e-007 
-3.783836837015524e-006 
-1.012257750053182e-006 
-1.502466267232344e-005 
-2.303000112724404e-005 
-7.053844264207165e-006 
-2.025986292028817e-005 
-4.14139683453093e-006 
2.388289731596821e-006 
3.776167465046242e-006 
-2.83598303955462e-005 
4.816985927216233e-006 
3.16959867912907e-006 
-6.444965903089627e-006 
8.314444744783183e-007 
7.632150356886049e-006 
1.393829264836468e-007 
1.948495502434856e-007 
-4.424573134551309e-006 
-6.009125740732424e-007 
-3.61459283811001e-006 
-5.50177361517442e-007 
-8.093691315602345e-007 
8.928549488183185e-006 
-6.31172969704508e-006 
-2.557206997684807e-007 
2.171465207484495e-006 
-1.280821524663515e-005 
-9.584513031824607e-006 
-2.458598479718914e-005 
-7.094403993677716e-006 
-5.083364129252666e-006 
-3.941892389220539e-007 
5.205874974225798e-006 
-5.955516510429375e-006 
-7.782768273418783e-006 
-4.846939718547822e-006 
-1.026758487811211e-005 
4.182329720423862e-007 
2.55083360847878e-006 
-2.287800363558965e-006 
-1.990455194179422e-005 
-3.352608939794532e-005 
4.843610499703207e-006 
-4.788192379922427e-006 
-1.1789773617986e-005 
-3.477931261057654e-006 
-5.676263469007893e-006 
-2.272031411447978e-006 
2.276895955752862e-006 
-1.965900805523935e-005 
-3.557754938840291e-006 
-1.818403121713103e-005 
-3.305462545529306e-005 
3.452498035947196e-006 
-1.040116734988772e-006 
6.619434110366314e-006 
-6.648196238233393e-006 
1.950006560101111e-005 
-1.322886593288501e-005 
-3.429995493116711e-006 
-4.517729440185825e-005 
-3.300634599631253e-006 
4.354745496727522e-006 
-3.666372579161018e-007 
7.363979145500217e-006 
1.107670272372483e-007 
1.907000735392381e-006 
-4.86246324422341e-005 
-2.016241632046834e-005 
2.416503194571472e-006 
-1.567512278997162e-006 
-4.395024433352683e-007 
-1.292984759861055e-006 
6.677638532937534e-006 
-9.886632074587211e-007 
-3.682742450405705e-006 
1.011901851233234e-006 
-4.829533003317302e-007 
2.140305354432107e-006 
3.0585075575843e-006 
3.4721448949708e-006 
4.693414897462661e-008 
8.103349392928605e-007 
-1.391067569849718e-005 
1.022283660656309e-005 
2.520467609981725e-005 
7.543301084382275e-006 
2.824060382228686e-006 
-4.514755550730575e-006 
-6.725320150084072e-006 
-1.041847206330125e-005 
1.124619566188391e-005 
1.615622772262342e-005 
-7.479973551875237e-007 
3.313254639355951e-006 
2.92789646590458e-006 
-4.773301944343786e-006 
2.784009725234349e-007 
-7.106864992801362e-006 
4.586659930485008e-006 
-3.542153037816876e-005 
1.392564728455592e-006 
1.179024522005393e-005 
-5.659958996776461e-006 
-5.478285485260056e-006 
-1.21983132572722e-006 
-5.830120075433556e-006 
-1.032117617936919e-005 
-1.896190311640183e-005 
5.935468225699438e-006 
8.236768504184147e-006 
9.901724544138274e-006 
-3.134231117894111e-006 
3.770408831840563e-007 
-1.659349048961552e-005 
-2.912025794666452e-005 
4.23200782152941e-006 
-2.703783415370362e-006 
-1.372925046460707e-005 
6.658331450832076e-006 
-1.158106722017862e-005 
-6.483275449838063e-006 
-4.855999196217003e-006 
-6.781739175455141e-007 
1.368019915696924e-007 
-1.529998576734555e-006 
-1.979530784625099e-006 
-5.664955647706887e-006 
-8.359827127077174e-007 
-4.052841864343672e-006 
-2.697692709789549e-006 
1.976014561639218e-006 
-1.521265439655235e-007 
-8.63914430979245e-006 
-8.068745796103159e-007 
-1.993776312329697e-005 
2.015463378018976e-006 
7.572167107675435e-007 
1.580750187275416e-006 
-1.434305590970497e-005 
-1.061869593406745e-005 
-6.895761909155857e-006 
-1.26506725639265e-006 
-1.246204814850202e-006 
-1.084772867783658e-006 
-1.970097385865476e-007 
-4.455389290619431e-006 
-1.113654524262913e-005 
-6.358946869987307e-006 
-9.78292936447275e-006 
-3.432641919755114e-006 
3.820057202212728e-006 
-2.431579932865887e-005 
-8.431509162203064e-006 
-1.321627514286161e-006 
-7.730108822108616e-006 
-4.843249694574583e-006 
-4.608694058280934e-006 
-5.936289030075327e-007 
-3.052764846402413e-006 
8.865112817084361e-006 
-2.94185940125068e-006 
-2.956228239819518e-006 
-3.592229161953066e-005 
2.670200575370281e-005 
-3.641781038406414e-007 
2.334812374546485e-005 
-2.698564333004803e-006 
-2.836760498916953e-006 
-5.410699138150769e-008 
4.61719786108339e-006 
1.271645134518913e-006 
-1.636698441369924e-005 
6.453263057605344e-006 
-1.666172850351529e-005 
1.499933812270488e-005 
-5.732995157802029e-007 
6.485112740346631e-006 
6.278535914551727e-006 
2.368051052703452e-005 
-1.305560070890418e-005 
-3.707009788171581e-006 
-9.571726465935938e-006 
8.16398087147583e-006 
9.373037600290033e-006 
-2.717049364356015e-006 
-3.478770219439914e-007 
-9.129454750388637e-006 
3.27335903701006e-006 
-4.514455261144261e-006 
-1.368131728320776e-006 
6.559279002381424e-007 
-9.020139316457462e-006 
9.872459953818357e-006 
4.317776194360321e-006 
-8.209226027046071e-006 
-2.529503412220048e-007 
2.276102991832694e-006 
9.035621387690057e-007 
1.832618059055011e-006 
-1.074933637358855e-006 
-7.536044170769692e-007 
5.664653475168822e-007 
-3.950700074615096e-006 
-2.739597723260076e-006 
-1.076998301066457e-006 
2.09983347745436e-006 
1.082064356226075e-005 
-5.398434969270783e-006 
-5.206624779933445e-006 
-3.058544417986479e-006 
-1.804090961517643e-007 
-7.257731712599316e-007 
8.248177162867284e-006 
-5.259920180996899e-006 
2.011720194271731e-005 
-4.890018687463008e-007 
-5.618973354604976e-006 
-4.297418421320543e-006 
1.031937524073238e-005 
1.450689353116665e-006 
-7.944989187375456e-006 
1.430829285215128e-006 
-7.853371584885511e-006 
-1.100716740598086e-005 
7.570416297402596e-006 
-2.68204014598644e-006 
9.629391643863367e-006 
-1.909903551868287e-005 
3.158065400402861e-007 
-1.842045329241206e-005 
-3.565970828404897e-007 
-4.588922679107743e-006 
-2.078469340146778e-006 
3.528707636143578e-006 
-1.17350703910649e-005 
1.479233717212853e-006 
2.610887766856709e-006 
2.375988544954886e-006 
-2.629245152749387e-006 
1.972558323954561e-006 
-4.978151989418212e-007 
3.608235345388821e-006 
-4.051917219439512e-006 
-2.372151662784709e-005 
-3.224609987458239e-006 
-2.770494747127732e-005 
4.329461885951409e-006 
-8.790563573306444e-005 
-3.649472587462196e-006 
-1.00980169087223e-005 
4.796806578348066e-007 
-5.883434989128572e-006 
-6.213842183727593e-006 
-1.981941467906311e-006 
-1.6542339935221e-005 
1.214191442029267e-005 
-2.713629515238013e-005 
-7.017568924563632e-006 
-3.339633965170217e-005 
1.29269701027363e-005 
-2.86325182921591e-005 
3.830258160180972e-007 
1.25675044531512e-006 
9.05065676756936e-006 
-6.268569439975797e-006 
3.750636790082165e-006 
-1.62835880887684e-005 
-1.755876048995704e-006 
2.220464967142642e-007 
0 
2.495085486223536e-006 
-9.354359259912108e-006 
-1.485245770259141e-005 
1.405075087094819e-006 
-1.066704474377111e-005 
-1.735391771376314e-005 
-3.748332764438429e-006 
-8.008364002844526e-006 
4.14113690101654e-006 
-1.582360346526167e-006 
0 
4.960079178420207e-007 
-1.614588470307193e-006 
9.127654099645293e-006 
-1.909233715137799e-006 
-1.985250308172465e-005 
-4.234753369423678e-006 
-9.286754648996907e-006 
4.581678283752343e-006 
-7.201459244438479e-006 
-1.603229010904873e-005 
-3.183197535000383e-005 
5.264198975907397e-006 
1.821983166918924e-006 
-2.653129654048004e-006 
-5.189433759593394e-005 
1.593327161767323e-006 
-5.127388110717019e-006 
-1.103526540961684e-006 
-1.807342891367026e-006 
-9.215503492259345e-006 
-1.914935024073396e-006 
2.546972944303337e-006 
-5.88532482257886e-006 
-1.920949618776585e-006 
1.522513263137933e-006 
-1.663203844576529e-005 
-4.726880133188532e-005 
-1.287226667359285e-005 
-1.41810999095224e-005 
7.694579340485673e-006 
-5.102026453384149e-005 
1.318132180414365e-005 
-3.208462782424254e-006 
5.00407807754484e-006 
-3.396776925015619e-005 
5.342796055930765e-006 
-1.724312615423968e-005 
3.621912564794694e-006 
9.358089612647016e-006 
-3.274176335748335e-005 
-1.711176801407277e-005 
-3.36494627316014e-005 
-1.484971813129074e-005 
-6.797323925415032e-006 
-3.261774062592472e-005 
-8.873037317431628e-007 
-1.227087328766215e-005 
4.706049924304335e-007 
3.027655799519254e-006 
-9.60593061093121e-006 
5.911567094093468e-006 
1.78259607791555e-006 
2.227235834658467e-006 
-5.866466076325316e-006 
3.077507893483778e-006 
-2.699618511909762e-006 
2.012014437957587e-006 
2.243899656299718e-007 
3.042651041335154e-005 
-2.350272459642022e-007 
2.820593138569368e-006 
1.210096265197189e-006 
-2.812357035116104e-005 
-8.660760147923998e-006 
7.773745487550316e-007 
-1.145392359963279e-005 
7.80292764728928e-006 
6.515811764681898e-007 
-6.156933475536486e-006 
7.199816266399262e-006 
-1.167121602354745e-005 
-1.397643537491911e-005 
1.221856007121175e-005 
1.937440857883127e-005 
-2.212551728451255e-005 
-1.647091253844127e-006 
2.378674809634753e-005 
-2.373844544189921e-005 
1.622257954850249e-005 
1.430832060040724e-006 
-1.914644549834895e-006 
2.343687780864319e-006 
-1.143004024277281e-005 
5.329099299544273e-006 
3.627293391245878e-006 
1.670632361820661e-005 
-5.013520520178258e-006 
9.338946388950012e-006 
-2.628727777879859e-006 
-2.615065944926856e-005 
-2.399005594957534e-006 
1.737133540936145e-005 
4.68682682783431e-006 
9.271298206600474e-007 
-2.177470962244124e-006 
-2.60562479518208e-005 
1.563193002291726e-006 
8.696290731395546e-006 
-1.342299305068528e-006 
2.352108583374981e-006 
3.162398112882659e-005 
-8.42423462455095e-007 
-1.165897562149176e-006 
-3.430613811297836e-006 
3.656473132899703e-006 
1.30898222255642e-005 
-6.516144358392454e-006 
-3.729001532505221e-005 
-2.060898721378407e-005 
-6.263639780839549e-007 
5.441907579968202e-006 
-3.215822059893113e-006 
8.643924407538813e-007 
5.488668580586735e-006 
-2.246455099517727e-005 
-3.283796088518765e-006 
-1.157765266630622e-005 
2.321349927229375e-007 
1.002330125935481e-006 
5.823926793311304e-007 
-7.93898496563319e-006 
-2.882602816702811e-006 
-5.860141825034801e-006 
4.368315414658569e-007 
1.201035708359974e-006 
-9.488459276063999e-007 
-7.966580660997747e-006 
-1.633212919452087e-005 
-2.768287913700602e-006 
3.77278105481376e-006 
-5.346957194037402e-005 
-8.670735665677644e-006 
-1.300588294804841e-005 
2.940052443899165e-008 
-7.243203114445595e-006 
-1.298917007300819e-005 
-2.348964470967107e-006 
-1.352291492442006e-005 
-3.34672926797054e-005 
7.762556900085586e-006 
-2.06925607577112e-005 
-1.606118925733951e-006 
-2.489109250905272e-005 
7.253845523023914e-006 
3.105943508714033e-006 
2.970401476630895e-006 
-4.605427090903153e-005 
-1.191271752361293e-006 
-2.312917000871519e-005 
-3.086485498186885e-005 
7.727558613119387e-006 
3.043263288240705e-007 
-5.445426488163327e-006 
-2.309508570619997e-005 
2.738105925139196e-006 
-1.236396109727438e-005 
8.251569173444605e-006 
-1.008594667155003e-006 
1.159161717426342e-005 
6.291844889920229e-006 
-6.622750774467853e-006 
-1.505915152200459e-005 
-2.681590417944347e-006 
-8.362593875971616e-006 
2.14962840802972e-005 
-1.290004378538484e-006 
-1.772200307514592e-006 
2.884430734274179e-006 
-3.099052611694041e-005 
-4.572336999970648e-005 
-1.52748096883889e-005 
-7.085785761058913e-006 
1.37169570778796e-008 
-1.241999566712668e-007 
-1.290097602297828e-005 
-2.988375192466453e-005 
-1.945537453727183e-005 
-1.040997494020011e-005 
-1.274947858713192e-005 
-4.268803915650523e-006 
-1.591347327444238e-005 
-2.773324272167355e-006 
-6.885807049287264e-006 
2.169050179886582e-006 
-9.350374412461337e-006 
-1.217512321219642e-005 
-7.526377498867649e-006 
5.140778752534906e-007 
-2.780392710632785e-005 
1.122992368546415e-007 
4.3442081791749e-006 
9.931816731402358e-006 
9.002823712703124e-007 
-1.246628068447827e-005 
7.146633133439983e-006 
5.727262657317072e-006 
1.67865535440117e-005 
-9.273851830939635e-006 
1.541385690815838e-006 
-3.373403479309297e-007 
-1.920717651511358e-005 
-4.342553039558803e-006 
2.350976564389628e-006 
-1.79679157109626e-005 
-4.800956303706296e-006 
-3.899056163388917e-007 
-1.38612366882431e-005 
7.107098689823997e-006 
4.046269985561187e-008 
-8.885204666952318e-006 
1.751600580513637e-006 
0 
-1.416279687663903e-005 
1.296857251776863e-006 
0 
1.055683800409788e-006 
-2.468184186257595e-006 
-3.712439299370023e-006 
-4.983569650908261e-006 
-7.455794641139891e-006 
-3.231157236087743e-005 
2.037211914914425e-006 
-3.504244641168524e-005 
-1.303819460001595e-005 
-1.069983565811172e-005 
-2.053611043488524e-005 
-6.234253382020337e-005 
-1.144315738338048e-005 
2.349738407844076e-005 
1.221188265480972e-006 
-1.583346587314706e-005 
-6.879378861509134e-006 
-4.092433809703105e-005 
-1.058827456951891e-005 
3.46933440371135e-006 
-1.553791856828659e-005 
-1.230908691931476e-005 
-6.40126042416781e-006 
2.172156472842323e-006 
-3.883205899842232e-006 
7.106141265375996e-007 
1.896448816936253e-006 
-9.43325142595382e-006 
1.671721364976105e-006 
1.635799868427521e-005 
-1.899830601983606e-006 
-2.714722332544184e-006 
-9.301878693932952e-008 
9.340890259146154e-006 
-1.439886137095176e-006 
-2.435421663428308e-005 
-1.187955691699475e-005 
-4.364754121788825e-006 
4.215925543405941e-006 
-9.19282442496076e-006 
-2.323666817115157e-006 
-3.608209209136338e-006 
5.326910447276256e-007 
-2.63474797859281e-006 
-6.312749912713697e-006 
-2.449597350494751e-006 
2.147048362727743e-006 
-4.444803800259947e-006 
-2.655334537382244e-006 
4.214303511894795e-007 
-1.307268422292023e-005 
-1.78931872793263e-005 
3.094265362442043e-006 
1.723133553294302e-007 
-3.38679285211606e-006 
-1.293497140071636e-006 
-7.998522622820728e-005 
-1.242313072996175e-005 
2.743755930124309e-006 
-2.713379734125465e-005 
-6.918663600292446e-006 
-1.437375915627014e-005 
-6.055561034902015e-006 
-1.314294865796719e-006 
-1.747421028874234e-005 
-3.552531941205563e-005 
-3.767004606670707e-005 
-3.13659928811074e-005 
-2.068387811358271e-005 
-7.06485931636536e-006 
-4.9366018457644e-006 
3.604912487905767e-006 
-3.388418813173442e-005 
-7.537555604008687e-006 
-2.446948332568532e-005 
-1.461305801762533e-005 
1.465035240173303e-006 
5.353966064134666e-007 
-1.171376407757531e-005 
5.965775843006832e-006 
-6.05494182035925e-006 
-8.554492829171533e-007 
-1.99546108222849e-005 
1.378518123557278e-005 
-6.975712626012233e-006 
2.148269569051485e-006 
-2.365127906806485e-006 
-2.117617329412302e-006 
-1.41578296791187e-005 
5.186211886402509e-006 
-4.183833344181197e-007 
4.891638410347004e-007 
1.076850524462338e-006 
-1.824156288631201e-005 
-6.226110942491638e-006 
-3.353665426490198e-006 
-3.691304935764869e-006 
2.823950167463406e-006 
2.555939294087777e-005 
-4.991486206612953e-006 
6.381436860348129e-006 
4.607444144077158e-006 
-1.668476288593157e-005 
-1.781736095069671e-007 
-1.625336206377751e-005 
-2.4986090292202e-006 
-1.775586767320915e-006 
8.219859389690745e-006 
2.488088560494879e-006 
3.478748632272267e-006 
8.764979932119532e-006 
-1.284114805158762e-006 
7.079937470492068e-007 
-3.727412725161153e-006 
2.246856757788853e-006 
-5.453516761994088e-006 
-3.118236886331556e-005 
-8.003453286094985e-006 
-1.716433323559211e-006 
4.036755388230648e-006 
-1.493359676854397e-005 
1.180441643744799e-006 
-2.459451982398522e-005 
-2.016946993340886e-005 
-7.810872373097739e-006 
-3.218956260097855e-005 
-7.359672735714652e-006 
-1.867507046142279e-007 
1.030950008975838e-007 
-8.99655483170128e-006 
-5.799119463778827e-006 
-1.069258497461664e-005 
-4.504239816537402e-006 
-7.65492118709519e-006 
-2.602032552530694e-005 
-9.090275399169904e-006 
-3.734883248712039e-007 
6.94805308045525e-006 
-1.023048642374725e-006 
7.706572824844028e-007 
1.507126693027665e-006 
-2.2878971398187e-005 
-1.283043250151852e-005 
2.846100586748785e-006 
-9.5400097520158e-006 
-7.119575165085694e-006 
-2.130184197893423e-005 
1.587008432541368e-005 
-1.428430801066504e-005 
-2.559114338070356e-005 
-1.335640888887684e-005 
-1.427939235584216e-005 
-4.081469525702362e-006 
-2.792816538417484e-006 
-1.821903206123926e-005 
-6.445132831403713e-006 
-4.188715979434282e-006 
-7.021585136921151e-008 
-4.744329538111328e-006 
-1.059069640805048e-005 
4.09600370418245e-006 
-5.481839735648626e-006 
-4.141127755625402e-005 
5.526711457597563e-006 
-1.601242692871878e-006 
-1.604504600173591e-006 
4.253344883652244e-005 
1.011185831792049e-006 
-1.056624815938531e-005 
-4.703073337924827e-006 
7.477572202794538e-006 
-2.055644480210974e-005 
-2.923864504051032e-006 
-6.006151056045284e-006 
-1.203469197402315e-006 
-1.613613744544582e-005 
3.541697953254593e-006 
-1.313091495979277e-005 
-4.568794593004255e-006 
1.161529963320092e-005 
-1.253771632035202e-005 
-1.491710513529498e-005 
-1.153451901969723e-005 
-6.806907185876712e-005 
-1.544173613932002e-005 
-1.538259309464494e-005 
-7.007415112209412e-006 
1.243750698516034e-005 
-1.50005668514075e-005 
-6.677548086396934e-006 
6.245918962489346e-006 
-2.030545244763496e-005 
-2.624163698889472e-005 
8.639064037283336e-007 
-6.312888950266373e-006 
1.823226260779991e-005 
6.005206245820612e-006 
6.809527648503228e-006 
4.153522764367492e-006 
-2.339725755674874e-006 
9.574850943702792e-006 
-1.85441943746714e-006 
1.068618314338933e-005 
1.846920992475243e-006 
-2.136837458352003e-006 
-1.630183251040871e-006 
-8.927695067743144e-006 
-2.322409682421305e-005 
-2.937946021471389e-006 
5.562549401216257e-006 
1.859039457981955e-005 
7.205425181789034e-006 
1.428405852040042e-006 
-3.020887951397097e-005 
-7.401401459258609e-006 
-1.508336067837672e-005 
2.485639905860117e-006 
-2.547915330881108e-006 
-1.250593751413144e-005 
-1.392918329481758e-005 
-2.963438187380218e-006 
7.559915882131795e-007 
-1.004870555526913e-005 
-5.22259418879375e-005 
4.869072974352882e-006 
-3.702950230306753e-006 
5.383575208035252e-006 
-1.652523708018084e-005 
-4.456743762976854e-006 
-1.827840013181352e-005 
2.634621498695206e-005 
-3.322045363151583e-005 
-2.670744620818817e-006 
2.973251836221861e-006 
-5.025031928959313e-007 
-6.276677700082755e-006 
2.285299751799554e-006 
3.160479803745393e-006 
-1.520153753142141e-005 
-1.781941488769413e-005 
-1.692685341480249e-005 
1.170089575060564e-006 
-2.048862807293738e-005 
-1.617015360864118e-005 
2.802638187962745e-006 
-2.043328150183813e-005 
4.24556007542868e-005 
-1.551842233905481e-006 
-2.951208604394158e-006 
5.590072062298255e-006 
-4.311282345533677e-006 
-3.878558023880572e-006 
1.094955258481974e-006 
-1.010822511553861e-006 
-1.111260173570614e-005 
-3.639905186467456e-006 
-1.723497205864676e-006 
2.090513209658534e-006 
-2.004981325292545e-005 
-2.300504176073382e-005 
-1.01601129823138e-005 
-3.359577440843649e-005 
-1.480187234259055e-005 
-0.0001004812348139625 
-3.688328954010985e-005 
-3.310800800353418e-005 
-5.184047399182146e-006 
-3.256752196538807e-006 
-1.074181892509563e-005 
7.273324808222873e-007 
-3.070785068646975e-006 
4.912965442952878e-006 
-1.508482800834762e-005 
-5.651277447921316e-006 
-2.020869183909137e-005 
-4.241173207433987e-005 
-7.145465665281145e-006 
-3.053854582219021e-006 
-2.385522777398155e-005 
-9.045691892088057e-006 
-4.87041276106112e-006 
2.693701971194025e-006 
-7.480628435961367e-006 
-3.398713073556073e-006 
4.009054939857794e-006 
1.280787204457293e-005 
-3.587366075229641e-006 
5.546203299703411e-006 
-5.792504208503907e-006 
-1.911531638095154e-006 
-2.147225769319184e-007 
-1.516061788103879e-005 
3.610495174999255e-006 
-9.182476172253206e-006 
-2.421767992991573e-005 
2.800699924694113e-007 
0 
1.278157099275822e-006 
1.15933899920541e-006 
-1.046916837587743e-005 
-1.302692589103373e-006 
-1.401616346298894e-005 
-6.354039152836309e-006 
-1.227065855592427e-005 
-3.756536427214524e-006 
9.589845387212724e-006 
-2.154819774195664e-005 
-2.005883812670665e-005 
-4.390835696795112e-007 
-6.214876039535536e-007 
-4.566994607050488e-006 
5.331354654484252e-007 
-2.760290603732514e-007 
-1.126591060034171e-005 
-3.220946157232957e-006 
2.045273270750771e-006 
-1.852384767140001e-005 
-3.495582441471375e-007 
4.053181705226884e-006 
-4.58010449544552e-008 
5.684132860192983e-006 
-1.910541682151618e-006 
2.869506202288719e-006 
-3.215890937409214e-005 
4.201163473587316e-006 
9.43326308795096e-007 
-3.598460366887086e-006 
-5.539040791179979e-005 
-7.910495596563808e-005 
-3.968094586728951e-006 
-4.800684425668473e-006 
-2.015727357797616e-005 
-1.574574896342412e-005 
8.368048171375312e-007 
-4.497560562169831e-005 
-8.024018069075747e-005 
-1.446295721578313e-005 
-1.114087390483539e-005 
-6.026473191473793e-005 
-3.473979172444924e-005 
-1.256016117565051e-005 
-0.0001305654908859011 
-2.199523712892783e-005 
-2.876613230239414e-005 
2.383024777730237e-007 
-6.839724618978504e-006 
-9.758794009502401e-006 
-8.887353101819529e-007 
6.844364397550005e-006 
4.634293213279865e-006 
-3.471331413704076e-005 
-1.703263943389826e-005 
-2.01302389834451e-006 
1.841523366284455e-006 
-1.849005072598911e-005 
-7.119703724893069e-006 
-3.341411543453476e-006 
-4.259828677170465e-006 
2.119403110746681e-006 
-1.173881178127295e-005 
-2.356694116161022e-006 
-5.78530532462978e-006 
-1.274448676847636e-005 
6.872314046175721e-006 
-1.654990150504183e-005 
-3.039785050560428e-006 
1.2641774268485e-005 
3.046664493019468e-005 
-2.702330864971596e-006 
3.97630914791146e-006 
2.187816302093008e-007 
-1.369332662350855e-005 
-7.576942946030183e-006 
-1.690655828545394e-005 
-2.897470476742003e-005 
-1.544824774988861e-005 
-5.843600147382685e-007 
6.472420418044322e-006 
-6.183963634837305e-006 
2.03382501913244e-008 
-1.722672020369729e-006 
4.87351672527465e-006 
-7.586304591408912e-006 
-5.594950595437519e-005 
1.412448761710039e-005 
3.213862107193038e-006 
-1.94015517136103e-005 
-5.442935846877127e-006 
3.558302876408728e-006 
2.099883357268174e-006 
-1.401821766820472e-006 
3.237083503666394e-006 
-1.047330938557384e-005 
-4.245584760771116e-006 
1.217663136664186e-007 
2.269058693133194e-006 
-3.304739459799894e-007 
-1.499711204013967e-005 
1.053308612423944e-005 
3.138497210504934e-006 
2.464781193623192e-006 
-6.915789110322928e-006 
-2.689475125391024e-006 
-4.219411400378768e-006 
-3.234720040776127e-006 
-5.517832663534482e-006 
-2.295451765846589e-006 
-2.498848445062324e-006 
-1.358090934898685e-005 
8.832332273013959e-007 
-2.079006558593455e-006 
-5.21961105881487e-006 
4.700061070121639e-006 
-2.943203940068615e-006 
4.03509088102916e-006 
-1.801239522899522e-007 
4.749395306814131e-006 
2.501159124721053e-006 
3.465078084563006e-006 
1.216615224663459e-005 
-7.173258108650125e-006 
7.353852726696874e-006 
-1.051137145295922e-006 
-4.838885342042602e-006 
1.804055401095441e-006 
3.382963667184744e-007 
-2.459059683503081e-006 
5.305685805581342e-006 
2.927256328641982e-006 
3.316444591307891e-006 
-2.685219884628727e-006 
-2.521566282211874e-008 
1.36491729930084e-006 
6.157007475653066e-006 
-3.276558693824658e-006 
-7.344027635408252e-006 
-8.882041416678244e-006 
7.573797500786862e-007 
6.420896161778055e-008 
3.657300827561169e-006 
-3.09239235224446e-007 
-7.452875426304599e-007 
5.766299928011515e-006 
-8.044994434046884e-006 
-3.069603779869072e-006 
1.868844939436435e-006 
7.391343352112678e-007 
-1.323212229386305e-006 
-2.572969318708436e-006 
-9.658689370408249e-006 
4.880780216091923e-007 
-1.216260593741276e-005 
-2.853955257649293e-006 
-1.005996642961079e-005 
-2.016391358626746e-006 
-5.296443571237972e-006 
-2.486090609645885e-006 
-1.121411819104574e-005 
-7.627352995335326e-007 
-1.252278747802642e-005 
-2.385277876626517e-006 
1.198052643460678e-005 
-6.278566425576538e-007 
-7.1378992790502e-006 
1.818914817549489e-006 
1.104292831601194e-006 
1.711538478686556e-007 
1.327718080871941e-006 
2.015233675192972e-006 
-1.445294361656547e-005 
-7.782151167015167e-006 
-5.589031889233033e-006 
-2.514781254351788e-005 
-1.70303253731771e-006 
5.070032566507213e-007 
-1.766385658127503e-005 
2.802661306539325e-006 
7.696802426420747e-006 
-4.467248095958848e-006 
-4.167567526574077e-006 
-1.018096895678933e-005 
-1.504757075921534e-006 
-4.800615445799788e-006 
-1.502259264984045e-005 
-6.239581522669093e-006 
-9.955696053961106e-006 
-3.364192697343919e-006 
2.603623847785322e-006 
-8.169111051566129e-007 
1.680937197893433e-006 
-1.081558102771042e-006 
-1.381360412839385e-005 
-5.350096538429447e-007 
4.35165839878027e-006 
-4.026257362747956e-006 
5.014607148451471e-006 
2.140398045122469e-006 
1.791320817537317e-007 
-6.232318382896224e-007 
-1.204953976516983e-005 
-2.415659952832637e-006 
-3.292036965677825e-006 
-4.88527346047109e-006 
-1.036034183530028e-005 
-6.504930745207622e-006 
2.745355876370196e-006 
3.376476937943177e-006 
-1.149313182238325e-006 
6.935158628225496e-007 
-1.579357798032593e-005 
4.411539012934772e-006 
-2.345224620744329e-006 
-6.098418229223389e-006 
1.178763377002184e-006 
-5.032618984894806e-006 
-6.0524591877918e-006 
-2.905320023324606e-005 
-4.069788016560239e-006 
5.139715484121952e-007 
-1.924303363427974e-006 
-7.908656829752593e-006 
-7.269289336618676e-007 
3.503541601742042e-006 
-7.166915703337969e-006 
-5.251930767816974e-006 
6.618178886097914e-008 
-7.160939928387404e-006 
-1.953566965979714e-006 
-1.065202145906616e-005 
-1.374012629720617e-006 
5.87425631744177e-006 
-5.775754635931154e-006 
-2.290517975117709e-006 
-5.074224310073273e-006 
-1.487563039711224e-006 
6.075370706270439e-006 
-1.598170800312853e-007 
-3.577190178005397e-006 
-1.09142190115746e-005 
5.254804132530239e-006 
7.774162623550906e-006 
1.084025386340545e-005 
-1.040172006366115e-005 
7.540790023714399e-006 
1.73961694817696e-006 
-4.266124335432822e-006 
-6.530714711322697e-006 
7.051704628653767e-007 
-4.912073634376214e-006 
-1.351931371429482e-007 
7.905414025627037e-008 
-1.070437078568188e-006 
1.454081713561303e-006 
-2.970668294809204e-007 
-5.472317957170947e-006 
-1.101851256901612e-006 
-4.346567176553364e-006 
7.481602675600723e-007 
5.225248749314792e-006 
-7.303065183526213e-006 
-4.250777377579488e-007 
-2.101911624913436e-007 
7.05826718052801e-006 
-4.243227989777819e-005 
-5.606787115672383e-006 
-1.717255465153058e-005 
-1.011710127079215e-006 
-7.947684697300031e-006 
-7.325625622160206e-007 
8.674807684336273e-007 
4.444127430689144e-006 
-5.456603632583394e-007 
2.034206420767613e-006 
-2.443709318313537e-005 
-4.524301683980678e-006 
7.57757789646386e-007 
-9.532143015860242e-006 
2.286551231937427e-006 
-2.80406641027017e-005 
-5.046255553485508e-006 
-8.961332234061866e-006 
-1.65268497491658e-005 
-8.834873889187121e-006 
-9.8003337244474e-006 
8.694308861395242e-006 
4.016084733527026e-006 
-4.432225857634875e-006 
-5.815117634453107e-006 
-2.52606033710292e-006 
-1.855229927896894e-005 
-8.415524564915043e-006 
2.150676602885465e-006 
9.000945123439559e-007 
1.74801099344961e-006 
3.59057034327275e-006 
-3.330794540917933e-007 
2.700938544779877e-006 
-1.087592455630417e-005 
-1.097029025267151e-006 
-5.858906010739193e-006 
-6.771727523006389e-006 
2.845368714998362e-006 
9.22676579013496e-006 
6.065302889295769e-006 
-2.358115291981875e-007 
1.189780036011073e-005 
8.322457944652339e-006 
-4.181138560829287e-006 
-4.173437004027686e-006 
7.885208974683181e-006 
-9.824786665065162e-007 
2.140477583523556e-005 
9.041797847017467e-007 
-3.89172134094733e-006 
3.359800457385425e-006 
-8.470382324508949e-006 
-8.604463145715759e-007 
2.773654161616148e-006 
1.060109949923848e-005 
-3.584114636158364e-006 
1.507064120833962e-006 
-3.322113903628574e-006 
4.249124362636843e-006 
1.011431992380713e-005 
-2.567356698239694e-006 
8.278535934555423e-006 
-3.960949035755656e-006 
-1.811664549558156e-006 
-1.487555301722223e-005 
-1.095560108672168e-005 
-2.008481208181425e-005 
-4.452173284448271e-006 
6.962214852881537e-008 
1.66458212304995e-006 
-2.740200268195602e-006 
-2.250056237983203e-006 
-3.183312578630175e-006 
4.437879940451963e-005 
-3.873282118701697e-006 
1.687123024112529e-007 
1.692286687712707e-006 
8.942261224886148e-007 
-6.718254234057065e-006 
6.763178693183797e-006 
-3.2594032443399e-006 
3.474368950451797e-006 
8.421531681421391e-007 
-7.586854876295641e-006 
-1.67492163593667e-006 
-1.102386575281246e-006 
6.021654816614987e-007 
-1.636590751168955e-005 
1.39556785859638e-006 
-1.516347755569879e-006 
-6.975350338100017e-006 
-4.897865719008104e-006 
-5.290845441605845e-006 
-4.397611753293929e-006 
6.878334846281851e-006 
-6.261416129933758e-005 
-5.266932029555039e-006 
-1.107043937289932e-005 
-3.179822019739627e-006 
-1.062008646846565e-005 
-5.743196218247157e-008 
1.891358123765033e-006 
2.452821764854856e-006 
-2.10560781419885e-005 
3.836993824442536e-006 
-6.064971464944872e-006 
-3.158397179534743e-006 
-1.861489918802959e-005 
-2.120873574982087e-006 
-1.573444733311133e-005 
-3.274722226088595e-005 
-1.218017871499478e-005 
-7.689764896276121e-006 
6.495638324481605e-006 
-4.974320449400908e-006 
-4.412264102856715e-006 
-6.372175296672177e-006 
3.550847589665008e-007 
1.07389377383202e-005 
-5.621061912849425e-006 
6.510234558298317e-007 
3.156278895412804e-008 
-3.460714872049144e-006 
1.652757984938667e-005 
-2.286174143813987e-006 
9.642407884203144e-006 
-1.999812808632825e-005 
3.581048118546923e-006 
-3.998920920348955e-006 
4.734978873675494e-006 
-2.468123275343003e-006 
-2.661547771912966e-006 
-5.699842616863597e-006 
2.757707322898403e-006 
-3.767035244170639e-006 
3.520373356801332e-007 
-7.645286507612779e-007 
5.154092226733276e-006 
5.2197664399818e-006 
-1.197789150563967e-006 
1.023091548846782e-006 
-7.158040345273842e-006 
-6.53525952495801e-006 
2.208174177161535e-006 
-6.62765607225753e-008 
-1.116881373422563e-005 
-5.829903361852906e-006 
5.827746648721075e-006 
-5.645391193825912e-006 
-2.363984633777573e-006 
9.412554754178037e-007 
1.126790156659869e-006 
3.12899659540274e-006 
3.762368873006951e-006 
1.398946289012894e-006 
-6.458213710161363e-006 
-3.427729612566448e-006 
3.92909817228237e-006 
-3.307300644088378e-006 
-1.847508351149247e-005 
-1.508667182828082e-008 
-1.086511685542594e-005 
-9.349885970051929e-006 
-7.090636731043119e-006 
6.001294153828152e-007 
1.526108352574987e-006 
-6.200916124643645e-006 
-8.885850673269079e-006 
9.450774066464047e-007 
-1.26961965863013e-006 
4.551600806703448e-006 
-7.652853583113975e-007 
2.999509949076853e-006 
-8.569276622875343e-007 
6.258619941308817e-007 
7.339539306616473e-007 
-1.1200932438762e-006 
6.798530756849061e-006 
-2.664162832652877e-006 
3.512321200408854e-006 
-1.518084501040404e-006 
-2.239789165155592e-007 
-1.019739823780813e-005 
2.773640126935243e-006 
-5.443501241494985e-006 
-4.058833660436484e-006 
-3.149451385170204e-006 
3.074989686899676e-006 
-2.602318559901447e-006 
3.523485882162577e-006 
5.63077656609159e-006 
-3.612234840446403e-006 
-3.808181376441811e-006 
3.635670899851288e-006 
-2.299911848873377e-005 
-4.384046890348757e-007 
-6.411689899226239e-007 
3.555550572071635e-006 
-4.209602134562318e-006 
4.87189673342651e-006 
5.134556596030673e-006 
-6.45999836825771e-006 
-1.70917036540092e-005 
1.429337369653109e-006 
-8.56600185001586e-006 
5.261156769375402e-006 
-1.602887509293317e-006 
-4.490526832848459e-006 
7.6257776781083e-006 
3.634682204466779e-006 
-4.292852805507401e-006 
-4.897272392589257e-006 
-1.418832936668896e-005 
1.62244909639894e-007 
-2.13984652502846e-007 
1.452453261684812e-006 
-5.504173697252773e-006 
4.452458082615107e-006 
-7.001404985730203e-006 
-1.777171351482493e-005 
-7.065897450005033e-007 
-1.090805995387169e-005 
-1.32347464358487e-006 
-8.947911732307443e-006 
8.481402492997601e-006 
1.013471815332055e-005 
-3.541059405633677e-006 
1.338767233452434e-006 
-1.229207756027251e-006 
1.599401268139444e-006 
-5.629501511598673e-006 
-3.708347917430527e-007 
1.886154119111517e-006 
1.793374513278721e-006 
1.2606234140688e-006 
1.456506107310935e-005 
2.091316134822232e-006 
-6.708942156495795e-006 
-6.528879781417215e-006 
-3.820833835248042e-006 
2.955181907861292e-006 
-9.777326297825308e-007 
-6.717744047116363e-006 
2.375492863247761e-006 
6.800645606043124e-007 
-3.814506589525964e-006 
-6.391517342901546e-006 
2.250465703339181e-006 
-2.675840036728842e-006 
-1.050406064006447e-005 
5.024532586775524e-006 
-4.06986066823179e-006 
-5.501199791419844e-006 
-4.079573673138598e-006 
-6.310457586006277e-006 
-1.083416813063293e-005 
2.183967698136878e-006 
-1.54440042489315e-005 
4.316422464635062e-006 
-9.69422180244646e-006 
-2.177180662418983e-005 
2.155613691701581e-007 
-7.40410959137512e-006 
-2.671217268684142e-006 
7.450671300653677e-006 
-7.370788523927334e-006 
5.535951470784068e-006 
-1.08280183507928e-005 
-3.569190424909509e-006 
5.709784182007126e-006 
-1.403305953890415e-005 
-5.482266623097409e-006 
-1.101759713547292e-005 
3.308393888504668e-006 
-3.498536081024143e-006 
1.248181320077632e-006 
6.207084120077987e-006 
8.901082802896386e-007 
1.946876905624086e-006 
3.411355289891821e-006 
3.035982425738773e-006 
4.290905270671902e-006 
-3.63838849915258e-006 
-3.19152391714072e-006 
-4.074576716945405e-006 
5.260317380891232e-007 
8.296396456392856e-006 
1.814743100092382e-006 
-1.40879899599526e-006 
1.3234655709535e-006 
6.787194158117565e-006 
-2.785139419131019e-006 
1.52757131926937e-005 
-5.865966888761561e-006 
7.930337066189578e-006 
8.792769183665665e-007 
8.546757945770036e-007 
-2.71536008123245e-007 
-3.9951775065716e-006 
4.817470322433389e-006 
7.152255356009355e-007 
1.296992199819546e-006 
-9.268107914385407e-006 
-1.652548228465563e-006 
-2.952326309986567e-006 
-4.006596904169063e-006 
-3.600267730558707e-006 
-5.522605421321089e-006 
-1.022066802781105e-006 
1.713433553266628e-006 
-1.005401984657618e-005 
-5.907420536081056e-006 
-5.261953508662954e-007 
9.838403275673439e-006 
-2.337122446234097e-006 
1.6756187450301e-006 
6.159930536270744e-006 
-7.939998949165286e-006 
-1.097064192507697e-006 
-2.110430456391043e-005 
-1.16418535883639e-005 
-5.580702823084614e-006 
-1.383857612250712e-005 
7.156234358859301e-006 
6.203343565841909e-006 
-9.772493669121552e-007 
-9.732279671623684e-006 
-8.961822423905688e-006 
2.238312557365197e-006 
7.551594023936914e-007 
5.922360355877132e-006 
-2.212020945881259e-005 
2.586214402991716e-007 
-3.254833454582513e-006 
-3.476042330810667e-006 
-2.085640782267904e-005 
-5.690668476711071e-006 
-6.261401577388259e-007 
-9.484616496653487e-007 
-9.681497774810653e-006 
-1.173658193153502e-005 
-4.233442179552502e-006 
-1.236182487842499e-005 
1.191709789219501e-006 
1.534487764117987e-006 
-1.438805474327259e-005 
-7.862605704445827e-006 
-1.001909057997748e-005 
1.294404589593114e-006 
7.210550546661258e-006 
-3.421706568650717e-005 
6.207666540140486e-006 
-1.052144980867473e-006 
-1.68797698449226e-006 
5.1620446931853e-006 
-1.407566010489344e-006 
-2.17235887735024e-006 
2.119334865266003e-006 
-3.952038785221491e-006 
-7.314464872307819e-006 
-1.120444495213857e-006 
-1.168354979523767e-006 
-7.635983677021174e-006 
-6.325791149755871e-006 
-3.069193360177311e-006 
6.616997055302639e-006 
1.336510711423276e-006 
4.202863497654152e-006 
-7.974705363503121e-007 
-4.704087699254141e-006 
-6.381078038758781e-006 
2.258397395432378e-006 
8.971183849905969e-007 
-2.427787976170018e-006 
5.701554294263455e-006 
-6.832647006750434e-007 
3.966867669107259e-007 
5.641281753563069e-007 
-1.256817060435014e-008 
8.415549640748869e-006 
1.400146084283322e-006 
-1.106312743867757e-005 
2.245558638310271e-006 
-6.628559726126831e-006 
-8.235220649167079e-007 
2.04023767348925e-006 
-9.507792625078512e-007 
1.49414655316817e-006 
-2.534525615132377e-006 
-8.109598660021219e-006 
-3.787391220934544e-006 
1.007176804000702e-005 
7.195350568598098e-006 
-1.046984206700249e-005 
9.286654823602283e-007 
1.215855928463943e-005 
1.134427321104504e-006 
-1.083143358173631e-005 
-1.752257481271053e-005 
-1.208704306904726e-007 
4.862006253355085e-006 
-1.240835601738535e-005 
-4.937329626227081e-005 
1.736648029846336e-005 
-1.512199245824258e-006 
-1.854531518575456e-007 
1.097562497774782e-005 
-8.003236973773262e-006 
-4.929050282720391e-007 
-1.215911122849784e-005 
-3.120231772902857e-006 
5.754829172093833e-006 
6.88342925740286e-006 
5.985514939023596e-006 
-2.652897762714053e-006 
-4.612681401329523e-006 
-1.212803154361528e-005 
1.95227588953641e-006 
-7.941674466586159e-006 
-2.721356006382903e-006 
-1.787987632511362e-005 
6.996462452643246e-006 
3.814263713277984e-006 
-1.562650070994353e-005 
-5.984950245810253e-007 
-1.155813240060645e-006 
2.894685422235959e-007 
-8.488121555274105e-006 
1.176787602481424e-006 
-5.290960453569633e-006 
-9.500330071117628e-006 
-1.068372305490767e-005 
-4.356224520055166e-006 
-1.365537148188809e-005 
1.263782052527431e-007 
-1.372211761380938e-006 
-2.368407380752652e-005 
-9.852879226079691e-007 
7.764245514785203e-006 
-1.17924883706996e-005 
-2.294428932857804e-006 
-8.435736816101709e-006 
-3.597321167101797e-006 
7.264929946449197e-006 
-1.807162062379306e-006 
-1.106359674284197e-006 
3.489862479411072e-007 
-7.478477470248252e-006 
-5.069904202835011e-006 
9.058662823179528e-006 
-2.542096279046921e-005 
4.553898634512981e-006 
7.645565323763695e-006 
7.678147785400077e-007 
6.402593412442879e-007 
9.903974164599885e-006 
7.392940224568944e-007 
-3.27177367416574e-006 
4.164146371661228e-006 
-9.121364924991365e-006 
-2.542016902546211e-006 
-1.805144162365821e-006 
-3.414426133579371e-006 
1.436452811992874e-006 
-3.548116646697007e-005 
-7.345077942487296e-006 
3.082730355796068e-006 
-1.284716492314938e-005 
-3.491444688473546e-006 
