solver_type L2R_L2LOSS_RANKSVM
nr_class 2
nr_feature 360
bias -1
w
0.0002834484732644177 
-0.0004831432009544682 
0.0003706164930872356 
-0.0001430119329860622 
-0.0001925994602574682 
-0.001928857624271088 
-0.0008428235380374879 
-0.000260148180572033 
-0.0004492725961833339 
0.0002152913974388574 
-0.0001423689331756641 
8.407560623744836e-005 
-0.001429170276936214 
-0.0001721562736941203 
0.0001551933554556625 
-0.0007661460935612627 
-0.0002712860750074146 
-0.001041285499790625 
-0.000938435511118152 
-0.001870282464292193 
0.0002002627848766824 
-0.0006664037751830828 
5.463466090542199e-005 
5.884090353240729e-005 
-0.0001630271552676694 
0.0001659017331017732 
1.744908475804406e-005 
0.0002211800091270669 
-0.0001346068990432376 
0.0002382107732523977 
0.0001020097592164724 
-0.000161428304269846 
-6.378504009825097e-005 
0.0001347493852066762 
-0.0001629681806689314 
-0.0001408729849026273 
0.0002338414892140493 
-0.0002440635014480381 
0.000289397651423693 
3.00201020353326e-005 
3.365379741363657e-005 
-0.00015073902193075 
4.604150187561435e-005 
-3.882018187990499e-005 
-0.0003912030308335937 
-0.0001367438308990658 
-2.982437073522172e-005 
3.130909470439883e-005 
-0.0007901789383257976 
-1.36827357818321e-005 
4.954579031196825e-005 
-0.0002103467562196404 
-0.000112018611030478 
-0.0006932807768207436 
0.0003027289054810773 
-0.0003145440218548521 
-0.0001386536915144883 
4.584704686459025e-005 
-2.953187499253886e-005 
-2.468534691624277e-005 
-0.0003436473364206293 
-3.298312290920603e-005 
-0.000133917976706321 
1.25368674224242e-005 
-0.0001311133062007968 
-4.586151482446995e-005 
5.716050350825969e-005 
-0.00012290667883903 
-0.0001526614099383232 
-6.925974895161807e-007 
-1.500396045543465e-005 
-3.997810287969502e-005 
0.0002400825833237516 
-0.000281282647576912 
-0.0001859662387202444 
-0.0002491933390405616 
-9.990858708875173e-005 
3.654377884728732e-005 
0.000137951115014471 
-6.818434800148612e-005 
-9.461633307961064e-005 
-6.808248448330163e-005 
-7.290628908981419e-005 
-0.0005155510996873648 
0.000235253767573269 
0.0001323879725050429 
0.0003356140057637893 
0.00022009822969578 
-0.0004917731675834223 
-0.000330403146123769 
9.035777634253697e-005 
-0.0002821502066924422 
1.752020678660618e-005 
-4.460244122144427e-005 
-3.893180487747248e-005 
-0.0004132080565065709 
-7.278134454581308e-005 
-0.0001238664896093162 
0.0003542489724349199 
-0.0001203065707307276 
-0.0005784352287427604 
0.0002285878507600016 
-0.0008639222124655524 
-4.544437072101141e-005 
0.0004141830622068029 
0.0001837804097785119 
9.750469270847526e-006 
-0.0001023760924519596 
6.830352581819633e-005 
-1.566612338907425e-005 
0.0002134754579024326 
0.0001063028132393463 
6.176651245048804e-005 
0.0003587759788577102 
-0.0003291534090508122 
-0.0002981438553990034 
2.639420186092589e-005 
-0.001526430867135284 
-0.0001750142540990786 
0.0003047951779304787 
-0.0005089354280467564 
-0.0002313926922259922 
0.0003375557213433415 
-0.0006130946498593469 
-0.0005980819396541355 
-4.42944664710138e-005 
-0.0001575315524849245 
-0.0005598602176134715 
-0.000652933584076253 
-0.0003263173309120185 
9.848527741320641e-005 
-0.001430623251713774 
0.0001104306198377586 
-0.0003791506542783294 
-0.001502444298019269 
0.0003478979741955679 
-0.0004063230681883713 
1.849475176461313e-005 
0.0002288741132835166 
-0.0001291685084628336 
-0.0006427947228227148 
-4.333777029424214e-005 
-0.0004916364077509861 
-7.946588307698979e-005 
-0.001107149362528155 
0.0004715388409933546 
0.0003617846469749987 
-0.0004063087209636501 
1.043342463867671e-005 
9.234391986691636e-005 
-0.0005248225985194713 
-0.0008821901196387563 
-0.001195042312080755 
-0.0001052077094705777 
-0.0003275861795197526 
3.043274208079682e-005 
-0.0006151180198082249 
0.000179426061482854 
-0.0002541488710071548 
-0.001230646679458818 
-0.000376755745864504 
0.0002214115741989337 
4.546537576259625e-005 
-7.436685747842733e-005 
-0.0003517407270894674 
-0.0008865986927068866 
1.248892597793183e-006 
-6.149920482145005e-005 
0.0002286352649080886 
0.0003229356195500168 
-0.0004445766819771448 
-0.0001619731405748458 
-0.0003712620652906833 
0.000166300622427426 
-0.0002950857752327965 
0.0001013292897082248 
-0.001883808805801653 
-0.0004379196539567637 
-5.726490012711277e-005 
-0.0001224706087230281 
0.0001258539136228602 
5.106637702052952e-005 
-0.0001202736730337952 
-0.0001290973692678481 
0.0001631875679477933 
-3.846621487806458e-005 
-0.0001211311305754853 
2.088975795564427e-005 
-7.603259331815747e-006 
-6.42320565172427e-005 
0.0001639856635643481 
-0.0007861236714576761 
-9.326940594280473e-005 
-0.0003118631180667384 
-2.599487086255005e-005 
-0.0001404016611499532 
0.0001323616855763017 
-0.0007538251694237987 
-0.0004247543479479792 
-8.542249971398301e-005 
8.503878482157109e-005 
5.417017417047162e-006 
0.0002426183496929581 
0.0001398809227789331 
6.63706032969088e-005 
-0.0003719179302449773 
-0.0002569380174175408 
-0.0003283725901953467 
-6.929406371951032e-005 
4.546028114236146e-005 
5.040183672307248e-005 
-3.797826284447864e-006 
-0.0008019791946241025 
-5.021878137540448e-005 
4.026865533647672e-005 
-0.000434723847857128 
-1.286855410038959e-005 
-0.0002089156805883215 
0.0001345994224687023 
-0.000432633559327952 
0.0002852088590048012 
5.257708123637331e-005 
-0.000156952949322945 
4.690868958830461e-005 
0.0001006464527471812 
-8.43346542797722e-005 
-2.539314424246283e-005 
3.160166689905519e-005 
-0.0001237148519724584 
-2.611507814431013e-005 
6.796985276812158e-005 
4.582375634608427e-005 
-6.67253272396226e-005 
0.0002135604770618176 
-8.531715387729494e-005 
-9.997370930800406e-005 
-0.0001563627409940252 
-0.0002465469327831504 
-4.787848749953565e-005 
8.377908491611873e-005 
2.107224997636118e-005 
-7.472874224860387e-005 
-5.204939962496204e-005 
-1.006890226988883e-005 
0.0002600671785857317 
0.0002684930493397132 
0.0001704564662024665 
-0.0003023488942380406 
-0.0009014549042282644 
-7.91523082271137e-005 
0.0001904139012869528 
-0.0002996326686196032 
-0.0002849736201116938 
0.000434639257655127 
-0.0005228854386123986 
0.0001109479683575124 
-0.0004458983043154468 
-0.0002345817855614894 
-1.698585340551297e-005 
0.0004457452841361377 
-0.0002942086039003516 
0.0003271014391366198 
-0.0007561311010198526 
0.0002986300900340789 
9.68740289988952e-005 
-0.0003966264854681981 
-0.0001784037075849251 
-0.0001656232401903289 
-3.681117455752239e-005 
-0.0005380633974422947 
-0.0001435008199410967 
8.310879762533342e-005 
-8.917720752399147e-005 
0.0003873928627130289 
0.0001064349141658901 
-2.013437812553093e-005 
0.0002473415838316493 
-0.001910455682424252 
-0.0002977120570384536 
0.0001744263907789001 
-0.0003175148915548936 
-0.002185976820815263 
-8.621269445473509e-005 
-0.0003599110672197271 
-0.0001574173240580176 
-0.000307237444416042 
-2.142031250638218e-005 
-9.656497284819184e-005 
-0.0008572715815901169 
-3.690842255428487e-005 
7.342293003544536e-005 
-0.001248802853268289 
-8.442401952581384e-005 
-0.0003673967293870909 
-0.0001691338290475418 
0.0004009819529403382 
-0.0002472998166184971 
-0.0001273023936747373 
-0.0003038576744117868 
-0.0002703511835554338 
-0.0004713169845616491 
0.0004685888295206769 
-0.0001278718170872448 
-0.000256402929735876 
-0.001798155879483574 
0.0005587853613848498 
0.0003356614501465243 
-0.0002354570267963201 
-1.167094982280868e-005 
-0.0001294420636105257 
-8.515290028380561e-005 
0.0002044774147492917 
-0.0001417125562686217 
-0.0008936567036972941 
-0.0001499580941450502 
-0.000135573662716999 
-0.0002395071119016263 
6.26804770250753e-005 
-0.0006456637443743 
-2.482008572808254e-005 
-0.0001255514825659443 
0.0001388170736605118 
-0.0002050495215516794 
-9.878668254056068e-005 
-0.000134637816987698 
0.0002651579736057494 
-9.224234094058165e-005 
-0.0003782645885472357 
2.306663804286125e-005 
0.0001560079549327779 
-1.006401545150815e-005 
2.683338839870346e-005 
-0.0002676384176445946 
-0.00144776310557985 
-0.0002402146878618564 
-8.766434663770517e-005 
-0.0009667550765632638 
-0.0007726789492345239 
-6.258420202474656e-005 
-0.0001483131870397031 
-0.00501851425080038 
-0.0004853830334305789 
-0.0003948714518690581 
-1.452765927759586e-005 
0.0006150443487428793 
-0.001654114988441634 
0.0001225245203460596 
4.607896360845653e-005 
-0.01206973748733829 
-0.002971840446983841 
0.0002701252606903267 
-5.932332152493533e-005 
-3.763892564296182e-005 
1.237484405898823e-005 
4.05559340631614e-006 
0 
-0.002156278715595781 
-9.876264209894938e-005 
-0.002438234108700524 
6.005216410664152e-005 
