solver_type L2R_L2LOSS_RANKSVM
nr_class 2
nr_feature 6620
bias -1
w
3.168930659296465e-006 
6.623515434561739e-006 
-5.696548201637134e-006 
-1.059050591076472e-005 
-1.443973993366569e-006 
-2.693391824960825e-005 
-7.979293957263866e-006 
9.032794554950162e-006 
4.286090817401043e-006 
9.331208717492338e-006 
0 
-4.091918522311121e-006 
5.1704510786711e-007 
-3.996956513931241e-006 
-1.621661427327459e-006 
-3.102323469675696e-007 
-2.014034846434525e-006 
1.314942939772186e-005 
-1.674821177574455e-006 
0 
-4.410457023255589e-007 
4.996083683236419e-006 
0 
5.204464507230939e-006 
9.852505211073175e-006 
0 
0 
-1.070225643182506e-006 
-2.896796813640038e-006 
-3.102323469675696e-007 
0 
5.419577517224805e-006 
5.155134406029196e-007 
0 
0 
-2.586564466672468e-006 
2.684627976006569e-006 
0 
0 
4.479311900075827e-007 
5.204464507230939e-006 
0 
-3.102323469675696e-007 
-1.865803443006289e-005 
5.204464507230939e-006 
0 
-5.049214020969468e-006 
2.242219481597159e-006 
2.863303733388629e-006 
0 
4.682389623488225e-006 
1.214344676586924e-006 
1.426234741585666e-005 
-1.907138058535839e-005 
-3.476090248538991e-005 
1.2952311078274e-005 
6.312671879468356e-006 
3.804068182691808e-006 
-6.83102503617434e-005 
-1.807864591685925e-005 
-6.233343387746699e-006 
-1.958643673825235e-005 
-1.348678786660717e-005 
-4.68128533234817e-006 
3.062575212551039e-006 
-4.440220020754891e-006 
-1.44946083761162e-005 
4.871290505146898e-006 
-5.967042228533349e-006 
5.123424866996893e-007 
1.931242552139493e-006 
0 
0 
1.682501620077829e-006 
0 
-4.820061586547713e-007 
-7.409771104486731e-006 
0 
0 
4.054324063048026e-007 
0 
0 
0 
2.211776097926689e-006 
8.730554141434422e-006 
0 
3.847000852449297e-007 
0 
4.377180255666087e-007 
0 
0 
-3.102323469675696e-007 
2.211776097926689e-006 
0 
0 
2.843449859705136e-006 
-4.591231226360952e-006 
0 
0 
0 
0 
8.431504318714111e-007 
-1.610237723987106e-005 
-2.294372348777764e-006 
5.204464507230939e-006 
0 
0 
-6.767271902859237e-007 
4.054324063048026e-007 
8.36270285058772e-006 
-1.076675066361071e-005 
-9.792582103543038e-006 
1.420666147130956e-005 
-1.678244491571764e-006 
-5.05623790157079e-006 
9.159191104840904e-006 
-6.108744983978533e-007 
-0.0001404966116933968 
-2.109772812136257e-006 
-2.460578525274796e-006 
-5.412283379906357e-005 
8.149144132388545e-009 
-9.117695462382365e-007 
9.898606724361442e-006 
-1.229144501322249e-006 
-1.816867608734663e-005 
-1.638963772227876e-005 
-5.405501136637529e-006 
-1.724554626395564e-005 
-2.904989792878764e-007 
0 
1.018862311074528e-007 
-1.604204009185969e-006 
3.33272669340492e-006 
3.867403101417828e-006 
1.049759408761094e-005 
0 
0 
0 
0 
0 
0 
-6.531012884850928e-007 
5.08963318017804e-006 
0 
2.993690517775469e-006 
-1.407717491884825e-006 
0 
0 
4.377180255666087e-007 
0 
0 
0 
-3.263459480841555e-006 
-2.586564466672468e-006 
0 
1.526566343277704e-007 
0 
0 
0 
-2.279453645341294e-008 
-7.59403867875467e-006 
-2.504023445535042e-005 
-3.047223404144484e-006 
-8.661313887562759e-007 
0 
1.123637331719767e-006 
0 
1.36954260030555e-007 
-2.398419458155251e-005 
-3.153988177383477e-005 
6.552940901787108e-006 
2.190769014050354e-006 
3.51641881928156e-006 
1.978366680573349e-005 
-2.032442784279388e-006 
-3.828899869483391e-005 
-4.932670894370025e-006 
-4.318418536707235e-006 
-6.962869088715354e-006 
-9.654918243569769e-007 
-4.486018413502756e-006 
-1.860801409532839e-005 
1.295341369551245e-006 
-9.344588975512713e-006 
2.351032343040583e-006 
3.515921066903093e-007 
-3.102323469675696e-007 
1.270997614499016e-006 
-7.510822576454401e-006 
-3.186125800267511e-006 
0 
2.258693146097611e-006 
2.211776097926689e-006 
-1.93932780194293e-006 
0 
-1.226558945832118e-006 
0 
0 
3.804068182691808e-006 
8.754360511332174e-007 
0 
3.804068182691808e-006 
0 
-8.618988236928064e-007 
2.211776097926689e-006 
0 
0 
5.050672229878285e-006 
0 
0 
0 
0 
0 
0 
-2.852476447693022e-006 
-3.292074617372791e-006 
0 
2.427651888476747e-007 
0 
-2.089446968223646e-006 
3.699718854776548e-006 
-5.21018265572023e-008 
8.728652456483052e-006 
3.047274285606489e-006 
5.341452757584407e-006 
0 
8.223448769644752e-006 
-1.317112571239829e-005 
-4.508760483303848e-006 
1.188264693658838e-005 
-2.069014470449682e-005 
-2.018766987035707e-006 
-5.142695340059861e-006 
3.943965827769383e-006 
-7.938618061280847e-005 
-1.370199117915774e-005 
1.295960402549014e-006 
5.79057628277024e-006 
-6.795745582346964e-006 
-1.184720746985887e-005 
-1.552197091684137e-005 
-1.07988460624792e-005 
-2.102729001742092e-006 
-1.059105109357189e-005 
-7.814779308897338e-006 
-2.586564466672468e-006 
-5.111542527997813e-007 
-1.336046132322911e-006 
-3.38006176603245e-006 
0 
-1.920263887838622e-007 
-9.698515400496078e-006 
-6.703491931013159e-006 
0 
-3.698964685496484e-006 
-3.841252301015041e-007 
0 
0 
0 
-6.695942602263165e-006 
0 
1.345242554586836e-007 
-1.65416756596659e-006 
-1.270829048941709e-007 
-4.591231226360952e-006 
0 
-4.330965302941798e-006 
-3.265506442425464e-007 
0 
0 
0 
-2.286535088826002e-006 
0 
-2.0574724694708e-006 
-1.270829048941709e-007 
0 
0 
0 
-5.74846326893131e-006 
-4.067783552400321e-006 
-3.841252301015041e-007 
-1.246270815491979e-005 
-3.842422475444707e-007 
0 
-2.420309048970143e-006 
-5.641302909831778e-006 
-1.608421540733229e-005 
-1.216230160203874e-007 
-1.894313274821003e-005 
-3.678925785540048e-005 
-5.010528108120456e-005 
-8.665758249232853e-006 
-4.287250522066745e-006 
-0.0003006311971438519 
-7.117817884335528e-006 
-2.555982347466206e-005 
-2.402532611905008e-005 
-1.622411287643193e-007 
-7.682991578928717e-007 
-8.037562282498365e-006 
-4.144485448418488e-006 
2.573639361176566e-006 
3.227247201510509e-006 
4.663221221219434e-006 
-3.885641733814051e-006 
-1.006697652690338e-007 
-1.294413292104402e-006 
0 
-4.32042601874149e-007 
0 
1.383974776509662e-006 
1.383186666906374e-005 
0 
0 
0 
0 
0 
2.427651888476747e-007 
2.82199860041257e-006 
2.536259757715004e-006 
0 
0 
1.167602860146086e-005 
-2.279453645341294e-008 
0 
5.990339710121966e-006 
5.052639626234265e-006 
0 
-1.270829048941709e-007 
-4.074290194505283e-006 
3.748409417636863e-006 
3.106351206724372e-007 
0 
-4.428813308816161e-008 
0 
0 
-6.38759149009381e-007 
-1.071099446358687e-005 
3.993786460164935e-006 
2.996360720526296e-006 
-8.017650981515767e-007 
-6.951777410710428e-006 
-3.953542929175612e-006 
-5.875672215801627e-006 
-5.998579247901441e-006 
-4.642753197676339e-006 
1.242788336915131e-005 
2.269403933143047e-006 
2.68225892929456e-006 
-1.126719115474696e-005 
-9.844061164593604e-006 
5.381934426880943e-006 
-2.734500493486669e-005 
-1.818946242320294e-005 
-2.43482975874223e-005 
-1.497003198591593e-005 
3.229719956210875e-006 
2.662373685515312e-006 
-1.187013810951878e-006 
1.295845676693673e-006 
-1.393480933322009e-005 
2.148978404119453e-006 
-3.695812016376759e-006 
-3.179251019070808e-006 
-5.195079396428289e-006 
-7.873173571419167e-006 
3.200988694217162e-007 
-7.730996334920177e-006 
-6.71563040615662e-007 
-1.059409591928112e-006 
6.193785464470989e-007 
0 
0 
0 
0 
0 
0 
-8.427132896249755e-006 
-7.579001336190817e-006 
0 
-1.270829048941709e-007 
-1.232222756128113e-005 
0 
0 
-7.239696831152673e-007 
-1.292748531581639e-006 
6.710118920695577e-007 
0 
7.582786294505938e-007 
-4.32042601874149e-007 
-7.730996334920177e-006 
0 
-3.474399373026721e-006 
5.983553762043288e-006 
0 
-2.279453645341294e-008 
1.335915181654559e-006 
-4.635129449685374e-006 
-8.470310090330314e-007 
4.154930372213442e-006 
-7.034805863582913e-006 
-6.91899886862515e-006 
0 
7.029546762253565e-007 
-1.352315095194657e-005 
-2.988179085639495e-005 
1.353119724023329e-005 
-4.313970403235995e-005 
-1.641766515863977e-006 
-3.470332709422151e-006 
5.15614488518892e-006 
-0.0001484219048255225 
-2.858598345951225e-005 
-6.490004322193032e-006 
-3.32050091533728e-006 
-1.26616945966335e-005 
-2.616477418352886e-005 
-7.369644347788026e-006 
5.673080051657716e-006 
-2.708367706396446e-005 
-7.674007563436024e-006 
-1.797538637257614e-005 
-1.707988597378205e-006 
2.846487105671185e-006 
-3.001211247049825e-006 
-4.228136706373062e-006 
-7.585932461166954e-007 
-1.270829048941709e-007 
0 
-2.774584002455548e-005 
0 
5.155134406029196e-007 
-2.28360829396247e-006 
0 
0 
0 
-2.467059683196797e-006 
4.054324063048026e-007 
0 
0 
1.018862311074528e-007 
0 
0 
6.050573451845533e-006 
-8.652282521840253e-007 
0 
0 
5.187762871778575e-007 
-7.307039967253403e-007 
-3.607297208663133e-006 
4.996083683236419e-006 
-1.671205933227848e-007 
-2.586564466672468e-006 
0 
0 
-1.085831633995517e-005 
-2.288763954547863e-006 
1.921014849977231e-006 
5.151550466324794e-006 
-1.212647528679077e-006 
-8.046717095986374e-006 
0 
3.215450728361649e-006 
-5.858654297011193e-006 
-6.004167358027194e-006 
-7.79903232585573e-006 
-2.17354851515779e-005 
-2.119372293347202e-006 
-5.493085453951515e-006 
2.94041280477767e-006 
-0.0001016218170745648 
-3.750473697613642e-005 
1.333279694866095e-006 
-3.034358151636189e-006 
8.965806705466391e-006 
-2.374987594307467e-005 
-3.132104594940757e-005 
1.005309905983854e-006 
-4.430043591934679e-006 
-6.272207559648896e-006 
3.099699903917907e-007 
-3.74689107883025e-007 
1.338423993466165e-006 
-1.012398347255289e-005 
1.416924917322296e-006 
3.412907767797199e-006 
-2.586564466672468e-006 
0 
7.08362746200859e-006 
0 
1.15682283953503e-007 
2.841842616781121e-006 
2.190769014050354e-006 
0 
0 
0 
-5.403638359810587e-006 
0 
3.702685285308349e-006 
-1.175460599151595e-006 
0 
0 
-5.045718703749971e-007 
0 
0 
0 
4.120505561125302e-006 
8.241011122250605e-006 
0 
0 
-5.680655248160556e-007 
0 
0 
0 
-2.833562248312056e-006 
-3.054533254712231e-006 
-7.811418507174478e-006 
-2.56613785595103e-005 
-4.591231226360952e-006 
0 
0 
1.190707186125875e-005 
-1.170947182386054e-005 
-1.686321349443976e-005 
2.193944205479856e-006 
-7.91706288110264e-006 
-6.962190732768359e-007 
1.057835809596831e-007 
7.139131345122349e-007 
-5.519551822282069e-005 
-4.753121682264714e-006 
-6.810186189224765e-006 
6.857925355614446e-006 
5.859339611091619e-006 
7.17022155724465e-006 
-8.838847313166186e-006 
4.569709103366177e-007 
4.505924098658465e-007 
-1.678646728031712e-005 
-4.858272422468016e-006 
2.914930803582538e-006 
-4.45670697090227e-006 
-2.356497213980221e-006 
-1.410337253957701e-006 
8.055361475282437e-007 
-4.820061586547713e-007 
4.377180255666087e-007 
1.749734005633573e-006 
0 
0 
-9.704197571970328e-007 
0 
0 
0 
-3.613306936480932e-007 
-8.652282521840253e-007 
0 
-1.303474992494457e-007 
-2.57611006525202e-006 
-4.591231226360952e-006 
0 
-1.239483123718186e-006 
5.155134406029196e-007 
0 
0 
-1.642501459366774e-006 
-8.880638069260641e-006 
-4.32042601874149e-007 
0 
0 
0 
0 
-4.591231226360952e-006 
1.034305433871026e-005 
-1.892774130264742e-007 
-2.5681220582465e-006 
-2.001371821817002e-006 
-5.094744898902457e-006 
2.427651888476747e-007 
8.45326931420403e-007 
-1.411727899009662e-005 
-6.0027398180752e-006 
3.735179047275643e-006 
-4.932251331498033e-006 
1.09998837604042e-006 
3.256395899845849e-006 
-9.534838950981481e-006 
3.455762385368471e-006 
-8.412020368448776e-005 
-5.376705621748797e-007 
-8.206024154206965e-007 
-7.687614287335936e-006 
-1.073329065584438e-005 
6.596081254398421e-006 
3.406332755787929e-006 
-7.446926422247817e-009 
-1.854060503995277e-006 
1.620790354244405e-006 
-1.429207075424205e-005 
4.94595020779985e-007 
-1.099445581576173e-005 
1.544007822216466e-006 
-7.029664410035668e-006 
6.710118920695577e-007 
1.345242554586836e-007 
1.255325258308454e-006 
-5.179177397431558e-006 
0 
0 
-4.312201379353104e-006 
0 
0 
0 
0 
-1.544442820698164e-006 
0 
4.606836435420446e-007 
-5.629536046998447e-006 
4.377180255666087e-007 
0 
2.474798574379594e-006 
0 
-2.553315528798608e-006 
-4.289406842899692e-006 
-6.276712422270916e-006 
-4.622957095078975e-008 
0 
-3.613306936480932e-007 
0 
0 
0 
-9.887406279271511e-007 
-9.894863436929635e-007 
1.229931783149102e-006 
1.345242554586836e-007 
3.969479358025036e-007 
1.236595908968611e-007 
7.307016135194956e-006 
9.949967615559535e-006 
1.041194730498144e-005 
-1.36250912822237e-005 
3.518646195615314e-006 
-1.905972075719224e-005 
-6.025883802653464e-006 
7.196555567532947e-008 
2.820101587775018e-006 
4.506805412778351e-006 
-5.006418853156436e-005 
3.148210985773548e-005 
-1.671709655118093e-005 
8.852537434360049e-006 
1.371127750714467e-005 
6.724909699411945e-007 
-1.82162779786484e-005 
1.781937469056185e-005 
1.604396887707171e-005 
-1.20125613104863e-005 
-1.061321272559398e-005 
0 
-1.028431186371879e-005 
-1.214074812017112e-007 
6.710118920695577e-007 
3.310341435317991e-006 
-5.850023947514024e-006 
1.544007822216466e-006 
-3.176360642624435e-005 
0 
-1.112400218824015e-006 
1.445740652354842e-007 
0 
0 
0 
0 
-2.586564466672468e-006 
0 
-1.244449735323782e-006 
1.544007822216466e-006 
0 
0 
4.297180347870957e-006 
0 
0 
1.544007822216466e-006 
2.958066728643346e-006 
-4.591231226360952e-006 
0 
-7.730996334920177e-006 
3.164484749594091e-007 
0 
0 
8.489100838272726e-006 
-2.744652917074825e-006 
4.707283123832401e-006 
0 
-4.531454825669604e-006 
6.931698137208366e-006 
0 
0 
5.366130291593065e-006 
1.88808491058768e-005 
3.8795316906955e-006 
-3.699135780564729e-006 
-8.297116300655417e-008 
-9.843377895550001e-007 
-3.619149737046815e-006 
1.816853322062183e-006 
6.977615442505647e-005 
1.276571285499856e-005 
-4.256345772514788e-006 
-8.785441200008024e-006 
-1.597456349307083e-006 
-7.698808193498588e-006 
-1.425662388152596e-006 
-4.826815697885563e-006 
-5.227589721739696e-006 
-5.735279734895641e-006 
2.386895641155558e-006 
-8.596224587104199e-006 
3.267712939989438e-006 
1.406061115912609e-006 
1.803537708955402e-006 
1.268670458794247e-006 
3.412907767797199e-006 
8.730554141434422e-006 
1.018265335427454e-005 
0 
0 
-4.261385644246923e-006 
0 
0 
-4.126915280376335e-006 
-2.586564466672468e-006 
0 
0 
-7.321865286942408e-006 
0 
1.236595908968611e-007 
0 
1.794797861101086e-006 
-4.289406842899692e-006 
1.345242554586836e-007 
0 
-2.779780045833959e-006 
-8.696350299763409e-007 
0 
1.236595908968611e-007 
0 
0 
0 
-7.043271437574734e-006 
-1.068500289720141e-005 
-4.425560414027553e-006 
2.581863233621297e-006 
5.780726160131812e-006 
0 
5.155134406029196e-007 
1.344765913217585e-005 
-1.753119336480698e-005 
-8.309540863928609e-006 
-4.048865347817514e-006 
6.866007349571543e-006 
8.48926197981815e-006 
-7.478921690421146e-008 
-1.579005082991396e-007 
-5.738424471124242e-007 
5.378385980335833e-005 
-5.252314990019745e-006 
1.289579633523977e-006 
-1.580263105485736e-006 
-1.065441101384324e-005 
3.715852433078156e-006 
-9.607175857810822e-007 
-1.423631443793428e-006 
-1.51287931293114e-005 
3.92606942815999e-006 
4.091310479777711e-007 
-1.829606879755346e-006 
9.949539978329676e-007 
-4.32042601874149e-007 
-5.81998925745262e-006 
-1.847450377697416e-007 
-8.866512825172536e-006 
3.412907767797199e-006 
-1.593261159314379e-006 
-1.674821177574455e-006 
-4.614025762814364e-006 
2.173783429328393e-007 
-8.652282521840253e-007 
-1.674821177574455e-006 
0 
0 
1.637669282184618e-006 
0 
-2.488466099297389e-006 
3.412907767797199e-006 
0 
0 
2.427651888476747e-007 
9.151802812541327e-006 
0 
0 
3.412907767797199e-006 
0 
0 
0 
0 
0 
0 
-3.102323469675696e-007 
-6.23749705233153e-006 
-1.812453738871918e-006 
-5.984332301569413e-006 
0 
1.544007822216466e-006 
4.120505561125302e-006 
2.385611455689839e-006 
1.553903432254818e-006 
4.794618002446645e-006 
-1.004504844248142e-005 
2.168413361669187e-007 
-4.102349610683461e-006 
4.20743023060206e-006 
2.33165384771382e-006 
-4.546733437170819e-006 
-8.380188272250393e-005 
1.139109799438188e-005 
-1.854919761058338e-006 
-9.580020480506256e-006 
3.974235867563239e-006 
-4.543783123366527e-007 
-2.843940127320536e-006 
-4.572123004409428e-006 
6.811059544315004e-007 
-7.300149295274947e-006 
-8.391920658393934e-006 
-1.569372886936212e-006 
0 
0 
-3.745904294940551e-006 
-2.586564466672468e-006 
0 
-4.341636696248887e-006 
2.104040735447859e-005 
0 
0 
-2.279453645341294e-008 
0 
0 
0 
-1.903876062512753e-006 
3.992223609913955e-006 
0 
-3.479111050545186e-006 
-3.265506442425464e-007 
0 
0 
0 
1.255325258308454e-006 
2.190769014050354e-006 
0 
1.854642942888905e-006 
-2.553315528798608e-006 
0 
0 
0 
0 
0 
-5.173128933344935e-006 
-1.618533213783663e-005 
-5.622865982444069e-006 
0 
1.111965220342316e-006 
-2.658792868435739e-006 
1.866142016427368e-006 
-4.034430080111745e-006 
3.906858907434658e-006 
-9.517100602560132e-006 
-2.136697931859907e-006 
-1.812889259768655e-006 
8.525344634869497e-006 
4.283226128876561e-006 
-1.387505147435519e-005 
6.641148010559004e-006 
-6.360095970854265e-005 
-3.867958979704056e-005 
-1.843432799514975e-005 
1.977783320164761e-005 
1.321301912989328e-005 
1.070241378693613e-005 
-3.183866777259686e-005 
2.182957751629843e-006 
8.412026342664541e-006 
3.448784705008408e-006 
-5.644208493615174e-006 
4.996083683236419e-006 
0 
0 
4.065693880299389e-006 
6.74285518842495e-006 
1.108773109360335e-006 
-7.982025851906334e-006 
4.699621955372269e-006 
-2.931250675100623e-007 
1.445740652354842e-007 
5.155134406029196e-007 
3.804876490748264e-006 
6.710118920695577e-007 
0 
-8.108307136637293e-007 
0 
0 
3.449932109778413e-006 
4.970065045254104e-006 
-2.553315528798608e-006 
0 
-1.138957777692179e-006 
0 
0 
-3.613306936480932e-007 
1.951162156087337e-006 
2.46999461578062e-006 
0 
0 
-4.106796333144419e-006 
0 
0 
5.022756068970068e-006 
2.635676584035929e-006 
-2.821726514392043e-007 
2.233628465570365e-006 
1.814562552450063e-007 
4.220288175237783e-006 
1.236595908968611e-007 
-2.093134723628976e-007 
-1.3649602000828e-007 
2.971279280228592e-005 
-1.330632296004247e-006 
-2.501816863232504e-006 
-5.298767788258351e-006 
-3.299649649013245e-005 
1.484507026724311e-005 
5.838530352203193e-006 
-0.0001473451958931156 
-2.704020985583125e-007 
1.901142586197382e-006 
3.272789198943634e-006 
2.217986876994927e-005 
-4.568463845667607e-006 
-1.192501410860364e-005 
-1.142943126038487e-005 
-2.498776384677978e-006 
5.167779426080688e-007 
5.211051733164507e-006 
3.422013909159419e-006 
2.009304809513645e-006 
-1.006623493564101e-006 
1.507817923562354e-006 
0 
-4.080220735423803e-007 
-1.655165840819691e-006 
-6.735046259415487e-006 
1.018862311074528e-007 
4.091310479777711e-007 
7.733368057404299e-008 
-4.591231226360952e-006 
0 
1.63361488958004e-006 
-8.002030108669827e-006 
1.248169292467734e-006 
0 
-1.089041895880356e-005 
-3.263459480841555e-006 
-4.820061586547713e-007 
0 
9.583837791959466e-007 
4.091310479777711e-007 
0 
-7.730996334920177e-006 
5.290919972016636e-007 
0 
7.02081737381719e-006 
0 
-6.224630633363519e-007 
2.484406125401352e-007 
2.883444509669138e-006 
0 
-6.692135491673152e-006 
-1.252649989913109e-005 
-1.564167217297091e-006 
-9.439799511809655e-006 
-5.5554705376256e-007 
7.934001112879282e-006 
5.155134406029196e-007 
-4.427163860483203e-006 
-4.411064147330249e-006 
1.387167860850615e-005 
-7.301775200232614e-006 
-2.452662925229573e-005 
-1.223101681867193e-005 
8.061303224679391e-006 
-2.439427956694409e-006 
-1.780454617494091e-005 
-3.515284337591684e-006 
-1.358370926142403e-006 
-1.612257302579321e-005 
-8.517429649861211e-006 
-6.599852835326676e-006 
4.872069633289716e-006 
6.550269364168672e-007 
-4.239219217000649e-006 
2.356639043884348e-006 
-6.502256985472863e-006 
-1.022896021428111e-005 
0 
-7.050865856023769e-006 
-3.263459480841555e-006 
-8.057546979162722e-006 
-2.942081951927144e-006 
-1.456427438746424e-006 
1.152982917819888e-005 
0 
0 
0 
0 
0 
2.593552890702144e-006 
-2.565043403132707e-007 
1.823695397389701e-007 
0 
-3.265506442425464e-007 
0 
0 
0 
-3.006561886273151e-006 
3.661751703297838e-006 
0 
-1.112400218824015e-006 
-1.923230932487742e-006 
-4.289406842899692e-006 
-1.132237184385668e-006 
9.532314661695273e-007 
3.521198583548964e-006 
0 
-2.931250675100623e-007 
-4.725112980012519e-006 
-4.482721959701615e-006 
-4.271509651266422e-006 
-1.075443357845773e-005 
4.035552504099177e-006 
-1.984524482509255e-007 
-9.553414444974281e-007 
-1.757080915088846e-007 
-9.460712632489487e-006 
-1.189984705760124e-006 
-3.265380874528029e-005 
-5.521947499074933e-006 
5.720506015192466e-006 
5.225750879957277e-006 
-2.091914316504609e-006 
-3.859086708950432e-006 
-2.472533223374514e-005 
3.385863759912835e-005 
-3.230035490290817e-005 
-3.993246807433116e-006 
3.484302705698075e-006 
2.217393147268557e-006 
9.446631215095467e-006 
-1.108665455148044e-005 
-9.562018052493759e-006 
1.508140460209372e-006 
2.883685512884555e-006 
7.613299306511443e-007 
-3.521361780628307e-007 
-2.384777444080898e-006 
6.84218828208257e-006 
4.927189041495073e-007 
-4.976061993313812e-006 
1.236595908968611e-007 
-3.314040688011375e-006 
-2.144184480820839e-006 
0 
-3.810050951809131e-006 
-4.957419938073199e-006 
4.996083683236419e-006 
-2.953172730608067e-007 
0 
-1.97762847100804e-006 
0 
-2.438155748707519e-006 
-5.836012866048793e-006 
1.544007822216466e-006 
0 
2.022738963315771e-006 
0 
0 
0 
-1.62096393634695e-006 
1.051979133887321e-006 
-6.109520071074772e-006 
4.392076128326519e-006 
-4.32042601874149e-007 
0 
4.054324063048026e-007 
-9.020120671773066e-007 
3.925254050497596e-006 
-7.045170812849505e-006 
3.950078289150557e-006 
-1.612609680598091e-005 
-1.850529269083343e-006 
-2.953172730608067e-007 
1.891100338323296e-006 
2.542474953633618e-006 
-1.61618343735488e-005 
-2.491739882185372e-006 
-8.680823693963058e-006 
2.917593841333116e-006 
2.326409355159958e-006 
1.119230681663726e-005 
1.064931581060354e-005 
3.932178502402729e-005 
2.589721051047959e-006 
-5.868861112855043e-006 
-9.918794856009028e-006 
-2.261295133488736e-006 
-6.15157213337909e-006 
-1.536266699386462e-005 
-2.963713104784913e-006 
-7.312020791252795e-007 
5.363911329026768e-006 
-7.070228508076254e-006 
8.154788308875346e-007 
3.150424149444965e-006 
-1.837917863964435e-008 
-2.507596055315378e-006 
8.182620959555421e-007 
0 
-1.173835503473626e-005 
-2.965792332951854e-006 
-4.289406842899692e-006 
0 
-1.602122001708229e-006 
4.377180255666087e-007 
-4.32042601874149e-007 
0 
-1.190824939802143e-006 
1.540778731153924e-006 
0 
-4.417414119399536e-006 
7.733368057404299e-008 
-4.615957487142237e-006 
0 
-4.165747252002828e-006 
-1.270829048941709e-007 
1.540778731153924e-006 
3.774871479625983e-006 
3.804068182691808e-006 
-2.00508379412948e-006 
0 
6.251487944956812e-007 
5.227423626015042e-006 
0 
0 
-5.133355385211383e-007 
1.295486348546693e-006 
4.804113559591113e-007 
-2.745399020683224e-006 
4.353191437016298e-006 
-3.030093030489211e-006 
3.820665664382645e-006 
4.663826545095846e-006 
2.676348414098743e-005 
-1.36570315087592e-005 
1.205336264380931e-006 
3.484551505624092e-006 
-1.163742952418292e-005 
2.425157907929528e-006 
-7.772019398579455e-007 
1.012875413160035e-006 
-1.600272883416175e-005 
-3.270716273731777e-005 
2.287543302288518e-005 
-1.151603329282625e-005 
-2.33476594258107e-005 
8.381584464131067e-006 
-2.704661069652625e-005 
1.121212845398315e-005 
5.855482099744006e-006 
-1.852114474608481e-005 
-1.074525368483832e-006 
-1.688110819654391e-006 
1.014826788204104e-005 
-1.516666347925453e-005 
-3.852031161326377e-006 
-2.403403381224274e-006 
-4.942463380091808e-005 
3.356981346059732e-005 
1.770365675927729e-005 
7.068062160406009e-008 
1.030558397864182e-005 
4.324124406557922e-006 
-1.000385690819784e-005 
-6.251265935991883e-007 
6.036716280209198e-006 
-3.628274155894435e-005 
-2.290854856802837e-006 
2.854498305882519e-005 
-1.81382747773641e-006 
-4.421342473745712e-006 
-2.326761552575623e-005 
1.658867509897857e-005 
6.029327552105922e-006 
-1.25084246029158e-005 
-3.914175756262623e-005 
-2.07530783696151e-006 
6.003714941535928e-006 
5.358813777601635e-006 
-3.442659935756316e-005 
5.986010811739681e-006 
-2.554598547371799e-005 
-5.40476343141668e-007 
7.807875311755948e-006 
-2.891171571322857e-005 
-8.166086329701254e-006 
5.334091140814024e-007 
9.916592369375243e-006 
-3.200389897486698e-006 
-1.198513913143542e-005 
5.662458203725535e-006 
-1.4810783294677e-005 
-4.837827059038684e-005 
-7.84941936484851e-006 
-3.957347729178773e-005 
-2.890578139960132e-005 
1.189658461632596e-005 
8.865403381382954e-006 
-8.64973190024709e-006 
1.103263901894387e-005 
3.423801599724044e-005 
-6.418995308134147e-006 
-1.03926256570268e-005 
-1.435794937619254e-005 
-2.832832728085386e-005 
-2.276711675645774e-005 
-1.952966832113318e-006 
-2.24298691602927e-005 
2.98812365503549e-005 
8.744674712664608e-006 
1.066266477768225e-005 
-2.661336032656621e-005 
4.041113683248148e-006 
-1.972488706970193e-005 
8.81947118188565e-006 
3.647354092275228e-006 
5.342964799243797e-005 
8.835054738953565e-006 
1.056798840836263e-005 
2.894693996257649e-006 
-1.157587596673024e-005 
-4.320120337243722e-006 
-2.047393733815903e-005 
-1.485533188120295e-005 
-6.227289291042959e-007 
1.523430780818132e-005 
-1.028528152928015e-005 
-2.106523085923758e-005 
-1.71739488655212e-005 
1.13446652086093e-005 
-3.538928127784158e-005 
-4.988738602940768e-006 
-1.065649642065403e-005 
8.183334451070967e-006 
3.055011527696317e-005 
-2.10387547877991e-006 
1.536820138095542e-005 
8.661588139832836e-006 
-5.083184775972902e-005 
-9.371177506279465e-006 
-1.273873209765091e-005 
9.378600078369193e-007 
1.513308028873011e-005 
-2.056381762892392e-005 
-5.678881331892869e-006 
-8.593953632169298e-007 
-4.010983468429474e-006 
7.64742703577137e-006 
2.0372618662422e-005 
-3.706106533212338e-006 
1.457976145148638e-007 
-2.312719486235703e-005 
-5.083353817500106e-006 
-7.85764034791609e-005 
-2.33574108748487e-005 
1.699384447263559e-005 
-1.015131447114213e-005 
-2.525020613507531e-005 
3.886592156330892e-006 
-1.990638677021374e-005 
6.808681606799792e-006 
1.251703633013987e-006 
6.323802287418095e-006 
-1.096042253402129e-005 
7.066629640341141e-006 
-6.650782927115469e-006 
5.331154571762422e-006 
-7.249037157167669e-006 
1.751903847919789e-006 
1.723045859408782e-005 
-4.494478225193326e-005 
2.586399293162244e-005 
-2.644295715262064e-005 
9.102992928219219e-006 
-2.430738760341596e-005 
-7.384160816329297e-005 
1.36197003704125e-005 
5.322693348360168e-006 
-4.24618720973237e-005 
6.550021058544326e-006 
9.659348637768937e-006 
2.405061303974142e-005 
6.951905315098698e-006 
-2.214390750884875e-006 
4.498865327575176e-006 
5.179618665067742e-006 
-1.073615517673219e-005 
-2.217832412204775e-005 
-5.679967819811264e-006 
1.353374949659566e-005 
-9.132857152513733e-006 
3.809627438776945e-005 
-3.690284005650422e-006 
-1.736980258685598e-005 
2.780490510733573e-005 
-6.011678365985329e-006 
1.86973466387875e-005 
1.240894739959253e-005 
-2.198968956520332e-005 
-2.255294962425558e-005 
2.373847786895793e-005 
2.080846021424893e-005 
-7.601405806407568e-006 
5.762081049043792e-006 
6.11812711498792e-006 
-1.305621346029542e-005 
8.456965418004888e-006 
3.76228607255334e-005 
1.179384673729509e-005 
9.711896126246863e-007 
-2.10441426684953e-006 
2.27670529941552e-005 
-3.397203851334629e-005 
-2.192698284244088e-005 
-1.20176563986636e-005 
9.824445660190219e-006 
1.311313488718757e-006 
-7.769372706914513e-005 
-6.175969002613266e-006 
3.632306381228957e-006 
-1.833913858973412e-005 
-5.409715047109463e-006 
1.075638242428302e-005 
2.415224319911522e-005 
3.717084237537852e-006 
-2.691625450753206e-005 
6.943445104408473e-006 
-1.644911216440763e-005 
-1.605027498729223e-006 
-5.642109945474804e-006 
-7.827745025885399e-006 
-8.266402653508446e-007 
-6.9514845095366e-006 
-1.145388693651487e-005 
-1.962404680792862e-005 
1.51791036270349e-005 
-3.833619131856549e-006 
2.33929025572347e-005 
-2.675960766449309e-005 
3.413195370999501e-005 
-3.940437486104201e-006 
-8.853559310436752e-006 
-1.160540510382437e-005 
2.867781885015284e-006 
4.273775787611004e-006 
4.414830588829229e-006 
-3.021430468271321e-005 
8.1296808383945e-006 
4.037089124171105e-006 
4.261824882302522e-007 
2.294915918596597e-005 
-8.246049421937747e-007 
-1.06164659270615e-005 
-1.532237943064246e-005 
1.05819901179439e-005 
-1.693559895965833e-005 
6.689699313986274e-006 
-1.405692889174622e-005 
-1.495171122367055e-005 
-9.286596331911081e-006 
1.344009235310425e-005 
3.765517292829983e-006 
1.197751207405369e-005 
-5.644648851517438e-006 
1.389071607377793e-005 
-2.193141887518582e-005 
3.332630876624816e-005 
-3.877071503707734e-006 
-2.022192524172505e-007 
1.025585918277718e-005 
2.083280011353508e-006 
-1.120138463405517e-005 
-9.403900526272526e-006 
8.630793771708902e-006 
-2.002608908535722e-005 
-1.681416081476389e-005 
1.398461936657524e-005 
-3.928822533218201e-005 
2.856282325461049e-006 
2.007908991827262e-006 
1.83117517654497e-005 
-1.154532534601994e-005 
9.229697753627457e-006 
-1.610167941836081e-005 
-8.860411709325195e-006 
8.555111292755129e-006 
-3.607664450088608e-005 
9.102329706697969e-006 
-8.488764183461977e-006 
-1.242820935116732e-005 
-1.393842529422311e-005 
4.945231407911079e-006 
-3.753553031663263e-005 
-4.899135297384129e-006 
-4.410337649629221e-005 
-1.535347413533883e-005 
5.253983548716465e-006 
9.620546985263466e-006 
-4.663728707343607e-005 
-2.322990540273113e-006 
1.781415648201625e-006 
3.231809090167932e-005 
-5.180918800449877e-005 
-2.075645799474625e-006 
-4.440070252105073e-007 
-3.595961750835631e-005 
-8.249275020653779e-006 
5.959015961823433e-006 
2.716044961897517e-005 
-1.796060402758498e-005 
2.336309545218877e-006 
-8.447378948037259e-006 
1.283851875385533e-006 
-1.139107924659685e-006 
9.950576733256091e-006 
-6.301138482957834e-006 
1.305499535399799e-005 
1.759844859153354e-005 
-5.268684473066639e-006 
-1.526967021203023e-005 
2.048685214938342e-005 
1.091811396478599e-005 
1.570322375748798e-005 
-3.804608235395799e-006 
-1.191691628816104e-005 
-8.754594582090546e-006 
-9.227569413665699e-005 
6.051597770253003e-006 
-3.449817879965201e-006 
4.360538376013521e-006 
-0.0001397722654735829 
-3.622036547056514e-005 
-7.937889016686077e-006 
-6.219399784427489e-006 
3.276759604295699e-005 
-1.638068445395258e-005 
-2.796788746452722e-006 
4.930155663635267e-006 
1.455026343297055e-005 
-2.289734019008563e-005 
3.33093805204743e-006 
5.252571025077297e-006 
-4.944930899014281e-005 
2.283944320843341e-006 
-9.824242202548929e-006 
-8.177038544268314e-005 
-3.205871155236515e-005 
5.56888198165243e-006 
2.138114537556874e-007 
2.026216608069994e-006 
-1.397947317593245e-005 
8.770819484182317e-005 
2.09673273812458e-006 
1.13448017295387e-005 
-8.403899456195891e-006 
6.827654102782868e-006 
-3.808058884290941e-005 
-7.897437445023207e-005 
-2.887820455804332e-005 
1.126080091766269e-005 
1.020643205621185e-005 
-8.735187827354149e-006 
-3.293189544285571e-005 
6.204811262233647e-006 
-2.322788292425803e-005 
3.191630835228577e-006 
-5.017318391277137e-006 
1.276697217506408e-005 
-2.127873604608069e-005 
-8.321602803656501e-006 
6.755943084072687e-006 
-9.714969519558366e-006 
-1.989703891190328e-005 
8.104142033429707e-007 
-1.304719842749008e-005 
1.472181519951179e-005 
1.661476502530801e-005 
-1.302597248086738e-005 
-4.251558377349783e-005 
4.028397756700726e-006 
-2.432925894992194e-005 
-3.808996701008726e-005 
2.09859049315082e-005 
2.212249450349046e-006 
5.753362015939079e-006 
-4.99426915707793e-006 
-1.931889290559819e-006 
-7.713419133498476e-006 
-1.092362039216131e-005 
4.117127836076562e-006 
3.761704324658869e-006 
1.802879488498799e-005 
2.103523944513518e-005 
2.148148452921054e-005 
-4.719197909451697e-005 
2.961313188236311e-006 
-2.422114388594859e-006 
-7.987885415359723e-005 
-1.150879594934684e-005 
6.572640107479509e-006 
2.169438696050877e-006 
2.000705978301277e-005 
-1.001709519785119e-005 
-2.532855954749845e-005 
4.432122017476688e-006 
-1.422247337388697e-005 
-2.555792238557648e-005 
-3.398459130381078e-005 
-1.333837829432555e-005 
-3.373746080600954e-005 
-1.985503403339904e-007 
-2.108063873590719e-005 
-1.912771238921388e-006 
8.892018566619463e-006 
-1.670151060931765e-005 
-9.927901286832239e-006 
1.146658224240133e-006 
-1.210530706958069e-005 
-1.605533500145957e-005 
-6.54312315662042e-006 
-7.064262749635323e-006 
3.169874743147839e-006 
-7.917673217419743e-005 
1.956069131186098e-005 
1.932519335108096e-006 
-5.329508120754919e-005 
2.754645446653023e-005 
1.599888715884358e-005 
-9.316735070744609e-006 
1.256557624521542e-006 
1.635517663503329e-005 
1.066729381431808e-005 
-1.622896911384248e-005 
3.468468542038022e-006 
-1.291534262772429e-005 
-1.233306962241313e-006 
1.090432692881366e-006 
4.85631577520659e-006 
3.247397300003735e-006 
-4.091724790614357e-006 
-2.049096257641869e-005 
4.083683422381995e-005 
9.673943824678081e-006 
-1.514638517211332e-005 
-1.167884082183644e-005 
-1.015564462859028e-005 
1.343172768837633e-005 
1.000584582432506e-005 
6.871008720623309e-006 
-1.236506292364978e-005 
-5.873546928002626e-006 
1.500338959640357e-005 
-2.768249409757187e-005 
-1.362552954515286e-005 
-2.790695648779527e-005 
1.689690950038205e-005 
1.080492010178911e-005 
1.657748911262036e-006 
1.140604194300078e-005 
-2.901749631342752e-005 
-2.039880680088267e-005 
-3.49712585415798e-005 
-1.405439608882353e-005 
-1.163074557468834e-005 
6.086195242767662e-006 
9.794324643819929e-006 
-3.880580350027604e-005 
6.649017344435563e-006 
1.03635008432477e-005 
-7.674390121876723e-007 
1.608451528440794e-005 
2.001482834839414e-005 
-4.368428598334186e-005 
-1.756761120567348e-006 
-5.725668254271267e-006 
-1.052053858789263e-005 
-1.212128157715396e-005 
-5.058647781197364e-005 
-1.712545767670498e-005 
-1.712026799584346e-005 
-4.728491876299836e-006 
3.924927329185161e-005 
-1.583419264775102e-005 
-5.423340998798418e-006 
-2.266467337697936e-005 
8.076427339399292e-007 
8.329813152229361e-006 
-1.046268569598951e-005 
-1.393454987793005e-005 
-2.349743097573475e-005 
-3.879947373084807e-006 
-1.677161363438884e-006 
-2.682052164757152e-005 
-5.196891913913159e-005 
-1.300047216425904e-005 
-5.959437104279408e-006 
2.787720741315203e-006 
2.770800295433339e-006 
-3.001744958481753e-005 
-6.012510459002686e-006 
-1.658147302886967e-005 
1.170440972061903e-005 
1.454161378914218e-005 
-6.543352631313502e-006 
7.367060465362319e-006 
-2.349265341230663e-005 
-8.420634182199512e-005 
-3.668334613852026e-005 
-4.270809749392519e-006 
-4.221502527713883e-005 
-1.211352394154803e-005 
-4.145951746961995e-005 
2.848825520582467e-006 
1.002211393841046e-005 
-1.76106592793873e-005 
6.254619525193449e-006 
3.487245180205522e-006 
-2.149058638726745e-006 
1.370273178145766e-005 
3.522865949905233e-006 
-3.15471450181303e-005 
-2.023345158236913e-006 
-4.590027830410693e-005 
1.303952098974331e-006 
7.695139688984644e-007 
2.054652014058188e-005 
1.855298193795116e-005 
-5.836497940549624e-006 
8.904964231861976e-006 
1.952153440313654e-005 
1.321689792853371e-006 
5.134191896483139e-006 
5.324886871341757e-006 
6.670735299220324e-006 
-6.727816415486902e-006 
4.76342238322477e-005 
2.594405188781857e-006 
-1.831500518336311e-005 
-2.913936061355034e-005 
-1.847939725637923e-005 
-5.505261689871673e-006 
-5.610506278052658e-006 
-1.247961592733636e-005 
1.268116340320443e-006 
8.477972082883544e-006 
1.924119063622306e-005 
1.080721144422121e-005 
-1.224727551567305e-005 
2.797477430667114e-005 
1.163721804525265e-005 
-8.725663702599656e-006 
-1.768516156286847e-006 
4.085380463742277e-006 
2.047838548682165e-005 
-1.697749385549316e-005 
-2.215790425197418e-005 
-4.529917814713224e-006 
9.275426130754694e-006 
-1.432095518330937e-005 
8.479442073537307e-006 
-2.562109565600218e-005 
1.792493934385823e-005 
-1.892839503366239e-005 
-4.843058871630494e-006 
-2.763205134038899e-005 
-3.526271519931262e-005 
3.367851976558854e-006 
-2.223413830423728e-006 
-1.888702206448947e-005 
2.184075413022882e-005 
1.727387445148174e-005 
-6.762317239063741e-005 
2.768837802134833e-006 
5.280958622821175e-006 
4.470930328530274e-006 
-6.356545733019175e-005 
-6.786044980389505e-006 
1.418054021787293e-005 
2.304082905099091e-005 
4.986989155905258e-006 
-2.877209830957513e-005 
3.100013276830152e-005 
-6.194948527336877e-005 
-2.170554945891762e-005 
1.489377344356634e-005 
1.615100839449603e-005 
-2.662546133812302e-005 
-3.164051429984668e-005 
-1.372773978952867e-005 
-2.089230384388763e-005 
-2.155857608287406e-005 
-5.537708258282537e-006 
1.15471054087703e-005 
-2.231858562976641e-005 
-2.224745500660329e-006 
1.319440590003181e-005 
7.831967527237732e-006 
7.512609446880806e-006 
-0.0001479985244791219 
-2.654308901860521e-005 
-1.298511900512814e-005 
-6.433727806654579e-007 
8.334181039924092e-006 
2.245581036982552e-005 
-3.057644650931131e-005 
6.326873142593706e-006 
-2.989729392137474e-005 
-2.769668235033087e-005 
3.183023944530443e-006 
-2.006190372304925e-005 
1.206389828006246e-006 
1.477175566851521e-005 
1.020624349127712e-005 
-6.60573908270625e-006 
6.963635569240468e-006 
2.728144812229819e-005 
3.850416291456591e-005 
3.544495938854728e-005 
-4.136196375468283e-005 
-7.880873198277492e-007 
3.106291365128516e-005 
1.20936011717728e-005 
-1.138310471837202e-007 
-9.088404331676817e-005 
9.770670746221008e-006 
9.284794111146123e-006 
1.641357074888209e-005 
-1.267542654887104e-005 
-1.819025575652738e-005 
1.433146049881992e-005 
-2.981696126918015e-007 
-1.620411326311039e-005 
-3.319259306602837e-006 
3.800472114867774e-006 
8.225925095670463e-006 
-3.845888891437645e-005 
-2.648704095296679e-005 
-9.613541843336832e-006 
2.289814443217589e-006 
-1.015136625315867e-005 
-2.285881841535976e-006 
-1.678021002708507e-005 
-1.297029253254049e-005 
3.834613386353362e-006 
9.887116984318265e-006 
-2.068865574571492e-005 
-4.721501878413896e-006 
-3.241651568293412e-005 
-2.864136617211926e-005 
1.07065107300744e-005 
4.245846183249515e-005 
4.115814723575074e-005 
-2.533802281101071e-005 
-2.668396847525874e-005 
2.621079732927522e-006 
-3.632951899288531e-005 
-2.327471820192844e-005 
-5.769229981313837e-006 
-1.286376134286506e-006 
-4.146893855781761e-006 
-2.19165706242237e-005 
-1.713171783760445e-005 
-5.563955213337216e-006 
-9.587437963491956e-006 
-1.98277512161042e-005 
7.252535057074995e-006 
3.123405909434821e-005 
-1.027926887740623e-005 
-1.858979747873547e-005 
5.025632403256741e-006 
-2.657655688894969e-005 
1.022003068290063e-005 
-2.417339930603555e-006 
-1.533390348205388e-005 
-5.23828510995186e-006 
5.295264363829778e-006 
-2.467802195618655e-006 
-2.184126745257138e-005 
-6.92718149502519e-005 
2.150478180084321e-005 
8.492292219961266e-006 
-3.35463555362701e-006 
-3.048762068002064e-005 
-8.334903053228306e-006 
-3.762417865422089e-006 
-4.286418141251452e-005 
1.640725916501287e-005 
-3.451373192358339e-005 
-5.136159127619607e-006 
-1.966637364638885e-005 
-4.44397276694724e-005 
5.251866545820014e-006 
3.982846107437841e-005 
1.384255138881777e-005 
-8.823315854749141e-006 
2.494774673509575e-006 
-5.118399949018833e-005 
-2.608340898563253e-005 
-3.842541805293348e-007 
5.827139669112906e-006 
-1.234361711906742e-005 
2.057157644668002e-005 
-9.285723444947537e-006 
3.745736933600278e-005 
2.876185307493838e-006 
3.820343002608229e-006 
-3.407320216796951e-005 
-8.719349608401744e-006 
-3.177498171428103e-005 
7.838501864235621e-006 
-2.180026514838757e-005 
4.61937850990013e-006 
2.844376883779322e-006 
-6.326745165108815e-006 
-7.601590306135288e-006 
-1.198798032928081e-005 
1.510521566513312e-005 
1.914508316450825e-005 
-1.491695358213552e-005 
-8.375340220911983e-006 
-1.903781293263194e-005 
9.479032017570509e-006 
-1.49684619160101e-005 
1.47577639690591e-005 
-2.927314198505873e-005 
3.275325206168777e-006 
-2.175668402364611e-005 
-2.340446553847913e-006 
5.353394407810001e-006 
-2.110403322126716e-005 
-2.263404540187488e-005 
8.486134444983288e-006 
2.066426164558194e-005 
8.406568799232653e-006 
1.902465483677938e-005 
-2.289467885632428e-005 
6.979374076435012e-006 
-6.544100203429473e-005 
-1.996026941755247e-005 
1.86897987233292e-005 
5.849940113133558e-005 
1.895603275075834e-005 
-1.560264307591523e-005 
2.51788035410595e-006 
1.132565679726651e-005 
1.444996205292743e-005 
1.933435027251207e-005 
-2.30237264404666e-005 
1.490099115800277e-005 
2.445101391452191e-005 
9.406359910888772e-006 
1.211655647619568e-005 
-1.851841129918714e-005 
-6.101195049041917e-006 
2.106995710180658e-006 
9.738109128792236e-006 
3.23596428410531e-005 
1.31577297139592e-005 
-8.773485183419325e-005 
-2.426890554817643e-005 
-2.111727209666783e-005 
1.925258603207103e-005 
-3.794130106235554e-008 
-2.231181837257326e-005 
3.813761698523512e-006 
2.49813470967811e-005 
-5.052303537926561e-007 
-1.384747117998546e-005 
5.721685482335575e-006 
-1.346590240270717e-005 
6.469389985571071e-006 
1.118089274824473e-006 
-2.362569834010081e-005 
-1.3613990824008e-005 
-5.117717691352451e-006 
-8.785705456651799e-006 
1.219717745597426e-005 
1.958077757181186e-005 
1.291007200730057e-005 
2.240199266785281e-006 
-3.548277154030009e-005 
-3.513282359852488e-005 
-3.632329723881413e-005 
1.23229248594402e-006 
-9.136757476310707e-006 
8.974810975455005e-007 
1.19636483983619e-005 
3.137247661220877e-006 
1.879974678062931e-005 
-2.493960593724611e-005 
4.682378055122373e-006 
8.998522563858822e-006 
2.935401187408163e-006 
-2.839727851629383e-006 
-1.353975639087617e-005 
-1.190575839640779e-005 
1.3857776079212e-006 
1.805965768548696e-006 
-2.8991256173721e-005 
7.778335325513824e-006 
1.490845633070048e-006 
-2.740416077182083e-005 
2.554520239094485e-005 
5.767673758488181e-006 
-4.420738805678603e-005 
-1.351241843349151e-005 
2.775698930597252e-005 
-5.196761706895045e-005 
1.141489581071007e-005 
-1.986220071464087e-005 
1.778327403680651e-005 
-2.822270957430475e-005 
-1.155940536322999e-005 
-5.992373959834987e-005 
4.944985737541126e-005 
-6.586549912278555e-006 
-5.417944848388481e-006 
-5.342863571362399e-005 
3.809732132822457e-006 
9.173737131367244e-006 
-4.145563900730366e-005 
-2.531546892448884e-005 
1.442200372855087e-005 
8.696373767116249e-007 
-3.656944702607363e-006 
2.875587005588756e-005 
-8.766922718614234e-006 
-5.345342179552419e-005 
-4.246907578585055e-005 
3.566218762779226e-005 
-1.3875409217312e-006 
-5.556474799779038e-006 
-1.017244546394635e-005 
-2.237414777103074e-005 
-2.326203227745898e-005 
1.349766927180068e-005 
-3.173464192696358e-005 
-1.833606592362009e-005 
-6.04774464971034e-005 
8.110151365571741e-006 
-3.39524233697866e-005 
4.041326251134893e-007 
-3.582670741028223e-005 
1.275288942583233e-005 
-4.124251421010043e-005 
-3.129954804291444e-005 
-2.971953440117961e-005 
3.147083700910183e-005 
2.404255310572346e-005 
-1.781957489822408e-005 
8.457086611522405e-006 
-1.867656576646871e-006 
4.282677105196562e-006 
-1.449970068979378e-005 
-5.682434436775451e-005 
-5.000377301532937e-005 
-2.061414719855771e-005 
-8.340000294281383e-005 
-3.939575525888679e-006 
1.251753544376626e-005 
-1.596879467085102e-005 
-3.660058621400338e-005 
-2.124642269279411e-006 
-3.752399363965768e-005 
-4.777766632122828e-007 
-7.129288921224114e-006 
1.044392885398956e-005 
-3.447035961629983e-006 
4.130373432641198e-005 
-3.769803577687826e-005 
2.26653925981422e-005 
5.011884506396603e-006 
-3.836376849980546e-005 
1.164411377176857e-005 
1.78457301774942e-006 
-6.650771042444394e-006 
-3.262133904117786e-006 
-6.445160443132285e-006 
-7.463605634791616e-006 
-2.732731509283934e-005 
1.104522420989151e-006 
2.232987106923186e-005 
9.885827670789489e-006 
-9.199686860908425e-006 
-8.74865349060947e-005 
-1.252565743279262e-005 
6.783558739572933e-006 
6.188088302104163e-006 
-2.111537792882016e-005 
2.723622982097478e-005 
8.453147104641819e-006 
2.612456463788138e-005 
-1.123130115564133e-005 
-7.811656988332359e-005 
-1.273584176300346e-005 
-4.412547283860389e-006 
-1.154864510921229e-005 
2.372222063198196e-006 
1.043289223869278e-005 
6.155534252990501e-006 
5.241938313158833e-007 
2.839754429704563e-007 
-4.235698519169689e-005 
-1.379585286753977e-006 
4.25272526009916e-007 
1.024265070208643e-005 
1.821182599815582e-005 
1.238139096771231e-005 
-2.075305061743441e-005 
-9.964283286913817e-006 
1.926216839963031e-005 
-8.521739796806395e-005 
1.22596549645204e-005 
9.545989162080343e-007 
-1.568490951452588e-005 
7.551802014484585e-006 
4.517529965282096e-006 
-2.082029122271332e-006 
-0.0001345047228609923 
-1.781383617119972e-005 
-2.358337418043801e-005 
1.652962420033343e-006 
-3.436002565716865e-005 
-1.189705245136612e-005 
-2.894037406983711e-005 
1.829192042986898e-005 
-2.610985289017232e-005 
3.021831256180411e-006 
-1.399835987747995e-005 
-2.153600682329821e-005 
-1.522068193562186e-005 
3.943792604583334e-006 
-6.896889190863252e-006 
1.230695558980288e-005 
-4.461676330310812e-005 
-1.004852717372751e-005 
2.186966397373555e-005 
-7.205957662614903e-006 
-3.989889025324735e-005 
-4.340952822476707e-005 
-1.503107788912448e-005 
-2.139064547779505e-005 
-1.436065789964485e-005 
-4.981519575820603e-005 
1.113644785188102e-005 
-4.308965304146907e-005 
-4.448827117380934e-005 
2.657704238069856e-006 
1.126652141960652e-005 
1.718964901722274e-005 
-8.118468626195787e-006 
3.741790474024164e-006 
1.132881333552728e-005 
3.203896142413881e-006 
-1.454377230025866e-005 
2.081524059333616e-006 
-9.876310024222408e-006 
-1.987688405067709e-005 
-3.510018035667708e-005 
1.218009301918261e-005 
-1.188228615407456e-005 
3.839141635288921e-006 
-5.624924416791265e-006 
9.945368782602368e-007 
-1.958223719695999e-006 
-7.016219921142065e-006 
-1.28429806556845e-005 
8.4277448279588e-006 
-3.376919066618942e-006 
-3.701766616685986e-005 
-4.506468873523281e-006 
-3.841398730968378e-005 
-1.674054204672399e-005 
-6.941314466103544e-005 
1.043538586652687e-005 
-2.354608139274026e-005 
-1.135329152178142e-005 
-1.590028784524567e-005 
-1.791940162913835e-005 
-4.716811512052136e-006 
1.876239302187709e-006 
9.171499461580526e-006 
-8.656546782742534e-005 
-4.12426192032687e-006 
-1.724952181403841e-005 
-3.85345352304599e-005 
-1.904103932204575e-005 
9.882742629363213e-006 
7.863874351637851e-006 
-0.0001376016844843087 
1.712666237293732e-005 
-4.586011534200842e-005 
-2.579813927729142e-006 
1.030250000266351e-006 
7.580671224106702e-006 
1.534060719028209e-006 
2.274147761795514e-005 
7.922597696919562e-006 
6.141114362713292e-005 
4.611178259711722e-007 
1.032156686664942e-005 
1.499547608799569e-005 
8.917057671836262e-007 
-1.855771151365072e-007 
-2.838246174358659e-005 
-9.007614760285002e-005 
-2.32395646085351e-005 
-5.85522623755546e-005 
7.793331009634963e-006 
5.925340444579313e-006 
-3.089287471117907e-005 
1.147316510238421e-005 
-3.073756858677623e-005 
1.456253454118107e-005 
-2.992876164930983e-005 
-2.60160372494088e-005 
-1.358555745792231e-005 
3.366615474291783e-005 
-3.488305781718822e-005 
-3.089173883024952e-006 
-1.035246985278386e-005 
3.03102256351756e-005 
1.687887821532232e-006 
-7.454021771828669e-006 
-1.03737435870483e-006 
6.381931768394511e-006 
-1.645666338105949e-005 
-3.318344673850606e-007 
-3.883369001489812e-005 
-1.567528935450449e-005 
-6.754740266335547e-005 
-5.262165516649008e-006 
-2.043502196284158e-006 
-1.004767359192495e-005 
-7.900611927881968e-006 
-6.387922923016024e-006 
2.737733619558369e-005 
2.911779246779022e-005 
9.085488775251191e-007 
9.192893300630162e-006 
1.643715920896219e-005 
1.315964620983803e-005 
-1.267479246997508e-005 
6.250547026247441e-006 
1.708125893902752e-005 
-1.970919626690143e-005 
-2.162796552524114e-005 
-8.036197578901799e-006 
1.139433981875348e-005 
-5.591167188322187e-006 
-3.001166850139264e-006 
-8.07285751863531e-006 
-2.597358541210527e-005 
-4.881551686120396e-006 
-2.568254541432204e-005 
4.583216576572008e-005 
8.620044062292404e-007 
-1.723766693676126e-005 
8.243738252788075e-006 
1.60848235707362e-005 
-3.141372721604786e-005 
-1.57986053157692e-005 
-3.040975445408896e-005 
-4.085102234828389e-005 
-6.604813904197312e-006 
-3.227508645412672e-006 
-1.4199981670396e-005 
2.773930468608178e-005 
-2.784995985754307e-006 
2.560882982476277e-005 
-1.560397144031152e-005 
-9.11247710267892e-005 
7.48375517837777e-006 
2.216245955982669e-006 
-2.344861140964975e-006 
1.167376191824383e-006 
-4.284876516409063e-006 
-1.605809295648977e-005 
-2.085976069208658e-007 
-2.822092631333269e-005 
-4.538180054701954e-005 
-9.433751171532574e-005 
-3.445110832904991e-005 
-1.129900605381248e-005 
-1.624145510497373e-005 
-3.456606059480497e-005 
-1.075039632768127e-005 
-1.593124602087906e-005 
-5.052215746895149e-006 
2.033420985094867e-005 
-2.276375799702994e-005 
-7.284462240838681e-006 
-2.334840652114125e-005 
-3.186150048678439e-005 
-1.731148775177384e-005 
-8.055249270304806e-006 
-1.482329734771235e-005 
-3.984831938228578e-005 
1.511450202097519e-005 
-2.805185060059108e-005 
-6.554157194771863e-006 
-2.959131661892331e-005 
-5.35633276883028e-005 
2.326441244096261e-005 
-6.198657315480962e-006 
1.137850276586079e-006 
-0.0001048147773430003 
3.188619516564198e-006 
2.518105805601255e-005 
-1.411852541510138e-005 
-0.000145641965492296 
-1.826966482762856e-005 
-6.033873218473776e-005 
1.748663774639406e-005 
-9.538711443257753e-006 
2.166871252765136e-005 
7.523544341677285e-006 
2.627049542149247e-005 
-1.452835585869061e-005 
-0.0001067818572225703 
2.450998130542519e-006 
-4.256025169423295e-006 
-1.98229671936547e-006 
1.082892677408348e-006 
-2.65447412804248e-005 
-2.568839507599022e-005 
-1.324758010597336e-005 
-6.701894245613857e-006 
1.407273269497164e-005 
1.049189532856417e-005 
-5.163560160727874e-005 
-1.57920999909021e-005 
-1.522647647336278e-005 
-6.505669388266498e-006 
-2.437666064300263e-006 
-6.490476472494968e-005 
2.99779962443137e-006 
-1.612868917893751e-005 
-2.535101343110117e-006 
8.57324634654142e-006 
4.60669019215091e-005 
-5.70334740611849e-006 
3.554093513153129e-006 
6.080078636123888e-006 
1.943428430153779e-005 
-1.235937632886597e-005 
0.0001230400974774584 
2.987649627409922e-005 
-3.099015119053223e-006 
6.072909281728202e-006 
1.591036798512622e-005 
4.126977742811178e-005 
-1.158999367642442e-006 
-4.874074604052065e-006 
-1.027074770541007e-005 
-1.755017006708078e-005 
-4.579911857081355e-005 
5.545418448232156e-006 
-1.613930951045548e-005 
-1.417629713033295e-005 
-6.705726501338745e-006 
6.503582371111287e-005 
4.651257355992405e-005 
1.919115948096175e-005 
-7.054841547064929e-006 
4.998792352051971e-006 
4.838818850266211e-006 
-1.2314744663517e-005 
-1.743049123514203e-006 
-2.316897260382831e-006 
-2.723696555358447e-005 
2.020431533932052e-008 
1.615954040905159e-005 
-1.543894338761615e-005 
2.716246672858335e-006 
-3.711807899303106e-006 
1.335677503503252e-005 
-1.307017274990328e-006 
1.150901678046908e-005 
-4.468800268028539e-006 
-1.133182250769805e-005 
1.24795088877569e-005 
4.261079350024714e-006 
-2.506062722416817e-005 
1.329214417362009e-005 
-1.911092224896395e-005 
-5.027591428648345e-005 
-1.13149959973976e-005 
-3.504977752396922e-005 
-6.537154245180364e-006 
1.536406872817801e-005 
1.27031665683517e-005 
-1.689895934560871e-006 
6.247466129748414e-005 
-0.0001263772548273305 
1.692512258988833e-005 
-2.67701558273585e-005 
-1.345689030421967e-005 
-1.242074838192253e-005 
-3.83950866006115e-005 
1.210658865460579e-005 
-2.910851143472446e-005 
-3.092972731745396e-005 
-2.04951159941722e-006 
-1.852301009882163e-005 
-2.71376055737037e-005 
-7.105484681236742e-005 
-2.475151692263322e-006 
-4.669423192288511e-005 
-0.0001356960368295877 
-7.292500585985218e-006 
-2.480357833600504e-005 
-5.128977651923259e-005 
-2.706329947688786e-005 
-8.523209537013289e-006 
-4.464231499987423e-005 
6.106731798532596e-007 
2.067994599397983e-006 
-3.468248870326949e-006 
2.291208032643739e-006 
-4.373826472251953e-005 
-7.342005445148544e-006 
1.778233938588982e-005 
-1.459442565578905e-005 
-3.907602538838835e-006 
-8.228999281932573e-007 
-6.2846586536304e-005 
-1.798329392977458e-005 
-2.928500856688097e-005 
1.567354176016879e-006 
6.459551401959466e-006 
-4.833628240592457e-006 
1.008501517288077e-005 
-5.194606944533069e-005 
-1.738720057369334e-005 
-1.029334299614546e-005 
4.515530035702407e-005 
1.115710415395622e-005 
1.233249692417961e-005 
7.477929214304974e-006 
2.071418611741162e-005 
-1.288652957568238e-005 
1.072402606345057e-005 
3.228756964381633e-006 
1.557611215687384e-005 
7.603765295552641e-006 
4.932592070540247e-005 
5.8030571958316e-006 
-4.813836919540045e-006 
4.867356553679336e-006 
2.691051940202871e-005 
-8.668304230731618e-006 
3.486177191612991e-005 
8.562347832294763e-006 
-2.131014291660624e-005 
7.577811024370588e-005 
-2.146668920975464e-005 
3.739273944219156e-005 
1.465587828101864e-005 
-1.039237553795537e-005 
8.640081763123614e-006 
2.285647313589731e-006 
-1.414419896870272e-005 
8.940855166631784e-006 
-1.478032497717958e-006 
2.760604751073993e-005 
2.014339317407121e-005 
-1.277598747741241e-005 
3.479167611329372e-005 
8.843345191007568e-008 
-9.46320645697822e-006 
-8.317330230365445e-006 
1.695509144101183e-005 
4.068833840644812e-005 
-0.0001482095048944364 
2.813218243996434e-005 
-4.29854123640848e-005 
-3.63873932151419e-005 
1.822976912069268e-006 
-5.721055023582065e-006 
-2.502740729419608e-006 
1.340350336420827e-005 
2.051148792452139e-005 
4.364929135282078e-006 
4.832828406127955e-005 
6.785682483230203e-006 
1.704366053821714e-005 
-2.444706017191781e-005 
-2.571454364462691e-005 
-3.039917068434675e-005 
-5.428752049208883e-005 
4.353893248560967e-005 
-2.099510565120824e-006 
2.077923947904575e-005 
3.523458606875294e-005 
-4.511969214174009e-005 
7.316595985205088e-006 
3.658573706958378e-005 
-2.001968853230738e-005 
-3.260728425412659e-006 
1.536038215780366e-005 
-2.245815246550905e-006 
1.531720404120464e-005 
7.305352468480116e-007 
1.980006951430802e-005 
-1.341749667604255e-005 
6.583134625010467e-005 
-2.204259133057313e-005 
2.315610791615713e-005 
8.442207030018022e-006 
-1.334740273500051e-005 
2.404984111711455e-005 
1.415105090274923e-005 
1.201654761778943e-005 
2.053610498583418e-005 
3.537013559289063e-006 
-3.843128523678248e-005 
-1.744973646700122e-005 
-2.880237122676375e-005 
-2.650843799975999e-005 
1.6125898826939e-005 
3.315170844642619e-005 
1.091782576689901e-005 
-9.469117811022086e-006 
-1.705633246197992e-005 
-6.6380944803147e-005 
-6.903574141778271e-005 
-5.138497642863555e-005 
-1.393200214583931e-005 
-1.120404689900134e-005 
-1.042610107977074e-006 
6.358361727305049e-006 
1.011853102973838e-005 
-4.553147883368959e-005 
-0.000110540533750207 
-2.559425271610551e-005 
-5.704952210782295e-008 
-6.153555286588862e-005 
-3.540374304430711e-005 
1.835623133444532e-005 
1.626664050094358e-005 
8.46999929895879e-007 
-7.416351114357661e-006 
1.209408438137568e-005 
-1.084598290725036e-005 
-1.685599480830693e-005 
-2.40355523364511e-005 
-9.899656483264713e-006 
-1.167865053856711e-005 
2.006810779221444e-006 
-5.95585731436794e-005 
-2.87422306830963e-006 
-2.706291081005591e-005 
1.574098486918058e-005 
0.0001317231970707017 
-1.632183291406519e-005 
-1.442586672604811e-006 
-7.352631436570987e-006 
1.094070551474613e-005 
1.918244891365007e-005 
2.134137223184074e-006 
-2.928722909162917e-005 
-1.329547414766921e-005 
1.815716251754723e-005 
4.310036456316417e-005 
6.064492782713813e-006 
-3.040927358723202e-005 
2.395442528362571e-005 
7.49881501983945e-006 
0.0001236724425898538 
2.10536304651999e-005 
-5.635327170682931e-007 
-6.944801280680078e-006 
-3.493330500715287e-006 
-2.159812581704919e-005 
-1.393951869782502e-005 
-5.333706256947534e-006 
5.775385554468551e-006 
-5.837589918929443e-006 
1.210401466901365e-005 
5.731149686308776e-005 
-1.328029728448955e-005 
-1.804813277512589e-006 
6.219644470448369e-006 
-1.678563926845198e-005 
1.328927921074084e-005 
3.821134149442564e-005 
-3.013789820071963e-005 
-5.708334812905922e-006 
-7.225546983447734e-006 
-2.519731076114747e-005 
-6.361384554509489e-005 
-5.463466830075806e-006 
-6.524189117231497e-006 
-2.026653112361716e-005 
5.846211497633631e-006 
4.368088252861634e-007 
2.239614196609311e-006 
3.411372698786587e-005 
-7.92180159816761e-006 
2.355850556799723e-006 
-1.646568169537459e-005 
-5.820706755692284e-005 
-1.714120552826723e-007 
-1.941348028386606e-005 
-6.450042226450708e-005 
-1.393778944605324e-005 
5.406786261035377e-006 
1.273109954871456e-006 
2.82866549033199e-006 
-1.614355021435686e-005 
-4.611506936567878e-006 
-5.404818217974367e-006 
1.107339660934916e-005 
-2.555953938764259e-005 
4.987765860230844e-006 
8.721464718201055e-006 
-3.473353613822551e-005 
-0.0001310370928789175 
-4.801251016708285e-005 
-9.585857184041159e-006 
-3.780329137518029e-005 
1.522346735378234e-005 
-0.0001159712921734666 
-9.467728103473546e-006 
-8.972411291263977e-006 
-1.524110724078254e-005 
-1.307573479541294e-006 
-1.434256008007645e-005 
-1.534156328004962e-005 
-7.232968672917777e-005 
-5.628322032836704e-005 
-2.365877555768423e-005 
-0.0001358914512340989 
-9.348503550995881e-006 
6.113392632457256e-006 
3.169791061456979e-006 
3.278265377167859e-006 
4.573737448321133e-006 
-6.377929821072274e-007 
4.100358439959333e-007 
-2.361021740503688e-005 
-4.687733232265313e-006 
8.694173552463532e-006 
-3.866997636871203e-005 
-4.60484563867318e-005 
-9.86062589487404e-007 
-4.479046674605726e-006 
-4.162647331695877e-006 
3.731015897090134e-005 
-2.852418543992518e-005 
1.472751719217621e-005 
2.08862072877026e-005 
-4.87571564101934e-005 
-1.939371975850698e-005 
-1.665984624512057e-005 
3.406745119457383e-006 
-1.492800636045002e-005 
-4.71737462461613e-006 
-1.686801782143223e-006 
-3.579816920206258e-005 
-7.51339984624335e-006 
-4.800993978337876e-005 
-2.829129273306229e-005 
1.251530319066503e-005 
6.928906457854016e-006 
-3.144803750950206e-005 
2.068001853771311e-005 
-1.312511434146577e-005 
-3.589445678409808e-005 
3.686356025526741e-006 
2.672880764723819e-005 
-5.273929152932162e-006 
-1.040383708823214e-005 
-1.756255708152521e-005 
3.407387180376227e-006 
-1.594803338758386e-005 
1.239186650047638e-005 
-1.023453686098186e-005 
3.298404716588979e-005 
-1.978836654547114e-006 
-2.278371316252106e-005 
2.154087268856059e-005 
-4.240734089347037e-005 
-3.041816328594587e-005 
3.527469266540283e-005 
-1.01914747987969e-005 
-4.384369151718748e-006 
-1.793729165363101e-006 
9.536866971714346e-007 
1.83847643835612e-005 
-2.493910035412787e-006 
-8.4102213992953e-005 
-1.589861719695432e-005 
4.994863131838087e-005 
-2.378414859198566e-006 
7.747107375075386e-006 
9.507162825359902e-006 
7.05778138805594e-005 
1.78189786082758e-005 
4.815810902690192e-006 
-5.145459478424619e-005 
5.984798618739233e-005 
-2.66548304631988e-006 
6.417240319919282e-006 
-2.45739293925872e-006 
1.780887104175641e-005 
-2.355829697564309e-007 
-2.68706358525693e-005 
5.475362552968986e-006 
-5.996121086551303e-005 
-2.238063273110701e-006 
1.575010318176947e-005 
5.173902545505636e-005 
-7.263266199538249e-005 
-1.593456105577079e-005 
-1.82312072649593e-005 
2.481113731171615e-006 
-6.049723061351671e-005 
-1.771814890362886e-005 
-3.86469392293856e-006 
1.979675347986095e-005 
-8.803792634650439e-006 
-2.308329602674192e-006 
6.765073617513212e-006 
-4.568684783890657e-006 
-5.717574280821235e-005 
-2.057653740764477e-005 
-8.365997541448081e-006 
-4.878672076569998e-005 
4.837725990994733e-005 
-2.380726817805265e-005 
-1.641388761783945e-006 
3.176667638488013e-005 
9.12745010354001e-006 
2.022291070132833e-005 
-6.6442962854476e-006 
-9.50570525580067e-006 
-9.82470803102311e-006 
-5.893956152794004e-006 
2.815021904855272e-006 
-1.226358089869297e-005 
-8.526215585813183e-006 
-5.679203319506583e-006 
1.023232968819256e-005 
7.289466429332981e-006 
9.514415842990438e-005 
2.511185057620203e-005 
-4.558025700231724e-005 
3.954089152883603e-006 
8.655995557941357e-006 
1.227814453251699e-005 
-6.906749454929148e-007 
-7.85622067555813e-006 
-2.993831129241777e-005 
1.839091685776335e-007 
-1.497742278447425e-005 
-3.972370173414158e-005 
-1.6353428974157e-005 
1.189935070495423e-005 
-3.48748985416322e-005 
-4.253956074496068e-005 
6.947983601851187e-006 
-4.139050580495535e-006 
6.632894172326201e-006 
-2.913929732925997e-006 
-5.784854065214607e-005 
1.45411364537356e-005 
-9.924259077631238e-007 
-7.347190331632075e-007 
-2.517637760277007e-005 
-9.401141636005884e-006 
-1.807621129602309e-005 
-1.325047936372094e-005 
-0.0001512679180783171 
-3.713883100237432e-005 
-3.100724679703675e-005 
-2.782897233913658e-005 
-6.605689915137961e-005 
2.950757543833996e-005 
-3.458493808215137e-006 
1.477944421213233e-005 
-1.867819776242057e-005 
-2.607419487329492e-005 
2.065522185451165e-006 
5.525887063997615e-006 
-7.960504062824584e-005 
2.372992865263142e-006 
-4.745146593335825e-005 
4.569480251941741e-006 
-2.482998900085803e-005 
-1.20601353858299e-005 
-9.140325480910465e-006 
-6.432741960607364e-005 
-5.39159906387056e-005 
-8.548223424384236e-007 
9.544940438746143e-006 
1.647287267347835e-006 
7.853968955981829e-006 
6.327175124886587e-007 
5.809685096929077e-006 
2.41928291301265e-005 
-5.578194442418795e-005 
-7.517143830814903e-006 
3.5997371200619e-006 
-4.069821387526409e-005 
-9.246149242149912e-005 
-3.677593354716897e-005 
-8.673149507422519e-005 
-5.914230840301947e-005 
-6.215251974970071e-006 
-0.0001740511200117374 
-1.605933632545565e-005 
1.985636091345257e-005 
-1.295926574607434e-005 
-3.766825606546712e-005 
-2.86647342997704e-006 
-4.647261335067693e-005 
-0.0002481788695101202 
-5.602088626086878e-007 
1.232725529610366e-005 
1.21889604953354e-006 
-4.204648426062494e-005 
-3.747156799393632e-005 
-2.417411028473076e-005 
-1.094644043460662e-006 
-1.737398022428987e-006 
-1.344229051183582e-005 
-4.773857275699669e-006 
-2.070465293440293e-006 
-9.80102341617566e-006 
-5.689121387172417e-005 
1.966108614084502e-005 
1.161007116774437e-005 
-2.181722274381031e-005 
-4.564223322770926e-006 
-3.649355537519627e-006 
1.619062137895032e-005 
-2.627411893385652e-007 
-2.144394806122968e-005 
2.050569928696532e-005 
-0.0001134620709847379 
-3.106489526889533e-005 
4.995943150124759e-006 
-3.06253310245235e-005 
-3.741524180908033e-005 
-6.243202337629867e-006 
-5.617264884304649e-007 
-5.040338130285309e-006 
4.175175788722116e-006 
-7.682581194189426e-006 
6.045184174537846e-008 
-3.756189184895608e-005 
7.175835868415189e-006 
-6.31951578372828e-006 
-1.283190618428191e-005 
9.333763449219732e-006 
-4.715734035182841e-005 
1.547010898172622e-005 
5.175375313937635e-005 
6.320454544186374e-006 
-1.688398776640078e-005 
-3.001853774759542e-005 
2.702004188074785e-005 
3.518626763646071e-005 
2.528286155103362e-005 
-2.417137341102975e-005 
-1.206086094390316e-005 
2.255356783845416e-006 
-9.982209086438741e-007 
-1.303449673337416e-005 
-1.060263959235288e-005 
-2.700656360058272e-005 
3.393562336576115e-005 
-4.488413386826131e-005 
1.123591006187356e-005 
-3.705416478146609e-005 
-4.30717081073338e-006 
1.596181519844945e-005 
2.171703544758878e-005 
-1.054732009993489e-005 
2.082961617457832e-005 
9.46819904483463e-006 
7.837927756346453e-006 
1.845632243447028e-005 
-1.928536653419504e-005 
1.645587275898474e-007 
2.445952832516611e-005 
2.038321031922068e-006 
2.351352574438576e-005 
4.503068425727194e-005 
-1.704236275159969e-005 
1.597054043114123e-005 
7.078451779084116e-006 
-1.914555574400832e-006 
1.2544301963063e-005 
-2.674997264481946e-005 
4.846709262425773e-006 
1.533978116685961e-005 
-2.060242072344023e-005 
-8.169786449441446e-006 
-2.752445621522884e-006 
-2.169128409365485e-005 
4.303239474362035e-006 
6.541559729946031e-006 
-1.626031026822609e-005 
-6.188240754384572e-005 
-4.759474782212973e-005 
-2.518077965021018e-005 
-2.849936067657604e-006 
-9.872736763709315e-007 
-3.46231929765266e-005 
-2.943929648438253e-006 
1.51088582120113e-005 
2.220339470624115e-006 
5.333821984002422e-007 
-2.175712983409357e-005 
-2.467606178117762e-005 
-1.113427993489849e-005 
-1.545903365265648e-005 
-2.603133111210518e-005 
-0.0001262329648400193 
-7.538853836291484e-005 
-1.707938499526472e-005 
-1.201666958242615e-006 
-6.965987872468741e-005 
-1.057544172776496e-005 
-1.81581050849374e-005 
1.301356765868832e-005 
4.400842157648651e-007 
2.721935762125055e-005 
2.977312545350487e-005 
-2.499119507815808e-006 
-6.5012318154107e-007 
3.325007455113082e-007 
-3.70758179842101e-008 
1.296532333753108e-005 
-4.80845256122034e-005 
-0.0001306778437236504 
-7.294527000977723e-005 
-5.050990506530118e-005 
-3.390695508016871e-006 
-2.220822887222346e-005 
-8.506630118936886e-006 
-6.84943332206984e-005 
6.344150474238417e-006 
-0.0001516017415128604 
-2.198435073644628e-006 
1.659353011257325e-005 
-4.776319188296713e-005 
1.766637699120721e-005 
-2.101271516269023e-005 
-1.572085157934499e-005 
-0.0001498532815630064 
-6.861906336180586e-005 
3.127090049403508e-005 
-3.280471019116801e-005 
1.506993250200411e-005 
2.156602886788605e-005 
2.856919564847606e-005 
4.237415572398203e-006 
2.85402078280411e-006 
5.052041892021754e-005 
-1.09218121214546e-005 
-7.913685503900228e-006 
7.095161990507769e-006 
5.695093217502218e-006 
1.217498779051316e-005 
2.821433418410901e-005 
-3.695991162485808e-005 
1.233399812214944e-006 
-5.865127436882675e-007 
-7.772685192733521e-006 
1.517619795214403e-005 
-4.651983676890396e-005 
-5.9450397819288e-005 
-2.971212952346361e-005 
-2.380008723905921e-005 
-7.278874397384597e-006 
6.312078654390475e-006 
1.911986107114539e-005 
-8.026100517789795e-006 
4.655362798377159e-006 
-3.823375188664353e-005 
1.127381865006636e-005 
-6.706262129700404e-005 
-4.130930661420505e-005 
4.553810613322692e-006 
-5.914001671781133e-006 
1.181353030410945e-005 
-1.59203096934809e-005 
-1.006687602443795e-005 
-1.460690271884047e-005 
3.886550937830638e-006 
-8.593224952330645e-006 
-1.445397482767626e-005 
-2.739037816525643e-005 
-2.299955361313543e-006 
4.263073658787113e-006 
-3.075882229049744e-005 
5.833497447369998e-006 
-7.318931569694137e-005 
-0.0001342435167880253 
-5.443380192134029e-005 
8.053330094937357e-006 
6.390268396300666e-006 
4.819302834496763e-006 
-1.263785606151529e-005 
1.125267375984637e-005 
-1.18803551155928e-005 
-2.381809278823753e-005 
9.318571322262737e-007 
-1.780083836536539e-006 
9.694695641841086e-006 
2.769739125045293e-005 
1.046172268147624e-005 
-3.268587951608884e-005 
-7.970203360150597e-005 
-2.756295739568799e-005 
-3.864857846961928e-005 
-1.913575820993054e-005 
-1.58274773681422e-005 
-1.229080749221392e-005 
-1.774733088499923e-005 
1.423135953539583e-006 
-1.611382723567513e-005 
7.244517865046782e-005 
-5.975546765412788e-006 
-3.924862761617559e-005 
-1.259290324925927e-005 
-8.003695314131896e-006 
-1.277558377085848e-005 
-1.922057703063977e-005 
-6.059646635667606e-005 
-1.94061031986509e-005 
2.107943298073715e-005 
-6.967099331016646e-005 
1.816876574506124e-005 
-2.380876030296212e-005 
-5.700880516955244e-006 
-8.27465671433766e-006 
1.191456067266016e-005 
-2.139985732473831e-006 
-1.410256442878817e-005 
-2.876527702647202e-005 
-2.579784693360927e-005 
1.196658479261963e-005 
2.006836882249267e-005 
-8.936228130477043e-006 
1.978245561979865e-005 
-7.276342468131751e-006 
-6.027306955436639e-006 
2.618835533842968e-006 
2.354810833824397e-005 
-4.694652251106258e-006 
2.142705320963869e-005 
1.544007822216466e-006 
-1.467854000646989e-005 
1.673562382073296e-005 
1.339831067964171e-005 
-2.600059134201635e-006 
3.882813050064791e-005 
-8.150979729508551e-005 
1.607878866484257e-005 
1.453648908300174e-005 
3.105654473112168e-005 
2.427748326188657e-005 
2.640774413180769e-006 
3.623432961253188e-005 
-5.642191651986642e-005 
-3.083954679822165e-007 
-2.969871873803351e-006 
4.460357108201463e-006 
-4.054163146794706e-007 
-5.256862048699184e-006 
-9.613629378538025e-006 
3.016832702384138e-005 
1.182031319395151e-005 
-8.743211645763135e-005 
-4.409384488445543e-005 
2.677517907354085e-006 
-0.0001656658944068087 
-8.485591373131357e-005 
-2.305908897341716e-006 
-3.559394325880079e-005 
-6.810589805659914e-006 
7.856387175433037e-006 
-1.522317962578306e-006 
-1.784317516934158e-005 
-1.223090155804275e-005 
-1.332735735983893e-006 
9.003369179947172e-006 
-5.130355231692542e-005 
-3.607033037094066e-005 
1.134898877852554e-005 
-7.684946820925924e-006 
2.732592129317235e-005 
-1.688444422385303e-005 
2.627262015323132e-005 
3.054254070750458e-005 
-2.086969808979813e-005 
4.514288877067537e-005 
2.283417919453834e-005 
-1.39990942549997e-005 
-1.77376168539912e-005 
1.566249539169435e-005 
3.158400865509967e-005 
1.329569459759615e-005 
4.395185721789643e-006 
-8.949357574938836e-006 
2.727722785539792e-005 
-1.589709449950364e-005 
-1.61451987029954e-006 
-8.766287324145309e-005 
-1.027057242004606e-006 
7.932614363308107e-006 
-9.404672431729913e-006 
-9.205636805040246e-006 
-2.028697990575791e-005 
4.212363436464264e-006 
3.192795033043637e-006 
8.211274598728644e-007 
-5.76533410242347e-006 
-8.071991138316035e-006 
2.656585077593002e-005 
1.160594275170153e-005 
-3.645008131257005e-007 
-2.160521036283022e-005 
-1.939090448206906e-005 
-4.35671077556585e-005 
-0.0001047991785161303 
4.264087694999117e-006 
-2.116304686775538e-005 
-5.512807298450185e-005 
-7.756057621970473e-005 
-7.151438208466367e-005 
-1.116299045594476e-005 
1.405817133607232e-006 
-1.858187376884722e-005 
-5.718060997746938e-005 
4.061710287375389e-006 
1.40198801061657e-005 
-3.77429171295411e-005 
-2.697434588298429e-005 
-7.952364054289909e-006 
-8.391320527949839e-005 
7.488543182991603e-006 
-2.594642789272536e-006 
-1.817116920778457e-005 
-1.992320497547507e-006 
1.081368231128865e-005 
4.710572936020633e-006 
-8.651928297377248e-006 
2.126487548102136e-005 
-9.509936172292628e-006 
-9.294233940471676e-006 
-1.484516016702614e-005 
-1.630746021730385e-005 
1.620278979712169e-006 
1.20407303078098e-005 
2.156042662035064e-006 
-4.007547797745685e-005 
-3.331772530838456e-005 
1.212738008485933e-006 
-4.499086463422598e-005 
-2.852450731419356e-006 
-1.731683797264485e-005 
-6.362158542718849e-006 
-5.60582220663748e-006 
4.132511737969362e-006 
-2.484831326200581e-006 
-1.537499410830102e-005 
6.076877928546993e-006 
-5.936658808580438e-006 
-1.577935723480775e-005 
1.396585902894826e-005 
-6.109362481751968e-006 
1.48290810459032e-005 
4.653024239170242e-005 
5.384926802044777e-005 
-3.088918863508291e-006 
-6.067576215080368e-005 
-1.367978845889771e-005 
2.947765593474147e-005 
-1.107644696502113e-005 
2.960666539608503e-006 
7.237385299847436e-007 
-3.780793234487806e-006 
6.744934346843836e-007 
-3.227978757037106e-005 
-1.504767164504716e-005 
-2.50642416450379e-005 
-7.73588046656122e-006 
5.041938249763168e-005 
-0.0002013009044079737 
-5.123687422914946e-006 
-0.0001055906183390375 
-3.326155779916466e-005 
-9.390205612593273e-006 
4.968136450406786e-006 
-1.496719913997237e-005 
-7.241534968297052e-006 
6.669219951937852e-006 
1.824335202743787e-006 
-6.999159921678222e-006 
-8.807441226481633e-005 
1.641145141646478e-005 
-2.493823669120954e-005 
1.071631677357694e-006 
-0.0001290085842013718 
2.436565698764576e-005 
-1.151154210016074e-005 
-0.0001423721147270019 
3.260860333609933e-005 
7.259243449730719e-005 
1.465029274454086e-005 
-1.570317174612625e-005 
-2.786254281959852e-005 
-1.455871550875087e-005 
-5.998022577213989e-006 
-1.202686813176619e-005 
-2.500097932321585e-005 
2.581755869668095e-005 
1.564670766762301e-005 
9.921303540553709e-006 
3.539168662931367e-005 
-0.0001213872268018274 
-2.809253789686301e-006 
-7.673019786943138e-005 
-3.106777435158362e-005 
-5.899207356025793e-005 
-6.650956901226714e-006 
8.875673355274315e-006 
1.046317867481126e-005 
-3.702433466019502e-005 
-5.409438326898762e-006 
1.010379376167443e-005 
-3.147608518963631e-006 
-4.890819550873777e-005 
-1.259175049491995e-005 
-2.601033011679534e-005 
-9.475558092013326e-005 
2.30694750383757e-005 
3.63009851530721e-005 
9.886345425822065e-006 
-1.529789451430389e-005 
-4.993920048842869e-006 
2.490950228261162e-006 
-3.459057510062352e-007 
7.745508184367383e-006 
-2.984709988971555e-006 
-7.488619853637395e-006 
6.784715330571129e-006 
-8.978914476953058e-006 
-2.863299498366148e-005 
-1.022450849487035e-005 
-3.271329988427945e-005 
2.402237854378528e-005 
-7.791781972016198e-006 
1.801034899450688e-005 
-8.4546020679105e-006 
9.672290612528278e-006 
2.026880707787565e-005 
-4.318190724197188e-006 
9.717261324820223e-006 
1.456046548043369e-005 
2.280736618553561e-005 
8.282133278741098e-006 
-4.281067455478461e-005 
-1.039071769433542e-005 
4.744414511704849e-006 
-5.26351137746937e-006 
-1.47744943418429e-005 
-6.098238051394129e-005 
8.610487908397136e-005 
-1.642059718367153e-005 
-3.777613843878818e-005 
1.017324965022704e-005 
-3.16648756528852e-005 
-8.419015813442563e-006 
1.350974531823216e-005 
-1.728217049861492e-005 
-1.182591934062953e-005 
-1.268031628112443e-006 
-1.305217956720886e-006 
-3.359958842841219e-005 
-2.087620506826553e-005 
1.576314254074215e-005 
-3.356558463490448e-005 
7.47877902564725e-005 
-7.647991450644554e-005 
-1.744980341683639e-005 
-6.206298560021174e-006 
5.123000479994223e-007 
2.000185604636358e-005 
-2.642467447045261e-005 
-2.914805447959688e-005 
-3.154001584885559e-005 
-9.063364516125993e-005 
-9.247264113876839e-006 
-3.047942608993506e-005 
-3.151332062527302e-005 
-1.525178849514118e-005 
6.971232469529711e-006 
-2.355756884789496e-005 
-5.6653563222746e-005 
-4.14087212267586e-005 
4.858513273590523e-006 
2.183917367939292e-005 
-2.672543066678282e-005 
1.266031643387999e-005 
1.125994944443018e-005 
-2.079617911138778e-005 
-3.677535803700517e-005 
-0.0001388801923016587 
-3.271389935106513e-005 
-6.733499711624792e-005 
1.403600629051856e-005 
-8.344355735956178e-005 
1.085388735867231e-005 
-0.0001540275204973039 
-9.900830340991071e-005 
-0.0001420264029820515 
2.552334524722342e-006 
-3.600130895825531e-006 
-1.660401504534327e-005 
-2.529490611482155e-006 
2.159724748898351e-005 
2.162235396628331e-006 
-1.694484467017407e-006 
-0.0003600215138981197 
6.487961133826502e-006 
-5.021483843529246e-005 
-3.458799765685688e-006 
-0.0001688854202056333 
-9.215013681764584e-006 
-0.0001032567800624488 
-8.813866759878057e-005 
-6.534789400548354e-006 
-2.712890911662742e-005 
-3.925962114755387e-006 
2.396778054243906e-005 
-3.031121312873142e-005 
1.971871974498097e-005 
4.700074489893407e-006 
-2.18095572138175e-005 
-4.932408009329345e-005 
-2.477956177636642e-005 
2.189895807501876e-005 
1.084268344894094e-005 
2.078236900302001e-005 
1.651002385499917e-005 
4.619063373210436e-006 
-2.983700444168049e-005 
-1.404389146359041e-005 
1.537792459801216e-005 
-2.074665103437534e-005 
-1.666829917259748e-005 
-2.131851318263887e-005 
-7.341306241191295e-006 
-1.557990572963984e-005 
-2.582931598964132e-005 
-3.052009939523589e-005 
-3.049225192470045e-005 
-0.0001456164328561198 
-4.351443768268801e-006 
-4.444603728143496e-006 
4.061341011808268e-005 
-1.703408147278182e-005 
-1.36141941166746e-005 
-4.293974406159836e-006 
2.585700224246448e-005 
1.743590035901641e-007 
4.487167741406552e-005 
-4.222782756565796e-006 
3.803979356065682e-005 
2.52087701136506e-005 
2.638151257184759e-005 
6.749211060844165e-006 
-7.921197464389906e-006 
6.562575808997155e-006 
8.211593819686092e-006 
1.627070587551022e-005 
2.650999335619418e-006 
-5.993727723135063e-006 
4.204030766968101e-005 
4.8531896016096e-005 
-1.374313445105984e-005 
6.738567971603762e-006 
-2.775961063810415e-006 
1.262187785131748e-005 
-5.337101565154506e-005 
-4.021930980079377e-005 
-2.320344700557e-005 
-0.0001448491914721203 
-2.202145468143362e-005 
-3.505342415090147e-005 
-2.302631610822493e-005 
-1.20740908319926e-005 
4.468181689789026e-006 
-3.355446491878364e-005 
-8.897693706076291e-005 
-8.763450377281465e-005 
-3.394740363937026e-005 
-2.889614958371657e-005 
-4.614231291615712e-006 
-3.992015349248147e-006 
-5.467232191398545e-005 
1.050294118567062e-005 
-3.049607530059499e-005 
-3.839505407314232e-006 
-3.794536953419313e-005 
1.093553085562877e-005 
1.87749113642155e-006 
-4.076080013603691e-005 
-2.711755697760785e-005 
-7.670220852735847e-005 
-3.847707994098046e-005 
-2.999211307316056e-005 
-3.246543790760256e-005 
-4.51911034493784e-005 
-1.827906644553627e-005 
-3.987107747004714e-006 
-3.517002813486993e-006 
-1.096764680351882e-005 
-6.564549222600776e-005 
-5.377019942562683e-006 
-4.104837349129397e-005 
-0.0001076057829103749 
-3.047277289143053e-007 
-4.919040932744962e-006 
-2.595593736367001e-005 
-5.8059707597873e-005 
1.449297772204694e-006 
3.18895039841036e-005 
3.309875538621265e-005 
1.606076557790399e-006 
2.025089022279958e-005 
-5.394773025370299e-006 
-5.910030072641837e-005 
-1.918289736756769e-005 
2.709484723452146e-005 
-8.475050299049752e-006 
-3.275607596409602e-005 
-1.97869066283687e-005 
2.4324877254465e-005 
7.469862377356307e-006 
-1.539080389459365e-006 
-2.442897329990498e-005 
1.922673616509218e-005 
-3.234432001691121e-005 
1.429385558979503e-005 
-8.704428083663246e-006 
-4.670400142521878e-006 
1.207874448804298e-005 
-7.73269246807126e-005 
5.680173669582214e-006 
-5.550158310055838e-005 
-4.094927112184685e-005 
-5.302421395439573e-006 
-3.467986605576611e-005 
-2.071645796084803e-005 
1.119938471138325e-005 
-6.918541244109398e-007 
-3.727325424754827e-005 
-0.0001407181435223674 
-5.185709557505822e-005 
2.557633299158284e-005 
-1.006189524111411e-005 
4.492513059495858e-005 
-1.829171658510809e-005 
-0.0001137199771758176 
-2.866759893055836e-007 
-4.51630782959219e-005 
-0.0001140337112997334 
-2.835894245842369e-006 
-4.373338720415543e-005 
6.840332959807279e-006 
4.086454132837766e-007 
2.141799831571335e-005 
4.381854254136466e-006 
-6.336284426940736e-005 
5.347736279392333e-005 
-1.213608430666548e-005 
2.319284427476961e-005 
-5.020024447671739e-006 
-5.9479624911759e-007 
-3.844414125231896e-005 
4.880822806331478e-006 
3.496766765740136e-006 
3.942642268964927e-005 
1.787860957805417e-005 
2.028828743970658e-005 
-2.771355149625897e-005 
-4.488217263055188e-005 
-4.116916842496016e-005 
4.515864017065249e-005 
4.533007338268668e-008 
4.761489259815617e-005 
9.359698246618166e-005 
-1.928281590596819e-005 
-1.807877998634627e-006 
8.207816076552955e-007 
-1.109851988260181e-005 
4.379654200699842e-006 
5.980065691470024e-005 
7.663561558598588e-006 
-1.137318787762746e-005 
2.518237381506415e-005 
6.296409890640396e-006 
7.514101178437429e-006 
8.141388639455499e-006 
-2.323002911703595e-005 
2.443119705844939e-005 
-5.605142329517605e-006 
-2.649491704488595e-005 
-8.827646102861625e-006 
-4.262609100185438e-005 
2.129502153317525e-005 
-2.83790126182217e-005 
7.945443075066927e-007 
1.295601357229677e-005 
-4.693215470035043e-005 
-3.182650749186117e-005 
4.253838121181307e-006 
-3.53737631806758e-006 
9.723220424580283e-006 
-1.734438298979965e-005 
1.238879511767307e-005 
-1.795509894356781e-005 
-7.862673880238453e-006 
-2.813621045365242e-005 
5.083830546045914e-006 
-7.974030013392274e-006 
-1.519092586068505e-005 
1.332657782072707e-005 
2.794462310158177e-005 
1.587456789742302e-005 
4.461321658628509e-005 
2.241191852013499e-005 
-3.456629587060684e-005 
-5.663897673796607e-006 
-9.565493939364083e-006 
-1.455642852986314e-005 
2.909469196825391e-005 
7.356701997148098e-007 
4.441782273508758e-005 
-1.210805600743753e-005 
1.407699253061745e-005 
4.024528531653858e-005 
1.572509368148508e-006 
-3.692435603877407e-005 
-5.926573076884953e-005 
2.687562089161561e-005 
1.306751760893203e-005 
1.784607668794954e-005 
-2.231630502849271e-005 
-2.541271850183176e-005 
-5.16523283198696e-005 
3.381683250596787e-005 
7.264488262311422e-006 
2.390325995427388e-005 
2.00012319288444e-005 
2.173247620023721e-005 
1.916709056045519e-006 
-3.859146180152441e-005 
3.559058411244404e-006 
9.065829937879584e-006 
-1.621153863807087e-005 
-5.074690743955169e-006 
9.869170579588562e-006 
9.065829937879584e-006 
0 
-2.798958878122791e-005 
-0.0001322209423840126 
9.684671516828954e-007 
3.922114268371162e-006 
-5.284814759361989e-005 
1.637979137595965e-005 
-1.378751095828879e-005 
3.482452871656111e-005 
-3.106880478569044e-005 
2.81431343776922e-005 
5.204464507230939e-006 
5.557125891944129e-007 
1.542165993403097e-005 
-8.747934706263476e-006 
9.402803369647227e-006 
1.544007822216466e-006 
1.997298724344774e-005 
-0.0001241480375111472 
1.514357434575006e-005 
-1.360191135457369e-005 
-0.0001130133114369278 
-4.011038118751871e-005 
5.428776563175559e-006 
-0.0001065398119906633 
-3.559251106455051e-005 
-5.863941443168814e-006 
-3.615200768432323e-006 
-8.551877073583476e-006 
-5.008266262151194e-006 
1.973611163847967e-005 
-5.532621252363902e-006 
4.349518077755004e-006 
2.190413885739801e-005 
-4.450570023299243e-005 
-6.458271514232579e-006 
1.235618397581167e-005 
-7.35682627074347e-005 
4.462219573848913e-006 
1.435356165293727e-005 
-2.915488399208914e-005 
7.393550908108649e-005 
1.787729114468503e-005 
-4.049587304561947e-005 
-2.38223344863113e-005 
-3.369343780991323e-005 
5.996981769809625e-006 
1.828225963153679e-005 
-1.052462993320663e-005 
-7.279949255398418e-006 
1.899517961337147e-005 
3.927232464981181e-005 
-1.180586879509158e-005 
4.790070736463447e-005 
-2.849568468026693e-005 
-3.598685499099258e-005 
-7.543982953497182e-005 
1.537726199329218e-005 
9.079707441258976e-005 
3.782035451684724e-007 
-4.331633668465777e-006 
2.040088800645243e-006 
1.073971287674031e-005 
-2.859983409712434e-006 
1.014163507500113e-005 
-3.909682287235846e-005 
-6.286668747057521e-005 
1.909436840175816e-005 
-2.019369550734712e-006 
5.318604862346668e-006 
-9.245934143923477e-005 
2.030265444994918e-005 
-4.677292358653245e-005 
-5.761451245601719e-005 
8.757657300647482e-006 
1.353855598273139e-005 
2.128071675195709e-005 
-6.571773100447624e-006 
-4.521990148293179e-005 
-6.870711650515659e-005 
-2.643719678879816e-005 
-5.543948782545926e-005 
-8.419778068307062e-005 
-4.759743736704795e-005 
-5.670466445180289e-005 
-6.76539633934415e-005 
-5.094988380155277e-005 
-7.65235621820012e-006 
-8.41003714902417e-005 
-3.928028125820647e-005 
-3.676218317508677e-005 
2.469335303440785e-006 
3.66785063990371e-005 
3.791434739447732e-006 
2.278256403951499e-006 
-3.287496186686668e-005 
-1.621272549614438e-005 
-4.272734488371103e-005 
1.675143216356687e-005 
5.113410131429487e-006 
9.400017936483519e-006 
-1.157607214154868e-008 
-2.130425643497036e-005 
1.863776420300214e-005 
6.878469709268323e-005 
-1.764314351025308e-005 
-0.0001710201166711003 
-0.0001196923315866077 
1.109493974330655e-005 
-6.523227935589443e-006 
1.144732772596917e-005 
2.380548000004564e-005 
-4.371144733125054e-006 
3.262085336737008e-005 
4.648181270786768e-005 
-2.389321176318615e-005 
-1.503343463262215e-005 
-2.426806967020827e-005 
2.443406234324097e-005 
3.124966175868119e-005 
-3.574386472256739e-005 
-3.569780151043866e-005 
-7.01557347124057e-006 
8.763415663440051e-006 
-1.310751239840688e-005 
-4.606361906042947e-006 
-1.774772318925082e-005 
-3.546043028142884e-005 
-5.605171535219083e-006 
8.085538041421764e-007 
-1.6161006995818e-005 
1.767649210778866e-005 
-2.561165395834093e-005 
7.759242554103548e-006 
-2.474522938437179e-005 
3.916593220372751e-006 
-1.352569096418501e-005 
-3.37056611264661e-005 
-2.468158272150784e-006 
0 
3.570149670549324e-006 
-2.604167324198895e-006 
-3.884235158366038e-006 
-1.532573683141525e-006 
-1.037594188138455e-005 
-3.339140061176822e-005 
-2.404309237858086e-005 
-9.716869445627077e-007 
-1.071597692879615e-005 
3.317067168499916e-005 
5.752162900402732e-005 
-7.005288767403562e-006 
-5.877119833692446e-005 
-2.336141422702227e-005 
1.144157779658324e-005 
-1.548142166027151e-005 
-2.464487238551074e-005 
-7.194094504426681e-006 
-1.983458527907479e-005 
-1.50281090661433e-005 
-3.14540643444229e-005 
2.137857200922453e-006 
-9.389149258274854e-006 
1.49035738501626e-008 
-1.139401009751476e-005 
2.669567809812822e-005 
-3.858738954593368e-005 
-4.320836304834536e-006 
-5.665713741282478e-005 
-7.10795389645031e-005 
-0.0001222069269548072 
-8.951870221995804e-005 
-1.557021959050631e-005 
-1.87532142701964e-005 
-1.524234369684026e-005 
-5.243044187548052e-007 
-3.774554547320361e-006 
-6.276894271351486e-005 
-2.279037150810735e-005 
-2.659370494010694e-005 
-9.320526488176394e-007 
-8.801452676819e-005 
-6.363331803394101e-005 
4.665641895836055e-005 
-0.0001235487530556935 
-2.218476045424314e-005 
-1.784440964954295e-005 
8.969057383037428e-007 
-8.933160377643112e-006 
1.41603724146087e-005 
-5.042728655596021e-006 
-7.909820881124255e-007 
-1.670132460618826e-005 
-2.195702638692019e-005 
-7.298133803812432e-006 
8.443565110520406e-006 
-1.275930231925591e-006 
-6.586522789472396e-005 
-6.681808356054989e-006 
-6.712338411133613e-006 
-4.37385708280441e-006 
-2.983280848132039e-005 
9.712133484794949e-006 
4.766939059381556e-006 
8.544754328093829e-006 
9.5582848474328e-006 
-5.724671335020538e-006 
-1.031983156792295e-005 
-2.980484597251788e-005 
5.567577402814534e-007 
-2.843836588034402e-006 
-1.720041174932973e-005 
-1.378251613824369e-006 
-6.952440334004778e-005 
4.653782179318386e-005 
-1.192743740514565e-005 
-1.279042986512289e-005 
3.52490907023091e-005 
-2.773726067222224e-005 
-1.509955717629366e-005 
9.847019278671693e-006 
2.105290426983791e-006 
2.618364603455288e-005 
-2.642450631336377e-006 
-2.261813431044766e-005 
-1.266044107254224e-005 
-1.355271135534922e-005 
1.068749002620121e-005 
-1.110748180785423e-005 
-6.801577790614217e-006 
4.495475978699668e-005 
-5.345727084011736e-006 
-1.381765781006841e-005 
-7.269565207849015e-006 
-7.507734405110691e-006 
-6.485708899934738e-006 
-8.62477099885987e-006 
-5.95414254726351e-006 
-5.877261670013657e-006 
1.081372603067952e-005 
-6.616817245059129e-005 
-5.662825420331029e-006 
-1.128826315285931e-005 
1.827645387306307e-005 
-1.681860608888687e-005 
-1.154595835130044e-005 
1.187586322833707e-005 
1.630545123063993e-005 
-4.193836337735289e-006 
-5.918096224856369e-006 
-1.427241712293625e-005 
2.822694282667012e-007 
2.477854811482795e-005 
-1.424179174237547e-005 
-7.788584024661346e-005 
1.117226998690555e-005 
4.488534752160662e-006 
-1.151194787288405e-005 
-6.651430488178081e-005 
-8.380748153188901e-006 
-6.803447683270451e-005 
-1.752245278081788e-005 
4.33542206177436e-005 
-3.519823411894393e-005 
-1.703542353908444e-006 
-7.754762373748142e-006 
-4.925605541435475e-006 
1.059637091320142e-005 
-4.038309593272975e-006 
8.728711061411288e-006 
5.491260931515477e-006 
-5.08272615164506e-008 
-3.984783523352226e-005 
1.191917523024302e-005 
1.102789081550244e-005 
3.592358963525044e-006 
-4.312175057111384e-005 
1.744326146614537e-005 
-3.402846090161879e-005 
1.832692270725484e-005 
-3.009006398234577e-005 
-3.372596614957472e-006 
2.26000070259537e-006 
-1.989236592928101e-007 
-2.390345204687963e-007 
1.870048072219006e-005 
2.633798295481518e-005 
-8.312464731396243e-006 
-1.66200925606383e-005 
-7.025602926857998e-006 
7.51844921889905e-006 
2.203946241325885e-005 
2.135810502548727e-005 
-2.015994330104218e-005 
-1.102941431509061e-005 
8.03129917734939e-006 
-2.631082883284273e-005 
-2.799152078819263e-005 
-4.160356197634562e-005 
-7.074021955844428e-006 
-1.681812583401796e-005 
-2.813010030110626e-007 
-6.49379416528625e-005 
-3.288974603509975e-006 
2.872316121620543e-006 
1.166048618883033e-005 
-1.213744200120751e-005 
5.908026975090735e-006 
1.248193414143984e-005 
1.452512550472423e-006 
-3.983973526056398e-005 
-1.869667612499478e-005 
3.803145466668605e-006 
1.355814992813987e-005 
-2.609978123626458e-005 
1.03767831647811e-005 
1.40260651901909e-005 
1.874407699787175e-005 
9.919190347792718e-006 
-1.31662642187246e-006 
3.514059180943897e-006 
-1.241256709524184e-005 
1.418173029567582e-005 
-3.063884449213986e-006 
8.757381804625592e-006 
-1.0982010759531e-005 
-1.761254326529282e-005 
1.995833019296319e-005 
9.274795272751676e-006 
-6.086199321099003e-006 
6.665079226324606e-006 
1.485437166559335e-005 
-5.820534866638715e-006 
-1.499207545416389e-006 
-1.177391031699815e-005 
6.778672267353423e-006 
-7.691061886675761e-006 
-2.049787725748785e-005 
-5.887446809782646e-006 
-1.046142494681826e-005 
-6.399987771593981e-006 
-5.73515872852857e-005 
-1.800538846877537e-005 
-5.94489295974871e-006 
-5.72589545513564e-006 
-4.205477620943567e-006 
-3.275834268986592e-005 
3.773656039573504e-005 
-1.322994164454426e-006 
2.223742433166634e-006 
-1.523658587371578e-005 
1.639492321690299e-005 
2.684334097908091e-005 
-9.809758057372571e-006 
-5.769836842799644e-006 
-1.886504411610305e-005 
-1.003112098573113e-005 
1.14394422116305e-005 
-5.340919996407848e-005 
-3.528748359605594e-005 
-6.764355590238943e-006 
-7.183856231933934e-006 
1.605693007035738e-006 
8.681013730410045e-006 
2.790260052554963e-006 
-3.800120703443074e-005 
-3.132606243921734e-005 
6.940297677599026e-006 
-1.483658611193435e-005 
-1.114505431490983e-005 
2.663909242107091e-006 
-2.506265445001146e-005 
-2.821002940035903e-005 
-4.194024591014425e-006 
1.034926292886713e-005 
2.26947480068866e-005 
-7.219074661562112e-006 
-1.658014084202295e-005 
3.628188690243755e-007 
-7.554249338005433e-006 
-6.92643280821494e-006 
1.069074914033623e-005 
-2.95943678622316e-005 
5.29643576639727e-006 
-3.95918997773997e-005 
-1.492774501256359e-005 
-4.294443000420544e-006 
1.681637158036199e-006 
9.514240880967627e-006 
-7.444714626055388e-006 
-5.069066175926396e-005 
2.478902199738488e-005 
-3.202051098045526e-005 
7.523824867785649e-006 
3.034198294075362e-006 
8.934245291369827e-006 
-1.195882330452143e-005 
-2.009273655962171e-005 
-1.565482094507161e-005 
-1.877135525013841e-006 
-3.522334951589947e-005 
6.287266623882981e-006 
-1.886735455806007e-005 
1.590241751990018e-005 
-2.62370873212936e-005 
7.117030011755599e-006 
6.091729887014695e-005 
1.60250259194983e-005 
4.002666985552261e-005 
-7.638131757341138e-007 
-2.395429276613638e-005 
2.860314452709052e-005 
-1.918282064114139e-005 
-3.886042479549887e-006 
-7.372844437193642e-006 
-3.075619119593659e-006 
3.710314891859199e-005 
-3.372767317612418e-006 
9.992576683928347e-006 
-5.366381211815611e-006 
-3.971239812472473e-006 
-4.43011844691985e-005 
4.216283485424679e-005 
2.08684841599845e-005 
5.04407596330487e-005 
9.402819716296483e-006 
-6.970650222764677e-005 
2.467089081531568e-005 
-5.487869841380354e-007 
-5.99539147199942e-006 
-6.523378516297895e-006 
-1.483398497922284e-005 
3.203657829728445e-005 
1.74158734071592e-005 
-2.583469790286758e-005 
-2.861342576487269e-005 
9.509065697279267e-006 
6.156337466782887e-005 
1.239822453368906e-005 
1.322058188345483e-005 
-1.38517760827102e-005 
-8.20328143760309e-006 
-1.132548414047744e-006 
-2.230493198373689e-005 
1.938514299933316e-005 
2.141884009332223e-005 
-2.004776169845115e-005 
1.449681220717873e-005 
-4.342152712003898e-005 
-3.76168918788426e-005 
6.348511483473581e-006 
4.592261231285347e-006 
2.632999880730712e-005 
8.336958246396508e-006 
-2.163872175945834e-005 
4.429090814650662e-006 
3.102388526431422e-006 
1.359850466391589e-005 
-3.690418526173307e-006 
4.741526816494165e-005 
1.625245057434056e-005 
-9.113037759360343e-006 
3.282819853981461e-005 
-1.042256430658558e-006 
-1.377290225878853e-005 
-1.87544839269619e-006 
-9.851196150990308e-006 
-7.81037975765017e-006 
-2.349201803595751e-005 
-1.138180113971518e-006 
2.304150941147529e-005 
4.473861165621681e-006 
-4.027466155212967e-006 
5.703667550051915e-006 
-3.639865004172466e-006 
-1.629249283769396e-006 
-3.389065952036165e-006 
1.309034678980062e-005 
-1.549575534144965e-005 
9.394407628006091e-006 
-4.216601494970307e-005 
-7.250807150990333e-006 
8.013063588177033e-006 
6.980656966503948e-006 
1.075784449078176e-005 
4.239813311971129e-006 
-6.099063343911256e-005 
1.073758687860286e-006 
3.491932288248621e-006 
-4.659759427708951e-005 
-1.196873261090896e-005 
-2.118906286968551e-005 
1.617797488997739e-006 
8.224154171550443e-006 
-1.559829042224552e-005 
-1.676168878954385e-006 
3.163788437896609e-005 
-5.215940331085589e-005 
-4.234400894267284e-005 
1.18503078498855e-005 
-1.496972419917675e-005 
-6.777348431486825e-006 
1.105759197812344e-005 
-5.414259634500478e-006 
6.300616026979559e-006 
4.451064036406691e-006 
3.546718783054093e-006 
4.457276902796123e-006 
1.068775580488518e-005 
1.025064625408758e-005 
-2.237209453636085e-005 
1.249948370445105e-006 
2.349052210738117e-006 
-6.860874701025618e-006 
1.232652342492398e-005 
-4.145649447187465e-006 
-8.037012446277929e-005 
2.321560467614593e-005 
-3.162652431527062e-007 
3.818288657022006e-006 
-2.395503465272283e-006 
-3.631016562867058e-005 
8.975145195858241e-006 
1.784768548890132e-005 
1.045673067258842e-005 
-5.000292637813094e-006 
-1.319103069224586e-005 
-2.41138925549094e-005 
-2.312345854500026e-006 
-1.637500752868716e-005 
-8.819616099453795e-005 
-1.069097774068596e-007 
-4.748739537619327e-006 
-4.916084437484271e-005 
-8.951271847031472e-005 
3.000036085020028e-006 
-1.083796868723016e-005 
6.071960722140559e-006 
1.97962075104271e-005 
9.161701738214474e-006 
-9.522833458093587e-006 
5.68023863436352e-007 
-2.914569747874318e-005 
-7.448849277650002e-006 
-1.777885719206845e-005 
-2.109732291280267e-005 
4.604826622835311e-005 
4.541747987555931e-006 
1.094570190011064e-005 
-1.568050064382566e-006 
2.604452322261322e-006 
-7.301951376939125e-006 
3.036152081101406e-006 
-6.491005130613564e-006 
-2.965384511204182e-005 
-6.733778459355943e-005 
-1.67246419183992e-005 
2.021137900439029e-005 
-5.747149313790428e-006 
-1.19203575202027e-005 
3.645298177728796e-007 
1.584155770978578e-006 
1.324977464919257e-005 
1.641444870731081e-005 
5.362088364871319e-006 
6.388984995955555e-007 
1.037037730149117e-005 
2.105481130607708e-006 
-7.74622707213322e-006 
-1.105618995766184e-005 
1.179256612970694e-005 
-6.942162247129302e-006 
-4.04561792347633e-006 
3.713926724757005e-006 
3.548401245851621e-006 
-1.860081743426257e-006 
-2.696360867292254e-005 
2.348860111243223e-006 
-2.186854247529164e-005 
-1.4101021793703e-006 
1.91288626281081e-005 
4.451035023116934e-006 
-9.299881204207672e-005 
-6.933777761713685e-005 
1.291873711300712e-005 
-7.786218779563117e-005 
1.07107499341109e-005 
6.983993229090729e-006 
-2.531527741645408e-006 
-3.486428766525561e-005 
-2.333005444032808e-005 
8.412921718865984e-006 
-6.064570551078702e-006 
4.952486728754067e-007 
-3.644372107626079e-005 
-1.911697977641537e-006 
8.39361992062009e-007 
3.936461326700673e-005 
-2.128072385797553e-005 
1.71383958002011e-005 
-1.431646934156437e-005 
-8.778437342722099e-006 
3.495360482959368e-005 
1.769639843878993e-007 
-2.979878681373363e-006 
8.254796593806363e-006 
-1.816968014690318e-005 
-1.647760666749207e-005 
5.238391422518494e-006 
2.962185108254499e-006 
1.605000819648631e-005 
6.973154512548651e-006 
-1.648921588135554e-006 
-8.740927279713049e-006 
-1.275469384090654e-005 
-2.419077253325327e-005 
-7.229851357348487e-006 
-8.46711283589422e-006 
-1.799270210348544e-005 
-1.031615368843986e-005 
1.686620974796848e-007 
7.203818999147444e-006 
8.64250293014712e-006 
6.847018124896261e-008 
-5.538879075488077e-006 
5.600254459580172e-006 
-3.309918848159162e-005 
5.785252303607161e-006 
-2.039286728250027e-005 
2.283923409521767e-005 
-2.238726482930465e-005 
-3.039362367259395e-005 
1.081556396503611e-006 
-2.140714796610766e-005 
1.607965405475432e-005 
-1.307151824448521e-006 
7.080851445901877e-006 
-2.729500566557671e-006 
-4.491472313246048e-005 
4.578896033039295e-006 
-8.362332539389428e-006 
-9.861406892272057e-006 
4.340203234296969e-007 
-2.262652794125579e-005 
-6.25231857231507e-007 
2.525249159922122e-005 
-3.673148970960384e-006 
8.75226058063332e-006 
-7.280146087710817e-006 
-3.177351734989308e-006 
-5.538663862383308e-006 
7.62696583472311e-006 
-1.302587061725238e-005 
-8.271247143049616e-006 
4.854864033262536e-007 
-3.778114648402813e-006 
3.013521036688259e-005 
1.23176921537367e-005 
-1.02256665664926e-005 
6.586222083238614e-007 
-1.909085758636753e-005 
-4.037812124619765e-005 
-5.081368231021374e-005 
1.787927924816764e-005 
1.92909532281447e-005 
-4.531938605081437e-005 
3.070739378831628e-005 
2.351906992786122e-005 
-1.001039443692521e-005 
2.662730082266172e-006 
1.181609296303426e-005 
1.123278899619587e-005 
4.930996375803227e-005 
1.974326955171031e-005 
-4.95608827358803e-005 
6.127881295639864e-006 
7.20773000500703e-006 
-4.727787169237464e-005 
-1.466289338350565e-005 
-3.357224127862465e-005 
-3.276061455128212e-005 
-1.658924223502295e-005 
-2.857347667751945e-006 
1.516280128859162e-005 
-1.272881898440825e-005 
1.671620091265761e-005 
-3.085028863273962e-005 
3.501011914467009e-006 
-1.808192603020484e-005 
-2.075900866754293e-005 
-8.499491809167298e-005 
-4.238997212152006e-007 
-1.458141009870388e-005 
-3.825968730215396e-005 
-2.613489821255797e-005 
-3.509399590153282e-005 
1.525579500183212e-007 
9.180317844785781e-007 
-5.966901580490367e-005 
-5.937435838683922e-006 
-1.294563952498354e-005 
-6.738630900391175e-006 
-2.329078101444993e-005 
6.559526494224135e-006 
6.827089743624298e-006 
-1.195535309909252e-006 
1.364179857195981e-005 
1.191296921743799e-005 
-1.627061547557206e-005 
-2.246376359133305e-005 
-2.209851526886821e-005 
6.08003899612393e-006 
-3.515315098021229e-005 
4.712337125600298e-006 
-6.90114147842976e-006 
1.497694689231454e-006 
-5.508857585300582e-008 
2.090719085973571e-005 
-3.787825279334941e-005 
-2.365847706755397e-005 
4.435482000388628e-006 
-2.1984999835293e-005 
-2.199735453411762e-005 
-7.856567035964602e-006 
-6.61362106971308e-006 
-3.22440372840215e-005 
2.124741136200219e-005 
-2.230471947796189e-005 
1.526515375088182e-006 
-3.155590433904205e-005 
-2.468851486573499e-005 
-4.134075987072635e-006 
5.393701756449012e-006 
-1.629353301019324e-005 
1.925526850722843e-005 
-6.585295790913448e-006 
-3.511988914478682e-005 
3.247529477244491e-005 
-1.456777105167159e-006 
-1.14036403296555e-005 
-1.684246953904882e-005 
-2.327861136031575e-005 
2.049823082490754e-005 
-1.639670651207014e-005 
-3.000019136201992e-005 
-3.827372665098836e-005 
1.199246461955613e-006 
-2.245394731028346e-005 
7.125072973963379e-006 
1.469263522833962e-005 
-1.086633348445969e-005 
-3.583658113004848e-006 
-4.719115404089834e-005 
-6.801705136799446e-005 
2.230059357994723e-005 
-2.401276451797192e-006 
-3.625065643914758e-005 
-1.210502514172064e-005 
-1.773942692778043e-005 
1.802112555336958e-006 
-7.971533769170979e-006 
-4.311109575427497e-006 
-1.871756230639375e-005 
2.681805861100871e-005 
6.795859939225774e-006 
1.017405330065713e-005 
1.87680066534325e-006 
-2.175838665633e-006 
6.131038890313849e-006 
1.337747728694945e-005 
-6.574274343308729e-005 
-3.931270917139588e-005 
-4.11489174476405e-005 
1.384745065126555e-005 
1.103658862542535e-005 
-3.481163573533523e-005 
-2.463735313013061e-005 
2.951667240244423e-006 
-2.505709545425008e-005 
-2.561936518621338e-005 
-1.660844588545442e-005 
8.717488418590191e-006 
8.179669048716604e-006 
9.461209742819583e-007 
1.442630241885179e-005 
-5.934027348713209e-006 
-4.546689387800386e-005 
-3.807158996989289e-005 
2.226042401917949e-007 
-7.969783256655917e-007 
-3.742684488805254e-005 
-1.176786715028878e-005 
6.822336024918249e-006 
8.705360991683002e-006 
-1.242198549285109e-005 
-3.831215544101396e-005 
7.168001860969341e-006 
9.240662657357775e-006 
2.776394854148054e-005 
-2.002079873697765e-005 
7.81540335949858e-006 
-4.98455365467337e-006 
1.147596213421334e-006 
1.711601812432449e-005 
3.096240677145556e-005 
3.112902984554257e-006 
-2.45741617911495e-005 
-7.933958423421241e-006 
-3.173824919595809e-006 
-1.878024038349151e-006 
-9.278781595356792e-006 
-4.462526526548411e-005 
9.943000226818669e-007 
2.666620586723826e-006 
-1.602098356780767e-005 
1.299708022025509e-005 
4.515730214670819e-005 
-1.430330327790148e-005 
8.261365837427298e-006 
-1.000294722484302e-006 
1.063353681368544e-005 
-2.780543012942924e-005 
