solver_type L2R_L2LOSS_RANKSVM
nr_class 2
nr_feature 6620
bias -1
w
5.147701783649984e-006 
-3.28805783476334e-007 
1.624785859164099e-006 
2.487379384361695e-006 
6.568321183890077e-006 
-9.313838340687427e-006 
-8.743882994248748e-006 
7.939601523679212e-008 
-6.498129525968858e-006 
1.738198762195494e-006 
0 
3.535339514310035e-006 
0 
-8.009518975309663e-007 
1.957852104090818e-006 
7.679664342071111e-007 
-1.775307281637409e-006 
-2.389600701123214e-006 
0 
-3.734838104295669e-006 
1.66208368708906e-006 
-2.760561011272973e-007 
0 
-1.604061511880342e-006 
-2.760624852176621e-006 
-1.769759545756647e-007 
0 
-1.759185685631775e-007 
1.66208368708906e-006 
1.66208368708906e-006 
0 
-1.37623915081469e-006 
0 
0 
0 
0 
-1.694508772696303e-006 
0 
0 
-1.606140794208855e-006 
-1.604061511880342e-006 
0 
1.66208368708906e-006 
2.60747394372159e-006 
-1.604061511880342e-006 
0 
-4.897788862140201e-006 
1.294923288782669e-006 
5.197223309443631e-006 
-1.759185685631775e-007 
-5.356245035378247e-008 
2.600694378514914e-006 
-5.439147068235541e-006 
-4.422768719233631e-006 
5.294059875345411e-006 
4.070196540799744e-006 
-4.538428415807664e-006 
-5.877383243176232e-006 
1.029273931790589e-005 
-4.973636164744792e-006 
-4.863527283079084e-006 
-3.799859133655705e-007 
-2.211341224088935e-007 
3.535339514310035e-006 
-8.407192860949373e-006 
-1.699310043430034e-006 
1.141717004850617e-006 
1.167220748100411e-006 
-4.196404206960707e-007 
7.111329121238344e-007 
-4.008481390955562e-006 
0 
0 
-2.319521093456227e-006 
-2.760683642365213e-007 
2.298174949503991e-006 
5.86115240183826e-007 
0 
0 
0 
0 
0 
0 
-4.112798226786149e-006 
-3.923582605336567e-006 
0 
-1.910163625436472e-007 
0 
0 
0 
0 
1.096083152521607e-006 
-2.986195277220951e-006 
0 
0 
1.502102647823166e-006 
-4.022029157192988e-007 
0 
0 
0 
0 
0 
-2.961780902063281e-006 
-1.28340724193738e-006 
-1.604061511880342e-006 
0 
0 
2.450685446557833e-006 
0 
8.108603801016094e-007 
2.35888055818547e-006 
1.027499347847564e-006 
-4.258449639445344e-006 
0 
3.211492445223175e-006 
-5.011864820198844e-006 
-2.111865531756513e-007 
6.517645752358837e-006 
1.463261970938877e-006 
-1.190770795869982e-005 
-1.56127458829713e-006 
-6.25984499320338e-006 
-7.375674924270304e-008 
-6.401783649747896e-007 
-1.282012217365967e-006 
3.424985162012964e-006 
-9.930387157027157e-007 
3.520653123163441e-006 
4.302606753234473e-006 
2.786492567635415e-006 
0 
-1.024948217564889e-006 
2.96798626896904e-006 
-1.046300363979382e-006 
-3.073838930782472e-006 
-8.733341163849712e-006 
0 
0 
-5.633014747825994e-007 
0 
0 
0 
4.836834023915692e-006 
-1.652270993148723e-006 
0 
2.164725569108272e-006 
9.789260520454089e-007 
0 
0 
-1.759185685631775e-007 
0 
0 
0 
-4.177442803166967e-007 
0 
0 
-5.770959888921955e-007 
0 
0 
0 
5.799679205436819e-007 
-4.916585944755337e-007 
2.203276059887496e-007 
0 
4.591545762992701e-006 
0 
-5.549813033115853e-007 
0 
0 
-4.590353258588627e-006 
1.930943477384504e-006 
-5.031599768715628e-006 
-5.596674303401253e-007 
2.40338285856641e-006 
-7.434919969233565e-006 
1.669313703294766e-006 
-1.087111105247737e-005 
-2.518082737229418e-006 
3.272264645653577e-006 
8.309908982884843e-006 
-2.986195277220951e-006 
7.353749907060037e-006 
-8.758445577635222e-006 
-4.02014386668924e-006 
-7.840824106493772e-006 
5.31415208995108e-007 
4.079206211107473e-006 
1.66208368708906e-006 
6.333829624847355e-007 
2.12662624243095e-006 
6.438439738581515e-007 
0 
3.651465398475604e-006 
-2.986195277220951e-006 
-5.905112372998775e-006 
0 
3.556135113685206e-006 
0 
-1.017038587526963e-006 
-2.319521093456227e-006 
0 
-3.557862149720004e-006 
-2.319521093456227e-006 
0 
-9.602201847074549e-007 
-2.986195277220951e-006 
0 
0 
4.916131206592255e-007 
0 
0 
0 
0 
0 
0 
-6.473936441818294e-007 
3.180589861999011e-006 
0 
-8.058520343513113e-007 
0 
7.390004655725624e-006 
-2.135214641449336e-008 
-1.926473516202209e-006 
-2.863506535135714e-007 
-2.52580560037547e-006 
-1.604061511880342e-006 
-3.557862149720004e-006 
-5.894349403445667e-007 
-1.411795938582313e-006 
-3.281973321694018e-006 
2.959259956192048e-007 
-7.864715681213024e-006 
-1.910163625436472e-007 
5.444095857750434e-007 
4.330433413315524e-006 
-1.047986181181369e-005 
-2.81133314271217e-006 
8.027838791876376e-006 
1.968922568007899e-006 
3.343579925963215e-006 
4.762070670681487e-006 
1.978999323991653e-005 
6.444164303397448e-006 
4.147592363929013e-006 
-2.562755344796971e-006 
1.40179550571152e-006 
0 
-6.8538926013697e-007 
-1.022253310641646e-006 
3.1412367852041e-006 
0 
2.326068490473753e-006 
2.999481740258618e-006 
3.893778410003908e-006 
0 
0 
1.87186934145595e-006 
0 
0 
0 
1.374982908665168e-006 
0 
0 
2.160605174767116e-006 
-5.633014747825994e-007 
0 
0 
2.298174949503991e-006 
2.418417011957846e-006 
0 
0 
0 
4.836834023915692e-006 
0 
0 
0 
0 
0 
0 
-4.414662504824011e-006 
4.567642365833343e-006 
-3.65943108629156e-007 
-4.700652479553383e-006 
2.296843457987335e-006 
-4.121943226034497e-006 
-7.40633079199015e-007 
3.038704493239801e-006 
1.277074020978915e-007 
-4.898383813465132e-006 
1.444026130952581e-005 
-1.633568884445098e-005 
2.881050552336359e-006 
9.714498605555193e-008 
-3.871051217388287e-007 
-1.171887654011013e-005 
-9.766418079388364e-006 
-1.892268317622144e-006 
2.50381807280583e-006 
4.797852784346178e-006 
1.580722493983948e-006 
-1.495874380174945e-006 
2.138831084007866e-006 
5.021776086593674e-007 
5.823692592351291e-007 
3.110121195605393e-006 
2.102757170978402e-006 
4.446739160684088e-006 
1.825075215945322e-006 
-1.910163625436472e-007 
0 
0 
4.735391824788962e-007 
7.256511952261064e-009 
0 
0 
-1.769759545756647e-007 
0 
0 
0 
3.91501299280788e-007 
3.219218662360172e-006 
0 
0 
-2.076660778528163e-006 
5.799679205436819e-007 
0 
6.825710506216437e-007 
6.16168133949666e-007 
0 
0 
-5.892017428027137e-008 
-1.841338412265874e-007 
-2.111865531756513e-007 
0 
-1.570128307534499e-006 
0 
-2.760683642365213e-007 
-4.916585944755337e-007 
-1.943006662818727e-007 
7.819111189567955e-007 
-1.3754128290092e-006 
0 
1.883253422270263e-006 
2.989874562714204e-006 
-1.279652172277691e-006 
2.201452240305457e-007 
-9.609274111723836e-006 
-8.074467896434079e-006 
7.710769777401858e-007 
2.659637193100608e-007 
-1.468329665864133e-006 
4.547765533364937e-006 
2.698476825654406e-006 
-3.916951765106365e-005 
5.409573675284533e-006 
-4.013965063431424e-006 
-1.454203352992125e-006 
-1.976847919342747e-006 
-1.583623735167899e-006 
-1.891580445531983e-006 
-4.020261746723239e-006 
1.288695902536801e-006 
-8.572281769527055e-006 
5.645292711714182e-006 
9.786389649109369e-007 
-1.847481893189003e-007 
3.539208960452951e-007 
1.593454070685293e-006 
0 
2.961181024340467e-006 
1.499011405221275e-006 
-7.313546045281026e-007 
0 
0 
0 
0 
0 
0 
-7.392200433457771e-007 
1.049760186124062e-007 
0 
0 
0 
0 
0 
-2.111865531756513e-007 
4.504985228537248e-007 
0 
0 
0 
0 
-2.111865531756513e-007 
0 
0 
-1.084920459989212e-006 
0 
5.799679205436819e-007 
3.973953538719034e-006 
-1.813896207370868e-006 
1.643027140569038e-006 
-2.319521093456227e-006 
0 
3.89904150883716e-006 
-1.910163625436472e-007 
1.236869777363883e-006 
8.237106858281666e-006 
7.314053714855267e-006 
-3.103676304253337e-006 
2.599016063803913e-006 
-2.656028887142039e-006 
-7.156700263052895e-006 
-1.676653930865819e-006 
-3.82955640465862e-006 
-7.711889990031846e-006 
-2.13906908947735e-005 
3.448062974296404e-006 
-1.097682253337149e-005 
-7.026972301302753e-007 
4.856308382498247e-007 
2.764609413365147e-006 
6.297140504748035e-007 
2.028198561266359e-006 
2.542836783219471e-006 
0 
3.600734155446017e-008 
2.20903235956011e-006 
0 
2.418417011957846e-006 
0 
-1.369153509133911e-006 
3.949056989870004e-007 
0 
0 
-5.594643705552746e-007 
0 
0 
0 
4.049100174035904e-006 
0 
0 
0 
-1.024948217564889e-006 
0 
0 
-7.869302665194816e-008 
1.374982908665168e-006 
0 
0 
2.418417011957846e-006 
1.374982908665168e-006 
1.418214856825762e-006 
-2.135214641449336e-008 
-2.760683642365213e-007 
0 
0 
0 
1.139906080836716e-006 
5.229299501586895e-006 
5.900154566950384e-007 
-1.174118298200612e-005 
4.052196431679553e-006 
-1.120910127532677e-006 
-1.157310128748061e-006 
-6.430032953433461e-007 
-2.268816704736217e-006 
8.775831459728035e-007 
-1.076083866993747e-005 
7.428739759684762e-007 
1.344615883425713e-006 
-3.792999697869578e-006 
-2.986195277220951e-006 
-0.0001129368724963552 
-3.935749109069246e-007 
-5.193860583841779e-006 
-1.942249940225306e-007 
-4.840066113687224e-006 
-1.156475361452532e-006 
7.157920815772334e-006 
-1.10740644696305e-005 
1.78213454997025e-006 
1.894596304547935e-007 
2.818019434523563e-006 
0 
-6.102680460406807e-006 
3.228304637617495e-006 
-5.633014747825994e-007 
-8.141541146144361e-007 
-1.060555989064115e-006 
0 
-3.651000270323054e-006 
-1.769759545756647e-007 
0 
9.990966032597852e-007 
-5.596674303401253e-007 
0 
0 
0 
0 
0 
-4.448466196111027e-006 
1.894642633220579e-006 
0 
0 
-3.275654761311596e-007 
0 
0 
0 
-5.719097190991849e-007 
-1.14381943819837e-006 
-2.111865531756513e-007 
0 
9.789260520454089e-007 
0 
0 
-1.769759545756647e-007 
-1.454187376538607e-005 
5.423910544299618e-006 
8.815985156861494e-007 
-2.639575717163145e-006 
0 
0 
0 
-2.060597226007515e-005 
-4.748948066037248e-006 
4.34429601305824e-006 
-6.398858627944632e-006 
-7.725596672461136e-006 
-2.319521093456227e-006 
-1.125517308403444e-006 
-2.597096325823495e-006 
-5.008709073483123e-006 
2.408657601101456e-006 
6.105188758910292e-007 
-1.034043138165616e-006 
8.783561979315227e-008 
1.436190619138634e-006 
-5.042793247749025e-006 
5.534104630656674e-008 
3.897781565417662e-006 
-2.540439294215555e-006 
-2.760683642365213e-007 
-1.154248379918336e-006 
-8.058520343513113e-007 
1.374982908665168e-006 
-4.028651581587568e-006 
0 
2.298174949503991e-006 
0 
-6.416115622455791e-006 
0 
0 
4.12461001675595e-006 
0 
0 
0 
2.296843457987335e-006 
8.134447932676314e-007 
0 
9.789260520454089e-007 
5.799679205436819e-007 
0 
0 
0 
0 
0 
0 
9.789260520454089e-007 
-7.392200433457771e-007 
0 
0 
0 
0 
0 
0 
3.433981411605086e-006 
-2.596028786919104e-007 
3.535339514310035e-006 
2.418417011957846e-006 
1.836475136162884e-006 
0 
-3.557862149720004e-006 
-4.831772310664733e-006 
3.740663809147577e-007 
-1.025756890573856e-005 
-5.826559896454446e-006 
2.91967161994831e-006 
-5.532738480521081e-006 
-1.577222190800758e-006 
1.881700944005647e-006 
-5.26405273449987e-005 
-8.354967475190898e-007 
1.683451875131058e-006 
-2.20445113827672e-005 
-8.155942940372545e-006 
-7.311820559623891e-006 
-3.68706478823524e-006 
-8.993401543880355e-007 
-6.318694489357098e-006 
2.354712008534358e-006 
-1.369933110665805e-006 
-4.831082348846704e-006 
-4.177442803166967e-007 
0 
0 
0 
-3.557862149720004e-006 
-5.719097190991849e-007 
-7.380586754177321e-006 
0 
0 
5.799679205436819e-007 
0 
0 
0 
0 
-3.518371371263551e-007 
0 
9.425262235323581e-007 
-5.719097190991849e-007 
0 
0 
-8.143713850529289e-007 
-4.67084726780168e-007 
0 
0 
-8.354885606333934e-007 
2.90813411941169e-006 
-1.769759545756647e-007 
2.296843457987335e-006 
0 
0 
0 
0 
1.72381376953072e-006 
-6.355191181099702e-006 
-5.633014747825994e-007 
2.296843457987335e-006 
0 
-7.355690563451802e-007 
-9.043094997102446e-006 
-7.924091296108105e-007 
-1.936778256150879e-005 
-1.701940236150223e-005 
-3.467507659658784e-006 
-1.260737016043523e-006 
7.886869402492757e-007 
9.272810488681742e-006 
1.628457419315278e-006 
-4.978168669857155e-005 
-1.408034384417213e-006 
-7.451820684207331e-006 
-3.365065088363312e-006 
2.80317480866533e-006 
1.360742866529233e-006 
-1.039628117062874e-006 
-3.371841744746243e-006 
-9.608201504309219e-007 
3.69593968535249e-006 
1.169709188674488e-005 
0 
-2.760683642365213e-007 
-5.30772318949325e-007 
0 
-1.409234702038866e-006 
-4.177442803166967e-007 
0 
7.038205065963334e-007 
0 
0 
-4.916585944755337e-007 
-8.058520343513113e-007 
0 
0 
-5.633014747825994e-007 
0 
0 
-1.910163625436472e-007 
-4.363714184071315e-006 
0 
0 
4.675272105646336e-006 
0 
0 
0 
-5.258891338152487e-006 
0 
0 
0 
2.798437881273448e-006 
0 
0 
-4.360161438604143e-006 
-2.164910717669843e-006 
-2.686430066661679e-007 
0 
-8.571300860627354e-006 
-9.69310202993464e-006 
0 
0 
-1.046257980255983e-005 
-1.534231395874485e-006 
1.153333548991293e-006 
-2.959794233984273e-006 
-3.004552917340496e-005 
-9.212949762391625e-007 
2.848432440615141e-006 
-6.710732984040671e-007 
-4.203055125040046e-005 
-8.871577734467425e-007 
-3.191996562786853e-006 
-6.620461631579981e-006 
7.73280192233952e-008 
-2.73322107380865e-005 
-1.355287640901476e-005 
-2.096480667717343e-006 
-2.80151059638066e-006 
-3.076891441423045e-006 
5.731313702605736e-006 
1.21418045107639e-006 
-1.404905118750828e-006 
-7.811189837701057e-006 
-1.781037466456008e-006 
-1.841338412265874e-007 
-1.841338412265874e-007 
-3.923582605336567e-006 
4.798539651049851e-007 
0 
0 
-8.058520343513113e-007 
-2.111865531756513e-007 
-1.759185685631775e-007 
-5.596674303401253e-007 
0 
0 
0 
-7.903751976412356e-007 
-1.759185685631775e-007 
-1.769759545756647e-007 
0 
-6.478106402221784e-007 
0 
0 
0 
0 
-4.67084726780168e-007 
0 
0 
-1.065454913043223e-006 
0 
0 
0 
2.780879327891878e-006 
7.746389356145393e-006 
-1.841679163476236e-006 
-5.771356404949694e-006 
0 
0 
-2.74077371398144e-006 
4.917563528454236e-006 
-1.022049818265276e-005 
-2.627306147485845e-006 
-1.115703297150799e-005 
1.565793811309409e-006 
2.539039934232028e-006 
-9.562919543094373e-006 
1.860992366000945e-006 
-1.435899530105607e-005 
1.043683912887158e-006 
5.335742247816098e-007 
-4.286376541314602e-006 
1.029185525718373e-006 
3.072197677236858e-006 
1.001146609675903e-005 
2.140172587631689e-006 
8.317900227061022e-007 
3.830219910909119e-006 
-7.41958872124977e-007 
-7.077482735249893e-007 
1.265660056977471e-006 
-5.633014747825994e-007 
8.624715552862499e-007 
7.276977495427177e-007 
5.606107729321627e-006 
-3.751502037702341e-007 
-8.559886416797831e-006 
0 
5.799679205436819e-007 
2.418417011957846e-006 
1.374982908665168e-006 
0 
0 
-2.111865531756513e-007 
-2.540604981512632e-007 
0 
1.90830710628807e-006 
-1.841338412265874e-007 
0 
0 
0 
-1.625413658294837e-006 
-2.547039547128035e-007 
-2.547039547128035e-007 
-3.918971945522256e-006 
0 
0 
0 
0 
0 
-2.760683642365213e-007 
1.66208368708906e-006 
-5.233783430183977e-006 
-1.094030317644644e-006 
4.093179480164437e-006 
0 
0 
-5.719097190991849e-007 
-1.140376097200545e-007 
2.448171569783861e-007 
-5.593245597357185e-006 
-8.784953063357795e-006 
-5.846536211970925e-007 
4.944135825083284e-006 
5.220646927710684e-007 
-1.690452719705073e-005 
3.541811768262277e-006 
7.77120561306354e-006 
-1.190300262110443e-005 
2.93398439707865e-006 
-5.553014274890901e-006 
2.982396242997716e-006 
6.607855891124697e-007 
2.984630937665181e-007 
4.74804952337944e-006 
-1.405534849792071e-006 
-1.381306904278001e-006 
-6.390413733369724e-006 
4.1627960463447e-006 
-2.547039547128035e-007 
0 
0 
-8.058520343513113e-007 
0 
2.298174949503991e-006 
5.384836840935314e-007 
0 
0 
5.799679205436819e-007 
0 
-8.058520343513113e-007 
0 
2.95926791881513e-006 
6.021500957678932e-007 
0 
0 
2.418417011957846e-006 
0 
0 
0 
-1.023896651898884e-006 
-5.596674303401253e-007 
0 
0 
-1.759185685631775e-007 
0 
0 
0 
0 
0 
-3.669349311068241e-007 
-4.113272373093038e-008 
6.982414059686963e-006 
0 
0 
-2.760683642365213e-007 
-3.792047311572261e-006 
-1.054960069258132e-006 
-5.275655266545629e-006 
-9.915359866185126e-006 
7.649590721142936e-006 
-2.160159411446671e-006 
-2.924811216089028e-006 
-7.438012715667124e-007 
8.585965648828665e-007 
-2.785445680904715e-006 
-4.175991479682471e-005 
-8.973333449968367e-006 
-1.802173295264026e-005 
-5.863719592420604e-006 
-2.41269430928708e-006 
-2.779928460033783e-006 
4.50851561563788e-006 
9.938374317357724e-006 
-2.994210794147591e-006 
4.014197615789511e-007 
-4.35492463123161e-006 
-2.135214641449336e-008 
0 
0 
-6.364638160588401e-006 
6.526081956972882e-007 
-1.114354866307648e-006 
-8.661439705310676e-007 
2.678841183290392e-006 
-1.297510628826846e-006 
-8.44553117614376e-007 
-8.058520343513113e-007 
-4.767232743676958e-006 
0 
0 
3.952815942311651e-008 
0 
0 
2.248056244734524e-006 
-5.843758367165005e-007 
0 
0 
1.343695969323176e-006 
0 
0 
2.296843457987335e-006 
9.023809305406933e-007 
-1.051326024815659e-006 
-2.760683642365213e-007 
0 
2.915168473116817e-006 
0 
0 
3.862117544726061e-007 
4.403589679500401e-007 
5.933599119367258e-007 
4.082108930196721e-006 
-3.933012353490238e-006 
3.175824131420736e-006 
-1.759185685631775e-007 
3.535339514310035e-006 
2.284145792222396e-006 
-1.076300098041707e-006 
4.916999375889668e-007 
-2.216281241132547e-005 
-2.338477120175002e-005 
2.968305232119977e-006 
6.800525655271201e-007 
-6.152752950574457e-006 
-4.170954620966249e-005 
-2.216805976970084e-005 
2.749815735802065e-006 
-6.355305067743954e-007 
-7.053333183301201e-007 
1.140356642326422e-006 
-4.795775710666589e-006 
1.164481359925965e-006 
1.173828120224504e-006 
-1.359356596298491e-006 
8.163289377036296e-007 
-1.594823305005055e-006 
-4.374036885784221e-007 
1.374982908665168e-006 
-4.820374727711315e-006 
-3.557862149720004e-006 
2.278641454453446e-006 
3.032616603859508e-007 
-7.246114779895456e-007 
-1.024948217564889e-006 
0 
1.267695152498488e-006 
0 
-1.910163625436472e-007 
-1.306029979528462e-006 
0 
1.796017254544423e-006 
0 
0 
-5.594643705552746e-007 
1.526275806066352e-006 
0 
-5.719097190991849e-007 
-9.329752346686243e-007 
0 
-3.557862149720004e-006 
-5.633014747825994e-007 
0 
-4.906341857085593e-006 
0 
5.881903158238279e-007 
0 
2.380423021383697e-007 
-1.518499231855408e-006 
1.697893724601388e-006 
-2.561036279662924e-006 
6.868338190354514e-007 
1.188084483183736e-006 
3.34726246358399e-006 
6.30509452484205e-007 
0 
3.175440105411238e-007 
-4.527777326073258e-006 
3.846864241625952e-006 
-5.922708955730017e-006 
-6.679134592204464e-006 
-4.559764539785425e-007 
2.636236706169902e-006 
-5.938216750903889e-006 
1.366222818987319e-005 
-2.30454365228068e-006 
3.96988053527272e-006 
-8.309288166281795e-007 
-1.103000731907832e-006 
2.946422070206746e-006 
3.458155667357395e-006 
2.11617947794397e-006 
-5.642130207645423e-006 
-4.567976127649791e-006 
2.657401309148005e-006 
3.765001498514233e-006 
0 
3.173011371683506e-006 
-4.177442803166967e-007 
2.418417011957846e-006 
1.847311093199274e-006 
-2.899561024912616e-006 
2.88216331374115e-006 
0 
0 
0 
-1.769759545756647e-007 
-3.557862149720004e-006 
-6.441765957797064e-007 
7.701951006509563e-007 
1.66208368708906e-006 
0 
2.418417011957846e-006 
-1.060555989064115e-006 
-8.377243629743868e-007 
0 
-3.716959371771781e-006 
-1.832734784103711e-006 
0 
0 
9.789260520454089e-007 
-2.760683642365213e-007 
-7.355859989033041e-007 
0 
1.798067215965238e-006 
0 
-7.463625491883375e-007 
3.871348656120313e-007 
5.349376865702642e-006 
-2.083566714625545e-006 
4.041778174172649e-006 
-2.226471284041811e-007 
-2.742139789797821e-007 
-3.729122515729525e-007 
1.66208368708906e-006 
4.094830916845444e-006 
-3.721617601283993e-006 
5.16878910785073e-006 
-2.330286794677837e-006 
7.990376984811728e-006 
-1.327762008706581e-006 
-7.783003857731924e-006 
5.230716281019831e-006 
-5.364976479596862e-005 
-9.9000372251304e-006 
-1.410986112346433e-007 
3.289674569879358e-006 
-1.625424489211505e-006 
7.774820153657229e-008 
-3.731556335418697e-006 
3.12952142591987e-006 
-1.203404804050948e-006 
-1.916820698127906e-006 
2.436271539495354e-006 
1.03163920237975e-006 
1.907332131800991e-006 
1.464382031340105e-006 
-4.590256789101292e-006 
5.799679205436819e-007 
1.103981529924183e-006 
-8.058520343513113e-007 
3.408365399506698e-006 
0 
-5.633014747825994e-007 
-5.596674303401253e-007 
-4.916585944755337e-007 
-2.135214641449336e-008 
9.789260520454089e-007 
0 
1.139906080836716e-006 
0 
2.370299239556077e-007 
4.246968676918072e-006 
-3.557862149720004e-006 
0 
-1.287999203187134e-006 
0 
0 
0 
4.543497798314511e-006 
-5.719097190991849e-007 
-4.916585944755337e-007 
-1.841338412265874e-007 
0 
0 
0 
2.573239561866183e-006 
3.499080735431034e-007 
-2.830570983551909e-007 
3.251618736810277e-006 
-2.616990417865519e-006 
1.347845527049545e-006 
9.789260520454089e-007 
-1.285681594193127e-006 
8.579053217357676e-006 
9.135193807673438e-006 
-1.599202597513751e-006 
2.696364909162566e-006 
-1.677008887973758e-005 
-1.341077456790701e-005 
-1.778343654294324e-005 
-4.493506517594154e-006 
-2.509881052178259e-005 
-6.671242265791535e-006 
4.421476999170097e-006 
6.116004222701891e-009 
4.412832976361093e-006 
-7.084450130757402e-006 
3.587277635141597e-006 
-2.492991240255055e-006 
2.630922549910597e-006 
3.128783413927434e-006 
4.604324594321489e-006 
-1.22555474752878e-007 
3.151515446704141e-006 
1.374982908665168e-006 
4.007858929976082e-006 
-1.759185685631775e-007 
0 
0 
-1.393724109770175e-005 
0 
0 
-7.357751781425743e-007 
0 
-5.633014747825994e-007 
0 
2.296843457987335e-006 
-8.450916543958021e-008 
0 
0 
1.593454070685293e-006 
2.418417011957846e-006 
0 
-5.30772318949325e-007 
-3.871051217388287e-007 
-8.450916543958021e-008 
-5.719097190991849e-007 
-2.319521093456227e-006 
-8.450916543958021e-008 
-2.111865531756513e-007 
3.535339514310035e-006 
-6.125733630774854e-007 
0 
0 
-7.347181571135938e-006 
-1.239886421706037e-007 
4.300073484473156e-006 
0 
-6.544057426940953e-006 
-2.135214641449336e-008 
-5.601285858254889e-007 
-2.074850943747906e-006 
9.623486442311774e-008 
8.023046582337359e-006 
-1.303849059058787e-005 
1.65620040345701e-006 
-1.197396644161015e-006 
-1.981428323908778e-006 
-2.382886378829117e-006 
-3.087425219513187e-006 
-2.807690302054346e-006 
-6.63209682343361e-006 
-4.91978780360087e-006 
3.536734679857329e-006 
-1.423319412157409e-006 
-4.396361093414168e-007 
2.625025027182154e-006 
4.796381495900415e-006 
8.874073922912251e-006 
4.499950641217855e-006 
1.976826328805449e-006 
-7.656871035635355e-005 
-6.259490573847371e-006 
6.911395395495092e-006 
1.207193387685864e-005 
-3.960071397569912e-006 
-3.765688779726572e-005 
-7.318085265189268e-006 
7.439726578465674e-006 
-4.028982465084233e-006 
-7.877122462971261e-006 
1.998071835240982e-006 
4.325251538619957e-006 
1.702887552988992e-006 
-3.441875270359089e-006 
-1.436163453374853e-006 
-3.579573108385578e-007 
3.199494157462391e-006 
1.058651047295993e-005 
1.04881661897512e-005 
-5.431833546109153e-006 
-1.372589221970038e-005 
-5.702114982824261e-005 
-1.804441374613398e-005 
-1.599228293624718e-005 
-4.016601005695721e-006 
-1.212222356755387e-005 
4.032409226251266e-007 
2.371816021024306e-006 
1.244024046872077e-006 
-1.218878329228164e-005 
1.086734850813307e-005 
4.964454094028485e-006 
-2.370813402861759e-006 
1.044757597556616e-006 
-5.481857904068882e-006 
3.480067472414172e-006 
-1.910872647178528e-006 
-5.061597296086427e-006 
2.533902410994999e-005 
-9.137418342948818e-007 
-6.713603043473678e-006 
3.642922499723888e-006 
-5.249183870594848e-006 
-1.677359135388623e-005 
-4.443223787259331e-006 
1.541425464537371e-005 
8.395961697043084e-006 
-2.68380772404285e-006 
-9.2385068001529e-008 
-3.105873347855726e-006 
-1.789346440774954e-005 
-9.90209010104663e-006 
1.880494836467551e-006 
-1.92821130554196e-006 
-6.033532601631173e-006 
-7.178226589234847e-007 
-6.571462730273929e-006 
5.108539268340915e-006 
5.39730501673204e-006 
-2.138475766732284e-005 
-3.334770183193203e-006 
-2.512609490100322e-006 
-4.699566342838864e-006 
-2.741398639138082e-006 
3.406189798495102e-006 
2.702769911585663e-006 
-1.307944572851391e-005 
-3.586368781035015e-006 
-1.89797247639025e-005 
2.411499243732834e-006 
1.073852818463627e-005 
1.13696170443911e-005 
8.455874395953607e-006 
-2.070412145825192e-005 
-9.472051320239635e-006 
5.319156886112441e-007 
-6.940679500043959e-006 
3.669723810498414e-006 
-7.619995783082286e-006 
-2.400642462737577e-006 
6.039912287540014e-006 
1.894340227299454e-006 
-1.085138301378029e-005 
2.021927344800401e-006 
-3.817625585029665e-006 
1.353975596268046e-005 
-1.940442072383361e-005 
-4.921287562766474e-006 
6.865078444332121e-006 
-1.581389669153666e-006 
-8.498093297231258e-006 
1.051516991016707e-005 
6.081090128524844e-006 
-7.001979100846617e-007 
-3.464533811301934e-005 
-5.954166432156444e-006 
6.679972799400953e-007 
-1.080691607293952e-005 
-1.093805153742216e-005 
-1.489085325987485e-005 
5.9533691503315e-006 
-2.576702981923326e-006 
2.393450952748595e-005 
9.399279001119529e-006 
7.397913908644051e-006 
3.92998117732347e-006 
1.095004890532311e-005 
7.85940192606889e-007 
-1.938021262173187e-005 
1.52330831551984e-005 
-5.828169600878962e-006 
-4.056624263995897e-006 
5.724233682720826e-007 
4.568527352929575e-006 
-5.41550174300006e-007 
-3.292609064193173e-006 
-2.495911931054946e-006 
-1.069147307281613e-006 
-2.713915400774451e-005 
-1.830646390682257e-005 
-1.917061859133023e-005 
-9.214272343247978e-006 
2.314954268308488e-006 
5.268912927475377e-006 
-5.465041459122833e-006 
-7.291515021656618e-007 
-3.689096808264064e-005 
5.357341232877619e-006 
2.792680515306184e-005 
5.357568134912435e-006 
-1.737810007261114e-006 
2.050133870490651e-005 
7.559716684327815e-007 
1.014881949262083e-005 
-3.4031065946193e-006 
2.973274333800515e-008 
3.82046864861139e-007 
-6.240536844287874e-006 
6.393398579917312e-006 
1.849312745203506e-007 
1.617477841798111e-006 
6.263871959967602e-006 
-8.235043512782385e-006 
-8.234305454473412e-006 
9.024137388532731e-006 
2.202852892038468e-006 
-4.449587792555128e-006 
-9.680576750115667e-006 
-3.522095428129497e-006 
9.818698293105266e-006 
1.390913534354634e-006 
-3.696687541885609e-006 
6.027707820633775e-007 
-4.586267466682992e-006 
-1.623621082418853e-006 
-7.713654192792205e-006 
-1.740758280722698e-006 
-3.253437479900664e-007 
4.785952135068346e-007 
-2.899842860615086e-006 
1.930674954065171e-005 
1.443651180196478e-005 
-5.007649837173296e-006 
-5.515525269493829e-007 
-2.099157369840981e-005 
-1.356078778363184e-005 
-1.370143746003491e-005 
5.994685486029241e-006 
2.382274044575112e-006 
-8.779481607340708e-007 
-4.279272791448569e-005 
-1.960210265486563e-006 
-1.058453773824503e-005 
-2.826019674217508e-007 
-1.739338613682091e-005 
9.287302945994394e-006 
-1.404640739289177e-005 
-4.990391742194413e-007 
4.435205947627077e-008 
-2.203222552633584e-005 
3.661433217298833e-006 
7.06660840935643e-006 
-1.541751013936103e-005 
-1.213303171636192e-005 
6.905912067325012e-006 
1.376902039359082e-006 
-2.693644630113127e-005 
-3.937918951171873e-005 
2.551155373614605e-006 
-1.111538277901453e-006 
-6.005807913375732e-006 
-3.903301640971705e-006 
-3.317080370048185e-005 
-1.333188792776665e-005 
-3.193429908057605e-006 
7.452668441356343e-007 
5.400007636285736e-007 
-8.5136477140318e-006 
-1.327149383270382e-005 
-2.361409991365268e-005 
-9.087045466348945e-006 
-1.864892395362142e-005 
-3.141096592813532e-006 
-7.239644653068764e-006 
-8.195166067281876e-006 
2.066044817445374e-006 
3.750755440964255e-006 
-1.818058023475612e-006 
4.366621240099057e-006 
-8.327890312542256e-007 
1.531954298393503e-006 
-2.454437567832443e-005 
-1.647365376063037e-005 
1.250274084294874e-005 
-7.986851423839362e-006 
1.652281947502326e-006 
-3.692492896787412e-005 
-1.255391047397398e-005 
-1.822908000814229e-007 
-2.256539005707281e-005 
5.250356189518735e-006 
1.311303674909671e-005 
-2.241489132424978e-006 
-2.692246991015832e-006 
6.609119507445129e-007 
3.992508181681056e-006 
5.602927145737508e-006 
-2.916479214401497e-006 
-9.094602230289666e-007 
-2.512483730655794e-005 
-9.827365581621004e-006 
-2.361010377775596e-005 
-1.503151574024407e-005 
6.617444917179329e-006 
3.751186161827823e-006 
3.000657996240868e-005 
-5.289468255168587e-006 
-8.865106629781819e-006 
1.268719446907257e-005 
-9.68001886497886e-006 
-2.687304521485435e-006 
-1.127640883786046e-005 
3.043150831605987e-007 
-2.690337555449345e-007 
4.07405403088447e-006 
-2.03306061599765e-005 
1.455470884422544e-005 
4.778476768589384e-006 
-9.093523825505762e-006 
3.025225494351413e-006 
-1.142960493295447e-005 
-1.968890439342073e-005 
-3.891470267489763e-006 
6.791573834535436e-006 
9.442057426646245e-006 
1.834628429298157e-006 
-3.73804220883109e-005 
8.607039976510167e-009 
-1.470459412627762e-005 
-3.795288219194147e-006 
9.317359697688773e-006 
2.643386448510154e-006 
1.152877813989315e-005 
-1.310197887087466e-006 
-1.125345074076893e-006 
-2.209544141280336e-005 
8.770184034516016e-006 
-2.74352663237101e-005 
-9.522583917986215e-006 
-1.728804373030852e-006 
-1.108863837676468e-006 
2.674080113015983e-006 
6.646461302214339e-006 
-1.032923097159743e-005 
-3.450660886078185e-005 
-1.512347415571905e-005 
3.194222307395448e-006 
-1.85061191135672e-005 
9.408754766622424e-006 
-6.580351273857825e-006 
-1.033271291580243e-005 
1.060530687921196e-005 
-1.370018262530585e-006 
-7.57351616471194e-006 
2.643388404750877e-006 
-7.540746656555713e-006 
2.884061659720653e-006 
-1.369706713851592e-006 
-1.023466947516546e-005 
-8.883877389656674e-006 
3.306802404052063e-006 
-3.424072124155632e-007 
5.296734676407938e-006 
5.321171332256572e-008 
8.096394033502379e-006 
-1.99761494716043e-005 
1.691077786156321e-005 
-4.045267108041149e-006 
9.460650106087162e-006 
-2.786214885037698e-005 
-7.219499406295136e-007 
3.819976600732163e-007 
1.033762526757415e-005 
-1.192975127096265e-006 
-3.906778887776211e-005 
1.956925040229614e-006 
-1.27142158638872e-005 
5.042821814044752e-006 
-8.867040655084569e-006 
-1.137359461080498e-005 
-3.470509451644319e-005 
-2.345838612407115e-007 
5.723149081948923e-006 
-3.575895637961011e-006 
1.567856851592545e-005 
-1.97054825980518e-005 
-3.896317135783326e-006 
-7.622346520440289e-006 
9.459590136318971e-006 
3.567889314997295e-006 
2.840658747616666e-006 
-7.678325929630412e-006 
2.811148342964538e-006 
-2.268856382976965e-006 
9.567478989362827e-006 
-3.116437488062107e-005 
-1.655521316718742e-005 
1.225163148342786e-005 
-4.150957290175914e-006 
5.412941723037599e-006 
9.275189597646941e-006 
6.597392036458506e-006 
-1.032622527157706e-006 
-4.595701250000783e-006 
-3.199011840275569e-006 
3.801584628518772e-006 
1.488112647561074e-006 
-2.542995894548089e-006 
1.189734270785448e-006 
3.421499087924279e-007 
-1.0670764927824e-005 
-2.111678060921645e-005 
-2.680620709395761e-005 
-8.812839964893153e-006 
-2.359021979122961e-006 
1.579217959133487e-005 
2.55295922427347e-008 
-3.367437830449038e-006 
5.042649956213974e-006 
-7.200720591281021e-006 
-1.581461048215221e-005 
-1.228453785114622e-007 
8.923240309028711e-006 
-2.845175136352602e-007 
-1.273885230637042e-005 
-1.868974351215362e-005 
-4.613856704616714e-006 
3.950133518932302e-006 
2.18919236707251e-005 
1.764392405060873e-006 
-6.930097280743865e-006 
1.114279176213059e-005 
5.969519219846804e-006 
7.059244514423995e-006 
2.283810349257237e-006 
-1.141147943274177e-007 
9.080537916014604e-006 
2.320938914782769e-006 
1.962030759721131e-005 
3.856404015277482e-006 
-3.326440382396469e-006 
-3.274029205822577e-006 
-7.597769975189603e-006 
-5.558271324512133e-006 
-1.393608230002478e-005 
-3.075738198206162e-005 
-5.979388710934857e-008 
-1.270845692828963e-005 
-1.118933800476629e-005 
-1.370509657104666e-005 
1.495360995087026e-006 
-1.75420778972479e-005 
1.112861701613469e-005 
-5.90417570993292e-006 
1.628372878255574e-005 
5.892309958668966e-006 
-3.018567147034187e-005 
7.280952462869785e-006 
-5.789339534352362e-006 
6.947731563335021e-006 
-7.342853743043373e-006 
-8.942960934158195e-006 
-1.200341484435331e-005 
-4.956955591391725e-006 
-1.375611896798448e-005 
-7.234839029305399e-006 
4.178339943842419e-006 
-5.959744436138838e-006 
4.335345266804437e-006 
1.572516478677944e-007 
-1.539896445373439e-006 
3.602553050416143e-006 
1.267816523849349e-005 
-9.278115149818378e-006 
-8.432801237709972e-006 
-1.476380719533761e-005 
3.368783311674905e-006 
4.388780484744376e-006 
3.674343369576896e-006 
-3.038141639597133e-006 
-4.791383091460832e-006 
9.688895528499187e-007 
-8.29647610064001e-006 
1.550450950786876e-006 
-2.672949003621904e-005 
-2.65000520705324e-006 
-1.481310150732204e-005 
-2.073989142764409e-005 
-1.046193745323388e-005 
-1.474682811266717e-005 
-3.768192625940783e-005 
1.265701940923164e-005 
4.291947335886512e-005 
2.522649592224959e-006 
3.206326451310556e-006 
-1.190622801665464e-005 
-8.999158301955896e-006 
-2.242182419360408e-005 
-4.823784306967985e-006 
-1.33855189123606e-005 
7.395415977985993e-006 
-6.423242236483399e-006 
7.592941505485927e-006 
-6.223631243364638e-006 
-5.024166818448963e-006 
-4.048184921207653e-006 
-1.274686402186929e-005 
1.270126489145779e-005 
2.279774770930587e-005 
-1.592866933871096e-005 
-1.157539994793311e-005 
1.016426032070657e-005 
-3.252367906388229e-005 
-4.507202563724529e-005 
-4.027907065097637e-007 
-4.966225345946978e-006 
-1.735316822742668e-005 
1.563772977560451e-007 
2.073012582216274e-006 
-1.950457001472423e-005 
1.162607392794572e-007 
-9.990176937237242e-006 
5.960262089547284e-007 
-1.594250500454573e-005 
6.642233571891686e-006 
3.044458356882109e-006 
6.596916937900754e-006 
-5.639210791635367e-005 
-2.016478960170335e-005 
-2.264998678211924e-006 
-5.750149013015635e-006 
-6.673576983260157e-006 
-4.230255115233201e-006 
-9.627243676716705e-006 
-3.755963151777963e-006 
1.440788010897394e-005 
-9.844730140830234e-007 
-1.047324974963042e-005 
1.064807080872508e-006 
3.6160653085469e-007 
-6.572336145355367e-006 
-5.004050645465854e-006 
-5.354235221357459e-007 
-3.739253524306745e-005 
3.071661448674689e-007 
3.402373016053419e-006 
-1.680552960276127e-005 
-9.216760897187341e-007 
-3.905597572486293e-006 
4.90694168285817e-006 
-9.027971064546927e-006 
-1.095761633717382e-005 
-1.695384927072334e-005 
4.734905381843515e-007 
-9.314301466202117e-007 
-6.045481101366781e-006 
-4.898280668140707e-006 
-8.504289192966564e-006 
-1.309352994116941e-005 
-1.644171976078488e-005 
-1.21553580108741e-005 
-2.236880030907735e-005 
-1.291753053038318e-006 
9.84983144530395e-007 
4.777188879860407e-006 
2.232164884179004e-006 
-1.195876700152101e-005 
3.267616576664151e-006 
-1.723080724555155e-005 
-4.94107920088088e-006 
2.251741782094283e-006 
-4.984081256634103e-006 
-9.859575556376288e-006 
1.236200526483335e-005 
-1.566435073387066e-006 
5.585278673490819e-006 
8.267791001625327e-006 
-2.860069275809801e-005 
5.127154369277902e-007 
1.047401837271562e-005 
1.443949449762255e-005 
5.026405895852981e-006 
-6.634720862216458e-005 
-4.013741391917024e-006 
-2.334009901707171e-005 
-5.702434272460115e-006 
-1.121113606410496e-005 
-4.675299995455053e-006 
-1.698048402618883e-005 
2.776655522999701e-006 
-2.005417537631922e-005 
3.553543480873988e-007 
7.738649571705194e-006 
2.778877112014837e-006 
-4.537967401272781e-006 
-1.185754733714889e-005 
-2.806078878785087e-005 
-6.321602899356139e-006 
-2.466679252347352e-006 
1.030997839628408e-005 
-2.98997802407718e-005 
-1.077881136220918e-005 
-1.134226751149092e-005 
-1.576407658497743e-005 
-1.020782647210615e-006 
-3.021674509995397e-006 
-2.970389105898605e-006 
-4.487788741215173e-005 
7.007141919322504e-006 
2.38337318420754e-007 
1.599170580500055e-006 
-8.263354651509009e-006 
-3.390761479799962e-006 
-6.121562262998916e-006 
2.421346675650792e-006 
2.036816828025938e-006 
-1.568993018049832e-005 
5.166041610019961e-006 
-1.789079294754408e-005 
7.808772045992551e-006 
3.206061995241103e-006 
2.523570750430385e-005 
-1.323755946473723e-005 
-1.387365157754015e-006 
-4.292729617377932e-006 
-1.670670676429891e-005 
-2.305678448289783e-006 
5.539250077614814e-006 
-7.270453098501732e-007 
4.051564311210551e-006 
-3.83468146033273e-006 
-1.145078698186099e-005 
6.339060637960237e-006 
-2.918685033160971e-006 
-7.353039242871233e-006 
3.73726088174314e-007 
-3.500845547912745e-005 
-9.736182551399113e-006 
4.092373712539431e-007 
-5.516706092882953e-006 
2.358340502801718e-005 
-2.770093359823614e-005 
-4.341228068191633e-006 
6.856476646786829e-006 
-5.393144377968913e-005 
1.524888686558314e-006 
-5.732235608956138e-005 
-1.392461572197153e-005 
-1.38924343785857e-005 
8.313600130761487e-006 
-1.516364727142161e-005 
-4.771828181697096e-007 
8.18589546209524e-006 
1.485850847206359e-006 
1.870212377261883e-006 
-2.528024606726389e-005 
9.09551372338755e-006 
1.916279751995398e-005 
-1.447388793401043e-006 
6.799501284437758e-006 
-4.5749407818672e-006 
4.498428160870379e-006 
6.709581232445242e-006 
-1.24516593492426e-005 
-3.549851756353388e-006 
1.450928868418117e-006 
1.371188452227275e-005 
-2.512090194596236e-005 
-2.157721210133163e-005 
-1.501447773748838e-006 
-6.534218380626257e-007 
-4.418180765510184e-006 
-2.91589492906757e-006 
-1.659807809426072e-005 
-5.303621473376873e-006 
5.277205227067934e-007 
3.385614721080687e-007 
1.013080570006435e-005 
3.320504298136732e-005 
-1.640438754544372e-005 
-3.410815308602065e-006 
4.634303133167563e-006 
4.398754025435489e-006 
-1.029212431674018e-005 
-1.283313000103848e-005 
2.702561296492699e-006 
1.020078143901463e-005 
1.660645980185783e-005 
-2.127403040849194e-007 
-3.674447166844679e-006 
-6.203005589821661e-006 
-1.785423734113502e-005 
9.134889477190301e-006 
-3.608379816865272e-006 
1.934880135853172e-005 
-1.059462070844981e-005 
7.899550278281821e-006 
2.289704258329087e-006 
5.740106348699606e-006 
-7.452928159473224e-006 
-9.106019772724576e-006 
2.375543326717088e-005 
-8.213664362453251e-006 
9.15368134008415e-006 
1.072767762086203e-006 
3.112103471043338e-005 
2.472005369655215e-006 
-2.148468684903482e-005 
-3.888871870777166e-005 
5.346380591190381e-006 
1.161740744005547e-005 
-1.333046516563518e-005 
-1.461514468395701e-005 
6.366824776550128e-006 
2.944262141168106e-006 
-1.368081608240191e-005 
3.232978904314451e-006 
4.957482677107614e-006 
-5.210152354537309e-006 
-1.430326251408363e-005 
-1.114089206856325e-006 
-1.967515677164855e-006 
-8.771082004065465e-007 
-7.486006053484812e-006 
4.89721416554261e-006 
4.426780708008219e-006 
-1.170395153792369e-005 
-5.245059966773917e-006 
-5.578167402436443e-006 
1.025487410329743e-005 
5.101524828332053e-006 
4.684943437485178e-006 
-8.66813667732596e-006 
3.009021591651061e-006 
-7.124230473549216e-006 
-5.251859469464292e-006 
3.081306278256363e-007 
8.878510425079279e-006 
1.68026160818468e-006 
2.35662720188365e-006 
-5.487160167942263e-006 
-6.72760363705681e-006 
-1.194634963531726e-005 
-2.724850519566196e-006 
-2.820623666239512e-006 
3.115771335623794e-006 
-2.605836707106371e-007 
-6.975892504963283e-006 
-4.058816571875621e-006 
-1.069854755750296e-005 
3.354968874787364e-005 
-1.435264612040434e-006 
1.448870494630937e-005 
2.050955068172497e-005 
-1.422929610473263e-006 
-6.660430335176768e-006 
-1.464273883418111e-005 
-2.822201155322306e-007 
8.50724049696094e-006 
2.495127409601591e-006 
-4.984708991663418e-007 
-7.103864284680539e-006 
-1.356310972973383e-005 
1.382714389581936e-005 
-4.473539297414126e-005 
4.622362227881797e-007 
-1.124432892893526e-005 
3.965016362646213e-006 
9.193579844226968e-006 
-1.127995419112457e-005 
-1.000058697934198e-006 
6.866098940657075e-007 
-1.772688674758836e-005 
-4.609729951107321e-007 
7.641498689942309e-006 
-9.275491126724074e-006 
4.260303937289296e-005 
-1.698494935001461e-005 
6.554815459503413e-006 
-2.345762038182744e-005 
-6.741112326889177e-006 
2.357968218142297e-005 
-4.176583590876002e-006 
2.883126525572845e-005 
-8.512784917073086e-006 
6.405528601868139e-006 
2.137587071763138e-006 
6.078528134348732e-006 
1.731719168859081e-005 
2.793472839907013e-006 
-3.701723383496462e-006 
1.092946848351544e-005 
6.499614582630829e-006 
-3.140416052751847e-006 
-1.36239081255908e-006 
1.279412080075069e-006 
9.379177491872295e-006 
7.180207162427527e-006 
2.245139949561129e-006 
-3.435206531582752e-005 
-1.047671105716061e-005 
-1.411874340643918e-005 
1.775119640902237e-006 
1.389098651737283e-005 
-6.985604097756567e-007 
3.059571337109933e-006 
-1.025261897907616e-005 
4.428210860220321e-006 
-1.418434403482508e-006 
-1.803493448964253e-006 
-2.681163842840079e-006 
2.628624476350753e-006 
-8.573864058335999e-006 
-4.87030138165899e-005 
2.203057083232769e-006 
-8.948896629508807e-006 
-3.899481295418001e-007 
-4.952636201626611e-006 
-9.167739566993618e-006 
-3.749339813948576e-005 
-2.292685335563593e-005 
-4.961386997057032e-006 
-8.977602593243105e-005 
1.117466123324017e-005 
-1.217810119380486e-005 
-2.880785323140717e-006 
1.277796886542094e-005 
-7.548149643165906e-006 
-2.189143418572812e-005 
2.786197538945038e-006 
-5.066041329752824e-006 
1.226312539324663e-006 
-2.855528195524603e-006 
5.465228184176883e-006 
4.15864026484212e-006 
-5.373492014383479e-006 
-9.914690404848965e-006 
3.340974167185372e-006 
-4.94541210932066e-006 
-3.053924207225858e-006 
-2.900606895430526e-005 
-9.472988029066145e-006 
1.92412920445112e-007 
-1.217216077765733e-005 
3.188513386671214e-006 
-1.1340881789817e-005 
1.177533013862716e-005 
-1.73503938665918e-005 
-6.579460198452293e-006 
-1.549700664838401e-006 
-1.17017715741482e-006 
-1.862730587529504e-005 
3.514653088064902e-006 
-8.624732473081871e-008 
-1.598702781332682e-005 
-8.73161012404473e-006 
-2.076316793211011e-005 
7.555304898022586e-006 
-1.41124511927465e-005 
-2.765062342080209e-006 
-1.57601384323622e-005 
-2.951866781306614e-005 
-1.504717300338093e-005 
-6.420590479619395e-005 
5.76390502934049e-006 
-1.689567962724212e-005 
4.008810763052392e-007 
-1.107298670849864e-005 
-1.043120493471419e-005 
-1.75974644062894e-006 
-4.196933765463479e-006 
8.112232435975292e-006 
-5.885637196800397e-006 
-1.961591478000305e-005 
-5.658303846051786e-006 
-1.165903912884483e-005 
2.503182675201392e-006 
-3.251594236372749e-006 
1.161704229518381e-005 
-2.758515410285039e-005 
1.752525876908784e-005 
8.162010238788476e-007 
3.405223050956546e-006 
-1.442165135018968e-006 
-3.546900223297307e-007 
-3.606512099030874e-006 
-2.335497400473126e-005 
2.315496809641123e-007 
1.846483754056298e-005 
1.581566823856109e-006 
-4.622144626093505e-006 
-7.835107086111798e-006 
-3.234689044866863e-006 
-9.770315783883436e-006 
-7.491121950044565e-006 
-2.081241725377398e-005 
6.310770099344405e-006 
-4.171880803043636e-006 
-1.572991663634889e-006 
-5.703516995228488e-006 
-2.036448832599612e-005 
2.93743266230695e-006 
-6.752933511321281e-005 
-9.779169997003368e-006 
1.12723736182313e-006 
4.278199614581243e-006 
7.219417940231873e-007 
-4.065714700725924e-006 
-1.231171190692645e-005 
6.763050479071228e-007 
4.360362584658685e-006 
1.051994141954277e-005 
5.806695563997707e-006 
-2.292591505608218e-006 
-6.379345488830969e-006 
-4.594590834553503e-006 
-1.791446182467023e-005 
-3.77384923162887e-006 
-2.700612169184693e-006 
-5.393113914451619e-007 
-2.447535996545745e-005 
4.439506024825892e-007 
-1.351488871797255e-005 
-1.632585712749705e-005 
-6.729982629649975e-006 
1.323412934318445e-006 
-2.251525555115e-005 
2.1752371789645e-005 
5.991918877484294e-006 
-1.890093453982986e-005 
3.846170761452264e-006 
-3.230847967464197e-006 
-7.118008073476339e-006 
-5.359739489168808e-006 
-2.770671204641551e-006 
-4.381571487864788e-006 
7.590119247105944e-006 
-4.282395495902687e-005 
-2.582208881236277e-007 
-1.966532607099856e-005 
4.957578250939633e-006 
3.379550069747913e-006 
-1.103427703415236e-005 
1.038309589416119e-005 
6.340658076534065e-006 
-1.086599393126554e-005 
-4.207195425145989e-006 
-4.096162164897782e-006 
6.053372945069739e-006 
-2.733948960040089e-008 
6.46907294876899e-006 
2.496981464843844e-008 
-3.057869849664238e-005 
-5.333049891266019e-006 
-1.168743770676006e-005 
1.746543299903571e-006 
-2.783986715905807e-006 
2.767133771327651e-005 
1.05573051884522e-005 
-5.897408391244343e-007 
-1.883547245999591e-005 
2.835770708375981e-005 
2.206773244739823e-006 
1.259842180874152e-005 
2.87596033537861e-005 
1.286831552850743e-006 
5.047636528013466e-006 
4.12575192936281e-006 
1.385937053956363e-005 
1.176442011029005e-005 
2.733603175137226e-006 
-1.096287360810122e-005 
1.575398194496004e-005 
-9.245780266755948e-006 
7.143053676953278e-006 
-7.447890400688206e-006 
-2.538299535887516e-006 
2.99396599340462e-009 
2.360217516240737e-006 
9.155762567351315e-006 
-3.359552049331764e-005 
-2.460455682900886e-006 
-4.34873637010604e-006 
7.71662667013852e-006 
-6.943168472758454e-006 
4.561186937806155e-006 
9.785145121603482e-006 
-1.072771026538911e-005 
1.799992074813739e-005 
2.281978617043887e-006 
-1.709033901348825e-005 
-1.033247172605108e-005 
-6.424930487139461e-006 
5.503480256721856e-006 
1.603368878380671e-006 
-4.873846839490922e-006 
1.037051742667155e-005 
-1.556490440972567e-006 
-2.043319811275683e-005 
-7.036810158287256e-006 
5.04994799436819e-007 
7.515916478057797e-006 
-6.214468632001299e-006 
-1.45598611397928e-005 
-2.052032000398684e-006 
5.630757018600653e-006 
-7.604706072259174e-006 
-7.852005912614227e-006 
-2.850510009654058e-005 
6.217027883601121e-006 
3.793426308895865e-006 
-1.35257247177031e-005 
1.496997179909992e-005 
-3.740051071404651e-006 
-1.121341385883983e-005 
-4.478679343716086e-006 
-1.042303269586424e-005 
5.485223856022882e-007 
-6.853034798230583e-006 
3.323613639565924e-006 
-3.927417758820043e-006 
-1.307740610005019e-005 
-1.708257675765367e-005 
1.708583970193038e-005 
2.121747555798915e-005 
-3.19642092683623e-005 
-8.730966048237866e-006 
-1.628184482400117e-005 
-1.207917508199104e-005 
3.937840428845063e-006 
3.826381106304774e-005 
-1.038920365822229e-005 
2.034676281114064e-005 
-1.031609940499674e-006 
-5.953565316296024e-006 
-9.275974614628787e-006 
8.189064189834384e-006 
5.545169297302181e-006 
-9.724792140584983e-006 
1.977058147436384e-006 
-4.965403380425138e-006 
-2.919529161571932e-005 
1.519088667364986e-006 
9.605418630925564e-007 
4.151257943748975e-006 
-1.128998935689948e-005 
3.371435839621579e-006 
-1.964926729563471e-005 
-2.397217809205734e-005 
-1.568784544606295e-006 
1.580395567786962e-005 
8.19391734242805e-007 
-3.119100769793464e-006 
5.348340343820775e-006 
-2.955592237656118e-005 
-3.833650607948663e-005 
-8.015196723152519e-006 
-1.250864123972133e-007 
2.390224747098926e-006 
-1.067212426381921e-006 
1.563232325198543e-005 
8.627447141952691e-006 
-1.153537869037168e-005 
-6.579121653892442e-006 
-5.432215637493223e-005 
9.14213549154415e-006 
7.321655363122728e-006 
-1.195983977375558e-005 
-2.612685946688051e-006 
-2.157051971446181e-005 
4.85905062154942e-006 
-7.058207878601409e-005 
-1.497880383563413e-005 
-5.147365224401962e-005 
-7.658262288014692e-006 
1.299571381762269e-005 
-2.102879881361856e-005 
-7.851907368365526e-006 
8.657267029425182e-006 
-6.062467802414769e-006 
-1.420039525726726e-005 
5.811864379815385e-006 
1.121565836764727e-005 
6.706700110889863e-006 
-1.313750471734212e-005 
-1.087586824363539e-005 
9.966445736876189e-006 
-9.189689523181192e-006 
-2.809562037240532e-007 
-3.990888575150601e-005 
-1.680804985685756e-006 
-6.814857455860899e-006 
-1.935733859678495e-005 
1.744237579078378e-006 
-1.766479284576198e-005 
-3.910343037843875e-006 
-5.086034122219068e-005 
-1.932354985741247e-005 
-3.704466487678355e-005 
-4.679248196294057e-007 
-1.744162051788969e-005 
1.446759711295561e-005 
-2.928648493926345e-006 
-4.589722073215309e-006 
-4.733021063919703e-006 
-1.109340022002796e-005 
-7.775227332692041e-006 
4.481218392057216e-006 
-4.79358982845266e-005 
-1.350710921622427e-006 
1.618935164496235e-005 
-9.375661303928029e-006 
-4.146184812469316e-005 
-2.298159911556625e-007 
-4.524021775840179e-005 
9.096167015252176e-006 
-1.684563279710295e-005 
-3.323238120376474e-005 
-1.216073635464157e-005 
4.137559042270614e-006 
-1.669730440009234e-005 
1.39057882005212e-005 
-4.436442734380952e-006 
-2.953535318946816e-005 
-2.379585661644312e-005 
4.743383373659978e-006 
-1.3607250859898e-007 
-1.112927793019744e-006 
-3.959777828245423e-005 
3.956656937445599e-006 
-1.159728747875942e-005 
-4.458444998920579e-006 
3.935348956299347e-005 
-1.115049770451284e-006 
-1.173283757797547e-005 
-3.530381380040567e-006 
9.647026091842026e-006 
8.915674347419232e-006 
4.610764859352052e-006 
5.540625426565397e-006 
7.62210101044543e-006 
-2.034779185753297e-006 
-1.375090293975616e-005 
-8.170879491885315e-006 
6.231076493601884e-006 
2.05860318365268e-005 
4.291833374803142e-006 
4.326501599369475e-005 
2.484658162967488e-005 
2.68831266484065e-005 
3.077138803228666e-007 
-6.910288597345386e-006 
2.272555957575624e-006 
1.313046578879573e-005 
6.123576001830415e-007 
6.722720235687713e-006 
-1.271016301966792e-005 
1.221263791393919e-006 
-7.120164342984178e-006 
-1.94752807856907e-006 
3.595166129181716e-008 
3.801324489786402e-006 
5.049941451079579e-006 
2.690514883202859e-005 
-4.528246986887463e-005 
-3.165383006273894e-006 
2.586316212035848e-006 
4.191990266510495e-006 
-8.192078023127129e-006 
-1.590548018606955e-005 
-2.131952571923031e-007 
7.543163376125791e-006 
-1.61221966071522e-005 
-1.88828075516916e-006 
-7.349938987265906e-006 
-3.575038233538341e-006 
-7.220549289925961e-006 
1.618044270435982e-005 
2.240751971519985e-006 
-4.705675909719959e-005 
-1.356634944010664e-005 
-1.143558691827268e-005 
-2.183060661664635e-005 
1.217285595884407e-005 
-3.069976365777387e-007 
8.897545616746295e-007 
3.307497565318158e-007 
4.445837085666412e-006 
-1.694557206939034e-005 
3.718540692307425e-006 
6.28839361216426e-006 
1.551332711230435e-005 
-1.92907619385919e-006 
-7.346503699601469e-007 
1.160652816568011e-006 
-1.515670300901828e-005 
-6.247195097310497e-005 
-6.546871226590775e-006 
-1.221198725584316e-006 
-4.518482259162631e-006 
1.078975887624494e-006 
-2.97179877923131e-006 
-1.076837593915852e-005 
-1.775880967219982e-005 
-3.16013231406704e-006 
-3.953203944022385e-007 
-1.939039401549036e-005 
4.244101863379031e-006 
-6.891766526883428e-006 
6.833424443216807e-007 
4.994590462704531e-006 
-2.033126769515085e-005 
1.243255920819682e-005 
8.434946736881041e-006 
-2.022120824405566e-006 
4.590922746971611e-005 
5.674400979240641e-006 
7.291262936842462e-006 
6.2338573031275e-006 
3.022068858766111e-005 
-2.13753550761113e-005 
-5.645660954976742e-006 
-7.900427964093733e-006 
-5.04066301413993e-006 
6.097536133436049e-007 
9.277127739685652e-006 
-2.28608779878134e-005 
-2.451557924145526e-005 
1.334283995782906e-005 
4.470084295168571e-007 
-3.634141133830311e-006 
1.233913948947592e-005 
-1.719132027755441e-005 
-3.916018480542797e-006 
-1.359194313234087e-006 
-4.992089183264928e-006 
-2.293160624475832e-005 
4.977952686038614e-006 
-1.011914877357487e-005 
2.451634723481564e-006 
-2.289361391760903e-005 
-9.367894774823232e-006 
3.114769443252663e-006 
1.315912375735753e-005 
-1.106201046226204e-006 
-2.170811723685662e-005 
6.970547343778402e-006 
-2.182451480615049e-005 
2.935388954820487e-006 
-2.35460984106251e-006 
3.876302311199786e-006 
-7.912764605683729e-006 
-1.496304587672711e-005 
-4.139973301958703e-006 
-1.559154681996411e-005 
3.545957301331984e-006 
1.070805339295115e-005 
-7.286424647146996e-006 
1.010662701146946e-005 
7.410566895240511e-006 
1.413614862979946e-005 
2.553825150916184e-005 
2.885293843814798e-006 
7.159032639193684e-006 
4.999281198835846e-006 
2.673981327058745e-005 
-4.986446134334854e-006 
5.153931865056472e-006 
-1.050272206640276e-005 
3.070247502111597e-007 
-3.499988878916455e-006 
9.272516513944976e-006 
-9.388573664805309e-006 
-2.552044910890343e-005 
1.5796970287177e-006 
2.473664365446971e-005 
-1.948616111461217e-005 
-8.019780042392704e-006 
5.446653277121137e-006 
-2.910275942379459e-005 
3.70769311934319e-006 
7.298204137871904e-006 
7.038574789618758e-006 
-9.586260512517282e-006 
-5.276152448425368e-006 
4.378259286308081e-006 
7.626180396726964e-008 
-4.918393361236476e-006 
1.276036717283817e-005 
-3.343522063587367e-006 
5.48161590399944e-006 
-1.07182901387691e-005 
2.1359625987133e-005 
-1.777969072317521e-005 
-1.227080996902437e-006 
9.364747783841324e-006 
-9.867008208356814e-006 
-7.280830406303978e-006 
-1.635180487523344e-005 
1.324235333879322e-005 
1.802490269100066e-005 
-2.758813825208067e-006 
-1.018063938264401e-005 
-7.51304603744952e-006 
-1.034578818894764e-005 
-3.252688955735458e-006 
1.350205947630458e-005 
-8.397596548480911e-006 
-8.900250037493598e-006 
-1.670216300291146e-006 
-2.920751265864856e-006 
7.986502141300138e-006 
7.345652569339875e-006 
-1.080474422499221e-005 
8.881831467821917e-007 
-1.776368477562517e-005 
7.385862670509054e-007 
2.402904757596016e-006 
7.862622918552674e-006 
-2.834272978652053e-006 
-1.254316050670129e-005 
-3.036876858224024e-006 
-3.869285870598645e-006 
8.653862811100169e-006 
-1.582163300168961e-005 
-2.516196037826072e-005 
-1.718562537678698e-005 
-4.569331155333267e-005 
6.156952263338236e-006 
-1.176763248361674e-005 
-3.388549763526481e-006 
-1.590745593913791e-005 
-2.74426462111829e-005 
-1.20516862730613e-006 
-1.639721661824129e-005 
-6.07362849560037e-006 
1.990506945798695e-005 
1.23864190877027e-005 
-5.402499828662491e-007 
-1.76544167653165e-005 
-4.154851247144809e-006 
9.312056362899536e-006 
-6.356892692004274e-006 
7.594858967129236e-007 
7.337074068196719e-006 
-2.889885936224116e-005 
-3.080997300785566e-006 
-2.464447821586485e-006 
-1.312011650620302e-006 
-3.675950460741025e-006 
-1.942814151281964e-005 
1.007483947423648e-005 
2.419144426394374e-005 
9.005129453825941e-006 
5.827551155613453e-006 
-2.064610221799723e-005 
-1.465953860534527e-005 
-3.405867995613309e-006 
2.588448142538361e-006 
7.431987312347955e-006 
-1.494920277840801e-006 
4.984039246380386e-006 
4.028077739473769e-006 
-8.908535447983957e-006 
8.045865434245186e-008 
-6.63602507651465e-006 
-9.734058077944847e-006 
-5.865694557604768e-006 
-0.0001025842044048832 
-2.48950362569701e-006 
-1.000643912998589e-005 
-1.671110749397321e-005 
-2.232816772277699e-005 
-8.751877748383195e-006 
-5.624388577386094e-006 
-6.074833640480425e-006 
-1.472301402947084e-005 
-2.352123463961363e-005 
-1.864140233874281e-005 
-1.367083611300073e-005 
2.118955913406911e-006 
4.798364282245514e-007 
-1.024986016175886e-006 
-3.295896977843219e-005 
-3.075855866939429e-007 
-1.66985462469575e-005 
-4.936506087060077e-006 
-1.647329937090431e-005 
-1.989259779932409e-006 
-6.379142804216141e-006 
8.962852454290757e-006 
1.882603866227787e-005 
1.927454883962369e-005 
-1.623696437482566e-006 
-6.207239084952028e-007 
1.118520176822251e-005 
-2.539065890407293e-006 
3.824354277559611e-006 
-3.803774001512795e-005 
-1.140516562859454e-005 
-2.465418437666544e-005 
1.430364602445859e-005 
2.497144973623158e-005 
2.185793307224023e-005 
-9.447477871969043e-006 
-3.258886812301194e-006 
-6.792077946768209e-007 
2.253780334138659e-006 
-1.161108293440277e-005 
-3.124551022319914e-005 
6.124077672544279e-006 
1.851590913349118e-006 
-1.066775738555727e-005 
-1.200914387675178e-005 
-5.746460363028161e-006 
-8.714498899644959e-006 
-2.394222191486655e-005 
-6.887961977064788e-007 
2.067898661277623e-006 
-3.249848848735887e-005 
1.285669905169514e-005 
-9.234891436116044e-006 
1.111435151373756e-005 
-4.772549075283204e-005 
2.708739449283722e-006 
-2.359537419973743e-005 
-6.71007337120079e-006 
1.836709376546446e-007 
8.753148480969157e-006 
-1.956406124504286e-006 
-4.058865619702785e-006 
-1.406644941198347e-006 
1.191488402883876e-005 
7.119063662544285e-006 
-1.067931183000957e-006 
-7.014037660981754e-006 
6.682034656750829e-006 
-1.623323197710109e-005 
8.561458637569905e-006 
5.614307221662887e-006 
1.689331459776013e-006 
-6.29917284397073e-005 
3.66440647282602e-007 
6.964819911214852e-006 
-2.057263581328185e-005 
-1.641688105205496e-006 
-6.344839927296299e-006 
1.44688974232878e-006 
-2.375217943457334e-005 
5.275562865056027e-007 
-3.020771193741675e-005 
-7.853983436697199e-006 
9.157468053018812e-006 
-5.048238686224767e-007 
-3.581359968882501e-006 
-2.863349389019143e-005 
6.731285826763741e-006 
2.361325199567058e-005 
1.841824249390303e-006 
9.880672921766864e-006 
-1.401787507212559e-006 
-2.04443946527749e-006 
-3.034095163818122e-006 
9.097744216555126e-006 
9.997521862003785e-006 
5.494535049794614e-006 
6.745038074679102e-006 
2.902766883886031e-006 
3.190225264746151e-005 
-4.123513239979311e-006 
2.383472062227342e-005 
4.859904506717188e-005 
-5.867843639078375e-006 
-8.436660402511853e-006 
2.209112766877797e-006 
5.21290859851762e-006 
1.542711706494429e-006 
8.174803381344799e-006 
1.429849785828138e-005 
7.312312321532042e-007 
-1.80864964918394e-005 
-5.391687373828103e-006 
2.701801180665241e-005 
-1.463301063422697e-005 
6.203671586345016e-006 
4.16420336875127e-006 
5.343306859775781e-006 
2.654698306899788e-006 
-1.206019100230042e-006 
-3.988945780581148e-005 
-9.24844208208961e-007 
7.498665937051016e-006 
-6.893122477102811e-006 
9.581291009324559e-007 
-7.160681060504519e-006 
-4.919840216291423e-006 
-3.478760399795521e-005 
7.594895516956706e-008 
3.293995358944773e-006 
3.937667098293094e-007 
-4.961949813204614e-006 
3.09628693254702e-006 
-1.586508772182249e-005 
-3.130532650341528e-006 
-5.373137645408723e-006 
3.213723834883083e-006 
-1.841338412265874e-007 
6.307490798476217e-007 
-1.766124947225609e-006 
-3.066956409465413e-006 
-2.984340852930767e-005 
-8.732196071456257e-006 
-3.293556611177302e-005 
2.172025491033426e-006 
1.044175332087274e-005 
-4.270892902392659e-005 
-2.199699674616797e-005 
5.3826006131505e-007 
-1.61301302801533e-005 
-3.319330175318326e-005 
8.064926891454898e-006 
2.269339119341996e-005 
3.482070156961512e-007 
-1.666831752270142e-005 
6.699104879295009e-006 
2.5587361665434e-006 
3.483527652516528e-006 
-1.940356884567836e-005 
-7.521961092063141e-005 
-1.399348722565467e-005 
-4.191510997439952e-006 
-2.14390995431007e-005 
-8.85874441204245e-005 
-2.831790772568799e-005 
-8.710573717168148e-006 
-3.477533829010661e-005 
4.454842303383286e-007 
-6.858008988728499e-005 
-1.587720531365335e-005 
-3.728826114653145e-005 
-1.061704720436612e-005 
-6.328540051033023e-008 
1.446832405882921e-005 
-8.860584228885252e-006 
-3.452384955181838e-006 
-1.845598338730177e-006 
-2.033286398638312e-006 
-3.589122846055431e-005 
-5.414782438539969e-005 
-5.577347590379524e-006 
-1.335499175252993e-006 
-6.076040404152155e-005 
-2.681357675545835e-005 
2.423018438752473e-005 
1.7824673540638e-006 
4.197047552492262e-006 
-9.362220837003679e-006 
-3.314309053396743e-006 
8.769388659193926e-006 
6.010815751433818e-006 
-3.028165697012426e-005 
-5.236308677297169e-006 
-2.59453106376798e-006 
-2.47516382476028e-005 
-7.580688267226124e-006 
-9.078005288725839e-006 
-7.030145625889244e-007 
5.518180825019175e-006 
-1.143195622399397e-005 
4.889582160073913e-008 
4.144639714460289e-006 
4.826157122617455e-006 
3.884106350072855e-007 
-2.088135622461867e-006 
-4.777602438792251e-008 
8.162284977964205e-006 
-6.415011641320653e-006 
-1.352197880167182e-006 
-2.096559537444583e-006 
1.495630607764905e-006 
-2.376534183300427e-005 
-2.129509560208739e-005 
3.329649773786151e-006 
-4.934284384483535e-005 
-2.45230363034998e-005 
-3.844025517285632e-005 
-1.897658511965868e-008 
-1.178944542772265e-005 
-5.567315228002454e-006 
5.836878236750539e-006 
-8.292274124599039e-006 
1.747677198585664e-006 
-2.411637227540531e-005 
-3.648043631433883e-006 
-1.38974631381993e-005 
-1.471953587096195e-005 
-5.64076864353022e-005 
-7.099914029774527e-006 
-2.143423633369634e-005 
-5.645467147869623e-005 
-8.979959714734681e-006 
-1.529878512480528e-005 
-1.263233961658281e-006 
-2.534603047406582e-006 
-9.748677572051757e-005 
-6.073590014813112e-007 
-1.296257482121305e-005 
-3.468721823018142e-005 
3.319770860156207e-006 
-7.839709777595567e-007 
-3.251506414918861e-005 
-1.40491594901599e-005 
-2.933251801223263e-005 
-8.696424785970684e-005 
-1.009869178046611e-005 
-7.592202146207944e-006 
-8.968495840392516e-006 
-4.229253916455925e-006 
-7.292254831739148e-007 
-2.983679015517334e-005 
-1.576125069172815e-005 
4.571896410477344e-006 
-1.340329468246173e-005 
-1.034428120848203e-005 
-2.482436796475879e-005 
1.368336288785877e-006 
-2.498881067986698e-005 
-2.395521407524092e-005 
-1.546683963227594e-005 
-7.161554586265722e-005 
-1.028478205747965e-005 
-1.303262549785191e-006 
3.081352445884561e-006 
-3.228553646674541e-007 
7.91604652021073e-006 
9.460520071871654e-006 
-6.174270855972112e-005 
2.392492526409242e-006 
-4.680100554642638e-006 
-6.190132288086985e-006 
-1.154830714071625e-005 
1.089023866940164e-005 
1.339282772213391e-005 
1.610419128258067e-005 
6.358309479330693e-005 
1.003043950603935e-005 
-6.281126513867222e-006 
-8.657833190616889e-007 
1.9855764406899e-005 
-1.169473488352146e-005 
-8.801246849748319e-006 
-8.984361416794747e-006 
-1.656874596911388e-005 
-4.125079725983286e-006 
-5.571097700862892e-006 
-9.788285902305155e-006 
-1.059612744899381e-006 
2.232376155457181e-005 
3.180736045160345e-006 
4.476523458784385e-005 
-4.7989275854845e-006 
7.104573777246707e-006 
4.976026908398261e-006 
-2.686417757117085e-006 
-4.720241711018858e-006 
2.620964406798946e-005 
7.06231203601537e-006 
-4.742241610947204e-006 
3.764961560702691e-006 
6.193574361147753e-006 
-8.435336450602889e-006 
-1.672411371035604e-005 
4.166488336849442e-006 
5.446576252792693e-006 
1.356209362118697e-006 
1.205204045322511e-005 
-0.0001534230682857173 
-4.314101445681223e-005 
-4.254992503948058e-006 
-2.401100404148706e-005 
-2.13833292715625e-005 
2.215465143350453e-007 
-1.093682524388098e-005 
-1.564490978128487e-005 
-1.825096165129725e-005 
-3.052978449385284e-006 
-4.909902480679325e-006 
1.022089416376805e-005 
-4.366924103438889e-006 
-3.555926655493327e-006 
4.801088342389148e-006 
-9.600640461738447e-005 
2.50178002260161e-005 
-1.901514571342673e-005 
-1.904757534445524e-005 
4.437678256913073e-006 
4.246698248395756e-006 
-8.752597911557273e-006 
6.12917984267266e-006 
-5.841597124461872e-006 
-6.804730137070425e-006 
1.123769781699385e-006 
3.072024373014328e-005 
1.870377393569248e-005 
3.360362196186163e-006 
2.256361749926849e-006 
8.689209233663565e-006 
-7.227665511851494e-005 
-2.090349454876758e-005 
-9.540285839863896e-006 
-2.645618990595397e-005 
-2.060579062331349e-006 
-1.193965286976655e-006 
1.375033910383919e-005 
-1.424258890087104e-005 
-5.889389342871616e-006 
-4.839656512806978e-006 
-2.415460578410841e-006 
-3.493705208430799e-006 
-1.756688269749732e-005 
2.159113193696574e-006 
2.942411990130421e-006 
-1.039642710241443e-006 
5.110798651253148e-006 
-6.658929750428628e-006 
6.6371246441003e-006 
1.425280762873088e-005 
8.378361267424836e-007 
-7.431320832293656e-006 
8.688809423013351e-007 
-1.097541416015435e-005 
2.535981164355491e-006 
-1.004921180013731e-005 
-9.212433733263626e-006 
3.303025837111569e-006 
-1.023523514047788e-006 
-1.550892360203115e-005 
-1.342860872645104e-005 
-4.384009048004205e-006 
-3.993088010990164e-006 
-7.708876517349633e-006 
-7.10341884355628e-006 
-3.051343788033205e-006 
9.482790789033079e-006 
-4.989411583310449e-006 
7.634672257707779e-006 
1.007215063213895e-006 
-3.2272578777069e-005 
-7.60508634896774e-005 
2.047245282586169e-006 
1.462323566625413e-005 
-5.611912320541391e-006 
1.48793554765277e-005 
-1.431766726781955e-005 
-3.331266551007815e-005 
1.311004722865219e-006 
3.784598742964991e-006 
4.054900831704217e-006 
8.2778916894925e-007 
6.568462654601819e-006 
3.595485568244323e-006 
3.449230381960438e-006 
-1.102207232389968e-005 
1.227957993702328e-005 
-5.281177833289935e-005 
1.42987158543413e-006 
2.445660917137362e-005 
-1.530156813222158e-006 
-6.316756090138787e-006 
1.448193822123351e-005 
-1.026149611632141e-006 
7.074154283795004e-006 
-1.748189350653793e-006 
-4.108355007684699e-005 
-1.702613959940718e-006 
-5.161634740116274e-006 
1.501916258197305e-006 
-2.801190169447954e-005 
-4.878929636280594e-006 
-4.372523527497332e-006 
-5.16243948103154e-005 
1.480172058532327e-005 
-8.101267532368327e-007 
-1.236997367985795e-005 
4.871655484751912e-006 
8.792290140553055e-007 
4.187336480821608e-006 
-3.280653926646572e-005 
-7.120107299882091e-008 
2.161220073001047e-005 
-7.3716837483382e-006 
-4.528725928432878e-006 
1.395602216613897e-005 
-6.528559247047271e-006 
1.764574573555456e-005 
6.995584095752153e-006 
-2.681005534635702e-006 
-1.964815977129394e-006 
-2.321944895647508e-005 
-9.577916528299123e-007 
-1.34342181151517e-007 
1.357741231179542e-005 
7.408585457229544e-006 
-4.179224289713437e-007 
4.508328579843052e-005 
-8.700422070148614e-005 
6.615656352845059e-006 
-7.438645121778462e-006 
3.624017406911839e-006 
-1.350395336266871e-006 
-1.359977451853548e-005 
-1.005294837372816e-005 
3.685366122393408e-005 
1.088784963852333e-005 
-1.411196661466092e-005 
-1.219477795423402e-005 
-2.389977125027909e-006 
-1.263778091252844e-006 
3.839404574870058e-006 
1.812122763211706e-005 
-1.840211603517169e-006 
-3.965575304639958e-005 
-6.75824528918257e-006 
-1.089581777526974e-005 
-1.472625082814974e-005 
-2.486864837869588e-007 
-6.434702102078305e-006 
-1.818932250547667e-005 
-9.692960652092239e-006 
-1.039400563078895e-005 
-1.179410624307388e-005 
-1.483362497242616e-005 
-1.727461477694098e-006 
-2.177763193152157e-005 
-8.952988165294179e-008 
-1.804631204443858e-006 
7.172527360600784e-007 
-3.462267020890631e-005 
-2.155802317322817e-005 
1.032153887364571e-005 
-6.941266956764079e-006 
-8.927815779898692e-006 
-4.852474135120369e-006 
-2.091310907863282e-006 
-1.627913690787919e-005 
-9.157301775223205e-008 
-6.058755423742408e-006 
9.369204680182586e-006 
-4.781891950739278e-006 
7.39729099110787e-006 
2.53769842776096e-007 
-2.286612427795245e-005 
4.315411552493297e-005 
-4.7076374447978e-006 
-1.677729253898904e-005 
-5.3415879071775e-005 
2.582135566331786e-005 
-6.023894624015605e-006 
-2.448794440516666e-006 
3.227580392991278e-006 
-5.979270786555905e-006 
3.497994140370983e-006 
-1.169559876786233e-006 
-5.901563408559495e-006 
1.962067178608713e-005 
-2.403894336648959e-006 
-5.056789308310936e-007 
2.701792011542347e-005 
-7.397422996473926e-005 
-4.090183845510741e-005 
-1.574624656107659e-005 
-7.548649622381149e-006 
6.345101407960639e-006 
-5.880347474597737e-006 
-6.16204401356849e-006 
-1.597458555292176e-005 
-9.193362727455295e-006 
1.251321901523875e-006 
-5.969120381602406e-006 
-8.015350920837267e-006 
-9.005965728288156e-006 
-1.124394983572347e-005 
7.803958038200893e-006 
-4.36978961178669e-005 
-4.45657106830642e-005 
-3.411353303947116e-005 
-6.55227783754536e-006 
-2.483085984198984e-006 
-1.790813062298611e-005 
-2.347496923710205e-005 
-7.87673294111787e-006 
-1.39956617529561e-005 
-5.230260355948707e-006 
-1.569762312589878e-005 
-5.896855851835855e-006 
-1.417010649866815e-006 
-1.534649285987437e-005 
-1.463667771106668e-005 
-1.591025375839308e-005 
-6.280991934585854e-005 
1.933794992381769e-005 
-3.512256721348958e-006 
1.78720222506628e-005 
-2.729338527956104e-005 
1.060662826905728e-005 
4.458756557103504e-006 
9.322004263140762e-006 
-4.653476056748231e-006 
-1.748011960827725e-005 
-1.050939402579955e-005 
-2.597463492036882e-005 
2.032098986194063e-005 
-1.766037039368058e-005 
7.630058069453005e-006 
-9.714326875518388e-006 
1.674841028764196e-005 
1.752196723368405e-005 
-6.444832129861806e-006 
9.557660788758453e-006 
-1.834457141100725e-005 
1.207256053294425e-005 
-4.359246167691013e-006 
6.402977158609485e-007 
5.557353545084448e-007 
-9.795877020837759e-006 
2.672158656034635e-006 
-8.928339299299658e-006 
-1.322901113290042e-005 
-2.433537477389174e-005 
-4.818146721406196e-006 
-7.82268467375931e-007 
5.265628133482183e-006 
-7.490392274889543e-006 
-2.150853666409568e-005 
1.217101920243771e-005 
-3.267083782921664e-006 
-8.047446972409031e-006 
-1.587490617917901e-006 
-5.710958363545235e-006 
1.063796357266336e-005 
-2.301519472268911e-006 
4.48422436185417e-006 
4.155887327324008e-006 
1.250586435640725e-005 
-6.414429932615912e-006 
8.156384679516123e-007 
8.038807866100773e-006 
-7.526697591165542e-007 
-1.919363357045344e-005 
-5.523717628410974e-006 
-2.175339760940858e-005 
-1.286470358504918e-005 
-3.61368958358522e-005 
-4.037454621699574e-005 
-4.90337619974786e-006 
-1.02478302969406e-005 
-4.956729988444446e-006 
-1.903422358135676e-005 
-1.710515393058545e-007 
-5.086656405801423e-006 
-1.670297986753746e-006 
-3.072811171187889e-006 
7.021770896025045e-006 
-2.330607584694699e-005 
2.454432474638997e-006 
8.572725610748436e-006 
3.044190106832532e-006 
1.695342370773981e-005 
6.146430501373996e-006 
1.776904555974175e-006 
-5.932929362203271e-006 
6.107086305856473e-006 
7.293901269118682e-006 
3.744019493580733e-006 
-6.928080999764129e-006 
-6.265615810257107e-006 
9.801044768678641e-006 
8.047740415643601e-006 
1.150333150999177e-005 
9.78222511035371e-006 
1.675650852253577e-005 
5.080679816797763e-006 
2.082037520679072e-005 
2.493346007846626e-005 
-3.428020624355126e-005 
-6.986286488680364e-006 
-2.893935673014154e-006 
1.215744914785294e-006 
9.668869608613325e-006 
-1.681632618788284e-005 
2.482493697130353e-005 
1.225513731328907e-006 
2.874505032455397e-006 
3.662136350244204e-006 
1.284964993120314e-005 
-2.096573044575879e-006 
-2.206371304185146e-006 
-3.251679393954476e-005 
1.633927043258406e-007 
3.683216156501162e-006 
-2.696516584321412e-005 
-1.347414855336336e-005 
-2.567554626120262e-006 
-3.190842994061319e-006 
-1.004046545152739e-006 
-4.149946295029802e-006 
4.172921492621298e-006 
8.581697352808272e-006 
-1.295324042503229e-005 
-1.174997965240573e-005 
-3.040425541903715e-006 
-3.372399534425633e-005 
-3.258957020942457e-005 
5.219211666215204e-006 
-1.762531713993948e-005 
3.471516402435498e-006 
-6.116374986602734e-007 
-6.46708000430739e-007 
-1.567481610124069e-006 
-1.264817128917381e-006 
-2.134207370702757e-005 
-5.978671064169847e-006 
4.929114656054176e-007 
-1.518607666167474e-005 
-2.11661753748443e-005 
7.031654150178754e-007 
-1.874452033255165e-005 
-1.764893449133297e-005 
-5.173087558752103e-005 
-6.830632238916919e-006 
-1.406222556920971e-005 
-4.153164009041089e-007 
-1.507048131954188e-005 
-7.043040568987197e-006 
1.625763822208233e-006 
-2.251348166371031e-005 
8.651632717066329e-006 
5.721303135466953e-006 
-1.377123114307731e-005 
-7.916303098275419e-007 
-2.290188952254235e-005 
-1.49861831476649e-005 
-8.361137338541603e-006 
-1.130891296391797e-005 
-9.578485729112694e-005 
-9.513027721131484e-006 
-1.619973986552959e-005 
1.697859713299894e-006 
-8.057266887692649e-005 
-4.53223563699089e-005 
-1.506595912189628e-005 
-1.646700781821775e-005 
-4.651617010601895e-005 
-6.840093115618995e-006 
3.07089496517779e-006 
-3.38407763014293e-006 
-6.850527191835693e-006 
-6.151902590103024e-005 
-2.573505743707161e-005 
2.274492113552183e-006 
-1.292245558921073e-006 
-2.523567689553659e-005 
-1.051804542901554e-005 
-2.944908819411527e-005 
-8.063309918318497e-006 
-8.910506300278925e-007 
4.188253122869199e-008 
-7.929424884878782e-006 
-2.174058324122422e-005 
-1.289947453254106e-005 
2.933957971063553e-006 
-2.372139580765029e-006 
-3.214518121722634e-006 
1.909415767410389e-005 
-2.082939389428247e-006 
-1.249358408986006e-006 
1.104024929457828e-005 
-2.818999633662198e-006 
6.722600153235248e-006 
-2.721567330429078e-005 
-3.400093706495695e-006 
-2.22581500369295e-006 
-8.860944603334418e-007 
-1.261482852373324e-005 
6.208826218233554e-006 
-4.028372711271611e-006 
1.226327967201646e-006 
1.081012348708349e-005 
-4.082631836251204e-005 
-1.0858575962338e-005 
-2.174379488026633e-006 
-1.957797952005e-006 
-7.466213642146352e-005 
-1.565109266472225e-005 
-2.138913983456876e-005 
-6.173568068677386e-005 
-3.70984198190039e-005 
-1.764688495556695e-005 
-6.045649315897857e-006 
-1.010131003851217e-005 
1.715896952672578e-005 
-1.186198004228375e-005 
-2.527940939075562e-006 
-2.814866413277561e-005 
-1.122629107529901e-006 
-4.409558330368317e-005 
1.263330274030669e-006 
-3.648793688941668e-005 
-3.480904466608172e-005 
6.343129749309811e-006 
-4.882987244939526e-007 
2.12662624243095e-006 
4.706236435026964e-006 
-4.66676344346627e-005 
1.035405976401524e-005 
2.747030665124294e-006 
-6.473315256824679e-005 
9.643174158891909e-006 
-6.002797678133566e-005 
5.734979005453641e-006 
-9.957295620006481e-006 
-9.350562519007994e-006 
-1.759579750940697e-005 
-2.391814142258491e-005 
-3.395294317367275e-005 
6.49058780988083e-006 
-3.502491276071999e-005 
-3.312775813870188e-006 
-4.292573072784712e-006 
-4.614089259082526e-005 
-2.619821977235742e-005 
-2.924652288010921e-005 
-1.202362755936533e-005 
1.018330699614213e-006 
-6.194893511307363e-005 
-9.751302744836801e-006 
-1.772876919046393e-005 
-4.075582199787148e-006 
-7.41577899252217e-005 
-9.844979413800958e-005 
-3.604237111851212e-005 
-2.603272237163446e-005 
-1.144962181573167e-005 
-1.01051097126083e-005 
-1.180435878752484e-005 
-1.748704956902111e-005 
-2.808904519042138e-006 
-2.259907017125782e-006 
-6.29905162825332e-005 
5.614191272483689e-006 
-5.662225286650812e-005 
-1.583765473758726e-005 
-3.768437974602725e-005 
-1.100340859545885e-006 
-2.14712057618108e-005 
-6.321018776928722e-005 
7.69008506351019e-006 
5.274657826686314e-005 
-2.130914721514581e-005 
4.567865268542484e-006 
-2.212220292324281e-007 
-5.920463932496109e-006 
2.946117185371646e-006 
-7.728753457148001e-006 
1.848085803149816e-005 
2.80670223304141e-006 
-8.296581321896294e-005 
-7.2212943837461e-006 
-2.728316443499206e-006 
2.282295466037915e-006 
-4.361923893011874e-007 
7.395988936684952e-006 
1.082612761842451e-005 
-5.167632530182068e-006 
1.047095106161366e-006 
2.374265014739423e-006 
-2.531571800374633e-007 
-4.187235782630169e-006 
6.788040303529617e-006 
1.962977532861218e-005 
1.977828964198286e-005 
1.436914616538405e-005 
7.927805970202293e-005 
7.940651169903284e-006 
3.915704208181636e-006 
8.643852290688827e-006 
5.124884927947924e-005 
3.934655224482073e-005 
1.945480614229172e-005 
3.227379965392092e-006 
3.631353288080757e-006 
2.690263270729239e-006 
-1.667307894323927e-005 
-1.414476187389817e-005 
-4.235712926397817e-006 
-3.165816229856297e-006 
-4.818517217473012e-005 
-1.602810014045298e-005 
-1.025401403596765e-005 
3.124899271122684e-007 
-8.048384917794986e-006 
-3.251373731426536e-006 
1.170841561830135e-005 
-1.362392019437806e-005 
-9.604724434141106e-006 
2.378587827684065e-005 
-1.726202631850112e-005 
1.272826138307374e-005 
2.554569863683195e-006 
-4.910257228195139e-005 
-1.299530345146078e-005 
-1.186888980888669e-005 
-4.347786385562918e-005 
7.335814349467784e-006 
-1.202032778558806e-005 
1.520893274814426e-006 
3.346791015887201e-006 
-3.011537041525679e-006 
-1.329673495171137e-006 
3.89622658243735e-005 
3.00355684720539e-005 
1.018352887258774e-005 
-1.714641756500346e-005 
-1.157365606893696e-006 
-1.298939847339194e-005 
-6.084938884655595e-006 
-4.364667176015085e-006 
2.037485594616161e-005 
-1.958502967789794e-005 
6.043246065045665e-006 
-6.198063522743276e-006 
5.393979962727632e-006 
-1.312420967803361e-005 
-4.942297545308219e-006 
-1.148650320617256e-005 
3.899509829760336e-006 
-2.879884733430904e-005 
-5.058419986324953e-005 
-3.676083227578102e-005 
4.79487362132908e-006 
1.567637231301219e-005 
-7.526481485532118e-006 
-4.130974273083486e-005 
-5.017956596385778e-006 
6.221177508854894e-006 
-1.970899121043698e-005 
5.273428644786234e-005 
2.006536831743022e-006 
3.729804773585216e-006 
-1.961810784562215e-006 
7.639703535150968e-006 
2.967147738975209e-006 
-3.592045220300901e-006 
-6.913846065347221e-005 
8.303725808343726e-006 
-4.494742092208258e-006 
4.645845620651922e-007 
1.957004832517456e-005 
-2.177143020274484e-005 
-2.837085414503696e-005 
-1.511455540511983e-005 
-3.897730345888294e-007 
-6.216095847333033e-006 
1.835300821345674e-006 
1.92018475786047e-005 
-3.496422247021103e-006 
-4.066331380863573e-006 
1.482283833832098e-006 
1.927118086735665e-006 
3.471693680103501e-006 
-2.10814147744946e-006 
1.864572584708988e-006 
4.403006342391393e-006 
-2.749884085464002e-005 
1.976046540263265e-006 
-2.57958391326444e-005 
-9.739303905200805e-005 
-8.215846264289785e-006 
5.748753861338624e-006 
-5.860392365023259e-006 
-2.249631664089253e-005 
2.437852798452577e-006 
-5.138662777362985e-005 
-1.262754625764823e-005 
-8.596034949792072e-006 
-1.287402318768986e-005 
7.141290406966963e-007 
-5.827840429562072e-006 
-2.984366279246608e-005 
3.35699761941453e-006 
-7.754816534501283e-006 
8.833826241046942e-006 
-5.267263417662052e-005 
9.736413301391222e-006 
1.83311674725636e-005 
1.25177499894152e-006 
-8.79400292049272e-006 
-1.064851492101224e-005 
-6.176035674389072e-006 
-4.311789300174743e-006 
1.159153123932208e-005 
-5.290282013902942e-006 
1.334773964445758e-007 
-5.619845619089424e-006 
1.908459585652596e-006 
-5.487683278008564e-006 
1.830296280772231e-005 
-2.159945692101029e-006 
7.19688775358068e-005 
-2.675911648108708e-006 
-8.058322721760526e-007 
3.136743688314381e-006 
4.340502137836841e-006 
1.537708062774675e-005 
1.22137005993107e-005 
-6.556362626707174e-006 
3.566622064365421e-005 
-8.713803015747207e-005 
-6.000484171660692e-006 
-1.486076824798178e-005 
-1.283935259715513e-005 
-1.540548912262416e-005 
9.7983753842823e-006 
-1.22122493001389e-005 
5.766615965682291e-005 
-1.284501063764426e-005 
2.015609092915206e-006 
-1.199577603828957e-005 
-1.093719425816473e-005 
1.923358297619631e-006 
4.036455204413904e-005 
2.830685209437433e-005 
-1.11644817426628e-005 
-2.663548687231654e-005 
-2.082904674223654e-006 
-4.762171231089871e-005 
-1.182876171353669e-005 
-7.112632830552014e-005 
-1.2018671908608e-005 
3.109338010992747e-006 
5.709052491332586e-007 
-1.372467405361622e-005 
2.516120244343307e-006 
-1.565129950270455e-005 
-1.686928289639245e-006 
-7.183808716963317e-006 
4.192291949887343e-006 
-5.822276668998074e-006 
-1.855219014391911e-006 
-1.765575784817586e-005 
-2.113749888672982e-005 
-5.782228884034338e-006 
2.418973354025811e-006 
-3.653375224474354e-005 
-1.9545658766366e-005 
-8.345293753113852e-006 
-3.216696453145619e-005 
-9.163492347597325e-007 
-1.076569432886545e-005 
-4.03498642212984e-006 
-5.494906111081695e-006 
4.680775911876074e-006 
-2.500760136738565e-005 
-1.712107357992339e-005 
3.965016066978991e-005 
-4.093758325926313e-005 
-5.221500994550962e-006 
-1.976259459099093e-005 
2.639494530662173e-005 
8.736194161949643e-006 
-3.741962801376563e-006 
-2.064934142610748e-005 
-1.75928265377876e-005 
-6.12038074692848e-006 
-1.999622880406901e-006 
8.345999083918683e-006 
-2.485135140927153e-005 
-4.324484097567379e-006 
-4.788687888013534e-006 
1.453524573559013e-005 
-3.367254272189698e-005 
-3.075731814261188e-006 
-3.090121541300516e-005 
-0.0001911498065587372 
-2.033223093889415e-005 
-8.987809111427496e-007 
-2.980569979782387e-005 
-1.499140525864963e-006 
-7.133551996338927e-006 
-2.399629857954418e-005 
0 
-1.872409121658113e-005 
-0.0001169829454329472 
-1.266106635164152e-005 
-9.574175811087633e-006 
-7.445593369949696e-005 
-7.564069372132754e-005 
-8.629121626585812e-005 
-2.104160273765246e-005 
6.98856107283128e-006 
-6.542911004722314e-005 
-1.992224019631659e-006 
-9.315691572357735e-007 
-2.243477053295296e-005 
-1.676427723590482e-005 
-2.174395904715378e-005 
0 
-8.381126246848746e-006 
3.050358348009732e-005 
-1.749141842635857e-005 
2.532123330672619e-005 
-7.568234716754596e-005 
-1.446203770354703e-005 
-6.127341785433283e-006 
-1.420462363932707e-005 
7.44191774826231e-006 
-9.435682771363964e-007 
4.596473386877174e-006 
1.103245598228785e-005 
4.838014404137352e-006 
3.666507377138267e-006 
-5.92228663630086e-006 
-1.042995261692664e-005 
1.243825196221e-005 
-1.09270641146945e-005 
-1.450660265046407e-006 
-1.251828432709556e-005 
-1.586865082139851e-005 
1.737845693732429e-005 
-5.598541361385928e-006 
9.453995044295369e-007 
6.360437945998031e-006 
2.638191523283252e-006 
7.131220573565509e-006 
1.682380251198621e-006 
1.402410991736178e-006 
6.36105193239855e-006 
9.434678236961146e-006 
-8.469464300760036e-007 
5.360458472994686e-006 
-1.582049539106844e-005 
5.070145186214728e-006 
6.994807616084581e-006 
1.213495771743614e-006 
-2.749179394972958e-005 
-2.942596545558208e-006 
-5.17083349737561e-006 
3.08917902129048e-005 
-7.993059349087121e-005 
-1.069620737819748e-005 
2.753247072125105e-007 
-3.928851653162674e-006 
2.817810728376921e-006 
5.316690664619543e-006 
7.31455361384469e-007 
-3.918940377380747e-005 
-1.280703267456819e-005 
-3.629295904205517e-005 
-1.280931814362811e-006 
-8.638944817385704e-005 
-3.939771708745286e-005 
-1.74270482857045e-006 
-1.761610192413084e-005 
-2.093459168588591e-005 
-5.992617076803951e-005 
-5.90694265227577e-006 
-1.577028677198352e-005 
8.632229281826843e-006 
1.090141174403465e-005 
-7.087291458890414e-005 
6.790232460875346e-007 
-2.719324195315447e-005 
-3.826624502167692e-005 
-3.942780622687466e-005 
6.097816694591445e-006 
-0.0001210329807012464 
1.297672266125666e-005 
3.806718921198802e-006 
-3.640639144639397e-005 
3.464108871540022e-005 
1.199422595838383e-005 
-1.084419033193511e-006 
-2.376124355982886e-006 
7.231673666528525e-006 
-1.460006721295134e-005 
2.290333005154363e-005 
-2.526654814377449e-006 
-4.562311247081173e-006 
-4.01141087027253e-006 
-2.639434022017727e-006 
1.094935707249909e-005 
-1.015751840462799e-005 
2.637368645998835e-005 
5.167767031719017e-006 
3.368604778968871e-005 
-3.870611948048235e-005 
-3.622122740204739e-005 
2.051449394797859e-006 
-2.258790580588628e-005 
-6.17680881607372e-007 
1.181895443091737e-005 
-1.41524857645335e-005 
5.676678133818938e-006 
-3.376873490923773e-005 
4.426698994249806e-005 
6.985711864071147e-006 
-2.096379564450611e-006 
-3.025711668286981e-006 
-1.454867342914455e-005 
-4.753170795218424e-005 
4.77289344644898e-006 
-9.31300985959066e-006 
-5.328998432668359e-006 
-6.152664450620793e-007 
-7.278496910133835e-007 
-2.909180888045739e-005 
4.199872989383001e-008 
-1.114032155853835e-005 
-4.506411798260795e-006 
2.239753831432733e-006 
2.249955183526542e-006 
6.015896171164085e-006 
4.396990973010439e-006 
6.584672065006053e-006 
2.063512572550816e-005 
-1.108453085156857e-005 
1.310329202207615e-005 
-9.707840871280319e-006 
2.100356361328423e-006 
-1.126602949565199e-006 
-1.484406134140047e-006 
-7.059475388901114e-006 
1.689166196305463e-005 
-2.726738322214419e-006 
-1.235459866042246e-006 
-7.665975446407564e-006 
2.69419954073762e-005 
-5.298492838384393e-006 
-1.186786324616807e-005 
-3.325321600873161e-006 
3.426696837429109e-005 
2.574479485560404e-006 
3.745534471242546e-005 
1.022448825857176e-005 
2.648064991439663e-005 
3.10889085206745e-005 
3.50830002909512e-006 
3.783189889721353e-006 
8.719990083952877e-006 
1.54687829580486e-005 
-2.713634049345899e-006 
2.475305774494251e-005 
1.891677161305915e-005 
4.342718769574375e-006 
-2.359399056216651e-006 
-2.819091053498287e-005 
-0.0001096822166888668 
-1.476453894466064e-005 
-8.855427847738456e-005 
-3.123471072963743e-005 
-7.813155802061062e-005 
-2.897466158453443e-005 
-4.008608777627327e-005 
-4.384429648553956e-006 
1.380580026462934e-005 
-4.023652539842328e-005 
-4.490805035894621e-006 
-6.305652445545368e-005 
1.552432879333868e-005 
-5.908164842968829e-005 
4.890917522834898e-006 
-6.419390073741967e-005 
8.565030148056186e-006 
-3.239558001357559e-005 
-2.915981621328114e-005 
1.448265061931349e-005 
-4.481895567008897e-005 
-7.592575513138714e-007 
8.679756391460885e-006 
-1.252969733598015e-005 
-3.211607612014171e-007 
-7.164385952584246e-006 
4.666855607023289e-006 
4.460771005068076e-006 
8.731094748959267e-006 
-1.480390814807535e-005 
5.924568846808278e-006 
7.031949418230369e-006 
-1.456473599227926e-005 
-2.906120293666639e-006 
-5.262543967341871e-006 
1.070671172725102e-006 
1.019638923885776e-005 
1.871950686913018e-006 
2.878974490966378e-006 
-2.01035191075652e-006 
-5.432050367958144e-006 
1.184406491287066e-006 
2.698155899732622e-006 
-1.450947804168971e-005 
-1.763238832111863e-005 
1.638654267320735e-006 
4.603644679488894e-006 
5.502274202677808e-006 
-7.722846568515081e-005 
-2.213748343960061e-005 
-1.784885278962966e-005 
-9.72533948611239e-005 
1.193785168069033e-005 
-3.310836116631599e-007 
-1.79744743279899e-005 
-6.468843569170475e-006 
-2.21961411863845e-005 
-1.921642133104162e-005 
1.236264026971061e-006 
-1.098788111593987e-005 
-8.486775296284852e-006 
-1.410756818954652e-005 
4.673843090524731e-006 
-4.42307698756224e-005 
-6.821356433306288e-006 
2.261622254251273e-006 
-1.216244674889949e-006 
-2.487553512385689e-006 
-1.462082575696067e-005 
-2.12578411488197e-005 
9.066019727507787e-006 
-3.0046207797052e-006 
-3.759592468653282e-006 
3.980157571921181e-006 
-5.987275528654535e-005 
1.474678784317242e-005 
2.247648549365147e-005 
-1.735687335940279e-005 
1.403271500281321e-005 
2.971990235590816e-006 
1.882046434975199e-005 
-1.800942654656575e-005 
7.010502672614542e-006 
-1.525788878549832e-005 
-4.718914899862847e-006 
-9.093948044914621e-006 
7.467636297222407e-006 
-1.005084264346478e-005 
6.749717688009429e-006 
4.519565731268031e-006 
8.716241717609188e-006 
2.974351376316895e-006 
-2.268008254963912e-005 
6.78450790976996e-006 
-6.925800358439766e-006 
-3.402629460345867e-006 
-5.046832224461013e-006 
-3.252145705551939e-005 
-1.329995190844548e-005 
8.401160304053929e-006 
-1.821705780925022e-005 
7.287736255287581e-006 
3.512072664482072e-006 
-1.331315352910234e-005 
5.753901055218708e-006 
8.2375614426096e-006 
-2.019594128625182e-006 
1.798740289266188e-006 
1.52170527234988e-005 
-2.625045181256993e-006 
-1.242899397264738e-005 
6.599267591601622e-006 
-9.216073727608131e-006 
-4.778642781703226e-006 
1.014807208542273e-005 
1.042335269502432e-005 
-1.932092783549982e-005 
-3.856276573663499e-005 
6.237480161471902e-009 
2.488523197858079e-007 
-6.476954772479815e-006 
2.055599840578624e-007 
9.260491338656301e-007 
-7.167350996538914e-006 
4.776478126551053e-006 
-1.404992715036572e-005 
-4.226280620975381e-008 
-3.943637214453181e-007 
2.017643184788036e-005 
8.198527825096141e-007 
6.572760825849038e-006 
-3.345465741541986e-006 
-4.903223042792415e-006 
1.195369920551925e-005 
2.908988554016489e-006 
-8.699961059519868e-006 
2.032577534818911e-006 
3.893280579836659e-006 
-1.52275056518634e-005 
-9.241688568974583e-006 
-3.206149551207756e-006 
3.304166001062904e-006 
1.003099086609307e-005 
-1.072719178728349e-005 
-5.909478851249169e-006 
1.081419735911395e-005 
-5.517472630630714e-006 
-3.230096207507314e-005 
-8.552098574718682e-006 
-1.647504828661387e-005 
3.055723531921788e-006 
-6.471224569618612e-006 
9.262780439518699e-007 
2.531552312319125e-006 
1.836405859030476e-005 
-3.924240769589485e-006 
-1.145367295115254e-005 
1.755898786537523e-006 
3.888214851949265e-006 
6.29602934075587e-006 
-3.477270393119662e-005 
-1.237306063234472e-005 
-5.104573769853248e-006 
6.019143267501237e-006 
-9.91311692119111e-007 
-2.873418105440645e-006 
-6.569193929584992e-006 
1.181594030110668e-006 
-1.231486190890644e-005 
-1.320869176870027e-006 
3.838151272067501e-006 
1.066575894697187e-005 
-7.820489736327554e-006 
8.224335404397194e-007 
9.719594924040861e-006 
2.489233109568088e-006 
-1.577999681980561e-005 
4.593096667878251e-006 
-5.783623067679802e-007 
5.933740751880704e-008 
-6.496099824002714e-006 
-2.487061956527756e-005 
-5.908819303268122e-007 
7.578472852635836e-006 
-1.14715232250131e-006 
-4.457977335964891e-006 
-1.403949832497259e-005 
2.576432417512115e-007 
9.082531262873211e-006 
-1.067660591526045e-005 
5.32619542153267e-006 
1.151728985014211e-006 
-1.292005238883318e-005 
2.224588057357707e-005 
-1.39802503613503e-006 
-4.792739878291962e-006 
-8.678177764866241e-007 
-1.958816978702309e-005 
4.43332875262054e-006 
-2.616407511082301e-005 
7.100507260764376e-006 
-1.926672034534696e-006 
2.19519616478062e-005 
-2.450418928085771e-006 
-1.288538233875983e-005 
-5.511401640132277e-006 
-1.685417072595149e-005 
-4.625197584020875e-006 
-9.137834404634546e-006 
-3.527243174125327e-006 
-6.317616680063263e-006 
-1.530586417999312e-005 
4.837295002073847e-006 
-3.466530818117583e-006 
5.293564275254337e-007 
-5.786949307491068e-006 
2.781791239552253e-006 
-7.681640846120397e-006 
9.747923164748562e-006 
-5.478920414910032e-007 
-1.391332842195928e-005 
-3.920554807229357e-006 
-3.983060773458257e-006 
-3.423323437211337e-006 
-4.395673694449495e-005 
-1.086616788772266e-005 
-1.338752689426463e-005 
-4.404638588020905e-006 
3.317082717468623e-006 
1.718803093497352e-005 
1.323065288065185e-005 
1.60423239543127e-006 
8.456552785564883e-006 
8.35908194772339e-006 
-1.306158480864449e-006 
-4.017286766738034e-006 
6.308780920239735e-006 
4.398480324456821e-006 
4.525453249013301e-007 
1.440767595738256e-005 
-1.65076087348134e-005 
-4.909277707260886e-006 
7.699302491632303e-006 
-5.516174066458466e-006 
2.988573406339731e-005 
3.252124374357809e-006 
1.054610370086664e-006 
7.047882181635609e-007 
5.148108660796846e-006 
-7.427243199723464e-006 
4.296810833203664e-006 
-7.431598506615062e-006 
-4.795125279183106e-006 
1.31823570912474e-005 
-1.239150135030219e-005 
-2.315218652144791e-005 
-1.569547803696009e-005 
1.659836127730522e-005 
-1.430432447500894e-005 
5.676891880551061e-007 
-2.486408601781793e-006 
-1.540087233569595e-005 
2.617374317495084e-006 
-2.689188561693174e-008 
-7.804452908091534e-006 
7.844655651676634e-006 
-7.534925169830151e-006 
-1.987565701420596e-005 
-5.640753680496859e-006 
-1.458778250627152e-005 
-8.622171329471028e-006 
1.548525436837013e-005 
3.336081041562667e-006 
1.1789064188667e-005 
-1.246979787190546e-005 
-1.318622217355092e-005 
1.120693256438932e-005 
4.49037445529066e-006 
-1.176182993524002e-005 
-1.07332028534022e-006 
-1.947873163226644e-005 
-9.79241650382546e-006 
1.169703056348669e-005 
-7.075835051016014e-006 
2.566175090876207e-006 
-9.624725113217486e-006 
-5.195487697819766e-006 
5.534253347110214e-006 
-5.106418002167224e-006 
-9.121818145318745e-006 
-3.004618258453743e-005 
-9.746728193910537e-006 
1.046818520285385e-005 
-1.242047652176716e-005 
-7.825441169260306e-007 
2.052615124327997e-006 
-6.921937524433522e-006 
7.976927611427393e-006 
-6.102894140795452e-006 
2.572376275537742e-006 
4.31069601603841e-006 
2.398391070010637e-006 
-5.560543708504922e-006 
-1.420483652119897e-005 
-4.10336633986808e-005 
-4.189033016268715e-006 
6.808324932655912e-006 
7.330719569527716e-006 
-3.827659259099107e-006 
1.925112307452327e-005 
3.059410418799026e-006 
-5.46817629604884e-006 
-1.209674598006127e-005 
-2.459221407686082e-005 
-4.345738455669067e-005 
-2.254268326948946e-006 
-1.185204181362938e-005 
4.577568383203768e-006 
-1.327576734784202e-005 
9.292933710837565e-009 
1.17486149908009e-006 
-2.425011772235648e-006 
-1.442379068314424e-005 
7.291254967298623e-006 
8.418106784742188e-006 
-7.392041351508823e-006 
2.460118301403455e-006 
5.070403365033061e-006 
-6.23994920383378e-006 
1.4468042756465e-006 
-1.85221654403583e-005 
-7.653879346225163e-007 
1.451639925494743e-005 
-1.408771446161223e-005 
-2.641036872049405e-007 
-4.864911824170386e-006 
2.074643521779523e-005 
1.031269740989222e-005 
-2.892702824136561e-006 
6.47799989356286e-006 
-9.11105781575574e-006 
1.354983913882998e-006 
-1.578819338815486e-006 
-7.113471227083853e-006 
-9.389246919841185e-007 
2.532293289481137e-006 
2.369844967029369e-006 
-2.832600602330501e-005 
-7.10239269885315e-005 
-1.092124664453858e-005 
-5.100109923269619e-006 
1.727626652473009e-006 
-1.645905011651155e-005 
-6.180714424607372e-006 
2.420975970362709e-007 
-2.956777328843239e-006 
-2.323619448339293e-005 
-8.716985686603705e-006 
-8.267444525469993e-006 
7.456416907262764e-006 
-1.367324722016144e-005 
-4.310753332727534e-006 
-8.210271011163905e-006 
3.628994286620768e-006 
-1.179477034761138e-005 
-1.825149938698852e-005 
-1.836136496061626e-006 
-1.488419684079239e-006 
3.544141088216445e-006 
-6.127889129391086e-006 
-8.20116475915124e-006 
-8.420341107196018e-006 
4.859125426560123e-006 
3.444396416509358e-006 
1.105100191854934e-005 
-3.934626414104611e-006 
1.409152634739564e-005 
-5.702182294711999e-006 
-5.708494249611904e-006 
2.250836634553745e-006 
3.825363615565434e-006 
1.778164331262423e-005 
7.849779141369748e-006 
-1.439840308301595e-006 
1.655528815480473e-005 
1.954759628272217e-006 
1.502480424511127e-005 
-9.967564378200383e-006 
-4.376047906746873e-007 
-3.242226198662012e-005 
1.703136896779941e-006 
-1.736259420712979e-005 
-1.614919106950382e-005 
9.480918604170641e-006 
-2.211306295097448e-005 
-1.251803823260846e-005 
-1.194105565970112e-005 
-6.506120483871746e-006 
-1.865702636973946e-005 
6.619885591272477e-006 
-2.078240651653896e-005 
8.445056210580001e-007 
5.05441176941153e-007 
-7.658178963232311e-006 
3.549378958413555e-006 
1.612442672995419e-006 
1.126979378301612e-006 
3.057944339985427e-006 
-1.911147284329563e-006 
1.644020659754106e-006 
3.889300605042961e-006 
9.971204623371971e-006 
4.65798041679539e-007 
-4.115782847025409e-006 
-5.955350376780195e-006 
4.745179540553922e-006 
-4.176693904783299e-006 
-1.479905197598786e-005 
-7.813772956801119e-006 
-1.413885368094429e-005 
2.410286197971204e-006 
-2.038047549852057e-006 
5.137637603505451e-007 
-5.346625195495034e-006 
4.97173366169546e-006 
-3.926387116251858e-007 
-1.114486260162498e-005 
2.968650677911453e-006 
5.9403094899807e-006 
9.079689927099798e-006 
-3.091759658730855e-006 
-1.406822936253277e-005 
-3.978083072697537e-006 
-2.041498871356835e-006 
1.128477799753874e-005 
-2.470781270541294e-006 
-3.308189700899615e-006 
-1.183393591432393e-005 
1.878401142678915e-006 
-2.043080608499632e-005 
-4.361899454569302e-006 
2.231078439497559e-006 
-2.955751667113918e-006 
-7.694011399568089e-006 
-2.200441418458621e-005 
2.717112334644661e-006 
6.111190429296349e-006 
-8.290598355636093e-006 
4.951457734725831e-006 
1.531643914088094e-005 
-2.322850106702471e-006 
-1.382760799440057e-005 
-3.901350981554068e-005 
5.388362198418165e-006 
-5.327167816213411e-006 
-3.175938694745489e-006 
-1.0139176537843e-006 
1.046032118600449e-006 
-1.127998141233479e-005 
-8.992127600661201e-006 
1.454830107167613e-005 
-5.548543328889623e-006 
-2.956745288236435e-007 
-1.86062958691793e-006 
1.92276478110705e-005 
-3.688051542677083e-006 
7.042959673407858e-006 
8.498762672690783e-007 
9.068046365931934e-006 
1.373493578106469e-005 
-1.100258237693008e-006 
4.208986001858647e-006 
-2.822424874856717e-006 
-6.528052984518623e-006 
1.934074316898861e-007 
-4.308915337330922e-006 
-1.087111207889985e-005 
-9.693875130367848e-006 
5.507414121076739e-006 
4.650802313156765e-006 
-5.664520911115181e-005 
-1.058925018703059e-006 
1.422613688265229e-006 
-1.721968255058649e-005 
1.307261205814232e-005 
-3.647439412756616e-006 
-1.467377865894439e-006 
-7.107374497937286e-006 
-4.306830533558425e-006 
-3.377676374529958e-006 
-1.963542053397694e-005 
-1.756908491109124e-005 
-6.47735749355933e-006 
5.858739209049716e-006 
1.304338315255685e-005 
-3.107689000981253e-005 
1.341634289853405e-005 
-2.539938487252993e-006 
-1.986384301024806e-005 
1.170575446415058e-005 
-5.252981259321659e-006 
5.770142062612097e-006 
-5.037587958289514e-006 
-5.114772988339983e-007 
1.782814789887169e-005 
-3.704647893473502e-006 
3.274512266024721e-006 
4.983877055204404e-006 
-2.832704872589876e-005 
6.835431943874546e-006 
1.907439508909351e-005 
3.707921778360029e-006 
-9.034169258695091e-006 
-4.001881176134384e-005 
4.741741514008375e-007 
-3.788513630031416e-005 
-3.638709349532686e-006 
-2.251928069811093e-006 
-9.687541661493857e-006 
-3.411150953298139e-005 
-1.367662741714365e-006 
-1.202299985796377e-005 
1.154156754447516e-005 
1.740033368878083e-005 
-2.478859943459433e-005 
-3.692052019117591e-006 
-1.173624831069361e-005 
-1.59011643054557e-005 
1.720138952836368e-005 
-1.50058485771275e-006 
-1.223452514835962e-005 
-6.35072427814935e-005 
9.960599761796855e-006 
-1.991640104560241e-005 
1.392018437770503e-006 
4.754931723020406e-006 
-5.589031942171745e-006 
-8.461314495180186e-006 
5.615927322485579e-006 
-6.859491190361696e-006 
-9.642689000399217e-006 
3.084681994166874e-006 
3.090830856741015e-006 
8.754902648269931e-006 
-6.3550990592305e-005 
-6.392651722967786e-006 
3.043786890262554e-006 
-7.680025487279873e-005 
-6.773920299478439e-006 
-1.436262999892505e-006 
-5.731357206625083e-006 
-1.800853659757624e-005 
-3.296169870184409e-005 
-2.381632611755242e-006 
7.056498539733823e-006 
-1.676918823722545e-005 
-1.443890526248886e-005 
5.787428529070244e-007 
6.687654912763724e-006 
-1.778860109359133e-005 
-9.837088923047315e-006 
1.596674521536173e-005 
2.21042918962746e-006 
-1.788443739551312e-005 
2.761758597765137e-006 
-3.882249198479541e-005 
4.355255710203987e-007 
2.240993458521712e-006 
-4.979944851315465e-006 
-3.57110168670982e-006 
-4.104015601213491e-006 
-8.314862610824711e-006 
-5.515730911983645e-006 
-2.485016224173104e-005 
-1.125053772248235e-005 
3.491554968507455e-006 
-6.675007904903391e-006 
1.426538031284633e-005 
-7.444482230681455e-006 
7.091838010613231e-006 
1.207885181920081e-005 
2.731964482900249e-006 
3.776437304988754e-006 
9.366385046399257e-007 
4.073218013350324e-006 
-1.257499066924505e-005 
-2.407594982321777e-005 
-7.447056673384684e-006 
-2.318995136887185e-005 
-4.953574348079052e-006 
9.197118319651545e-006 
-8.788968767923989e-006 
-7.786615739793445e-006 
-1.129583016778698e-005 
-9.126807796338579e-006 
-4.89362235348751e-006 
-4.728324311636007e-006 
-5.81870507963171e-006 
1.161951849541852e-006 
-1.203881525382949e-005 
-1.891015664051307e-005 
3.159227890494178e-006 
-1.890783521041975e-005 
-8.745662050710225e-006 
-4.618174032392652e-005 
-1.04279935960813e-005 
-6.299729794757212e-006 
1.145237433746702e-005 
-2.486916241962072e-006 
-2.124852768754895e-005 
-6.023506378815368e-006 
4.020902955915712e-006 
9.380599528131562e-006 
3.084021350424799e-005 
1.62016790950966e-006 
-3.549982308762193e-006 
-1.019950008137281e-005 
7.609557123983954e-006 
-1.280355757262402e-005 
5.54543126282413e-006 
-1.824613735889982e-005 
-1.21510923298238e-005 
5.418760553634241e-006 
-1.145858823899486e-005 
2.340533115156403e-005 
1.776795833950192e-005 
5.021516502179381e-006 
7.030556617786572e-007 
-8.112542289095412e-006 
7.242258345625296e-006 
5.075419476951051e-006 
5.51600158222005e-006 
1.929117302239722e-005 
-3.970857828570967e-006 
-3.486826603714116e-006 
-2.125864786639714e-005 
2.474046635325858e-005 
3.12894872292279e-006 
-1.973578156536899e-006 
8.434531882985634e-006 
-4.1128179848938e-006 
3.720405763489674e-005 
3.095808836318069e-006 
-3.366087712548541e-006 
1.47111882845614e-005 
-5.974996740293254e-006 
-1.42740869968442e-006 
1.195473728534967e-006 
-1.893666828581615e-005 
-2.400411309014077e-006 
-1.33247112469167e-005 
-1.731581045065259e-005 
-7.364442229037425e-006 
1.463414181981972e-006 
5.692787796452516e-006 
-2.250941981830819e-006 
1.094893855536757e-005 
4.36676935791146e-006 
-4.660203904558127e-008 
-3.616499319150732e-005 
6.752988912548705e-007 
1.454133799802385e-006 
4.205518286702263e-007 
-3.099633250088661e-006 
1.424991600825117e-005 
2.874670320302222e-006 
-1.306188462754025e-006 
7.99465031003924e-007 
-2.363587761106669e-005 
-5.273980383597077e-007 
5.823845946766152e-006 
-1.294085008137149e-007 
-8.250537777301551e-006 
-2.237321798788527e-005 
1.321913635281835e-005 
1.133468177952928e-005 
4.577874267894859e-006 
8.019085925509933e-006 
3.770046334438207e-006 
-2.145978767575077e-006 
4.513762466365531e-006 
-3.04954236992624e-006 
-1.388512109432297e-005 
-2.571663488562278e-006 
-4.05013667689775e-006 
-5.033683720949317e-006 
1.627574997231081e-006 
2.006064106833269e-008 
-1.934015472585158e-005 
-1.177448433624327e-006 
-8.796119817783005e-006 
-1.45803737583589e-005 
-8.041054303020662e-006 
1.013883691102498e-005 
-6.885453392788096e-006 
-1.846638588218459e-007 
-7.102471324627628e-006 
-7.017326499127941e-007 
4.990035911866115e-006 
-9.408671649989862e-006 
1.968342113440567e-005 
