solver_type L2R_L2LOSS_RANKSVM
nr_class 2
nr_feature 360
bias -1
w
-6.004830261776773e-005 
-0.0001968467374398026 
6.654066610921513e-005 
0.0001254770216672015 
-0.0001356336631938802 
3.673284467970615e-005 
-1.571131033693012e-005 
-9.151690644565512e-006 
-8.481575372012012e-005 
-6.463047549554831e-005 
-2.782654833054728e-006 
6.348566265580103e-005 
-0.0001785190843165438 
-0.000110916326098444 
-4.384041152536317e-005 
4.621979792742289e-005 
-0.0001001871420306346 
9.440464934338097e-006 
-0.000100320489459139 
-7.85067547831075e-006 
-2.792137624833957e-005 
-9.320749659674788e-006 
-9.56560701246008e-006 
1.589824946165819e-006 
-2.120765469765441e-005 
-1.001079635497461e-005 
-1.446995069332014e-005 
7.657866995868154e-006 
1.055943567322078e-005 
-9.386324362799127e-006 
-2.487041447512989e-005 
3.517593076006615e-005 
-1.147405305166337e-005 
1.733632247650394e-006 
-1.352389845933777e-005 
-1.873551498849666e-005 
-5.503697630456135e-005 
-6.986464713677087e-005 
-8.384152633898487e-005 
2.739483356444816e-005 
1.239892029585033e-005 
-1.116802853264868e-005 
5.737633778448691e-006 
-3.652480948803799e-006 
-3.68954947075191e-005 
-1.363246450978549e-005 
4.390803536515512e-006 
-2.413333866323283e-005 
-3.007512223116521e-006 
3.678147545244957e-006 
8.860138434633355e-006 
3.334468386726144e-005 
-1.678587369394547e-005 
2.050698472708551e-006 
-1.098595119456773e-006 
-7.763584443878359e-006 
-3.042808529168998e-007 
-1.421817333719599e-005 
1.743840775515235e-005 
7.196872547460118e-006 
-4.165919812211214e-005 
1.831514352203707e-005 
-1.151532362399756e-005 
2.256743371020806e-005 
1.990809571308293e-005 
-1.128702758184925e-005 
-4.459572528597465e-006 
3.240883507903722e-005 
1.188829413394706e-005 
1.934593001056752e-005 
-2.747556335326288e-005 
-3.917164523177511e-006 
-1.805563218503429e-005 
1.3640092556596e-005 
6.430727831739851e-005 
3.589642375206095e-006 
-1.563436247645874e-005 
1.095097665995051e-005 
2.724376023744288e-006 
2.412116705987026e-005 
-1.872612083805859e-005 
6.121589775085357e-006 
1.887559686606495e-005 
-1.865495988395919e-005 
-1.180052269365072e-005 
-6.980314787906789e-005 
-1.106171692898744e-005 
1.844653956361494e-005 
1.842657346260524e-005 
8.231910024924204e-005 
-1.106001831586314e-005 
1.532923798331776e-005 
1.171909774606124e-005 
-0.0001632100798288398 
-7.961006117480012e-005 
-7.535493428595034e-006 
-5.459352819241878e-005 
-1.056344467414307e-005 
5.418851447253156e-005 
8.053797819401501e-005 
1.252802748188931e-005 
5.259185158250319e-005 
1.463173242955026e-005 
6.674125840510832e-007 
-1.401086778483538e-005 
2.715984341900123e-006 
-1.855429565367794e-005 
-5.607188581457288e-005 
1.325237456671897e-005 
2.004831807679722e-006 
-0.0001199876931027878 
5.282931779989044e-006 
-1.92162046569567e-005 
1.347040962437337e-007 
2.867897402371213e-005 
-2.296220027024233e-005 
1.196521754016512e-005 
-2.315589137640693e-005 
-2.492680971483937e-005 
1.905757449707965e-005 
6.826067845347068e-005 
4.164582603658051e-005 
5.394317213530779e-005 
2.160194861823549e-005 
-5.275504970690936e-006 
-0.0001026451941240773 
5.700365241351135e-006 
2.93951066816489e-005 
-6.371762323683726e-005 
3.659756956245499e-005 
5.592216691912319e-006 
4.783779099138977e-005 
1.185073230388174e-005 
-1.391262687330534e-006 
2.225463139098137e-006 
5.441857439082557e-005 
2.954402900763235e-006 
-1.72753920005793e-005 
-2.41758053745054e-005 
-9.848739230435668e-005 
4.688587481067945e-005 
9.994846567034855e-005 
-9.874782259491103e-006 
-1.826634965303102e-005 
-1.174295349662513e-005 
-4.251195492681723e-005 
-3.417290250143171e-005 
4.388950354786032e-005 
-1.031564691505836e-005 
-4.035266705248287e-005 
1.804602880369588e-008 
1.64719215239324e-005 
-6.787487758759956e-006 
-3.588005948942753e-005 
6.988824649680863e-005 
-1.546865916900833e-005 
-1.502835223047397e-005 
9.35777812591747e-006 
1.780691420719791e-006 
-4.396183081069688e-005 
-5.970886562329254e-005 
-3.837517867483583e-005 
-5.980914650228289e-006 
-3.135080017246641e-006 
-7.018795191739851e-005 
-2.285320189330838e-006 
5.603777204776244e-005 
2.939440552284925e-005 
-2.757635010380826e-005 
-2.461128045618278e-005 
-1.659953948974847e-005 
-6.893361632576469e-005 
1.34514511648815e-005 
-0.0001127927569372282 
-3.198580170472463e-005 
-1.217177702361178e-006 
-4.689976873279169e-005 
1.998259553654238e-005 
-2.539965799469433e-005 
-1.440348810573549e-005 
-9.247842825130416e-006 
9.754018833855143e-006 
-1.417742430194029e-005 
-1.486024582270382e-005 
-1.320315941785073e-006 
1.927565020078061e-005 
3.3976117710349e-005 
1.735369438265962e-005 
-8.278844844398041e-006 
8.642580601593918e-007 
-2.615863751357391e-005 
-1.633965688855899e-006 
3.225524259445325e-005 
-1.633248906021403e-005 
1.921066999993029e-005 
-3.340861762493244e-006 
-1.689855663172497e-005 
-2.996131221538143e-005 
9.685116536719881e-006 
-4.260099831453007e-006 
-3.572196391232578e-005 
6.549583554951998e-006 
-2.410301365011196e-005 
-2.158102523827342e-005 
-1.404149052949122e-005 
1.826183687956209e-005 
-2.156845208984695e-005 
6.23067029667614e-006 
-2.545230099427879e-005 
-1.292344328893549e-005 
3.859262229792104e-005 
7.418426334858672e-008 
-4.054872489155747e-007 
-2.083362370506468e-006 
3.634928323955326e-005 
9.672950127999984e-006 
7.58340296623646e-006 
1.175369817727526e-005 
-2.907856712544726e-005 
3.905477375516593e-006 
-4.801291008510931e-005 
1.503702209206592e-005 
-7.323493940783984e-006 
1.398293624253601e-005 
1.581597178901743e-005 
-2.933861534686085e-005 
-1.058031111238414e-005 
-6.482572149286512e-006 
7.123118475796107e-006 
-2.129523984080277e-005 
2.455279971738438e-005 
2.029013366498294e-005 
8.403953129498987e-007 
-2.066049253955119e-005 
5.450214848770169e-006 
5.778297517047834e-006 
1.028815647676164e-005 
-4.523279695379441e-006 
-2.023607555413645e-006 
5.795163556237482e-006 
1.020869772738016e-005 
-9.647641760204594e-007 
7.160151454702186e-006 
8.523448163284996e-006 
-1.444019992299156e-005 
-1.55536953713631e-005 
-8.158730887054777e-006 
1.043441863080929e-005 
-2.630248539311085e-005 
-1.006066760465442e-007 
-3.449567384060198e-005 
-2.729336889998978e-008 
2.895137258748416e-005 
-9.500350138633361e-005 
-9.470320932947204e-005 
1.432533700332392e-005 
-2.981854149886597e-005 
-4.017048293440157e-006 
3.86410947042422e-005 
3.969753408450959e-005 
1.974770871228573e-006 
9.289479481749545e-005 
6.225316294812331e-005 
-1.093629814783453e-005 
2.67298442670605e-006 
4.552789228870327e-005 
-2.997550571537203e-005 
-9.906813731209948e-005 
-1.008416504618488e-005 
2.167427340456836e-006 
-0.0001240584911795823 
8.00806272169116e-006 
-1.315912013193377e-005 
-2.012941824308188e-005 
7.175223928883359e-006 
-5.170461775229737e-005 
-5.897028008786175e-005 
-4.881734348984358e-005 
-2.096473417935973e-005 
4.564925961403187e-005 
6.312184457046525e-005 
-5.541397247972109e-005 
8.274284735274299e-005 
-5.881812665873426e-005 
1.760798034840308e-005 
-4.697014253718337e-005 
-5.152928186406646e-005 
-2.307568713538448e-005 
-1.799705918210064e-005 
1.995950212677096e-005 
-6.592306536592957e-006 
2.908269286856269e-005 
-1.834209783988779e-005 
6.414797762106684e-006 
-3.219727154555064e-006 
4.048718733432686e-005 
2.616418012503599e-005 
-4.669851064075104e-005 
-2.530193279828282e-007 
-5.794875756037262e-005 
2.927666711104853e-005 
8.74934914195743e-006 
1.740820973780362e-005 
-4.617501159006938e-005 
-6.342334623131801e-005 
-6.416714998635741e-005 
-2.87948496950107e-005 
3.897149962888248e-005 
-7.743993767996083e-005 
-8.89071358302304e-005 
-4.773901586143026e-005 
-1.558260919437728e-005 
5.289411543890222e-005 
0.0001047594748084449 
-1.42472123218215e-005 
6.727245439578756e-006 
-2.401802580736377e-005 
2.035764417344833e-005 
-7.939747348260203e-006 
-2.685977256152709e-006 
-1.725226620842914e-005 
-6.666421893570108e-005 
-1.156186638142e-005 
1.858191715197254e-006 
-2.697924381016403e-005 
4.174066694300152e-006 
-1.755670104187927e-005 
-3.668096968536003e-005 
-7.638126378866126e-005 
-7.727808924543297e-005 
-0.0001584769308327739 
-1.333936320701706e-005 
-1.905516205995239e-005 
-5.935278915127584e-005 
-0.0001382455618823737 
1.385990377423498e-005 
-1.435286612528621e-005 
-2.132550367252287e-005 
1.368135550092869e-005 
-2.773618861485087e-005 
-0.002568685803613801 
0.0001601374434509224 
8.668536755457432e-005 
2.862331468939375e-005 
-0.002754769202774784 
-0.0002496633437058164 
-0.0003049391146970584 
-0.0004931818080398705 
-0.001612949073254824 
-0.0003001711768171668 
0.0001135057420284512 
-0.0003385245798218627 
-1.263460733305868e-006 
0.0001090049046911221 
5.459298033331594e-005 
0 
-0.001020777729624313 
-0.001141917633220554 
-0.0003722351191607706 
-2.088661809102522e-005 
