solver_type L2R_L2LOSS_RANKSVM
nr_class 2
nr_feature 6620
bias -1
w
-9.605210887993894e-005 
-0.000306513809895162 
7.067742834470201e-005 
8.241590635995409e-005 
9.098055386200057e-005 
-0.000177510629489696 
-7.591610653236648e-005 
-4.234490263709411e-005 
-1.981816306335894e-005 
-0.0002539974231344247 
1.103860886798447e-005 
-1.874488882390414e-005 
-0.000123766954829488 
-6.478159245078756e-005 
-2.841442088232453e-005 
-2.180473185142597e-005 
-2.013711517098351e-005 
-8.781773148433177e-005 
0 
-6.417419502848933e-006 
2.483594514480694e-005 
-1.646550283961603e-005 
0 
-1.481319317963363e-005 
-4.70529908897076e-005 
-1.052126890743311e-005 
0 
4.194825777081182e-005 
-2.789995701179676e-005 
0 
0 
-3.472630010730934e-005 
1.123779440618187e-005 
0 
-2.902904908652491e-005 
0 
-9.790937946495089e-006 
0 
-1.69027708364633e-005 
-1.510065062542055e-005 
1.790784913789864e-005 
0 
-1.363815661928313e-005 
-5.885710475808626e-005 
1.103860886798447e-005 
2.349139315669975e-005 
8.461145548026091e-005 
-0.0001009916797281222 
0 
2.812468456725489e-006 
-0.0001164182245181968 
-1.389652350757719e-005 
8.995158373486823e-007 
-0.000115355969468478 
-0.0002259798595091525 
-0.0001899280254888543 
-0.0001159061080360697 
-9.203388767328131e-005 
-0.0007195963904782255 
0.0001268832329515871 
0.0001300195890140795 
0.0001647393388431258 
6.869175231558515e-005 
0.0001098153068588445 
7.027525667747684e-005 
-6.172378030571385e-006 
7.571645909716651e-005 
3.550982882134874e-005 
1.534219469535953e-006 
8.753048911680871e-005 
0.0001036688033623436 
1.246977677497286e-005 
3.513157161223349e-005 
0 
1.628115446716064e-005 
-3.975363537528194e-006 
-0.0001321402434698004 
0 
-3.520562301860519e-005 
1.646902167064149e-005 
0 
0 
-2.789995701179676e-005 
0 
1.542036059987238e-005 
0 
2.996905968761113e-005 
1.393433804690642e-005 
2.535628543257306e-005 
0 
0 
-1.575788992711758e-005 
0 
0 
2.440781364046974e-005 
7.531163199723723e-005 
3.666504266336712e-005 
0 
0 
0 
0 
0 
-4.208614041641301e-006 
8.532891580484181e-005 
1.798117433408495e-005 
-1.848635336129881e-005 
-2.789995701179676e-005 
-1.561777952037621e-005 
6.515166066139369e-006 
1.214607517805044e-005 
0.000105091758010829 
3.77473033983783e-005 
-1.350571905683865e-005 
0.0001502697462067447 
-4.044774829240345e-005 
0.0001554288201940406 
2.611614644086729e-005 
-0.001146695236893443 
-8.528988487241952e-005 
-0.0001750433032797685 
-3.055888092881305e-005 
-5.691254805000457e-005 
0.0001065034281067522 
3.535078583758552e-005 
4.808892477400305e-005 
5.392840825486094e-005 
-0.0001555954688363685 
-6.025358254542547e-005 
2.585739070253178e-005 
-6.6536123342694e-005 
1.231608357658267e-005 
4.346293607385156e-006 
7.669092274973443e-006 
-1.255021251350059e-005 
4.767038117316448e-005 
6.167181827235862e-005 
1.31607988379494e-005 
-1.69027708364633e-005 
2.152169295284112e-005 
0 
0 
2.335483314411824e-005 
4.472373931098212e-005 
7.985530379677879e-005 
0 
3.258010031991838e-005 
-5.910702328059664e-005 
1.103860886798447e-005 
0 
7.872002412902233e-006 
2.535628543257306e-005 
0 
0 
5.021715067411033e-005 
3.12294898758906e-005 
1.943482072517588e-005 
-5.536772807507796e-006 
5.188680058634435e-005 
0 
0 
7.669092274973443e-006 
3.187000993671638e-005 
8.536437144825818e-005 
-6.117256270973454e-006 
0 
4.468647765550842e-005 
1.646902167064149e-005 
0 
4.22608727360924e-005 
5.600418789633574e-005 
-3.580897758045363e-005 
8.571856926889878e-005 
0.0001458713506910633 
7.189541611873072e-005 
-9.371670374629821e-006 
2.10349827053352e-005 
-0.002648025675886048 
-0.0001524112725012599 
-8.051291452374423e-005 
-1.291882554836778e-005 
5.651488308310368e-005 
-2.919407256587878e-005 
-8.449145795727398e-005 
-0.0001059919342265387 
6.795055842332453e-006 
-0.0001348531860685181 
-0.0001704458659873221 
-7.587526218008927e-005 
9.406675161277761e-006 
1.063268628827896e-005 
-3.834395721893625e-005 
-1.576377096436261e-005 
-2.325857417223043e-005 
1.00457550401641e-005 
0.0001643449971379829 
-8.161096862628912e-006 
-6.582902635483711e-005 
8.876796184295823e-006 
-1.69027708364633e-005 
0 
-4.173967512957023e-005 
1.344906511199097e-005 
4.739016017025482e-005 
0 
7.669092274973443e-006 
2.185263951826886e-005 
6.515166066139369e-006 
0 
-8.300539063382499e-006 
7.938175992323023e-006 
-2.734223176228937e-005 
-9.252898952243996e-006 
5.130608026099558e-005 
-2.153586027689572e-006 
-5.536772807507796e-006 
2.796621563779007e-005 
4.284860082332622e-006 
-9.441142915525581e-006 
-3.514589352465947e-006 
7.669092274973443e-006 
-4.137617540054879e-005 
1.393405083138524e-005 
3.655646985874411e-006 
-1.670680669638004e-005 
-4.272728325951466e-005 
-2.619158736252598e-005 
-3.392643374612748e-005 
-8.372297277851442e-005 
-3.754277682866602e-005 
2.182903607125352e-005 
-9.732674680856808e-005 
9.347847519670869e-005 
-9.809986224620557e-005 
-9.531715303439418e-005 
-0.0003579037365295146 
-0.000895752458105231 
8.773811972397751e-005 
-1.754132899169801e-005 
3.103262793255952e-005 
-8.967140750304039e-005 
-0.0001746431935545089 
0.0001253717486795787 
-0.000147077583327109 
-3.688336743694604e-005 
-6.204259507814817e-006 
-1.914958659421589e-005 
0 
3.150057991856486e-006 
6.544671585797103e-006 
-0.0001239040143977761 
-1.522231877603435e-005 
-5.524218877408614e-005 
-3.708697339247509e-005 
3.917156863710353e-005 
0 
1.022788622685635e-005 
-0.0001005944461241265 
-9.252898952243996e-006 
-9.337474743393961e-006 
-2.426447111565914e-005 
5.327750998223053e-005 
-3.287900456979715e-005 
0 
-4.066904307273108e-005 
-1.89329334622272e-005 
0 
0 
5.055993627058005e-005 
-1.536479861827866e-005 
0 
0 
-2.067612449238575e-005 
0 
0 
3.524130435486822e-005 
-5.74655683060934e-005 
2.912058096018954e-005 
-2.789995701179676e-005 
1.162454949338986e-005 
5.295261515111721e-005 
1.214413296730169e-005 
3.785580240963372e-005 
-0.0002485140223407692 
-0.0001248815148961208 
1.317631284213546e-005 
-6.89617975327789e-006 
-6.083017168949842e-005 
-4.225893032098675e-005 
-1.616451140063681e-005 
0.0001227754055401202 
-3.321160706857055e-005 
3.122674430771136e-005 
8.058872374873219e-005 
-0.0001584362142436299 
-0.0001752047249002646 
8.850488606177431e-006 
-0.0002847975298863184 
5.887004052083998e-005 
7.61310600070802e-005 
-7.376166361109285e-005 
-0.0001708447218293395 
9.255608031112465e-005 
0.0001086053537918199 
-5.276533500931851e-005 
3.312875959019218e-005 
-2.756157259770244e-005 
5.924353722040545e-005 
-2.082314957887176e-005 
-2.331990036258532e-005 
2.152169295284112e-005 
0 
-1.244013587466569e-005 
2.232658368850941e-005 
0 
4.370043707805827e-005 
2.165802595696726e-005 
0 
0 
0 
1.492382625777481e-005 
2.715095442269091e-005 
0 
-1.140654594440948e-006 
5.267601334661904e-005 
2.912058096018954e-005 
0 
2.897687625559077e-005 
3.967518975853605e-005 
7.669092274973443e-006 
0 
2.165802595696726e-005 
7.442501396088907e-005 
0 
0 
-2.557211366782476e-005 
0 
-5.006581415232662e-005 
1.040482555250394e-006 
1.345819534108994e-005 
-2.931876399511334e-005 
3.152237224533458e-005 
-5.281844969798281e-005 
2.778588719310028e-005 
-1.514941307920864e-005 
5.361039629501264e-006 
2.58028838815314e-005 
2.490142367958838e-005 
0.0001846443538874098 
-0.0001173772759468836 
-4.01825646080486e-005 
4.784618788429891e-005 
-0.0002016106650126258 
8.143599247727892e-005 
-0.001491180490546902 
-0.0004826190835272257 
-0.0002082081179662116 
7.457853844699087e-005 
7.711141570208431e-007 
2.391350447567155e-005 
9.010927840486738e-005 
3.715014736542512e-005 
4.817656168069042e-005 
3.304658287552245e-005 
-0.0001848065676130268 
3.708643307593624e-005 
3.525350440574096e-005 
1.680935746154913e-005 
1.17443701370634e-005 
1.949198575319698e-005 
-8.961023017243637e-005 
3.173931644891548e-005 
-0.0003947472345029024 
-5.536772807507796e-006 
0 
-7.7600673399166e-006 
0 
0 
0 
-6.381339629176386e-005 
4.450961135141635e-005 
2.535628543257306e-005 
2.296399001223933e-005 
-1.369818863134175e-005 
-9.252898952243996e-006 
0 
-0.0001249758279881268 
-4.096706377643769e-006 
0 
0 
2.481596601840564e-005 
5.626080452279796e-005 
4.510107462762874e-005 
3.133548322729759e-005 
-5.637747691138663e-005 
0 
7.669092274973443e-006 
5.561883423876561e-005 
4.310400625861748e-005 
1.794593236720824e-005 
3.590754118896596e-005 
-2.630115407542663e-005 
-1.712161461168727e-005 
2.206760314482173e-005 
1.348754568043504e-005 
4.130450645566436e-005 
-5.11425349097553e-005 
-0.0001943818159593403 
1.533396237988465e-005 
0.0001481979544511577 
-0.0004377067732314171 
-4.356618187043171e-005 
3.190585561428187e-005 
-0.0007888006279954009 
-0.0002397291145218322 
-0.0001736022023486811 
5.998417886386353e-005 
4.073309856957032e-005 
-6.945449039644465e-005 
0.000134022299807829 
9.209782894056975e-005 
-1.860383371049447e-005 
-5.615576185162257e-005 
2.473361474155823e-005 
5.195433030803019e-007 
0 
-4.859809423527703e-006 
-5.804482021847594e-006 
6.515166066139369e-006 
-6.047830565392129e-006 
-1.8303309990928e-005 
6.358313937102471e-005 
0 
0 
0 
0 
0 
1.704979144579041e-005 
5.591100492472101e-005 
-1.633732266880344e-005 
0 
-9.559602262031532e-007 
-1.575788992711758e-005 
0 
0 
-7.282967926462152e-005 
0 
-1.946993658315564e-005 
0 
-2.583141135774477e-005 
-1.950398133127502e-005 
0 
3.052850049880079e-005 
4.126905215532567e-005 
1.830935594332861e-005 
0 
3.133548322729759e-005 
-5.656902060302006e-005 
-2.153586027689572e-006 
-3.746275045803862e-005 
-6.550615646683833e-005 
-2.372640816339972e-005 
3.754665651241481e-005 
4.592001786461927e-006 
3.475379142681164e-006 
0.0001505594818959554 
5.209205313882013e-005 
0.0001068526728890547 
-0.0001556855058646118 
-8.234167543793447e-005 
-6.93716130755143e-005 
-0.0001082188684656301 
-0.0007188283325015726 
-0.0001396196815583186 
-4.368087214889731e-005 
-2.912919382714326e-005 
6.613558569112647e-005 
0.0001892655481513125 
0.0002573390248773275 
-4.023123117116031e-005 
-0.000104239199591008 
-6.474482042640212e-005 
-2.717639168938342e-005 
1.361053801705796e-005 
-3.85263865418016e-005 
0.000155475481817198 
6.593140562126748e-005 
-3.199618133703149e-005 
-1.69027708364633e-005 
-8.819668045532377e-006 
9.51605052584244e-006 
0 
-3.472630010730934e-005 
1.057751926608279e-005 
0 
3.755708603754161e-005 
0 
-4.291361384003744e-005 
0 
0 
4.329451944457092e-006 
0 
0 
0 
-3.676966043650179e-006 
-3.640369565748381e-006 
0 
-5.10413362885412e-006 
3.223605749306268e-005 
0 
0 
-1.950398133127502e-005 
4.125706526954936e-005 
3.068636644108429e-005 
0 
-3.475067682022339e-005 
-1.399234416957795e-005 
-2.734223176228937e-005 
-9.182884981110159e-006 
6.351877579118563e-005 
-6.500170497422339e-005 
-4.53238081657854e-005 
1.768017512843849e-007 
-2.805953964281839e-005 
-3.631689326913165e-005 
-9.711058988871686e-005 
8.629052492472686e-005 
4.686218370404759e-005 
1.479889363110564e-005 
6.067523307367386e-005 
-2.783043943223094e-005 
-0.0003141283278423904 
-3.169313096777132e-005 
7.253908801070955e-005 
-5.752376898342363e-005 
-5.323064590766336e-005 
9.262572960855204e-005 
-5.506133379566187e-005 
-3.928777637366777e-006 
-2.692461750424752e-006 
-5.841282571857346e-005 
4.924135910503249e-005 
-5.744372115204046e-005 
-0.000109130696228381 
-3.870956190625768e-005 
7.24019963690811e-005 
2.363077591115035e-005 
9.772877636347992e-007 
0 
3.486535222474076e-005 
3.052850049880079e-005 
0 
3.568650627542539e-005 
0 
-9.441142915525581e-006 
0 
1.520237909682278e-005 
-1.08906783317001e-006 
0 
-5.691596788730475e-006 
4.224940368601628e-005 
7.364779915583494e-006 
0 
-9.569038805365228e-005 
1.287579587228272e-006 
0 
0 
-9.217922310116629e-007 
-1.379963976206028e-005 
4.346293607385156e-006 
0 
-1.781085560014586e-005 
0 
0 
-3.485844886495298e-005 
0.0001866751923024713 
-0.0001426093613277358 
8.361738280990623e-005 
2.909260014360443e-005 
0.0001760819477380586 
3.522349527024768e-005 
-3.085073438215022e-005 
7.506792736376668e-005 
-6.833537895183248e-005 
0.0001256444184548549 
0.0001471936368829189 
4.973442857204829e-006 
8.33779652913017e-005 
-2.616854356996426e-005 
3.825023614155958e-006 
0.000111123335592872 
7.291915564178898e-005 
0.0001334988590651824 
7.892196753597491e-005 
5.990000633932541e-005 
6.324085528436622e-005 
5.152675674075786e-005 
2.774640066193492e-006 
-6.640402240704151e-005 
5.400658294893149e-005 
1.698098330273493e-005 
-8.902166753763469e-005 
8.226845493670785e-006 
2.432525170351513e-005 
-2.355067582023267e-005 
-3.206536907462001e-005 
1.393433804690642e-005 
-1.500963601060958e-005 
1.607999496819409e-005 
0 
-8.314214578588282e-005 
0 
6.515166066139369e-006 
3.891841635145935e-005 
0 
-4.033853474190702e-005 
-7.566869179081956e-005 
0 
-2.656428106454873e-005 
-3.738799699273302e-005 
3.686807992298576e-005 
0 
-3.473802749503418e-006 
-1.423767881888814e-005 
0 
-5.536772807507796e-006 
-1.646550283961603e-005 
0 
1.393405083138524e-005 
7.669092274973443e-006 
-9.559602262031532e-007 
2.520529173401484e-005 
0 
5.512106639647439e-005 
-0.0001837504429973557 
-0.0002723624461255388 
-2.143247394082941e-005 
-4.271315019143044e-005 
2.198025709261801e-006 
1.103860886798447e-005 
7.975242535452487e-006 
2.69457785582561e-005 
3.341492161904483e-007 
3.157580433853527e-005 
-2.075019886533491e-005 
-1.981919358538125e-005 
-7.883339264847059e-007 
1.165065441145273e-005 
-2.290578533439491e-005 
6.894562689551064e-005 
-8.318334604563206e-005 
0.0001134931081699726 
5.233010228036203e-005 
-2.895212543139755e-005 
0.0001884402772022988 
0.0001263211201335133 
3.439159997819707e-006 
-1.968131296276302e-005 
-0.0001551461967250806 
3.044366514157181e-005 
0 
-3.288970564500283e-005 
-4.376294333691921e-006 
-6.404375912517147e-005 
-3.957434749022618e-005 
-2.734223176228937e-005 
-1.522231877603435e-005 
9.515917788948279e-006 
0 
0 
-2.93546541928975e-005 
-9.163631735309532e-006 
0 
-3.738799699273302e-005 
-3.842312471297576e-005 
1.692485362319033e-005 
0 
-5.551388383700115e-006 
6.732157813231154e-007 
0 
0 
1.334711496976859e-005 
8.956899418088935e-006 
0 
0 
8.71872584902058e-006 
-5.689197832400802e-005 
0 
-9.252898952243996e-006 
1.262727089042133e-005 
0 
0 
-5.094867380831216e-006 
-4.123987201863619e-005 
-2.311976486870788e-005 
1.069158639873751e-005 
0.0001819508332537307 
5.224532439542654e-005 
0 
-5.536772807507796e-006 
-0.0001502523471687667 
1.840144886810514e-005 
-8.881802163100373e-005 
-0.000385534787349513 
-6.459459081529118e-005 
3.280902579950949e-006 
-6.430404393696568e-005 
6.048626299875152e-005 
-0.0001742684935275616 
-9.93265845457462e-006 
-2.94929953269321e-005 
-1.393531849089453e-005 
1.872543353633241e-005 
0.0001238398424370044 
0.0001432625089403292 
-2.528772042616861e-005 
5.644492425037142e-005 
0.0001342968508322031 
-7.664557571207432e-005 
0 
-1.558466030910836e-005 
2.624537657347536e-005 
-3.444679803861483e-005 
4.175570876496542e-005 
1.21061744264373e-005 
-2.229399627776121e-005 
-0.0001024319280508872 
0 
3.198759524303817e-005 
3.477794615175991e-005 
2.291012576215538e-005 
-4.124138255824428e-005 
0 
1.630114699847277e-005 
6.515166066139369e-006 
0 
4.027793251511169e-005 
4.582730412916961e-005 
3.432544031838632e-005 
-5.10413362885412e-006 
2.085061034665797e-005 
-1.125593912094238e-005 
0 
-9.252898952243996e-006 
-7.324006445058447e-005 
1.198510316895918e-005 
0 
0 
3.367073904589768e-005 
-1.522231877603435e-005 
0 
5.18028452858291e-005 
5.241221205528444e-005 
2.759387040191522e-006 
7.272617125712886e-005 
-0.00020196847522715 
-5.54492169955947e-005 
-0.0001173435515446629 
5.015231660035618e-005 
-6.280956786002364e-007 
2.858519502534402e-005 
5.333765088788007e-005 
-0.0001835624436295163 
6.932972554811936e-005 
-0.0001290155980077695 
8.493637084901342e-006 
6.453210092546804e-005 
0.0004121512273084267 
-0.0001113727599721203 
-1.033257257199018e-005 
4.44252173875833e-005 
0.0001165344546033466 
0.0001993972381803751 
3.040134033886952e-005 
-7.194038213435562e-005 
6.923541874684067e-006 
1.219277661213272e-005 
8.140146227920006e-006 
0 
-1.60778311819669e-005 
1.208496813629225e-006 
1.553344327199057e-005 
-5.514224352853396e-005 
-1.255021251350059e-005 
1.123779440618187e-005 
-7.851648739087659e-005 
0 
1.214413296730169e-005 
-1.481319317963363e-005 
1.123779440618187e-005 
0 
-9.325469545622317e-006 
7.750270996493619e-006 
5.634815136592761e-005 
0 
-2.207522233374745e-005 
-3.48434953762923e-005 
0 
0 
3.841089206945983e-005 
1.863724654476362e-005 
0 
0 
-1.832786050778209e-005 
0 
0 
-1.052126890743311e-005 
7.57667831010132e-005 
0 
-5.578326112439336e-005 
-1.645785773586719e-005 
-1.218321710169642e-005 
3.387733166954388e-006 
3.087233411996145e-005 
4.590383295637165e-007 
2.335483314411824e-005 
2.665692210726741e-005 
-6.841474090560044e-006 
1.121888621344076e-005 
3.325790529507881e-005 
0.0002292403756352788 
5.897117733080025e-005 
0.0002234868769965197 
2.934602395500636e-005 
-0.0003428122384912748 
-6.723843474000448e-005 
0.0002102031563012686 
-0.0001250335610800538 
0.0001773542185876129 
4.930720464176938e-006 
9.461151108466995e-005 
8.597532427227207e-005 
-1.940079246308543e-005 
-1.312542833650223e-006 
-1.63508548443938e-006 
-1.925130124931291e-005 
-0.0001451576069401938 
0.0001068815406614399 
2.883059275936913e-005 
3.088561364445736e-005 
-3.39778021696119e-005 
9.726266414005252e-005 
0 
3.813390027879907e-005 
-0.0002312181913193063 
-9.441142915525581e-006 
0 
-8.424920694399807e-006 
7.018079099810009e-006 
0 
0 
-4.523363133599451e-006 
-1.213820314368375e-005 
0 
-5.516257782373705e-006 
2.510857533705516e-005 
0 
0 
-3.321321013510203e-005 
4.523994933139302e-005 
0 
1.005662898822494e-005 
2.988255982150198e-005 
-1.481319317963363e-005 
-2.448529083060189e-005 
0 
3.133548322729759e-005 
0 
-2.844102936210407e-005 
8.873341946374536e-005 
0.0001044743516321126 
5.833794253555494e-005 
0 
2.95080643928137e-005 
-1.176938796748561e-006 
4.573417093528685e-005 
3.647120169249453e-005 
-0.0002322944986815845 
0.0001394086224506574 
-0.0001191179176922722 
6.913146851852808e-005 
0.0001756509701992018 
-0.000353900148635116 
5.837635213658459e-006 
4.801318323490941e-005 
-0.0002420648665285272 
-0.0005901633834514086 
9.558429415330616e-005 
-6.725155902320788e-005 
6.58967258182803e-005 
-4.888705747411321e-005 
1.730179590260754e-005 
-5.81156492109094e-005 
-3.578004149853012e-005 
-0.0001409403441117814 
8.378862466726039e-005 
-9.252898952243996e-006 
-9.623328752176303e-005 
9.48595898609374e-006 
3.593221843791236e-005 
4.643511499182756e-005 
-2.571840179186e-005 
-5.554227298160542e-005 
-6.09759932039365e-005 
0 
0 
6.245646000341412e-006 
0 
0 
0 
2.509519990259287e-006 
5.087922973012256e-005 
0 
-6.639044030553027e-005 
-1.599557386082556e-005 
4.391346224291169e-005 
1.317631284213546e-005 
-1.919871687265374e-005 
-3.77505459451448e-005 
-9.559602262031532e-007 
-2.902904908652491e-005 
1.292893596382747e-005 
2.163700917543014e-005 
0 
0 
-3.241912501923354e-005 
3.575528053192565e-005 
-9.441142915525581e-006 
5.439540937671824e-005 
-4.948853046056019e-005 
-4.099124187560466e-005 
-0.0001043216866221058 
5.293786392713817e-005 
4.692448581324609e-005 
-7.465480038260567e-005 
-6.782297070469161e-005 
4.766524515064902e-005 
-2.520007317736921e-005 
-0.0001148551178737052 
6.107173308177372e-008 
3.332665995129068e-005 
1.197750152877649e-005 
-7.10764409371722e-005 
-2.449668535057708e-005 
-0.0003135754298328196 
-0.0001100652249279928 
0.0002208201308219865 
0.0001372153576428469 
1.076324873088644e-005 
2.234334742088818e-005 
-9.940052303125781e-005 
-6.316009928681962e-005 
5.566173368105858e-005 
0.0001627013194553147 
-3.646296244258094e-006 
1.584280179685419e-005 
4.214225422700665e-005 
-2.513491760664146e-005 
-3.426173303113728e-005 
0 
0 
2.236617360886095e-005 
0.000101282529198759 
0 
1.072978505216824e-005 
1.757899488903727e-005 
0 
1.228165302258111e-006 
0 
2.601840456779187e-007 
5.086406373589821e-005 
0 
-8.759966588206638e-005 
1.794948792548938e-005 
-5.10413362885412e-006 
0 
-5.755778309404582e-005 
1.231608357658267e-005 
0 
-3.560742754574326e-005 
2.401505280299548e-005 
-3.909463478163006e-005 
1.07418709025534e-005 
-1.522231877603435e-005 
3.81644328373895e-005 
-4.225635826952105e-006 
0 
2.624192318458603e-005 
-0.0002101663514478432 
-6.105984712238528e-006 
7.984671376173111e-005 
7.903450829193493e-006 
-9.183691059062864e-005 
-2.629729566105684e-006 
1.992454824793375e-005 
1.80218451547104e-005 
9.238453715071803e-005 
7.260329280893797e-005 
-1.068763692061267e-005 
-8.764648598657312e-005 
8.520083845558384e-005 
-6.370640841814948e-005 
-5.330399216480376e-005 
0.0003900633043010035 
-0.0004085394995415461 
9.146898870615178e-005 
-0.0002268422070008575 
2.254614801395819e-005 
2.98399132017104e-005 
-8.646519618364295e-005 
1.078302999664066e-005 
7.479878103991671e-006 
-6.035573741137633e-005 
-4.507733396388675e-005 
1.547023485040024e-005 
1.933035582204364e-005 
2.073094150612565e-005 
-2.936996489510711e-005 
3.514247969558692e-005 
2.211157560349283e-005 
-4.748107385591677e-005 
-0.0001735127630723429 
0 
-2.206604684389956e-005 
0 
1.123779440618187e-005 
0 
1.269772442387661e-005 
7.186311573845278e-005 
-1.189299342882164e-006 
0 
4.215964509292241e-005 
2.205276075748666e-005 
2.152169295284112e-005 
0 
2.582901846081429e-005 
4.852679498091414e-006 
6.515166066139369e-006 
0 
2.064907441870317e-005 
8.979676428141286e-005 
0 
2.685134088749906e-005 
3.287776137075267e-005 
1.393433804690642e-005 
4.382980223450497e-005 
-3.227847308858311e-005 
1.28516252684791e-005 
7.389468335062518e-006 
-3.487823752360188e-005 
-4.29966062905725e-005 
2.070447839129966e-005 
-0.0001371851712080555 
5.941901132624773e-006 
9.654689225470203e-005 
0.0001054450567556714 
-1.260387161924897e-005 
4.131407644107218e-005 
-4.45860626899274e-005 
4.127467479698272e-005 
2.518067575672074e-006 
-1.642363953006854e-005 
-0.0004541773090738105 
9.94440305965434e-005 
-0.0001091440274441668 
8.891792523537093e-005 
4.527136202306365e-005 
1.528239481215012e-006 
6.123566479530171e-007 
-8.387969463172436e-005 
1.460868597757756e-005 
-5.207653679241377e-005 
-3.091363094534172e-005 
5.761988184833828e-005 
0.0001553793970200214 
-1.37656414792673e-006 
4.444168843891269e-005 
2.494637627329494e-005 
4.153809993094832e-005 
2.698758446871518e-005 
-6.280586145502467e-005 
3.206618843826547e-005 
0 
-7.326404403680069e-005 
0 
2.547363038123395e-005 
3.23106867146057e-005 
-3.749638805020817e-005 
0 
0 
1.253508865527644e-005 
-4.038222530766661e-006 
3.963437135176079e-006 
0 
9.000753267588613e-006 
6.313608040375305e-005 
0 
1.393405083138524e-005 
-4.611602613010691e-005 
1.231608357658267e-005 
-5.536772807507796e-006 
0 
4.460177305152793e-005 
-2.237525230585276e-005 
3.198759524303817e-005 
-4.140583876735667e-006 
-1.548976105472202e-005 
6.818061466604698e-005 
6.84519913608504e-005 
5.812548723908643e-005 
-6.181746131401089e-006 
1.638056972023054e-005 
-3.998126746019341e-005 
-6.986874787190309e-005 
-2.845127467327217e-005 
-8.152815033290164e-005 
-0.0001132891853139302 
2.613751607657682e-005 
-1.85159970835839e-005 
-0.0001802708245802536 
7.876262343592027e-005 
7.756306975781521e-005 
-3.139018051440033e-005 
-0.0001621128822242217 
-2.038640924887063e-005 
-1.29697627183387e-005 
-4.490931506072711e-005 
-4.00360290428965e-005 
-2.399773332761642e-005 
7.702218011555658e-005 
3.64030799790315e-007 
-2.087822917985847e-005 
4.346293607385156e-006 
3.704292015334462e-005 
7.637904163874216e-005 
7.287699754712478e-005 
3.733610290786272e-005 
2.397485732167422e-005 
-2.959019428939668e-005 
-3.378856559790853e-005 
1.646902167064149e-005 
-9.252898952243996e-006 
3.344270538750717e-005 
8.956899418088935e-006 
-1.758299206120007e-005 
4.346293607385156e-006 
-2.478806853647548e-005 
9.769989665323773e-005 
0 
-2.237737814965075e-006 
4.371742129949922e-005 
0 
1.646902167064149e-005 
2.474608828393985e-005 
-2.130054377187038e-005 
0 
1.835146317680091e-005 
-4.676360604591641e-005 
-1.803751392051063e-005 
-1.652799438531719e-005 
-2.590664575514161e-005 
-0.0001074632481209863 
2.110870956721904e-005 
-2.676115930339362e-005 
-1.494233684962888e-006 
8.127006589054333e-005 
1.4964989123006e-005 
-2.768719896723241e-005 
5.980789945916585e-005 
8.512215647022488e-008 
-3.534360839707697e-005 
-1.041623433231905e-005 
-6.768720314382584e-005 
7.713287912390142e-005 
-3.969865625816548e-006 
-0.0001531031780030496 
7.595775800630419e-005 
-0.0001349564276550231 
0.0001172510088652458 
-9.314231178997184e-006 
-0.0002278799697804528 
-0.0001296435783172581 
-0.0001013596738151946 
-0.0001133790730285456 
-9.298509434437269e-005 
-0.0001890342262421019 
-0.0002611665702740316 
-0.0001589880549067777 
9.242899656036931e-005 
4.709051912500541e-005 
5.22710833594534e-005 
-8.487137178495881e-005 
0.0002026829739983571 
-0.0001407653262295166 
2.451453916403076e-005 
-3.98385455917607e-005 
1.356364552592753e-005 
0.0002246008423596263 
-0.0001183213185810088 
-4.035070752366823e-005 
-0.0002704738504240786 
-6.466381660973467e-005 
-0.0005904828067426543 
1.055293652991516e-005 
-0.0002013063462416154 
9.220565551988921e-006 
0.0001195670974814085 
0.000176187352724929 
0.0001170786098404447 
1.499123651321753e-005 
-0.0003825288849116766 
-2.309906184222965e-005 
0.0001297187157975354 
0.0002140359006301814 
3.341816185149239e-005 
1.526267623392487e-005 
-1.916072657560688e-005 
1.520649347161547e-005 
0.0001510136258409115 
3.692788656426094e-005 
-2.936533137406856e-005 
0.0001783115652959282 
-8.600418842256305e-005 
0.0002555371982874926 
-0.0002660554339985743 
-0.0003284783728843535 
-2.975125898565738e-005 
-1.333080728611154e-005 
0.0001500736156470612 
0.0001157632611279174 
0.0001467143096564955 
-0.0001943616141690623 
-0.0001100298117616013 
0.0001179963622713767 
0.0002962034567822949 
-0.0002158105038851098 
-0.0001028046343058729 
2.318387761508651e-005 
-7.7889153069492e-005 
-0.0001490813386781933 
-6.103013456776084e-005 
-0.0002471241510798425 
2.990956533394599e-005 
-9.366929089595836e-005 
0.000188507901528166 
-0.0004895859497557623 
-0.0002155470944660299 
4.939949793464545e-005 
-2.000950657758381e-005 
-0.0001422753461807447 
6.362912180178027e-005 
-0.0001680387647257777 
-0.0002012019378569928 
-0.0002413392636336531 
-6.93220029375409e-005 
-0.0002505157872091121 
8.706681209315661e-005 
-8.070274691204747e-005 
-0.0001626510578146516 
2.176062164079001e-005 
0.0001202465289018828 
-0.0002127285985572792 
-0.0001359411166574662 
0.0001722124148174811 
9.988670617234002e-005 
0.0001190499978189661 
-0.0002715143136116088 
-1.723053581259007e-005 
1.628459423707566e-005 
8.34347882937773e-005 
7.735082261265192e-006 
-4.054886247905813e-006 
9.963013763773834e-005 
0.000218261190087671 
-0.0003604391020139164 
-6.200257750373256e-005 
0.0001770699562639733 
-0.0002946594274103684 
0.0003630987042134832 
0.0001462329273186933 
-0.000130651374169827 
-0.0001035621510096298 
-0.0001451271560566521 
0.0001115405675050069 
0.0002153870259581564 
-4.647861881658954e-005 
1.875894631706669e-005 
0.0002370513822670428 
8.122387370818438e-005 
0.000119898845376121 
-0.0001244738672436371 
0.0001331751946272177 
0.0001238450158737894 
0.0001535807143574901 
-4.282593216885069e-005 
0.0001162660233573074 
0.0001305291111272516 
9.214599604910913e-005 
-0.0001579410571641804 
-7.881809908949257e-005 
-0.000135689798821095 
-0.0001874504561287883 
-0.0001241483397740187 
0.0001170315713449854 
0.0001261888577854006 
6.227012522342742e-005 
-2.260221236828149e-005 
2.374474783881558e-005 
-8.267486540852421e-006 
-1.277570361202161e-005 
0.0002499736320023569 
-3.664645979135874e-005 
0.0003360229201082941 
-2.688491912597689e-005 
0.0001224649389917457 
3.35195983515777e-006 
0.0003475807116761399 
3.106257256659014e-005 
1.754884725456871e-005 
-0.0007077326270716559 
-0.0001376424639563315 
-7.51061271678199e-005 
0.0001508256620414464 
9.880266304907817e-005 
-0.000111789446580389 
0.0006344330389792578 
0.0002291136007235369 
0.0001362275714390397 
9.400292545767401e-005 
1.625682043297725e-005 
-0.0007882338437944549 
3.643213526042352e-005 
-3.471742330974471e-005 
-0.0001278322746074105 
0.0001084082134403524 
-3.529487824450579e-005 
5.379171914706166e-005 
0.0002230790190135152 
-4.04878287119809e-005 
5.607570074685862e-006 
-0.0004889174109091786 
-0.0002761575206416547 
0.0003220672845906034 
7.35333824247391e-005 
0.0001071523335983196 
0.0001927032818545285 
-0.0001245728364061071 
-5.507240943083722e-005 
-4.290927819960195e-006 
-0.0001706802369503119 
0.000146042928689268 
-0.0002782899879556057 
-2.205749765070181e-005 
-0.0001602091472916049 
-0.0002216964655977603 
4.042662770753001e-005 
2.955041231009397e-006 
-0.0002611316943522523 
-0.0001616099848437866 
4.604089437706469e-006 
-7.147676086673276e-005 
-6.498686876986131e-005 
0.0002732200570625844 
7.003866055727901e-006 
5.661978887535004e-005 
-0.000169484056833241 
4.20708586960327e-005 
-3.201454561363109e-005 
0.000111450657319885 
3.505468992097613e-005 
5.875230103136896e-005 
0.0002319230197332571 
-0.0002644294858852466 
-0.0002242960886735917 
-0.0002797399770764692 
-3.368314062724968e-005 
-5.660738407044076e-005 
-8.96778192737012e-005 
0.0003157573806727835 
-1.663806172276617e-005 
0.0001936995253914358 
6.803718217834385e-005 
-3.397003784117782e-006 
-0.0002879454083350884 
-1.073081826155738e-005 
-5.667373408449579e-006 
0.0002085535037021745 
-0.0004200184295483186 
-0.000122324159432581 
-4.446607436253643e-005 
-7.106528368714008e-005 
0.0001174844942405332 
2.279020430798316e-005 
-0.0004214138145874415 
-4.051108331572497e-005 
-0.000222438094420694 
0.0001129004267619838 
-8.975569432163389e-005 
-1.39910001962533e-005 
-0.0001336428601966311 
-0.0001425255523352901 
-9.492621458028576e-005 
0.0001188685975282211 
0.000136873801396474 
0.0001736203906415064 
0.0005456446377063392 
-0.0001071805646099336 
-0.0006071142554468328 
-0.0001919952472845057 
0.0001582795078685488 
8.727922608459654e-005 
-0.0002860708784571184 
-1.871571375578122e-005 
-3.524682238310751e-005 
7.077164024761242e-005 
-0.0001492916424022203 
-8.733888441103148e-005 
-5.743891084563254e-005 
-0.0001838966777818298 
-0.0001843604218584442 
-0.0003336690677262182 
-9.960796479024873e-005 
-6.167261953162312e-005 
-5.828044643623855e-005 
-0.0003180547391491567 
0.0002698257903067573 
0.0005627179722465161 
1.966922136836728e-006 
0.0001143900335612847 
0.0001132738371848053 
-0.0001152310039243902 
0.0001290440609267954 
0.0001494017073513133 
-7.800482047940862e-005 
5.162813532689764e-006 
-0.0003828438468297767 
-0.0001596746920322728 
0.0001762279270725134 
0.000104298085801121 
-0.0002549149897506381 
-0.0002245035771204787 
0.0001326122135023299 
-2.205833375590217e-006 
-6.730808342547749e-005 
-8.025641894546273e-005 
0.000100490482737058 
-0.0001915948858541819 
1.142976929735175e-006 
-0.0003094604213917052 
0.0001660849084083894 
6.861653282010396e-005 
1.990918197237623e-005 
0.0002668421015285607 
-0.0002945591694539163 
-0.0001293078312810773 
-0.0001112762557319919 
-0.0004295847272131743 
-0.00012639855316891 
-0.0003114790051515448 
7.547511241690207e-005 
-9.077898365791434e-005 
-1.272385667014178e-005 
-0.0001291454458854192 
2.561696116926247e-006 
-0.000289557000791751 
-3.709835594928012e-005 
5.73680048516824e-006 
3.096340281154296e-005 
-8.9024346095591e-005 
-0.000233930132896567 
-2.676434335620162e-005 
-7.149599675079263e-005 
-0.0004514671473653334 
6.450620332797727e-005 
0.0002610057687112916 
-4.112536395999011e-005 
-3.732710318229968e-005 
2.04593120538463e-005 
0.0001134734869467519 
1.118952270361474e-005 
-2.450283860360716e-006 
3.315290431629861e-005 
4.669306667138268e-006 
-0.0001604280950391323 
6.366102884566829e-005 
-0.0006466640765872247 
9.81300765541769e-005 
7.297140156253658e-005 
2.791823190928113e-006 
0.0001445627084780162 
-0.0003013218956171067 
3.818175898784938e-005 
-0.0001174054611312793 
-7.514511139094751e-005 
5.05159981475045e-005 
-0.0004388285930116795 
-0.0002925656255383084 
7.527842034994159e-005 
-6.821246131087423e-005 
1.42421177788845e-006 
-0.0006593858365768842 
-8.01283740489023e-005 
2.728889605041892e-006 
0.0002837836783899725 
5.471057230948969e-005 
2.617697387845121e-005 
-2.530456811119904e-005 
4.879779527246647e-005 
9.362739148848596e-006 
-0.0002195998672525127 
-4.598563668375455e-005 
-0.0002418717578752205 
-0.0001041010121800562 
2.79790228147172e-005 
-1.482532520660272e-005 
4.595351486535308e-005 
0.0002080615665650578 
0.000534270914593996 
-0.0001028261547909749 
0.0002551030701467868 
-7.765981625244358e-005 
2.003916720609043e-005 
-0.0001398038149819465 
4.86468024262307e-005 
-0.0001524412810864839 
-0.0001312039501125885 
0.0001240353915452278 
0.0001179316090244989 
-5.461777914614031e-005 
0.0001169143263861246 
-8.223667373879195e-005 
0.0001162886886874614 
0.0001885348275666492 
0.0001285257132730064 
0.0002608896722698704 
-5.427136278801103e-005 
-0.000238600299126345 
-0.000202472271967537 
2.755326711409438e-006 
-4.069684128129314e-005 
-7.145598560166749e-005 
5.024170525565177e-005 
-8.264665565339245e-005 
-9.529148073194273e-005 
0.0001542380972977784 
-3.848604942064699e-005 
-1.053623499909763e-005 
-0.0001002062116243221 
0.0001432463678999008 
-0.0001188483859359129 
-0.0001516338365157874 
-8.433504364687596e-005 
8.041649800620699e-006 
0.0001166112929706139 
9.178372404183338e-005 
0.0001397817186567054 
0.0001295961662651226 
-7.626836973180306e-005 
-0.0001008052525572963 
-0.0004374574326604066 
-4.144901520463082e-006 
-8.709827188382601e-005 
-2.515145313486808e-005 
8.911426949951953e-005 
1.249959474826456e-005 
-0.0001255451465916957 
-0.0001614862992421763 
-0.0002749678830136383 
-0.0001903338064930102 
-0.000143194240208499 
1.453991932339655e-005 
4.692811978577334e-005 
0.0002339731063675002 
0.0002594801742387911 
-5.599455366935528e-005 
-0.0002480181362874492 
-7.793169464522506e-005 
-2.289151541219871e-005 
-1.587459934417643e-005 
-3.338784834230464e-005 
0.0001612004095257778 
-0.0003093402015869389 
5.709769359356552e-005 
-7.076556923503749e-005 
-0.0001593044216944716 
-0.0002988120632786684 
0.0001604100605686628 
-6.11383093465458e-005 
-1.176306891527196e-005 
1.864404356589208e-005 
-4.056665793803862e-005 
4.858951386002252e-005 
-7.196343281493469e-006 
-0.000285260031179875 
3.973476867506015e-005 
-2.297371926359787e-005 
0.0003009837368036716 
-0.0005726485550652357 
-9.425609961817929e-005 
-0.0001575055498358138 
0.0003776365524877958 
3.016322196310574e-005 
4.861912309361773e-005 
3.085475495293664e-005 
8.967576615261036e-005 
-0.0004046998304162214 
-6.670978317808864e-005 
-0.0003523541108292159 
-0.000232688407965348 
-0.0004211798960424837 
-0.000138993547376964 
0.0001459647361153126 
-0.0005077228208047303 
0.0003997254206125066 
0.0003962566139710662 
3.049213312919215e-005 
-6.323351485696871e-005 
0.0001328258741011054 
-0.0001131383191754682 
0.0002070378777921875 
0.0002487620613868813 
0.0003534718189718009 
-0.0001197282940461154 
-0.0001155009116911519 
6.284287896224268e-005 
0.0001104018694306689 
0.0001184677555627478 
-8.956913969005643e-005 
0.0003733659806519817 
-0.0001773142303586494 
-2.171464806344053e-005 
-0.0001451243052131852 
-0.0003452772571280665 
-5.740167500283644e-005 
3.184307742182051e-005 
-6.304481738155867e-005 
-0.000227565715761244 
0.0001500362507183202 
-7.216967484612171e-005 
-0.0001891812549060137 
9.587493256389225e-005 
0.0001210217205294997 
0.0001303140561724339 
-9.118942756240428e-005 
2.758911847363561e-005 
0.0001700835163737484 
3.72412906249342e-005 
-0.0003893930267344959 
-0.0003066486899559825 
-0.0001039472304010489 
-0.0003238163459531758 
-1.980699366586972e-005 
9.950271253361684e-005 
-0.0001359261445111057 
2.817899723671681e-005 
-0.0003085452267907339 
-0.0001134412404228507 
4.830641866993959e-005 
-7.868720008524526e-005 
5.423991425991364e-005 
-0.0001150203023666362 
-0.0001100573406361853 
-0.0001607547029969414 
-0.0002205698525591255 
-0.0003354835764850115 
-0.0004367873338216553 
-3.392565619263242e-005 
-0.0001610073693414361 
-0.0001410295009004143 
-0.0002397379737104929 
-0.0001115971266088685 
1.155677940866273e-005 
-1.282364872284516e-005 
9.396129957846251e-005 
-5.430509072286689e-005 
0.0001040628571586131 
-0.0004161905291844323 
-0.0004601183435721622 
-0.000536554546810689 
0.0001458191981500493 
-2.370551216055679e-005 
-0.0001318113761579306 
0.0002066603994605632 
0.0001077470678280054 
6.138736917740529e-005 
0.0001748033024492827 
4.189318085906021e-005 
1.560923945880674e-005 
0.0001778097479721596 
0.0001755894192637675 
0.0002600552560712987 
6.683370227857256e-005 
-0.0001538462097736247 
4.073380897004933e-005 
7.45841477215661e-005 
-0.000183621214118356 
-7.407879444712399e-005 
7.656799527003091e-005 
-3.014775784695825e-005 
-9.880764480783114e-006 
-5.813179154501195e-005 
6.551986207933573e-005 
9.659309344265036e-005 
-3.111629609918489e-005 
-0.0003120673576804102 
0.0001554582790255172 
0.0001068222628270242 
-0.0001591573244819794 
8.305273546382402e-005 
0.0002668050271154084 
-0.0002258760263257631 
-0.0005319334201742534 
-0.0009502908716894589 
-0.0004379817659060896 
-0.0004530862710690551 
-0.0002104980703869353 
9.15382463236554e-006 
0.000127763421979261 
-0.0001084122678923731 
-0.0006374646920314096 
-0.0002423084941747508 
1.948791627905117e-005 
-3.86290197146839e-006 
-2.483786378078209e-005 
-0.0001748678226328395 
-0.0002711862645141847 
3.813365162821715e-005 
9.149128809385611e-005 
-0.0001054238086619518 
0.0001149691648272398 
0.0002307074734839073 
7.698367807888431e-005 
-0.0004059378991643309 
-0.0004194702124610002 
4.611175911072868e-007 
0.0002103363369681312 
0.0001007461898510312 
-0.0003932736955520312 
6.814664673853962e-005 
0.0001700985522851096 
0.0002796374982186335 
0.0001135823657287299 
-0.0002879951525009396 
-3.200679897757785e-005 
-0.0002955535058754881 
-0.0001231054110116709 
-0.000219359594843124 
5.155256715159776e-005 
-0.0002556506422716418 
-0.0002779132249169082 
-1.036614678723236e-005 
0.0003142977129824814 
-3.561803658327831e-005 
-0.000459775330764253 
-5.996798100509215e-005 
-1.350341279329719e-005 
4.755396719698499e-005 
1.062339509828928e-005 
-0.0002471228746530929 
-0.000422042283020786 
0.0001608917234525397 
-1.831785693483157e-005 
0.0002151628907675012 
6.790366496808654e-005 
9.898783542081143e-005 
0.000160755280201376 
-0.0001033045303113724 
0.000231299785348199 
-0.0001881334955828095 
-3.448221587595277e-005 
0.0001615525626403089 
5.686802175786586e-005 
-0.0002123097489096698 
-2.426268718008224e-005 
-9.037052487889296e-005 
0.0001457597564267435 
-0.0005682409793084571 
-0.0001425523942982597 
-8.045473458267708e-005 
-3.010468298959319e-005 
-0.0001911153196575108 
-0.0001039696238075331 
6.232930037459021e-005 
-0.0002530350513643878 
0.0002344819561079127 
0.0003762956949354805 
-3.509904264343103e-005 
0.0002073704243703586 
-6.529143062119156e-005 
0.0001635444764911519 
0.0001926910856594731 
-0.0001143078689005549 
-0.0007846884268808204 
-1.007983602783352e-005 
-0.0003016503395336266 
1.340543348877327e-005 
8.325902557022812e-006 
3.040841415946581e-005 
0.0001260400821671951 
-3.013298372179494e-005 
0.000179056844509314 
0.000209057278199544 
-0.0001067008659962775 
5.786578352659942e-005 
-0.0001004293145040787 
1.808871728565253e-005 
-0.0002044111113998246 
-7.640651540641603e-005 
7.888500659380953e-005 
5.758048974716046e-005 
0.0001582119820208096 
7.668503242501888e-005 
-6.668580067746558e-005 
6.994929494655102e-005 
-6.123192284560379e-005 
-6.3266455786669e-005 
0.0001313715889825951 
0.0003404561838817822 
0.0002422039480570555 
0.0001396751001818818 
0.0002378420611807575 
7.810334952304478e-005 
0.0002013990909403463 
0.0001757520732816324 
-0.0001058418564698268 
0.0003333068571502709 
0.0003401244901038219 
5.191180638680814e-005 
-8.442820358120014e-005 
7.088555237997636e-005 
-7.128787103886519e-005 
-0.0009223420661204981 
5.058406077142185e-005 
-0.0002881371324221147 
-6.702443232077715e-005 
-0.0002540923894853381 
-5.935309419215122e-005 
-0.0002855620489744133 
-0.0002402395321822803 
-0.0001807488496210502 
-0.0002541954760553046 
-5.773864072764968e-005 
-0.0002089009030020592 
2.591641364131245e-005 
2.156366343398424e-005 
9.282099235236748e-006 
1.080223456754831e-006 
-0.0005798259821385673 
-7.740811414328334e-005 
0.0001590509097739474 
0.0002422916098870216 
-1.817741148026753e-006 
-0.00047240504617738 
0.0001021240539374533 
-0.0001139440128124001 
0.0001027437928323606 
0.0001046322845553913 
-1.80470187440822e-005 
-0.0001107216791770958 
2.764921846283184e-005 
-0.0002606543226699147 
-0.0003275677036633165 
-5.312264150611669e-005 
-0.0002389470209497432 
-0.0001401798379749849 
-0.000536536263804577 
1.718742398351918e-005 
-0.0004108019025966353 
-0.0003201774546141683 
-7.275892916429841e-005 
-0.0001062749051947939 
-7.21105837189718e-005 
-0.0005312092366372641 
-8.587025868173813e-005 
-0.0002838396011971118 
-7.117647113957147e-005 
4.348678436312398e-005 
-0.0001109328443151436 
3.491709516811418e-005 
0.0002504607975942294 
0.00029337921695101 
-0.0002627857381433024 
9.867884383936144e-005 
-0.0002225626069053591 
7.336510102844027e-005 
0.0004645893327999217 
7.149682087419137e-005 
5.904301682889838e-006 
0.0001599560321501827 
0.0002691991868775039 
0.0006063232254376798 
-0.0001072934407500416 
0.0001825195954855051 
-0.0002257746546718496 
0.0001487392497658207 
-7.085078245780604e-005 
-0.0002624580311846188 
4.993082460797501e-005 
-0.0002762767313890765 
-0.0003917871359328486 
2.850979838625357e-005 
-2.691159390807999e-005 
0.000281840141346288 
-0.0003034359465083821 
-0.0003190444053857936 
-0.0001742742111908663 
-0.0002932780264419693 
0.0001281878985336809 
-2.923448770620279e-005 
8.41592517523974e-006 
3.337099590490139e-005 
-0.0001432633260444269 
0.0002518731396213947 
-0.0002402874580343114 
5.520128767808572e-005 
-8.809121541997902e-005 
0.0003613759180889684 
0.000132259628529694 
0.0001989665866473032 
1.406790203627411e-005 
-0.0007118049313367143 
0.0001895446523107495 
4.696331276764232e-005 
-5.039303164650331e-005 
0.0003338680669685376 
0.000174275190734296 
-0.0001163631859094197 
1.020491391140564e-005 
5.494290158264011e-005 
-0.0003667462640791594 
0.0002669197023051416 
8.864890274526135e-005 
-0.0001723631216065878 
-4.121204434490021e-005 
-0.0001613377792831574 
-0.0004160482935850774 
-0.0003509806285537055 
-8.911182127800185e-005 
0.0004456421144533042 
-6.194182223100059e-005 
-1.50057425229207e-005 
-1.159049350255708e-006 
1.996890964558992e-005 
-0.0001736501050978661 
-5.907423883675738e-005 
-0.0002153365325874812 
0.0001067903133339733 
-9.757162261203434e-005 
-9.223539795806803e-005 
-4.799887294424689e-005 
-0.0001560521000584511 
-0.0001387458590426943 
1.449367723538119e-005 
-7.987676333639788e-005 
0.0002651354858278911 
-1.828349160888689e-007 
-2.002120306656272e-005 
-0.000218116334554261 
-5.823999143009724e-005 
0.0002223341988398288 
-3.158039962654342e-005 
0.0003200010406512536 
0.0001693509749234582 
2.71947540131401e-005 
0.0001985376388605727 
-0.0005866546133541302 
-0.0005498096379444755 
9.908567259134508e-005 
-0.001487205017188581 
-0.0003575087872399347 
-0.0003389506346510931 
-1.201893225261144e-005 
-0.0002188181710756655 
-0.0002987913436190551 
-7.275122747589779e-005 
-0.000267980220385352 
-0.0001441357922863651 
0.0002607416649459273 
9.562137556655545e-005 
-0.0001974420141249046 
-0.0001901192938981477 
-0.0004685568336513184 
0.0002474099033985212 
-0.000286456166637045 
-0.002728792469416598 
-0.0001198238987093707 
0.0003962683290770364 
-3.185590811522631e-005 
-0.000392223592291399 
-0.0004576878801010524 
-1.29224161132849e-005 
0.000453509031304743 
9.016237828356002e-005 
-2.749106322711136e-005 
2.035792338831492e-005 
3.208880969280833e-005 
0.0002740893143767264 
-0.0001639621163142397 
-0.0001444581351846858 
-0.0001362468213038281 
0.000201410782952226 
9.958467024045316e-005 
0.0005395932931255948 
9.409766414564026e-005 
-6.703581061239758e-005 
6.600136555046713e-005 
2.93482499923539e-005 
0.0002437284588360088 
0.000129283789628496 
-0.0002417660272946861 
0.0001328894130683485 
0.0001078369856701921 
-0.0001938842649943591 
0.0001472773177366935 
0.0002467333929132445 
-6.778050613375582e-005 
0.0002889491058140484 
6.860739939180651e-005 
0.0004641977594696569 
9.45102647897311e-005 
9.589646965955596e-005 
1.471552832762371e-005 
-0.0002702940720653352 
-1.407951569017488e-005 
-0.0002748700853722366 
0.0002363891669300313 
2.907673001956962e-006 
3.191113629073971e-005 
7.737611842076434e-005 
-0.0005335090679951594 
8.846403998566228e-005 
-0.0001184041491060493 
-0.0006188109280098845 
-0.0001706784623238961 
5.625973485227171e-005 
2.922312361888624e-005 
-0.0001761566540245389 
-9.777099776064266e-005 
-0.0001159338387772355 
-8.867433921149614e-006 
-0.0002751345572383839 
-6.134485109239629e-005 
-0.000106247469941659 
-1.972937296265047e-005 
3.310574026325825e-006 
-0.0001714681565831134 
-7.006203936986474e-005 
-0.0003498747024022575 
-0.001066465144300574 
-0.0002073488522469961 
0.0002093287804714606 
4.495737801050726e-005 
5.227585703432588e-005 
2.002075934435645e-005 
2.6379649909234e-006 
-0.0002622252324916061 
9.258282160268926e-005 
-0.0002107130651595656 
-0.0001380873474730452 
0.0001121216705156749 
4.37160985434932e-005 
8.833429665853753e-007 
-0.0003614030143430781 
5.709763829406007e-005 
-0.0003454608641519456 
3.155380863750008e-005 
1.935215223178791e-005 
-1.648932986592962e-007 
8.624172396432861e-005 
-0.0003960826914427516 
7.360488912897291e-006 
-6.116891442890585e-005 
9.162342852180271e-005 
-0.0001730683005402205 
-0.0001525586611041591 
1.728983518133393e-005 
-2.750192177320049e-005 
-0.0002119415435093394 
0.0001664953261185152 
0.0001339810325383715 
-1.611719976101853e-005 
-4.921926225582875e-005 
0.0001637942636286443 
-2.126901779570393e-005 
0.0001119534571798815 
-0.0002904789565987723 
7.505722190356289e-006 
-0.0001873269401613838 
-0.0001121941274566724 
0.0001911768956667437 
8.18176606988162e-006 
-0.0001417982892158738 
5.884983021971731e-005 
0.0001249434209397068 
4.377774085632388e-005 
-0.0001194262922178524 
-0.0004763860846403982 
-0.0005057957484272379 
-0.0004869730555184362 
-9.348815920480756e-005 
5.723422478297514e-005 
0.000262848899022811 
6.207557372698469e-005 
0.0001683680501477003 
6.675173896442117e-005 
-0.000228300983862557 
0.000221837733487571 
-2.039525043598488e-005 
0.000199762583757439 
0.0001734788991308719 
2.281739433442994e-005 
-0.0002063488416225069 
-7.631862699158003e-005 
5.483786791643881e-005 
-0.0002145029492793558 
-3.056067171819117e-005 
-0.0002429101091332686 
-0.0003668982587471095 
-0.0001500619926818533 
-0.000272661711134986 
5.798778806894028e-005 
-9.369822897037726e-005 
1.137343661144851e-005 
7.716658447794204e-005 
-0.0003201295231298332 
-3.800190218824749e-005 
-0.0001718194579684312 
-0.0001051441752591039 
-0.0003308772255452171 
-9.859843152269444e-005 
-0.0002499672404648851 
0.0001217836170628827 
-4.375504741927123e-005 
0.0001247712312859317 
-4.895668233924198e-006 
8.58188958217432e-006 
4.870242707315666e-005 
-0.0001962112853459273 
-4.682020496901773e-005 
8.646588018548439e-005 
0.0001594890931672272 
0.0002563668648459877 
-3.687427273137911e-005 
8.568674087324201e-005 
-0.0004689364009810829 
2.082575648458525e-005 
-0.0004021649563834388 
-2.027238155761355e-005 
0.0001621169503710689 
8.224657088766277e-005 
0.000103569942822039 
0.0001221863398618679 
0.0001867706718277669 
4.14385735800137e-005 
9.63188996704546e-005 
-4.774073611915894e-005 
-6.701126212103336e-005 
-1.238872049635821e-005 
0.000188222389681308 
-0.0003464996906063664 
-0.000119513063095442 
2.109775004793452e-005 
-4.331427851826473e-006 
3.776219833084352e-006 
0.0001285336767572474 
0.0002491679853838158 
-3.589438506747084e-005 
1.314491839339993e-005 
-0.0001686136702517499 
-0.0003898460373666504 
-1.268954469534051e-006 
4.102086058914062e-005 
5.594863163659056e-005 
0.0001252208734755596 
-0.0002392241103657443 
-0.0002081073432541262 
-0.00027110956986327 
-9.909854726887766e-005 
3.344321980485732e-005 
5.645546600957667e-005 
5.217658141777901e-005 
7.953997434330019e-005 
-6.647020942812453e-005 
6.75601681395561e-005 
-0.0001061080519972197 
-0.0007086837420042357 
0.0001358523955027672 
-0.0003152291682832194 
0.0003221390230748805 
0.0002684071062893036 
-0.000272497828835255 
-0.0002323203806825541 
-0.0001700997039636353 
2.052712126203663e-005 
-0.0002022796392336668 
-4.485653331568563e-005 
0.0001279677941529214 
-0.0001811498369118641 
-6.254945712334243e-005 
-0.0003033338652953372 
8.426850915903015e-005 
-0.0002789986119799204 
-6.17273242665442e-005 
-0.0001701493294682359 
0.0001625639787515744 
0.000276911341939578 
0.000216763865966279 
5.001431658326713e-005 
-0.0001972385120194883 
0.0002970561751739358 
1.024019558761533e-005 
-4.607902180534562e-006 
3.011680810598918e-005 
0.000156230260063401 
-1.853708953460864e-005 
-0.0003561005571306489 
-3.225855571469254e-005 
9.399569957982235e-005 
4.966531130455755e-005 
0.0001508602289941412 
0.0004059344486833398 
-3.595030138797124e-005 
-0.0001548186252464934 
-0.000685456091198555 
-0.0006379217588070894 
-0.0005842349070022142 
-0.0002852710676482664 
-8.285260649423453e-005 
-0.0001667796194651278 
0.0002352807771308236 
-8.126052722298148e-005 
-0.0005367608631154905 
-0.0002450785402784672 
-5.287874374815679e-005 
6.544619788723731e-005 
0.0003004246430748513 
1.655502334079808e-005 
0.0002661072841112801 
-0.0007876406628907942 
-2.676015130145921e-005 
-0.0004294382606743454 
0.0001495985055711366 
-0.0002547559685139728 
-1.417217231379183e-005 
-0.00036439335680179 
0.0001285424198199807 
0.0001142144671440739 
-0.0006458751185852221 
-8.59134293626106e-005 
0.0004652382527666201 
-6.686648033337803e-005 
0.0002260602327334327 
-0.0001721159904799727 
0.0002600357970254031 
-0.0002262668987431782 
-0.0003764478398847316 
8.566022606250948e-005 
4.099920621525024e-005 
-2.018324180482981e-005 
-1.185614817005365e-005 
-0.0001454892036283577 
-7.227953150929619e-005 
-2.02471274640427e-005 
-0.0002002979533624025 
-0.0003218206240074494 
-0.0001109882904719858 
0.0001644000814677745 
-0.0001293802159921492 
-4.455182872396428e-005 
0.0003780963579599127 
0.0002077734025874533 
7.545716115448946e-006 
0.0001561245300935129 
9.027010506824424e-005 
0.0004343674132860461 
2.802534013548811e-005 
-0.0001728320872466532 
3.612983726544875e-005 
3.751686851378297e-005 
7.060673728038747e-005 
-0.0001372676500433271 
6.850073432684312e-005 
5.066995317672354e-005 
3.725220112000456e-005 
-4.445201303630794e-005 
-0.000617137914336844 
-0.0003564937368867294 
0.0001900938535304288 
-1.97663414021465e-005 
6.891524509567687e-005 
0.0002040958185968791 
8.555482103634653e-007 
0.0001954664702970605 
-7.486090818452837e-005 
2.004830229037142e-005 
0.0002920734885720015 
1.682440605105313e-005 
3.988632348057147e-005 
-5.102220006947155e-005 
-7.775821156946017e-006 
-0.0005749341772148871 
3.761526090243593e-005 
0.0002054710691805435 
0.000203873992427047 
-0.000539275374641884 
9.080827228560338e-005 
0.000175076277828764 
4.754001914831241e-005 
4.640685830508058e-005 
0.0001041541824718075 
-8.550990558881078e-005 
-0.0003495481338493357 
9.264454051911672e-005 
0.0001656844652656166 
-4.526062671166752e-006 
-0.0001514202414739927 
8.438709025202583e-005 
0.0002498463385038114 
-9.730684222870452e-005 
2.881821984420419e-005 
-5.549875871868642e-005 
-0.0002490243248633281 
-0.0003918839192637149 
-1.158067812946185e-005 
3.785182030320027e-005 
-5.512402920853569e-005 
-4.145209595798201e-005 
0.0001726796110963723 
-0.0001680799279775825 
3.362024978380516e-005 
-6.268540937488138e-005 
0.000330339035371542 
0.0001521991017683229 
0.0002398875083387342 
-5.639690852908257e-005 
0.0001840403954788922 
-0.0002827686233304616 
-2.004539827910324e-006 
0.0001886554208797128 
-0.0002273117229434847 
1.396303344135163e-005 
4.715769257146816e-005 
-0.00010005724957381 
-0.0004333137256672382 
-0.0003337358404109184 
-0.0001039609659430276 
9.389394526573612e-005 
-0.0002368519718494561 
-0.0005652731450023013 
-0.0003468176445309819 
-0.0002309396205671104 
-0.0004401124162947621 
0.0001561025994122106 
-1.909395577506635e-005 
-0.0001204676350896846 
-1.859596715312016e-005 
9.657236429719241e-005 
-6.02791105103204e-005 
9.661205577288559e-005 
-0.0008144888045026022 
-0.0001522569599804659 
7.295609022444055e-005 
-4.707172161020469e-005 
7.854884237428539e-005 
-0.0004697042582452163 
0.0002209575171802199 
-0.0001456874761529272 
-0.0001950111672108739 
-3.689979301265239e-005 
8.706649790089712e-005 
-0.000216962511900893 
-1.594122972537668e-005 
-0.000168549802706276 
-9.234309508436468e-005 
4.37060992827373e-005 
-0.000789159641646198 
5.170834851811351e-005 
-0.0003490176066624356 
9.72969475537858e-005 
-7.556037617178775e-005 
4.850402997607797e-005 
-0.000486954059290972 
-0.0004629929839012052 
-1.4180966299731e-006 
-1.382758561527718e-005 
0.0001749835565346109 
-8.360962800522332e-005 
8.565567628011835e-005 
-0.0002836626637722727 
6.274641909518201e-005 
-8.196332702450835e-005 
-0.0002380162600703503 
0.0002325521247152593 
7.417294436028577e-005 
1.905525348374431e-005 
5.123730949493529e-005 
-0.0003881705191162832 
-0.0002941388883958785 
0.0001061391899534618 
-9.895592537202515e-005 
0.0001575351155154356 
0.0002433843250252436 
0.0001716595265017753 
0.0001021786401202457 
7.898846604250981e-005 
-0.0002268020556748572 
0.000114550939178636 
-0.0002462822333707916 
0.0002235938209381571 
0.000149049415034776 
0.0002296646081362329 
-8.899863672488544e-005 
0.000156178442164501 
0.0002774899452211434 
0.00026320791845163 
0.0002392527789551958 
-0.0002377483430210252 
-0.0001110167964741721 
-0.0002448101874730163 
3.50725584724626e-005 
-6.868964802148313e-006 
-7.226853291940466e-005 
2.994699922858343e-005 
-0.0005672911876426014 
0.0002010136023093866 
-0.000262604654189399 
-0.0001822268334256215 
-0.0002017849515676125 
0.0003199664326673936 
-0.0002229952213635164 
8.688509966308694e-005 
6.092289638774844e-005 
0.0001152148050408692 
-0.0001736676017517641 
5.826789539878939e-005 
1.263180712801242e-005 
-8.612240971703877e-005 
-0.0001466200256185924 
1.256392846679931e-005 
-0.0003017387538620308 
-0.0001841223268652197 
0.0001394654559324879 
-0.0001329405317260333 
0.0001261356490875675 
-0.0001860644294435406 
-0.0002040805321319939 
2.979188493056421e-005 
0.0002393130301033422 
-0.0004606108701110866 
0.0002949053818645036 
-6.270877005839685e-005 
-0.0001632152809509572 
-5.837377947778933e-005 
-0.0002615449644665195 
1.647620004094733e-005 
-0.0001335840729811821 
0.0002567604831243765 
7.515303008405884e-005 
0.0003119631580319083 
0.0001094804028305864 
0.0001156894091121518 
0.0001010183380266464 
-0.0002201631013643019 
5.008940734513764e-005 
-0.0003040780036549805 
6.840470936746447e-005 
0.0001954307502806283 
9.611264801526263e-005 
3.484550521406372e-005 
-0.0001837600392983093 
3.127225172421783e-005 
1.275158344240335e-005 
6.000351964580877e-005 
-0.0001808039014597473 
0.0002058153877271428 
2.985154844316766e-005 
0.0001667426657523501 
1.441404187087761e-005 
0.000275437460943195 
0.0001561548098396926 
-3.64081727306826e-005 
-5.565445048759642e-006 
0.0001274857507595724 
-0.0001006712078699913 
0.0001110813522541454 
0.0001769839586189243 
-3.660082039647976e-005 
-0.000298173365585593 
-0.0001684452407941509 
0.0002763205876616411 
-0.000376204498004393 
-0.0001110521766705303 
-0.0003204761781253513 
-5.951029804529562e-005 
0.0001475992054902076 
1.969397761160586e-005 
-0.000507445092319237 
-0.0002150327513130552 
0.0003490647932900476 
-9.951126448630123e-005 
-0.0001264138039915455 
-2.537649856344334e-005 
-5.670222206459803e-005 
-0.0002578612810294368 
-3.755419563062905e-005 
0.0001490407994721735 
-0.0001074352313914895 
0.0002217784589468976 
-0.0001513688966095059 
0.0002241297113825328 
1.179028288038511e-005 
0.0003345524402253331 
1.527569452449373e-005 
-0.0002808054689433824 
7.838174841739451e-005 
-2.203159772453808e-005 
-4.596152760292636e-005 
5.961436594634033e-005 
0.0001370265381913589 
-9.466634418698609e-005 
9.080014688552342e-005 
-0.0002178718323352736 
-6.755474612811717e-005 
0.0002176224319161164 
-5.171322410832257e-005 
0.0001572221343294768 
-1.43093090418308e-005 
-0.0001506916755262142 
-0.0004474810700304999 
0.0002151743388512105 
-0.0003867919179990069 
6.510349703667566e-005 
-1.239362681816478e-005 
-0.0001066042681663939 
-5.572413656002685e-005 
-0.0001951449325356244 
8.769183608036047e-005 
1.549215333545484e-005 
2.720535855066959e-005 
-2.252125007216669e-005 
-7.568334761846479e-005 
-0.0004680755791524679 
0.0001589186868479013 
-5.419441857990358e-006 
-0.0001509493323054865 
3.159897950353289e-005 
-9.813360510429522e-005 
-0.0002006004583007204 
-0.0001651953069813272 
-6.782357616771356e-005 
3.208159399347225e-006 
0.0001516583174119429 
-0.0003624221822335445 
-0.0001174209206385112 
-0.0002070606989580923 
1.072690011848877e-005 
-0.0001061503118930801 
-9.734564985304143e-005 
-7.145783859884757e-005 
-0.000134144280398608 
-0.000121647034052595 
-0.0001002246943814191 
-0.0002486369775371144 
3.834850329387573e-005 
-2.82099302174671e-005 
-0.0004204594877926861 
9.267702025484756e-006 
-0.0002806717936165539 
-3.843897105278151e-005 
0.0001734773999337334 
-4.425609533537388e-005 
-0.0001604624750418805 
-2.389635029478971e-005 
-9.506504195390349e-005 
-0.0002177420098603411 
-5.100033593528782e-005 
-0.0002390012862233181 
-0.0005611989838754509 
-1.68712212005011e-005 
-0.0001678271234207461 
0.0001033853375073758 
0.00025354183676603 
-8.119383168303465e-005 
0.000212054557333737 
-0.0001234282086339981 
-0.0004299037815317937 
-0.0001445477464644683 
7.785490872965669e-005 
-0.0004055937334541681 
-0.0004411258091393886 
3.535871548368105e-005 
-7.876336257206104e-005 
-0.00010590911817533 
6.759367867982525e-005 
0.0001946765960635358 
-3.384860602727406e-005 
0.0001275330618650728 
3.593269727118189e-005 
-0.0001030563363582641 
-0.0003020625247919399 
0.0001165803588256935 
-0.0002233602766820941 
-9.025434194628445e-005 
-0.0001409147877913412 
0.0001109125767635701 
-9.852228941646627e-005 
-0.0002014542096625964 
-6.477024068422511e-005 
7.370349587778096e-005 
-0.0003556114753563742 
-0.0002814721531275799 
4.391099948444106e-005 
1.165754384270977e-005 
0.0001100152503874048 
7.00551429958892e-005 
2.926930993280338e-005 
5.670331974993578e-006 
-0.0001334004982742386 
-0.0006399286999324208 
9.208089534888531e-005 
-0.0001675191609923982 
-0.0002118085757676215 
-5.869581130775421e-005 
-0.0004770969543009949 
-0.0001733816146831049 
-0.0001248305981718141 
-0.0002326467376436875 
3.974936268352285e-005 
-9.018409257521067e-005 
-6.336886721020924e-005 
-7.618931236586774e-005 
-0.0005569392001884283 
-8.938205822287416e-005 
0.0001947457238900434 
-0.0001790192504187566 
-0.0003209563802205861 
-4.245820954480229e-005 
-0.0002550695782945895 
-9.968333057449733e-005 
-0.0001684790106146967 
-0.0002945689988001017 
-0.0002396006174525022 
-0.0004578369435259192 
3.462576977143973e-005 
-1.193366203184018e-005 
-0.000160353239621423 
-4.490529935721931e-005 
0.0002092297976385936 
-2.835424864910437e-005 
0.0004929921255405823 
-0.0001882162671739699 
0.0002520927905107233 
-0.0004440168734393792 
0.0004574314792137615 
3.350257374484559e-005 
-0.0002443950181418572 
0.0001838968095204278 
8.827301480327821e-005 
0.0005006346651650571 
0.000111022814258097 
3.010366921109764e-005 
-6.648758825587254e-005 
-4.326161464200198e-005 
-0.0003732117474282068 
-7.975483511775453e-005 
-4.335277627926853e-005 
0.0004236420262926015 
-1.460269459885023e-006 
3.700516850634521e-005 
-0.000282402589205751 
0.0001101731204489645 
-2.279449152656201e-005 
-0.0005577101488830786 
-0.0001343221820555944 
-0.0002056355005687645 
0.0001812998281509707 
7.99800937503244e-005 
7.421507977953783e-005 
-7.232794834335422e-005 
6.976609275076805e-005 
-6.462359493040702e-005 
-0.0006140105217444639 
7.075715512613168e-005 
-5.645823892376451e-005 
-0.0004979321327951149 
4.584246755563491e-005 
-0.0001101341067394784 
5.119954421734105e-005 
-3.16826821099253e-005 
-0.0001009316380812222 
-1.553292802220793e-005 
-1.578584983229888e-005 
-6.095882112056777e-005 
0.0001674643130684206 
-2.253801305398605e-005 
1.485042141155671e-005 
-0.00014586431505322 
9.0998260424914e-005 
7.741293881946985e-005 
-0.0001439470451123664 
-0.0002154924878276333 
2.234838195087114e-005 
-0.0001229918283780181 
0.0001411171862068536 
0.0001748634629060503 
-2.983416337178932e-005 
-0.0001450705419115328 
2.293757646675879e-005 
0.0002235482396446243 
2.839368029392642e-005 
-0.000110850453492225 
0.0001009280833487263 
-0.000262079651072394 
4.918200938706345e-005 
0.0002643692216698356 
0.0003827516154115427 
-0.0001626439633096483 
0.0001306420815400998 
-0.000311204438933497 
4.656688014200229e-005 
-0.0002999698153302938 
0.0003111423687161862 
-0.0004274553574858513 
0.0001735825163125607 
-5.349237579770558e-006 
0.0002000352385195861 
3.53767087499922e-005 
-0.0001843882382775737 
-9.474570910586737e-005 
0.0001020858391923366 
0.0002628888548505829 
-0.0002192124750886566 
-0.0009945697163501381 
0.0001865533904740209 
2.615945872056196e-005 
-0.0003515535425620407 
-0.0001222857386271785 
1.355963569340876e-005 
-4.969717249058208e-005 
4.205043304868032e-005 
0.0003602822266719509 
-0.0001234665336769079 
4.378836363774574e-005 
-0.0005360044013539357 
-0.0001906101605623284 
0.0004973743147215988 
-5.31788771400335e-005 
0.0001593585825159012 
-8.196100311854305e-005 
-3.936858595241503e-005 
-0.0007695309666230602 
-0.0004473073553642978 
-0.0001102907514644618 
0.0002120756599090238 
-0.0004502912545539823 
-6.006940266500331e-005 
-0.000245128202020236 
9.394427737962674e-005 
-1.435821205436138e-005 
0.0001337155205729977 
-4.618944506758802e-005 
7.804241042202268e-005 
-0.0001291160283208749 
1.869592113435814e-005 
-0.0002612917638938824 
2.451312684701399e-006 
-7.296200256417184e-005 
-0.0003763513981914533 
8.004399848625756e-005 
-4.465982611134949e-005 
-0.0002141234793772942 
-5.302349847728568e-005 
0.0001292386774423985 
-4.613469845087204e-005 
-2.406392962837774e-005 
0.0001013166957433326 
-0.0001065017362261388 
0.0001126766539177952 
-0.0002036055539485153 
7.008272932900367e-005 
0.0001001972346161826 
-0.0003702787394937879 
2.623321168485834e-005 
0.000319590170145888 
-0.0001026842043341091 
0.0001024735766356948 
0.0005496108373217537 
-8.881054857219745e-006 
5.490095043248647e-005 
-3.224255668985393e-006 
-5.737439364709385e-006 
-0.0004029621713345244 
0.0001044907445040388 
0.0001161132851190939 
0.0002232073317431935 
8.228317885550875e-007 
-0.0003406660032075225 
0.0001624930244329776 
-0.0003424259851024726 
6.012740414480116e-005 
3.820067937372764e-005 
-0.000122116384061557 
-0.0008671848097128069 
-0.0002144587194624594 
-0.0002750189479836016 
0.0001240878275562761 
0.0001335321018809049 
-0.0004229138454643359 
7.419183914421432e-005 
8.6157405992874e-005 
-0.0003105804024850915 
-0.0001517548313947907 
-0.0002290833105269754 
-0.0002004705094653234 
0.000127987742174617 
-0.0002372712369791186 
0.0003129699469482954 
-0.0001644435044595843 
-0.0001183374445957623 
9.604236798925124e-005 
4.358288906692507e-005 
-0.0002482309533151675 
0.0001416586907534758 
0.000524568039887401 
4.639810560456794e-005 
8.137967367537907e-005 
1.235580651827207e-005 
0.0001133955178196467 
-0.0005521731711219646 
8.16325818523341e-005 
0.0002682097831828375 
-0.0002169975850573524 
-1.25804780988518e-005 
-0.0002374563567841037 
-0.0001291316816356648 
-6.262937745635907e-005 
-0.0001233942258295078 
3.594775097229513e-005 
-4.152461451312493e-005 
-4.835445552096665e-005 
-0.0003323312149666034 
8.017654411946341e-005 
-0.0004089082599050366 
1.76898516469357e-005 
-3.529694185267825e-005 
-0.0001302099796309366 
-0.0007223617561146888 
-0.0003795081241764744 
-1.100717275952352e-005 
0.0001447248406172665 
-0.0001827377251961905 
2.455177233514991e-005 
-0.0004470627376273716 
0.0001926943400388345 
-2.278197956140769e-005 
-0.0004836965713834754 
-0.0001584861260233578 
0.000145912366328864 
-0.0002343932111545194 
-1.840733044864657e-005 
-0.0003211347977485155 
-0.001038155645131052 
0.000220640526699445 
-9.636530624403778e-005 
-2.198969933358763e-005 
4.309525980023804e-005 
-0.0007636605765338405 
0.000220643570307304 
-0.0003595326714243876 
-0.0002238872960514264 
0.0002091054075991909 
2.61346413019454e-005 
0.000123009371722039 
-3.178762347642117e-007 
9.69131403644133e-005 
-0.0002134431349859428 
-0.001073959457762353 
-0.0001369851733245958 
0.0002960447007447578 
-9.297772217639009e-005 
0.0003620841338674796 
-1.114277780723779e-006 
-0.0001490909697815019 
-0.0001444050292194875 
0.0001925526810788683 
-0.0005664757866744784 
2.308422715756842e-005 
3.818614747744224e-005 
2.464222070285731e-005 
-0.0003515971864347628 
0.0002084901437231327 
-6.28232967943218e-005 
7.338078300327933e-005 
-0.000323336923490036 
-0.0004213193957920993 
0.0001507486344327332 
-1.665343447655798e-005 
0.0001669824325390592 
-0.001070095883940656 
-2.151607882404017e-005 
0.000153134784222502 
-0.0002381592913981746 
-0.0001761448562015718 
0.0003701050035687932 
0.0001125103633552383 
-0.000254084180383778 
3.331389897587653e-005 
2.738547876859959e-005 
0.0002887231119967377 
-7.970785084101414e-005 
8.668616007546007e-005 
5.506285086435622e-005 
5.617947912992442e-005 
0.00019704993472141 
0.0001259721767023691 
0.0001547306140596906 
0.0001795813379930159 
-0.0002480273013017606 
-0.0001524578969371725 
-0.0008560844317393509 
-6.278413832001229e-005 
-0.0001128692973411695 
0.0001758724990996229 
-0.0002636803804913132 
3.603745816510741e-005 
-0.0005779719063927342 
-0.0005584342919619115 
-1.379302606587216e-005 
-0.0003224330638328113 
-2.260319594465464e-005 
0.0001236525617347294 
7.452377357465668e-005 
-8.219733452216112e-005 
-0.0003624617229392126 
-0.0001182342366699539 
0.0001495536903916139 
-5.260273496178019e-005 
-0.0004717768726391673 
3.671815515120687e-005 
-0.0002352247442108655 
-0.0006951731844230199 
-0.001442832637431386 
-0.002206375064028203 
-0.0001233146904531247 
-0.0003199144411090315 
6.451529648946417e-005 
-0.0002093236006074473 
-0.0004410655833450999 
-0.001399635550835389 
1.4972823159716e-005 
-3.108146528042063e-005 
0.0001203512139902239 
3.888661930171414e-005 
5.330888573318819e-005 
-2.475500156508162e-005 
-0.0001988059839720385 
-0.00121017345241584 
-0.000348252559840446 
0.0001016036384519058 
7.422146047117244e-005 
-0.0004855979341659582 
0.0001120430422524346 
0.000397757655675579 
3.696599460093058e-005 
6.964436056715674e-005 
-0.0006579357384276527 
-7.852418193521776e-005 
0.0002331698094042355 
-0.0001430048170631959 
0.0001377535814394668 
0.0001546251088874292 
-1.079662083695904e-005 
-0.0005388115211523408 
-9.92217193342845e-005 
-0.0001167813569571076 
3.999914925163042e-005 
-0.0001241395127489943 
-0.0002380888140158569 
-0.0001890978417143763 
-3.990573266089085e-005 
-0.0001201898505613565 
6.046274406287089e-005 
-3.567438265751055e-006 
-0.0002798665226473923 
-0.000422608846411596 
0.0001675017627553097 
-0.0001823701715940989 
5.483037240912842e-005 
-0.0001610488096899093 
-7.038883271883177e-005 
-0.0001779335149550869 
-0.0001891113479203194 
-0.001291910427010557 
7.277647661632771e-005 
1.275632279165385e-005 
0.0001161274624873793 
-0.0001623916806366482 
-0.0001629289620923314 
0.0001011335482162521 
-0.0002114288777050643 
-5.789363699841846e-005 
0.0004889037086608774 
7.029263094947641e-005 
-8.770565560412446e-005 
0.0005662852264629197 
-3.336092092982091e-006 
-0.0004320476295436471 
-0.0001629157289027263 
-0.00063965945101813 
-0.0002952598731211294 
7.64024910330962e-005 
-2.45337576904523e-005 
-0.0003151375566094193 
-0.0001568532844861171 
9.553563357749144e-005 
3.560035725485282e-005 
0.0001437707532519346 
8.135779113226845e-005 
-0.0001017450121359249 
-1.310349657753121e-005 
0.0005654126210269733 
-0.0002526091580760752 
8.47467254335701e-005 
0.0001259145355214849 
6.586111975662104e-006 
-0.0009816331445151637 
3.870194161913321e-005 
3.372796289602599e-005 
-0.0001788494909098048 
-0.0004308503629135267 
-0.0002193213835031101 
0.0006167656388873833 
0.0002919638546882511 
-0.0001954718668013032 
-0.000156283538237786 
-1.224071684502298e-005 
3.485261384463284e-005 
-0.0001559237417456403 
0.0001122741838196814 
-4.726421824874618e-005 
-6.945962064823902e-005 
-5.78792484733496e-005 
-0.0001627088169111486 
-0.0001095637314666309 
-5.040111798068785e-005 
-0.0002232096865552979 
0.0002528546482415559 
9.97816475841197e-005 
-1.658167258626702e-005 
-0.0002466552606824647 
-0.0003253047901179975 
-0.0001700905369955319 
-0.0003596453785229245 
-0.001652709951863666 
-8.338135535165872e-005 
-0.00141994030252826 
-6.938235867834802e-006 
-7.485267405488757e-005 
-9.509982814197277e-005 
-0.000164077657323433 
9.475371394596797e-005 
0.0001485227655988987 
-0.0004465663937921949 
0.0001115371930830001 
-0.0004137650545291029 
-1.569357177867546e-005 
-5.529587559910798e-005 
0.0001613927868788852 
-0.001157777144591758 
0.0006036498935382669 
-1.014711262633144e-005 
-3.152007046445603e-005 
-3.731482156555626e-005 
0.0002467553550958467 
9.519661214692218e-005 
-3.690865926651058e-005 
-0.0001380518287409785 
-0.0004034884460018952 
4.735449444137641e-005 
-0.0003105526266277457 
-0.0002094420500798081 
-6.145684117361129e-005 
-3.896944551706423e-005 
-0.0003003585728699007 
0.0002648887211761979 
0.000377545202112867 
-0.0002535766719333967 
-8.162131843529189e-005 
-0.0002232820223947202 
-0.00013795850446411 
-6.348086506511302e-005 
-0.0001535658525763087 
-0.0002703795021045329 
0.0002557860122818314 
-0.0001301330531427655 
0.0005878523985041664 
0.0001078974797152062 
-0.0001920797871328842 
-0.000238810766398491 
-0.0001260515164825218 
0.0002471446795692844 
-0.0002560784192985928 
0.0001047551224006653 
-2.277928389852821e-005 
-0.0001081311389976851 
0.0004959692310955214 
3.205171458252086e-005 
-0.0002437521729116102 
-6.12775744862048e-005 
0.0001157500511895561 
4.06459986347572e-005 
-0.0004633518924949199 
-5.154467261033033e-005 
0.0001930824573991991 
0.0002105818000947623 
5.397733361009554e-005 
5.959864469005062e-005 
-0.0005111994044054253 
0.0001221604959567634 
0.000146775755309097 
9.055409561162666e-005 
-9.999031889227109e-005 
-0.0002032583098089312 
5.59270222237958e-005 
5.864470807453055e-005 
-0.0001981453132374916 
5.503849074605318e-005 
2.809652669277819e-005 
3.774753817483978e-005 
0.0004429457250796473 
-2.773166374952823e-005 
2.999371781571609e-005 
-0.0003761621952513098 
-0.0007110512807625917 
-0.0001037603528155524 
4.148993538446225e-005 
-0.0001481061933891738 
0.0002201809979922802 
3.81625306969114e-006 
3.003498683431142e-005 
3.05521618876178e-005 
0.0002165957726132207 
0.0001790737438318245 
-1.533738795174831e-006 
-0.0001598691833381593 
-0.0001574055123401291 
0.00020487479625057 
-8.832442070396966e-005 
-0.000642503811971894 
8.773525176715554e-005 
-0.000110549309150633 
7.763822807698605e-005 
0.0002146257183838484 
-0.000264907838136555 
-0.0002541610268027352 
0.0001011952790022588 
-0.0001742752657714821 
0.0002589206559568658 
-8.585122590478968e-005 
0.0003524364889821126 
5.595965787326401e-005 
-6.037353117474427e-005 
8.92437771937052e-005 
0.0002051184035936525 
0.000254205971317236 
0.0001763195460617739 
0.0001754410158806361 
-0.0004531156236591308 
4.91060089104283e-005 
2.536024142293505e-005 
0.0003140053302208795 
-0.0001525652454520432 
2.709959717971738e-005 
-0.000311595747300591 
-3.275069332510692e-005 
-0.0001663681510357754 
-0.0002904754701258778 
-0.0001133056516842061 
-3.474450302287948e-005 
-0.0001603403202089095 
0.0001631313922407356 
-0.0002439942851313992 
0.0003139075042538863 
-7.285295855515418e-005 
0.0003631733341176937 
-0.001014521256435015 
-0.0001919025247988598 
-0.0001847711638183544 
0.0001368277293750425 
-6.115790752419957e-005 
-0.0005712084096507239 
-0.0001154645280167457 
9.222146389693962e-005 
0.0002116916839019836 
-3.05651891364841e-005 
6.537323232781078e-005 
2.426808402605553e-005 
-6.958571053954148e-005 
9.416879342566782e-005 
1.064842537435067e-005 
0.0002075125854109879 
-0.0003025145979984671 
9.33761402326462e-005 
5.01417757039971e-005 
-0.0001061338830778873 
-0.0001020869290973807 
0.0001476743223304299 
-0.0001612163723559405 
-0.0001197307115427327 
-0.0002366207947130012 
0.0001347066615822807 
6.158578133963747e-005 
-0.0001877912771796926 
-0.0001257216500203393 
-3.419958529447011e-005 
0.0002529688827664284 
-0.0001994934106260018 
3.137845774183159e-005 
-1.711361471673369e-005 
-0.0001369633876467888 
-3.441186049249136e-005 
-4.423321161186498e-005 
-2.901638330349515e-005 
0.0002056923961958007 
-6.547285980606683e-005 
0.0002941262818332886 
-0.0005443461741516321 
0.000320038966809743 
-0.00092708255747118 
-6.432439253514384e-005 
-0.0004869144262260102 
-2.638884261083996e-006 
7.218816330849208e-005 
7.416319108310901e-005 
0.000272906786337201 
-5.918819283068983e-005 
-0.0002314742775405751 
0.0003359698468218424 
-0.0001042810972061429 
0.0001061768039940482 
-0.000162743863054643 
6.915806547688047e-005 
-0.0001723490056087607 
0.0002359604516629698 
0.0005434022054930044 
6.599974112747683e-005 
-0.0006206188342259439 
-0.0003995697688058338 
-0.0002106694608080368 
-2.363554539001727e-005 
-0.0002146066705876072 
-7.632846106980265e-005 
0.0001312928583113932 
9.426953098244259e-005 
-0.0001679039195065079 
-0.0001115329456012096 
-0.0002259675860044916 
-0.0002244855968431197 
-7.789630870505943e-005 
0.0002151889368864951 
-5.416348262075031e-005 
0.0006822617412649076 
-0.0008787788179327573 
-0.0002562075931454965 
-0.0002393332887803757 
0.0001031769799090169 
4.21995264599956e-005 
1.136166848497159e-005 
-0.0002791648551098344 
0.0003389693577703598 
-0.0005599606919263799 
-0.0001713953487674772 
6.578135111298648e-006 
0.0004194520619022132 
-6.049393158509438e-005 
0.0001847669478400163 
1.52423825427728e-005 
0.0001048170716949011 
-0.000462163512275191 
-0.0005679157792887161 
-0.0003114604664166806 
0.000396815399695122 
0.0001996940035842538 
-0.0002159102408231186 
-0.0002685781866502837 
0.0001067798419929092 
-0.0003397849468797972 
0.0002149200040113599 
-0.000526522728740351 
-0.0001973746034383626 
-4.266482919340519e-005 
-0.0006039534424133843 
2.18041880971956e-005 
-0.0005922855666863243 
-0.0007022773023916908 
0.0001494547209713786 
-0.0001676231587866343 
0.0002199986505117961 
-0.0003061509577745767 
-3.833378361003432e-005 
0.0001749753410669505 
-0.0005130031642214206 
-0.000162116886582683 
-0.0002966613290144028 
0.0003143948589829884 
-0.0002902274816455125 
0.0001770607898670978 
-0.0003233034848580143 
4.952299230127153e-005 
-2.165494690519774e-005 
0.0005302219080884822 
-4.659935058232821e-005 
4.363818080629249e-006 
0.0003974063501232729 
-2.630299483129537e-005 
4.311123726798969e-005 
1.248847953458285e-005 
0.0001836652903577762 
0.0002601234708028253 
-0.0001422641278612982 
5.752278679059403e-005 
-6.025535836744267e-005 
-0.0001300073673862712 
1.346351527950707e-005 
-0.0003269974718950271 
-0.0003482715659041662 
9.779986948176709e-005 
9.137785224262679e-005 
4.917761011471054e-005 
-0.0004614688810335349 
0.000104274576887448 
0.0002201237594483049 
0.0001046404754313418 
0.0003897662420212283 
0.0002316575047497237 
-0.0006498441728346949 
0.0001568843154846543 
0.0001431813390978837 
-7.703567623405233e-005 
0.000281066805758342 
-0.0003686215245981624 
-0.0001489674440577726 
0.0002394754904675116 
-0.0002938017573291894 
-7.116278019704412e-005 
-0.000642507420620977 
0.0001716672132229436 
-7.343888463984208e-005 
-0.000132170449634618 
-0.0003752182146759568 
-0.0001437359507802278 
0.0001403893064007208 
-8.952686617865565e-005 
-0.0001610248316074648 
-0.0001893310806071765 
-0.0002128089182765331 
0.0005085087908797137 
0.000787348137566461 
-0.0003394777145395023 
0.0001493334223435862 
-0.000147108487100963 
7.629096651319886e-005 
-0.000113141015953375 
-1.635836224810809e-005 
-0.0003643960598699612 
-0.0002749117708760899 
-1.673161953680039e-005 
-0.0001000959603160957 
0.0001354959059379457 
4.352458951429451e-005 
-2.743809675385787e-005 
0.0002386870270916468 
-0.0002569928063775477 
-2.997604170390311e-005 
0.0004591621968116472 
-0.0002251733260278759 
6.976807989987904e-005 
0.0001111979476827329 
0.0004171315897020729 
0.0002224428897048751 
0.0005815438087357753 
-0.0002610718616824861 
-3.319187930729962e-005 
3.459838943168964e-005 
0.0001458710418110377 
-6.643962064941951e-005 
-9.028634372356235e-008 
0.0001172426506188231 
-0.0008853032385274128 
6.554068690128277e-005 
0.0002907344275615141 
-8.260092994425478e-005 
0.0002087839832673275 
-0.0001661404249359033 
0.0003046762367247711 
-3.009999139506983e-005 
-9.435737276826796e-005 
-0.0004521603342210807 
-8.88549459008985e-005 
-0.0005179179887561516 
0.0002907115951161317 
-0.0002913390352016262 
3.589553737234824e-005 
-0.0005077577295513896 
-0.0002261930151630351 
-0.0003798835618592457 
-0.0002020805847446827 
-3.285133183321686e-005 
-7.286123106358971e-005 
-1.425452462240718e-005 
5.626164682825407e-005 
9.64430804236851e-005 
-0.0003448795091196628 
3.006544620989796e-006 
-6.997905239210224e-005 
0.0004497608197894413 
6.164652069382919e-005 
-0.0001015229684805142 
9.102891700297595e-005 
1.887968971768609e-006 
9.709222567970199e-005 
0.0002224830172685384 
8.017737219747429e-006 
0.0001924039022807972 
-6.366832456647214e-005 
6.717461277192569e-005 
0.00016739786844655 
-5.740765791125706e-005 
6.498977823380018e-005 
-0.0003318822647701958 
0.0001735988945790642 
-0.0001731819936072127 
3.415699254982725e-005 
-0.0001882075610462832 
-7.992222169743843e-005 
-7.745927350807119e-005 
8.476963018711334e-005 
-0.0006693287276907437 
-0.0008244318901110861 
4.20551090675199e-005 
-0.0003531314241155359 
-4.470822190520085e-005 
0.0008245630881478044 
-0.000226236514135 
-0.0003739249523577649 
-2.471235163004995e-005 
3.731320691171107e-006 
1.364231038135607e-006 
-0.0002255602777238582 
-0.0003312522006207242 
0.0004110878600026617 
-0.0005520483993664501 
-0.0004967008123938889 
0.0003900562104762023 
-0.0002484192530413946 
-5.627771827803333e-005 
-2.66221597738328e-005 
0.0002369239697355992 
4.17239389465776e-005 
-0.0003486711475974765 
-0.0005018525897246422 
-0.0001527796480625974 
-0.0001678529727039922 
0.0001513965001455412 
4.258228381696404e-005 
4.731441864955582e-005 
-4.283748457541999e-005 
-0.0003313185048003768 
-0.0005952259391104063 
0.0002142519567867419 
0.0002910502332236063 
-0.0001054168279638091 
-9.821421117842479e-006 
-0.0002135699175303347 
7.403024322440684e-005 
0.0001410677359326425 
-0.0001507784720646009 
-0.0001990567601410056 
-3.764372801680584e-005 
0.000714762439842358 
5.666924221117941e-005 
0.0001345190368828408 
0.0001580808112922428 
1.842597658156906e-005 
-8.956726422222314e-005 
-0.0001655313492144882 
-8.273856364393982e-006 
-0.0005020021234690182 
-0.00057638762275007 
-0.0008419955784594456 
-0.0001077194515208197 
-2.533382366491403e-005 
1.077012154965575e-005 
0.0003246811578182871 
-6.217458491458721e-006 
-0.0001067152688578818 
-0.000254970392707626 
6.87741704102105e-006 
-0.0008353201475377748 
-1.967453538203425e-005 
-0.0006633451005800643 
-0.0003894904539180132 
6.353889937107763e-005 
5.689895379130887e-005 
-0.000296309850698551 
0.0001171267126024049 
-0.0001343779670257054 
0.0002079634421997255 
-2.146234159428396e-005 
-4.373827281873072e-005 
0.0001158945911315708 
8.673034923783835e-005 
-2.350553456326187e-005 
-0.0005844237024021312 
-0.0002445530713760628 
-5.684579164978514e-005 
-0.0002108461485952935 
0.0003329331773795648 
6.186958215161863e-005 
7.483934200080693e-006 
-0.0004455505612505176 
6.087787643303287e-005 
-0.000132451631310809 
2.545660305581117e-005 
-1.348512018563784e-005 
-5.912201231569311e-005 
0.0001324124964422347 
-4.0335738007254e-005 
6.365434868301195e-005 
4.910310206134056e-005 
-0.0003954914293915289 
-0.0001624175139298608 
5.168510179873079e-005 
-0.0006371203819227075 
-0.0001205389517974815 
5.663427469543053e-005 
-2.055601223528596e-005 
-0.0003377458745122147 
-0.0002230699048609888 
6.199511450179054e-005 
1.644895677689851e-006 
-0.0005228759235226444 
-1.642579144695849e-005 
-0.0005515130791935009 
0.0003596577727651874 
0.0004138774356027894 
-0.000304266266296735 
2.693219795312785e-005 
-0.0003473391932603927 
0.0004491314108153759 
-0.0004534699175669728 
-0.0003459046552757837 
-0.0006789150216435572 
0.0005324669884652171 
-0.0004935858891135542 
8.213773642867945e-005 
1.578648986343911e-005 
2.754101053333984e-005 
-0.0001693086359652932 
-0.0002222495968713366 
-9.846123502420448e-005 
8.579198981396754e-005 
0.0004889049681423711 
-0.0001403980877098917 
6.518213510175714e-007 
0.000441281850711955 
-0.0001290173155931765 
2.702475724153159e-005 
-0.0008892066668655372 
0.0002814285429830826 
0.0001331830807559021 
0.0001972872349367556 
6.208488508236313e-006 
-0.0002451377938329956 
7.709022701729407e-005 
-6.559374845329112e-005 
0.0001131400856986551 
-0.0006972067081434779 
-0.0001364176091430839 
-4.816297938945219e-005 
0.0001542704075530456 
0.0006616781379266502 
-0.0001530775879138527 
0.0001765202329874217 
-0.001519197658378152 
0.0001229072190787398 
-0.0001262688408778648 
0.0001562538803627172 
-0.0001654266587082161 
0.0001021027383115825 
-1.508433309255225e-005 
0.0001712417168376462 
0.0001228874893600046 
0.0004005629982068891 
2.7950158545232e-005 
0.0001041062095086314 
0.0003506996147648092 
0.0006734139828271839 
-0.0001027479564384321 
-0.0001080540097588081 
-2.872769893854986e-005 
-0.000161768529872987 
-9.75860316362627e-005 
-0.0001791659779679213 
-4.55515109577196e-005 
9.46712837503627e-005 
8.031239570642764e-005 
-4.871968087151374e-005 
-9.75415676324049e-005 
0.0002318570107015579 
0.0001732689822210789 
-4.785778873757783e-005 
-3.008648606032433e-006 
5.497989656487984e-005 
-5.432439979451191e-005 
-0.0003594928245624804 
-0.0001638993557032965 
2.466237852811927e-005 
0.0003128692765498413 
3.453222559418932e-006 
3.172723501095651e-005 
-0.0002333177233989416 
-2.430876682728989e-005 
-0.0003238295583354873 
6.098756224477348e-005 
4.470063454617529e-005 
0.0001067125718411002 
-2.472264893974915e-005 
0.0002517104811640485 
-0.0005202012724968235 
-0.0001981603141412727 
-0.0001064627704425779 
9.361116182760819e-005 
-0.0007810218054191332 
0.0001846213842051528 
-5.305081965197054e-005 
6.713157799159223e-006 
-0.0005712761115023543 
0.0001015322057553631 
-0.0002118680531771791 
-0.0002009814513452907 
-0.0004442097989000544 
0.0001136272871466782 
-0.0002129716848426038 
0.0003521951418095244 
0.0004044721337339265 
-0.0002696050073391126 
0.0004471695914040476 
0.0003213671909257581 
-0.0008236843886611047 
-0.0001782559259290027 
-2.117797278453465e-005 
-9.082527875947056e-005 
0.000290180768498753 
-0.0001294276402845975 
-0.0002879701062892472 
7.648314746475723e-008 
3.216899838611163e-005 
-0.0005405858035600795 
0.0001258662286944261 
-0.0002536846393716866 
-9.569160855962048e-005 
-0.0003430139832176433 
-0.0001569101256233998 
-0.0003318495307187686 
-0.0001888081811497532 
-0.0005154574723197088 
-6.429887111666127e-005 
-0.000213060377732119 
0.000266138396288918 
-8.987632191423456e-005 
6.127777048347302e-005 
2.029740520577456e-006 
0.0002598295878535419 
-9.036501374915682e-005 
2.93131484664313e-005 
8.710940147181387e-005 
0.0003639426495701622 
9.868967767601958e-005 
1.955856445536525e-005 
-3.374673839392205e-005 
0.0006275386746552286 
0.0002875362629620775 
8.888955014628893e-005 
5.793928787882445e-005 
-5.427530422940509e-005 
2.048713405338074e-005 
0.0002857346265179567 
0.000258100802285682 
-0.0002137632059365274 
6.589654559723277e-005 
6.590535628173689e-005 
0.0001283185056398938 
0.0004641776589124959 
-3.532726086616141e-005 
0.0003551184424215485 
0.0001093239373793163 
-0.001116079507818258 
-6.247924112366857e-005 
-0.0002974187716008933 
9.554537070312665e-006 
-0.000107571099911033 
-0.000166965532201665 
8.388733777119932e-005 
0.0001456728833403745 
0.0001730558845066582 
-0.0007539771125658646 
7.014539529858052e-005 
0.000159019841137525 
0.0001594703070474285 
3.757139837863594e-005 
-4.705289448709865e-005 
0.0007348407006386858 
-0.0004121835298534084 
-8.103556283620566e-005 
-0.0001339792402445897 
5.688326855842583e-005 
3.716272134318468e-005 
-1.740496076199663e-005 
-0.0002312328123232872 
-0.0001274231959487815 
-5.079856110405508e-005 
-4.008355963820987e-005 
-8.951130969038818e-005 
0.0001886076822123857 
0.0002464343892940465 
0.0002100012983885088 
-0.0002384847406092586 
0.0002848810699494085 
0.0006170436039491425 
-2.97904486346909e-005 
0.0002731566311501975 
0.0001123812571960983 
0.0002436870639853959 
0.0001832984785620456 
-0.0002451622094639256 
-0.0002092231796479044 
0.000214238986178634 
0.000612538634306517 
8.222110464806534e-005 
-0.0001332077347204007 
0.0004293837842627461 
-0.0001272019773408468 
-5.88886966715216e-005 
8.524959802228123e-005 
8.959033090036803e-005 
0.0001884318418810289 
-8.098461057586342e-006 
-5.440339971023549e-005 
6.529296869758661e-005 
7.175354484917301e-005 
-0.000166454841538487 
-0.0002105942834479307 
0.0001532843640700151 
-1.525878003434014e-005 
-5.204701253154718e-005 
0.0005248256112869136 
0.0001723733300431654 
-6.690688351742541e-005 
-0.0001675839573980827 
-0.0002081765126380757 
-0.0001259134900648068 
0.0003042860754074014 
-0.0001316283280803584 
-0.0001048704624241779 
-3.545423284584928e-005 
-3.217153412353115e-005 
-0.001078945791219531 
-0.0001098732374847123 
0.0001880671568075138 
-6.918412095504731e-005 
-0.0003347701190122223 
0.0003491715494421865 
-0.0006574918136304511 
7.89263563715017e-005 
-0.000219265218970486 
-0.0002371911892332199 
-0.0001272232112474696 
-0.0009108174287510677 
-5.603467517989136e-006 
0.0001631420614153919 
7.141677005620658e-005 
8.732551524294598e-006 
0.0001727439989225863 
-7.737205292691951e-005 
0.0003013588716796262 
-7.718265269461643e-006 
0.0002658485538524583 
-0.0001257164603909948 
-0.0001252455316539602 
-8.6826985641231e-006 
-6.351219778711523e-005 
-0.0002663744622155034 
0.0002359910555349446 
0.0004525909028717379 
5.69242914244543e-005 
4.016895357310965e-005 
0.0001427076666422947 
0.0001045795742227469 
-3.758933864934137e-005 
0.000145250459561731 
-0.0002405028830069042 
-0.0002008190985644996 
1.645904715393339e-005 
0.0001228177132399546 
-4.612329376899044e-005 
-9.199885582143753e-005 
7.073225455954941e-006 
7.809056659386837e-005 
-5.904810968778152e-005 
0.0003436869163465549 
-0.0001773839220617114 
0.0001335423197425533 
-0.0001309084605735359 
8.438177385187761e-006 
0.0001501976434701509 
4.943401718514997e-006 
-3.676322660837398e-006 
0.0001819443193921043 
-0.0001130335569277981 
-2.966066204504098e-005 
-0.0001880463911617639 
4.022075651126387e-005 
-3.878257775700362e-005 
0.0002184548704776029 
-5.490880195279891e-005 
-0.0002210699329326198 
-1.357481628771788e-005 
0.0001116168432252264 
0.0001564414798392763 
-0.0001974554774164087 
-1.085714937534845e-005 
7.694118753228542e-006 
-4.687534148458926e-005 
7.11684791325623e-005 
0.0002544335050869312 
0.0001193366093945275 
-0.0002952863917496442 
0.0002781179875375605 
0.0001608536364543666 
-0.0005162667726721673 
0.0001654190127502472 
-7.635178940845406e-006 
-3.651308234066079e-005 
8.913500188281563e-005 
-6.480699925124408e-006 
0.0001312798805194128 
-7.5147481683427e-005 
4.790927815794211e-005 
0.0001768729035316163 
7.067465501094122e-005 
0.0001387068176952357 
-0.0002694188792444449 
1.713157457435956e-005 
-4.748009852856506e-005 
0.0002592085392685035 
-3.379475513736174e-005 
0.0001932311928748112 
-0.0001578132533353912 
-1.642181889023911e-005 
-7.622212784306262e-005 
-0.0001676115438605184 
1.974286790356556e-005 
-3.438174452825636e-005 
0.000143502773582918 
-2.129506935254247e-005 
-0.0001297540708633918 
0.000241342428380097 
0.0001611574636213308 
-0.0001277447448991161 
-7.157349517738365e-006 
7.939161624520485e-005 
-7.694519631349099e-005 
-4.682017310655279e-005 
0.000292321493866728 
-0.0002010904442424374 
-0.0003336353109791336 
9.05346792465322e-005 
2.1206187275894e-006 
-0.0002790711534419356 
1.510744328084713e-005 
0.0002479786466296148 
2.049937797115362e-005 
-6.11418855327985e-005 
-0.0002231746538913997 
-8.608940129616872e-005 
-0.0002191090665737379 
-0.0002453123518890233 
-0.0001210835377147378 
-0.0003048817593029901 
-0.00034840452604298 
-1.575808952980176e-005 
-0.0001094676183836353 
4.445069482600808e-005 
-2.456809250646946e-005 
3.251401682660028e-005 
7.830992543841219e-005 
7.219952510987307e-005 
0.000112029311241196 
0.0001729329222714247 
-0.0003163186922895723 
-0.0004252789346836934 
-0.0001231849175425438 
0.0002315627152690495 
-3.797462910956721e-005 
0.0001818103978492492 
-1.767420766705008e-005 
-3.756399108855121e-005 
2.681787215895803e-005 
-0.0001337771575433821 
0.0001071126113143544 
-0.0002240252366264225 
3.729383119604518e-005 
5.727208978809318e-005 
-6.283633812668609e-005 
-0.0004288931982983302 
-0.0003214095915957097 
-0.0004118044096514578 
-6.917541061548454e-005 
0.000186407283064303 
1.102666754058283e-005 
0.000237363384736452 
-0.0005722298547114461 
-9.411479061366251e-005 
-6.008903640444057e-006 
0.0002217299500136831 
-5.779722325796617e-005 
-0.0002249880240877489 
-8.958528743768843e-005 
0.000260636100860856 
-9.546411600764271e-005 
2.570522123867907e-005 
-0.0008400464255268863 
-0.0003225925355193591 
-0.0002284143761678884 
0.0004777734163830306 
-7.942819997805621e-005 
0.000389032236930161 
0.0001074158423560263 
-0.0001857043405011368 
0.0001269317512696414 
6.995744537399235e-005 
-0.0001446023825514024 
4.880249784737462e-005 
0.0002944243411479113 
0.0001273364585033966 
0.0002342227198580382 
-0.0002340113251287187 
1.172274876307733e-006 
-6.790947099540587e-005 
-3.609736170916669e-005 
-0.0003304783939208716 
9.190955628939543e-005 
-0.0005451568147864437 
-0.0002625736761317813 
-1.060232848071096e-005 
1.037325524311221e-005 
-0.0001288652919652166 
5.031808201941769e-005 
-0.0001871038834265304 
2.292355150071621e-005 
-0.0001271587651139894 
1.581704490619091e-006 
9.850614502223987e-005 
0.0001664650922682336 
0.0003856714189279867 
-9.600537792767536e-006 
-8.604244934881211e-005 
-5.028121636520434e-005 
1.609203386186997e-005 
-8.717948117960903e-005 
-4.902262009270094e-005 
-0.0003053040164595911 
0.0003094745368322988 
7.454692990103107e-005 
7.539985747488598e-005 
7.145694879613084e-005 
-0.0002498679868910172 
0.0001118213603968625 
3.371412075637884e-006 
7.152976146544133e-005 
0.0003419654947890526 
1.82387742456466e-006 
-3.730370801660209e-005 
-0.0003031004868229824 
3.243052385738741e-005 
0.0004652008011499712 
-2.342357951318308e-005 
2.328400476528252e-005 
0.000149572056712835 
-8.092600828893786e-005 
-0.0003056404433299633 
2.708540421832067e-005 
-0.0001885799682947009 
-0.0001202428733550877 
0.0002039041777359954 
0.0001981971352995663 
-0.0002267955122568002 
-0.000197553455968659 
-0.0002319430456425663 
-0.0001419960749022646 
0.0001641288325793026 
0.0002749968828399178 
-2.310983889262285e-005 
1.521356330294705e-005 
2.327877081615992e-005 
-8.074587086569622e-005 
-0.0001049673815739552 
-6.869709867831859e-005 
-5.497216963144666e-005 
0.000235706240453623 
-2.759781728616316e-005 
3.667925041717724e-005 
0.0003352555891514987 
9.15226491018365e-005 
-0.0001141696738100316 
-0.0009329506540845968 
-8.025955887355737e-005 
-0.0001101945157458148 
-8.375166431860847e-005 
0.0001588285065904102 
-0.0001370624820915679 
0.000119482248410464 
0.0002677296592140881 
-8.525400265553075e-005 
0.0002160807751864205 
0.0001731489645529911 
-0.00016052979074338 
-8.689475548052615e-005 
0.0005616662297253023 
-4.677704508674677e-005 
-8.681307554034146e-006 
-0.0008507622497047351 
-0.0002712727901668118 
0.0001365942461579156 
2.25433204818341e-005 
-0.0003014313724602058 
0.0002927121327165433 
-7.871642540711924e-006 
0.0001590160441741313 
-0.0001624273990306816 
-8.609041671764252e-007 
-0.000520140360063823 
-0.0002078782506539403 
0.0005028587420274932 
-0.0003016947177683904 
-7.574951422658239e-005 
6.045230399452652e-005 
9.993786777851035e-005 
-0.000254661504087479 
0.0001172315185789105 
-0.0001042895279098614 
5.934624720897279e-005 
-0.0003570989246018463 
-0.0001708723388362408 
-0.0003515115220006305 
0.0001832686566161141 
0.0001964503074796588 
2.393576860606505e-005 
-0.0001433403420358467 
-2.213817018686161e-005 
0.0001319729803398924 
-2.700289861888291e-005 
-9.177875570516849e-005 
1.276817899480688e-005 
-3.489691399047204e-005 
-3.016993676782033e-005 
5.161200089300172e-005 
-0.0003071469132092641 
6.451028960464142e-005 
-3.428038092252713e-005 
-5.655480128024923e-005 
-5.713630874195421e-005 
2.634057068514551e-005 
-0.0001016718337319075 
-0.0001430678247862303 
0.0003282412592804361 
-0.000500939060368003 
-5.220209737710257e-005 
-0.0002411257700780102 
-0.0007056648207289038 
0.0002349742413662473 
1.946181270703034e-005 
1.49867129579473e-005 
-0.0002918021991186506 
-9.756902571263154e-005 
-5.27321296375931e-005 
-0.0001466173901197539 
-0.0006192234490587187 
8.937395152381058e-006 
6.052263903542117e-005 
-0.0001314611125123193 
-0.0003688980814853531 
0.0001789939034465761 
-0.0002764757336961042 
0.0001236448214986529 
-0.0009315988811757587 
-0.0001403598451176345 
-2.082928298207333e-005 
0.0001187399626766551 
-2.051189990894578e-005 
-8.269660082624006e-005 
7.088370625923955e-005 
8.719638318743688e-005 
4.288990694925013e-005 
-0.0002033462639154692 
3.099350045167354e-005 
0.0001478560957190335 
0.0003032232692888275 
-9.587743960375637e-005 
6.010443870864234e-005 
-0.0001774552191718856 
7.885839616424657e-007 
-0.0001490206786443941 
-0.0003134829790141373 
-7.505985514042371e-005 
-0.0001366908958164845 
-8.021394337926931e-005 
-0.0001048790611836739 
-0.0001545879863533692 
-0.0002974863021304198 
-0.0001762779411979373 
0.0001192739454557566 
0.0001216566983696709 
0.0002501020525565167 
-0.0002352007604714171 
1.47634413585291e-005 
-9.714633217764236e-006 
-0.0002232581563973168 
-0.00031197698209151 
8.492367946335848e-005 
-5.63363320686086e-006 
5.605375708430799e-005 
7.526124053276958e-005 
4.418491509615631e-006 
-6.832401209207687e-005 
0.0001395126129290351 
4.609400517935428e-005 
0.0001270825609448001 
-3.601652170414409e-006 
3.353751743087374e-005 
0.0002004240549053958 
-0.0001257668182464683 
-2.402564960767938e-005 
0.0001018544798534568 
-0.000103153608281745 
-0.0001136732975615261 
3.017830187043868e-005 
-9.771147680455058e-005 
0.0002007221141399274 
-5.974356596950615e-005 
-3.187481712327686e-005 
-3.697324819671614e-005 
0.0001950071108866277 
1.273699258675725e-005 
-4.349240596933069e-005 
0.0001585909672523317 
0.0001862353065858508 
-0.000107399496621738 
0.0001937995438241662 
0.0001141770016154193 
5.834630071332546e-005 
-0.0002244030243615003 
-3.114079956761614e-005 
6.115076131769372e-005 
-0.000221061109840972 
3.125426240740158e-005 
-0.0001531783323886892 
0.0001703597814385379 
-0.0001680471597626339 
-0.000107824547235745 
-0.0001152073436148399 
0.0001373606763047535 
-0.0004723665416199858 
-6.589499442363674e-005 
0.0002093763185080391 
-9.544285124860786e-005 
-0.0001564225421216523 
-0.0003889795946622386 
2.991874562640051e-005 
-0.0001682878646526786 
0.0001950533692232938 
0.0001091220139525299 
0.0003740243003334394 
4.866960056369406e-005 
-0.0001440490982947268 
-4.702689550743747e-005 
-3.97420788387212e-005 
8.250322929207491e-006 
0.0002970899943212383 
-6.039454433939048e-006 
-0.0002405292448822395 
7.928306643192773e-005 
-9.472768140587964e-005 
-6.448165350017224e-005 
7.080515432175706e-005 
6.103314040059654e-005 
-0.0001672201505971582 
-0.0001193202954864487 
-0.0001039078748097587 
-1.922436909857239e-005 
8.948157640218826e-006 
4.405422336001621e-005 
-0.0001589551446157083 
-0.0005257327824689858 
-2.188898557211599e-005 
0.0002672073116095748 
-0.000435306371187317 
0.0001166761650971491 
-0.0003662309275881149 
5.622116120686444e-005 
2.482223260710523e-005 
1.621478551911932e-005 
-4.844847936391185e-005 
-0.0001867909321854857 
4.581029429562623e-005 
-0.0002211133164199054 
-7.832595846081405e-005 
-0.000144889151862073 
-0.0003087958219569176 
-9.393162935711153e-005 
-0.0002818538300953301 
-8.404433577091278e-005 
0.0001956877839294675 
4.942812831127451e-005 
-0.0001839491206539054 
-3.59226042619959e-005 
-4.649983137036918e-005 
-6.404978672042677e-005 
-0.0005281130348208888 
-9.743301703416619e-005 
3.559747175881643e-005 
0.0001943035485411459 
5.247950609400768e-005 
8.803229575247469e-005 
-0.0004480642848986881 
0.0002938734463407374 
-0.0001865649801279211 
-1.680453437216923e-005 
-5.716613634237252e-005 
-0.0003016310054895879 
4.250889058175983e-005 
0.0001333083532180223 
0.0001308918800118634 
-0.0002807308555418593 
0.0004036309056035432 
-0.0002732885609939109 
-4.421620847850112e-005 
-0.0003082832609002054 
0.0001871612666870211 
-0.0001439014412300446 
-0.0001099619106150411 
-0.000189552413391926 
0.0004266581657366483 
-3.976072641438085e-005 
-0.0002016785341665476 
3.912742410726131e-006 
0.0003894799239939931 
0.0003333134103700053 
2.498435361664916e-005 
0.0001597030309036958 
-0.0002148075600692321 
-9.559439025839997e-005 
-3.227864077888332e-005 
-0.000132251507888382 
0.0001230224040805378 
1.100325757893605e-005 
-0.0002115341627311712 
-0.0002218343412819224 
4.60006297756983e-005 
5.930707868107321e-005 
-0.0001419032606828245 
-0.0004641015994177929 
-0.0004634455227742447 
-0.000177071066159298 
0.0001328310901584676 
-9.370053366039569e-005 
0.0002492691057897826 
-7.965172443711327e-005 
-0.0005815568196833252 
0.0001434683322909482 
-5.027071576735626e-005 
0.000115673528700378 
-0.0003173889490479423 
0.0002007970408165533 
-0.0001699420367834905 
-0.0004001873253141919 
-0.0001950292967471983 
-0.0003973734956230063 
4.291665414931562e-005 
-0.0005798980798209071 
2.075540131144769e-005 
-0.0008747082616775299 
-0.000181028985711171 
-1.368348273579198e-005 
-0.0001529585902232009 
-0.0001428746144891344 
-0.0001590119028557268 
-7.379962368680461e-006 
-0.0003352162848687164 
0.0003405040391894012 
0.0004389693135275565 
-0.0003199867777848215 
-0.0001543199782389876 
-0.0001353608998363253 
7.825869400088258e-005 
-5.330266459046234e-005 
0.0001000507439647455 
-0.0001304946115556863 
-0.0001718938321892435 
9.814574696346587e-005 
9.152684038703926e-005 
-0.0001441550072620542 
-0.0001482527313144037 
-9.650192794029763e-006 
-0.0001823864521331369 
-0.0001851833193015688 
-0.000570584567377878 
0.0001579827792075633 
-1.581769826559208e-005 
4.567971318158824e-005 
-2.727520791978452e-005 
4.039892708538985e-005 
-3.96691456596979e-005 
0.0002281421931960871 
1.40960418519004e-005 
-7.212258369180515e-005 
-0.0002491055424547797 
0.0001225213855540472 
4.049722452808628e-005 
-0.0001705575757448966 
0.000134534742198923 
-0.0002309470660698039 
0.0001404106432835989 
-4.235615239679491e-007 
0.0002350713883227918 
-0.0008759064419068294 
