solver_type L2R_L2LOSS_RANKSVM
nr_class 2
nr_feature 6620
bias -1
w
8.558471156016813e-005 
-3.221797454556781e-005 
7.516461525168024e-006 
-3.996872786817374e-005 
3.048273647821327e-005 
6.240341374291058e-005 
2.177085739496418e-005 
3.045701725449298e-005 
-6.364177381071623e-006 
5.272060767721527e-005 
2.457801384870326e-006 
-6.10956192189535e-006 
6.174384759762812e-005 
2.635332175167511e-005 
8.481192505258093e-006 
1.152433800347734e-005 
-3.990551125559109e-006 
1.24500652651156e-005 
0 
6.104065774172475e-006 
1.114689397980106e-005 
1.167458583398636e-005 
0 
1.12155500580429e-005 
1.400551210824614e-005 
2.89499662867718e-006 
0 
5.779069177803549e-006 
3.936503216955092e-006 
0 
0 
3.814735257607036e-006 
-1.869515473803602e-005 
0 
1.446388841171141e-005 
0 
1.066152579164084e-005 
0 
3.794678829380847e-006 
2.505885544572649e-005 
-4.471541302647151e-006 
0 
8.012553917077742e-006 
1.363311862016462e-005 
2.457801384870326e-006 
-6.143381954398474e-005 
-3.706400018601428e-005 
6.849494475674899e-005 
0 
-2.822890938826728e-006 
-2.577378052528857e-006 
3.07781850225786e-005 
1.137463185629892e-005 
-1.213795769524299e-005 
0.0001545142085431951 
6.094162534067464e-006 
9.121594822673972e-007 
2.81627609167275e-005 
-0.0003596369610235261 
-0.0001422926944206968 
-0.0002764109629431249 
-3.622489233164264e-005 
-0.0003397827482772188 
-3.475351408993176e-005 
-1.959478577280249e-005 
7.723203995808139e-006 
1.095635980516455e-006 
-1.782523427696191e-005 
-1.248637381277497e-005 
-0.0001024865119701535 
-1.760782784289013e-005 
1.852094324272295e-006 
-3.15285666077063e-005 
0 
2.198037221694861e-006 
1.139066248233916e-006 
1.906038549353228e-005 
0 
1.19091052389483e-005 
-1.203177973814675e-005 
0 
0 
3.936503216955092e-006 
0 
-3.340525627938961e-005 
0 
-3.533092930712224e-005 
-4.520631116319998e-006 
-1.529121325454062e-005 
0 
0 
4.604051736275447e-006 
0 
0 
1.406860000756522e-006 
-3.303504038770816e-005 
-1.425230180938487e-005 
0 
0 
0 
0 
0 
-0.0001725208238924697 
-9.65545640238773e-005 
-1.270629749997119e-005 
-1.583488666727327e-006 
3.936503216955092e-006 
-9.332917121190952e-006 
1.378949847952864e-006 
-8.438683165405533e-005 
-0.0004947472410220528 
-8.116455551827848e-005 
-9.494346254407859e-006 
-2.685639182168028e-005 
1.606111093680616e-005 
-0.0001401701522299393 
2.359623335024958e-006 
-0.001825478315142831 
-0.0001864412339651023 
-0.0002767891741016427 
-0.0002753529158334454 
-5.234017461419337e-005 
-7.775616749361508e-005 
-4.799244269858941e-006 
-1.247731127495535e-005 
3.495136317788805e-006 
7.684404859403647e-005 
-1.725020327907641e-005 
-1.233146828972148e-005 
3.514944180098324e-005 
-3.85931637994255e-006 
1.146824040476328e-006 
-9.059401673874948e-007 
9.605090356470106e-007 
-2.924844259619419e-005 
-0.0001467228361756018 
2.206191061619925e-007 
3.794678829380847e-006 
1.228107703962529e-006 
0 
0 
-2.677921568052683e-005 
-4.432505833167733e-005 
-5.543193771064179e-005 
0 
1.009063273518958e-006 
3.678954341435332e-005 
2.457801384870326e-006 
0 
1.130364600423248e-005 
-1.529121325454062e-005 
0 
0 
-1.221508980719385e-005 
-1.438756548272928e-005 
-1.387882748313453e-007 
1.767163537433957e-006 
1.759270919987136e-005 
0 
0 
-9.059401673874948e-007 
-1.044653414204333e-005 
-0.0001421931688503536 
-2.394721513120747e-006 
0 
-1.156377263828959e-005 
-1.203177973814675e-005 
0 
-2.270793670773722e-006 
-0.0001048664315666972 
-0.0005323663259906537 
-4.867319377832706e-005 
-6.749368271610766e-005 
-0.0001154206166337811 
-1.642700128624827e-006 
-7.05502486106517e-005 
-0.002283027427793444 
0.0001227102517250529 
2.55964270501211e-005 
-3.640349100891962e-005 
3.37740004751375e-005 
5.539804049213288e-005 
2.350908875717012e-005 
5.612259130394062e-005 
-3.903273723010608e-005 
3.778337427595667e-005 
5.981538682837407e-005 
5.940019572586964e-006 
2.508714377227761e-006 
2.452299541528033e-005 
3.402410459133081e-005 
1.339084065264785e-005 
2.192522295796568e-005 
1.070282590215017e-005 
-0.0001391742718331108 
-3.965693800616781e-007 
1.976574916019927e-005 
4.179432277223174e-006 
3.794678829380847e-006 
0 
2.310853643757075e-005 
8.056895187516363e-006 
-2.670859046251235e-005 
0 
-9.059401673874948e-007 
-2.989203663204268e-006 
1.378949847952864e-006 
0 
6.989508665244739e-006 
2.086114744098373e-005 
-5.473600741248393e-006 
7.898347924098902e-006 
-3.261787342823186e-006 
6.936217997714803e-006 
1.767163537433957e-006 
6.039952616085461e-006 
6.050906305671524e-006 
1.117943507838226e-005 
1.250073484675792e-005 
-9.059401673874948e-007 
4.131296958642237e-006 
-8.884528735247789e-006 
1.644847152118113e-007 
2.882605052476344e-005 
7.563038517166033e-006 
1.481153397143306e-005 
1.948088364039849e-005 
5.590231493021154e-005 
-3.836239023567733e-006 
-1.646554230520378e-005 
-6.326682875970943e-006 
-1.198870787261526e-006 
1.984906333303637e-006 
3.394917041228352e-005 
-2.32584598401789e-005 
0.000244145331735226 
-2.910524300517081e-005 
-1.572731376931836e-005 
-8.734585115007867e-005 
-5.972912047035068e-006 
9.261127445275275e-005 
-8.226553212173521e-005 
4.154212615661073e-005 
2.808910819114111e-005 
-0.0001965219351007585 
-7.674283535159135e-006 
0 
-1.985542392659996e-005 
-8.952595908930372e-006 
1.423182120362846e-005 
6.765473736143699e-006 
-1.537097524293317e-006 
-6.183555641261676e-006 
-7.143151440000942e-005 
0 
-4.750759466914842e-006 
1.585940314179066e-005 
7.898347924098902e-006 
1.462808868051627e-005 
-3.135123328008696e-005 
-2.617672385340388e-005 
-3.706437203814444e-006 
0 
8.504005473987458e-006 
6.394304601825419e-006 
0 
0 
-5.067407139403319e-005 
2.002646777293417e-005 
0 
0 
2.118230991311356e-005 
0 
0 
-4.135773425023664e-006 
2.987598498689024e-005 
-4.35039671958579e-005 
3.936503216955092e-006 
-8.738549784246913e-006 
-3.02739299567635e-005 
-1.517738122784229e-006 
-2.638520909358297e-005 
5.246425596752052e-005 
3.03465806935468e-005 
-1.489385942023223e-005 
7.880913169024291e-006 
2.71316688872842e-005 
2.348498586651285e-005 
-3.00922603499641e-005 
0.0001124882876465879 
1.893219209552494e-006 
-6.852387356495657e-005 
-2.078088428782183e-005 
6.194997342676174e-005 
0.0001582206119206813 
1.363493064747961e-005 
-0.000146128122872257 
-0.000300997170508069 
-0.0001726934128819993 
1.988268978516503e-005 
6.163425571203216e-006 
-2.427683777668857e-005 
-8.20371962664412e-005 
5.45959132521568e-005 
-0.000125950282907779 
-1.053514813397888e-005 
-6.988440457911087e-005 
1.352158638372295e-005 
2.651992513980712e-005 
1.228107703962529e-006 
0 
1.344031229358124e-005 
-1.658041828132601e-005 
0 
-5.008429335473558e-006 
-9.573978353276419e-006 
0 
0 
0 
-5.816757834248755e-005 
-3.941416412955965e-006 
0 
1.737211945592051e-005 
-2.746178126751873e-005 
-4.35039671958579e-005 
0 
-1.453350543653787e-005 
-1.985856304674058e-006 
-9.059401673874948e-007 
0 
-9.573978353276419e-006 
1.034785732300778e-006 
0 
0 
1.108180100333604e-005 
0 
1.63804723434521e-005 
-3.318888427188216e-005 
1.726478739548489e-005 
-6.33745457348282e-005 
-3.221006431031536e-005 
2.638449797829989e-005 
-1.733009023012169e-005 
3.637811345345954e-005 
-8.369094037908529e-006 
-4.53559454832973e-005 
3.774642144527313e-005 
-0.0001919249316794855 
-2.009574407088888e-005 
2.788638836711205e-005 
-4.314417156571771e-005 
-1.470279155515486e-005 
-3.016791301826816e-005 
-0.0009003412221080585 
-9.384909319653965e-006 
-0.0003617701073030009 
2.117676829576112e-005 
-0.0002862482210871588 
-6.51060813001571e-006 
4.489930915721842e-005 
-4.438346948478415e-005 
-6.173566530721144e-005 
-2.627843402868857e-005 
2.721550770097467e-005 
-2.487292288628577e-005 
-1.91415276652907e-005 
-1.200221958082256e-005 
-9.255936911700243e-006 
-8.544387306442337e-007 
4.353837517323759e-005 
3.677922099138321e-008 
4.154779540879359e-005 
1.767163537433957e-006 
0 
-2.067811836210552e-005 
0 
0 
0 
4.345948726691081e-005 
-2.248475619275997e-005 
-1.529121325454062e-005 
-7.121805707928676e-006 
-1.707546724455665e-006 
7.898347924098902e-006 
0 
4.719543112078194e-005 
4.801228884778516e-006 
0 
0 
-1.297063592483212e-005 
-1.499036421767423e-006 
-2.691774346083462e-005 
-2.183634248724092e-005 
-2.101061797158528e-006 
0 
-9.059401673874948e-007 
-1.112239216878579e-005 
-0.0002432792770845881 
-4.027173466932073e-005 
-9.843038020683695e-006 
4.546335230175377e-006 
1.557618768637971e-005 
-1.001169474586355e-005 
-5.314022783339401e-007 
-1.991299072478679e-005 
-0.0002908687602161553 
5.841801467711227e-005 
6.697039814025669e-005 
-2.634982247361766e-005 
8.992379726527694e-005 
2.842522641607193e-005 
-2.171681478401963e-005 
-0.0006632399717346564 
4.118627494425032e-006 
7.024802257975818e-005 
-5.130957651044476e-005 
-3.367282199210076e-005 
1.413628220751818e-005 
-0.0001439436432190756 
-3.922524408882946e-005 
1.340359216884189e-005 
-1.628478334751152e-005 
2.084668922073802e-005 
-7.022800260305626e-006 
0 
-1.429093662563054e-005 
1.888296905941866e-005 
1.378949847952864e-006 
1.84623599262456e-005 
-8.218241039040724e-006 
2.7203368274957e-005 
0 
0 
0 
0 
0 
-2.48036653198969e-006 
-1.491378098744933e-005 
1.290810971492667e-005 
0 
1.187749026153825e-005 
4.604051736275447e-006 
0 
0 
6.173313139540785e-006 
0 
-1.758979793543627e-005 
0 
-4.739024025869293e-006 
-2.854370764932001e-006 
0 
1.276633023312066e-006 
-2.400075124625782e-005 
-1.065282989019388e-005 
0 
-2.183634248724092e-005 
1.59851045762901e-005 
6.936217997714803e-006 
2.010044169137213e-005 
1.202167313446919e-005 
-6.602121310232563e-005 
-1.223926387620508e-005 
3.448852915015519e-006 
-7.044159069597664e-005 
-5.465245719146379e-005 
-4.993548547786149e-005 
-5.17427862918223e-006 
3.502488631319938e-005 
-2.220496127274715e-005 
1.342809814628374e-005 
4.442317496548925e-005 
0.0002403435476204239 
-1.292406893865108e-005 
-1.168025295408915e-005 
2.194409611522856e-006 
1.743691020940126e-005 
-6.160695618487065e-005 
-3.905054124773611e-005 
-9.283335403437875e-006 
3.823823650944157e-005 
1.943671203548922e-005 
5.479107531280217e-006 
-4.402163101950571e-005 
1.021933486101732e-005 
-7.066499214587285e-005 
1.39866873191154e-006 
-8.07854609153066e-006 
3.794678829380847e-006 
-1.697630786885731e-005 
-5.242414244455232e-006 
0 
3.814735257607036e-006 
2.796681992766717e-006 
0 
-3.395253968142877e-005 
0 
2.444567223150653e-005 
0 
0 
2.44275958143398e-005 
0 
0 
0 
2.882901458093753e-005 
8.15718796285465e-006 
0 
4.480775148029451e-006 
-3.889541287471474e-005 
0 
0 
-2.854370764932001e-006 
7.434774623795103e-006 
-3.353022442439585e-006 
0 
-2.344338723225301e-005 
-5.73469794938931e-005 
-5.473600741248393e-006 
-1.991803555980843e-005 
-3.068580964597284e-005 
4.706619238270197e-005 
1.34465498324941e-005 
3.146113385386826e-006 
5.122510969852214e-006 
-5.705598655037303e-005 
3.422502861613835e-005 
2.875616883356363e-005 
0.0001022540976961802 
2.21560728399915e-005 
-1.014239507870253e-006 
-6.024186724434841e-005 
0.0003806851555646047 
2.591302718372909e-005 
-3.143330106856401e-005 
-5.591720253084249e-006 
-2.55597267365192e-005 
-1.844677058257022e-005 
-1.51135653685054e-005 
-0.0001059490956773505 
-3.627437222258167e-005 
2.767814586220415e-005 
-2.295691850253158e-005 
3.838305791283573e-006 
2.7651524021575e-005 
1.384878683382062e-005 
-2.203177659406706e-005 
-1.010344355431361e-005 
-1.2899155634082e-006 
0 
-1.027368759397305e-006 
1.276633023312066e-006 
0 
9.346837644357563e-006 
0 
1.117943507838226e-005 
0 
-3.70914082307906e-007 
1.3341290844177e-005 
0 
-4.709763478696423e-006 
-2.509883181522705e-005 
-1.138221973733229e-006 
0 
-1.71122984802608e-006 
7.653023899091676e-007 
0 
0 
5.290033519948388e-006 
1.177362200592864e-005 
1.146824040476328e-006 
0 
3.534241161225544e-007 
0 
0 
1.978688999933081e-006 
-7.051972441123799e-005 
3.43653582991553e-005 
-2.142792284929386e-005 
-1.887293550270266e-005 
-2.196595937774203e-005 
-7.656421031285263e-006 
-6.899809530829396e-006 
-3.951605187518432e-005 
-3.784144994301753e-005 
-4.172172107792684e-005 
-8.666199288556236e-005 
-0.0001445992176651522 
-5.511245404752018e-006 
3.422576434043326e-005 
2.623676517430761e-005 
-0.0001448734949895095 
1.044723456730986e-005 
-3.689300270757023e-005 
-7.502961599638617e-005 
-5.023162471772766e-006 
-0.0001544446349751328 
-7.405780691224007e-005 
2.338596301649665e-005 
-5.036701518715847e-006 
2.115224811399314e-005 
-1.173532545263809e-005 
2.759454504021953e-005 
2.95412627664715e-006 
-1.202059393998584e-005 
-2.837120085736294e-005 
-3.521563687385618e-005 
-4.520631116319998e-006 
1.650748634938806e-005 
2.967393694870047e-005 
0 
2.399405692661774e-006 
0 
1.378949847952864e-006 
-1.439925200822431e-005 
0 
-1.975113603463292e-005 
3.571253802349901e-005 
0 
1.601714732888744e-005 
2.380329839372237e-005 
-7.157461882673277e-007 
0 
-1.488615050307876e-005 
1.131633589802473e-005 
0 
1.767163537433957e-006 
1.167458583398636e-005 
0 
-8.884528735247789e-006 
-9.059401673874948e-007 
1.187749026153825e-005 
-5.514723272976524e-006 
0 
-5.019350108601334e-005 
-3.662136508436301e-005 
8.065020912429206e-005 
-2.941134813905283e-006 
1.437088365305147e-005 
-4.333070149233677e-005 
2.457801384870326e-006 
3.455407500129761e-006 
-3.812042640821402e-005 
5.694992677218151e-005 
5.094233900604795e-005 
-1.855282299003374e-005 
-8.593738014335037e-005 
-4.48710529663132e-005 
-3.943084794697318e-005 
-2.215214367821515e-005 
-6.325480052845741e-005 
3.30606263907101e-005 
2.20077024447272e-005 
-1.13336383405682e-005 
1.684977450004168e-005 
-0.0001008829821990923 
-0.0001708978120906046 
-1.665975452518757e-005 
3.966568488641668e-005 
1.521997496648395e-005 
-3.029820128931372e-005 
0 
2.18778420030784e-006 
2.181027690881975e-005 
3.434554110102463e-005 
8.407279801973509e-006 
-5.473600741248393e-006 
6.765473736143699e-006 
-1.8015882228464e-006 
0 
0 
-1.840774914536058e-005 
-1.476087564065927e-006 
0 
2.380329839372237e-005 
2.998120722740446e-005 
1.292097054307374e-006 
0 
7.812518777091459e-006 
2.137875570621523e-006 
0 
0 
-7.45640428351902e-006 
-1.211619719418788e-005 
0 
0 
1.272467587591464e-005 
2.079875298498236e-005 
0 
7.898347924098902e-006 
-1.242806156298331e-005 
0 
0 
-7.18850125627223e-006 
-7.769396986559193e-005 
-1.562021338895737e-006 
5.248984651935934e-006 
-0.0001583134936027439 
3.751330059081238e-005 
0 
1.767163537433957e-006 
7.404122372577751e-005 
-2.330654155428369e-005 
1.930627779636199e-005 
4.933224700715522e-005 
-3.589261770069155e-005 
4.298915881643142e-005 
2.097584312652499e-005 
-5.284738679840381e-005 
5.150861546940021e-005 
-2.021076894147658e-005 
-0.0001163144249857951 
1.46752589482933e-005 
-3.46666865236041e-005 
-1.727605582316057e-005 
4.013537340715888e-005 
-2.139552667087179e-005 
6.660500838188517e-005 
-0.0001279805368556617 
4.810435416391315e-005 
0 
2.717604955526316e-005 
2.445914838123096e-005 
2.506541163988277e-005 
-2.058857854583919e-006 
1.09734055033006e-005 
2.960250125264285e-005 
5.933431017438938e-005 
0 
-2.420987801101254e-005 
-9.631651331606898e-006 
-2.952637931124882e-008 
1.834166792320709e-005 
0 
-8.17762569605951e-006 
1.378949847952864e-006 
0 
-7.954321373354901e-007 
-1.849148122506972e-005 
4.142095281872823e-006 
4.480775148029451e-006 
-6.632234043294626e-006 
7.669664830220302e-006 
0 
7.898347924098902e-006 
1.584807152764117e-005 
8.736834183238909e-007 
0 
0 
2.452289323615099e-005 
6.765473736143699e-006 
0 
-1.712570639892207e-006 
-3.315208492196763e-005 
1.099253961200762e-005 
-4.312577534962635e-005 
9.230918337224636e-005 
2.262640243168364e-005 
5.609969038751312e-005 
-3.056577283994491e-005 
1.64030796335427e-005 
3.869085589116641e-005 
-1.884547891109164e-005 
-6.937676336405083e-005 
2.421600193441881e-005 
2.152732441082933e-005 
-7.038137913773834e-005 
-9.990887631472292e-006 
-9.312842348519249e-005 
-6.297625447470285e-005 
4.173778622608609e-005 
-1.770076779872338e-005 
-3.33836075652486e-005 
-0.0001145302725989691 
6.651725621968585e-005 
-9.72300378513525e-006 
-5.645527173385462e-005 
6.557853337314206e-005 
-7.816736522269908e-006 
0 
-5.519570250878935e-005 
8.669023585960219e-006 
-5.09351496342848e-008 
5.964354458069285e-006 
9.605090356470106e-007 
-1.869515473803602e-005 
2.463759492577894e-005 
0 
-1.517738122784229e-006 
1.12155500580429e-005 
-1.869515473803602e-005 
0 
5.364504782139192e-006 
6.203520808579245e-006 
-1.29272732096615e-005 
0 
2.027146737474598e-005 
1.400857928421985e-005 
0 
0 
-5.649650603131075e-005 
6.586359767634815e-006 
0 
0 
3.568042976142532e-006 
0 
0 
2.89499662867718e-006 
-4.997611156594228e-006 
0 
-9.514890792846054e-006 
-8.090898692461646e-006 
1.01068241500904e-005 
-7.400527765187982e-006 
4.039522298521339e-005 
-1.690969636899039e-008 
-2.677921568052683e-005 
-2.3215785854356e-005 
8.783218088076715e-006 
-1.147810356324111e-005 
-1.85041112483246e-005 
-8.714336560642451e-005 
1.085565571579777e-005 
-8.988720570482672e-005 
-8.835865200679059e-007 
-9.323463640153006e-006 
4.305555772189637e-005 
-5.910340913220566e-005 
-0.000180013686827131 
-0.0001436403092731237 
-1.773215286340792e-005 
-7.284910090700035e-006 
-5.17389565821046e-005 
-5.059739950591352e-005 
1.698055369068047e-005 
1.542316217531809e-005 
1.820355989304906e-005 
-1.630964169284858e-005 
-2.715040850921463e-005 
-1.60687446351929e-006 
1.016168522330829e-006 
-2.274126514163693e-006 
5.100290724680191e-006 
0 
4.411017673885018e-006 
4.842749692584458e-005 
1.117943507838226e-005 
0 
8.136914851248232e-006 
-1.789983927028582e-005 
0 
0 
-4.080227058425058e-005 
1.676217876477666e-005 
0 
-4.577809371002156e-005 
-6.107544903596925e-006 
0 
0 
1.538977997272301e-006 
-1.599752620291563e-006 
0 
-5.763982874006784e-006 
-2.037779360734116e-005 
1.12155500580429e-005 
1.608607096099203e-005 
0 
-2.183634248724092e-005 
0 
-4.041290051597651e-006 
-1.138547436959947e-005 
-4.477447077220171e-005 
-1.430479497279762e-005 
0 
3.917479979069906e-006 
-1.371791062553439e-005 
-4.051786730567664e-006 
-1.297326980566768e-005 
2.146894580118241e-005 
-0.0001050441163456163 
5.933055252587421e-005 
-1.664263746417267e-005 
-7.883551120811704e-005 
1.739067162984907e-005 
-6.30246131391663e-006 
-4.569291693013439e-005 
-0.0002349114203369849 
0.0001672271033987743 
-0.0001160015409655158 
9.722999085671437e-006 
-1.819785417687383e-005 
-0.0001168833478673961 
3.955776931093383e-005 
-1.810597326751687e-005 
-1.675604640443401e-005 
3.135940412188123e-005 
-1.148466868454236e-005 
7.898347924098902e-006 
3.577664320377164e-005 
-2.9393627098938e-005 
-2.239701901105287e-007 
-5.421795680878523e-006 
1.756078637700111e-005 
1.264205706557604e-005 
5.132421510028299e-005 
0 
0 
2.963053514315164e-006 
0 
0 
0 
2.918197003505438e-006 
-4.435840592650213e-005 
0 
8.814950449174866e-006 
3.795865439476764e-006 
-5.275990410755816e-005 
-1.489385942023223e-005 
2.036059290919836e-005 
8.102139606256598e-006 
1.187749026153825e-005 
1.446388841171141e-005 
5.331218944906994e-006 
9.885807362668346e-006 
0 
0 
-2.376679928963331e-006 
-1.723054260444221e-005 
1.117943507838226e-005 
-2.218448728038219e-005 
1.347653542924919e-005 
-3.080781015950644e-006 
5.791728435724813e-005 
-5.039167374485582e-005 
-1.766790295658488e-005 
-4.806842963795842e-007 
2.838092127505645e-005 
1.178264960263043e-005 
-4.037832019465063e-005 
1.902217008953919e-005 
-5.220741490778211e-005 
7.099355150183848e-005 
-3.08000942012078e-005 
6.399007235901967e-005 
2.392934974617411e-005 
-0.0003682893402805305 
-6.794149094879359e-005 
-5.870855800211554e-005 
-5.785995466912597e-005 
-6.826574715748844e-005 
-2.568067985965256e-005 
4.650797614783029e-005 
-8.228992233425721e-006 
2.094845376015141e-005 
-5.893474824444329e-005 
-4.55260028215292e-005 
-7.523126581484929e-006 
-2.891891543451122e-006 
1.735331003998457e-005 
2.876819909956564e-005 
0 
0 
1.698932765745055e-005 
3.422665335122769e-005 
0 
-1.278509327542219e-005 
-1.641094260826285e-005 
0 
1.186894804354475e-005 
0 
5.106026932434949e-006 
-1.205727716573351e-005 
0 
5.302100138084851e-005 
5.062939375029552e-007 
4.480775148029451e-006 
0 
2.018074911628635e-005 
-3.85931637994255e-006 
0 
1.726488665480415e-005 
-5.888212484324092e-006 
1.612598331257032e-005 
9.897946272251393e-006 
6.765473736143699e-006 
-2.047326564464025e-005 
4.244779117406046e-006 
0 
2.360633146357951e-006 
-4.645174947061105e-005 
-4.573875731272792e-005 
-2.168934251649905e-005 
5.258864505387176e-005 
4.527573299382349e-005 
1.088786407317105e-005 
-1.251121875863989e-005 
-6.295510640564139e-005 
-7.022133698575644e-005 
-9.064149911083684e-005 
-1.002316976157222e-005 
1.270949000025778e-005 
-4.208508352752214e-005 
-1.035297270800365e-005 
-9.390156505647844e-006 
-3.032424431937285e-005 
5.452053416390534e-005 
-1.497433059844615e-005 
-0.0002155317207847232 
-5.939496075425585e-005 
4.399875223136861e-006 
1.240485110883896e-005 
-3.294613303929141e-005 
-3.391171874354473e-005 
6.864603515162176e-005 
-3.452758270095606e-005 
-1.189261666408279e-005 
-3.156378766509891e-005 
-4.677842522999095e-006 
2.462339256089651e-005 
-3.531364173654927e-005 
-2.367297523451908e-005 
3.18315912055516e-006 
-5.024460860753479e-005 
0 
3.466622037500999e-006 
0 
-1.869515473803602e-005 
0 
-1.279093302579494e-005 
9.210263793562469e-006 
4.442797154458046e-006 
0 
-1.908931481957806e-005 
9.739514595752628e-007 
1.228107703962529e-006 
0 
-4.312172588369342e-005 
1.209297364700191e-005 
1.378949847952864e-006 
0 
1.599568954114858e-006 
-6.801199013384497e-005 
0 
-1.398113461344251e-005 
-4.082857485719667e-005 
-4.520631116319998e-006 
-1.761095959241742e-006 
1.390408459295609e-005 
4.356850956360716e-005 
-1.883578988713589e-006 
2.488429021234146e-005 
1.822539871370552e-005 
-3.294832290659123e-005 
4.337178602725397e-005 
-1.461789412201328e-005 
-5.758038073222897e-005 
-8.922930067654922e-005 
-2.265423462064103e-005 
-1.406857383082368e-006 
2.76867077230742e-005 
-4.989090426175169e-005 
2.565243886346112e-005 
3.985860769699283e-005 
-0.0002207103059377091 
-4.675229165229981e-005 
2.330296231613918e-005 
-1.445178732446187e-005 
6.942951094841726e-006 
2.525291235953977e-006 
6.222490371280364e-005 
2.390327271372309e-005 
-3.442918838132992e-005 
3.489154460674866e-005 
-1.563755148669977e-006 
-1.625720095285946e-005 
-4.925319577119571e-005 
4.965459827273103e-005 
-1.596540041434398e-005 
-1.032457754499214e-005 
-3.525828046011155e-005 
-3.87088769592229e-006 
3.233711039961417e-006 
-2.091630847339453e-005 
0 
2.860828262930819e-005 
0 
1.03214389779245e-005 
-5.278485275291454e-006 
4.620177070605319e-005 
0 
0 
1.464317156939727e-005 
-7.007556221437731e-006 
1.572713914714413e-005 
0 
1.27958149967667e-005 
5.324873194978216e-006 
0 
-8.884528735247789e-006 
3.109438717067651e-006 
-3.85931637994255e-006 
1.767163537433957e-006 
0 
-2.952678724543486e-006 
1.423590770138241e-005 
-2.420987801101254e-005 
-2.849471223990029e-005 
6.324895067920664e-005 
-1.643876392303057e-005 
-3.415447864584315e-005 
1.305950467622016e-005 
2.770273082005494e-005 
-7.021004391611001e-006 
3.300903655194341e-006 
2.219219155382148e-005 
1.611778608299368e-005 
-1.077299915653836e-005 
4.367678004314059e-005 
5.266213009235604e-005 
4.813643036698839e-005 
7.990721555136147e-005 
-2.593740878487622e-005 
0.0001602718259290253 
1.479681930659262e-005 
7.673020651274466e-005 
9.273664838973304e-006 
-1.622334824360878e-005 
-6.146733503391e-006 
-2.418019714641102e-006 
1.523920957074008e-005 
-2.316717613486218e-005 
2.128982307479936e-006 
8.146159985249293e-006 
1.146824040476328e-006 
1.887753578567803e-005 
-5.342921395356537e-005 
-2.731469128604532e-005 
-4.956320659334017e-005 
-2.795320258015905e-005 
3.687637185863675e-006 
2.073149783650049e-005 
-1.203177973814675e-005 
7.898347924098902e-006 
-2.347022070150868e-005 
-1.211619719418788e-005 
-3.329184876329679e-006 
1.146824040476328e-006 
1.067172996294881e-005 
-0.0001151912335090346 
0 
2.151701232057153e-005 
-1.621093408018865e-005 
0 
-1.203177973814675e-005 
-5.599415324908481e-006 
1.575606761876453e-005 
0 
-1.817576916624752e-006 
2.700340128409655e-005 
3.732157952659086e-006 
2.405994468695063e-005 
2.349880074871158e-005 
3.566097655641262e-005 
-5.116493373451733e-006 
-7.628375670776945e-007 
1.177995366034136e-005 
-5.665658455414715e-005 
-1.297301428314969e-005 
3.763811362821005e-007 
-3.146409920498291e-005 
1.651697566549375e-005 
2.048337523239642e-005 
1.19825958967862e-007 
3.249421220709663e-005 
-3.724120788077235e-005 
6.112434302193714e-005 
2.632531151850331e-005 
-3.259449983780769e-005 
1.674745030637857e-006 
-2.436408126972146e-005 
2.183455134859226e-005 
0.0001226906490247685 
-0.0004122478078147198 
-3.554903126380187e-005 
-9.370171038580581e-005 
4.486157497115717e-005 
0.0001216602372615683 
0.0002175312502067737 
2.667474954615819e-005 
4.223320514066704e-006 
5.601504407203959e-005 
5.608448666066975e-005 
0.0001735938296766548 
-5.77749356246411e-005 
-4.301409886155986e-005 
-2.590397962151686e-005 
6.0353982958322e-005 
-0.0001868611580497572 
5.607286110068087e-005 
-7.038128021752352e-005 
-1.38347028231645e-005 
-3.613272698633136e-006 
-0.0001696079569375595 
-5.997023367215786e-007 
-4.276715383433736e-005 
-0.0001032537982034974 
-7.041025550237616e-005 
-4.983898779524271e-006 
3.906368955965021e-005 
-7.998193903312227e-008 
-1.107804361208292e-005 
-0.0001484053428625818 
-9.732464760571835e-005 
9.886604267744918e-005 
0.000107257494643032 
2.349214425740269e-005 
-2.939581397409912e-005 
7.474597625717931e-005 
8.222388897003702e-006 
2.616238930043845e-005 
-2.57354208125245e-006 
9.351080863564643e-005 
-5.104249568607716e-005 
1.9867792375737e-005 
6.442003307969126e-005 
4.799358727212665e-005 
2.959481910328827e-005 
2.663194337513258e-005 
-3.985861597079779e-005 
-0.0002611347377840599 
3.114199810167489e-006 
1.235727965100798e-005 
5.056506730636872e-005 
7.309999896707437e-005 
-0.0002168267195506276 
-0.0008130394878547982 
5.458236435335653e-005 
-1.880744632494328e-005 
8.192047508995451e-005 
0.000101326513667953 
-0.0001187851480635193 
-2.802501604283057e-005 
6.967550585865134e-005 
7.625412043366295e-005 
-2.388026007272324e-005 
4.034297233181574e-006 
-3.198368771679976e-005 
8.900980332474418e-005 
1.59013919674495e-005 
-2.897716765736447e-005 
0.0001138112775544871 
-0.0002089735318881244 
6.603762169885657e-005 
7.817488434310275e-005 
1.465050429831031e-005 
5.365052975784202e-005 
-6.516885231952591e-005 
-8.824971822755218e-005 
2.135339540456651e-005 
1.593555046225117e-005 
-1.113826389442791e-005 
8.7167281311827e-005 
0.0001912577700733415 
-0.0001049327659220374 
-7.82322943971033e-005 
-0.000245036242997338 
4.859868819638522e-005 
-1.990806172077753e-005 
-2.967870673561378e-005 
-2.79757363658088e-005 
1.142187270472769e-006 
-1.201353470312079e-006 
9.66604965328951e-005 
3.777926646862254e-005 
1.127440240126517e-005 
-0.0001548208257213873 
5.608905199412006e-005 
-0.0002397504612362683 
-9.826924086828492e-005 
-0.0002089382000428001 
-0.0001509792538279605 
-1.583703354724701e-005 
-1.519045779518035e-007 
-0.0001506935676537527 
-5.515311043316528e-005 
3.535586975394822e-005 
-7.942942935752435e-005 
-4.729267338272729e-005 
-4.731154514192052e-005 
-5.8502256895649e-005 
-5.52999579480115e-006 
4.778450211927856e-005 
-0.0001369548961132948 
2.07125650299186e-005 
0.000130401730305314 
0.000117448157136346 
4.546644477233593e-006 
-2.478245941786983e-005 
-2.681975253890603e-005 
-1.251167237254855e-005 
6.334101771664609e-005 
4.181174549851659e-005 
2.042471360349669e-005 
0.0001281134007810487 
3.474385791035365e-005 
8.390897441188345e-006 
-0.0001523100668323632 
1.569946535509024e-005 
-4.820233444471179e-005 
0.0003343085020726817 
5.893408697853246e-006 
-5.129552943406653e-005 
-7.778614555871161e-005 
-0.0001366447434481908 
5.372674230247554e-005 
-5.227123912009722e-005 
5.579725807554421e-005 
-0.0001991531849805574 
-6.428732322249462e-005 
3.167768785979e-005 
0.0002353021576624009 
2.902750792855951e-005 
4.888904753174719e-005 
-1.272293949973676e-005 
5.61303018749462e-006 
-2.559022899368638e-005 
-0.0001555732790151359 
-6.642588075086161e-005 
1.38106724288671e-005 
-8.115165760206782e-005 
1.191237298975317e-005 
-0.0001737548583748013 
-9.980729945983562e-006 
3.254859704662333e-005 
0.0001398642810064377 
-0.0001528203455347185 
8.233803081694136e-006 
-0.0001079785961111254 
-0.0001153694773472129 
9.115388240184822e-005 
-2.525993510759384e-006 
-0.0001103334453165906 
5.292022784821853e-005 
6.600931947296305e-007 
2.200138220133631e-006 
-0.0002269621049339353 
-8.803006466136481e-005 
1.625112429039898e-005 
-8.487716674266902e-005 
-0.0001134959173719497 
0.0001282631188341127 
-0.0002423021316108384 
8.060205638844933e-005 
-5.170793268842237e-006 
-0.0001027686992292921 
1.852852341368296e-005 
4.360718975769077e-005 
6.398222410196276e-005 
-1.083316636117869e-006 
6.095097387641912e-006 
-2.775104961193838e-005 
3.530777108808732e-005 
-7.098755809088537e-005 
5.590106256061248e-005 
2.065341666280821e-005 
-0.0001247389923434829 
0.0001203756886985637 
1.180069583604115e-005 
-0.0002833856745879763 
-7.209823170301728e-006 
4.479686050153761e-006 
3.20445011012127e-005 
-0.0001442780427865526 
-3.312319693620939e-006 
8.525295047607506e-005 
8.660237824146589e-005 
2.430541379691519e-005 
-7.323694602927467e-005 
2.37921189736702e-006 
-0.0001642146415076157 
6.632388849784344e-005 
0.0001219771284331149 
1.220359949180492e-005 
4.752650850773849e-005 
0.0001710629260582698 
2.120027988203098e-005 
1.295240143772493e-005 
-8.943911899626576e-005 
5.064827307401535e-005 
-2.954506934823097e-005 
-4.016614643006127e-005 
-0.0001353345553986307 
-5.338537914621111e-005 
-2.605269817463017e-005 
-2.079107229722503e-005 
-6.933248866594207e-005 
6.193872110290267e-005 
1.078925026545627e-005 
-7.561145478325491e-005 
-1.226236356892095e-005 
-0.0001582536683863131 
6.273313881750043e-005 
-7.497609730822446e-005 
3.521923020179287e-005 
-0.0001022259034713058 
-8.988008817030897e-005 
-7.533972598851101e-005 
-0.0001562469968015035 
6.553836072940215e-005 
8.747817909274863e-005 
-3.276004418374659e-005 
-0.0002949521351473318 
1.29249216893687e-005 
0.0001254461517622939 
-2.028945149503221e-005 
3.670900129685077e-005 
-0.0002928182938906411 
6.952030363356358e-005 
3.026802851787767e-005 
0.0001064534398981822 
1.259472568881336e-005 
6.254656772073106e-005 
0.000120496437290638 
-6.436609314960751e-005 
-0.0002509220554809365 
4.828366786098776e-005 
-4.019743592624335e-005 
4.496847429732369e-005 
-6.411479827847904e-005 
-4.112967028106843e-005 
6.333696837503797e-005 
7.675328531307341e-006 
-6.144992848092733e-005 
-8.051645236952929e-005 
2.198817719142017e-005 
-8.29334287428856e-005 
0.0001188220579290369 
-4.233212449868653e-005 
-0.0001514290030315361 
-3.110745771436822e-005 
-5.475394416529335e-005 
0.0001109358261204647 
-1.66712072232571e-005 
-7.53553663668375e-005 
-2.74428493200115e-005 
6.798099570024602e-006 
-2.250072803218497e-005 
-8.172314783635402e-006 
3.896518128770223e-005 
-3.311992723495203e-005 
-0.0002862697511342697 
-3.577388693403094e-005 
2.692471395893817e-006 
-0.0001206551377347516 
7.078137869914259e-005 
-4.529854037826858e-007 
6.83393093366631e-006 
0.0001335249379329874 
3.98039414550268e-005 
4.678993738519037e-005 
-1.162605465278667e-005 
-5.102596915955129e-005 
0.0001098191839266348 
1.522083723792589e-005 
-3.090451956694225e-007 
-0.0001794094446767737 
0.0001452414397962787 
1.837486415568994e-005 
-4.351807002779481e-005 
-8.170335633062587e-005 
6.986003479259006e-005 
-2.133951150361825e-005 
2.003761480691997e-005 
5.414122847768047e-005 
-5.988020072990839e-005 
-0.0001613213303013104 
-1.466829843046046e-005 
-0.0001131923787027171 
3.464739416732642e-005 
-1.706828087915463e-005 
8.349721071121584e-005 
1.686393230236633e-005 
-9.822870608393368e-006 
-6.552126312100454e-005 
-9.306744028644372e-005 
6.982995713124534e-006 
1.66602545635486e-006 
8.053421408752277e-006 
-1.847246262942753e-005 
7.115227553101795e-005 
-4.253456940807813e-005 
8.373897351802503e-005 
-1.694157780377229e-005 
4.831814512754462e-005 
4.510161657960817e-005 
-5.147056929946084e-005 
0.0001288307357295931 
3.593985229944789e-005 
-9.201807411990998e-006 
0.00010371078468644 
-9.997366557729464e-005 
0.0001579837783816114 
-4.177138055180369e-005 
0.0001410088580856594 
-5.175520841624084e-005 
0.0002272832148836994 
0.0001290096771214683 
7.771811015490042e-005 
9.616675852924389e-006 
0.0001235205814296222 
8.709134214659821e-005 
7.93169876558313e-007 
0.0001227242281239811 
3.445444429580306e-005 
0.0002094392500649167 
-3.332098721062175e-005 
-1.291281621517782e-005 
-0.0002418689357748886 
0.0001762223083585697 
-6.465780602413364e-005 
6.233305951430168e-005 
4.981784039705374e-005 
7.120350488667059e-005 
0.0001019680795499285 
1.950394885768311e-005 
6.830438704531201e-005 
-4.71773098866346e-005 
7.864083298647912e-006 
5.422404623566031e-005 
-0.0001372232633110691 
2.446981511004512e-005 
2.638931311565644e-005 
-0.0001059988103866006 
-4.109474430634072e-005 
-3.54118888238057e-005 
-1.640712940592464e-005 
1.526885704815148e-005 
-1.802434334481974e-005 
-0.0001024378665166114 
-7.785577251488043e-005 
4.230613435513523e-005 
-1.069674819536117e-005 
1.874192271470338e-005 
1.599789085011749e-005 
8.286332824536527e-005 
-1.36568642099001e-005 
3.216014292900885e-005 
0.0001128349384507708 
7.132315011335566e-005 
-0.0001998217190772083 
-6.418778094242363e-005 
4.834479331768595e-005 
1.119567769116913e-007 
8.339370287658906e-005 
2.680052509126168e-006 
-7.26126979597071e-005 
-5.586881856935253e-005 
-5.261713168435303e-005 
0.0001349295951319581 
1.745970773425649e-005 
0.000121865886447834 
0.0001471223621768693 
2.347897366292501e-005 
-1.22665813482586e-005 
-5.049615783898472e-005 
-0.0001851633622248026 
-0.0002475355911638315 
-1.791544902986389e-005 
-0.0001429559345247386 
-2.754508275247833e-005 
0.0001363957948139697 
0.0001035392897384342 
1.475132228581237e-005 
-9.519282502584887e-005 
-7.103475525599533e-005 
6.986408608636364e-005 
7.614202920697667e-005 
3.946911015139132e-005 
-6.213531563923398e-005 
-9.420624981298006e-005 
8.729909859478927e-005 
-0.0002437593236204416 
-0.0001743921228786617 
-3.206835444252698e-005 
-0.0001871402590149836 
-5.305845101848384e-005 
7.068210112119555e-005 
-3.458569076774878e-005 
6.458569374548722e-005 
0.0001075800205907883 
-7.24720852944866e-005 
4.632408563593016e-005 
-0.0001275575272179699 
-9.860546939216802e-005 
5.836984489522286e-005 
9.980895409732733e-005 
-0.0001169810852362199 
-0.0003518860065785137 
-0.0002905976478309183 
-0.0001031342296320064 
0.0001628478870996827 
-0.0002805175752058281 
1.644791721902665e-005 
-5.343466816620482e-005 
-3.258134929966947e-006 
-3.667016781101378e-005 
-0.0001995739188279873 
3.545295962875646e-005 
6.870615199266333e-005 
4.094536432988932e-005 
0.0001813802335463275 
6.557787296144639e-005 
-0.0001354007484138033 
-5.607573766847601e-005 
5.888792351354733e-005 
-5.091530859478269e-005 
0.000146960622891658 
0.0001887715833707471 
-2.157729915589819e-005 
0.0001151037024160213 
1.715209821056955e-005 
-9.419829821944939e-005 
-0.0002280811294557109 
3.928306484788536e-005 
-8.605402747940863e-005 
-3.142281411155765e-005 
4.997033368949946e-005 
-4.267822863593325e-005 
-6.778198419233514e-006 
-1.579951829689012e-007 
-6.996475942401977e-005 
4.1542107309104e-005 
1.171481994816113e-006 
-0.0001677989393572724 
-5.950436590252893e-005 
0.0001158762565742078 
-5.036283994210408e-005 
0.0001071616012471039 
-3.654446634333128e-005 
2.712220103302078e-005 
-9.623600599463029e-006 
-1.975614141678042e-005 
3.268013653036716e-005 
-0.0001076835085142444 
5.512619315406479e-005 
-5.644642841555051e-005 
0.0001004716295977425 
-0.000134398561624022 
-6.416880760535501e-006 
-0.0001585093887355552 
6.8433444244586e-005 
-2.525010736043051e-005 
1.453096744538466e-005 
6.470096646810225e-005 
-1.45026482392211e-005 
5.975614750970413e-005 
6.597167295164059e-005 
-6.563339467563892e-005 
-0.0004480648099666432 
7.006380194012338e-005 
-1.434731130804264e-006 
-0.0001133690425724257 
7.305462564621104e-006 
1.038896467015064e-005 
0.000106194319927219 
1.438483308351296e-005 
3.804071756591588e-005 
2.539586769848746e-005 
5.63570815997637e-005 
-6.671748185364319e-005 
3.437079734979123e-005 
4.923939959880651e-005 
-2.657494153424519e-005 
-9.049529722077717e-005 
-4.401283737093033e-005 
-6.804248074239977e-005 
-0.0001176711180857898 
-0.0002760780610340776 
3.388250332754699e-006 
0.0001231794369040936 
2.15696654964591e-005 
3.363106702651873e-005 
6.342116696901639e-005 
6.05232746778691e-005 
4.249410912670227e-005 
9.842072529378027e-005 
-0.0002018455385373359 
7.151999157880589e-005 
-9.440023088398286e-005 
-0.0001238014930261688 
-0.0001443491321209878 
2.235735530947315e-005 
-6.977444372515509e-005 
-5.607034239577465e-005 
-0.0002024054104163331 
-0.0004318213988572449 
0.0001023756014063402 
-0.0001055938090614646 
0.0001631688549809102 
0.0001033248550330587 
-1.222490500993762e-005 
-3.004093628389757e-005 
-7.169600235587353e-005 
7.763847246373826e-005 
-0.0003981731351676339 
0.0001698314595528419 
-0.0001011049236910601 
-1.498882367442911e-005 
-2.071487022744868e-005 
5.048786983876197e-005 
-9.2788650563027e-005 
7.191850378761796e-005 
6.361205645533329e-007 
8.231487248047778e-005 
-0.0002932488118214138 
-0.0003179773491861606 
1.76839425029489e-005 
6.555328001398291e-005 
-0.0002106415590366341 
-7.416085985840897e-006 
0.0001041048231176572 
-9.649312588422369e-006 
-3.147415890222178e-005 
-3.200498767424527e-007 
-1.112587599876222e-005 
6.226970164964272e-005 
-4.179847641219201e-005 
-0.0001870883953612002 
-9.363623655602091e-006 
-6.471617724946947e-006 
9.384847909995228e-005 
3.315397287509269e-005 
-3.207288230622911e-006 
7.41642807598204e-005 
-0.0003879727766511 
1.9391089311713e-005 
-0.0003625936200765288 
1.592040472084769e-005 
-7.531645920560909e-005 
-7.662924950093203e-005 
-5.700256181186837e-005 
-0.0001799917754852437 
-4.785000412775477e-005 
0.0001136406357857204 
4.283533146114688e-005 
9.112626156831435e-005 
8.69928478310869e-005 
-5.654077935019713e-005 
-3.388202012721613e-005 
-4.162916454383585e-007 
4.602709020876764e-005 
1.709965556482789e-005 
-0.0002215832985968705 
-0.000138177035344338 
0.000168418395690833 
3.094054611160377e-006 
9.134538318809309e-005 
-0.0002400598633257518 
3.6221056955095e-005 
-2.672585021890808e-005 
0.0001538434427414958 
-3.754663321701186e-005 
5.582700938010899e-005 
-0.0001313697783579727 
-1.584761906743375e-006 
4.339407733959383e-006 
-7.399568057782173e-005 
3.139029005704857e-005 
6.572450329280303e-005 
2.202636185814568e-005 
8.310021580555637e-007 
-8.641694573461601e-005 
3.933166759414988e-005 
0.0002024609212706019 
0.0001179943894655841 
9.155977426393477e-005 
-1.011420053395648e-005 
1.964354946153596e-005 
5.025748415367364e-007 
-6.602106327906735e-005 
5.339069336962408e-005 
2.954635438632235e-005 
1.295329279889056e-005 
2.831338059544796e-005 
4.176569063034835e-005 
-0.0001073792480687989 
-7.205987249453152e-005 
-2.419512959414731e-005 
-7.697885641370699e-005 
-3.69439381939795e-005 
-0.0001631936756891758 
-5.852902263540577e-008 
-0.0001011704295330575 
1.714414969986168e-005 
-0.0001376979511889174 
0.0002418596469268537 
-0.0002153720876056286 
-6.255958090301083e-005 
4.648694673868039e-005 
-4.547225308288005e-005 
-0.0001183056533362834 
0.0001114885367286239 
1.284639920016922e-006 
1.423133303255266e-005 
-7.61199659282567e-006 
-4.561032602472128e-005 
-7.692819843408586e-005 
-6.979254061398398e-005 
-0.0001947606099586899 
0.0001696144693394045 
-0.0001055579825356903 
0.0001393854424120804 
4.261974257122231e-006 
-0.0001626173269247818 
-3.994772991095188e-005 
2.535361034385959e-005 
-0.0001556570233619118 
-2.233995707707101e-006 
-0.00025051682915392 
-0.0002149423896433124 
-7.623175171151444e-005 
-0.0002199932970915844 
3.121625856693586e-005 
-9.669846822389874e-005 
-1.281022769065047e-005 
4.398929908456023e-005 
-0.0001260817228459109 
-0.000218190571232532 
2.936080948986394e-005 
2.512595008330919e-005 
-4.30975984821934e-005 
-7.032874584780194e-006 
0.0006096862129044554 
-4.378667152055163e-005 
2.585556814372417e-005 
9.137824434186595e-006 
0.0001036902192374756 
-0.0001351751469214382 
4.936580931734682e-005 
7.958236297106699e-005 
-0.0001506444593321367 
-5.758397508848692e-005 
7.783465184442863e-005 
-4.814321113321335e-005 
-1.500954058332057e-005 
-1.592360860302975e-005 
4.47722360897126e-005 
-5.726438055106666e-007 
-0.0003392161050366555 
-1.165396737799856e-005 
5.63165664829955e-005 
-7.636921558586223e-005 
4.266902974871658e-006 
-4.211770224388241e-006 
3.231607077943097e-005 
-0.0001261172063457456 
1.025118184203412e-005 
2.207734362486298e-005 
-7.981789903079774e-005 
-0.0001290131934412758 
3.714627866125802e-005 
-0.0001006754615460532 
-8.506973150423832e-005 
-2.791681168739171e-006 
3.543210153686991e-006 
0.000146861440980249 
3.740776715221439e-005 
-3.133970560918077e-005 
-0.0001782695592991202 
-0.000216225803976555 
3.16683292684646e-005 
2.84044096597321e-005 
-0.000149645403558107 
9.711287425640435e-005 
-3.302963064071522e-005 
-2.499733270662339e-005 
8.891043102763202e-006 
9.917488217025355e-005 
5.304406219728257e-005 
4.370444849312969e-005 
-0.0007151019472794317 
-0.0001879293719253656 
5.864701856823687e-005 
6.756829752294329e-006 
7.182331535023266e-005 
7.539342381118159e-005 
-0.0001392670478847728 
4.17596117399035e-005 
-2.929137197403006e-005 
3.961685917520671e-005 
-6.464379354235676e-005 
-0.0002656411576609922 
-0.0001123446007398233 
-0.0001968751433466812 
-5.886380144534859e-005 
-6.83153219388636e-005 
-9.255820974770783e-005 
0.0001728338662116769 
-1.922903779912936e-005 
-5.231087952879129e-005 
9.027664439916767e-005 
0.0002301288984740636 
7.092625503450513e-005 
2.495829983212838e-005 
9.780002237347888e-005 
7.187212713866523e-005 
2.30069877735405e-005 
6.661325792069788e-006 
7.268295963693646e-006 
1.020636851472193e-005 
5.022466880392932e-005 
6.37926913392901e-005 
-0.0002312819405533298 
1.309162397695615e-005 
-1.721246710153987e-005 
1.798949325148231e-005 
7.505765275639094e-005 
-5.227383031126852e-005 
-7.131525409735877e-005 
-0.0001519301986285179 
-3.343873022153358e-006 
-7.194243067955706e-005 
-8.465954829414833e-005 
0.0001708560585971687 
4.555209386297855e-005 
-0.0002004627798009415 
-0.0001165444252146501 
9.913480946029065e-006 
7.855937855738159e-005 
-0.0001257897796839536 
3.682993705694337e-005 
-0.0003239822027818326 
-4.502916405536347e-005 
6.561196706445622e-005 
-6.230294267931791e-005 
-1.074475118272116e-005 
-7.201004840207981e-005 
0.0001295403401243519 
-2.848058364871043e-005 
-0.0001800503589953537 
4.843578151525436e-005 
-1.029866616445918e-005 
-1.997816401582982e-005 
-4.342006781020903e-005 
-3.77265845287138e-006 
-0.0001465514463865243 
9.768966163989717e-005 
-2.711233114024248e-005 
5.177747983411375e-005 
0.0001759854429761205 
1.601364515752138e-005 
0.0001927322022501278 
0.0001857780673728557 
-5.598676822200292e-005 
-0.0001199520077995214 
-0.0002350968488175824 
-3.573032747929511e-005 
-0.0001190592597164214 
-5.596079201599847e-005 
5.683371262877181e-005 
-0.0001236909769482524 
3.625217547692573e-005 
-0.0005550576132605789 
-0.0001057645176642403 
2.262976930462979e-005 
-1.72225301806799e-005 
-0.0004821437105898979 
-0.0002512853111140991 
7.20121370983232e-005 
-0.0006054504504000416 
-0.0005505215167455615 
-0.0004588208055150096 
-4.452211727787638e-005 
0.0001205247253328856 
-0.0001841120020947867 
2.569782206361091e-005 
0.0001032776367294786 
-1.481489809497784e-005 
-0.000232901932934301 
-2.665553769607628e-005 
-7.804500848143084e-005 
0.0001468842239116021 
-0.0004031613924985827 
5.965738518700701e-005 
8.572639933347778e-005 
-0.000335119846580451 
7.33674639995409e-005 
-0.0001784401089371248 
8.780475848649537e-006 
0.0001768054993075218 
-0.0004639310801862129 
4.079979051577808e-005 
-0.000499087022211901 
-6.596857676454462e-005 
-0.0003806891502929288 
-4.324259436112727e-005 
-0.0001534947341497079 
-6.40481231660053e-005 
-5.195071346930443e-005 
-1.237750059455817e-005 
-6.784094235821397e-005 
-0.0001357115530837377 
-5.946664999448599e-005 
-2.309569579115704e-005 
-3.772365447460978e-006 
5.40782234522112e-005 
-1.236346450360881e-006 
3.901179219877435e-005 
-7.455470328728668e-005 
-0.0001056999667989904 
-2.574613908100063e-005 
-3.568416873421751e-005 
9.522436682025326e-005 
9.347531363324406e-005 
6.789457573909634e-005 
-0.0001124145339631103 
-4.614696721734485e-005 
-6.317557652491931e-005 
-3.160435169658401e-005 
5.880722402346504e-005 
-6.053073790984504e-005 
-2.361079325684785e-005 
-5.512424610306115e-006 
7.294053454471717e-006 
0.0001374773162340068 
8.347924834847844e-005 
-0.0002021143775586155 
-3.284337202333324e-005 
5.594532599202491e-005 
-0.0001816676998879744 
-0.0006671337042232567 
-0.0001266327805836609 
-0.0001412487766480253 
-0.0005570171031230649 
-3.952815164729991e-005 
-7.680938125703548e-005 
-2.270443246280223e-005 
-9.279719189349171e-006 
-7.029891882514497e-005 
-4.078231958179984e-005 
-8.29499261837191e-005 
7.760406021884351e-005 
-0.0005179235766717075 
-0.0002761734100728178 
-4.823365970110238e-005 
8.48151881728416e-006 
-6.930426651758518e-005 
-0.0001946591328209889 
6.742162907298682e-005 
-0.0005359276127173274 
-0.0002164930838887473 
-7.386412211078354e-005 
-3.933257832375907e-006 
3.684264279679506e-005 
-8.668782752163626e-005 
4.000489753049006e-005 
-2.902663936058006e-005 
-2.688767844628206e-005 
-0.0002618587218349346 
-1.270743229225475e-005 
-0.0001477166394776397 
-6.514974028199945e-005 
4.167868823113883e-005 
-3.005126817024833e-005 
0.0002313938351473774 
0.0001027223900233997 
5.614119156249649e-006 
0.0001717749682478107 
-3.974570956240532e-005 
5.163622519652968e-005 
-8.139183854114221e-005 
4.546764726126604e-005 
-4.555115736646437e-005 
-1.965436768629809e-005 
-0.0001068863589792126 
3.807538778016957e-005 
-9.909390859050789e-006 
8.825245600202854e-005 
2.751690287682704e-005 
-7.470000178547272e-005 
-7.095892744300427e-005 
-0.0002862455454441392 
1.57515885436109e-007 
-9.929166969059258e-005 
-1.314734186084857e-006 
-5.635727156423473e-005 
0.000121244140827272 
-6.739279044355784e-006 
0.0002496177879265758 
0.0001245165613534346 
5.100236298507829e-006 
4.872748307382979e-005 
9.966341761711816e-005 
-1.477583584204851e-005 
-8.322704571666587e-005 
-9.0614558401241e-005 
-5.967073087625312e-005 
0.0001505236946715682 
8.953251554234476e-005 
-0.0001016239629951179 
-0.0001116122875883416 
-7.459799922497103e-005 
-6.462333205666811e-005 
-5.714299415189278e-005 
-0.0002576265635138441 
-2.007316502948781e-005 
-0.0001181668294167778 
-3.429727190603346e-005 
4.603469621068071e-005 
-0.0003042354117842376 
1.87164658812446e-005 
-0.000150089214541781 
8.333557147586704e-006 
-2.194855279785498e-005 
-3.79796687574501e-006 
-0.0001318806620299397 
2.537677270099489e-005 
-3.456535610076538e-005 
-0.0001393597060773064 
2.252689564311153e-006 
0.0002533278799766415 
-1.169630358914229e-005 
-1.884217409717517e-005 
-0.0002229627179204777 
-1.664712353434314e-005 
-3.305861190987057e-005 
1.746719786023944e-005 
-6.296323105710919e-006 
-0.0001737277527371036 
-8.313114559952578e-005 
-0.0002193471766654085 
-0.0002977724717536675 
2.684284880831715e-005 
-0.0001048169135792286 
3.324176112829473e-005 
-3.564537615883739e-006 
-0.0002573892486799243 
-0.0001465604842821676 
-0.0001241607944692846 
2.585444526362069e-005 
-6.285570351729125e-005 
-0.0001777188632684256 
-5.558130325346811e-005 
2.426260077009562e-005 
2.005201159471826e-005 
6.740981232618197e-005 
-3.248728256706807e-005 
-0.0005175715431011141 
0.0001009070279595408 
-5.520921546482974e-005 
4.057300555153379e-005 
-4.881221053039208e-005 
-0.0001235266739350349 
-4.874246793466254e-005 
0.0001278094685096867 
-0.000156294255973826 
4.619143640583285e-005 
3.737039981897182e-005 
-9.822999470327477e-005 
-0.0001826631946832411 
-0.0001396226648195534 
-0.0001771253348149948 
2.611557725237787e-005 
-0.0002418080073226719 
3.208061381231571e-006 
-0.0001563943361150775 
-0.000181918236413743 
1.807797198928996e-005 
-4.008724393861018e-005 
-4.608856729790644e-006 
-0.0004020923405621953 
3.066306373768183e-005 
-0.0002490118349859972 
-3.475036916883758e-005 
1.200883664916122e-006 
5.643102655884612e-005 
-6.21831387052963e-005 
-0.000325091830607894 
-5.917067316099253e-006 
-7.433484524693516e-005 
1.746133869861834e-005 
9.519216283417245e-006 
0.0001111374446391455 
9.003866526658941e-005 
-9.873992502556631e-005 
-2.091451213512801e-006 
0.0002363294059035099 
-3.452591024434153e-005 
5.721568314253829e-005 
-0.000130621460091578 
-4.837548427271864e-005 
0.0001004440559166767 
4.643221864745541e-005 
0.000234432712066479 
4.720125053240739e-005 
-3.624908093839032e-006 
4.020650677260813e-005 
2.668971202352373e-005 
-3.460238573820947e-005 
-2.272747554352435e-005 
-0.0002418973311335705 
-4.77535255472344e-005 
-8.89676927868086e-005 
0.0001412100930638015 
-0.0001210099130884384 
-4.129658901075629e-005 
-0.0001080038364262189 
-2.850647288875508e-006 
8.462194902644853e-005 
6.38125730983936e-005 
-2.981395794968375e-005 
7.184631758365632e-005 
-8.511186808153189e-006 
-1.644111500268525e-005 
-0.0001231280950479647 
-2.433724555078434e-005 
3.583799778995885e-005 
6.28119753303767e-005 
-3.645525804220156e-005 
-0.000220907058557839 
-0.0001516913428004342 
-0.0004260110295378926 
0.00011025158998869 
4.038349212881157e-005 
6.265609888216296e-005 
-2.705918372507512e-005 
-0.0003006283896706469 
-0.000184882892191069 
8.459826920922446e-005 
-1.772276401886305e-005 
-0.000302078612454105 
-1.191672338457502e-005 
4.881691354994498e-005 
2.156394402799442e-005 
9.162663609935672e-005 
-0.0001783221268210224 
-3.129844295258744e-005 
-9.061249673279307e-005 
-0.0001559394659570182 
-0.0001542123829778047 
-2.052356333538218e-005 
-5.23502014880067e-005 
3.663733425958761e-007 
2.413556137241871e-005 
3.518963142529002e-005 
-5.518785994969284e-005 
-0.0002636058749381874 
-4.343226706997028e-005 
-0.0003689529087023967 
6.601107232429373e-005 
-0.0003365948389931382 
0.0001493479674202897 
-3.126128442283699e-005 
0.0001325822177742862 
-2.388605484762609e-005 
5.950990475647571e-006 
1.548456041736392e-005 
-0.0001143155585698575 
-7.042804925605411e-005 
-0.0001300451957305678 
3.360578707199262e-006 
-1.925080668592868e-005 
-0.0001047114126282895 
-6.261593235258846e-006 
-0.0001095959789918847 
8.420618093307592e-005 
7.393779114290936e-005 
-5.347025550119126e-005 
-3.750326255665584e-005 
6.893929748967025e-005 
-0.0002955988364847615 
-1.383925747342424e-005 
2.564327818726025e-005 
-0.000110765823964212 
0.000129840818775211 
-5.489790400603552e-005 
1.385511219376729e-005 
2.895647158736953e-005 
1.828071573258681e-005 
-5.020173510170294e-005 
-3.638494698732844e-005 
2.230407218743978e-005 
5.806748732622228e-005 
0.0001255027953210166 
1.964888735797858e-005 
2.592216590445848e-005 
2.814398205976729e-005 
-1.720198431925649e-005 
-1.394384335024548e-005 
-3.230253097068446e-005 
6.667854260400672e-005 
-8.570855838850467e-005 
-2.06744421034719e-005 
-1.278417341181793e-005 
2.101438527148318e-005 
-5.442583711755949e-005 
-0.0002006975432043463 
-7.142050373002264e-005 
0.0001167484472403393 
2.983360381463372e-005 
1.688592989581833e-005 
-2.891317803111136e-005 
-0.0001911613323154972 
-8.357482973495182e-005 
-0.0001362377107228036 
0.0001178391310929306 
-4.330945712707219e-005 
-3.006632904975234e-005 
-1.618070994670535e-005 
-4.030711620832293e-005 
4.965123032248791e-005 
7.559150932376242e-005 
0.0002063724560828755 
-2.60550828501624e-005 
-9.250102139252852e-005 
0.0001001872904907755 
0.0001107978332850633 
-6.888606622485673e-005 
-0.0002043491663746996 
-7.062634996964865e-005 
-0.0001041519031281643 
-4.098734832743763e-005 
5.505011225609026e-005 
-0.0001493469488567302 
2.650391724065164e-005 
6.52520078324119e-005 
-1.876796771257007e-005 
-2.366680137538359e-006 
-0.0001344322827815039 
2.236085517459097e-005 
-0.000168343063879734 
2.892576472987878e-005 
-7.781584633693229e-006 
9.64551175660115e-006 
-0.0001536676530695633 
-0.0001953824027531735 
-7.194982437954415e-005 
5.371212414532658e-005 
-6.61609038040098e-005 
1.026017176835863e-005 
3.667724314168469e-005 
4.9603624849653e-005 
5.508345821321404e-005 
3.75617406648717e-005 
0.0002740213948897939 
-4.388100122269854e-005 
2.127261178359052e-005 
-0.0001026568281836396 
0.0001389889038758895 
6.552208128896642e-006 
-2.140357220216671e-005 
0.0002405576155199852 
-0.000140984509961995 
-0.0001539261837684603 
6.293386274090678e-005 
-3.539678422591151e-005 
-5.655990630594671e-005 
3.431650381697732e-005 
-0.0002052111169226053 
-4.525314063247232e-005 
2.214129168823221e-005 
-1.013197081937654e-005 
-0.000213182684458122 
-2.80079493860594e-005 
-9.392842895874584e-005 
0.0001750927771888816 
-2.509131948929138e-005 
4.070492556346045e-005 
0.0001029787714537686 
-3.638264034758954e-005 
-3.974718456636099e-005 
-0.0001248971635039318 
-4.215764799768042e-005 
-0.0001133113295556301 
1.324389721355231e-005 
-5.344016547783284e-005 
0.0001177183512945197 
5.829482351990569e-005 
-2.701080922998784e-005 
-0.0001509438596640698 
6.891955065551494e-005 
-0.0001061780917097034 
-7.687300267357919e-005 
-8.95698509198354e-005 
-6.052286567789458e-005 
4.531790321642251e-005 
-4.648536824424062e-005 
0.000100018455725413 
-1.260495261317987e-005 
4.463150420401297e-005 
-2.105195189356171e-005 
4.812923028724427e-005 
-0.000155518323689255 
-0.0001189870287000587 
5.231676320183655e-005 
-4.36019137858916e-005 
-2.790461676583021e-005 
-0.0002168516823831669 
-0.0001101294301638813 
1.331248917175426e-005 
8.240796591011478e-005 
-6.545211630084375e-005 
-0.000130836719589321 
-0.0003623083395606493 
-7.515562963027193e-005 
-8.954349217071878e-005 
-0.0001195239314912182 
-3.715042057618442e-005 
-8.303965859682335e-006 
-0.0001845120978931167 
-9.357050218155688e-005 
7.80761946486083e-005 
-4.787617060084415e-005 
-0.0002053044900557155 
1.987480170389486e-005 
7.595232375810684e-005 
-0.0001684394046681332 
6.800460273202271e-005 
-6.947775755478321e-005 
-1.688207665156053e-005 
-1.330720538966259e-005 
5.256712122917932e-005 
-9.684991351440218e-005 
6.575570711981405e-005 
-0.0002127562473842735 
-0.0001236081010356466 
-1.249805176672524e-005 
2.961721232540654e-005 
0.0001074644716336652 
3.649750714248839e-005 
-0.000445390125912211 
-0.0001161153996779685 
-0.0001440602645503437 
-3.651604601770769e-005 
-0.0001054398441797432 
0.0001761594075998866 
7.830951294920377e-006 
9.514343558522863e-005 
-0.0002060542048769687 
-2.13595926290768e-006 
0.0001417522914011617 
-3.272774630065315e-005 
-6.209426437111183e-005 
-6.187630210269096e-005 
3.501686927846235e-005 
-5.753096224575584e-005 
7.164829089365617e-005 
-3.430060791909723e-005 
-0.0001471199087199117 
-0.0001268514258267857 
-7.16246117328184e-005 
-7.063583184158169e-006 
5.023435881038288e-005 
-5.734668919543025e-005 
-8.702623936824674e-005 
-3.069231082176756e-006 
0.0001396901102828062 
5.167036985836714e-005 
-0.0001926196533113966 
5.358726133672188e-006 
-0.0001073843228321721 
0.000115854559230593 
-4.541875606788482e-005 
7.637222761710245e-006 
-6.99139675859016e-005 
-6.360759303022702e-005 
6.949177406630186e-005 
0.0002425556052443101 
-8.951043050540256e-005 
3.898343394791107e-005 
4.079830646005782e-005 
-9.598812823019932e-006 
2.487094151775965e-005 
-9.369288257148887e-005 
8.806400432585086e-005 
-7.852673419578762e-005 
2.332176178599179e-005 
-0.0002949323718729753 
-0.0001892542687706494 
-6.391662181707743e-005 
5.62350305468063e-005 
-6.015656410386582e-005 
4.099511292741937e-005 
-8.16578235577252e-006 
3.58374490376027e-006 
-1.5363009973879e-005 
3.610812596180825e-005 
3.167534115341934e-005 
-6.267749049774787e-006 
6.874595358217395e-005 
0.0002092873325661563 
4.201488157537627e-005 
0.0001511962277328139 
0.0002940788345147087 
-0.0004133804492750028 
0.0001127768355446152 
1.768624076372066e-005 
9.580867969080145e-005 
6.638455727983746e-005 
-0.0001274278868014368 
4.276851298412317e-005 
-2.179012417149321e-005 
5.890329578451953e-006 
-1.030890001262738e-005 
1.815815928985134e-005 
1.331499587695725e-005 
-6.262224603451863e-005 
3.902669827012629e-005 
-7.240112632990105e-005 
-0.0001182902650507098 
0.0001179285459793939 
-9.366369716909301e-006 
-0.0001813682462798861 
0.000104051748936106 
9.186879579689675e-006 
7.002654385112835e-005 
-2.739276815642566e-005 
4.389551324743452e-005 
1.470049083146164e-005 
-0.0001221303316565877 
3.016074661057847e-005 
-4.87991665316151e-005 
-1.873222551476508e-005 
6.857488175490485e-005 
-0.0002520615948500413 
-8.00540292680288e-005 
4.620550322247445e-005 
5.641182734907948e-005 
1.101415689416544e-005 
0.0001791874524039474 
-0.0003162508160920221 
7.642215642101458e-005 
7.955957785158799e-006 
1.320026768412692e-005 
7.896293991441305e-005 
-7.812851650085012e-007 
1.274164704890106e-005 
-2.728836338137238e-005 
-0.0002529125003237111 
9.841637802139419e-006 
1.650409582815878e-005 
-3.145336347612754e-005 
7.644628109702006e-005 
-1.634374500551392e-005 
-0.000116719106810696 
-3.272601697925386e-005 
3.10548228866597e-005 
3.855488015626484e-005 
1.420743038266604e-005 
1.932480861349212e-005 
-8.192288670976876e-006 
2.608345915984076e-005 
5.333498351778569e-005 
0.0001217614746778383 
1.999700729378176e-005 
4.937206011713222e-005 
-6.140756483080091e-005 
-0.0002517937091917545 
-3.904865816455837e-005 
-9.151711551214698e-005 
5.07639810532215e-005 
0.0002072050845944194 
-8.052660760050215e-006 
-0.0001350241281458385 
-3.886278866163975e-006 
1.187134883942739e-005 
7.944276423602383e-005 
-2.093310779720785e-005 
8.075937039913196e-005 
-4.099306823674972e-005 
-2.017623767798911e-006 
-4.023448854260289e-005 
6.124123917628412e-005 
-0.0004609536688965128 
-0.0004892829275791523 
6.200104675784822e-005 
-3.155945503424439e-005 
0.0003657723991791866 
-9.748727233902393e-005 
5.581262287123332e-005 
2.203963728249837e-005 
1.138965466577557e-005 
-0.0001932775643927496 
6.295394185975918e-005 
1.04111674139627e-005 
9.6982682305817e-005 
2.807151096220575e-005 
2.495434214295964e-005 
-1.652436177063896e-005 
-1.646343058737861e-005 
8.965110319896707e-005 
5.786121667871865e-006 
3.385290828815626e-005 
-1.578651654933904e-005 
-0.0001374408029994287 
-0.0001259102738865507 
3.435262586703498e-005 
-5.642647952521154e-005 
-6.737672016325219e-005 
5.205155594170301e-006 
-1.117699907133464e-005 
-8.904707394573214e-006 
8.56485450586715e-005 
-8.69685702617756e-005 
1.643962651075065e-005 
0.0002667168045240727 
-0.000198460200062766 
5.271413440919117e-005 
-0.0001236430996854193 
1.010691681964145e-005 
-0.0002257421956505496 
0.0001033691474431378 
5.475228011789793e-006 
-0.0001933659063685026 
-0.000220002493496744 
-1.883106679345294e-005 
-0.0001179067893068672 
-0.0002381015528700726 
-0.0001386477978334877 
-0.0002816303254867437 
-5.421816782306309e-006 
-0.0002510198627513436 
0.0001736771649051907 
-0.0001085745816822825 
2.414020701539387e-005 
-0.0001628975729032657 
-4.08516933443429e-005 
-1.376658513286854e-005 
1.765464696858225e-005 
-9.943256178064427e-005 
-8.475686619212531e-005 
-3.908457360118696e-005 
0.0002467872667957451 
3.442875402625518e-006 
0.0001953861807492001 
1.183989141365253e-007 
-0.0001330865443557468 
-0.0001231708444614588 
7.75179638408716e-005 
0.0001716061329846058 
-1.8793229641565e-005 
-5.257484473474205e-006 
-2.94807820405323e-005 
0.0001453769195885836 
-3.187954614335731e-005 
5.210517302490876e-005 
-8.858917476391824e-005 
4.091641529807283e-005 
-6.51518486680702e-005 
-4.659662629251377e-005 
-7.397658451614382e-005 
-2.91030032591614e-006 
-0.0001468479067184195 
9.0496103927647e-006 
5.846076024375399e-005 
3.563181192938652e-005 
-4.693525402548091e-005 
-0.0001982787858208563 
-0.0003621527203457356 
-0.0003625997021675774 
-5.372466970267988e-005 
-6.710062913222327e-005 
-0.000117153443757163 
3.41157578105322e-005 
-9.097341268844708e-005 
0.000171064196599358 
0.00023827552460116 
-0.0001497661179217125 
1.965955872650398e-005 
-5.378933994571097e-005 
-0.0006725291502252495 
-1.24784028485402e-005 
-1.380581019181362e-007 
1.868255217500691e-005 
-2.658850298045527e-005 
-3.185271029483726e-005 
-1.346026149837027e-005 
2.362519183565592e-005 
-1.659017564837977e-005 
2.598482632712916e-005 
4.181444590534967e-005 
8.263732629341166e-005 
-4.872388507709172e-005 
-5.637892604293001e-006 
-0.0001080499155814284 
-0.0004350886572193776 
-0.0003444108987734721 
2.079929005024077e-005 
-7.82453743288955e-005 
3.406279900262682e-005 
-4.604283953701149e-005 
9.181363573144611e-005 
3.525154286148246e-005 
2.471210001534299e-005 
5.667316131947997e-005 
1.184286437509289e-005 
0.0001505947675294484 
-2.005115874042628e-005 
0.0001001580697350717 
-3.767243090030548e-005 
-6.263140711152297e-006 
-9.09137279208901e-005 
-0.0001442365704321711 
-7.821609593418338e-005 
0.0001169152932844853 
-0.0002027138862013344 
1.652362830448659e-006 
-2.27968599310273e-005 
2.187989648265936e-005 
-4.60329575024849e-005 
0.0001257309033449648 
2.168640491635325e-005 
-4.886141063488084e-006 
-8.924909864191483e-006 
-0.0002070254224811206 
-0.0001465504665001965 
-0.00017507024644782 
-0.0003121728477798437 
8.214050571174738e-005 
0.0001299629822459443 
-1.073389988549018e-005 
6.978691078597642e-005 
-0.0001231174075119519 
-0.0001044444593954501 
-4.736201462901894e-005 
-5.411935100304261e-005 
6.963713877303705e-005 
2.442680350284358e-005 
0.0001817457161577104 
-0.0001401450229551033 
-0.0001119127286037762 
-3.089199948059376e-005 
4.194592781952919e-005 
0.0002568824094478914 
-0.0003470609179274771 
-3.896227625427883e-005 
-8.412332453069643e-005 
-2.292969488533957e-005 
-0.0001507943613554427 
9.250226380451507e-005 
-5.258198526529281e-005 
2.778893041730072e-006 
-0.0002553477290622442 
1.20411779369022e-005 
3.725758535126365e-005 
0.0001083099950447132 
-0.0005147472431422158 
1.52725086437979e-005 
-4.102663682815012e-005 
-0.0001319491510148797 
4.061743416661474e-005 
3.221949741552198e-006 
8.611497714151333e-005 
8.822841782209367e-006 
-0.000192768079243511 
-2.09955459601589e-005 
-9.156499197110533e-005 
4.196431247855773e-005 
-0.0007915040255344615 
1.273931273753957e-005 
-2.549975237743312e-005 
2.26279918078326e-005 
-9.0556459786335e-005 
-4.156554759820169e-006 
-0.0004028877907954658 
-0.0002772785506064575 
-0.0004273156813115684 
-3.154052293669241e-006 
4.803545398121623e-005 
3.960426098538692e-006 
4.672846261905444e-005 
0.0001066329609590853 
9.72195828637738e-005 
1.601570389443448e-006 
-9.072369649802886e-006 
5.604585558384441e-005 
-9.909863375498101e-005 
0.0001205025644473621 
-0.0005205953839283844 
-4.843668048140526e-006 
9.202029501471627e-006 
-7.810307791777941e-005 
9.908804182896959e-005 
-0.0002043303110166411 
-5.114957609548055e-005 
-4.068904519230426e-006 
9.232984464930495e-006 
-0.0001755375510491211 
-0.0001046890535706098 
-8.126608947014848e-005 
9.569242016123091e-005 
-1.404348356777402e-005 
0.0002821596670096956 
-8.207414391119981e-005 
9.857035027223485e-006 
-0.0001385125814893405 
0.0001052759578337412 
0.000113730198841718 
-0.000454609271324633 
-0.0002597525035554714 
-0.0002279473870161006 
-9.011018598747599e-005 
-3.883755843568141e-005 
-0.0001315700242591041 
-0.0003022593267430753 
3.768389000423163e-005 
3.641054974326208e-005 
-4.209237451152288e-005 
0.0001726909359016508 
-0.0002318173918569539 
-4.363699552967053e-005 
9.156452069098483e-005 
-0.0001363429035999391 
-0.000384823426502542 
-0.0002574973174177487 
-1.143196286494517e-005 
-0.0001117430043129169 
-7.375469400684778e-005 
4.898214175895384e-005 
6.595984511530991e-006 
-0.000118970518985248 
-9.680803717598837e-005 
-8.469196783528633e-006 
-0.0001986722329017971 
-0.0003938293270106614 
-5.548002265096223e-005 
-2.569229058438322e-005 
-2.606592765343753e-005 
-0.0001415278868322682 
-4.977654851282046e-005 
-0.000204012676959792 
1.358631122109139e-005 
-2.7019575387835e-005 
9.191856967737978e-005 
6.349433370926154e-005 
3.420140926845387e-005 
1.067150763210271e-005 
0.0001326980906730043 
7.008796655997647e-005 
4.363828804930773e-005 
-3.240955233395581e-005 
7.539418327407695e-005 
-1.679176087819714e-005 
1.142565862703933e-005 
7.373844176760519e-006 
-0.0006740172894977441 
0.000295946966835583 
-1.288249536888694e-006 
0.0001510226420381022 
6.886416736615114e-005 
-0.0001295453122644531 
-7.986907596972506e-005 
4.096371346195691e-005 
-5.123089920057884e-005 
-1.220747409159664e-006 
-7.424130179996965e-006 
0.0001779156935036587 
6.705209344494913e-005 
7.539651300521617e-005 
3.833239931840695e-005 
7.375397049328845e-005 
-4.38324889335199e-005 
-0.0001270214315803917 
-0.0002559297281096848 
7.884719344806993e-005 
-0.0001722279808171596 
-5.962031133028417e-005 
-0.0001036097200841018 
-0.0003029927574533222 
-4.467861779078685e-005 
-0.0003170840935513133 
-0.0001387059087616737 
-0.0001062060008015237 
7.71891300213907e-006 
-6.378309447436558e-005 
-6.398536404568575e-005 
-0.0004745192778693257 
-0.0003328065666695471 
-0.0001216796934754362 
4.452494175713749e-005 
-2.895913093952582e-005 
-0.0002905062663873334 
2.752712894753457e-005 
7.094124167418289e-006 
3.311088742590749e-005 
-8.105584260844151e-005 
-0.0001909782568836719 
9.240491242336771e-005 
0.0001040000599131401 
1.106404922288947e-005 
5.318795407599115e-005 
-0.00011924831746415 
6.420545564618391e-005 
-6.022926965983203e-005 
-0.0001695834144604286 
8.198156817022197e-005 
-2.13516066017982e-005 
4.005534536198355e-005 
2.94229524988333e-005 
-9.427189679088796e-005 
2.775626979274364e-005 
3.148513007803099e-005 
0.0001543707321997272 
4.326004654565896e-005 
-1.419455961843337e-005 
-2.729417791204473e-005 
3.394794876932923e-005 
-1.514047175359987e-005 
7.88931307613611e-005 
-0.0001867168776221023 
-1.385621619846146e-005 
-0.0002506809197876073 
-1.190968711905046e-005 
-9.809372919921385e-005 
-0.000354320089555242 
-5.914816770509867e-005 
-5.62204639695006e-005 
4.439193438952559e-005 
-6.854102233731048e-005 
-0.0001777111718208601 
0.0001141045017781498 
3.007562102976441e-005 
-2.946118883731817e-005 
-0.0001674639581090352 
-0.0001370287058883741 
-7.518742150150995e-005 
0.0003306368327552354 
0.0001065279249908737 
-0.0001750186701277645 
5.65265389996641e-005 
6.124881913584242e-005 
-3.166270045612009e-005 
3.51453505097185e-005 
6.566421073813856e-005 
0.0003536521476222368 
6.158174713912386e-005 
-0.0002091824377484516 
-6.512119086630609e-005 
-0.0001314961565760757 
-9.612414219369378e-005 
7.408542154639087e-005 
0.0002509559581125223 
-0.001530534161548696 
-0.0006777672057327671 
8.404504746779441e-005 
4.5469371710402e-005 
-0.0001767657002977943 
3.484968714416001e-006 
-0.0001912620075813471 
-0.0003357813087269418 
-3.848489332731663e-005 
-3.596927012704603e-006 
-6.422987814965366e-005 
-1.167727674284871e-005 
-2.015520295372443e-005 
-0.000229028293400865 
5.267654620626248e-006 
-0.0009447464952690598 
-5.906594311288903e-005 
-0.00017406925407334 
9.843723390163236e-005 
-6.960226360569911e-005 
-4.031588726333212e-006 
-2.188555753433794e-005 
1.412323949746825e-006 
5.280154322822968e-005 
6.147394274822464e-006 
5.182646552353903e-005 
-0.0001075507312536896 
7.348712186149301e-005 
-0.0001412404543784834 
-0.0001121165529558075 
3.854650004622779e-005 
7.245970507706999e-005 
-0.0004845607532487288 
7.872213847999475e-005 
0.0001228430184209875 
4.965896504747409e-005 
-0.0001382498937226529 
6.772538223171993e-005 
-3.396313064899854e-005 
0.0001126418245869485 
-3.192772428560175e-006 
0.0001500107205853308 
4.001689809127151e-005 
-4.175686232907674e-005 
-0.000164703322322929 
5.173855813275124e-005 
-0.0001072001300622101 
-0.0001978494897396269 
6.449723854654965e-005 
0.0001011125691360007 
0.0001704161742351897 
-4.685646719860999e-005 
9.882978996923033e-005 
-6.765292381186249e-005 
-3.585804056798895e-005 
7.065159860832225e-005 
-0.0001766611916304481 
-5.225828389512123e-006 
-1.703450720832375e-005 
9.234099239095258e-007 
-0.0002496103000569514 
-2.832083565479195e-006 
-0.0002655210994219412 
-0.000251122923392655 
-0.0002182426547217831 
0.0001867191240263923 
3.172359912316905e-005 
2.530014372153907e-005 
5.236894528153119e-006 
5.449367421805461e-005 
3.729694115802356e-005 
3.724044961054641e-005 
-2.670433673483893e-005 
2.080219010731275e-006 
-5.349164265051456e-005 
2.59484457992528e-005 
0.0001909807242240759 
-0.0001728104261273693 
6.037365550027599e-005 
-0.0005846772575888305 
0.0001785734265507347 
2.036359814324112e-005 
0.000184080798092794 
-1.575272460008927e-006 
0.0003762188542899177 
6.852197920578174e-005 
1.092492257609991e-005 
6.37367556232238e-005 
-7.970886333448215e-005 
4.84654146941619e-005 
-0.000297918831951945 
1.198457087925386e-005 
1.14613177978101e-005 
0.00011579668085319 
-0.0001605646989405004 
-0.0001631344130426318 
0.0001345946825370525 
7.23649314012066e-005 
-3.562478011589786e-005 
7.69343233401171e-005 
-1.158801191277886e-005 
-8.800293180789677e-005 
-4.026146567783901e-006 
-2.877836884889129e-005 
0.0001145146892351055 
-7.792385275916329e-007 
4.915712901401631e-005 
3.397438589765893e-005 
0.0001094463013496969 
0.0001357264787450726 
4.789684532903979e-005 
0.0001312536260171079 
-0.000458101014927993 
-5.827909736418859e-005 
2.582546928153174e-006 
-0.0001481308379315724 
9.309231587696336e-005 
3.040891781668218e-005 
-1.965313716837682e-005 
-4.718748460283554e-005 
2.407475056079621e-006 
2.977347728216775e-006 
5.07177398714247e-005 
0.0001201185043975387 
2.391522198355642e-005 
2.045863993959183e-005 
-6.157174689102519e-005 
-0.0004984760590290173 
-0.0008541691286112426 
-0.0002748116723332663 
-0.0001213405736774033 
-0.0001271721979091486 
1.007846199083636e-005 
-4.052155913411131e-005 
4.592591169066383e-005 
-0.0001179979126264883 
0.0001022380306522198 
2.509766773732904e-005 
1.474128741384589e-005 
2.545008944208743e-006 
-8.77775478216308e-005 
-4.9416109133032e-006 
7.458527175631013e-005 
-0.0006875888398467331 
8.871407479368527e-005 
1.720371508347923e-006 
0.0001322205994425426 
9.775678381353432e-005 
-3.439450266848597e-005 
3.2792564969145e-005 
2.268719413958704e-005 
6.158976615175655e-005 
-4.34407090574726e-006 
4.678123065703888e-005 
-0.0007940015153554808 
-0.0001763123473528474 
-5.350760178585455e-005 
2.22248776685235e-005 
4.520663171123075e-005 
-9.977817125752168e-005 
-8.12511669767136e-005 
-2.962334707120982e-005 
8.117561035651141e-005 
6.662885526081401e-005 
-9.190379137019318e-005 
-3.776796681580574e-005 
2.87516463080094e-005 
6.433421884120225e-006 
-6.54475858764706e-005 
-4.673094791328346e-006 
0.0001875554464417058 
0.0001043721404899782 
-0.0001252716096196726 
-5.183666761205854e-005 
-7.313929862127241e-005 
-9.062414630490594e-005 
0.0002035634227542262 
-3.152796081006935e-006 
-0.0001150387822970799 
-8.724976772512706e-005 
0.0002049865286757406 
5.794267782950679e-005 
-1.681903095609885e-005 
-1.117245271562093e-005 
-6.602675424116647e-005 
2.382792298565699e-005 
-4.354568347821278e-005 
-0.0001118489566368247 
5.116075476666516e-005 
-4.399627106709808e-005 
2.499899670065829e-005 
0.0002203936902759095 
-0.0001831232010994798 
-0.000129051275966101 
-0.0003530088517035633 
-9.415744641597862e-005 
-6.781348419687739e-005 
-1.781970543039961e-005 
-4.708863866350917e-005 
-0.0001992864731460624 
6.000087065990934e-005 
-0.0003062506702726518 
5.891325674809233e-005 
-7.574742487478391e-005 
7.110944664130926e-005 
-0.000126676252347883 
-4.065366351245013e-005 
-0.0002206612679658945 
-1.888038118001881e-005 
0.000209351165221833 
-3.897488130488754e-005 
-0.0002306299620955039 
7.261375890288119e-006 
-1.34403508157665e-005 
-0.0001019174981742917 
0.0001390255640275064 
-0.0002533993647246492 
6.091093484900301e-005 
0.0001000217498566114 
-0.0002217479171364397 
1.478963919743596e-005 
5.06718194914268e-005 
4.203946863269955e-006 
1.128585304387329e-006 
0.0001182753896193261 
2.665539869678221e-005 
-2.624038116151972e-005 
-4.472750098134249e-005 
-0.0004168040731861849 
1.049618016998155e-006 
-3.108404432830394e-005 
1.707034100651297e-005 
4.010131797898447e-005 
0.0001237661054359793 
-2.824001596902602e-008 
-1.300017378364438e-005 
2.44782586301932e-006 
-0.000223256505643038 
1.422601609262112e-005 
0.0002497491796409391 
-0.0004326362605194696 
2.918853501692742e-005 
0.0001711809618356796 
-3.739988636437149e-005 
-0.0001142855600802656 
-0.0001534820037753016 
3.41888854616174e-005 
-5.909868228385556e-005 
-2.444574361582677e-005 
7.063252857173334e-006 
-4.986413421517817e-005 
5.104403649170377e-005 
1.307781728438993e-005 
-0.0002198699431405124 
2.239100269384705e-005 
-0.0004492965434063981 
-6.861498503988585e-005 
5.409576672536069e-006 
3.083965647980884e-005 
5.361555302084655e-005 
0.0003375874276033832 
6.541094812268381e-006 
8.075397734334664e-005 
3.093960472864433e-005 
-2.148153209871916e-007 
-3.999794420835971e-005 
9.685040255429263e-005 
3.614789916811408e-005 
-1.31227780513331e-005 
-4.442737681006725e-005 
-2.358109991241807e-005 
3.500087688482069e-005 
-0.0001575066598826548 
7.41668399999544e-005 
4.638676629144057e-005 
1.488320797429583e-005 
-5.556821137450996e-005 
-7.409751887009975e-006 
-2.234189214676062e-005 
8.115267120784963e-005 
-0.0002637745080590968 
0.0001392113319345263 
-9.960823111286038e-005 
9.428458692120213e-005 
0.0001727481543531901 
2.609804834042566e-005 
-0.0002031898347592178 
0.0002485897954086749 
0.0001796761249420268 
-3.699345843241423e-007 
1.800413268240672e-005 
-0.0001059998124650332 
0.0001266805999973689 
-0.0003903909327867299 
-8.062916873991652e-006 
-4.103794883184396e-005 
-0.0001283342667112879 
4.986480433458836e-005 
-7.102841774724734e-005 
0.0001266493696685955 
-2.823813790358648e-005 
7.721003137322082e-005 
-0.000145544215517033 
-9.072969242141462e-006 
4.286150447841011e-005 
0.0001166191180065411 
5.950778013294752e-005 
-4.348907417278532e-005 
0.0001048754716883812 
0.000203889647683227 
6.04899506905882e-005 
-9.675993251583471e-005 
-2.016286994163951e-005 
5.607030277891464e-005 
0.0003675272931259636 
3.842971396543072e-005 
6.074728849202654e-005 
4.615132143081548e-006 
9.323652549836207e-005 
0.0001372458128901997 
-8.257941821529486e-005 
5.468694247851545e-005 
-2.66524409609677e-005 
4.569017321098044e-005 
-3.901688038182225e-005 
-0.000241400900914418 
6.507914636185901e-005 
-5.820506228545546e-005 
-0.0005114757986208754 
8.015953227576535e-006 
-6.836578588246596e-005 
1.113419003758637e-005 
7.542040033525e-005 
-8.444753553127158e-005 
-0.0005209822295824682 
5.960145827178687e-005 
8.631116173284667e-005 
-1.562686492340764e-005 
1.817366188610469e-005 
0.0001995026826728428 
-0.0001967163656155056 
-0.0002416311592071754 
3.006499999063361e-005 
-3.650851391492405e-005 
-6.714075420768789e-007 
5.134182870772678e-005 
-0.0004186181313327426 
0.0001609851374230878 
6.566878860722281e-005 
-1.614984581018717e-005 
-5.092421966691189e-005 
-4.393620065062571e-005 
0.0001198347528482969 
0.0004116046996072367 
-0.0003346558784342363 
7.56175576764862e-005 
-0.0001099685700829663 
0.0002428380788950826 
-9.182718853718688e-005 
2.96628344468905e-005 
3.825183757051599e-005 
-9.089537166057343e-005 
0.0001096118744149897 
-0.0002466645970520013 
0.0001481628185410209 
-0.0003151328826002092 
-0.0001112782234551918 
0.0001925308731297445 
-0.0003904434215852352 
-0.0004392795274421627 
3.200725311254589e-006 
2.244285963164536e-005 
-0.0003089924544369707 
0.0003168857226912728 
3.524703914022685e-005 
-0.0002331757953372719 
4.548066174716581e-005 
1.188466158687448e-005 
0.0001103453369223835 
1.659910494237188e-005 
4.345557334943229e-006 
-8.768165569210325e-005 
-0.0001462757532184288 
-0.0002690878941771269 
-3.752262717355662e-005 
2.334328223806275e-005 
-3.061345455029017e-005 
5.160427600706096e-005 
1.710697143817657e-005 
-7.096475211727338e-005 
-0.0003909144392585176 
-0.0001606802051741639 
-0.0005331983496957963 
-0.0002893514548884113 
-0.0001246800830559332 
6.236228621147292e-005 
-4.292978354375884e-005 
-3.937143559589636e-005 
-0.0001736860338862515 
-2.121100045462603e-005 
0.0002104449916478656 
-4.851218231448838e-005 
0.000189858633318524 
1.087120958175952e-005 
0.0001682791850665508 
0.0002045959877841425 
9.193148358123232e-005 
0.0001543426969843009 
0.0005641844378735581 
6.247504953403677e-005 
-0.0004338651464487672 
7.273741082814427e-005 
9.491210200760077e-005 
7.637728184793497e-005 
0.0001207991485859878 
-8.712103762424388e-007 
2.363737785710474e-006 
-5.571061943322688e-005 
0.0001592772973390828 
6.823120298472726e-005 
0.0001572636532853506 
-0.0005740310181489066 
1.995221084911462e-005 
-0.0001885813501829406 
8.235266343450202e-005 
-2.805997989597859e-005 
-7.898250810220626e-005 
0.0001466668858955712 
3.128249980107823e-005 
5.025174500349086e-005 
-4.872506466986376e-005 
-4.142150272308599e-005 
-1.203650961735289e-005 
-0.0003255068720872168 
3.707214245824185e-005 
-0.0001239314710539539 
-6.545751253427077e-006 
-0.0003227072372694354 
-0.000222027926973075 
-0.0004591662704389274 
-0.0001767355151407512 
-0.0001442946584370958 
0.0001599283110516914 
-1.803488051297662e-006 
2.557880646466269e-005 
4.399746997508634e-005 
-0.000152538874703443 
-0.0002890332426203071 
-0.0001278760281739755 
-0.0002589489648606194 
-0.0001547479908726406 
-0.0001742435421569475 
-5.715163517626329e-005 
-6.964125614134249e-005 
-4.507118393724365e-005 
-0.0002456887678044618 
-5.458040960276116e-005 
1.418668240595204e-005 
9.569565885774301e-006 
-0.0004137721837708738 
9.009834577182319e-005 
7.516865591489549e-005 
-0.0001528292876626005 
-1.000453372975405e-005 
6.286925236928909e-006 
0.0002132792735761606 
-5.979126756061142e-005 
1.23857504817012e-005 
-0.0001218869675225162 
0.0002286249506553469 
4.734375051914927e-005 
-5.084811456636204e-005 
-0.0002680878835242472 
4.315677086873995e-005 
-0.0001089604292043507 
-4.82374177497251e-006 
2.096287720560874e-005 
3.62690273235343e-005 
9.786720448174678e-005 
0.0002122137131953531 
-9.969436504982424e-005 
-0.0001568091172493157 
8.053867379962591e-006 
-7.359955079502719e-005 
-0.0001245070278848412 
-0.0001099749362052428 
5.787357526265946e-006 
-0.0003551749802862467 
-0.0003227685440387164 
-0.0001092447158318993 
-7.995895060082311e-005 
3.540717223639265e-005 
-0.0001056106034198773 
1.641181299481626e-005 
-8.648749058598063e-005 
-7.230736046442869e-005 
0.0001708353091972151 
7.428617294134153e-005 
-0.0001957352274632027 
4.413549686460163e-005 
5.728598260674281e-005 
-0.0001624618725700094 
-4.878943153677735e-005 
-2.757755251723112e-005 
0.0001822624434792862 
-9.506833576114567e-005 
-0.0001055273992390778 
0.000101493239923934 
1.771437755009936e-005 
-8.334075596779911e-005 
9.75727238737841e-005 
0.0001040492838052117 
-0.0003247960642470189 
-0.0001811025086898775 
-1.904217498952444e-005 
0.0001751541680243067 
-0.000135253119289339 
-0.0002697004112618592 
-9.469864587141739e-005 
1.063703357814485e-005 
4.793415266891163e-005 
0.0001165595245101978 
-0.0001399401203387415 
-0.0001795763891798026 
5.593071410780013e-005 
-2.220064447938019e-005 
-6.360888978924007e-005 
-0.0002376822170138202 
8.933472800124893e-006 
-0.0003495229153020314 
4.381420971099717e-006 
4.637011950474106e-005 
0.0001515316462994774 
0.0002758723631169655 
-0.0003003262170777354 
-0.0001265533209114985 
-3.806255961200614e-005 
-0.0001364617512376289 
-2.541218325720753e-005 
-6.81938905287259e-005 
-0.000108666458387492 
-1.614003327717356e-005 
9.148212503778612e-005 
-9.002862149660709e-005 
-0.000238101180487629 
-8.685423694547464e-005 
7.412224803593799e-005 
8.493946844954759e-005 
0.0002167376406801807 
0.0002244093235408803 
-3.697593957814234e-006 
-0.0001119356266424467 
-0.0001114236578981236 
6.634069176666571e-005 
8.231073316404562e-005 
-0.0001980065444921485 
-1.441767297799662e-005 
0.0002543317885802126 
-0.0001032918234839077 
-6.883348507175689e-005 
5.097195607196842e-005 
-4.656655123655295e-005 
-0.000132346648140764 
-0.0002494902032646978 
-0.0004344340784706852 
6.500973095683015e-005 
-6.540903667828797e-006 
-9.22306069960736e-006 
-0.0001368720473090286 
-8.277000622979458e-005 
-3.850335347207408e-006 
-8.512172848133222e-005 
-0.000117779083645742 
-6.029765888151289e-005 
6.25648714927191e-005 
-1.734251256399439e-005 
6.961561243560252e-005 
-6.5411320386286e-005 
6.14357855111208e-006 
0.0002012071742147283 
0.0002473711888850684 
1.162653421462763e-005 
-4.317104328757214e-006 
-0.0001910477176390665 
8.616230709165692e-006 
3.453217813432172e-006 
5.68332308807347e-006 
-7.381761944171957e-005 
0.0001087901176200085 
-1.381750505158858e-006 
8.551119956035332e-005 
-0.0002465699803583444 
-0.0005712797509819629 
-1.180935098586327e-005 
0.0001330134320975879 
-0.0004225738116275811 
0.0002548561629557851 
6.581948216722024e-005 
-2.240362068831737e-005 
1.022716792559057e-005 
-5.026873659111828e-005 
-3.600761881353554e-005 
0.0002482446965377353 
7.681094614558459e-005 
0.00010817741427725 
0.0001519916115649395 
9.254515121907772e-005 
9.977807445753437e-005 
-9.32049780669845e-005 
0.0001025729020611856 
0.0002046430175465244 
5.290829551195452e-005 
-0.0006250432220190131 
0.000249094560358141 
-3.251237829139741e-007 
4.326814672322755e-006 
2.17878133447173e-005 
-4.940892451985687e-006 
0.0001362626385931129 
-4.20016765145763e-005 
-0.0002219940867764072 
-0.0002248110338137174 
5.348611197808402e-005 
0.0002312418982821937 
-0.0007358665509474215 
4.495057334333231e-005 
-0.0001052275155885475 
-0.0009973424521234225 
-0.0019292717735517 
-2.460151448640193e-005 
-0.0001963157199097151 
-0.0001600944717424528 
-4.242199356720003e-005 
-0.0006704477465382434 
1.751066770241966e-005 
-8.196753422673563e-005 
-4.757422987829698e-005 
-0.0008186785128724499 
1.088670374647187e-005 
-3.945202648015156e-005 
-0.0004233179889447686 
2.786049642274647e-005 
-0.0002807750370419268 
-0.0008175176071808339 
-3.002605688652715e-005 
9.663051513237275e-006 
-0.0001069079533214119 
1.692433818320713e-005 
-0.000124181071932225 
-9.5646405347162e-005 
-0.0002692024343095774 
-0.0001290481663147589 
-7.933236105583895e-005 
-0.0001442010007538995 
-9.520391976168953e-005 
-0.0004406003830941749 
-0.0002827970987460932 
3.72442560525068e-005 
0.0002286011765664548 
7.370329795969958e-005 
-0.0003065748577005265 
-8.215940117753183e-005 
5.10087745658697e-005 
4.782333935837997e-005 
-7.080371495798478e-005 
-1.550999735347805e-005 
5.268328002059238e-005 
1.719705183782277e-005 
2.57753923335126e-006 
-5.826467838226943e-005 
-6.15094207931946e-006 
-3.114828192025202e-005 
-0.0002186266902798814 
-6.948847371570703e-006 
7.485831354756388e-005 
5.958240160596008e-005 
0.0001340688478184729 
-3.56041072778103e-005 
6.07979058152256e-005 
5.95085399264345e-006 
1.895260920697011e-005 
3.766469438854863e-005 
0.0001615538375516117 
-7.052398196862852e-005 
-0.0001687800605115214 
-1.052375567536712e-006 
-8.588635443691156e-007 
2.244423348488771e-005 
-2.189008350436623e-005 
9.055398663914901e-005 
-0.000104902958273773 
-0.0001712360512830701 
0.0002591198911443614 
-6.993208965147545e-005 
6.984297464551249e-005 
9.888569857684611e-006 
5.851990396838807e-005 
-4.247891037196321e-005 
4.903734124046858e-005 
0.000135346067747617 
0.0001005493489134236 
-8.1420023948234e-005 
-3.839171326348624e-005 
1.958229187593523e-005 
-0.000282352244739596 
9.10152922653627e-005 
-4.792507302297547e-005 
-4.729212776272361e-005 
-7.494740105276217e-005 
8.339880168963134e-005 
6.833161161959326e-005 
7.740155798279624e-005 
-0.0002757762961535404 
-2.222485728934212e-005 
1.919807565817906e-005 
-1.596770286775998e-005 
-8.513932448374278e-006 
1.960603660567627e-006 
-0.000107373066672135 
2.537589645477323e-005 
-0.0001255806268633025 
2.292846370306863e-005 
-0.0004637656041028156 
0.0002807865896623792 
-0.0002291483967987134 
0.0002034677924115433 
-9.390351494452452e-006 
8.496253869889377e-005 
-0.0003703733836885976 
0.0001010824682625904 
-0.000108238102926996 
-1.840732092214672e-005 
2.368146880362121e-005 
-0.0002113870755676561 
-0.0001453068215516996 
-3.703241039275379e-005 
-0.0002685503465809009 
5.640974663517845e-005 
-0.0001148499948299169 
-0.0001756724668842502 
-0.0002861911804593941 
-0.0001294944212304903 
5.893932575805024e-005 
-0.0001457224040057017 
1.745616473104728e-005 
7.2670651781158e-007 
-4.149353881223103e-006 
0.0001338488853036862 
-2.753509735221918e-005 
-0.0002462142499831425 
-0.0001124873147396233 
-9.483390191602145e-005 
-0.0002233690107428472 
5.086362501668849e-005 
-0.0003879348805715611 
4.174233722668042e-005 
0.0001688800733210899 
6.081464855219857e-005 
1.149103672944091e-005 
-1.951077223398242e-005 
3.053471825935858e-005 
-4.274179032540132e-005 
-0.0001170296246413675 
-0.0001675440931650034 
-0.000442702823600006 
-1.653936490859623e-005 
-8.264100054527766e-005 
-0.0001042321971983375 
-0.0001984572451960281 
1.681150902795868e-005 
7.154589640316041e-005 
-0.0001749749128435899 
0.0001221793339862952 
-3.621305489418696e-005 
-7.546854955106287e-006 
4.484533131108711e-005 
-5.265002209612956e-006 
4.902847926807445e-005 
1.939843402399705e-005 
8.620874738371472e-005 
0.0001310362551911564 
-1.143203177086568e-005 
0.0001353308782558433 
-5.286735490529115e-005 
9.182584197894066e-006 
-0.0001755180027797937 
-1.963569047630308e-005 
-7.793100718057356e-006 
-0.0003304247710288998 
0.00014249084062185 
-0.0001418862371661258 
1.061493031028946e-005 
-4.538883930659894e-005 
-2.880906733291603e-005 
-1.011983079460159e-005 
1.942787655711988e-005 
-2.297295443236381e-005 
-9.527336676744882e-005 
-3.308095233182272e-005 
-1.161539957886539e-005 
-0.0001003148629213684 
5.907983238469592e-005 
-4.176539571619829e-005 
3.822205107385237e-006 
-0.000120770421242292 
-1.181830917258583e-006 
-3.661714461520368e-005 
1.598136748443541e-005 
2.153495921801865e-005 
2.218839326352275e-005 
2.02582033409524e-005 
-2.063526650862541e-005 
-3.743949978921186e-005 
6.401881327164542e-005 
-2.643182493535879e-005 
-0.0001061360752028368 
-8.581633086344249e-005 
3.309055621414936e-006 
5.323877341534222e-005 
-2.172957671728791e-005 
-9.278429677775092e-005 
9.614378434724451e-006 
-5.271018251757549e-005 
-4.698502963817643e-006 
-8.409642072092438e-006 
3.913949535797871e-005 
-0.0003517326421376064 
-1.616935924095794e-005 
-0.0001948793442041039 
-1.840746789375988e-005 
2.561343977257724e-005 
-0.0001839770618373862 
1.643270883519787e-005 
0.0001271549826232636 
6.164454870413674e-005 
-8.45870770786685e-006 
7.084399445741621e-005 
-0.0002615938047664446 
-1.369214116315435e-005 
-1.425412103433152e-005 
-0.0001524553924932856 
3.282941377254119e-005 
3.102053338849858e-005 
5.156718777139837e-005 
-0.0001801289164802948 
4.123511242799378e-005 
-3.677783523725634e-005 
-0.0002598969981525505 
-3.064987724829187e-005 
6.93538444777276e-005 
7.953552538354746e-005 
-3.848830211160899e-005 
4.269901678448901e-005 
-0.0002030488397095193 
1.121685391274483e-005 
8.778675418239754e-005 
8.856030993933871e-005 
-5.613408736672115e-005 
-5.00406685131077e-005 
2.216377763289614e-005 
5.132472997583291e-005 
7.303831478961695e-005 
-1.222080930586974e-005 
-3.508613736861007e-005 
3.288378043361331e-005 
0.0001180702238409542 
-1.081091594621416e-005 
-3.246925779788008e-005 
-1.0675344318703e-005 
-6.428786047288212e-006 
7.807147044573583e-005 
-6.927494329505618e-005 
-4.473922483836455e-007 
1.501083968163079e-005 
2.377977260401311e-005 
-4.553392244880147e-006 
1.720806586752664e-005 
-0.0001006274341549021 
-3.422023514321526e-005 
-9.363796081073134e-005 
8.141843834698267e-005 
-2.29033110594869e-005 
0.0001041093385339858 
3.44905494120894e-005 
-1.888225776180744e-006 
0.0001298590384498037 
-0.0001286574832394792 
-0.0001034072122022353 
-2.20178939724944e-005 
1.02670649713603e-005 
-4.96441612876561e-005 
4.854939990065163e-005 
8.83893120935836e-005 
-0.0001203590963775773 
-0.0001103284333128964 
1.415063625118758e-005 
-0.000132908136933624 
-3.246822511013008e-006 
-6.23184323879756e-005 
0.0001908535000175749 
-5.866181760432762e-005 
3.436513966118428e-006 
-2.737754683704822e-005 
-0.0001892161117757371 
-0.0001131760495539808 
-0.000134352535813104 
-7.236704491754551e-005 
6.429326902732173e-005 
-0.0001071855577846252 
-2.800119112429351e-005 
-5.270700472585301e-006 
-0.000162163022054642 
-5.104048870109426e-005 
-6.05783915111252e-005 
-0.0001279307512655367 
1.67506333640729e-005 
1.37017213795861e-005 
-4.829887961582166e-005 
7.19422417893867e-005 
-3.097475550798991e-005 
7.188264664250351e-007 
1.882776029159672e-005 
-0.0001437539914500728 
-0.000182768199222476 
-7.038502594911432e-005 
2.621744349895852e-005 
-8.434259147502763e-005 
-7.114220555904403e-005 
-7.741237290563642e-006 
0.0001242137400091581 
-5.117562871218637e-005 
-1.565225533191936e-005 
2.094832082722956e-005 
8.690109931072163e-005 
2.348238711006496e-005 
0.0001336930533639135 
-5.338791218577982e-005 
2.461056895748574e-005 
0.0002761216669965446 
6.755972751036946e-005 
1.061178710790822e-005 
-4.660068342266922e-005 
0.0001669749699061015 
3.806489332473766e-005 
6.477587933889249e-005 
-1.346677908249308e-005 
-6.680414130618077e-005 
-0.0001070503213246202 
4.516324452620144e-005 
-1.857587729800445e-005 
-3.317821211614692e-005 
8.185813841301159e-005 
-0.0001308685010411276 
-1.445555006717859e-005 
-0.0003371255357612238 
1.617015553544375e-005 
5.946283350784712e-005 
-2.326853168754959e-006 
-0.0001044671901005748 
6.868865489909453e-005 
5.076466239434123e-005 
0.000152314414114419 
-0.0001665972233602571 
-6.01836608338048e-005 
3.772876739994564e-005 
3.645842505629817e-005 
-3.30601933207785e-005 
8.365200479343539e-005 
-0.0001678239611367745 
-5.100345460103996e-005 
0.0001744785313709232 
7.876889253026576e-005 
0.0001301255226274553 
3.738554951999394e-005 
3.626346073784991e-005 
-0.0001098782822046972 
-0.0001271972449877653 
5.127570839060072e-005 
-0.0001173605146627608 
1.740918117744633e-005 
-2.675356990324507e-005 
1.160417257960541e-005 
0.0001015682191327849 
3.497363104606019e-005 
-3.002840996359571e-005 
9.951999085507835e-005 
-0.0006254627545841035 
2.146729003098043e-005 
4.848218206466184e-005 
5.694946991701793e-005 
-3.67640742763407e-005 
0.0002188259513350022 
-0.0002676024568967313 
0.0001607440322605258 
-0.0002840281321288164 
0.0001201748981904258 
-0.0001281884409027216 
-0.0001261008387690757 
2.189326487753896e-005 
-0.0001888290782630598 
-0.0001102809320483704 
1.672683816744189e-005 
0.000145672862085516 
-0.0001844833104339538 
-8.58468751720803e-005 
-0.00013637287971556 
0.000145639534896751 
-0.0003033508406301112 
-6.900667202317236e-005 
1.15485641681722e-005 
0.0001180220686921758 
-2.843644627457841e-005 
5.935023629061654e-005 
0.0001769714831984418 
6.871037989209303e-005 
8.204846466693808e-005 
0.0001025339750911363 
-4.183622113658626e-005 
2.637778588033022e-005 
6.053365174326846e-005 
-3.066492214332285e-005 
3.813434899467987e-005 
-5.631379463305328e-005 
-2.422253926892635e-005 
-2.696711178865144e-005 
-4.014637304479011e-005 
1.485126617098279e-005 
0.0001248941152686138 
2.264143131982161e-005 
-4.59744393053021e-006 
3.536366854946281e-005 
-8.405707376372416e-005 
-8.937444757379839e-005 
-3.444948127023151e-005 
5.844203843108626e-005 
4.162781040055761e-005 
0.0001580621701121726 
-1.963081068534915e-005 
1.268329422764533e-005 
-0.000486937172927956 
5.564827891182772e-005 
1.251339604013132e-005 
-7.887694643877586e-005 
6.156657685816464e-005 
4.719597092474816e-005 
9.781059120214604e-006 
8.285817800780118e-006 
3.939423347979925e-005 
-6.213484765724328e-005 
2.303225526662099e-005 
-2.635107448546872e-005 
-0.0001411365941812744 
3.810760106639432e-005 
-9.983721892606194e-006 
-5.885967094957024e-005 
3.921522913905662e-005 
9.920072624094696e-006 
-1.080944255566613e-005 
7.125511007559744e-005 
9.256071022928628e-005 
-2.741132508348518e-005 
-0.0001316075178471877 
5.423789474752334e-005 
4.084954079078937e-005 
-0.0001169231484949938 
6.431685636071862e-005 
9.532507515897759e-005 
1.055382383375092e-005 
2.734356250187554e-005 
-0.0001524455198803499 
-1.449820503348789e-007 
7.531012925265856e-007 
-0.0004084095360219807 
-0.0001941678410356536 
-1.5146262414338e-005 
-5.569638978306245e-005 
-0.0002060196890343828 
1.157464255026717e-005 
0.0001018185527813019 
-0.0001579047947980833 
-0.000117616850236608 
-4.803510134049433e-005 
-9.626416633907823e-005 
9.351662560853572e-005 
-0.0001352157104978447 
-0.0001536694972306393 
-9.876125501864655e-005 
0.0001312343757611022 
-0.0002127373991507941 
6.704814670352623e-005 
-2.703786669486134e-005 
5.729435341214524e-005 
8.748622616493973e-005 
-0.0001118993800944612 
-2.726678970045402e-005 
-0.0001436515451160621 
-0.0001597383950670783 
1.835781789096983e-005 
-5.084265041224771e-005 
3.803783755425795e-005 
-0.0002081563473822067 
0.0001254391370700651 
3.94047973343656e-005 
-0.0001497258567299963 
-0.0001225833661440388 
5.061234894656417e-005 
-9.666760413386041e-005 
0.0001389947466650815 
7.539751323681852e-005 
-3.604048442447103e-006 
6.724956853624606e-005 
3.002169958207204e-005 
7.76502074669924e-005 
2.32317742224441e-005 
-1.233170786444508e-005 
-6.414957692184091e-005 
0.0001459823926536743 
-1.261990125917466e-005 
2.988750760926163e-005 
-0.0001463353122813266 
9.098069426010061e-005 
-4.233810968189025e-005 
8.836517668077532e-005 
5.368036432166968e-005 
-0.0001491044597192723 
0.0001144113872096567 
2.170552909796734e-005 
6.170234754729006e-005 
-7.557755068333274e-005 
-6.936676545306613e-006 
5.288203226967802e-005 
-5.127765011783964e-005 
1.212936827925358e-005 
-0.0001054841458181936 
8.166345220580333e-005 
-0.0001435097641802855 
-0.0002752397829429991 
5.870876774847009e-005 
5.057283950405209e-005 
-0.0001091557409859602 
-6.451602343133527e-005 
3.398601473642511e-006 
-2.677260926638993e-005 
-2.819054105201549e-005 
1.374239962980717e-005 
6.780435975124606e-005 
2.900949257270066e-005 
-0.0001301290538894463 
-2.533227818712243e-005 
2.73010336327147e-005 
-9.501400309008667e-005 
0.0001716352992292324 
-0.000618433472995995 
1.520875045797106e-005 
4.687792008977654e-005 
-0.000388822368193306 
0.0001328583350335965 
7.908020560374197e-005 
1.650873448201579e-005 
5.203867564958504e-005 
-2.84081820563578e-005 
-1.326481160603588e-005 
5.175075002594769e-006 
5.689389690252375e-005 
-2.176148512443128e-005 
-2.845613074281127e-005 
-1.768704035409726e-005 
-0.0001785635945757775 
5.54902895107506e-005 
2.290363324101053e-005 
-0.0001130704262257677 
5.73171858895258e-005 
6.577273851979266e-005 
-1.433486379922104e-006 
9.939047673794477e-006 
3.634287536889044e-005 
-0.0001782454489584955 
2.309952524650768e-005 
-0.0005465739913724423 
-8.075498415791423e-005 
-5.618843850284864e-005 
-4.244500885043311e-005 
-0.0001862488246180699 
-0.0001988607412210627 
0.0001000974862940479 
-2.421181620327258e-005 
-7.407047938936563e-005 
-0.0001556400097820082 
-5.593787335827395e-005 
-0.0002805556416585324 
-5.613308349140901e-005 
-4.119472405828856e-005 
4.337096991659307e-005 
3.773021438785913e-005 
5.732192421405885e-005 
-0.0001191152122417716 
-1.979741333539033e-005 
5.327746452302488e-005 
5.895510860810768e-005 
-1.472306758911237e-005 
9.695319114270914e-005 
3.693759643573544e-005 
-7.83627202418569e-005 
2.414026267436308e-005 
5.360862259967078e-005 
-6.418909101738046e-005 
-3.01139589802821e-005 
-5.788989098868135e-005 
-4.768487380065558e-006 
1.630542755568853e-005 
-5.284742055858553e-005 
-0.0001023058280588447 
-2.44652736539101e-005 
-6.055277724478843e-006 
3.409818781751041e-005 
3.346521168221665e-005 
-0.0002107054767011454 
8.60317621606074e-005 
-3.519525865191051e-005 
-7.701073793477676e-005 
-2.411290493348362e-005 
1.449772839242345e-005 
-1.637655291838111e-005 
6.354085760261595e-005 
0.0001118457051582988 
-4.617247639762763e-005 
0.0001509370255926867 
-3.907296875571809e-005 
5.454991559100895e-005 
2.465273095672618e-005 
-1.80859060960669e-005 
-0.0001434973467365497 
0.0002446094894675269 
-1.446930199047911e-005 
-1.540764695313118e-005 
1.11851642529144e-005 
0.0001516644726835345 
0.0002272789915092162 
1.827546653441884e-005 
0.000105206946473605 
-0.0001181539982539227 
2.515553579520376e-005 
-0.0001435302076534206 
-1.342301610522323e-005 
0.0001016630436922785 
-0.0001470232037341796 
-0.0001667190352230529 
-1.989313671337984e-005 
-7.815374453456271e-005 
-9.917352333527623e-005 
-2.854431810002697e-005 
-4.441309023258479e-005 
-0.0001858322402162294 
-4.359811945259515e-005 
1.816792107487426e-006 
5.273955489596132e-005 
7.703348027447734e-006 
4.587377002411281e-005 
0.0001271269424104962 
-3.373713928268079e-005 
0.0001222022880812552 
-0.0001290289296956551 
0.0001215200120257507 
0.0001861008599796437 
-0.0003069977608280075 
-7.747403475576462e-006 
9.472878294085706e-005 
5.128671246602107e-005 
3.550441333165332e-005 
-6.193166543776439e-005 
8.486259771569958e-005 
-1.936384687611476e-005 
4.532588766263817e-005 
0.0001142033895993561 
-8.624280172553664e-006 
6.664942814078283e-005 
5.250204313143726e-005 
-0.0001072779736649363 
0.0001128665588102742 
-7.776645281138649e-005 
-0.000130985844824536 
2.555842373025074e-005 
-0.0001293300287091587 
-0.0005220791105365837 
9.698460491715579e-005 
1.041447382987042e-005 
-3.502428966574926e-005 
-2.83904549858046e-005 
-3.485989012302536e-005 
-1.239677914539332e-005 
-8.537939612386002e-005 
9.921512327108369e-006 
-2.13119222235878e-005 
-7.624828913750218e-005 
-0.0001603695137373583 
-9.693985000469425e-005 
6.327796710188486e-005 
9.823637303721231e-005 
0.000124535556877489 
-2.11987253137114e-005 
2.0821335298013e-005 
5.089689523591187e-005 
-5.475834490160389e-006 
9.413119916558805e-005 
-0.0002306680498091855 
7.922087815325524e-005 
-0.0002320658001986709 
0.0001183818372068129 
-5.771004692660972e-005 
-2.678797019001788e-005 
9.952840619622828e-005 
4.591015060240613e-005 
-0.0002394608117421738 
-3.869010587223632e-005 
9.45832007913565e-005 
-0.0001082618885115187 
2.676012855614834e-005 
8.577388823038167e-005 
2.548190323761947e-005 
-0.0001704254450345776 
6.807580600418649e-005 
7.778612792399628e-005 
-0.0001818524776467646 
0.0001406615868229808 
-0.0001693423425605186 
4.1579724899174e-005 
-8.406412627451117e-005 
-0.0003178689561402913 
-2.297423194674625e-005 
0.0001180192244320296 
0.0001057308955673278 
0.0001113627402454707 
-0.000248596250725478 
-0.0001166752826020972 
5.818821905255002e-006 
-3.605975395499607e-005 
-0.0003027223912215554 
-2.880453793265837e-005 
2.961559923135249e-005 
-3.241785061151409e-005 
0.0001393360691900227 
-1.810916351571254e-005 
2.765327231488805e-005 
3.988069811570461e-005 
-0.0002002453146719454 
-2.829759963258298e-005 
5.176690743198604e-005 
-3.955244080579394e-005 
-0.0001057273027257497 
0.0002005429697374574 
3.283045674974029e-005 
-0.0001142735613220877 
-0.0005391889591233799 
-1.986248956959317e-005 
-0.0001844368616429166 
6.64101930232815e-005 
-5.987606116900183e-005 
-2.520833957286255e-005 
2.464662610009332e-005 
