solver_type L2R_L2LOSS_RANKSVM
nr_class 2
nr_feature 6620
bias -1
w
-6.573477496811924e-005 
1.16534533028644e-005 
-3.311844785002198e-006 
2.591793618964324e-005 
-3.334262841953866e-005 
1.759146540274311e-005 
-5.796702837894225e-005 
-1.827982920356504e-005 
3.433492796760471e-006 
-3.991580126752316e-006 
-7.042146621280042e-007 
2.062970384472252e-005 
-1.156762293355205e-005 
-3.602398600157138e-006 
3.336224681484439e-006 
-1.091082833347121e-007 
1.272500899511168e-005 
-9.231479928943998e-006 
0 
-2.088080975777814e-007 
-2.217282665686288e-006 
2.205262189773231e-007 
0 
3.319772551705747e-007 
7.265925005867008e-006 
6.266347399227047e-007 
0 
-1.580250949938067e-005 
1.472670961932386e-005 
0 
0 
5.763233882444416e-007 
6.794568564273861e-007 
0 
1.13203790828471e-006 
0 
9.358079533922031e-006 
0 
1.670606766627475e-006 
-4.064799987522022e-006 
-1.947391919942953e-006 
0 
1.606417015095379e-006 
-3.034931917034148e-005 
-7.042146621280042e-007 
-4.629699163317541e-006 
-1.453546698829752e-005 
-1.211586488011707e-005 
0 
9.377243376687254e-006 
-1.192264227700158e-005 
-1.215509348638817e-005 
-2.861625230091673e-005 
2.685217432456227e-005 
4.91938704855961e-007 
1.783713506103136e-005 
2.887260376315869e-005 
1.777337195975365e-006 
-0.0002191741945064186 
-0.0001410183564175998 
-8.534600859801667e-005 
8.615401378471643e-006 
-3.375557121225654e-005 
-1.310312760167776e-005 
-3.80793859023023e-006 
-1.586349532760497e-005 
3.359800308295768e-007 
-3.530919056985107e-005 
8.846779379094916e-006 
-1.247928902052411e-005 
-8.34755243936674e-006 
-3.532178003492547e-006 
3.444901756760694e-007 
0 
1.019893909940971e-006 
-1.996158290949496e-006 
1.595638322747605e-005 
0 
-3.28967345516567e-006 
8.428730701467069e-007 
0 
0 
1.472670961932386e-005 
0 
6.604683185717271e-006 
0 
1.363009024497253e-005 
-6.938707752452022e-007 
3.692479813766862e-007 
0 
0 
5.079721876011051e-007 
0 
0 
-6.921316391620535e-006 
-1.522674488820222e-005 
-3.962836508110581e-006 
0 
0 
0 
0 
0 
7.59610095849919e-006 
-5.727983560755502e-005 
3.652425327087021e-006 
7.786024655113315e-006 
1.472670961932386e-005 
1.2263040430377e-005 
-8.335509876253209e-006 
2.638625424425571e-006 
-8.738012358412529e-005 
-8.468220798426886e-009 
2.649552914617487e-005 
-8.726846290929309e-006 
3.397254622197019e-006 
1.38093168221053e-005 
7.034228139157248e-006 
-0.0005314954804728271 
5.393831475913919e-006 
-0.0001080362245719713 
-2.501175774267381e-005 
-4.725671076694548e-006 
-6.055617712324029e-006 
-1.433071007806117e-005 
5.775652842272072e-006 
-3.181442491011937e-006 
-7.524951250145818e-006 
1.744136232739183e-005 
-1.377697342573454e-006 
-4.814115103251003e-006 
-2.5041304785506e-006 
-1.974347900585677e-006 
3.443553471581011e-007 
6.808153715043811e-006 
-2.896130328461728e-006 
-2.120650271296227e-006 
-2.562769992170232e-006 
1.670606766627475e-006 
-9.246885904212308e-006 
0 
0 
-3.574124212907617e-006 
1.192240162564453e-005 
-2.514777348402947e-006 
0 
-1.711323882472919e-005 
2.431222648014227e-007 
-7.042146621280042e-007 
0 
-7.424466833715864e-006 
3.692479813766862e-007 
0 
0 
1.962510633190503e-006 
-6.409134055831572e-006 
-7.517052920296266e-006 
3.598072745416789e-006 
-3.20280743187263e-005 
0 
0 
3.443553471581011e-007 
-2.508847190124144e-006 
5.524178770938006e-006 
6.188279745722064e-006 
0 
-6.277597184823216e-006 
8.428730701467069e-007 
0 
-8.058469221785961e-006 
1.421455471156036e-005 
-4.547628073683592e-005 
1.011744464228116e-005 
-1.302236799228272e-005 
8.427675482584569e-006 
3.650267796950978e-006 
-3.342915630567122e-005 
-0.000310613826102186 
-1.219706196138956e-005 
6.92334618527287e-006 
-3.474927579267926e-006 
-1.98811069347496e-005 
1.622571894281748e-005 
1.100854241016559e-005 
-1.840518492307415e-006 
2.701186282430225e-005 
8.712082037125019e-006 
3.907045137546601e-006 
1.108357420839409e-005 
4.046120230244392e-006 
-2.142484614802244e-005 
-8.313290384822967e-006 
-1.171753131925602e-006 
-4.140567100074345e-007 
2.111156585567603e-006 
1.677987639749649e-005 
5.618372073306674e-006 
9.261241866194199e-006 
4.799025967384209e-007 
1.670606766627475e-006 
0 
-4.925111915859886e-007 
-1.095318153583531e-005 
-1.275199160235786e-006 
0 
3.443553471581011e-007 
3.699068317902641e-007 
-8.335509876253209e-006 
0 
1.194466410141165e-005 
-8.449551538207376e-006 
1.506840530175566e-005 
8.382282136049033e-007 
-2.58481988752538e-005 
-8.27563046970148e-006 
3.598072745416789e-006 
2.00123559221267e-006 
-5.845426967118812e-006 
-8.826467074890328e-007 
-9.218156583742241e-006 
3.443553471581011e-007 
4.517475400817108e-005 
-9.791342235311242e-007 
-2.674354560904937e-006 
-3.313148603264295e-006 
-3.881082089737643e-007 
1.256054855949826e-006 
2.901579521205664e-007 
4.067941833884823e-006 
1.558536282384405e-005 
-1.624565363676558e-006 
3.261825928474094e-006 
-4.610241570222081e-005 
1.63958946669706e-005 
-1.129244607033857e-005 
-1.086172741568086e-005 
-5.454247221330558e-005 
-4.313659927074065e-006 
-1.104099461320077e-007 
-2.22453384885168e-006 
-3.77178878176496e-005 
-1.941949996487422e-005 
-1.499374248396416e-005 
1.62364904984137e-005 
-1.577288133048128e-005 
1.788977072105118e-005 
5.662912235867009e-006 
0 
6.678649041640165e-006 
-4.281449381172568e-007 
1.232884900850408e-005 
-5.712860477531245e-006 
2.022802824693231e-005 
7.327003017013996e-006 
2.166739636068143e-005 
0 
5.825856018225021e-006 
2.873393869248471e-006 
8.382282136049033e-007 
-9.507263008178813e-006 
2.094578186624577e-005 
3.89722227748175e-006 
1.750224190314692e-005 
0 
6.926153615173496e-006 
1.508838439710517e-005 
0 
0 
2.175940537663161e-006 
-1.139799753285126e-005 
0 
0 
7.868686206391802e-006 
0 
0 
-1.076896454588152e-005 
-5.499521216746718e-006 
-1.962783806480364e-006 
1.472670961932386e-005 
2.537578979973261e-006 
3.015180255245886e-005 
8.184569559569395e-007 
1.098659368840071e-005 
-2.517800608248613e-006 
7.945152263668187e-006 
-3.878923297546128e-007 
-7.907335337457071e-007 
1.874102054593609e-005 
5.314707904231255e-006 
-5.659160773340077e-006 
1.995503219191374e-005 
-9.032708174773964e-006 
-1.365578651354681e-005 
-9.367147557545295e-007 
5.022901294528311e-006 
-0.0001808724011808592 
4.65543633314186e-005 
-2.845032460313451e-005 
-1.536575615392293e-005 
-4.3312087634816e-006 
9.041127206862188e-006 
4.424247826751495e-005 
-2.067371542700166e-006 
-1.115944395645276e-005 
-1.65529040014308e-005 
9.352954843368785e-006 
2.863611010571176e-005 
-5.825603063307198e-006 
1.546760116324395e-007 
-2.170643077664392e-007 
-9.246885904212308e-006 
0 
-7.297430227354427e-007 
-3.498550400990353e-005 
0 
-8.454696395705276e-006 
1.386584080187035e-007 
0 
0 
0 
9.810959329435971e-006 
1.98126925907198e-006 
0 
1.150434211127514e-006 
-6.304931868772874e-006 
-1.962783806480364e-006 
0 
-2.995978941070494e-006 
-1.49783744006784e-005 
3.443553471581011e-007 
0 
1.386584080187035e-007 
-1.086941592973786e-005 
0 
0 
-5.556421035400709e-006 
0 
-5.414638135371526e-006 
1.3219650703843e-005 
-3.311862721496342e-005 
2.872947192557178e-005 
-8.043945349580432e-006 
-9.259957858610368e-006 
-1.053391834737998e-005 
-2.468471664334228e-006 
3.75747914603461e-006 
-4.274919232361647e-005 
3.229930714274727e-006 
-1.814539758749811e-005 
2.093492520529309e-006 
-7.389428590175979e-006 
-1.095943066605871e-005 
-5.412769495506066e-006 
-1.756952970253468e-005 
6.282900560886859e-005 
-7.350373925467139e-005 
1.577629739380851e-005 
1.58628259526768e-006 
3.682105305102321e-005 
8.887878382132888e-006 
-4.291577683746564e-006 
-1.257550542115615e-005 
-9.57055193338034e-006 
-1.061255647404124e-005 
2.697762170747401e-005 
1.414698721026866e-006 
-1.738311853619896e-005 
-1.58790970488158e-006 
3.060735083684114e-007 
-1.325664895875662e-007 
-1.331013439610094e-006 
4.275687171181452e-006 
-9.545407938682818e-006 
3.598072745416789e-006 
0 
6.43016798270652e-006 
0 
0 
0 
-3.411260145756291e-006 
2.939102818912541e-006 
3.692479813766862e-007 
-1.687149956886469e-006 
6.467582715324947e-006 
8.382282136049033e-007 
0 
1.823728339640068e-005 
-3.708335367873908e-006 
0 
0 
-1.882689112820249e-006 
-8.716732841630847e-007 
3.749506485756001e-006 
-8.450915856137641e-007 
1.499369212722632e-005 
0 
3.443553471581011e-007 
-4.553946137553278e-007 
-2.852466405345117e-005 
1.509430156216892e-005 
-1.843549610582016e-005 
-2.156455061608032e-006 
7.330128169923879e-006 
-2.109542277241217e-005 
-3.343078303377396e-007 
1.932782957823486e-007 
2.525079005518103e-005 
2.758679546174318e-005 
-3.581727093459674e-006 
-1.239384716870351e-006 
6.253416961191912e-006 
5.400683573589556e-006 
-5.601296752994939e-006 
-6.565754342906157e-005 
-1.646720448283693e-005 
5.308214083997047e-005 
1.591958459896929e-005 
2.596893075739776e-006 
-1.995135919863229e-005 
-5.898131368396139e-005 
1.815137960670738e-006 
3.272800316950233e-007 
2.370646437202698e-005 
-7.35446300310172e-006 
7.543589018504e-006 
0 
1.864741996062092e-005 
-3.854738353985371e-006 
-8.335509876253209e-006 
-6.906765923710254e-007 
8.744992191187283e-006 
-2.559542207247492e-005 
0 
0 
0 
0 
0 
-1.083964035480381e-005 
-4.015813889246999e-005 
-1.673380241234739e-006 
0 
-8.449051057284702e-006 
5.079721876011051e-007 
0 
0 
1.463358251216016e-005 
0 
1.29536287054345e-005 
0 
6.03265772782828e-006 
6.316749852697615e-006 
0 
-1.579535492234253e-005 
-2.748881047828304e-005 
-7.492636806106504e-006 
0 
-8.450915856137641e-007 
-1.930942672881801e-005 
-8.27563046970148e-006 
-1.050106642903984e-005 
-4.150761411978188e-005 
2.706733775486783e-005 
-5.702131732346406e-006 
-8.173792887656467e-007 
3.076576732307123e-006 
1.015410096632754e-005 
5.82908225260418e-006 
-3.624215788133765e-005 
-7.283602162399172e-005 
3.115801265541585e-006 
3.456156385059721e-005 
1.480264984161996e-005 
9.552085588156401e-005 
1.86086493785819e-005 
2.088242661496875e-005 
-2.278040222380983e-005 
-6.940726862833593e-006 
-4.948590948781831e-005 
2.05197727772117e-006 
8.722200161644182e-006 
-9.579096477722208e-007 
4.309271828534173e-005 
-2.155601147793242e-006 
-2.732450352998435e-007 
7.507365441124298e-006 
-1.774553410937715e-005 
-3.251604036498275e-005 
9.156500331000148e-006 
1.670606766627475e-006 
-6.502839624402008e-006 
1.945264461666031e-005 
0 
5.763233882444416e-007 
1.04926190249588e-005 
0 
-2.595214208846448e-006 
0 
4.068035294875117e-006 
0 
0 
-9.039120761034588e-006 
0 
0 
0 
6.867507595130687e-006 
1.037506740641454e-006 
0 
-3.115668005834779e-007 
-5.324246836140297e-006 
0 
0 
6.316749852697615e-006 
-1.630626030819222e-005 
-8.525372204627564e-006 
0 
1.905276458110358e-005 
-5.423276133137489e-006 
1.506840530175566e-005 
1.554704200668435e-005 
-4.219902063238845e-005 
-1.515207426556946e-005 
-8.690967132113433e-006 
-4.556523563019468e-006 
7.406783651711739e-006 
-1.235585165389855e-005 
8.88375281012414e-006 
-2.412359025276639e-005 
-6.965645151569666e-005 
-8.838097079308145e-006 
1.034324437113088e-005 
-3.951425781375168e-005 
-0.0001395849997485037 
3.866868529187741e-005 
-3.962980466208714e-005 
-2.776992964917661e-005 
-1.059699330515596e-005 
2.749413459140175e-005 
1.299481700086759e-005 
-5.276955677744144e-005 
1.009272371980227e-005 
-3.713902162108192e-005 
-1.20787325432263e-005 
1.206468796530322e-005 
1.65314556950462e-005 
-1.937106242685754e-006 
-1.241159091918794e-005 
5.768118079320781e-008 
-1.349811341579235e-005 
0 
-1.742298958997733e-005 
-1.579535492234253e-005 
0 
-1.429895454269604e-006 
0 
-8.826467074890328e-007 
0 
-1.155890944628737e-006 
1.498916864867227e-006 
0 
8.486079771531076e-006 
-2.811106394963362e-008 
-1.76986775727683e-006 
0 
2.008623134912255e-005 
-3.346372213264567e-006 
0 
0 
4.857287299964839e-007 
-7.616249382191044e-006 
-1.974347900585677e-006 
0 
5.408048644499059e-006 
0 
0 
8.808297878176836e-006 
3.395386879514462e-005 
1.014063159199346e-005 
-1.128137479838976e-005 
-8.868188861513533e-006 
-3.418160419340035e-005 
-1.022602012774343e-005 
1.530459501015688e-005 
-3.016275290628976e-005 
1.502881918557138e-007 
2.094807916738095e-005 
-3.653279814184388e-006 
-1.861705715361194e-006 
5.288061834039238e-007 
1.229552812173198e-005 
3.632925182295296e-006 
7.529069600737059e-005 
-3.86654244639928e-005 
-1.417079857836193e-005 
-3.030053608719356e-005 
2.718504421734965e-006 
2.805584001601871e-005 
3.351671966427702e-005 
-1.607083264692899e-005 
-4.472828291209467e-005 
3.321222517291659e-005 
1.87647310324855e-005 
-6.405861840574418e-006 
-1.366226714279896e-006 
-1.7430503489175e-006 
1.224208771466589e-005 
2.2685553663174e-005 
-6.938707752452022e-007 
-4.059923199682859e-007 
-3.255437356963652e-006 
0 
3.49547378662561e-005 
0 
-8.335509876253209e-006 
-3.412588893159434e-006 
0 
1.05153497802937e-005 
-1.198855089676573e-005 
0 
2.877963704087368e-008 
1.357606724617414e-007 
4.162707626791051e-007 
0 
7.246810678525187e-006 
-2.466498980382805e-006 
0 
3.598072745416789e-006 
2.205262189773231e-007 
0 
-9.791342235311242e-007 
3.443553471581011e-007 
-8.449051057284702e-006 
-2.433454669628315e-006 
0 
-5.276524085517083e-006 
1.142505399108579e-005 
-6.813219090726323e-006 
1.645514815287664e-005 
1.497949345790659e-005 
-2.523242294906104e-006 
-7.042146621280042e-007 
-3.513306963592767e-006 
1.450021636463679e-005 
-1.126022105028334e-005 
3.125634511588539e-005 
2.572057679929168e-005 
1.770943254504965e-005 
1.471308756558151e-005 
1.061844435753385e-005 
-3.279613814506567e-006 
-3.032810795519395e-005 
6.336407162287468e-005 
-7.024307188924588e-007 
-1.816160203719295e-006 
8.117268656875538e-006 
4.964052955283766e-005 
-3.85379884044444e-006 
-3.981628499996883e-007 
1.081769259259297e-005 
2.256846319082144e-005 
-3.460426076357563e-006 
0 
7.702660447780905e-006 
-8.550300008936598e-006 
1.371657097318095e-005 
1.599342945681781e-005 
1.506840530175566e-005 
-5.712860477531245e-006 
-1.862264945202451e-005 
0 
0 
2.977634283699946e-005 
6.674703235364051e-007 
0 
1.357606724617414e-007 
1.696866881796905e-006 
1.364249257099072e-006 
0 
1.022688991638574e-005 
-2.087512527223319e-006 
0 
0 
7.783132181074954e-006 
-1.750122623232684e-006 
0 
0 
-5.244562762675977e-006 
6.566159454591419e-006 
0 
8.382282136049033e-007 
1.278448684246735e-005 
0 
0 
1.157601567356405e-005 
-7.465007719299965e-006 
1.107532856908647e-005 
-1.168017499823675e-006 
-2.860908125123618e-005 
-2.250721286794515e-005 
0 
3.598072745416789e-006 
-3.256263828708647e-006 
2.842472243453218e-005 
1.791070451097901e-006 
8.234378415484022e-005 
-5.760398314344365e-005 
-5.343021997652586e-006 
1.571920091148546e-005 
1.569367010788381e-005 
7.773671574727095e-006 
2.4741023832508e-005 
2.536531725397801e-005 
-1.647291600433327e-005 
-1.036706599465276e-005 
-5.456627979352474e-006 
-1.324556012466976e-005 
8.450302440883561e-006 
-3.766163283484068e-005 
1.464060968495514e-005 
2.362362039036909e-005 
0 
1.174209071131565e-005 
-2.663791279780956e-005 
-2.265434425112172e-005 
4.193644318914982e-006 
3.869334946730084e-006 
7.98883911691936e-006 
-6.954557278927518e-006 
0 
-1.753997813200928e-006 
-1.749040637551747e-006 
8.508630001910448e-006 
1.381038720892411e-005 
0 
-5.131143304431894e-007 
-8.335509876253209e-006 
0 
5.921802432134037e-007 
-1.799545576258469e-006 
-3.600240444535781e-006 
-3.115668005834779e-007 
-1.629867132995818e-005 
3.239741202628331e-006 
0 
8.382282136049033e-007 
1.375354923309643e-005 
-9.9361061540235e-006 
0 
0 
-1.273716330037032e-005 
-5.712860477531245e-006 
0 
-1.542544809055227e-005 
-2.956621195755837e-005 
3.814438442342224e-006 
-1.048330628095279e-006 
-1.445394265425923e-006 
-3.776493327472231e-006 
2.117091037908519e-006 
1.486126868526627e-005 
-2.209062011679523e-005 
-1.897263018731786e-005 
1.120364566763519e-005 
-4.530645707705938e-006 
-4.18707958492405e-005 
7.531503377163785e-008 
2.41331214176874e-006 
-2.294482435774381e-006 
0.0001511193347993139 
-3.720658017028278e-005 
2.710614788733268e-005 
4.008648961646987e-007 
-4.087578452426138e-006 
3.115969195108164e-005 
-3.581995909504768e-005 
-5.620411328512174e-006 
8.617690255500704e-006 
-2.925646684101494e-005 
7.244751115819343e-006 
0 
1.503524696782027e-005 
-2.197414436429864e-006 
3.564793673113422e-006 
2.887709964986417e-006 
6.808153715043811e-006 
6.794568564273861e-007 
2.179924794704218e-006 
0 
8.184569559569395e-007 
3.319772551705747e-007 
6.794568564273861e-007 
0 
-7.827537688652103e-006 
-2.159649698625256e-006 
3.974409393680545e-006 
0 
-6.540590688723668e-006 
2.982223421597185e-007 
0 
0 
-1.161788459601317e-005 
-2.283330311202812e-006 
0 
0 
-3.403276568549642e-006 
0 
0 
6.266347399227047e-007 
-2.036176390383977e-005 
0 
2.17658209879304e-005 
1.15304067011273e-006 
4.034348062104803e-006 
1.234139558675512e-005 
-1.249464257448745e-005 
9.812361536806371e-007 
-3.574124212907617e-006 
-1.441391881781593e-008 
-9.704849373144427e-006 
5.716717939648541e-006 
3.111133193945307e-006 
-9.075234576809792e-006 
-1.969878099439004e-005 
-5.286465040327467e-005 
1.393741983087913e-006 
-1.108575264640483e-005 
2.102548365714627e-005 
-6.295374307221683e-005 
2.458014457697814e-005 
-3.724790874990531e-006 
-5.228241413681234e-006 
-2.052897922102517e-005 
-1.141556662808652e-005 
-1.004314759289259e-005 
-1.403316649977853e-005 
-1.369148231942055e-005 
1.450977174585203e-005 
2.946806393116731e-005 
-3.322262334626619e-006 
-2.660481746895193e-006 
-2.603542760598892e-006 
1.258068168339849e-005 
-1.257702763953068e-005 
0 
-2.466660937916905e-005 
2.942843688379087e-005 
-8.826467074890328e-007 
0 
-1.404837035378445e-005 
1.382202596628528e-005 
0 
0 
3.113413354327362e-006 
1.139125091930189e-005 
0 
9.944312749744659e-006 
9.812553165952515e-007 
0 
0 
1.399445535603553e-005 
-1.052145904728683e-005 
0 
3.277130739958368e-007 
6.443505422300579e-007 
3.319772551705747e-007 
1.172804659609601e-006 
0 
-8.450915856137641e-007 
0 
9.150034156855176e-006 
-1.179298954114787e-005 
3.042588502333901e-005 
-1.211389597839288e-005 
0 
-1.589214822808053e-005 
1.822769319325557e-005 
-6.201583447892003e-006 
1.647638627266591e-006 
7.478054259514813e-006 
9.864749366637601e-006 
5.997311702869786e-006 
1.347418502211844e-005 
-4.542636666286474e-005 
-2.382348075078622e-005 
-2.197605988328785e-006 
7.798375855079165e-006 
-7.704319932124446e-005 
6.474332975388156e-005 
-2.428795137326806e-005 
1.652324388596133e-005 
2.641582719201517e-006 
-1.970309602320339e-006 
-2.960270292947714e-005 
-4.422890584682328e-005 
2.531737716270836e-005 
-1.064244778214543e-005 
1.277574349019674e-006 
8.382282136049033e-007 
3.79784162017815e-006 
8.188215428961215e-006 
-1.727343371051906e-005 
-3.683879168159162e-006 
1.058754432582227e-006 
1.138924214887693e-005 
-3.373211594684008e-006 
0 
0 
-4.22530112046233e-006 
0 
0 
0 
2.092424549319247e-006 
-2.09535029606793e-006 
0 
8.04570504628563e-006 
1.304735472773218e-005 
-1.656710298111952e-006 
-3.878923297546128e-007 
-1.020595123029867e-005 
1.53882521004057e-005 
-8.449051057284702e-006 
1.13203790828471e-006 
9.860860910621943e-008 
-2.970871937612546e-006 
0 
0 
2.434032718463426e-006 
-1.177656751447773e-006 
-8.826467074890328e-007 
-6.998899801278296e-006 
1.335874977734531e-005 
1.406083141169524e-005 
1.578717830545333e-005 
1.703734944043822e-005 
3.943000441153289e-006 
2.012446734264557e-005 
8.718087200648983e-006 
7.500090799049546e-006 
2.948557763904193e-005 
5.336303073774064e-005 
-2.765323027574232e-006 
1.292795159096254e-005 
-2.031535668222471e-005 
1.219556026675347e-006 
-4.257476164394781e-006 
-0.0004583867940597004 
-2.304800888197431e-005 
-6.332529191633646e-005 
9.359995462586917e-006 
8.429853711967827e-007 
-1.622607360383445e-005 
1.15386474753837e-005 
2.731424514138048e-006 
3.649243263961425e-006 
1.276137061149843e-005 
1.663751050931508e-005 
1.665045432981559e-005 
-9.04209557911302e-006 
3.37575807871083e-006 
5.972921159558274e-006 
0 
0 
-1.473247166896665e-005 
-4.040450146743325e-005 
0 
9.370603795106228e-007 
1.443892836788316e-006 
0 
-2.021689387330729e-006 
0 
-4.952597479120272e-006 
6.618701607161137e-006 
0 
-4.41868914938941e-006 
-6.02124172607696e-006 
-3.115668005834779e-007 
0 
1.565741575809992e-006 
-2.5041304785506e-006 
0 
4.968187659952715e-007 
-9.027371900446518e-007 
1.168473650976502e-005 
1.289711254458331e-007 
-5.712860477531245e-006 
4.11287217472699e-006 
-7.708875136330503e-006 
0 
-8.149157929791368e-007 
-3.1253452920595e-005 
-8.901671710234891e-006 
-4.489470910661987e-006 
-2.749968755329472e-005 
-2.266210029235194e-005 
7.850331376638802e-006 
1.673868059072705e-006 
-3.639207427324736e-005 
8.132827098319775e-006 
-1.616644630719473e-005 
8.5202077739903e-006 
-2.967205763344038e-005 
8.917598551796832e-006 
-3.850270591888713e-006 
2.807994831230053e-005 
-0.0003226714686014518 
-3.384972848921838e-006 
-5.959172250399523e-005 
1.416851774839136e-006 
5.854301957045275e-005 
-2.687772472471026e-005 
8.726072781558947e-006 
1.736770263835895e-005 
1.08650828280035e-005 
-1.095712922578875e-007 
5.646880905842419e-005 
1.403224129860841e-005 
-3.59858102411292e-006 
1.002555610691968e-005 
-5.980658622859068e-006 
7.013761946317488e-007 
-1.649213792282811e-005 
3.102289097942964e-006 
4.296409530861638e-005 
0 
1.426900112651861e-005 
0 
6.794568564273861e-007 
0 
4.280816438152881e-006 
-3.61838228934629e-006 
1.176174545742484e-005 
0 
-2.221576880389895e-005 
-3.001452465093837e-007 
-9.246885904212308e-006 
0 
1.774538063317822e-005 
-2.053433698716049e-005 
-8.335509876253209e-006 
0 
-1.089827986842344e-005 
-6.365515637136633e-006 
0 
3.711810860611012e-006 
6.738505987464062e-007 
-6.938707752452022e-007 
-8.876979072422046e-006 
1.869284481150388e-006 
-1.090985670000354e-006 
5.381909195543436e-006 
1.97124096705934e-005 
-1.106919045958823e-006 
-1.992297242374774e-005 
3.120467038006011e-005 
3.678900558439067e-007 
-4.344847768039014e-005 
6.244568630980345e-005 
-3.631812579220121e-005 
-2.266725001644718e-006 
4.397605012502343e-006 
1.586446317944873e-005 
1.484416454038442e-005 
-1.403780007875793e-005 
-0.0001971301689402706 
-1.593240353336634e-005 
1.815027300538882e-005 
1.271317800650376e-005 
-2.287477272779877e-005 
5.284870598762659e-005 
-4.998265198397101e-005 
-2.231636692678519e-005 
-7.651498862680011e-006 
-6.815768214453655e-005 
-1.746478024594211e-005 
-1.985381074171252e-005 
-9.477592521770292e-007 
-1.089962803164904e-006 
-7.888576463663081e-006 
4.798246965107814e-007 
2.278237165296411e-006 
-1.463278900892459e-005 
3.141296735379881e-005 
-1.362611533844149e-007 
0 
3.984658694930725e-006 
0 
-4.82553305717784e-006 
-4.203322426905144e-006 
3.728500510480106e-006 
0 
0 
2.370120372220718e-006 
-2.351114001485136e-006 
-1.088278002238464e-005 
0 
-1.949503141588514e-005 
-2.155983021918383e-005 
0 
-9.791342235311242e-007 
1.731558147181083e-005 
-2.5041304785506e-006 
3.598072745416789e-006 
0 
-8.008412103024643e-006 
-6.910337195026377e-007 
-1.753997813200928e-006 
2.862888075125844e-005 
3.954052539332514e-006 
4.595713844204726e-006 
-3.369155191488892e-005 
-1.155750006100001e-005 
-2.521578362056589e-005 
-7.599424780319737e-006 
-2.458302957912214e-005 
6.972934981150383e-006 
-3.316414716964752e-005 
2.739347403877903e-005 
-2.069720368460029e-005 
-2.054291420671806e-005 
9.689266495176775e-006 
2.511022408849664e-005 
4.355392136066203e-006 
-9.868947434125913e-005 
-5.037538426731225e-006 
-1.144765588874164e-005 
5.03791311654617e-006 
9.121766751384943e-006 
-2.079154823673362e-005 
1.956822541830368e-006 
7.858646807007358e-006 
-6.868510244384837e-006 
1.512619175063659e-005 
1.327736907121282e-005 
-1.974347900585677e-006 
-1.462467614698078e-005 
-1.731816197975712e-006 
-3.590390408773322e-007 
1.153200030122483e-005 
7.098190934557355e-006 
1.422475195665985e-005 
-3.205612980899721e-005 
8.428730701467069e-007 
8.382282136049033e-007 
-2.408898193655355e-006 
-1.750122623232684e-006 
1.419674044590255e-005 
-1.974347900585677e-006 
-5.941567084676782e-006 
6.417989319887907e-008 
0 
1.447912244377243e-006 
9.214495139189725e-007 
0 
8.428730701467069e-007 
5.095095130088786e-006 
3.715927372890169e-006 
0 
-1.166214998222013e-005 
8.833774450377554e-006 
-5.482237133132794e-006 
-2.427009319708491e-006 
-6.621204885117091e-007 
1.843664715284789e-005 
8.680906899576085e-007 
1.459028371248438e-005 
-1.484859732043296e-005 
-1.028594008724585e-005 
1.653851813934303e-005 
1.131368048141505e-005 
-3.787058922500508e-005 
-2.152034627322755e-005 
4.627110904541364e-006 
7.545037578411343e-006 
-1.418076931622317e-005 
-1.35461836233858e-005 
-1.43110381286426e-005 
3.931510381901631e-005 
-9.647697466928155e-006 
1.453941463613133e-005 
-1.277791831848158e-005 
8.997012347916198e-006 
1.464686288223983e-006 
-0.0002184971560021718 
-8.039266549644678e-005 
4.864797883909405e-005 
7.001854850755939e-006 
-8.326413558176089e-006 
-3.434474579332711e-005 
2.666256980773659e-005 
1.161989251425999e-005 
-6.737003174566618e-006 
-1.539806236515588e-005 
8.418829526234114e-005 
3.400405522272539e-005 
-5.564330605938325e-005 
-7.019440088944528e-005 
1.109797580173314e-005 
1.894761715820147e-005 
-6.190686597120789e-006 
-1.988044660060194e-005 
9.669367854675937e-005 
8.38343844766619e-005 
-4.211933611598325e-005 
1.222946245341607e-005 
-3.208228539084583e-005 
4.937875038759811e-005 
-6.268971126424259e-005 
7.593400707366953e-006 
-9.893201616383747e-005 
-4.72423242719683e-005 
-3.746592140042531e-006 
-0.000129740317091865 
-2.25369555612189e-005 
-2.573154518986361e-005 
1.665021906758962e-005 
-3.724161471053346e-006 
-1.7791118626393e-005 
7.472203677090613e-006 
-1.780385746783032e-005 
-2.573896756032424e-005 
8.343048941972484e-006 
-2.064065294583685e-005 
-9.597228789010757e-006 
-1.054954966168091e-005 
-1.696813769977676e-005 
2.796013491965119e-005 
8.211170433511143e-005 
-7.585750324108708e-005 
5.355236380066131e-005 
-7.9245353625862e-005 
-3.594334793749973e-005 
-0.0001016142164612418 
1.288219998269347e-005 
6.264864954344694e-005 
1.219977958242499e-005 
9.416832040972942e-006 
9.395026742601971e-006 
4.578935190470367e-005 
4.769970093329087e-005 
9.41974579619095e-006 
9.852733349313446e-005 
-7.864438682851703e-006 
-1.799730519229461e-005 
2.445773740339887e-005 
1.359153247865329e-005 
2.723746114508403e-005 
0.000127802525699314 
-9.605971866552535e-005 
1.023354564710201e-005 
6.651081633199644e-005 
-1.278145850963244e-005 
-1.724328076427978e-006 
2.794172659542909e-005 
3.35315158723265e-005 
2.933251562330515e-005 
-3.206866788648267e-007 
5.597653305856557e-005 
-8.643562196450508e-005 
-2.132467130622495e-005 
4.935991850329848e-005 
-6.633839587001855e-007 
-8.246662588285412e-005 
4.839800917272185e-005 
5.792155869341755e-005 
-2.520216400292382e-005 
1.004775929846951e-006 
-2.958441971464406e-005 
-5.354810066523195e-005 
3.620313321772736e-005 
6.632224673664245e-006 
-1.317659608255945e-005 
-7.316329300032051e-006 
-7.575801322483495e-005 
-3.250585458731905e-005 
-3.750362058162461e-005 
1.144685335463131e-005 
5.252340713142281e-005 
-3.023442007028125e-005 
-1.286716383621267e-005 
3.151417398629898e-005 
-5.041818805708024e-005 
7.629737810306835e-005 
4.17989783587033e-005 
-2.962458278473073e-005 
-1.390446584723618e-006 
-3.013772060684645e-005 
2.281380349357721e-005 
-3.620743884109043e-005 
-3.224894146111691e-006 
6.206385475456877e-005 
2.455748493173934e-005 
-0.0001308597556446613 
-4.204964487231727e-005 
4.914915402542896e-006 
-2.033587962259049e-006 
-5.665963430479623e-005 
1.9307315026335e-005 
2.763918216065672e-005 
2.177425417901101e-005 
7.192314425543271e-005 
3.18302134872417e-005 
-6.479345681908664e-006 
5.844148190928273e-005 
2.850903654265355e-005 
2.875950687925373e-005 
-4.334069087028165e-005 
-1.692144404128859e-005 
-5.722960201471991e-006 
7.73376557368077e-006 
-0.0001241605593616682 
1.468955210288698e-005 
9.221195199740486e-006 
6.995610923936402e-005 
-3.430477908452136e-006 
2.888410229526501e-005 
5.498539726440473e-005 
7.947309268051708e-006 
-3.192688746953058e-005 
2.009124810402401e-005 
1.453527658105852e-005 
-5.206988532542401e-005 
3.095487463277223e-005 
-2.394764091257186e-005 
3.409786493063736e-005 
-2.211489064513992e-005 
-4.869448233125448e-006 
-0.0001708224963511471 
-6.520241217329466e-005 
-7.474783566300185e-005 
-2.56744999452815e-005 
-8.35612606882456e-006 
-1.970544024607166e-005 
-2.199906530575321e-006 
-1.99675870155291e-005 
-2.253631639449366e-006 
1.783429227378809e-005 
9.112359691079094e-005 
-9.965583910655924e-005 
1.020842558170398e-006 
-2.813098197581269e-005 
-3.770235055840301e-005 
5.61727318026404e-005 
2.545418467312233e-005 
1.841699360347305e-005 
-3.406186909120583e-005 
-4.122638275971025e-005 
1.19001653623093e-005 
-7.469861620516861e-005 
-3.543217417373531e-005 
-5.303754688043099e-005 
-1.985155233622498e-005 
5.343500974511959e-006 
-8.344443931024339e-005 
-4.285433598711056e-005 
9.43113941456405e-005 
4.601271344343653e-005 
-1.719975656978025e-006 
9.390932337847502e-005 
0.0001506419018344357 
4.593971307896463e-005 
-2.12104528766092e-005 
1.024142766725257e-005 
-4.227333549933975e-005 
-1.175970077424288e-005 
1.106498511904406e-005 
-2.978065082195838e-005 
-3.080074655858608e-005 
2.988580302668889e-005 
1.023421105605863e-005 
3.429096725798191e-005 
-1.907331142813251e-005 
-1.731328118011011e-005 
3.404860873579656e-005 
2.139644232887178e-005 
-0.0001567047212504262 
-9.86452604997411e-005 
-6.342010224489404e-005 
-2.96302182185277e-006 
9.319675099258919e-006 
-8.002039510817725e-005 
2.853268493933375e-005 
-6.234511264648471e-005 
4.452206665946532e-005 
-1.286750297587965e-005 
-8.579826717468181e-005 
2.558486376026896e-005 
1.038205437306652e-005 
-8.691384753229155e-005 
4.695163702124259e-007 
8.41005517917743e-005 
-5.584140826925188e-005 
7.949951720210924e-005 
-5.395781782087552e-005 
1.273975031483678e-005 
2.47666518667323e-005 
-6.213885331234036e-005 
2.114804500215198e-005 
1.953479837114196e-005 
2.182621801910403e-006 
1.298191356976605e-006 
-1.400464329596743e-005 
2.030278713993874e-005 
-1.360760635891213e-005 
1.244614708995721e-005 
6.107182100315088e-005 
-3.158248701693657e-005 
-2.212295104198288e-005 
1.898304634879602e-005 
9.854187749529014e-005 
1.330053753873961e-005 
-5.316752982813887e-005 
-1.252089816871713e-005 
4.085151977302478e-005 
-4.603006742546608e-005 
1.130848767085153e-005 
8.136375822733185e-006 
-0.0001022454758643816 
-1.787085238617406e-005 
3.086570823952421e-005 
-4.293329572881535e-006 
2.663417946236506e-005 
5.471210846961564e-005 
-9.577440046785389e-006 
-1.842849791413048e-005 
-4.359963107018171e-005 
1.243357058735565e-005 
-0.0001009017054275093 
-0.0001756538305203213 
-3.257036274201891e-006 
-3.663978040499424e-005 
-2.410487735841826e-005 
-5.456799693235283e-006 
7.249294494621826e-005 
8.279655907366147e-005 
5.961434068247415e-005 
6.371643785282595e-005 
7.227863084875982e-005 
-4.578128922448814e-005 
4.036770899719679e-005 
-6.047909657251702e-006 
2.034834481205529e-006 
0.0001160759091336507 
1.293356481069097e-005 
8.024289415181971e-005 
1.145049447454193e-005 
1.852816732697034e-005 
-1.833942915891158e-005 
2.881223253669563e-005 
3.184893542285494e-005 
-7.104320070328998e-005 
-3.105057402677327e-006 
3.58344497686935e-005 
-2.041347252864906e-006 
2.188977352186957e-006 
-0.000252933204394328 
-4.743086809510871e-005 
1.35534526273497e-005 
-5.675636165364594e-005 
-2.40220674680695e-005 
-1.474648780723645e-005 
-2.475926991333184e-005 
-4.425515297731731e-005 
2.289598192011845e-005 
-1.573154841767644e-005 
3.746413644879958e-005 
-1.723582156801569e-005 
-5.616174660112286e-005 
-0.0001042457390753423 
2.835506182245904e-005 
-3.360478740759422e-005 
-7.986268364746293e-006 
3.93933027889291e-005 
5.323110258582931e-006 
1.161583119778717e-005 
2.812186740824853e-005 
-2.344005148147808e-006 
-9.670181153664918e-006 
2.851430030812076e-005 
2.922729029626981e-005 
2.379489588087847e-006 
-4.586080196605545e-005 
5.887514410959476e-005 
2.575344111035562e-005 
-5.185633882978029e-005 
3.055847348481618e-005 
-4.21821428170383e-005 
-9.775352366170896e-005 
1.07430675520991e-005 
2.342468669089811e-005 
-3.954036074792402e-005 
-4.187290570040241e-005 
0.0001473970176785431 
-8.350679267249765e-007 
4.146846477893186e-005 
-0.0001099882351926546 
-2.073801041683515e-005 
-0.0001087856149260123 
1.949996707036513e-005 
-3.087351891879349e-005 
2.620900991487287e-005 
1.668869182284824e-006 
0.0001021937375602282 
-1.785210876098268e-005 
-1.573681529538261e-005 
-1.369652227754528e-005 
-6.578643238249435e-005 
-1.247164726318008e-005 
-2.213848691072806e-006 
1.195043747416706e-005 
-2.633552332889861e-005 
-4.562105062135382e-005 
1.578238184295861e-005 
3.84672303863098e-005 
-1.118244554174855e-005 
6.601684544520036e-007 
7.424657610759161e-006 
-4.287164762264359e-005 
-2.264542239870376e-006 
-5.449229607740325e-005 
2.144616042838205e-005 
-2.376343666645294e-005 
1.305193171304939e-005 
-6.104390774057881e-005 
-3.076513999418354e-006 
-7.006216976342255e-006 
3.300946931534366e-005 
0.0001069240650921078 
-7.581528933974333e-006 
6.838833935757526e-007 
5.179512497013312e-005 
-0.0001171410701622431 
-2.038942898718377e-005 
-8.022845474639921e-005 
-7.361096356230598e-005 
-3.194090603273204e-005 
4.396921842664902e-006 
7.323972668574033e-006 
-4.875589934761242e-005 
-4.170923962890115e-005 
7.863950598833183e-005 
1.559186669239316e-005 
4.088587944421345e-005 
3.562611068600379e-005 
5.426754520022386e-005 
1.201690648288848e-005 
4.079784868939565e-005 
-4.40307095017376e-005 
-4.579307431183306e-005 
-7.655877566380461e-005 
3.61969719571412e-006 
3.603350531359458e-005 
-1.714154682990557e-005 
5.97876155277476e-005 
5.005878435721249e-006 
4.836652270315067e-005 
-2.16087136771633e-005 
1.112108801990435e-005 
-1.724590637955549e-005 
-2.796031435279731e-005 
7.201287802535667e-006 
8.95527844936161e-005 
3.569861830136701e-005 
-9.095132950034183e-006 
-4.789636818882424e-005 
2.489265297511702e-006 
6.921739644330552e-005 
4.995850345209635e-005 
7.269108146766648e-006 
5.818277223733263e-005 
7.943861424061655e-005 
9.719546476438941e-006 
-2.480418817198272e-005 
-1.769379008982217e-005 
-7.644521335321704e-006 
-7.020137165389874e-005 
-3.277444511532963e-005 
-2.766239762646562e-005 
-2.051801181204021e-005 
-3.738223576521054e-005 
-3.230061327201809e-005 
-8.498520406268113e-005 
2.587231594088099e-005 
-0.0001453482542837748 
-0.0001046805192162152 
-3.621190082455649e-006 
-0.0001303109563691794 
-6.114221746300502e-005 
-1.638980022349428e-005 
-6.721979955699555e-006 
-3.593386237041797e-005 
1.356274691816141e-005 
-6.479594254940125e-005 
2.073176739967534e-005 
-1.227393529714922e-005 
6.594460661245053e-005 
-2.785911323998057e-005 
-1.990417476328482e-005 
-0.0001298112132322067 
-0.0001754109502177442 
2.219338380007788e-005 
4.86964166891503e-005 
-6.659811100874261e-005 
9.215916382168326e-006 
2.418163962945234e-006 
3.207504314546706e-005 
4.733141049937973e-005 
7.488024962390507e-005 
1.897509654587519e-005 
7.498222798706905e-005 
4.406307228107667e-005 
4.998137863992131e-005 
1.048466156998823e-005 
-3.803310031133881e-006 
-0.0001374162430718068 
-6.297038980598479e-005 
-6.286557929579364e-005 
6.676641908185844e-005 
-5.655575064763257e-006 
-6.055476830947347e-005 
-3.678670894769474e-005 
-2.790800318736189e-005 
-3.33809470655695e-005 
1.184968308444243e-005 
-2.249746761562795e-005 
7.813387088576683e-005 
1.830174994077848e-005 
2.129982590861045e-007 
-4.782001760725023e-005 
4.903482336125874e-005 
-5.055964602169663e-005 
8.987563156024498e-005 
4.475881913952241e-007 
-4.327899845919103e-005 
6.409600533907138e-005 
-2.651836274944574e-005 
-5.494851418024129e-005 
9.581079990349375e-006 
6.062888430600299e-005 
2.547908986974174e-005 
1.930823715545364e-005 
-8.619066745453134e-007 
-2.210961314087734e-005 
-4.752393074564562e-005 
5.569030475654785e-005 
3.284949135896469e-005 
-7.839926809053921e-005 
-3.009002511892789e-005 
-5.712695655553941e-005 
8.38757860908809e-006 
-0.0001010713170982889 
-6.068727465398947e-006 
3.245869502870506e-006 
-1.12080893033706e-005 
1.470546466869719e-006 
8.070125936537251e-006 
2.307639466400791e-006 
3.7179692956397e-005 
-5.464385099043284e-005 
2.04370931431316e-005 
3.411122012079661e-006 
-1.645098183830356e-005 
-0.0002011820666822851 
0.0001204248927163142 
3.669530271321084e-006 
4.949737071681534e-006 
-1.973924555027006e-005 
6.972908729508077e-005 
6.507068930066034e-006 
8.404950549389317e-007 
-4.352202241599675e-006 
3.654532719543356e-005 
9.910678877339156e-006 
-3.380505900381277e-005 
-8.48328977733038e-005 
-5.19032248542131e-005 
3.834936388698773e-005 
3.485259360145865e-005 
0.0001820479328629867 
6.849765981221869e-005 
1.132617467278295e-005 
-4.032544005981564e-006 
-2.928810083552223e-005 
-0.0002310954895895452 
-0.0001021967607995009 
-1.173043151030386e-005 
-7.133714374069678e-005 
2.72490506154547e-005 
-2.568077630894304e-005 
-3.891121566024407e-005 
7.098474870826391e-005 
2.917651908375039e-005 
-0.0001795989427543585 
2.471080690586457e-005 
3.143010126816137e-005 
1.690281013855611e-005 
-6.770395328332499e-005 
-1.444760959061951e-005 
5.543511685278814e-005 
-7.335729366649913e-005 
-0.0001500434593103536 
-3.770207507983674e-005 
-4.565361829026615e-005 
3.8508468840478e-005 
2.008952917462802e-006 
0.000142363697572572 
-4.275531580073938e-005 
8.446809740820709e-005 
2.656085047487135e-005 
-1.886952804396334e-005 
-5.875666927729866e-006 
3.07427049183616e-005 
5.519338617267031e-005 
1.618362969790391e-006 
9.553659360968758e-006 
-1.288735967389852e-005 
-5.828411847970762e-005 
7.290421997831971e-006 
-6.106410316594872e-005 
1.327483769759691e-005 
2.176525246530334e-005 
6.92794370996259e-005 
1.115312635732119e-005 
-7.450521211491318e-005 
-4.333356216647724e-005 
3.617161421426356e-005 
8.228101308565452e-005 
-1.365845077209404e-005 
-6.019808833415184e-005 
-1.171214800199082e-006 
5.524186190394978e-005 
-2.218232196370229e-005 
-1.885950601450792e-005 
-3.759019033269112e-006 
5.818443699603352e-005 
-1.152446900047559e-005 
1.363674132054479e-005 
8.322366220003672e-005 
-6.12774345177189e-005 
6.095241034733951e-005 
-5.639617943617095e-006 
2.387195121693001e-005 
4.02013500462555e-005 
-2.078976835861033e-006 
4.583134896390855e-005 
9.728924667604782e-006 
-6.911678834961943e-005 
2.219226098870506e-005 
0.0001185025215115625 
-6.182375000468162e-006 
-1.59391650925016e-005 
6.29223114240868e-005 
7.169130762868275e-006 
7.073409171191411e-005 
1.972093620985279e-005 
0.0001173074010486372 
3.4643205833379e-005 
-4.558116016019628e-005 
-2.950958942932221e-005 
2.152082474053455e-005 
6.27837320069642e-005 
7.289928399275589e-005 
0.0001180874413468095 
-4.633346840710627e-006 
-9.66529527834005e-005 
-1.292355024664247e-005 
-2.526654855569384e-005 
-4.033446236035149e-005 
1.344711949769296e-005 
-3.491775185574666e-005 
-2.780713094415885e-005 
1.189193945398185e-005 
6.512722472033213e-006 
1.961629547908585e-005 
-3.873234990915886e-005 
1.740518859678816e-005 
1.178305791473246e-005 
-1.376321725335252e-005 
-2.640484569111385e-005 
-4.692216246536806e-005 
-2.912200622375418e-005 
-3.364387420849644e-005 
4.056263136647791e-005 
-3.607202374720096e-005 
4.773876941656918e-005 
8.197122729469833e-005 
1.953225296609489e-005 
-9.300512429728796e-006 
-1.249443354315939e-005 
-1.77665911930956e-005 
-2.796790540113448e-006 
4.630348742481472e-006 
4.00948243990739e-005 
-1.192248692579615e-005 
-3.189517057579966e-005 
-1.084259079163562e-006 
1.558499612660909e-005 
1.443170877044048e-005 
-6.182135727823144e-005 
3.631752955819787e-005 
6.163142239172635e-006 
1.664588192659448e-005 
-4.562108210383052e-005 
2.082531130944719e-005 
8.186744953018732e-006 
-1.830471708714086e-005 
-2.216192786193348e-005 
2.459486330653503e-005 
4.105985255217379e-005 
4.785731755942509e-005 
1.753377021465359e-005 
1.629782640506759e-005 
-7.307507297130574e-005 
-2.018119979596088e-005 
7.204668343780076e-005 
3.815798649985645e-005 
-8.9066177198909e-006 
0.0002167119903155558 
-5.309526657190519e-005 
5.610986617617621e-005 
1.104222098774759e-005 
-7.798171192609199e-006 
-5.310191166829213e-005 
-5.943924607067698e-007 
4.415976782953625e-005 
6.233463174283845e-006 
5.183004179663711e-005 
2.611451067404087e-005 
-0.0001552889029575123 
1.922145926085254e-005 
1.164969967253774e-005 
-2.354404673512257e-005 
2.031641012722806e-005 
-0.0003318810908387392 
4.159486979242116e-006 
5.849298204535108e-005 
-3.90142839901412e-005 
-1.360680605768909e-005 
4.629338543184598e-005 
3.760472156425249e-005 
-7.6769807685942e-006 
1.189907681423636e-006 
0.0001216830255463734 
-5.495074737283015e-006 
-5.591441702081e-005 
2.099715970390184e-005 
-2.340623701733874e-005 
-3.509274915172241e-005 
4.530304334799102e-005 
6.920456973702044e-005 
-2.538529955199684e-005 
-0.0001099071970132823 
-7.122368001925778e-006 
-3.309697681461471e-005 
2.875575133547043e-005 
-1.074347295281419e-006 
3.240290409558819e-006 
2.355992886540309e-005 
6.799273016636678e-006 
4.297683775187458e-005 
7.413437390361771e-005 
1.932995729910171e-006 
-1.359450444627838e-006 
1.945005997441298e-005 
3.207077006524974e-005 
-6.900310417853496e-005 
4.066425224059954e-006 
-3.297390413468914e-006 
1.946804847474113e-005 
5.71854510138304e-005 
9.811959759584359e-005 
7.206487959294674e-005 
3.67972636063901e-005 
4.363224807602612e-005 
0.0001012070702124228 
-2.414199816752707e-005 
9.852850427127243e-005 
-5.657690860950415e-005 
-3.119917883683611e-005 
3.521850861765404e-005 
9.07551436556686e-006 
0.0001146700285752583 
5.417654027797776e-005 
2.953834359118609e-005 
-1.41225493763842e-006 
5.119881870315231e-005 
-4.292680584083933e-005 
-3.22544586864337e-005 
-3.571891827412856e-005 
4.028058627467463e-005 
-0.0002234457596909135 
6.459859930771836e-005 
-0.0001208458470303268 
2.543475446193766e-005 
4.010712794545028e-005 
5.446916554997183e-005 
-1.480227390813094e-005 
-7.181379435446602e-005 
-2.470892893832116e-005 
-7.134900379093478e-005 
2.321179419910996e-005 
-5.606371263730235e-005 
-5.67800300983846e-005 
-5.066691692740343e-005 
-5.156667544996927e-005 
5.745001846183131e-005 
-0.0001047970348796268 
1.348829964719274e-005 
5.104677177298676e-005 
-1.042804818517563e-005 
-2.697746192859316e-006 
-3.461144426850761e-005 
1.902925433736691e-005 
-0.0001100982347860418 
7.578930056904305e-006 
-2.193095266354506e-005 
3.436643560875133e-005 
-0.0001180306149742569 
-5.914757745295821e-005 
2.148443964105896e-006 
-1.586293528301354e-005 
3.763844123944106e-005 
-2.748769839596615e-005 
2.406658045555675e-005 
-3.06809927875114e-005 
-4.00106806894329e-005 
-5.626977571567885e-005 
-3.109722722349681e-005 
-1.696577035371983e-005 
-5.225014189033855e-005 
6.416472330258622e-005 
3.253867997673009e-005 
-4.178624739765766e-005 
-1.819400454017439e-005 
-3.640360431092256e-005 
-6.393304718062213e-005 
2.639852824900678e-005 
4.255382240158877e-005 
0.0001903809756033476 
-8.964203677985421e-005 
3.171487504248671e-005 
-6.44159096247016e-006 
4.031539243500758e-005 
7.694590810480292e-005 
6.26149812494185e-006 
-0.0001165843689064978 
-1.582662701717026e-007 
-1.382465832203599e-005 
-2.438763440060325e-005 
4.744832508077699e-005 
-0.0001583256793606866 
5.656801139074474e-005 
-6.344133097153201e-005 
-0.0001067854628871224 
6.438497993183689e-005 
8.06907643829958e-005 
-6.958534417868999e-005 
-1.590790526724148e-005 
1.117516751532129e-005 
-7.182041531023581e-006 
3.896099054027675e-006 
-4.405541642488584e-005 
2.807962925165189e-005 
-1.109374003931366e-005 
7.271230720476715e-005 
2.543873656041615e-005 
-3.280271228310809e-006 
-4.424297071177176e-005 
-1.488270369636723e-005 
-3.598622250773456e-005 
-6.558062134245208e-005 
-2.950493681476384e-005 
-0.0001857708561416088 
2.725289850834437e-005 
6.008935311860245e-005 
2.562394049090592e-005 
1.391631728298073e-005 
1.329046928350343e-006 
-1.266174884443995e-005 
3.120572300117254e-005 
-3.209484060282907e-006 
5.697474538907861e-005 
4.407393194097405e-005 
-4.85971732607727e-005 
-2.307579556488712e-005 
2.123223814900024e-005 
-7.026688309858395e-005 
5.518313277122945e-005 
-2.713841686424141e-005 
1.840148777610781e-005 
4.845495583297003e-005 
3.215399986903575e-005 
-1.355439534666092e-005 
-4.837123363656546e-005 
1.713340443230617e-005 
0.0001457189809892098 
-5.286429800348047e-005 
2.234417247790325e-005 
-3.743417597774397e-005 
4.034308368267779e-005 
-7.053408311281463e-005 
-5.332228847207024e-006 
-0.0001542445879577314 
-2.970878256683095e-005 
-9.118748377173047e-005 
-2.320291555492936e-005 
-9.774213532614913e-005 
-2.903965927068914e-005 
-3.838414118567712e-006 
9.897306465016423e-005 
2.320388618080828e-005 
1.54702633757333e-006 
-7.795035689713952e-006 
0.0001157845067586396 
4.752044496697725e-005 
-4.76047447356102e-005 
-2.652864251477837e-005 
-4.976088359541022e-005 
-5.148503307864424e-005 
-3.750360244791034e-006 
3.891471721454683e-005 
-2.283900981783262e-005 
9.696843436134652e-008 
1.443994298710069e-006 
-3.548958367032951e-005 
-4.904968876370077e-005 
-1.589674376880145e-005 
-1.051245803446601e-005 
1.627538616715738e-005 
5.163935291473234e-006 
-1.196943613727552e-005 
-5.21271647166143e-005 
-3.544318884100295e-005 
5.252862711130939e-005 
2.895918895823464e-005 
-8.949289716863851e-005 
-4.100347313502321e-005 
1.6889183978873e-005 
-5.261805462491709e-005 
3.429356336186868e-005 
3.410904763655811e-005 
-6.234019446810868e-005 
6.252615393467648e-005 
-5.601705550486991e-005 
-1.609832678002836e-005 
-8.060388407901331e-005 
4.131379153214224e-005 
0.0001161123950335548 
7.091361815585359e-005 
2.683106811577361e-005 
4.124454832918944e-005 
9.444284081290577e-006 
-7.157843878883179e-005 
-9.340218933582628e-006 
-5.978290012163187e-006 
-1.11319007191394e-005 
-3.268196810606906e-005 
8.824807860892632e-005 
3.365650308704975e-005 
4.546958356334861e-005 
-4.246257908005004e-005 
-3.795105190689621e-005 
8.236541434066227e-005 
-1.230642409673016e-005 
2.994644834499031e-005 
6.566592081682419e-005 
0.0001570749278564991 
1.217501278100052e-005 
-2.367334942647421e-005 
-3.793547534424358e-005 
-4.220462762352787e-005 
1.981046455924326e-005 
4.360819473457528e-006 
1.182695349459357e-005 
-1.978040829833491e-005 
0.0001133949371123177 
3.826112505169487e-005 
3.140404360197191e-005 
-3.652194807058165e-005 
-1.232230993115891e-005 
-6.813802190812094e-006 
1.933674226056054e-005 
8.270787331674109e-005 
6.215236937386221e-005 
-8.711223889522493e-006 
-9.54672963290494e-006 
6.649958703065786e-006 
-5.381168044716731e-005 
3.932074638835249e-005 
-3.386012534264276e-005 
1.969062706375036e-005 
-9.768270582979282e-005 
-3.956802075281843e-005 
-3.113783340888452e-005 
4.665932344933677e-005 
2.52771994740926e-005 
-1.135233660118632e-005 
-1.538649474829748e-005 
-8.081414398417646e-005 
1.158337171418176e-005 
0.0001245073612810287 
-1.031827638410303e-005 
2.38683216349687e-005 
-3.544101851308573e-005 
1.985606653811625e-005 
-4.926047625143097e-006 
9.417130845970584e-006 
-0.0002245998001880323 
-0.0001075073347027994 
1.705799291619946e-005 
7.231148224358193e-006 
4.9304641084447e-005 
-5.450121771805661e-006 
-7.566914565369376e-005 
0.0001011736299315649 
-6.99421718882436e-006 
-4.029255376217446e-005 
-2.672116111116509e-005 
-2.032290920199174e-005 
-8.855985930450256e-005 
-2.36219609155461e-006 
-3.935858392224557e-005 
-3.166650084167944e-005 
-3.214666238824565e-005 
3.65857249756527e-005 
-1.812263753593992e-005 
9.145964777869603e-005 
4.940565163224077e-005 
-1.005786363905425e-005 
-3.223130913191863e-005 
0.0001660902002343429 
4.316429305274418e-005 
5.87826053784987e-005 
-3.000027819718759e-005 
-4.883285270586201e-005 
-3.083744627294068e-005 
-3.087603552923816e-005 
6.628133931778085e-005 
1.627722631217231e-005 
0.0001009292307112694 
-2.167577194216933e-006 
-1.355426030892289e-005 
-4.242287539708197e-005 
-2.610363827858681e-005 
-4.589569962216636e-005 
-5.016276911474852e-005 
-1.473229084789426e-005 
-6.912221798780855e-006 
5.76679332369975e-005 
-5.500343680543614e-006 
1.935806770737655e-005 
-1.271203752101652e-005 
5.951261157258267e-006 
-5.119794693384821e-005 
1.900554467870358e-005 
-0.0001437167458459529 
-5.834206293739178e-005 
-4.507498974731711e-005 
6.866126434128007e-005 
-1.992336279165438e-005 
3.575662151004777e-006 
-4.759558367159434e-005 
4.640883625644742e-006 
2.048677548727883e-005 
-0.0001007726659598314 
-1.564089021503546e-005 
-3.265050729534067e-006 
-9.017104521357288e-005 
-7.58449560194608e-006 
-2.003282199460524e-005 
1.537581313818681e-005 
4.19499153646519e-006 
-3.526454347579607e-005 
-3.019760088671018e-005 
-7.046832037206465e-006 
-4.091146248228266e-005 
2.663970301619105e-005 
1.367278224122675e-005 
-4.051334356780287e-005 
-1.238993070486194e-005 
5.195614728656272e-005 
3.081101361664287e-006 
3.025530309242544e-005 
-1.480912150529904e-006 
4.694227878321765e-005 
1.40465835524779e-005 
6.539955587077742e-006 
0.0001725488380890726 
1.987083399878171e-006 
1.722856171940344e-005 
1.09698514158447e-005 
1.114101889508189e-005 
0.0001107826753336111 
0.0001050213557207885 
0.0001747141256704788 
-9.751309297074413e-005 
-1.367379581981929e-005 
1.190562863682105e-005 
1.429477105422965e-005 
5.144545019025932e-005 
3.756488459852476e-006 
9.895005165329851e-005 
-3.967510987714943e-005 
6.76827326824434e-006 
1.140825802567317e-005 
1.47743764993507e-005 
2.735150675196576e-005 
-8.198163111272436e-005 
-2.202588488557773e-006 
-3.113791398907121e-005 
3.347991342547782e-005 
-0.0001054526966248072 
-0.0001507417917797245 
4.911470902163964e-006 
8.857859641591338e-006 
-5.660917998239156e-005 
4.314869019889753e-005 
-0.0002109304863784323 
3.321281164623691e-005 
2.147865848637476e-005 
-8.709491320166796e-005 
-2.563992759635533e-005 
-0.0001951631914931149 
1.899181867535942e-005 
1.086729514261242e-005 
-6.069902177132018e-005 
0.0001414343427653668 
2.47821760752514e-005 
-0.0001015099531424688 
1.005757612001146e-005 
-2.758963443388703e-005 
2.017380154836144e-005 
-1.839999506646057e-005 
-8.425079089241723e-005 
6.540426429613387e-005 
3.586429730942558e-005 
-4.600348086279289e-005 
1.224097820649667e-005 
5.264069391831741e-005 
7.276563681559247e-005 
-2.866672472991101e-005 
-2.975104503752235e-005 
8.21116201586264e-006 
-8.424756749058281e-005 
-3.450452130377075e-005 
-1.462776240680684e-005 
-3.699242142496417e-006 
-3.005889799031172e-005 
1.06227371981843e-005 
4.441352195002863e-005 
2.441714423642899e-005 
-1.190440687484084e-005 
-0.0001157901200191668 
-3.591071619727655e-005 
5.715019845386042e-005 
-2.217180562459199e-005 
7.0188736252086e-005 
7.390371133016216e-005 
-1.353978226611986e-005 
4.378743829412038e-005 
-6.242143407117909e-006 
2.677849789301751e-006 
8.827201553600604e-006 
5.474060071117091e-005 
9.867768245139219e-006 
7.391993970242897e-005 
3.780146622466287e-005 
-7.393047960188134e-005 
-1.533019229885974e-005 
7.341093787135327e-005 
-1.825167153646026e-005 
-0.0001284296286855318 
8.750710184125789e-006 
1.495478418372463e-005 
2.296038640809806e-005 
1.598314155957059e-005 
0.0001290816804866882 
1.023240476751218e-005 
5.192468964405318e-005 
-2.210573750906347e-005 
-1.6031992697489e-005 
-5.333569862233633e-005 
-4.356237399561176e-005 
8.339310109120755e-006 
-8.305513983001208e-005 
-1.934178011488934e-005 
0.0001281705689428393 
5.742317256774806e-005 
8.883969256624596e-005 
-8.865850915207757e-005 
-0.0001148596002435364 
2.348354078576495e-005 
1.500955061533051e-005 
-1.937183708073672e-005 
-2.503540290527957e-005 
6.27488281135862e-005 
-3.777682947485037e-006 
-2.704288174133278e-005 
-6.1681974844478e-006 
-4.046295921088049e-005 
1.207013717768198e-005 
1.708417135669502e-005 
-2.349415731208149e-005 
0.0001384465809549908 
-4.502650452013564e-005 
-3.864245848906978e-005 
2.156598277415345e-005 
1.033070372933469e-005 
-1.399988525106408e-005 
4.439257627294355e-007 
2.559654526696556e-005 
-2.551848215409031e-005 
3.769779199559194e-006 
6.95997122344281e-005 
-4.0471130795752e-005 
-0.0001447936572961008 
-7.956122414075265e-007 
7.372381354987451e-006 
-8.472788037533024e-005 
-0.0001416649271838491 
5.044109672982269e-005 
-1.074889004791589e-005 
1.86563570444235e-005 
3.279653368037453e-005 
8.90693646586048e-005 
1.207066769811742e-005 
3.036870532470255e-005 
-2.975750196063685e-005 
1.665272799789788e-005 
-0.0001274218110783686 
4.137287771504162e-006 
-6.778729676846285e-005 
2.649912931254603e-006 
-2.258291161255096e-005 
-0.0002169966837827499 
-7.561428795044142e-005 
-5.741229248352499e-005 
4.768296325641311e-005 
1.094807768461133e-006 
-4.567422512806084e-005 
-6.024471978736781e-006 
4.479405596102571e-005 
-5.350540522408345e-005 
-2.175008696925458e-005 
-1.550869781048711e-005 
-5.260266594181369e-005 
3.468225772627086e-005 
3.865981779354199e-005 
3.0409792566869e-005 
-4.469337928123026e-005 
6.853715624561516e-005 
-0.0001209429798982827 
-5.782470454224228e-005 
-9.091559121322119e-005 
4.28816420851757e-005 
-2.319299796564037e-005 
-4.915667842889157e-005 
3.386046755592702e-005 
1.245337826810897e-005 
7.026276855596488e-005 
-9.832912616931765e-006 
6.064292467993622e-005 
-1.874468020459372e-005 
3.52898713888939e-005 
-2.157332797170668e-005 
-2.474065450789244e-005 
-4.59617928942262e-005 
-0.0002003759500282253 
4.113311637569638e-006 
-6.582986522483702e-005 
-1.985731705439876e-005 
-2.410567914723264e-005 
6.813730237648515e-005 
-1.695550890357762e-005 
-2.272273809340385e-005 
-6.169747122357381e-005 
4.824799261288153e-006 
-8.396174859386011e-005 
-2.048901440681363e-005 
4.619422243920962e-005 
-7.018562602440029e-005 
9.296161724126978e-006 
-0.0001422090674813953 
8.885961341311121e-006 
-1.075354489773953e-005 
1.143953334758182e-005 
-1.923210474235558e-005 
-9.5263808532524e-006 
-2.604988568852738e-005 
-2.706309665946179e-005 
-1.853175800786721e-005 
3.321390563209691e-005 
9.081117054969999e-006 
0.000103399184431901 
-2.65640895284507e-005 
9.226883214661268e-006 
6.06767132783135e-006 
-3.440504065796971e-006 
-0.0001014879401203444 
1.332186977465998e-005 
1.94116458143752e-005 
-4.457265637035084e-006 
-9.124910902435421e-005 
-1.695735112848147e-005 
-0.0001948441207862817 
1.359118580249911e-005 
6.5511276010555e-006 
-4.71675152945072e-006 
-3.289263223484433e-006 
-1.735413394936222e-005 
-1.405839891545779e-005 
2.928830806468651e-005 
5.430303159289301e-005 
2.842855733715106e-005 
0.0001171156182360725 
-4.817638908973429e-005 
-2.484809848989853e-005 
5.093401145483966e-005 
3.112674806206722e-005 
2.15687560373919e-005 
-5.537072251191353e-005 
-8.366527517054232e-008 
-1.722194286809227e-005 
-5.080681039927862e-005 
-3.451641893911776e-005 
-0.0001985928250195632 
1.808973000555717e-005 
-2.946586857259091e-005 
-2.606995729139978e-006 
-1.401115291560501e-005 
6.754266987206203e-005 
8.748246658363871e-006 
6.275073374939396e-005 
-9.594177848904606e-006 
0.0001272346783468409 
-2.680977243297046e-005 
-0.000184610170129798 
-6.377741680886705e-005 
-6.830779621678202e-005 
-2.13373863179536e-005 
-4.387219116072252e-005 
-1.647881921850072e-005 
8.415314137733955e-006 
-7.931936027957567e-006 
5.350500355513138e-005 
-8.983201096463397e-006 
-7.694620885553471e-005 
-2.815764025338941e-005 
4.413132374278464e-005 
8.125244164450519e-005 
0.0002338065696193855 
-8.543263071742011e-005 
-2.964175728197446e-005 
1.462581042378086e-005 
1.513538772160686e-005 
-1.165031118991698e-005 
3.884244386216249e-006 
-1.467956085471423e-005 
-8.500466378224602e-005 
-2.686455549040506e-005 
-6.96240040442867e-005 
-3.031451312251227e-005 
-0.0001147743393174852 
2.268179561473327e-005 
-1.873327754998655e-006 
2.287012869327485e-005 
8.115333413012635e-005 
3.363814572376267e-005 
-7.581942646817128e-005 
-3.106350174474272e-005 
-5.042712039348516e-005 
7.717502146706916e-005 
-1.787982550099973e-005 
2.183843908861718e-005 
1.651718018785577e-005 
-0.0001145145134255704 
4.167141595647688e-005 
-4.955796818903785e-005 
9.192740157212386e-005 
6.722115475142715e-005 
-8.513416648046711e-005 
-3.014827583247126e-005 
-2.562239065492606e-005 
1.07370442607633e-005 
1.670150176708049e-005 
2.164856481117021e-005 
-5.519557819407064e-005 
-4.036906473351798e-005 
1.610006266705077e-005 
-7.42590603376488e-005 
-2.385745220436274e-005 
-7.819989410956876e-005 
-4.799650283092923e-005 
-1.013053391059224e-005 
4.168873372539144e-005 
5.748902394187343e-005 
-4.389203966458143e-005 
4.207472455132956e-005 
-4.746059204309403e-005 
-8.944373177152927e-005 
-2.041078687594626e-005 
1.932671705890151e-005 
1.76248153133076e-005 
-3.299407534730898e-006 
5.010200190435272e-006 
5.477142119027777e-005 
9.238248921697811e-006 
-1.106702455394608e-005 
-3.625785238321767e-005 
-1.218101343356058e-005 
5.728611034397859e-005 
-4.795246229435807e-005 
2.48407818813268e-005 
-0.0001293972474730444 
-5.857140200262384e-005 
6.736988261393109e-005 
-2.178538306978892e-005 
2.943415910846567e-005 
1.219681789114911e-005 
-1.268775458411944e-005 
-5.032393023511023e-005 
0.000103351011846548 
1.15371586178689e-005 
8.302955023860061e-005 
3.627910886335505e-005 
7.196444591796193e-005 
-7.117723681025302e-005 
3.203418445142568e-005 
-4.991344122677955e-005 
7.592789799236717e-005 
2.521077652195312e-005 
-5.601735184840801e-005 
-9.344190257618082e-005 
-3.690870638350734e-005 
5.146097344513033e-005 
-1.142533442459543e-005 
2.976971860857758e-005 
7.438792249584665e-006 
-1.408773478713229e-006 
-4.563954244413683e-005 
-9.244804256500239e-006 
4.151717177065582e-005 
1.884547599482232e-005 
-6.637964099930399e-005 
-2.158275161001886e-005 
-1.795880097419258e-005 
3.909053242387018e-005 
-3.721209675770184e-005 
-4.633507475436549e-005 
4.108165011695811e-006 
1.12599024593805e-005 
1.837583347885986e-005 
-1.003417655518705e-005 
-6.793740185501699e-005 
-1.291873747484244e-005 
-2.219551857831651e-006 
-7.538446542216249e-005 
3.693564366469287e-005 
-5.438164693545445e-005 
1.092724102559612e-005 
0.0001031990029148818 
2.436683491454103e-005 
-0.0001006382213856115 
-8.988718211967766e-006 
-4.542891623628803e-005 
-4.232417725264477e-006 
3.860057614298723e-006 
1.804031991121226e-005 
1.373633531594034e-005 
-2.719848369415473e-006 
5.582965260428693e-006 
-4.482698074347526e-005 
-2.242818760417396e-005 
1.893270959763573e-005 
5.706596921074004e-005 
-2.576164554958933e-005 
-8.188758029517366e-006 
1.672396903364138e-005 
2.296774726282618e-005 
1.601920861638133e-005 
2.256547003212535e-005 
-1.269773888990493e-005 
2.041664120560905e-005 
5.09735199240435e-005 
-1.286709760368615e-005 
-7.624235674930549e-005 
3.626004811196255e-005 
5.291164648956929e-005 
-5.288331472287804e-006 
0.0001184904187098634 
2.941608568123341e-006 
-0.0001135036475806208 
-2.148395241621728e-005 
1.293834670675358e-005 
-0.0001051308965795504 
6.360589980018338e-005 
5.524457672335124e-006 
-1.571325582886559e-005 
4.50765776675808e-005 
3.008792989671202e-005 
1.488372104144171e-006 
7.815311567075569e-006 
3.912831496209731e-005 
-1.904555146473906e-006 
-1.691471662448446e-006 
4.295338653298903e-005 
-5.078212079652528e-005 
8.636631093996051e-005 
-2.131852360266268e-005 
4.100426015012474e-005 
-0.0001110201206806386 
-6.419388671720988e-006 
1.39405134042004e-005 
-1.218872285489526e-005 
-4.795437992988358e-005 
8.826816868361603e-006 
2.057825431312326e-005 
5.883123960773482e-005 
-2.315022424035243e-006 
-6.064648509879875e-005 
-2.379945420109113e-005 
5.264106431090043e-005 
8.895360371415174e-006 
4.171241656700896e-005 
6.176823151756568e-005 
-0.000116023972768064 
-2.912055593200504e-005 
2.059510173574847e-005 
9.226733384591299e-007 
-1.226977513966848e-005 
2.222312148779943e-005 
4.517021028864326e-005 
5.957673751447661e-006 
4.257151547414423e-005 
2.140717136362339e-005 
-7.939867480055246e-005 
5.140366438779427e-005 
-2.826829958558265e-005 
7.052720133275026e-005 
-0.000243467957745606 
3.143041136240213e-005 
8.613392043577486e-008 
-9.358553832376711e-006 
1.42173494387683e-005 
-4.648777391422684e-005 
-2.000626605910754e-005 
-2.353744215549485e-005 
3.461885061470638e-005 
-3.656464258210407e-006 
2.272834959096266e-005 
-2.843991379813996e-005 
7.149806651792515e-005 
-2.190097200275775e-005 
7.696006384231875e-006 
-0.0001428070195700062 
-0.0001010628273366998 
-4.927240834626647e-006 
1.199386316844119e-005 
-0.0001854649482683862 
-2.346511395953141e-005 
-2.601198101533558e-005 
1.25141377582115e-005 
-3.908531170349643e-005 
-5.017865991752134e-005 
2.069829451560348e-005 
-4.824626337175098e-005 
-3.539372498909945e-005 
-0.0001279226253358375 
-7.196888539759819e-005 
2.16007549094943e-006 
-3.22423501868941e-005 
-7.187978160457938e-005 
-3.808604807863403e-005 
-1.111059554475453e-005 
-0.000165725471058143 
2.064790937120656e-005 
4.460570657124425e-005 
-2.315316884480238e-005 
4.856627057451533e-006 
-7.577840439594528e-005 
3.037544274484382e-005 
-2.229687084634727e-005 
-2.882384162299084e-005 
-0.0001213732844319524 
-2.19741240425262e-005 
1.823860994742616e-005 
3.966360287257326e-005 
0.0001625586594839531 
2.829319881325726e-005 
-6.193176384519647e-005 
7.472698235716204e-005 
1.950365007034691e-005 
5.185807388667149e-005 
1.417998977413939e-005 
4.583667940263422e-005 
-2.332286482116009e-005 
7.124407417368692e-006 
-2.879571320424878e-005 
7.961861552171667e-005 
-6.601748880566685e-006 
3.38774137908698e-005 
4.22636934664326e-006 
0.0001257251835672369 
-4.594466177544476e-005 
7.425761635168348e-005 
1.968752760087825e-005 
0.0001005614950058233 
-8.372203862392426e-005 
-6.777782874880482e-005 
-3.852721536502874e-005 
-3.202080845355646e-006 
4.307172448585803e-005 
-5.636848104308799e-005 
4.906411905526946e-005 
-1.307102902750051e-005 
-0.0003287948920636343 
-5.683120796382726e-005 
-3.132810935201626e-005 
6.542113548475985e-005 
0.0001038331439017918 
4.124062192893833e-005 
3.040379072005137e-005 
-7.996025919639943e-006 
-9.262516411383292e-005 
-0.0001129910856435534 
-2.450571646442306e-005 
-1.376256952634352e-005 
9.364721263235731e-005 
1.602785720059097e-005 
-3.930858806209667e-005 
1.073335099275631e-005 
-8.143391953272667e-006 
-5.2701305767022e-005 
2.092590632625103e-005 
-5.519515030519825e-005 
6.269181963407131e-006 
9.540699450132493e-005 
7.86117457274579e-005 
5.294081590726117e-005 
-8.499093499455924e-006 
1.018161520362763e-005 
-1.89251320821364e-005 
-0.0001070067547852641 
-4.60376106502689e-005 
1.181122701649861e-006 
1.831126750301094e-005 
3.228967488773857e-005 
-3.878038634381104e-005 
1.576552366037549e-005 
-4.585133779183379e-006 
-9.266304052660223e-005 
-4.401800904429712e-007 
1.463996989154969e-005 
5.945751236478164e-007 
1.696864549951738e-005 
-7.046529410878467e-006 
3.200586675642416e-005 
-7.11993783334658e-005 
3.058088251753973e-005 
-3.825884630276581e-005 
1.360011364639736e-006 
-3.701808286513032e-005 
7.157823654069176e-006 
-1.981357655915731e-005 
-6.408763983140686e-005 
5.110162821778522e-005 
0.0001483386577258028 
-6.400745653001604e-006 
-5.267853453288625e-006 
2.651565372345365e-005 
-3.32169462730145e-005 
-3.158070057048682e-006 
1.436764581717152e-005 
-4.224381326694789e-008 
-9.257239537862727e-006 
-0.0001092348001514678 
2.823801111074179e-005 
-0.0001027748509712438 
-4.834547978372166e-005 
-6.566084285019099e-005 
6.842719740830659e-005 
-1.33455906539293e-005 
6.782268575220155e-005 
0.0001318649949357884 
0.0001109417362022029 
-7.978424466487623e-005 
3.855476173861904e-005 
-2.485824205004004e-005 
-8.630909658118297e-005 
3.626659805677544e-005 
2.35685416083353e-005 
-0.0001144420309825156 
1.831269620974021e-005 
8.25814406195013e-005 
-6.028132339192861e-005 
-2.53103296499581e-005 
-1.438533614096775e-005 
-9.392847855441246e-005 
6.915723355702964e-005 
0.000100270151878159 
6.587246090507639e-005 
-1.258815551964705e-005 
-1.610153746389619e-005 
-4.630567805977024e-006 
3.071357152758398e-005 
7.088200228835338e-005 
1.84860993230929e-005 
-0.0001240404221680048 
-1.466888623247153e-005 
-0.000179860352450582 
-3.463897221500423e-005 
-2.764806764570345e-005 
7.020196242990709e-005 
-0.0001003668614022295 
3.706156862898991e-006 
-0.0002253203176512596 
-0.0002438853487377987 
-2.269299606423263e-005 
-6.96475707865907e-005 
-6.427552536013802e-005 
-7.275306522487478e-005 
-4.938946417166777e-005 
-0.0001915915120101813 
0.000113476075826159 
-7.148275883217011e-005 
5.396442341545175e-005 
2.904080030267671e-005 
-3.160821579146762e-005 
-3.203191668892317e-005 
4.081741013167669e-005 
1.934254496150803e-005 
-3.487856589811832e-005 
7.232484351801319e-005 
-1.395764287716453e-005 
4.325325034119119e-005 
-1.267625846371701e-005 
-6.584353053325714e-005 
-4.093844157304316e-005 
8.028255401523633e-005 
1.851628607268478e-005 
5.303837589958163e-007 
-3.035832688113806e-005 
-2.108101254195469e-005 
-1.069177685381814e-005 
-4.453201981614344e-005 
-2.895862883867562e-005 
8.884868124945422e-005 
-0.0004864664025001284 
-0.0001696040995542765 
-8.877660978781997e-006 
8.355890034537436e-006 
8.668377805552972e-006 
3.977574449036861e-005 
-4.065030276734393e-005 
-1.275039893489198e-006 
-4.331309750139271e-005 
1.374460453789383e-005 
-9.836575284625566e-005 
-3.671824354384911e-005 
-1.334625161528614e-005 
7.069500587456098e-005 
-5.344169239616922e-005 
-0.0003820033440911687 
-1.583952080035353e-005 
-0.0001526524389555578 
4.450723305335676e-005 
5.569551389664926e-005 
-1.893905175844738e-005 
-4.240692592585066e-006 
2.552316818885971e-006 
-6.357071508882347e-005 
4.397973343900944e-005 
-6.430285205434358e-005 
-6.389880140848779e-005 
5.860745202502059e-006 
-1.587274474403967e-005 
-8.457183193482631e-006 
8.125861295064703e-005 
-3.643353937639271e-005 
-5.790956992479473e-005 
-4.264741745863383e-005 
-3.382117942451852e-005 
-1.121981793248048e-005 
2.614990717142157e-005 
3.415287669172799e-005 
-4.809590792502541e-007 
-9.686855314307187e-006 
-0.0001190146894979161 
2.533748929182917e-005 
-0.00010250113109927 
2.131972333651684e-006 
-2.685217689976146e-005 
6.816579790931858e-007 
-6.182330136669657e-005 
-2.092497776001628e-005 
-0.0001186743613197492 
-4.960466732840632e-006 
-3.350305776851702e-005 
-3.008436606882137e-005 
-1.339267034848096e-005 
0.0001460727246085386 
-1.668992124682395e-005 
-7.332989448938651e-005 
-8.098866352039576e-005 
-1.051059921388596e-005 
-8.755903082691686e-005 
-7.267007799852674e-005 
7.921991821016434e-006 
-1.745852353665114e-005 
-7.147650982437626e-005 
-0.0002156394194389567 
0.0001535646009829626 
5.973695706977289e-005 
-3.728266676121372e-005 
-3.197778739748564e-005 
-3.285322388092222e-005 
-0.0001099937595738265 
3.55808838457291e-005 
-5.85765317328971e-005 
3.537282111999402e-005 
1.868543536972666e-005 
0.0001022783998915492 
-3.847345151006781e-005 
7.139228166780662e-005 
2.390376071348043e-005 
1.390645531520396e-005 
0.0001234984102108809 
5.521148144739163e-005 
5.486441290329093e-005 
1.48145909988274e-005 
-2.32958273773757e-005 
-9.466468148493885e-005 
3.507492514596224e-005 
1.785783638686149e-005 
1.592821809234212e-005 
-4.409323318554897e-005 
8.219308723798315e-006 
-8.025468978131313e-005 
1.192056392249895e-005 
-5.170792925319791e-005 
-0.0001584836524206497 
2.85094245257409e-005 
2.068589776096421e-005 
-1.038458154132108e-005 
1.008705626345398e-005 
-6.612166317184151e-005 
6.570458461604193e-006 
-3.094221485074601e-005 
5.56393701982986e-005 
3.922571224308454e-005 
0.0001133883677538233 
3.506673581611592e-005 
2.532751780690489e-005 
5.734522682983792e-005 
-2.100364319252647e-005 
2.773148702854552e-005 
4.144323342800981e-005 
-5.948252477668153e-005 
0.0001268693714834597 
-8.442964358237475e-005 
0.0001051085894240872 
-3.136509674299129e-005 
0.0001467543839692236 
-6.382734299758499e-005 
-0.0001812204640126345 
1.93390425367968e-005 
0.000100532427982607 
0.0001347606888716683 
1.93349397544482e-006 
-6.862155702375601e-005 
0.0001138123793932434 
-3.039400094597412e-005 
-9.091215662979437e-005 
2.301280616726074e-006 
4.351894509919283e-005 
-7.741047143899115e-005 
6.611879462941019e-005 
-5.095740095908569e-005 
6.211912189645923e-005 
-5.350676701439691e-006 
9.552884459067322e-005 
-3.441661569669617e-005 
4.453605765858537e-005 
-5.931521629944695e-005 
-9.718943860728223e-005 
-2.653108368256335e-005 
-8.289019552871053e-005 
-0.0001176525531962404 
4.122815391021628e-005 
5.970232756557325e-005 
-0.0001664234870881126 
3.911890011942316e-005 
-4.1119585619102e-005 
3.868267112268681e-005 
6.798817791146601e-005 
3.828609438978641e-005 
5.403405077838076e-006 
2.71676343606888e-006 
-6.200965914022272e-005 
0.0001366967729905182 
-6.555833087148931e-006 
-2.073872252475907e-005 
5.577341772151795e-005 
-6.313768557663103e-005 
-6.593723864888118e-005 
7.076453512344071e-005 
-0.0003766404214758127 
2.564298173254403e-005 
3.307163612139743e-005 
-1.407116286983061e-005 
-4.493372700850956e-005 
-9.965093886476027e-005 
2.041741066259993e-005 
5.090531792280823e-006 
5.908900000007931e-005 
-1.235962242282152e-005 
-2.547311753223975e-005 
2.01935793442505e-005 
1.017578002822132e-005 
-1.151355481738564e-005 
-1.310087816519508e-005 
-2.155903384055266e-005 
-0.0001465606424330143 
-1.570096866832756e-005 
-1.687432805921359e-005 
-1.892437995796684e-006 
-4.671620764159801e-005 
0.0001045952912344364 
-3.137747404766965e-005 
7.296329874052696e-006 
2.727388782714214e-005 
2.37361344772633e-005 
1.240211296512474e-005 
4.708838823503708e-005 
-7.148016243074256e-005 
1.197072009363314e-005 
-1.358243663950337e-005 
2.027447130345855e-006 
0.0001073106508764237 
-6.881946529036707e-005 
-1.853610166735155e-005 
-3.816489986933485e-005 
-8.695493566276292e-006 
-0.0004529803073859656 
-0.0001605648769042713 
1.739685508106159e-005 
5.46627137010266e-005 
3.867262768291026e-005 
9.033583900258366e-006 
-3.706813642130801e-005 
-1.871875326930215e-005 
-1.584814841320578e-005 
-0.000208152934826507 
3.235323874674305e-005 
-0.0002440005042829337 
8.381883765708338e-005 
-1.218271339474253e-005 
1.886379382538759e-005 
-8.735738859188795e-005 
9.849630460834797e-006 
-2.434787218297667e-005 
1.483719257778498e-005 
-1.489363111003828e-005 
-5.123880324563734e-005 
4.893710541371864e-006 
-1.799099502241793e-005 
-2.091035673566652e-005 
-5.602275074466022e-005 
-1.615787937980202e-005 
-2.567922634850577e-006 
-0.000122206969029958 
-0.0002545357234959358 
-1.795459675330567e-005 
-5.245071983726068e-005 
-0.0001115989294271344 
-0.0001117459077306411 
-1.184073241398818e-005 
1.117893406907844e-005 
5.299695122815984e-006 
-2.148513383625718e-006 
-6.837397172004977e-005 
-2.280445092301288e-005 
-5.634065043149723e-005 
1.823519192347888e-005 
-5.962491183565707e-006 
1.619033606160731e-005 
-6.858503880327417e-005 
-3.367478356557248e-005 
4.071874896720701e-005 
-0.0001049707668134833 
5.23575131240623e-005 
1.884977269426911e-005 
2.022930773054236e-005 
3.277794437225525e-005 
3.319152178758608e-005 
-8.178164740531406e-006 
-2.248612550321544e-006 
-9.213298063306064e-005 
1.456009629936745e-005 
3.229416835042993e-005 
-3.296264526251234e-005 
-2.874648058379066e-005 
-8.927058573824566e-005 
-2.348122728258097e-005 
-2.514613682156879e-005 
-3.570982561690712e-005 
1.843536848570811e-005 
-2.848602716547657e-005 
4.054030547105918e-005 
2.523614748951774e-006 
-1.410457893261227e-005 
2.402572786149159e-005 
4.43618706583798e-006 
2.405150411777269e-005 
-0.0001527528533721052 
-5.765194393906379e-005 
-2.685024219099504e-005 
-1.017331023649769e-005 
-0.0001611173566256901 
-2.360393610935755e-005 
-3.227436166775396e-005 
1.504904438646722e-006 
2.726134115649214e-005 
9.200062951584894e-005 
-1.401632223597631e-005 
5.539637973678926e-006 
-7.505501969062601e-005 
-1.743371179205174e-005 
-3.774716567491451e-005 
-2.76151189112048e-006 
-1.844482963491511e-007 
-0.0001442872447555144 
7.15376727814712e-005 
1.837202361334704e-005 
0.0001307277544311878 
-0.0001712332755679791 
6.834031444244155e-005 
-8.032461904248765e-005 
-5.427929643722229e-005 
-7.11090233188798e-005 
2.387529996852872e-006 
-4.493205738750203e-006 
-2.401868156999062e-005 
-8.906273292234515e-005 
-2.214379190000013e-005 
-1.435364002325497e-005 
-2.532292549710816e-005 
6.647856424904221e-006 
-5.920716107419487e-005 
-9.405557374341145e-006 
-2.504823968291613e-005 
-0.0002153018258056171 
-2.460293792276953e-007 
-3.207606636840375e-006 
3.376887380985824e-005 
7.77263654835249e-005 
-2.312157395466891e-005 
4.447703343983885e-006 
-4.151497569756132e-006 
-4.44733769165435e-005 
7.237721608958503e-006 
-0.000122621744785296 
4.399751568702642e-007 
0.0001473172574209112 
-3.413502262949625e-005 
-1.017412705651087e-005 
-0.0001123420042863126 
9.428778932410692e-006 
-5.983835328173876e-005 
7.678138423293541e-005 
1.21741706945344e-005 
-8.646736788188724e-005 
-8.207665625317466e-005 
4.285776671993481e-005 
2.345273971126811e-005 
2.439068619164346e-005 
-2.443153202847824e-005 
-3.855256898922127e-005 
-3.398143866173754e-005 
9.348835446691014e-005 
-2.968220110803977e-005 
-1.092195639756885e-005 
-3.678649097746152e-005 
-2.531044657876728e-005 
8.810541943037521e-008 
-5.472830059825087e-005 
2.268361542077805e-005 
4.062762105577661e-005 
-6.408811932464333e-005 
2.76651687955389e-006 
1.421968525241079e-005 
1.845786230626472e-005 
2.262851519169615e-005 
4.481654318409134e-005 
-5.942725144436927e-006 
1.96630016665712e-006 
-8.722637756389948e-005 
-2.535578710369607e-005 
-5.511300662885804e-007 
-4.168191503865162e-005 
9.594672035175867e-006 
-1.61090152280546e-005 
-0.0001445933490327061 
2.982597184630983e-005 
-1.374394160018335e-005 
-7.222665513514776e-005 
-3.48687768393491e-005 
-3.210928622272301e-007 
-3.92671455272006e-007 
4.221671189311901e-005 
-3.993587066726604e-005 
2.011895638727825e-005 
-5.640296909924279e-006 
-1.080941689236745e-005 
3.874015548913867e-005 
7.087827599136666e-005 
4.213536212310923e-005 
-5.838105504665892e-005 
2.26815759956286e-005 
-0.0001459455046940614 
-4.481188605978234e-005 
2.668533213139326e-005 
-4.314580891044422e-005 
6.441978959881721e-005 
-2.685011643070687e-005 
-2.35561666930372e-005 
-6.797285667964388e-005 
-1.226019400195495e-005 
-4.191393840242884e-005 
2.331663701026152e-005 
0.0001376847693162349 
-0.0001265532748614388 
-0.0001261189669884814 
1.220593140845213e-005 
-1.13652613736329e-005 
-1.691958081586055e-005 
-7.442917929471292e-005 
-1.178830539484935e-005 
-1.893385854950873e-005 
1.50607157369739e-005 
-3.46470867038605e-005 
3.636359254073344e-005 
1.009688357544542e-005 
3.167869171753945e-006 
1.496462651611453e-005 
4.057478806339577e-005 
-1.515847440625441e-005 
1.327777501168846e-005 
1.083102640218632e-005 
9.898015183316237e-005 
6.723889567667195e-005 
-0.0001840648248238496 
-6.220384264033361e-005 
-6.094992309876855e-005 
-1.103588183815463e-005 
-5.650652815413147e-005 
-3.720929811204466e-005 
-1.626508570501207e-005 
-2.173769499617989e-005 
-5.770742653449027e-005 
-7.744146751281437e-005 
-0.0001088911569649729 
-0.0001492583503199716 
4.503974957668897e-005 
0.0001879754177535162 
-2.239423281569009e-005 
2.013169253582506e-005 
1.386574970313836e-005 
7.162962188805451e-005 
1.189050518232932e-005 
0.0002065028477560085 
-0.000211239434369911 
1.501191521177694e-005 
0.0001219249442776922 
1.992463069024404e-005 
1.633089575684995e-006 
2.686050796830015e-006 
-8.980640150763958e-005 
0.0001072338224887761 
1.528557318956218e-006 
4.867957410646089e-005 
4.360993354916322e-005 
1.036202299391066e-005 
-4.752389134935605e-005 
-0.000133686913447711 
1.665549368054293e-005 
3.186728871033507e-005 
0.0001077001925435007 
9.178366559615839e-006 
-0.000188952524147731 
2.09867935153804e-005 
2.504469957641516e-005 
-1.577952160001011e-005 
1.361915541677151e-005 
-8.303768028980028e-005 
-8.42750628068057e-005 
2.887291448725424e-005 
-5.656417659537253e-006 
-4.891906808743963e-006 
-4.207271395402732e-006 
-0.0003311468600006677 
2.483885078795514e-005 
2.469902858742431e-005 
1.598175046817586e-005 
-1.736340524186598e-005 
0.0001143626256076477 
-7.995636852272927e-005 
4.710722518229281e-008 
9.088997511331925e-007 
0.0001134219789731023 
0.0001344766056627646 
5.349336831629664e-005 
-8.802392537986992e-006 
-2.132119668106431e-005 
5.56960392777996e-005 
1.942489947609301e-005 
5.75632955017795e-005 
1.666042087789414e-005 
1.521618958507967e-005 
5.581638270151081e-005 
1.745709059292416e-005 
-0.0001119079362815618 
-2.863076794736874e-005 
3.539876121475338e-005 
-2.274901187803388e-005 
-0.0001456165528567074 
-0.0002737226148677329 
4.497928435754811e-005 
-4.019027149456578e-005 
-1.359161808802343e-005 
-1.995444649693917e-005 
-7.242995339861338e-006 
-0.0001082971356624178 
-0.0001267785042791715 
-0.0001158182512908306 
-0.0002898919473779431 
-8.015897155931317e-005 
-0.0004023906412534905 
2.241096604319345e-005 
-3.37654551424048e-005 
-3.567737692200229e-005 
-0.0001609310739476989 
-7.700399041304556e-005 
1.669550892008214e-005 
0.0001033687794361161 
4.492085624535108e-005 
1.824491266185612e-005 
0.0001465401545894108 
-0.0002845898705325383 
8.83122646073672e-007 
2.916170954022707e-005 
-3.586831657992473e-006 
-1.317542271756645e-005 
0.0001372857228038914 
5.368172763367939e-005 
5.932142620806424e-006 
2.287839898731218e-005 
-3.573501621742537e-005 
-2.280301899514102e-005 
-0.0001043867343034035 
3.387555528604357e-005 
-1.558878334404942e-005 
2.134476375245229e-005 
-5.831273260907455e-005 
-4.419738210786873e-005 
-1.225334826993541e-006 
-8.646569262685663e-005 
2.919396975201235e-005 
2.630759542791383e-005 
-0.0001201790075312452 
-1.694244398656183e-005 
-2.023458631319271e-005 
3.85495957939815e-007 
-0.0001048103327052827 
-0.0001713963088029854 
-3.046858263386883e-005 
3.612092173547782e-005 
-3.073516209201628e-006 
6.537039437602852e-005 
-2.879010318636273e-005 
-0.0001109089352751472 
-5.77689421467683e-005 
7.155476376452852e-006 
0.000176834988503288 
-1.360826340020627e-005 
8.481678305170565e-005 
-6.77629131125092e-006 
-1.173573154273556e-007 
3.258608692667472e-005 
-1.857200586482318e-005 
3.714897088291197e-005 
7.618711028994391e-005 
-5.711225209036936e-005 
9.086721462297793e-005 
4.165349641090955e-006 
-8.120678933356977e-005 
2.747706471062529e-006 
-8.315310209742627e-005 
4.323876005357038e-005 
6.215688805990135e-005 
7.09122676998244e-006 
-2.292505377423727e-005 
-4.711405985496121e-005 
9.427574980243883e-005 
2.980831246679348e-005 
7.555005532840994e-005 
7.549534537900953e-005 
5.211187404774702e-005 
2.738964046495051e-005 
2.489395994764932e-005 
-5.886998903106686e-007 
1.776270661002853e-005 
0.0001628836495736919 
-3.287327111567489e-005 
3.877157313450454e-005 
-0.0001644078624960587 
-4.295760392836254e-005 
0.0001725671534938595 
3.166749694467399e-006 
-2.200345239616791e-005 
-1.561006556227788e-005 
-0.0002122318479241446 
-0.0001061568607441306 
2.389309461660376e-005 
9.789043887997999e-005 
-1.97043229406412e-005 
3.349731675943986e-005 
-8.401172324772775e-005 
-0.0001032555106408489 
-2.611786203324724e-005 
5.059122997615108e-005 
0.0003150564812309002 
-2.257521804715095e-005 
-7.446995050259548e-005 
3.585650843212473e-005 
9.961860395761933e-005 
4.108181630071991e-005 
9.755742189090141e-005 
-0.0001081632856842456 
-0.0002400300460094182 
4.333829954361118e-005 
2.019453888450785e-005 
2.427041767422192e-006 
-2.775330679006392e-005 
-4.665770915658671e-005 
3.561892204696991e-005 
5.675972313142985e-006 
-9.177738554687786e-005 
1.965073162032103e-005 
-2.528452882357517e-005 
2.465707491430759e-005 
1.398981696060325e-005 
-2.187088492324541e-006 
-6.423274193125686e-005 
-8.561193042463278e-005 
-0.0002032059046234191 
-4.814076974927483e-006 
1.701967934336776e-005 
-4.555073902380322e-005 
5.159978241817188e-005 
3.574861139179561e-005 
6.245088984734709e-005 
8.626587571322993e-005 
4.72893974930894e-005 
1.047605904943346e-005 
4.658002914437619e-005 
-3.470843806944581e-005 
-5.982512388750284e-005 
-2.16057330468768e-005 
4.655081438599158e-005 
4.47214336358786e-005 
7.176043131345987e-005 
3.236565733844604e-005 
1.971464998166437e-005 
2.777349848820953e-005 
-2.263532005544512e-005 
6.566957576880478e-005 
6.073430371533411e-005 
5.017694473800634e-005 
0.0002267711512932007 
4.736743639018054e-005 
-4.9662132110655e-005 
7.215448364367496e-006 
-5.580070778315553e-006 
-4.940563537740159e-005 
4.053330588659983e-005 
0.0001093860235191896 
-5.046063852722572e-005 
-5.12153069252833e-005 
1.119231804996644e-005 
0.0001207877460318876 
-4.00215526250631e-005 
1.380919976450407e-005 
-0.0001163953038115126 
-0.0001320437197984815 
-3.544395004142801e-005 
-1.965519537797301e-005 
2.503815155934953e-005 
9.856369190823454e-005 
-9.965033039647551e-006 
7.798506986021972e-005 
-2.205248827995498e-005 
0.0001305967196902746 
-9.296905151444553e-005 
-3.122421546016834e-005 
-1.211831436860152e-005 
-5.833541272976046e-005 
-0.0001175011298625525 
-4.76598963881042e-005 
1.647864357205693e-005 
-0.0001179032201880133 
-5.308091698207666e-005 
1.208953880345261e-006 
-7.029607861633521e-006 
-3.897123550104314e-005 
-0.0002818259201379396 
-1.361917700684592e-005 
-3.068976342359813e-005 
-0.0001567773288423345 
-9.666418378345324e-005 
2.668243274649084e-005 
-4.163499082851707e-006 
-7.412958915478539e-005 
-4.478750194994212e-005 
2.002703233443775e-006 
-1.361410050225735e-005 
3.107128481232591e-005 
-8.542880680218658e-005 
-5.432980231094436e-005 
3.606868153175142e-006 
-4.685174548634382e-005 
-0.0002145225125427221 
5.917313467734396e-005 
-4.116872328591381e-005 
-6.309762217772999e-005 
-0.0001316157100567568 
-1.679094098518538e-005 
-2.792352094338119e-005 
-0.0001958631488589374 
6.641721911384408e-006 
2.763234529039182e-006 
2.413678700099526e-005 
-3.594346835648868e-005 
-9.144101991821101e-005 
-1.061594222064847e-005 
2.57058620162679e-005 
1.360093238871034e-005 
4.851341732729014e-005 
-3.003257220808409e-005 
-5.696452612704063e-006 
9.500907393009723e-005 
1.293058295402517e-005 
-5.497337873188919e-005 
5.1098507952264e-005 
4.947508862734533e-005 
-5.811067640216566e-005 
3.471245631724719e-005 
-1.266983825731521e-005 
1.830851183913523e-005 
-4.016870264167924e-005 
2.598567787774246e-005 
-5.377678174147302e-005 
5.638669044443964e-005 
6.418908287374769e-005 
3.213944657651787e-006 
1.175566991318438e-005 
-4.993368135374181e-006 
9.926547379323259e-005 
-7.009748646441991e-005 
-4.965187697594528e-005 
-0.0002662077940600314 
-0.0003656402405328408 
-1.866552443984207e-005 
-1.436180272644015e-005 
-2.601425026730601e-005 
-2.417079094507937e-005 
-0.0001269743656149729 
2.768697754638055e-005 
-1.274294556954054e-005 
8.767241369752861e-005 
-0.000135394128702874 
9.167819816944561e-006 
-6.617462057555918e-005 
-0.0001060855625294445 
-1.363139366395754e-005 
-0.0001825182866447275 
1.095573773086315e-005 
-8.636986935187834e-005 
1.462978189871613e-005 
5.972884229875393e-005 
-8.436151599684924e-006 
-2.174407405502507e-005 
-0.0001113672784379908 
-3.521282924641227e-005 
-5.302059909330198e-005 
0.0001349944977124057 
-7.900271786964398e-005 
-2.001006653526782e-005 
8.671209481118804e-005 
-1.669879294043119e-005 
1.158366260318038e-005 
7.856574033193284e-006 
-3.487244337378702e-006 
-0.0001090091255677698 
8.616882433389189e-006 
2.94855832047678e-005 
4.928567819729804e-005 
2.0489661572335e-005 
2.181642413346961e-005 
3.250908442262563e-005 
4.575782611596973e-005 
-9.909064162412743e-005 
-6.173647545163875e-005 
1.317842881308531e-005 
3.098453402289301e-005 
1.67562035428333e-005 
-9.958028942368337e-006 
1.493048323660902e-005 
0.0001375032085564152 
-0.0001239088879633971 
-3.144355325511117e-006 
3.868800656119745e-005 
-2.616639880008255e-006 
1.094918831411162e-005 
3.761478394206942e-005 
-2.245606256755897e-006 
-9.103103206619409e-005 
-0.0001584348761541399 
2.096529605473009e-005 
5.698023026217961e-006 
-6.529764650673512e-005 
-5.278132750580895e-005 
-0.0001317334542460639 
2.545601201806555e-005 
5.405104244165349e-005 
-0.0001291391814509651 
-2.956564007625631e-005 
2.417741160573126e-005 
-1.069165539222171e-005 
-3.171091433572231e-005 
-4.74242074435639e-005 
3.742046500831989e-006 
-1.733824795556627e-005 
2.6692279800042e-005 
-0.0001142058823664049 
5.244115026218709e-005 
1.448475658338454e-005 
6.832661456017091e-005 
2.780461898916226e-005 
-5.234919341061095e-005 
-0.0001672295111293281 
0.0001237120508165956 
2.847947115134726e-005 
4.602973251906037e-005 
1.568578935047404e-005 
-0.0001269020734823382 
2.943668721698771e-005 
4.139831111631694e-005 
7.43948804728856e-006 
-1.323116848616948e-005 
-5.696786357539415e-005 
-2.306459013658733e-006 
-0.0003979439798259332 
0.0001121362172332287 
2.701297961979674e-005 
0.0001818733781814109 
-6.342778795835627e-005 
6.486746567559672e-005 
2.859333556549872e-005 
-1.202775345735578e-005 
-7.098935383061701e-005 
-2.994313880651099e-006 
4.784739757421233e-006 
3.581422013245184e-005 
0.0001586536337573178 
7.394787943075711e-006 
6.173174872808699e-005 
-5.330135435117494e-005 
1.469537613618055e-005 
2.484401161726083e-005 
-1.852342298761216e-006 
-5.713465975653619e-005 
2.732103169201452e-005 
4.742773073351686e-005 
-6.292612748705265e-005 
-3.133603779583479e-005 
4.272274836055061e-006 
-3.134736355388343e-005 
-3.58165833417099e-006 
-8.136787953481523e-005 
-4.008817796102068e-005 
0.0001085551139634646 
3.763723512192964e-005 
-1.776456051575529e-005 
4.70280653030782e-007 
0.0001051075644567165 
1.183751927679699e-005 
4.501798078082391e-005 
-3.59329829908929e-005 
8.101607211735912e-005 
-2.644246187615395e-005 
4.118624780446698e-006 
-2.418444460879043e-005 
4.272165433478431e-005 
-2.726797811015962e-005 
-2.575899446285114e-005 
3.486759279371564e-005 
-8.459516554307325e-005 
4.166368998398093e-005 
1.951374792041623e-005 
0.0001226005489960636 
7.256108495017083e-005 
3.02123841048513e-005 
0.000202242349493286 
-9.254215821776405e-005 
5.729266054162103e-005 
3.925948985126362e-005 
8.78516246006545e-007 
1.668856142354977e-005 
-7.36426256614849e-006 
7.639195199922013e-006 
8.112058401887342e-005 
5.92564259189527e-005 
0.000125783225055574 
-9.047871101861437e-005 
1.007113268608595e-005 
-8.16753641536734e-005 
0.0001001589823403794 
-4.960103266450325e-005 
-2.057536390079545e-005 
-1.374624435262058e-005 
0.0001063297802186885 
7.270882977930494e-008 
-2.981627561987117e-005 
-9.915035905799048e-005 
9.648223894744348e-006 
-1.139747373341202e-005 
1.235460851438502e-005 
2.13035227052198e-006 
-4.802539286236032e-005 
2.118816935931804e-006 
-8.507408595020928e-006 
4.330191444180603e-005 
-6.475101024254347e-005 
-3.115763087249836e-005 
4.800663900016193e-005 
4.933517344815653e-006 
-6.502133554678666e-005 
-0.0001159097428131635 
-2.59430285236919e-006 
-2.818221796727912e-005 
3.657062880554079e-006 
-2.371543014278376e-005 
6.521476399497152e-005 
1.121896399969899e-005 
-3.236562300319222e-005 
-4.030491922145501e-005 
-3.982274208692366e-006 
-8.85326903329178e-005 
-2.725340518356893e-005 
-1.060779081026397e-005 
2.243715088104601e-005 
-2.652611108609462e-005 
5.578867701210035e-005 
2.510095079078218e-005 
6.560763257910682e-006 
-1.180241704772293e-005 
-0.000131820517576615 
-3.702356905897179e-005 
-6.573896193731789e-005 
8.795507399620951e-006 
-2.417808356802141e-005 
-2.757480505423803e-005 
1.109377634059362e-005 
-9.497028259293925e-005 
-6.593890173108044e-005 
-3.968871794927234e-005 
-0.0001039117990690869 
3.191250275957426e-005 
6.807686002458035e-006 
-8.356991470308733e-005 
9.252888951207901e-006 
3.004804648537545e-005 
5.019342618267138e-005 
9.323212429090217e-006 
5.47670928279971e-006 
-5.736486272557893e-006 
-3.378352805643462e-005 
-1.618683987502661e-005 
2.384753643035831e-006 
4.447020440048193e-005 
9.946492778051833e-005 
4.763507775858805e-005 
-3.263089578796073e-005 
8.117550460214503e-005 
-4.268264148645068e-005 
4.829286539531227e-005 
-3.11876806947893e-005 
5.080963052008373e-006 
-9.81164412294589e-005 
-3.569622004293199e-005 
5.359393300289952e-008 
-1.294553268478932e-005 
0.0001205735759615852 
-9.407421694158823e-007 
-2.295711282963241e-005 
-1.417628258101578e-005 
1.0643430795782e-005 
2.589908962240724e-005 
-1.165779939521004e-005 
-5.624289367783105e-005 
-2.968030650744434e-005 
-0.0001603551489234412 
1.328165724096841e-006 
-1.694015075702446e-005 
-2.197496286721141e-005 
-1.374758811924972e-005 
-1.773536785062511e-005 
6.623599261453163e-006 
5.294602489791334e-006 
-1.233096602192326e-005 
-8.642656430146523e-005 
6.446049125625428e-006 
0.0001015838442488149 
-7.299521031807665e-005 
2.382080611859258e-005 
-0.0001325920589549831 
7.117916918462372e-006 
-3.140096214666545e-005 
2.735278207548606e-005 
-2.491792533514008e-005 
-1.314528966689445e-005 
7.118465540682759e-006 
3.811723094698569e-005 
-2.71211837805208e-005 
-9.153369808400364e-005 
3.169727338432001e-005 
2.303220135401796e-005 
-3.637902886148132e-005 
5.181316737720246e-005 
-1.063167538349085e-005 
2.000601961454239e-005 
1.301607258774689e-005 
-4.563660801118898e-005 
-2.015669828230217e-005 
2.749556997475912e-005 
3.385387446884896e-005 
1.450741144012058e-005 
7.224045770272626e-006 
-2.300987863671244e-005 
-2.459014844979444e-005 
-1.252794848165649e-006 
-1.190953784198889e-005 
-4.812842413973009e-005 
4.378196846602802e-005 
-5.512082234929645e-007 
3.997395453918502e-005 
9.093501215085309e-006 
4.672247951130015e-005 
-3.357953630890022e-005 
2.711416561272669e-005 
1.54302811826127e-005 
6.174085221002445e-005 
2.665996953653797e-005 
-3.44076791538505e-006 
9.226785765109466e-005 
-1.004194709207791e-008 
5.020319366367962e-005 
-2.014167051676054e-005 
4.145536148562193e-007 
-0.0001591175115032671 
-1.515325870850139e-005 
4.904723685863363e-005 
-5.06217036143347e-006 
4.021230512568251e-006 
-1.860720616920196e-005 
-5.202017828786808e-005 
-4.072823890310119e-005 
2.508261937713463e-005 
-6.739270766698005e-005 
2.062916711780612e-006 
-2.69141239525208e-005 
1.404326421987343e-005 
7.834082589392244e-006 
1.036283233058636e-005 
-3.081582389895657e-005 
1.732532448732434e-005 
-0.0001213215779216208 
4.5055719944039e-006 
-2.951853337205943e-005 
0.0001294501216718203 
-4.694516566957625e-007 
4.42881471806395e-005 
3.905598675749022e-005 
-8.275779316434201e-006 
-4.276077282156696e-005 
-1.872631879016933e-005 
-3.217009508576029e-005 
2.28460481490989e-006 
1.775790875134018e-006 
4.888856253188938e-006 
2.617101001140196e-005 
-6.173064549713227e-005 
6.264383128302522e-005 
6.686752024858443e-005 
-7.268196155256017e-005 
5.040450961277785e-005 
-3.856079582480864e-005 
5.822528086266841e-005 
-1.691369881767755e-005 
-2.024900157451493e-005 
4.069705093022903e-005 
-1.756572910958059e-007 
-4.491165394279848e-005 
2.026586663656914e-005 
1.168944439178007e-005 
5.442860616066848e-005 
3.434868483430308e-005 
0.0001203607523351031 
4.788628401157893e-005 
5.662115715660055e-006 
8.149530760312546e-005 
5.765609752338938e-006 
-7.460722275598713e-006 
-9.690771621154635e-005 
-4.693070253014489e-005 
-0.0001008433072494399 
-2.778051584493007e-005 
-1.80822794142082e-005 
2.810949247791635e-005 
-8.591292845868475e-006 
1.456099311863662e-005 
2.055062580605441e-005 
6.839143494794725e-005 
-0.000100706578611229 
-5.902680598368295e-005 
-1.118809189862681e-005 
-0.0001136303627809403 
-1.566860216173505e-005 
-4.236559991319785e-005 
-7.490978518532444e-005 
1.497744995269897e-005 
-1.904073384685476e-005 
5.3882745095923e-005 
1.356608666079768e-005 
-3.285874666320764e-005 
4.027129141443152e-005 
1.974921309689941e-005 
-0.0001185720678889272 
3.373190645675635e-005 
-4.107450257902435e-005 
1.537307678039048e-005 
1.481180362642637e-005 
-3.044184609092046e-005 
5.858287386610404e-005 
7.994110113522626e-005 
8.174636560155359e-005 
-8.702629219606176e-006 
-2.650753574353074e-005 
6.958346872495796e-005 
-8.99692596376966e-006 
3.873007599717588e-005 
-4.991123910462398e-005 
1.321691411555104e-005 
-5.953704812900059e-005 
-4.068700733864002e-005 
-2.052983175087495e-005 
-7.317566797987698e-005 
6.789498088638909e-005 
7.665790230133939e-006 
-4.745096531881294e-006 
3.448651233632879e-006 
2.951905501444075e-005 
-3.3683275747835e-005 
-9.952986644232655e-005 
-5.374159715452271e-005 
5.164512918831303e-005 
8.892184300130528e-006 
-2.910546203974966e-005 
5.1866350798023e-005 
3.044799690561054e-005 
6.759926659715016e-006 
-0.000114778831229639 
-7.516654031604262e-005 
3.071188076413088e-005 
1.721385952681986e-005 
9.121257146408415e-005 
-5.370529193064908e-005 
-0.0002078670630576117 
2.057479907314008e-007 
8.750042880674305e-006 
-1.270519537925468e-005 
1.350379875928477e-005 
4.886211001751544e-005 
-7.638009586605779e-005 
0.0001095776823573299 
-5.871436707429898e-006 
-1.376488215595137e-005 
1.016335891439485e-005 
7.527057181439435e-005 
-1.667581688501851e-005 
3.480297166159246e-005 
-2.944057998467522e-005 
-8.271773661441179e-005 
-7.257297511951745e-005 
-5.392536999291179e-005 
-2.821242110966148e-005 
-3.182392625693413e-005 
2.678397346224848e-005 
5.912368124042724e-005 
-1.538046673661065e-005 
7.038810918814023e-006 
2.343483756729193e-006 
-2.489429332863767e-005 
5.907150876850267e-007 
4.500669607505354e-005 
-9.931674016210909e-005 
1.495797522569373e-005 
-1.160891817212458e-006 
-3.148374868788459e-005 
-7.907063252680546e-006 
1.491221435684242e-005 
-2.689924294350981e-005 
2.447852342740005e-005 
-1.117480347214956e-005 
-3.430839291387557e-005 
-2.434535462671296e-005 
0.0001676697243682797 
-7.888307583136044e-006 
5.213881193999886e-006 
-1.104141223851472e-005 
-2.962350715553431e-005 
-6.233168090067841e-005 
2.363003728299995e-005 
9.800534499476649e-006 
5.573182000183713e-005 
5.2727686581056e-005 
5.31605088618968e-006 
4.043941874147002e-005 
5.301769044446729e-005 
-3.600252173754067e-005 
-3.216044444460106e-005 
-4.309860968352919e-005 
0.0001537873695575821 
9.054919790388961e-005 
1.223905729038542e-005 
-8.804041067235791e-005 
8.127703393292497e-005 
3.726789082638295e-006 
7.47116220753724e-006 
9.205061668397372e-006 
5.316822798110633e-005 
2.935171118889855e-006 
-1.95964988672005e-005 
-4.872228386157742e-005 
-2.818987870639997e-005 
3.905216290805086e-005 
5.830839613656085e-005 
3.550936082354626e-005 
-2.280154702949161e-006 
3.857867878676265e-005 
7.72269419965936e-005 
-0.000125346838560522 
1.326993744645342e-006 
4.457249220844827e-005 
1.119353575462279e-005 
-4.971702967411467e-005 
-2.170061567832343e-005 
4.024000186454913e-005 
-3.855755576449892e-005 
-2.770023877442338e-005 
-6.201470002914468e-005 
3.043180788360433e-005 
1.14599242309651e-005 
2.257715651648396e-005 
-4.652195018862787e-006 
3.168188595700264e-005 
-6.993712900697726e-006 
2.433283562394949e-005 
-2.935928648573811e-005 
-3.948740017763372e-005 
-3.742798238894376e-005 
1.674381068818591e-005 
-2.209795793052697e-005 
6.232733405840593e-006 
6.935478256899972e-006 
3.579325679756997e-005 
3.969455110712776e-005 
1.483355997322287e-005 
-9.009541120437518e-005 
3.661505595892116e-005 
-4.411358320111438e-006 
-8.32413656229216e-006 
2.43111913626816e-005 
-1.994395904721728e-005 
1.365300481105943e-005 
-6.375637339807364e-007 
-2.584864960275866e-005 
3.783081878686486e-005 
3.543444451147512e-005 
-3.69377408527581e-005 
-1.318111325081247e-005 
-5.95551471818436e-005 
-0.0001029233965903043 
-2.661334363327446e-005 
1.06209253679273e-005 
-5.130244520570462e-005 
-2.691693242274982e-005 
3.569813824417486e-005 
8.785146951024432e-006 
8.859737767841537e-006 
2.31806054749099e-005 
-2.054285117797756e-005 
7.319244190425939e-005 
-8.944592062494687e-007 
3.824230912546599e-005 
4.255396539828893e-005 
3.351178367190809e-005 
3.330347351371687e-006 
-6.367901087577195e-006 
2.62306589116987e-005 
-9.229126297997408e-006 
5.454715110393878e-005 
7.218294226010988e-005 
1.579827909826534e-005 
1.368884382916987e-005 
-6.839211911521313e-006 
-4.458242191855575e-006 
-2.12123721101626e-005 
3.448781468719947e-005 
0.0001076080120405249 
5.765134847972769e-005 
-1.852507511718261e-006 
-7.930622611990188e-006 
-2.324734430066111e-005 
1.486485852964991e-005 
-2.038944144764336e-005 
2.169403756971729e-005 
1.368428570510968e-005 
6.161934689622503e-006 
-0.0001144650150517935 
-9.419985824553341e-005 
-3.418497134225468e-006 
2.573102423461879e-005 
-5.500107738675761e-006 
4.949686324000159e-005 
-3.990128045103974e-005 
1.963981910405763e-005 
-2.328889870789344e-005 
3.022450041411546e-005 
-1.515234851210359e-005 
-1.925599787091586e-005 
9.734000812227283e-006 
3.933501815438173e-006 
-9.482330943770579e-006 
4.670984392579461e-005 
-1.315370864143662e-005 
-2.349626615470347e-005 
3.361607706482286e-005 
-8.192067684205364e-005 
-4.452900405299448e-005 
-1.313856831531694e-005 
4.702262768446139e-005 
2.133434520608875e-006 
2.047531660800459e-005 
3.940014107016129e-005 
-1.938936033170296e-005 
6.15743150072656e-005 
-2.706738193171827e-006 
5.974638470553146e-005 
-1.508645764362533e-005 
-3.50157175173014e-005 
2.815420905763729e-005 
-6.559526907870983e-005 
-0.000156937233224818 
7.412915921639669e-005 
1.137385238623636e-005 
-3.241801164934776e-005 
-3.608494384604898e-005 
4.355623114155286e-005 
-4.796579026212358e-005 
-1.610437297997463e-005 
-6.210236735057356e-006 
4.454793949191861e-006 
-2.015569050880585e-005 
-0.0001559176780186489 
-2.722701336222124e-005 
1.667396155886116e-005 
-2.481235657181001e-005 
8.438724873721138e-006 
5.629270022042691e-005 
5.294650943681792e-005 
6.340475714415895e-006 
-1.937936258720741e-006 
-2.58524037707145e-005 
2.856931009893053e-005 
-2.998821392338169e-005 
3.068784090764162e-005 
3.669938938687218e-005 
4.971366190449458e-005 
2.318470835997944e-005 
8.029945263357039e-005 
-6.934450047750399e-006 
-8.699891278921936e-005 
-7.314407400909103e-005 
-4.389323959871204e-007 
-1.758052371650458e-005 
-2.869741617099339e-005 
-3.650898123588856e-005 
8.214945886883155e-006 
-8.321175962706984e-005 
3.844734990034758e-005 
5.755786799230351e-005 
-5.386120653811799e-005 
4.466782321526751e-005 
5.505037813919464e-007 
-3.871000078706757e-005 
2.612682193540088e-005 
-2.161776009044327e-006 
8.875360636658053e-006 
-5.591860991625898e-005 
-2.883777130467196e-005 
7.914914813176694e-005 
-7.213116483910935e-005 
5.352604028041843e-005 
-4.457356697588484e-005 
3.512552515710172e-005 
1.580460301727976e-005 
2.407010571742275e-007 
3.98486898972868e-005 
2.764924975563436e-005 
-9.717270404298091e-005 
-2.282105345854348e-006 
2.727801697037875e-005 
-3.359980093514025e-005 
-3.890504566976334e-005 
2.445531337590398e-005 
-4.378921343341156e-005 
-0.0001304505360632967 
2.72504288717249e-005 
6.645765809559673e-005 
-6.158084285802525e-005 
0.0001886850861353002 
-0.0001196976512930003 
-1.745249738452498e-005 
-3.153079021138394e-005 
4.232742249755435e-005 
-0.000112982785198439 
7.932089537279593e-006 
6.294870720906351e-005 
-8.407531201520307e-005 
1.263834996910387e-006 
-4.570974472894573e-005 
4.40441457497054e-005 
7.479839266988821e-005 
-7.816912119801544e-005 
-2.2778918384642e-005 
-2.16394407476534e-005 
2.984482252751432e-005 
-0.0001393048667170135 
-0.0001312290204988776 
-2.345390879775741e-005 
-3.456635750998555e-005 
-4.409564156054018e-005 
1.706294222045061e-005 
3.502128138523571e-005 
-4.281907963179997e-006 
2.498243279277415e-005 
-5.656824660427572e-005 
3.319885429559584e-005 
-2.411283996350526e-005 
2.651801239485202e-007 
