solver_type L2R_L2LOSS_RANKSVM
nr_class 2
nr_feature 6620
bias -1
w
-2.013436221008195e-005 
-3.551116796925141e-005 
-1.943828369658736e-006 
1.334229657440846e-005 
-9.358194061920457e-007 
-3.175288034811388e-006 
-2.311150476295241e-005 
-2.28459512674891e-005 
-1.098750434868841e-006 
6.12001484190878e-007 
0 
8.216629422488971e-006 
-1.451830631676349e-005 
-9.955024280738648e-008 
-4.176646701233801e-006 
-1.997427496336548e-007 
8.052851845660107e-006 
-5.796695798774472e-007 
0 
-2.170145218985289e-007 
3.473883931273113e-008 
1.412615558326212e-007 
0 
-3.185069958047594e-007 
1.340972395785274e-006 
-3.898760491317973e-006 
0 
-2.302700549705763e-006 
2.549447631286005e-006 
0 
0 
3.581807978211893e-006 
0 
0 
3.03229702353166e-007 
0 
2.566439405572094e-006 
0 
-4.191477657484537e-007 
-2.335173151570578e-006 
-4.201749539626719e-007 
0 
-7.756668912019991e-006 
-2.020197973591085e-005 
0 
0 
-4.650868337318847e-006 
-1.213937580017254e-005 
0 
8.263687841148902e-006 
-1.908350554604787e-005 
-1.028126285343694e-005 
-1.197438068425208e-005 
5.402674109274154e-006 
-1.298301603208984e-005 
7.567525120480013e-006 
1.12845000356634e-005 
-8.700930658836856e-007 
-0.0001321201773801674 
-2.513277209513412e-005 
-4.650800805961589e-005 
6.601520075150696e-006 
7.724649853406092e-006 
1.803075113522369e-006 
6.933651819627108e-006 
-4.727639458217517e-006 
4.624162714522141e-006 
2.098307018607811e-007 
4.710476440993896e-006 
4.347450849767821e-006 
0 
-4.191477657484537e-007 
0 
0 
0 
-2.684908630404369e-007 
2.25008904253933e-006 
0 
-2.685221644915624e-006 
0 
0 
0 
2.549447631286005e-006 
0 
2.637098152625771e-006 
0 
6.975630670504203e-006 
0 
0 
0 
0 
-2.684908630404369e-007 
0 
0 
0 
0 
0 
0 
0 
0 
0 
0 
6.123680638032218e-006 
0 
7.910659303714193e-006 
4.347450849767821e-006 
2.549447631286005e-006 
8.197835095073582e-006 
0 
8.971613564289954e-006 
-3.145324683760953e-005 
8.477259226526972e-006 
1.268827729305744e-005 
2.846187351695879e-006 
-1.140736416601053e-006 
3.264431327591871e-006 
8.216629422488971e-006 
-0.0002176336711265357 
9.53184285100071e-006 
-3.093350403240275e-005 
5.378087986500568e-006 
5.608042238861791e-006 
3.313907323272724e-007 
3.710767345587135e-006 
8.263687841148902e-006 
-1.187352691392606e-005 
2.374476978836238e-006 
3.063562682322596e-006 
5.498406175612715e-006 
-3.683412175779773e-006 
0 
0 
0 
3.417019996126264e-006 
3.406608307015078e-006 
-1.044492828720491e-006 
0 
-4.191477657484537e-007 
0 
0 
0 
0 
8.263687841148902e-006 
1.94217014008269e-006 
0 
0 
1.537779988566679e-007 
0 
0 
7.552001927726723e-009 
0 
0 
0 
0 
0 
0 
1.94217014008269e-006 
-1.906980379457514e-006 
0 
0 
0 
0 
3.340827127994686e-006 
3.406608307015078e-006 
0 
0 
0 
0 
0 
8.302601480875295e-006 
-2.871761155348506e-005 
5.144047630865156e-006 
2.549447631286005e-006 
8.899704005396906e-006 
3.406608307015078e-006 
0 
-0.0001851968313132563 
-5.147622393886721e-006 
-8.818206273975092e-006 
6.509745991294387e-006 
3.433891189859146e-006 
2.752971716633092e-006 
6.423622218729653e-006 
-3.706567264630243e-006 
1.219644200510729e-005 
2.743726077550523e-007 
9.559824003248199e-006 
5.25333721719063e-006 
-3.366039767421088e-006 
-2.022395567583735e-005 
-9.180205179222577e-006 
-1.906980379457514e-006 
-7.471230700176434e-006 
-3.279534815658379e-006 
1.071693605134146e-005 
3.406608307015078e-006 
4.454281481378617e-006 
-2.170145218985289e-007 
-4.191477657484537e-007 
0 
-1.21837707019585e-006 
-9.192721622246624e-006 
1.94217014008269e-006 
0 
0 
0 
0 
0 
-3.14198011985484e-006 
-9.180205179222577e-006 
8.197835095073582e-006 
-3.684799020122348e-008 
8.154738884980505e-007 
-2.60155486372252e-006 
1.94217014008269e-006 
-6.372948983847276e-006 
-2.60155486372252e-006 
-7.337521146271539e-006 
-7.337521146271539e-006 
0 
1.285565828137362e-005 
0 
-5.18527992605284e-006 
-4.578464828192442e-007 
-2.906163191050283e-007 
-4.152623003417727e-006 
-7.471230700176434e-006 
7.154339037753157e-006 
7.481237105747401e-006 
-1.971373329855171e-006 
-7.689062359889158e-006 
-1.710889981192572e-005 
6.360614902363774e-006 
-7.015308273150092e-006 
3.435524359486301e-006 
-7.489928135205235e-005 
-2.788433857780822e-005 
-1.217004149796186e-005 
8.197835095073582e-006 
-2.000591276815318e-005 
-5.778844925512944e-006 
-6.123135519104592e-006 
1.053518752387872e-005 
2.418417565399718e-006 
1.51627404498033e-005 
5.187961353373186e-006 
0 
1.669390341849581e-006 
-1.995742507956758e-007 
4.612397186024519e-006 
-2.60155486372252e-006 
5.404424338816752e-006 
2.637098152625771e-006 
8.415641429754878e-006 
0 
8.197835095073582e-006 
-7.861526699565782e-006 
-3.684799020122348e-008 
-1.906980379457514e-006 
9.901518332816265e-006 
1.94217014008269e-006 
8.302601480875295e-006 
0 
4.480843203734496e-006 
2.549447631286005e-006 
0 
0 
8.263687841148902e-006 
-6.438758569905768e-006 
0 
0 
3.421505120465668e-006 
0 
0 
0 
-4.868453873469969e-006 
0 
2.549447631286005e-006 
-3.684799020122348e-008 
-1.915692771920838e-007 
0 
4.243998923179877e-006 
-1.989708700986269e-005 
-2.67222563879876e-006 
0 
-1.235648842460725e-006 
1.996636066028298e-006 
1.796021347690653e-006 
-2.715132461344853e-006 
3.145569692613559e-006 
-1.655640460007719e-005 
-1.837615067958766e-006 
1.759851358651029e-005 
4.864965716387824e-006 
-0.0001944478437123466 
5.638202148463612e-006 
-5.20534784906761e-005 
-2.662109761444958e-006 
4.914222499179688e-006 
5.246785366440636e-006 
2.112900165198777e-005 
-1.292455657338306e-007 
2.726600366699366e-007 
-2.222318290534457e-005 
3.373867519069725e-006 
1.76418685621794e-005 
3.406608307015078e-006 
-2.175471242497951e-006 
2.438760082523503e-006 
0 
0 
-7.034291443918375e-006 
-1.427050454823303e-005 
0 
0 
0 
0 
0 
0 
8.302601480875295e-006 
0 
0 
-3.185069958047594e-007 
0 
0 
0 
-1.906980379457514e-006 
0 
0 
0 
0 
-4.158351947345745e-006 
0 
0 
-2.801543278353493e-006 
0 
-2.584283091457647e-006 
6.465389971384705e-006 
-2.648442850115064e-005 
1.832888721366615e-005 
0 
-8.089057612572917e-006 
-1.337095539048945e-007 
-1.640598667305572e-006 
3.406608307015078e-006 
-1.27615136100055e-005 
-3.95379784241018e-007 
-1.563373736301279e-005 
-1.415680388982326e-005 
-3.8350834810077e-006 
1.309453067183069e-006 
-2.570849171488807e-005 
-4.06970796120383e-006 
-3.015642247567981e-005 
-2.671919452586234e-005 
-2.259242633530788e-005 
4.005396449196132e-006 
4.066955929927324e-006 
3.578074651557108e-006 
-8.039574630118088e-006 
-1.906980379457514e-006 
5.78369520242558e-006 
4.662645274872113e-006 
5.473786052739046e-006 
5.247470320714108e-006 
-4.317908257066424e-006 
-2.806362371418e-006 
0 
0 
-3.164261962709933e-007 
7.910659303714193e-006 
-1.27621678117447e-005 
1.94217014008269e-006 
0 
4.347450849767821e-006 
0 
0 
0 
5.181531679462405e-008 
0 
0 
0 
3.406608307015078e-006 
-3.684799020122348e-008 
0 
4.459117810945896e-006 
-3.500695533413674e-006 
0 
0 
0 
-2.170145218985289e-007 
8.263687841148902e-006 
0 
4.855482857982255e-006 
0 
0 
2.198324079486251e-006 
4.49061973126416e-006 
-7.04479074334666e-008 
-9.435489358322711e-008 
-4.598385923291363e-007 
9.776313676103064e-007 
-5.066446097880399e-006 
0 
7.382091689885628e-006 
1.262918014124776e-005 
2.924941110036628e-005 
4.172570676192543e-006 
1.0177841641335e-006 
-2.835922727782055e-006 
4.822221796254533e-006 
5.18768579092698e-006 
-0.0001381004962502127 
-7.06969036453211e-007 
2.071241472434796e-005 
7.317335215886676e-006 
3.419557711111646e-006 
-1.056878310303144e-005 
-1.738780610327605e-005 
4.304470929876378e-006 
5.191614621774455e-007 
8.924547682045526e-006 
-1.486919244080182e-005 
3.406608307015078e-006 
0 
1.37733931980565e-005 
-2.638402853923745e-006 
0 
1.251644302404631e-008 
4.999235548661479e-006 
-4.369992526606863e-006 
0 
0 
0 
0 
0 
0 
0 
-8.573169988732257e-006 
0 
-9.192721622246624e-006 
-2.684908630404369e-007 
0 
0 
6.862734672563141e-006 
0 
8.197835095073582e-006 
0 
2.017656587984529e-006 
3.406608307015078e-006 
0 
0 
0 
0 
0 
0 
-1.914626141786535e-005 
-2.60155486372252e-006 
-2.906893716964181e-006 
-9.172035276558038e-006 
1.422250056551264e-005 
0 
0 
8.523720420669312e-006 
5.170290178370892e-007 
2.903657923249232e-006 
-1.694851578479177e-006 
-4.638131773561404e-005 
-3.484929101637509e-006 
1.099627695780634e-005 
4.137561747952311e-006 
5.050263656834912e-005 
2.873650278574134e-005 
-6.9442194725349e-006 
-3.617133315053694e-006 
-5.576099292312322e-006 
6.241427466464633e-006 
-1.010555441731096e-005 
3.541762879083981e-006 
3.961343661391924e-007 
1.557105450863835e-005 
-2.736770232456007e-006 
8.197835095073582e-006 
3.319602023017565e-006 
-7.105131530431215e-006 
-1.516919752323748e-005 
3.340827127994686e-006 
-4.191477657484537e-007 
-2.735264417627417e-006 
1.341805816855458e-005 
0 
3.581807978211893e-006 
1.211028415479873e-006 
0 
0 
0 
2.348885585926434e-006 
0 
0 
-7.320249374006663e-006 
0 
0 
0 
-1.629409070580812e-006 
1.412615558326212e-007 
0 
8.154738884980505e-007 
0 
0 
0 
3.406608307015078e-006 
-2.170145218985289e-007 
0 
0 
9.731384995019089e-006 
3.814667253197345e-006 
8.197835095073582e-006 
8.026428265856224e-006 
-1.042079294420809e-005 
-1.64883011865365e-005 
-6.102250397136196e-006 
1.94217014008269e-006 
3.983916363318619e-006 
2.113522917565919e-006 
6.412534997399933e-006 
-3.501443977000473e-005 
6.518872788328299e-006 
-4.524539316139668e-006 
-8.908963164225675e-006 
-2.241815003274109e-006 
7.52963561028215e-005 
1.155271389601701e-005 
4.112875644630582e-006 
-6.525509147234145e-006 
-1.708783999110088e-005 
-3.326266587792934e-006 
-8.526464378989716e-007 
5.272985467979944e-006 
7.237266817478516e-006 
-2.361679598611023e-005 
3.221569951185096e-006 
5.498406175612715e-006 
1.145168012727911e-005 
-5.849372632069243e-006 
-9.192721622246624e-006 
8.154738884980505e-007 
-4.317908257066424e-006 
0 
-6.372948983847276e-006 
0 
0 
1.251644302404631e-008 
0 
-7.337521146271539e-006 
0 
0 
1.412615558326212e-007 
0 
-5.107969929571584e-006 
0 
-1.235648842460725e-006 
0 
9.627463664731693e-006 
0 
0 
0 
-3.935608481519199e-006 
-1.683558162175981e-005 
0 
0 
3.016714827010565e-006 
0 
0 
4.321005780644773e-006 
1.305871906858733e-005 
1.140122001095408e-007 
-6.299284736107421e-006 
-1.999884146309718e-007 
-3.898760491317973e-006 
0 
7.825185753802269e-006 
1.037537155345381e-005 
3.155200148551756e-006 
7.395701629031159e-006 
1.86278071446142e-006 
3.197051618786744e-006 
-6.015005301420696e-006 
-1.443319065704458e-006 
-9.913228278114227e-006 
5.934274910425585e-005 
3.574518776916763e-006 
-1.304499699946486e-005 
-2.078465277220249e-005 
-6.148572175042509e-006 
9.492556784542484e-006 
5.799640094260343e-006 
-2.622703442055863e-005 
-1.653618767667724e-005 
8.687793531852746e-006 
6.195954965372356e-006 
-6.296363820446657e-006 
8.750533058705991e-006 
4.347450849767821e-006 
7.811010039559211e-006 
9.298479557370304e-006 
0 
1.727177226487444e-008 
-4.931913567843371e-006 
0 
7.953871970102773e-006 
0 
0 
0 
0 
4.675818763401082e-006 
-7.554060151224315e-006 
0 
-1.081704372323817e-006 
1.251644302404631e-008 
1.94217014008269e-006 
0 
3.406608307015078e-006 
-1.654796608209177e-006 
0 
1.94217014008269e-006 
1.412615558326212e-007 
0 
0 
0 
-9.192721622246624e-006 
0 
0 
-2.60155486372252e-006 
3.387773451538731e-006 
-1.100094332879686e-005 
8.302601480875295e-006 
2.438882573420108e-006 
1.733553661591454e-006 
0 
-7.71588222100264e-006 
9.71125735448614e-006 
-1.72311620174151e-005 
6.698485234772608e-006 
7.891739105418273e-006 
-1.241388360856372e-007 
1.062991130716613e-005 
3.667410152914821e-006 
-5.471284043624441e-007 
-3.155709548016849e-005 
2.568354161033433e-005 
3.614258723786414e-006 
3.907530672592765e-006 
3.406662449386319e-006 
1.740062373718447e-005 
9.464971555047034e-007 
1.142553148778267e-005 
1.092928268615194e-005 
1.621534161358034e-005 
-2.041363886433414e-006 
0 
2.107533266639298e-006 
-2.014926907855616e-005 
-1.059818976815094e-005 
3.867200285457638e-006 
8.197835095073582e-006 
-2.60155486372252e-006 
-6.839720419375298e-006 
0 
0 
1.898201792611853e-006 
1.727177226487444e-008 
0 
1.251644302404631e-008 
4.232709122908443e-007 
0 
0 
5.391423640491798e-006 
0 
0 
0 
2.383034370165459e-006 
0 
0 
0 
-5.469981321079857e-006 
2.679336851906291e-006 
0 
-3.684799020122348e-008 
7.098295000122696e-006 
0 
0 
8.263687841148902e-006 
-4.816956565353722e-006 
7.910659303714193e-006 
1.118703590851218e-006 
-7.272514193086307e-006 
-9.983604951689556e-006 
0 
1.94217014008269e-006 
-8.978629484112042e-006 
1.64865659141597e-005 
4.200865107466467e-006 
3.109886061872057e-005 
-3.220035525054189e-005 
8.383687823689822e-007 
7.810030478224291e-006 
8.290709117217101e-006 
-6.92328310214846e-005 
1.647909913314811e-005 
3.644683968022227e-006 
-7.255351863223236e-006 
7.172679049908028e-006 
7.070377442710077e-006 
3.071758710336888e-006 
5.238346398598236e-006 
-2.251383352868076e-005 
8.262893442770728e-006 
9.202099669091125e-006 
0 
8.066655809894851e-006 
1.343562811512778e-006 
-1.522891985705507e-006 
3.411194771547255e-006 
4.323970982169353e-006 
-1.621666248631144e-006 
1.066805435274947e-007 
0 
0 
0 
9.374523005135774e-006 
8.395629659103703e-006 
0 
-3.185069958047594e-007 
0 
0 
-2.146384238353122e-006 
0 
1.94217014008269e-006 
8.154738884980505e-007 
-3.372559880063943e-006 
3.17206435828339e-006 
0 
-3.684799020122348e-008 
9.327422696627389e-006 
0 
0 
0 
-6.093648054917108e-007 
-2.60155486372252e-006 
0 
0 
-9.038943623389951e-006 
1.069287620803003e-006 
3.011457760885696e-006 
-4.323100356688096e-006 
-3.894831289713135e-006 
-1.033791320637735e-005 
9.901518332816265e-006 
2.372020943224612e-006 
4.279762823181344e-006 
5.49778487192744e-006 
1.010207087850594e-005 
2.088617245995041e-006 
2.725454481344596e-006 
-4.471489048978666e-006 
7.026522767665245e-006 
-3.830263221990486e-005 
-9.930837601677682e-006 
1.346100602773593e-005 
-4.501401350119741e-006 
-1.180511837156395e-005 
4.609815512895221e-006 
3.06795734614088e-007 
5.113909743966365e-007 
6.990910374297829e-006 
-9.703872090480182e-006 
1.983291347348348e-006 
0 
6.085433660017715e-006 
-3.185069958047594e-007 
3.417019996126264e-006 
6.199014977407556e-007 
3.417019996126264e-006 
0 
-3.38313108574161e-006 
0 
0 
-3.185069958047594e-007 
0 
0 
-2.684908630404369e-007 
-3.500695533413674e-006 
6.095729871349848e-006 
0 
4.095229120018428e-007 
1.727177226487444e-008 
0 
0 
-2.684908630404369e-007 
-1.272496832661949e-006 
0 
0 
-3.769186396454115e-006 
0 
0 
-3.898760491317973e-006 
1.727177226487444e-008 
0 
9.901518332816265e-006 
-1.823234078496771e-006 
1.235114473089186e-006 
6.494964400626266e-006 
-5.694947581125568e-006 
-4.049612673728795e-007 
0 
0 
-5.1289159964374e-006 
4.786851057438864e-006 
-2.974183820066257e-007 
-3.860211913223613e-006 
4.126849600719264e-006 
-1.438634598970822e-005 
4.999235548661479e-006 
-3.313211665623253e-005 
7.616808339787282e-006 
-4.298243512464139e-005 
8.622780470907176e-006 
4.233678289315731e-006 
2.880129713417911e-006 
-6.4447127732465e-006 
2.94740647578192e-006 
1.203322526886585e-006 
-5.461405427750872e-006 
-2.480652101174648e-006 
7.790526298054386e-006 
1.994856394324325e-005 
0 
0 
5.404424338816752e-006 
4.624162714522141e-006 
-1.509419005829152e-005 
0 
0 
-1.170475084310221e-006 
-7.337521146271539e-006 
0 
-2.60155486372252e-006 
2.549447631286005e-006 
0 
0 
6.095729871349848e-006 
8.165727105430926e-007 
0 
4.624162714522141e-006 
0 
0 
0 
8.498814584176949e-006 
0 
0 
-1.337095539048945e-007 
0 
-3.185069958047594e-007 
-1.337095539048945e-007 
0 
0 
0 
4.347450849767821e-006 
-4.191477657484537e-007 
9.633762983903053e-006 
-7.337521146271539e-006 
0 
1.94217014008269e-006 
5.038905283606892e-006 
8.197835095073582e-006 
0 
-1.557319898994709e-005 
-4.993932652385368e-006 
1.493625081513841e-005 
6.350719417474492e-006 
-1.487165288210868e-005 
-1.384057867822191e-005 
4.620205469969457e-007 
2.625047208282665e-007 
-9.357357007431887e-005 
3.263280801674183e-005 
-3.309996504553234e-005 
2.629567125368758e-006 
7.021752824099001e-006 
-2.717859149865584e-007 
-8.863471531334178e-006 
-1.750130091098398e-005 
1.375092927239433e-005 
-6.226081774705183e-006 
-1.292193793997698e-005 
-3.684799020122348e-008 
-5.868521790086597e-007 
2.088419391138397e-006 
7.397209224321428e-007 
4.076438771053699e-006 
1.044135656313979e-007 
2.96465410787683e-006 
2.572264481653157e-006 
0 
0 
-3.083286602819924e-006 
0 
0 
0 
3.784213961810161e-006 
0 
0 
3.057417290483221e-006 
2.549447631286005e-006 
0 
0 
-9.962593463798499e-006 
3.553578977941762e-006 
-9.192721622246624e-006 
3.03229702353166e-007 
-7.337521146271539e-006 
-1.906980379457514e-006 
0 
0 
2.200110551868083e-006 
0 
-7.337521146271539e-006 
0 
4.942906163810916e-006 
7.858843644310158e-006 
6.038120583640732e-006 
3.835680474011116e-007 
2.876648971706758e-006 
5.060365490621429e-006 
1.669495023238127e-006 
-6.986518452413463e-006 
1.593538564966476e-005 
1.507443960248748e-005 
-8.6171969095019e-006 
9.255863402159091e-006 
-2.025760761988641e-005 
-2.822887466724644e-006 
-2.778037215313632e-006 
-9.868960097588438e-005 
4.511339124296714e-008 
-2.543367526780897e-005 
1.734077933345523e-005 
-6.603771393463281e-006 
4.971172060809285e-007 
8.410049878794921e-006 
7.442921802479134e-006 
2.845183743840458e-006 
2.575496233615898e-006 
1.520652572209369e-005 
8.899898536683898e-006 
-1.999884146309718e-007 
7.949874050272946e-006 
1.832669798777588e-006 
0 
0 
5.062302225701601e-007 
-5.416650713491358e-006 
0 
-2.684908630404369e-007 
5.331880492173587e-006 
0 
-1.999884146309718e-007 
0 
1.855665188319979e-006 
8.263687841148902e-006 
0 
-3.143819067232484e-006 
0 
8.154738884980505e-007 
0 
3.060967712258814e-006 
0 
0 
-2.146384238353122e-006 
0 
8.165727105430926e-007 
-2.146384238353122e-006 
-2.60155486372252e-006 
3.221569951185096e-006 
-3.898760491317973e-006 
0 
-4.201749539626719e-007 
-2.628629283308458e-005 
-4.718139084384565e-006 
1.94217014008269e-006 
-1.009910286418796e-005 
-6.114573614928042e-006 
-2.228408048453681e-006 
3.406608307015078e-006 
-9.171096494946273e-006 
-1.808949421276847e-006 
-7.964085822766148e-007 
-2.191004621728263e-005 
-1.950453453268111e-005 
6.49907561321467e-006 
-4.310895604199853e-006 
1.352133154034391e-005 
-0.0001289837829250865 
-1.527160538994961e-006 
-1.083974392589816e-005 
2.458239601973421e-006 
1.669599141699913e-005 
-2.319949177168594e-005 
-3.370270617970561e-006 
7.23066733030603e-006 
3.711315301677688e-006 
5.198824929280979e-006 
3.803924846636624e-005 
8.216629422488971e-006 
0 
4.335891020132169e-006 
-7.251305965816901e-006 
4.347450849767821e-006 
-6.768806218080931e-006 
2.368854908670783e-006 
1.005999470687576e-005 
0 
7.980344937658907e-006 
0 
0 
0 
4.347450849767821e-006 
2.494298496076302e-006 
2.549447631286005e-006 
0 
0 
8.154738884980505e-007 
0 
0 
6.961956957670546e-006 
-9.461212485287056e-006 
0 
0 
0 
0 
0 
1.94217014008269e-006 
4.723206299084344e-006 
0 
0 
-4.684792776714071e-007 
-5.93945042468038e-006 
6.000637811695615e-006 
6.596208106276705e-006 
-1.858354348873563e-006 
-6.421486797640892e-006 
-3.090228525147954e-006 
8.154738884980505e-007 
-2.322918153501224e-007 
2.269975533636566e-005 
-3.495782060860227e-005 
1.201273902557635e-005 
2.267432875673775e-006 
2.295602378723921e-006 
9.581916130844106e-006 
-1.257175582466547e-005 
-0.0001459965602540959 
-1.516151511434365e-005 
1.890065150624623e-005 
7.72213476732096e-006 
1.349517003909585e-006 
1.16753592513573e-005 
-2.995710497218574e-005 
-1.898170909355178e-005 
-5.842346671699389e-006 
-2.954605213882722e-005 
-9.172433096966618e-006 
-3.935608481519199e-006 
-3.000787254312463e-006 
-5.052610506912174e-006 
-6.701538034219901e-006 
-2.175471242497951e-006 
-2.617037255094291e-007 
-6.500315355040494e-006 
7.91372806330046e-006 
0 
0 
-9.37805269870123e-006 
0 
-2.60155486372252e-006 
-1.235648842460725e-006 
-2.138832236425395e-006 
0 
0 
-3.897254498698965e-006 
-3.919843299162129e-006 
-7.306759667657382e-007 
0 
-5.203109727445041e-006 
-1.272293072078152e-007 
0 
0 
1.023067417657373e-005 
0 
1.94217014008269e-006 
0 
1.94217014008269e-006 
-1.21837707019585e-006 
0 
1.65273756822978e-005 
4.510169159380345e-007 
6.49907561321467e-006 
-4.392301441822884e-006 
-5.29112261115986e-006 
-2.129112466088249e-006 
-2.60155486372252e-006 
-2.162764874690179e-005 
5.758038097575827e-006 
-1.079079302221771e-006 
1.401576512771894e-005 
-3.553320775623806e-005 
-7.24890406148024e-006 
6.754561615842863e-006 
1.050254209303038e-005 
-1.103520449135799e-005 
-4.547234325421027e-005 
-1.236001009344425e-005 
-2.40479941515936e-005 
-7.40852870505004e-006 
-1.172083083547871e-006 
3.687458757383568e-006 
-5.376899651780269e-006 
5.69904314559935e-006 
7.643591539317319e-006 
9.299858540295235e-006 
7.542883480211871e-006 
0 
4.601189024920683e-007 
3.482250508431508e-006 
2.723746757664305e-006 
-3.839711516843948e-006 
3.406608307015078e-006 
7.559290425856234e-006 
-3.057444214740521e-005 
0 
-3.684799020122348e-008 
0 
0 
8.263687841148902e-006 
0 
3.891347775521334e-006 
2.549447631286005e-006 
0 
8.402330940267813e-007 
-2.170145218985289e-007 
0 
0 
2.716387923591545e-006 
1.103282697693705e-006 
0 
-7.337521146271539e-006 
2.537197151187873e-006 
-3.500695533413674e-006 
1.251644302404631e-008 
-7.196259590438918e-006 
5.34895380337305e-006 
0 
7.858843644310158e-006 
-1.842470670495162e-005 
7.957001266225369e-006 
4.598582690747104e-006 
4.999235548661479e-006 
1.717162957450739e-006 
-6.935541612854573e-006 
2.171747410522056e-006 
3.579304646287906e-006 
4.224266589024604e-007 
-6.083228401418502e-006 
6.779917085175972e-006 
1.861047364004582e-005 
-1.800120818996916e-006 
9.962183061587137e-006 
-2.314673271767752e-006 
5.360127786391433e-006 
-1.689676726320059e-005 
-5.866996177228916e-005 
-2.601738385624933e-005 
1.677764701056704e-005 
5.400802091002959e-006 
-2.452905844252017e-005 
-2.252193941669036e-005 
5.150532475366558e-007 
2.157968046409732e-005 
-1.534179308594209e-005 
9.085661199886886e-006 
4.408793365860986e-005 
-4.589645136892287e-006 
-1.735209603237047e-005 
-6.613427837439866e-005 
3.469859983679014e-006 
8.84101190890676e-006 
9.694852103331538e-006 
3.225148196074783e-006 
4.228319084099535e-005 
2.745101059389665e-005 
7.081297053888366e-006 
-5.732287208131033e-005 
-2.515536929114057e-006 
3.681425586122357e-005 
-3.945637255654423e-005 
6.444330616371446e-006 
-5.687850980304923e-005 
2.625600363256139e-006 
-1.133897230191615e-006 
-9.69915190784418e-006 
-1.348937859170718e-005 
-9.52597125523047e-006 
1.766965909011736e-005 
1.379668902249019e-005 
-4.09565976264755e-006 
3.198028322887042e-006 
-1.111605483464405e-005 
-1.343727705675331e-005 
8.529440032799946e-006 
-6.678151695031242e-006 
-5.92288033059435e-006 
-4.350907486609024e-006 
-3.626458252480088e-005 
6.390708795935121e-007 
3.495837138684357e-005 
-2.767123141944689e-005 
2.17195089710239e-005 
-2.365985209914234e-006 
-3.285289079336901e-005 
-3.550647897773575e-005 
-1.316045076423433e-005 
3.251050430552114e-005 
-2.159535324898209e-005 
1.676564543558577e-005 
1.045731502607225e-005 
1.760024161731107e-005 
2.910601492228784e-005 
4.526581065956289e-006 
7.009612580431307e-005 
-2.272687899257502e-005 
-1.338079643558414e-005 
-3.927803959036052e-005 
2.916659926041908e-005 
2.87795559293893e-005 
4.247622201555429e-005 
-2.530013325281747e-005 
4.326693151321048e-006 
3.107590776902808e-005 
2.080939396692796e-006 
-4.633397659849461e-006 
-1.382998508801141e-006 
5.403940544293171e-007 
1.213345811313794e-005 
-6.879067186448025e-006 
1.635954401708876e-005 
-1.199666875855474e-005 
-1.967047493067091e-005 
3.142595723875718e-006 
-5.343119176775259e-006 
-3.850804094836401e-005 
-4.09555362449264e-005 
1.408886880189881e-005 
2.368745941214243e-005 
-4.38926671690081e-006 
-5.026668597810566e-005 
-3.331273729668505e-005 
2.081911205556444e-005 
1.006350012758137e-005 
-1.388861909560203e-005 
-5.517652258440847e-006 
1.554708075993213e-005 
-1.894234502173503e-005 
2.718327676609921e-006 
-1.065365944669973e-005 
1.741184273716007e-005 
-3.41047602627545e-005 
1.450583303418058e-006 
8.494313398620552e-006 
-1.79169868351241e-005 
1.019191503735634e-005 
8.529424118819409e-006 
-3.545761819472246e-005 
2.421877631201256e-006 
1.258880030706789e-005 
-1.813336425685999e-005 
-8.014767227704345e-006 
-1.030458372956408e-005 
1.892015007609712e-005 
-1.849366810982568e-005 
-6.963191271764842e-005 
-2.197855968918865e-005 
-1.316572757267997e-005 
5.572304263525709e-006 
-4.792171083842803e-005 
-2.151232296554648e-005 
2.27898320740375e-005 
6.554536612067505e-006 
-5.101138964821519e-005 
1.436511875280711e-005 
-6.629422865676849e-006 
1.474477127587432e-005 
6.858229738366991e-006 
6.19191304801827e-006 
-1.285118075899078e-005 
-2.532435710296934e-007 
-1.039269918217942e-005 
1.140263047042883e-005 
-8.297346632073392e-005 
7.444279846029467e-006 
9.366041613990887e-006 
4.157777101606356e-005 
-8.711693769177163e-006 
1.680621980007084e-005 
4.036318301123517e-005 
-1.67433493502046e-005 
-1.468201802971258e-005 
2.044446542832105e-005 
1.099750903264412e-005 
-2.66001827407486e-005 
3.366649637177961e-005 
-1.208480401978393e-005 
3.919928617821896e-006 
-1.598636783519626e-005 
-2.336053645254693e-005 
-3.44223878909754e-005 
-1.607431642638712e-005 
-2.339075799027722e-005 
5.76045041186433e-006 
1.175348231077915e-006 
-2.281356988725569e-005 
-1.680044516011353e-005 
7.304395335193189e-006 
-3.900500141309537e-006 
1.337417558299784e-005 
3.192380967431823e-005 
-4.315314572211432e-006 
1.148391379100977e-005 
-1.688751194029129e-005 
-9.86095284630181e-006 
3.616261936560879e-005 
2.456045581170133e-005 
3.094863163786199e-005 
-3.986201330608146e-007 
1.315700382909651e-005 
-2.872765186236803e-005 
-4.218860641376988e-005 
-5.809449392204228e-006 
-9.597273956184496e-006 
-6.735686800471042e-006 
1.699498507677778e-005 
-8.070727220342802e-005 
-6.104453907546169e-005 
3.663351868722683e-005 
-1.15244549532153e-006 
-1.290881011196191e-005 
3.952863797334112e-005 
7.379671365859269e-005 
3.450679138021192e-005 
-4.64335050851755e-006 
7.212294963308129e-007 
1.525433757680549e-005 
2.082433554316515e-005 
7.633001567928873e-006 
-3.120238872921066e-005 
3.134911396841023e-006 
1.662866063376385e-005 
-5.433736448277243e-007 
-7.621188439617475e-006 
-4.937018307056215e-006 
3.058124489402984e-007 
1.715291106721846e-005 
2.116123220821785e-005 
6.806762654876581e-006 
-1.411577238940705e-005 
-3.708391000086032e-005 
4.468094842847816e-007 
-4.249352805569924e-007 
2.959835555418026e-006 
1.09158858870047e-005 
-1.685728635801414e-005 
2.028712898821459e-005 
-4.482692147787957e-006 
1.56317716208432e-005 
1.834970920606177e-005 
-1.192640279463374e-005 
-1.234680905187944e-005 
-5.970990168795123e-006 
6.868975653315224e-005 
-2.524068505209221e-005 
4.39166653499556e-005 
-3.320296153193301e-005 
9.889198247180827e-006 
-1.11296117815521e-005 
-1.020472068172206e-006 
1.941114970471806e-006 
2.12964623344806e-005 
1.521389679151508e-005 
7.226514531139052e-007 
-2.226977949060242e-006 
-4.29006834240527e-007 
-3.29664902417712e-006 
7.333113743223842e-006 
2.680446135096234e-005 
-1.283854787415451e-005 
1.957122868047837e-005 
1.510384153142471e-006 
2.980544501503145e-005 
-7.022995467736172e-006 
-1.141365400071413e-006 
-3.275457433259716e-006 
7.741190377108186e-006 
-2.158220343808068e-005 
1.351133010394684e-005 
4.961451767194545e-006 
-9.649395122021209e-005 
-2.345534224251292e-005 
3.647034528058285e-006 
-5.819853565866198e-007 
1.426902481003013e-006 
-1.436255070630573e-005 
-1.125739912863096e-005 
1.403302127778769e-005 
-1.622127475377023e-005 
1.880688554674779e-005 
-6.974076057057113e-005 
-5.016591122768508e-005 
-1.37456670023682e-005 
-1.257545031514718e-005 
-1.629410923163174e-005 
-2.606008761686946e-005 
2.876735615768272e-005 
3.417495523849594e-005 
1.229559800024816e-005 
2.820737668818165e-005 
2.110420703278744e-005 
-8.708286304521912e-006 
2.126129034479247e-005 
-1.530484072931905e-006 
-6.75472170823706e-005 
9.194390646735967e-005 
-1.496747514418388e-005 
3.097210976986034e-005 
7.659793595486166e-006 
-6.747025574436528e-006 
-6.578550855154614e-007 
1.393527333337967e-005 
-1.534925280871311e-005 
-7.716913119542084e-005 
1.425935717658455e-005 
5.591660952959877e-006 
-2.617050006762833e-005 
1.590937888233131e-005 
-7.311840950366806e-005 
-2.400549607873098e-005 
-3.871567915597543e-006 
-5.593118588536579e-005 
-2.643676374188541e-005 
-4.756392597309796e-005 
-1.189394305559293e-005 
1.594835049247702e-005 
1.297668993544466e-005 
-2.23028030023507e-006 
1.114107613844609e-005 
-3.796463444039775e-005 
-1.322866163398641e-005 
-9.440868196057317e-005 
1.74034125116849e-005 
-7.855308688533729e-006 
3.324180101080386e-005 
1.43773877185018e-005 
-3.298282021816417e-006 
-1.611988359957615e-005 
9.022514005669421e-006 
3.30402679574853e-006 
7.032161342760381e-006 
-8.42184267114233e-006 
1.437869027017441e-005 
6.693027980350548e-006 
-6.363182292353462e-005 
5.814302354000292e-006 
-1.793754523646832e-005 
-2.3081713612474e-005 
1.833104759205794e-005 
-6.336995919329468e-006 
-2.624471936956174e-005 
9.520252546110679e-006 
1.429656891562984e-005 
9.471531081380104e-006 
-4.239998873496987e-005 
1.972535943818204e-005 
-3.901523950321406e-006 
2.731049768938345e-005 
-1.836437353301084e-005 
-9.751792004165292e-006 
-0.000133754861842449 
-1.246397026067897e-005 
-2.495330033663868e-005 
1.656404140488006e-005 
-7.972632808301161e-006 
2.238835034645701e-005 
-2.762285241100962e-005 
4.482460498458866e-006 
-1.111491435616145e-005 
-5.835950474291219e-005 
-3.342896791395319e-005 
-1.440954695356972e-005 
4.6024546154101e-006 
-6.747726142627236e-006 
-3.394053416597472e-005 
3.13549077697494e-006 
-1.433481331793704e-005 
-9.754452768171415e-006 
-1.155315013887729e-005 
1.236125570915136e-006 
-1.031479540725505e-005 
-2.595709442128302e-005 
-8.756245869378046e-006 
1.472233439288532e-005 
-1.770013536902277e-005 
3.41607164518152e-005 
-4.517607692940328e-005 
-2.913373789149864e-005 
-9.565332967224614e-006 
2.753672356339895e-005 
5.600208888342107e-005 
1.508422456028938e-006 
1.580501428714783e-005 
-7.290833946197268e-006 
-5.169209993892616e-005 
-4.387713634176467e-005 
-3.438579372069508e-005 
7.930137502048478e-006 
2.121235653976526e-005 
-5.818516408189744e-006 
4.295989332387222e-006 
-1.42757810091503e-005 
-1.069881378819169e-006 
1.806778630589311e-005 
1.256295619229343e-005 
4.292251847980801e-006 
9.425014369464947e-006 
1.070077995474231e-005 
1.247923410067022e-005 
2.074286765226985e-006 
-1.414074394438229e-005 
-1.632349884779901e-005 
-3.941428572970065e-005 
4.397963755679653e-006 
-2.885835820356158e-005 
-1.137204138768314e-005 
4.068800570477473e-005 
-2.789215030199087e-006 
2.498675089987094e-005 
1.900651680877564e-006 
9.420980398063397e-006 
-2.762834014963564e-006 
-1.932685859908266e-005 
9.029938412535756e-006 
3.564504317666256e-005 
2.875334687208125e-006 
1.723088513731217e-005 
-2.762430053596481e-005 
-2.443025016778266e-005 
-2.218445222536118e-005 
3.221523023362772e-005 
-3.31945723253724e-006 
4.341520518364388e-005 
1.463915664320331e-005 
1.406892563182328e-005 
-5.614031524667839e-005 
-4.006742234948108e-006 
-3.541760328284567e-005 
-8.269776996972152e-006 
-6.129328032671858e-006 
-3.490488473108358e-005 
1.514578196831702e-006 
-2.013411332776018e-005 
-4.081151651364306e-005 
-4.597107946571429e-005 
1.402278687675733e-005 
-0.0001662756930124609 
-5.234927138744369e-005 
6.52890891115621e-006 
-6.109372340324468e-005 
-8.394813838997452e-005 
-3.5224786238635e-005 
-8.52212907258937e-006 
-2.078926404562231e-005 
-2.344456875062772e-006 
-2.501239745001536e-005 
1.178187926370745e-005 
1.608646952289641e-005 
6.004666354543527e-006 
-1.004831010338895e-005 
-1.452914106760469e-005 
-8.176609722269969e-005 
-5.717308100607737e-005 
5.769393031303068e-006 
-7.14673120884997e-006 
-2.225880857135112e-005 
-3.846466364584623e-006 
8.908995899625472e-006 
6.363920297977318e-006 
9.831899176599677e-006 
-2.707505223530025e-005 
1.080978981654941e-005 
1.737391164280567e-006 
3.235475189489729e-005 
-2.475814288078075e-005 
-1.639213971328877e-005 
-7.333686801671722e-006 
-6.286084034870642e-005 
-1.570427100932365e-005 
1.557061970999828e-005 
-1.494345328086291e-006 
1.068915589515232e-005 
-7.120757072389716e-006 
-3.699023875812673e-006 
-1.715136459153168e-005 
-3.052687623889657e-005 
2.115426657492424e-005 
6.134750840019466e-006 
7.316595076719359e-006 
5.485732553288749e-006 
7.233315593745848e-006 
-7.597990214552399e-006 
1.834780771066566e-005 
-1.268460969399476e-005 
5.699957668142368e-005 
1.356025329379232e-005 
-1.146921064386979e-005 
1.699013449887435e-005 
-7.392523929785476e-006 
-3.772233311379552e-005 
1.02978988052598e-006 
1.587357348650307e-005 
-5.236687961772882e-006 
1.41645694164342e-005 
5.2896694380225e-006 
2.167094379841497e-006 
3.339765666510384e-006 
2.126076142611623e-005 
-7.966045496428007e-006 
-4.974977345446912e-006 
-9.940683181638511e-006 
-3.321975795586391e-005 
5.438042122722791e-006 
-2.690145984912316e-005 
-1.673880775523785e-005 
-2.348674743823287e-006 
9.05772959037248e-007 
1.541025677964351e-005 
-8.074451243687918e-006 
2.788217499225995e-006 
2.457815345513431e-006 
-1.21630374129635e-005 
2.375160440429592e-005 
-1.228549045609353e-005 
-5.07820176117121e-006 
-1.710599481356991e-005 
2.830684445424025e-005 
-1.190813356754099e-005 
-2.036666893899526e-005 
7.877875654990882e-005 
3.132912406960576e-005 
4.442905697616211e-006 
-1.36025805669286e-006 
-2.696103102829196e-006 
-3.301510542677049e-005 
-2.282473069866264e-005 
-4.417088902500472e-005 
-5.478543198771283e-006 
-3.505727131155565e-005 
1.263243433780823e-005 
2.890532029471075e-005 
4.562239340270601e-005 
1.296807634836667e-005 
-1.381038121797659e-005 
-1.12273758242897e-005 
3.074067265445791e-006 
-0.0001016372972584984 
-1.869134885558142e-005 
-2.707350466504969e-005 
-1.663193736228463e-005 
2.54032734769552e-005 
-3.266619212499566e-005 
3.745567696893856e-006 
1.731619181425577e-005 
9.04618752345929e-006 
-7.909757087221973e-005 
1.160348628186682e-005 
3.491940030328022e-005 
-1.143465545908155e-005 
5.353191669010211e-006 
-7.564203546371735e-006 
6.831488513507077e-006 
-8.106182343096251e-007 
-5.012912959564259e-005 
-2.509691862545803e-005 
-1.190539898251107e-005 
9.157067464773162e-006 
1.370167003263157e-005 
5.848377960025168e-005 
-2.708404630869067e-005 
4.124093674731027e-005 
-1.910838519875329e-005 
-2.521646383899696e-005 
-2.82300413522982e-006 
2.493450778564413e-005 
2.527874852770833e-005 
-1.211361602054303e-005 
-1.452624832366299e-005 
-5.225612862600418e-006 
3.654897294803209e-005 
2.643020658364355e-006 
-3.770123246693715e-005 
2.149994569808401e-006 
-1.144119056587194e-006 
7.76961065915383e-006 
6.323693181630875e-007 
-8.359585047593358e-005 
-2.030683633861442e-005 
7.371895824433391e-006 
5.553166442554677e-005 
4.669990601469268e-006 
-8.363322358750506e-005 
4.101498873830096e-007 
4.418413020364747e-005 
-1.093778395615988e-005 
1.868005197363769e-005 
-2.632477670022962e-006 
1.948451409102665e-005 
1.740565593564721e-006 
4.351094463003262e-006 
3.616658007119078e-005 
-1.874426889939722e-005 
3.915382327028904e-005 
-4.244722054954321e-006 
1.626571442706333e-005 
3.25570736126151e-005 
8.898273926756815e-006 
2.215003640453766e-005 
3.604051724827106e-006 
-1.454623867616605e-005 
-1.390055619390608e-005 
1.271254406221596e-005 
-9.30508451540184e-006 
-2.516577910772974e-006 
5.550708455532498e-005 
9.712730057397856e-006 
6.139901980547765e-005 
5.87685716353203e-006 
3.64826502809825e-005 
1.716214278299199e-005 
-5.248158629856132e-006 
2.301042675319244e-006 
-6.402352273784036e-006 
2.98093441384112e-005 
1.56283636704497e-005 
9.629625236894303e-005 
-6.785103410196372e-006 
1.206239091035573e-005 
1.461006777369419e-006 
-5.13062348487683e-006 
1.58289109785763e-005 
-1.295115634936054e-005 
-5.369355537598739e-006 
-3.24461871701581e-005 
-5.758437171290062e-006 
1.240647904249094e-005 
-5.661248796089044e-006 
-3.954615482900638e-005 
-6.743973091287613e-006 
-2.489948754041714e-005 
-1.153748619100632e-005 
-0.0001200402350294587 
-2.835879772776222e-005 
-1.592152242153166e-005 
-8.705340438379192e-006 
8.131370087611915e-007 
-7.800781008091307e-006 
2.646927842805544e-005 
2.050308533171519e-005 
1.462843882340463e-005 
-4.234532886189629e-005 
-8.88264100794041e-006 
-6.248033796531922e-006 
1.332498977398871e-005 
8.05467136841385e-006 
4.493331104696595e-005 
-2.652322683520278e-005 
-9.925916059864364e-005 
-1.572946981162354e-005 
2.07917166419946e-005 
2.161566046958896e-006 
1.513302773871673e-005 
2.397348018198298e-005 
7.942556568292063e-007 
4.513896601713063e-005 
-1.729776883714686e-005 
-6.177083097482626e-006 
-2.593339012516343e-005 
1.558101488379165e-005 
-3.933805736922983e-005 
-5.302861272598858e-006 
2.795325953209453e-005 
3.366357177184585e-005 
3.317163870232535e-005 
3.051283881476078e-005 
-6.238440270469112e-005 
-1.803924614563036e-005 
3.391377657705438e-005 
-1.03140092112787e-005 
-7.540732645377028e-006 
8.326890046755663e-005 
-4.463589501466551e-006 
3.19345594954979e-005 
3.014277857330813e-005 
-3.873653882018083e-006 
-4.272597927701144e-006 
1.51244180153207e-005 
-4.098481638340191e-005 
1.434373494552363e-005 
1.172121991816312e-005 
3.376027872956967e-005 
-2.775395256157813e-005 
1.111715803086412e-005 
-5.438266839433572e-005 
-7.248921505300888e-006 
8.264357431464523e-006 
-0.0001704282851719835 
1.012259745402354e-005 
-6.929932057026792e-006 
-4.604604867326035e-007 
-5.319370966779088e-006 
1.464707136979971e-005 
1.374958822068544e-005 
2.174188217089537e-005 
-3.236207565283349e-005 
4.033074410979595e-005 
-3.008079037657882e-005 
-4.462659768102426e-005 
2.421686771375291e-006 
1.054370769452616e-005 
9.049116757771578e-006 
2.158985977070309e-005 
1.736646772633552e-005 
-2.444393347088519e-005 
-3.706672154115666e-005 
2.427165880044074e-006 
-6.002284122900642e-006 
-4.244283764643766e-005 
-1.214496018340794e-005 
-1.637695982272983e-005 
-3.806869461095342e-006 
4.863888534445536e-006 
1.215486696011375e-005 
-1.878952423393925e-005 
5.054809052931964e-006 
-1.390392153201934e-005 
-3.693402880697756e-005 
1.65612681891551e-005 
-3.400946297044873e-005 
-1.476629981637537e-005 
-4.362733208329009e-005 
2.479209088572224e-005 
5.668608350796249e-006 
1.482800547973923e-005 
1.310443141868191e-005 
2.130363710245333e-005 
-3.03102162850621e-006 
4.455274602801362e-005 
-2.674431799428351e-005 
-7.424094386566908e-005 
-2.607682716812218e-005 
-9.261250740644256e-006 
-8.437018399373551e-007 
-1.316659030171333e-005 
4.628440134818127e-005 
1.016107506489851e-005 
1.055010292908016e-005 
-8.874216382752115e-006 
3.133533919641559e-005 
-2.592217395216913e-005 
-1.97854563341299e-008 
-2.049841877784188e-005 
4.886217760284216e-006 
-9.487018425802575e-005 
3.665366985235922e-005 
-1.266045887601929e-005 
9.209030856840259e-006 
1.204164168379354e-005 
3.73492530475256e-006 
-1.31780777917414e-005 
-2.979880744323322e-005 
-1.362721977370909e-005 
-5.909319923537853e-005 
2.446394361855832e-005 
-7.420949200578811e-006 
-3.506240317511476e-005 
-6.260448585590249e-005 
-4.209441063646586e-005 
3.927706910303987e-005 
-3.773750021099246e-005 
-2.716429832980731e-006 
5.804086771394066e-006 
-9.532436701843536e-007 
4.84491337484188e-007 
-1.600728358825654e-005 
1.129294257228728e-005 
-5.466140978997119e-006 
-5.988329075413377e-006 
-8.733081924880871e-006 
4.93344695821805e-007 
-2.357230818787616e-005 
-1.377072610181961e-005 
3.109083512987114e-005 
-8.443813016406839e-006 
3.45585433659117e-005 
-3.217175810426224e-005 
1.806538707791472e-005 
-8.017068328854657e-005 
-3.238108439227888e-005 
-2.480301007984104e-005 
-2.942101177602331e-005 
-1.251011894917281e-005 
-6.280014884636143e-005 
1.100661334786878e-005 
1.22811436549527e-005 
-1.37005036666209e-005 
-3.797870683649999e-006 
5.295177763817937e-006 
-6.381808149369148e-006 
8.074029967771221e-006 
-3.801225323975188e-006 
4.165870609647116e-005 
-8.141787275748009e-005 
1.869626920121302e-006 
-1.576190104062352e-005 
-6.284833337952632e-006 
1.374660980892291e-005 
1.089543512546265e-006 
-7.795473285092128e-005 
-2.8843707617291e-005 
3.20813793452273e-005 
-2.633870510677109e-005 
1.735427701101487e-005 
-3.266433183528786e-005 
1.811682485948192e-005 
-3.960801468460428e-005 
-8.115099100009929e-005 
2.712769631958236e-005 
3.035886731497814e-005 
1.743723358465833e-005 
1.559053286438506e-006 
3.67810420125238e-005 
-6.59180578765576e-006 
3.370295831367855e-006 
-6.768970343682524e-006 
7.254692327228105e-006 
3.875300448113147e-006 
4.578317089359711e-005 
9.637785995127841e-006 
1.324153427383973e-005 
-7.414134252235886e-005 
4.352190376341659e-005 
1.052215813416812e-007 
-6.210102195197306e-005 
-6.302530259165775e-007 
-1.300619225762171e-005 
1.216006634209702e-005 
2.76223445343523e-005 
-1.951077041646354e-005 
1.17844611227763e-005 
-3.019176642801607e-005 
3.87335236224551e-006 
-1.257030470592974e-005 
5.331675888128309e-006 
3.667765695186258e-005 
1.61076687584498e-005 
-7.024711464579798e-005 
-2.045600397685845e-006 
-2.095000104573784e-005 
-0.0002535372296626582 
3.58123664297726e-006 
-2.334125610937367e-005 
7.12331233451966e-006 
8.259103374109083e-006 
9.299780335179551e-006 
9.109722260967043e-007 
1.847355600287397e-005 
9.233017094480037e-007 
5.554318841853944e-005 
-6.198130878685224e-005 
1.850657078387014e-005 
2.876716234980341e-006 
2.805318070911831e-007 
-2.34164124314084e-006 
-1.681956212147777e-005 
2.0338531918713e-005 
-1.876163951832113e-005 
-1.779734858119678e-005 
-5.919359285625745e-006 
7.841198504294465e-006 
1.370146332105135e-005 
6.051001417683136e-006 
6.610103016984836e-005 
9.827446787329236e-006 
1.529007853633268e-008 
-1.417087093990358e-005 
6.539446230666489e-005 
4.644013801982266e-006 
-1.039381328863872e-005 
1.924744963066985e-006 
2.644508646686249e-005 
-5.580595023897923e-005 
1.83408250073773e-006 
1.754222680625471e-005 
-2.441320667459755e-006 
2.624244814884039e-005 
1.981951757026604e-005 
-4.335680999854118e-005 
-4.687659090517804e-005 
-5.876001166915303e-006 
6.029022959538341e-006 
1.525695429679329e-005 
-2.102616260596013e-006 
2.549561480157784e-007 
-5.440210854003618e-005 
-3.572175263689604e-005 
2.884458498148912e-005 
4.012098686213102e-005 
-2.637885469114312e-005 
-2.478077277063346e-005 
-7.415479796173812e-007 
-3.172604224486464e-005 
-6.621558281311247e-006 
1.699471236512067e-005 
-4.104142090145287e-005 
2.43685471947392e-005 
-5.939386339012038e-006 
-2.676798941462106e-005 
-3.772133693658498e-005 
3.340475976397782e-005 
4.60800770825296e-005 
4.680960347660959e-005 
1.872319916018606e-006 
-4.889091736206844e-005 
-9.448499232978088e-006 
-2.627641428918903e-005 
3.142758814330335e-006 
1.520920279897967e-005 
-1.365430005955295e-005 
-1.306333866096458e-005 
2.068380870963118e-005 
1.713569449360138e-005 
2.675174184693548e-005 
-1.791579126981178e-005 
2.740053155261611e-006 
2.196704696042402e-005 
-2.235403581578842e-006 
7.885538230436374e-006 
2.846687936979985e-005 
2.132722768217875e-005 
3.089497496995529e-005 
1.620949278753532e-005 
-1.362191414132263e-005 
-7.183739263731716e-006 
5.799845655903405e-006 
-1.724452209346672e-007 
1.223276382933882e-005 
-1.821178388978874e-006 
4.866556114223555e-005 
2.238083714189369e-005 
3.912501773085882e-006 
-5.448229003415608e-006 
1.063191320137046e-006 
-2.306031064269054e-005 
3.896787556934865e-005 
2.814353857764825e-005 
3.227799981800602e-005 
1.013062450724834e-005 
-4.244783498546374e-006 
-1.395552592602877e-005 
-1.55688392692717e-005 
1.155897224403664e-005 
-8.436551003700686e-005 
1.578119534377309e-005 
2.181575346108439e-005 
-3.120405696431208e-006 
-2.766240073120129e-005 
1.992516538649964e-005 
1.019150982299184e-005 
-5.06116582414143e-006 
1.189817152285692e-006 
2.044029228077596e-005 
5.463762549744088e-006 
3.248269630245995e-005 
-1.850071296460295e-005 
-3.330461382837281e-006 
-1.547417211168797e-005 
1.961970575388038e-005 
1.392383311783739e-005 
1.332340049475713e-005 
-8.557418616140485e-005 
-5.042831577438114e-005 
1.41916858813498e-005 
3.847992215287472e-005 
3.986804455110709e-005 
-9.245165487724097e-006 
-8.28934655455805e-005 
4.672681538739927e-005 
-7.709563503131916e-006 
-3.894590893903493e-005 
-1.969888703921126e-005 
6.817192043911755e-006 
-0.0001175910211833156 
4.516516208843033e-006 
-9.943862305152307e-006 
-2.698109555541141e-005 
-6.665198813605045e-005 
9.377455264080512e-008 
-4.163595072268567e-005 
2.535575667600796e-005 
2.468571467335643e-005 
-1.60788322630181e-005 
-4.217462954877712e-006 
6.368346737858978e-005 
6.579496791002594e-006 
-1.287840862249542e-005 
-8.238385338237735e-006 
1.173833263947323e-005 
1.174401887765264e-006 
-2.703886733985703e-006 
3.721554715183347e-005 
3.30794748340579e-005 
6.896972860660513e-005 
7.362442096188817e-006 
8.093693434708369e-007 
-7.44251676675052e-006 
1.11640690243594e-005 
8.927414558388387e-006 
-4.455011536482471e-005 
-5.704664182141936e-005 
-7.742293873836701e-006 
-2.618581651385522e-005 
-7.064964842757768e-006 
2.026772017134589e-005 
9.196233661845743e-006 
1.273549974520304e-006 
-9.399767751381448e-006 
9.983180607373501e-006 
-0.000110691696127161 
-4.330816739449115e-005 
-7.415956774321019e-006 
4.100449198449229e-005 
3.061745677354084e-005 
3.648085203564176e-005 
-1.427021338762983e-006 
-9.890211345500405e-006 
3.530373244254052e-006 
-2.6668537873197e-005 
-4.991453605417512e-006 
3.668587432860579e-006 
-2.16660624756205e-005 
-7.31727896443892e-006 
2.858514052399805e-007 
1.620525473640679e-005 
3.865958784910481e-006 
1.198605192509819e-005 
-7.625031673312625e-006 
-1.104726045806966e-005 
1.205077496216715e-005 
2.228040044988474e-006 
-2.419361153903025e-006 
-3.734324297559683e-005 
9.514925318489282e-006 
1.503243046078233e-005 
4.297770868376949e-006 
-1.259908002341434e-005 
-4.191188840843275e-005 
1.721731931833789e-005 
7.694244920777964e-006 
-3.067247080097191e-007 
5.74951776363319e-005 
9.009178260994776e-006 
3.049205129767559e-006 
-2.284371706969299e-005 
2.482112586168587e-005 
4.49283940140419e-005 
2.051395857819877e-005 
2.81005619651788e-005 
-7.726630434885466e-005 
-8.552375361834316e-005 
-1.586018874762944e-006 
-6.020384610941358e-006 
3.592528412568015e-005 
-4.547994821794921e-006 
3.929705157544787e-005 
-2.899174908363865e-005 
8.033002119355361e-005 
-1.63056096725957e-005 
2.339286924620002e-005 
6.609119402651997e-006 
-7.992927059948711e-005 
-1.198771980639997e-005 
-1.555882675483123e-006 
2.810037244163868e-005 
-3.884062179902166e-005 
-5.253475043542489e-005 
2.133698911929892e-006 
1.229892155538969e-005 
-8.424103154227232e-006 
6.071270547360109e-006 
-4.935880547714519e-005 
2.101625806756861e-005 
4.649399590415852e-005 
-2.174512494983483e-005 
2.288250707442432e-005 
-0.0001230171289767913 
-9.435350135891076e-005 
-2.785858858264782e-006 
-4.143409631315517e-005 
5.62093075919673e-005 
1.57071342556612e-005 
-1.035156776949528e-005 
3.242931122741086e-006 
5.012038870612339e-006 
2.846967381993418e-005 
1.439862827672443e-006 
-5.152778579272034e-005 
-2.393381966252428e-006 
2.210256356392431e-005 
2.03139589546192e-006 
3.205087832227947e-006 
-4.755352448244035e-005 
3.370969135119674e-005 
-3.417676114242581e-005 
-3.059938804051202e-005 
-5.083941982509199e-006 
-4.526734697493967e-005 
-2.066549036945383e-005 
-6.055336927145392e-006 
8.076844303861456e-006 
-4.443748950918549e-005 
8.846959650629032e-006 
2.101579442677836e-005 
6.937418194627251e-006 
1.212202619030025e-005 
-8.117799359969846e-005 
-2.467850316970684e-006 
3.740265271723839e-005 
-2.814156962609255e-005 
9.171127632454563e-006 
2.134070129631115e-005 
5.30053056149633e-006 
1.909489408500913e-005 
-1.037461191922871e-006 
4.825112552246227e-006 
-5.35442478634154e-008 
3.254948162580157e-005 
2.183654452006416e-006 
4.066108884915827e-005 
2.830663786468214e-006 
-4.376929693735479e-005 
5.725081340660527e-006 
1.981851641461997e-005 
-2.437018199982832e-005 
3.047176513394954e-005 
2.425660208527487e-005 
2.594801145386333e-006 
-1.344503342288777e-006 
-1.048446018758229e-005 
5.803934939386724e-005 
-1.330046122418622e-006 
1.886472988082802e-005 
1.316621440485117e-006 
-1.12639865040937e-005 
3.040329215609034e-006 
-9.02392644950739e-006 
-1.060877712222136e-005 
-4.877219979162299e-005 
-2.66200046759754e-005 
1.972508316801377e-005 
2.919353735486694e-005 
5.70145094795826e-005 
-1.545689092811031e-005 
-0.0001064006217198609 
-3.568152624021202e-006 
4.857340241577328e-005 
-5.463709579524307e-006 
-5.062624466008919e-005 
3.742440723272226e-005 
7.52190690651102e-007 
-2.247419523518178e-005 
8.045436390447046e-006 
-1.975713104877156e-005 
-2.236230996788387e-006 
1.179330320917727e-005 
-4.15267690292707e-005 
5.211373697286361e-005 
-2.48853654388098e-005 
-2.1447279010494e-005 
-4.813058565779261e-005 
2.685907394040816e-006 
9.73723214375125e-006 
5.388633980713559e-006 
5.546196322492018e-006 
-5.769586397672871e-006 
-2.020103624269908e-006 
2.049717346814914e-006 
-2.667257503792814e-005 
-2.79981373093261e-005 
-1.276792155753704e-005 
-7.639043904758139e-006 
-7.372691412805245e-005 
-2.98701472225242e-005 
7.390356293939814e-006 
-2.078467697230665e-005 
2.471777458942488e-005 
2.683729464792616e-005 
-1.070750934743722e-005 
2.028570352635777e-006 
-8.308730844127756e-006 
1.104198895030653e-006 
1.250480378367868e-005 
-9.309183644074069e-005 
-8.048007559682646e-007 
-1.192261422426177e-005 
7.015040518272584e-006 
-1.831980945808523e-005 
-4.465367657422153e-007 
-9.530702718223784e-005 
-5.017071805044949e-005 
1.619330852081082e-005 
8.938421229369851e-006 
-6.889210219886269e-006 
8.573439161989933e-006 
3.388418423273381e-006 
-2.674136466596552e-005 
-4.21762735141577e-005 
-2.452935234723131e-006 
-7.864670824237355e-005 
6.120446420450303e-006 
4.748916144134721e-005 
9.170431313632317e-006 
-3.974232607623505e-005 
-7.67000047038965e-006 
-0.000122762821438397 
-2.724762418812557e-005 
-0.0001235761124789733 
-2.878760401483311e-007 
-2.447981620748382e-005 
-5.95022423664874e-005 
1.651380923059698e-005 
6.959044838975036e-006 
3.400301081216426e-005 
-1.492408712341659e-006 
-2.246735675436584e-006 
1.243073178881222e-005 
4.560906422184825e-005 
-4.114156060005436e-005 
-5.287002959093772e-006 
-8.698059577171453e-005 
-0.0001134910565539627 
2.230352147048075e-006 
-1.256243992363358e-005 
1.027648392783251e-005 
-6.788533850965023e-006 
4.576210303702742e-005 
-4.268287740521679e-006 
1.332942933446233e-005 
-3.149682066616119e-005 
6.207735019447311e-006 
-4.353182002609337e-005 
-7.116779179775829e-006 
-2.095051822571642e-005 
8.525021768182679e-006 
1.863615263252402e-005 
-6.849346872292749e-005 
-3.80246123747719e-005 
-3.507709838818478e-005 
-2.510676696128678e-005 
-1.745806649077076e-005 
-2.37376353033457e-005 
-3.324827050529379e-005 
-7.445876206741666e-006 
-4.035691924376362e-005 
1.38519309715752e-005 
-2.312021012259964e-006 
7.516700727829381e-005 
-3.796421077977743e-005 
-1.410928477290107e-005 
-6.106887310431851e-006 
-1.435789543863012e-005 
-7.329350483183769e-006 
5.415332032085722e-005 
2.067289867398394e-005 
-3.328729953147387e-005 
-1.626656557647314e-005 
-1.242388391556675e-005 
-5.877004291481779e-005 
4.453984125813751e-006 
3.173614319570032e-005 
2.807696831729281e-005 
6.206055657234874e-006 
-2.116321861204329e-005 
8.832504991358005e-006 
3.888153062577671e-005 
2.503943304336964e-005 
2.872532690717451e-005 
4.107627357895562e-005 
-7.029365771006427e-005 
-2.849237170047194e-005 
2.968635948103042e-005 
3.426528081728068e-005 
1.402957857763448e-005 
-1.873702160251656e-006 
-6.591507183461774e-006 
-3.07309663854168e-005 
-2.53880093990445e-005 
-3.2037988239095e-005 
-1.49289345759702e-005 
3.782511725535728e-005 
2.290407249042784e-005 
-5.016227624693614e-006 
-2.337513687046622e-005 
3.693788880675072e-006 
3.106261514410107e-005 
3.899632466000249e-005 
-3.182315895026983e-005 
4.413589342148016e-005 
-3.412676967058577e-005 
-4.171445926365138e-005 
-1.774043231321926e-005 
-2.285648217996945e-005 
-2.9198996053458e-005 
-1.345169661247644e-005 
-3.058348821368597e-005 
-1.077628744764491e-005 
-7.284423526751413e-006 
2.997577161653052e-005 
4.6645721263254e-006 
-6.052363317010002e-005 
-3.835020134599971e-005 
3.023018684215605e-005 
2.903896085167135e-005 
7.85156718947295e-005 
-2.196907500761357e-005 
-1.942972576720468e-005 
-6.455442813709623e-007 
6.169734485529225e-006 
2.187996500048461e-005 
3.405098746104779e-008 
2.220074082952357e-005 
-3.239285402555731e-005 
-9.060061373218324e-006 
-3.441490132529554e-005 
4.348175583400454e-007 
-4.540724048181202e-005 
-1.221577828213306e-005 
6.228160709876171e-006 
-2.682700601298327e-005 
4.439726822156387e-005 
-5.734925101131509e-007 
1.228941384216799e-005 
-1.202362888521138e-005 
-3.352022409131475e-005 
3.614223983078219e-005 
-1.33836414346205e-005 
6.661428842529892e-006 
-3.639560344324132e-006 
6.134640260744457e-006 
1.109742451461137e-005 
-1.043343418903693e-005 
4.38781589665282e-005 
3.234481764260669e-005 
-3.564828871209631e-005 
1.260086346940003e-005 
-6.871605673206654e-005 
-7.632880831301827e-006 
3.689805594208911e-005 
1.034694815797169e-005 
-1.872179014137981e-005 
1.054482071600429e-005 
1.207293683566988e-005 
-6.001760918809606e-005 
-1.337856486904398e-005 
-4.556899419327462e-005 
-2.332223731792517e-005 
-3.266737349015921e-006 
9.756747932146797e-006 
2.760715484678663e-005 
1.395264886019061e-006 
7.615497921939231e-006 
-0.0001371235150280913 
-5.851396213325652e-005 
1.573835839608336e-005 
1.91753401925531e-005 
-4.879010341795957e-006 
4.611133351538212e-006 
3.640181661294212e-006 
2.219349676871938e-005 
-7.700801495356382e-006 
-1.332222099720882e-005 
-2.389798615613118e-005 
-2.318760390741472e-005 
2.150089733074452e-006 
2.267547594837398e-005 
2.730064611254563e-006 
-8.82755788907047e-005 
-5.311498816033243e-005 
2.929568193769721e-005 
-1.246505803454855e-005 
2.676080711467866e-006 
5.273306339766372e-006 
-9.828335712945759e-006 
-3.272491337974993e-005 
0.0001167732104780578 
8.423029589281397e-006 
4.172874210950688e-005 
-1.259874575450243e-006 
1.74646837281874e-005 
-2.127678770107079e-005 
6.072869523728423e-005 
-7.05238841038651e-007 
4.246625311276307e-005 
1.497257141269948e-005 
-4.154170172365274e-006 
-4.358775275152359e-005 
-1.801296285681802e-005 
5.31330640410142e-005 
-2.915836364473895e-005 
1.522433062134911e-005 
-3.377767305327432e-006 
-2.425607506158537e-007 
1.906601181273866e-005 
-2.782440822482076e-005 
2.092878634154948e-005 
4.747830165643718e-005 
-9.664579649636774e-005 
-4.230454209264554e-005 
-1.123255425942616e-005 
2.401258991013796e-005 
-3.007998495218987e-005 
-4.571284394181338e-005 
-6.12074841369437e-006 
-1.372574229501095e-005 
1.708479084518856e-005 
-2.323788401618086e-006 
-7.460686234715911e-005 
1.257064392844525e-005 
4.445956628035465e-006 
-0.0001015208408367257 
1.241341004664665e-005 
-7.768973001456318e-005 
-3.911073077536199e-005 
5.35172440392856e-005 
-6.523237033725948e-006 
-5.504273649892275e-005 
6.708169755249225e-006 
-2.496087320001853e-005 
2.765955844678574e-006 
1.164402615903927e-005 
1.070587730764127e-005 
3.384956205860511e-006 
1.667284917935781e-006 
-1.937085112854685e-005 
2.045035664657735e-005 
8.58144540631388e-006 
2.645325210926619e-006 
6.423859109304278e-006 
-5.558442187744676e-005 
5.072689771445323e-006 
3.863755022823742e-006 
-4.902743658154647e-005 
4.266469261604947e-005 
7.174028249341144e-006 
-3.469263380644675e-006 
1.692456530537293e-005 
1.533325343894154e-005 
-1.085535538872218e-005 
2.563541743782692e-005 
3.307808338276634e-005 
1.759216495978392e-005 
2.490775145247604e-005 
3.767119768274414e-005 
-3.497868454810525e-005 
-0.0001260005255375669 
-5.120803867462033e-006 
-1.327183692348415e-005 
-9.432786368564326e-005 
4.229217725116125e-005 
-9.569256025044823e-007 
2.15123249639858e-008 
9.898137589859993e-006 
3.048194597198769e-005 
-2.541462477858236e-006 
7.724275835176222e-006 
5.453897960610755e-006 
-5.701163849731416e-006 
7.494289693562908e-006 
2.478858224767334e-005 
-2.143068428357092e-005 
7.845854743280423e-005 
-1.299947219567462e-005 
3.492245131796272e-005 
-1.775548866822704e-005 
-4.155444661539448e-005 
-5.337862412792372e-005 
-1.199516715818444e-006 
-1.557096652718622e-006 
4.308751805539181e-006 
1.308023066243343e-005 
3.392699974356136e-005 
2.621998647885531e-005 
-8.888195945627377e-005 
-6.615199238500154e-005 
3.318648984264765e-005 
-7.575191506819796e-006 
-3.959807609660188e-005 
1.933621474622045e-005 
-5.74225506784377e-005 
-1.055370536490311e-005 
-1.085462798634011e-005 
-7.192347501990182e-006 
-1.44238629796827e-006 
1.257727393317823e-005 
-4.397109228044748e-006 
6.971465480937928e-006 
1.652407525349137e-005 
-1.649179908201979e-005 
-2.427061215058847e-005 
7.439228167681793e-006 
-3.202771308980725e-005 
8.62760866097881e-006 
-0.0001390305810541473 
2.772369028243782e-005 
5.148573311952966e-006 
-1.554805676367746e-005 
6.64735691271552e-006 
1.139032331513273e-006 
7.267378732172759e-006 
-3.170930588694382e-007 
3.538578197349041e-005 
-5.930171191350485e-006 
3.867688196171205e-005 
-4.908024026445196e-006 
4.351749584711562e-005 
-4.079880151433957e-007 
7.030549203085837e-006 
-0.000139505416557374 
-2.080645429072096e-005 
-9.739076325916829e-006 
-4.160641730971928e-006 
-5.69478123449957e-005 
6.602498605515875e-007 
-1.313640838422663e-005 
7.616276970259076e-006 
-3.337626406428654e-006 
-6.742409153280484e-006 
1.64234271598939e-005 
-1.424256936465428e-005 
-7.907441938179676e-006 
-4.097068770334407e-005 
-1.879602706080518e-005 
9.161928208923778e-006 
-2.626086174236474e-005 
-0.0001080626668750489 
-8.372185640201101e-006 
-3.893239780577909e-005 
-1.828736759903525e-005 
1.738552769483817e-006 
-4.358324269929149e-005 
-1.061896383866134e-005 
1.717003879336301e-005 
-1.73993008353688e-005 
1.980408567293827e-005 
-6.63004091441393e-005 
-3.070213299295315e-005 
-4.279321357529892e-005 
-7.629662675544664e-006 
1.412828138958648e-005 
-2.08225188891261e-005 
3.455505314260955e-005 
1.039108280547582e-005 
-1.725533686513695e-005 
1.659597377899585e-005 
1.601110944360547e-005 
1.819834688429058e-005 
2.664355135275534e-006 
1.980427350129818e-005 
-4.212821024465562e-005 
2.02452067202061e-006 
-1.094055276200124e-005 
4.769858707941801e-006 
3.294906652276809e-005 
3.176614467007373e-005 
1.340970117225851e-005 
6.926202136425927e-005 
2.771330193283601e-005 
9.621628069718134e-006 
2.339784582962085e-005 
7.259350073540887e-005 
-3.2350012056998e-005 
-0.0001092049282016989 
-2.230823492138201e-005 
-3.163528450250499e-007 
3.431511267590134e-005 
-1.746247748856531e-005 
5.796623984410152e-005 
-1.522796186993064e-005 
-0.0001122400124139083 
-5.44379899671618e-005 
-8.656282301820353e-006 
1.32813541223284e-005 
3.383451519130446e-005 
-7.198849825818496e-006 
2.137990570476494e-005 
-3.429839041388953e-005 
-3.12891828708826e-005 
-3.392635045294114e-005 
-5.131800449996259e-005 
5.655079661610632e-006 
5.450795173440524e-005 
1.22555390307874e-006 
-6.48842177556151e-006 
5.586961329194617e-007 
-2.696768968360578e-006 
-3.732062024617969e-006 
-2.559140116667128e-005 
-6.777645501005339e-005 
5.984893984163696e-005 
5.564701182246039e-005 
4.943102380649385e-005 
4.314439384171325e-005 
3.728493223578096e-006 
1.378017666116154e-005 
-2.900629552472582e-005 
1.826955025656211e-005 
-9.78886503068246e-006 
-3.170720308046587e-006 
-9.621559224822955e-006 
1.433042145971117e-005 
-1.443609515242047e-005 
7.887503223935953e-006 
-1.85340160926147e-005 
-8.48513759576915e-006 
9.933855215953266e-006 
1.016262531612384e-005 
-1.605355953490574e-005 
2.879528749662238e-006 
9.58334586023422e-006 
-1.550221454125218e-005 
-1.40198704775161e-005 
-5.563923954310995e-006 
2.697331381423911e-005 
-5.058347625616996e-007 
-7.810825679579072e-006 
-8.44199719945903e-006 
3.005002306512907e-006 
-3.127444664712092e-005 
2.952805674414825e-005 
7.072310123710431e-005 
0.0001030959152310012 
-1.049435352308282e-005 
3.006444060510236e-006 
-8.022885797526817e-006 
2.662284501523104e-005 
-2.644315599242514e-005 
1.444758459388393e-005 
-1.636264839836614e-005 
2.026709204432787e-005 
9.405870899173174e-006 
-4.819581846841224e-005 
-1.373220580327111e-008 
-8.938805617390193e-006 
6.608943979267676e-005 
-3.56683367851176e-006 
8.741641778473615e-005 
5.207573602032596e-005 
5.576218910220527e-005 
-4.359021696930385e-005 
2.498300975892394e-005 
-8.280452319262874e-006 
7.926262675273378e-006 
1.866916341069077e-005 
1.882103138765191e-005 
-0.0001364132466967399 
5.416020409078215e-006 
3.712377053182129e-006 
-2.94402847452876e-005 
-2.829449354610259e-005 
-9.033525862988167e-006 
-5.366849782403959e-005 
-2.473367915119508e-007 
7.798291326364567e-005 
6.10977644599126e-005 
9.978399901683696e-006 
-5.019216710697233e-006 
-4.274177035045835e-006 
2.075605589057588e-005 
-1.190017338708863e-005 
5.841488152049292e-006 
8.795353189839262e-006 
-2.312021372557309e-005 
-4.184402771915075e-005 
-8.294688645314636e-007 
-1.279840491589899e-005 
1.370316381242508e-006 
-2.169500671315236e-005 
-4.322782120155801e-005 
-4.450073652361812e-006 
-4.850249597009132e-005 
-4.966845649560664e-005 
-1.632137620887557e-005 
-3.711633038855288e-005 
2.033709809639787e-006 
-1.186239733435962e-005 
-3.16940353800301e-005 
3.240167101537033e-005 
-1.743811738411881e-005 
3.630087014561396e-005 
2.888610564461991e-006 
-1.642869780457704e-005 
-1.788893997300014e-005 
1.578726599432375e-005 
5.773614488502607e-006 
3.904161620785842e-005 
1.46500581283718e-005 
-3.781258185755464e-006 
1.211374737044878e-005 
-1.079968920719947e-005 
-6.124100187889413e-005 
-2.669671593120415e-005 
1.045502266748703e-005 
8.444510996855241e-006 
-3.565149966971591e-006 
-1.627292321938117e-005 
-2.563256724682786e-005 
-1.602720449269938e-005 
-3.330829059191395e-005 
-4.364086739174405e-005 
7.489695305643502e-005 
-0.0002522963152535351 
-0.0001281582734194107 
1.415102215367669e-005 
1.204580401497477e-006 
1.376509133963196e-005 
4.443492262082177e-006 
-1.447211517256019e-005 
2.876907637949352e-006 
-8.618259307218907e-006 
5.567171540885874e-006 
-7.288499050820805e-005 
-2.817312305113968e-005 
8.130017447193887e-006 
1.94837951994317e-005 
-5.042710548373374e-006 
-0.0001334075574807169 
-0.0001080111696541964 
3.580199508419001e-005 
1.820164601683923e-005 
1.973120257158799e-005 
-2.365857588420134e-005 
-4.038296533157532e-005 
-1.327447898193363e-006 
-3.634730544432907e-006 
-3.373199061117121e-006 
-1.516241436299451e-005 
-3.355980772454175e-005 
-1.235057738212989e-005 
9.18016983791183e-006 
-1.411636784196653e-005 
2.89670169049591e-005 
-0.0001175239369448496 
-3.89008696509116e-005 
-1.255138309923254e-005 
-8.794705777194121e-006 
1.823916215571057e-006 
6.259825182538383e-006 
-4.119185427000686e-006 
1.585659886393043e-005 
5.21966394292742e-006 
-9.931208032489623e-005 
1.667447948217206e-005 
1.327155402481699e-005 
-1.424819917556823e-005 
-7.482516079114903e-005 
6.531509399358509e-006 
-3.075556634751361e-005 
-2.822195565499072e-005 
-0.0001745715771239536 
-3.050475798148063e-005 
-3.476376923648312e-005 
-1.691279570898907e-005 
5.439748619101323e-006 
7.196456389399771e-006 
-3.043673816049639e-005 
4.488543710650689e-007 
-3.623512639965803e-005 
-3.677980211493118e-005 
-1.536613642953807e-005 
-5.080260939381456e-006 
-6.861811004242158e-006 
-5.511643030152053e-006 
-1.979934973955309e-005 
-0.0001112710259525237 
3.356828915070844e-005 
-3.299080459154903e-006 
-2.497927544922681e-005 
6.729140593791026e-006 
3.954643115675083e-006 
-2.50957699771334e-005 
1.225221208515526e-005 
-2.775931263579185e-006 
4.5902685695781e-005 
3.913360704491085e-006 
2.255206846016475e-005 
-3.186584591878528e-005 
2.681334125446625e-005 
1.078740180980293e-005 
3.324191981335522e-005 
2.643050494851544e-005 
6.200605196387503e-006 
8.06436920704241e-005 
-6.640758590090722e-006 
2.609775228518457e-005 
-3.517190004534578e-006 
-3.398148876342353e-006 
1.829438707871505e-005 
4.740834364459154e-005 
-8.021920544520061e-005 
1.449782005331136e-006 
1.863094580960396e-005 
1.729974115905911e-005 
-9.831148275118401e-005 
-4.814674960452318e-005 
-1.245764228175023e-005 
5.06644965236149e-005 
-1.264635566757587e-005 
-2.655204179676674e-005 
-2.350816740841562e-005 
-2.571662766863277e-005 
-2.854485713738639e-005 
1.409856889274186e-005 
1.764821826297863e-005 
2.571173514296979e-005 
3.04329136109212e-005 
6.670273401713408e-006 
3.323439559473183e-005 
-2.017462317177493e-005 
1.432762368101119e-005 
-4.209908845260215e-006 
-7.236769662352619e-005 
-2.297445650637266e-005 
-7.727299115693218e-005 
3.397310195256948e-005 
-8.242620347405695e-005 
7.061324182534574e-005 
5.018875164147081e-006 
-0.0001023090889062018 
1.534790926272829e-005 
4.492518438227965e-005 
7.970843359404415e-005 
-3.727387845847639e-006 
-4.085370571556004e-005 
4.927311160310968e-006 
-3.780497861722697e-006 
-5.526953490079144e-005 
2.056137267048583e-005 
-3.140828932665122e-006 
-0.0001051894501399865 
1.199072495460216e-005 
-7.183289669668418e-005 
1.874331309268348e-005 
-1.847821227493547e-005 
6.112921622908804e-005 
-9.722150477475891e-006 
1.320729819935164e-005 
-6.122723118157657e-006 
-7.025596872749773e-005 
-2.001204654588929e-005 
-5.599279135726486e-005 
-2.337802397674736e-005 
1.791598548262431e-005 
2.123208642758237e-005 
4.108352421356937e-006 
1.169870713349735e-005 
-5.665794346725722e-005 
2.406501491935085e-005 
-1.413036287000012e-005 
-1.863880815396364e-005 
4.931975079261905e-006 
4.677489890736314e-007 
-1.948645291903755e-005 
2.5371840689494e-005 
-1.328249733737611e-006 
-1.805402295887332e-005 
2.903252293549598e-005 
-4.333505069713118e-005 
-3.1884654674943e-005 
-1.669963716102709e-005 
-0.0001544782514643445 
-1.689440776755453e-005 
1.369760312663724e-005 
-3.697864677532761e-005 
-0.0001226747946476915 
-9.22902401505101e-006 
5.109681533812097e-006 
7.150804260988221e-006 
1.80367480784126e-005 
-1.701248393899559e-005 
-2.26886135919829e-006 
9.941740637776096e-006 
7.823189864443088e-006 
-8.791430911647537e-006 
-5.286656495941855e-008 
1.02908497177499e-005 
2.07642924544053e-006 
2.995373035626002e-005 
-2.098828568067477e-005 
-5.860741695713138e-005 
-2.66087785300301e-005 
1.56886370621313e-005 
-1.566681023658871e-005 
5.557285742255509e-006 
4.108437287810936e-006 
-1.644219562999615e-005 
-1.147454955202196e-005 
2.713260525847353e-005 
-1.492383107685494e-005 
-2.24387098529838e-005 
4.434503924552009e-006 
4.234529897029493e-005 
5.868099986853607e-005 
-4.829978399706609e-005 
-7.83771429103413e-007 
-2.835578474551766e-005 
2.658304219335038e-006 
-0.0002033745752864998 
-3.403794001676457e-005 
6.543394843743294e-006 
3.239526813356737e-005 
2.381737906751949e-005 
-1.122594776131749e-005 
-1.108524547971319e-005 
-1.825533809214831e-005 
-4.813789797774247e-005 
-7.496888559923065e-005 
2.388285429177997e-005 
-9.784459541802454e-005 
-9.237963721202719e-005 
-2.96955306353331e-005 
-8.704163488300906e-005 
-2.496181189836574e-005 
-2.492126535832729e-005 
-3.693158220793912e-005 
1.124557785146554e-005 
7.207188057188631e-006 
-1.166159629101766e-005 
-3.750088535320875e-005 
-4.083300435338334e-006 
-2.530646389962398e-005 
-1.388958328693771e-005 
-4.808657334010913e-005 
-2.769836253918858e-006 
-0.0001933113728131527 
-2.453703943963954e-006 
8.358181600105752e-006 
-7.89335718991373e-005 
-0.0001706945475414995 
-6.194377157916611e-005 
1.42236188741115e-005 
-2.637226238300761e-006 
1.106320181395692e-005 
-1.699435662021562e-005 
-3.669876167044383e-005 
-8.569139262155365e-006 
-5.850389342157717e-005 
2.854186758537199e-005 
-2.443465431922862e-005 
1.936400409833402e-006 
-7.54079180543761e-005 
-3.515974880904002e-005 
2.354044657776104e-005 
-2.758619730729153e-005 
-6.170214363411939e-006 
2.898063135686231e-005 
1.085411410197852e-005 
-9.745566447990146e-006 
1.126393155904862e-005 
-2.783193788608853e-005 
-1.753465497684783e-005 
1.281490349109081e-005 
-7.072886238064269e-006 
2.779676547124948e-006 
-2.204344227517652e-005 
-4.955077571248737e-005 
-9.270885147746007e-005 
-2.367228844871936e-005 
-7.997266331107016e-007 
2.033372496412281e-005 
1.761761572898808e-007 
-2.046678382753265e-005 
6.668285789666214e-006 
-2.157905607717794e-005 
-5.806472780784763e-006 
4.679938556403928e-007 
-1.19809821239552e-006 
1.593806129243377e-006 
-5.649360993151075e-005 
1.755877798238917e-005 
2.174905684285475e-006 
3.541529411646746e-006 
-3.942276082146488e-006 
-6.395626316703818e-006 
-2.071710736184007e-005 
-1.886884787452749e-006 
6.615810119318464e-006 
5.817328814969737e-005 
-2.213515958105882e-005 
4.843487131617655e-006 
-2.971764070447141e-005 
4.169522446367145e-007 
-3.112624472094422e-005 
4.648162116683947e-006 
6.719868616378933e-006 
-1.366993644910752e-005 
6.657949406998939e-005 
2.421629037539968e-006 
-7.976275550890534e-006 
-5.926038043712894e-005 
2.146126700759223e-005 
-2.60900832684471e-005 
-4.942802698079303e-006 
-1.93628143589689e-005 
6.65586744096225e-007 
-7.238505724169669e-007 
7.968304509907467e-006 
-1.627572761585432e-005 
2.055211012025255e-005 
-1.448579099650748e-005 
4.225873690340812e-006 
-1.168635730513889e-005 
-4.487294195675095e-005 
-3.366703167749516e-005 
-4.369148278863909e-005 
-0.0001227409529034364 
-4.940886678969658e-006 
3.842201323314635e-005 
1.909824106618894e-005 
3.267526425913285e-005 
-4.85660978242955e-005 
-2.099484766376528e-005 
-6.802563485967336e-006 
-5.531753833919458e-006 
5.798843232612032e-006 
-1.548328594293208e-006 
1.635745440729173e-005 
4.233810019680933e-005 
-5.2572460435401e-006 
-1.598540653057727e-005 
1.002258117243845e-005 
-6.159557415867417e-006 
-2.669641699975763e-006 
2.071301421759099e-005 
6.861630906453709e-006 
2.179541016771682e-006 
1.597469871003597e-005 
2.148118569445349e-005 
6.490654574427388e-006 
8.972993725591619e-006 
-1.513046358454601e-005 
-1.169298694632076e-005 
-3.053306800752771e-005 
4.034489370327929e-005 
-2.247449314327407e-005 
-2.500095545705893e-005 
-1.400443646497557e-005 
3.829416795806195e-005 
-3.114111712642257e-006 
-6.722262193993705e-005 
6.101375798879849e-005 
-1.544301773097695e-006 
-1.898276646410225e-005 
-1.152496153412414e-005 
7.692648660773578e-006 
1.281195065769181e-005 
4.581323547599587e-006 
2.218166997245599e-005 
-1.704647777278945e-005 
-1.65435444047341e-005 
-2.540677343379557e-005 
3.101682044330774e-006 
1.136132368091772e-005 
2.042302461272847e-005 
-2.527272857002015e-006 
-1.983683374188542e-005 
-0.0001007014052293386 
-7.42283889282159e-006 
-9.004932698093831e-007 
-2.91836428225176e-005 
-7.503254576827948e-008 
-1.321310333352514e-005 
7.530470372699712e-007 
2.217642409798212e-005 
-2.926044750025364e-005 
2.257607811100171e-005 
1.468222429918753e-005 
4.001977038352871e-006 
2.112895211571297e-005 
-2.478866369746029e-005 
1.793208597598891e-005 
-2.648173927695128e-005 
5.582958099272595e-006 
-8.89035648961748e-005 
-6.45450258763273e-005 
9.33173266023392e-006 
-2.603768351678511e-005 
2.480018079376332e-005 
-1.269965932252552e-005 
5.274759090208481e-006 
-4.749514221834814e-005 
4.916592974560704e-005 
-3.544506198254072e-005 
-6.211256602069064e-006 
4.065932038753395e-006 
-9.606216764732532e-005 
-0.0001690975997722784 
4.481370158831867e-006 
-1.999884146309718e-007 
-1.893300271765407e-005 
-2.789104651967761e-005 
-1.01543109878053e-005 
-5.195144852339149e-005 
3.553237072905656e-005 
-4.076771009855432e-005 
2.298055633369186e-005 
8.369407738605031e-006 
1.30337943733843e-005 
-2.290648256324117e-005 
1.341402699419758e-005 
-1.084095057388019e-005 
2.921231419977636e-005 
-6.748509959729529e-006 
3.636543154278222e-005 
2.867617582664989e-005 
-3.83860286435258e-005 
-6.657396393775596e-007 
-3.026761645959625e-005 
-5.531127568095918e-006 
1.474291870691521e-006 
-3.108607067609696e-005 
-1.147534348108104e-005 
-2.920118663165413e-005 
-5.119476912682799e-005 
-4.506926145712581e-005 
-2.597324382433102e-005 
-2.533164446434818e-005 
-3.6333702460138e-005 
8.299808204484574e-005 
-1.419449748150773e-005 
1.150494603080773e-005 
-4.319464236111868e-007 
-2.591926214062039e-005 
1.2387642515565e-005 
8.264906591091506e-005 
3.763346911959958e-006 
5.557936821516861e-006 
1.474027378732299e-005 
7.914533178569408e-006 
-1.751539838501026e-005 
8.25305451552488e-007 
-8.235912894263082e-006 
6.453666099262223e-005 
-4.918550489508046e-006 
6.666546256238446e-006 
1.427985353803438e-005 
-1.610580144821105e-005 
-2.762989787343338e-005 
-3.770633769660035e-005 
-4.192387938227738e-006 
3.648210383921582e-006 
6.216775203862766e-005 
-1.574762928592817e-007 
-8.356522683128122e-006 
-6.68073751497654e-006 
8.758448397413536e-006 
-3.9426581168749e-005 
1.100522533987152e-005 
-8.991730172234253e-006 
-2.559466567291166e-005 
-3.97542459579399e-005 
-4.883091300402837e-005 
-3.024506492699414e-005 
-1.35498258969649e-005 
-5.391541956379258e-005 
5.18580131389005e-006 
-9.287207363659722e-006 
-4.088533823477328e-005 
-9.49468615942161e-006 
-8.880303485262941e-005 
-4.793467929679237e-005 
-1.669073191520108e-005 
-6.068938700566282e-006 
4.455116809142205e-005 
2.579305386197321e-005 
1.806836105580157e-005 
-3.526145061063355e-005 
-9.550935856401131e-006 
2.411812605537579e-005 
1.754825972328837e-005 
5.253364955908537e-005 
1.6949822862594e-005 
-2.832688238946854e-005 
3.457147583070977e-005 
1.778403472254967e-005 
-9.001983811814933e-005 
-2.164584729430105e-005 
1.827095925371977e-005 
3.091208040952204e-006 
-3.783601266570863e-005 
-0.0002099290010087796 
1.149594499770325e-005 
-7.66110559072874e-007 
1.170147432542516e-006 
-8.130164404598205e-006 
-3.889277428108739e-005 
-5.384600315160008e-005 
-2.228180035335343e-005 
-5.053449312555832e-006 
-0.0001686159310331608 
-5.954616530612918e-006 
-7.02799491068335e-005 
1.054468283253413e-005 
-1.496162480401766e-005 
-2.016694758623684e-005 
-7.621496523216522e-005 
-4.006539254218033e-005 
9.983512569625166e-006 
3.555126087477941e-005 
2.689908763016241e-005 
5.137190505782085e-006 
3.580766598154477e-005 
-0.0001375196326743648 
-3.353489652030264e-006 
7.480004211428803e-006 
-1.378482648794116e-005 
-6.363554759665304e-006 
2.743869790730395e-005 
2.678175489124838e-005 
-2.684314837180323e-006 
-1.598833440642876e-005 
1.913066949352283e-006 
-4.404034004703569e-007 
-8.987292153549407e-005 
-4.50231342534654e-005 
-2.332744488184105e-005 
1.653465911686253e-005 
-3.738672861809664e-006 
-4.224666858347478e-006 
-8.299241248195027e-006 
-3.247124075035922e-005 
-1.793970957952611e-005 
-9.337376766853247e-007 
-9.562206767275614e-005 
-3.975297917100209e-006 
5.000453634905281e-006 
-3.089601605979764e-006 
-3.803285398553987e-005 
-0.0001072119193545953 
-4.10500591010578e-005 
3.771055467557882e-005 
-2.479968912268182e-006 
3.652153129316639e-005 
-1.798029506749093e-005 
-0.0001546113189382651 
1.50587046789752e-005 
-2.302434204395989e-005 
0.0001213094928922759 
-1.582899630081066e-005 
-1.896912868678003e-006 
-1.367393801580128e-005 
-4.173580390188121e-006 
4.113333746348079e-008 
-3.586468976807322e-005 
-8.147779476196363e-005 
-1.044917613284128e-005 
-5.387384419336283e-006 
4.074601688316275e-005 
5.450798823880814e-006 
-1.670387180348217e-005 
4.74355456792945e-005 
1.043537950749787e-005 
4.510537725695873e-005 
3.699880067151895e-007 
1.620335157680292e-005 
-4.562836461994306e-005 
-9.266068189258074e-006 
2.903833360999123e-005 
7.973145907340224e-006 
-1.353511885301569e-005 
2.188813325112164e-005 
4.444420665572413e-005 
-2.774808065594332e-006 
9.841940625853271e-006 
9.095938636056403e-007 
2.164567426743593e-005 
7.289468812843031e-005 
-1.277161256765098e-005 
7.624942506432732e-006 
-0.0001087562576139313 
8.792825679765111e-006 
8.146674768815714e-005 
1.287061526641975e-005 
-2.306641623582916e-005 
9.365196327473341e-006 
-8.653888764466904e-005 
-5.081644416554434e-005 
1.098238009477723e-005 
4.636521781734514e-005 
-1.158831181930333e-005 
1.945683630121307e-005 
-1.726979349247822e-006 
-2.165724397062955e-005 
-2.258651724334467e-006 
6.208251827842944e-006 
0.0001342941809358353 
1.998883502040122e-006 
-0.0001387740722999515 
1.934810888761635e-005 
3.011302872024893e-005 
2.23864108636434e-005 
4.551254945463361e-005 
-6.791826074550186e-005 
-3.913702239776366e-005 
0.0001082508606339378 
-3.453376648919289e-006 
2.017047592778458e-005 
-3.838792217571369e-005 
2.826244237515248e-005 
1.478045623545642e-005 
5.896429656587943e-005 
-4.332849283624431e-005 
5.384175145849707e-006 
1.309758766614096e-005 
-1.129962299900805e-006 
-3.708339602489049e-005 
8.165790507251786e-006 
-1.566017067300471e-005 
3.408486864354161e-005 
-3.857329693942473e-005 
-3.764490949267564e-005 
8.016843737685061e-006 
-5.690007112729505e-005 
1.313675591068975e-005 
-2.252751763814003e-005 
2.673382803849418e-005 
3.226019955639092e-005 
8.864148648390724e-006 
-1.541075636873336e-005 
5.736432620356111e-005 
-1.590070898713161e-005 
-5.438467579977414e-005 
-1.346318551405698e-005 
-5.790921407438397e-006 
7.015848761274401e-006 
2.326051459513997e-005 
-1.906968040443772e-005 
-2.205245299155894e-005 
-9.952915292477502e-006 
-1.1586201694388e-005 
3.487038897388307e-005 
2.879703944146235e-005 
1.387030951928871e-005 
9.07166028005593e-005 
1.393678323501118e-005 
1.345787326698898e-005 
-1.671721313261257e-005 
-6.619243234588503e-006 
-1.000493185565578e-005 
2.807223822505019e-005 
1.237940775671675e-005 
-9.761825293660181e-005 
-7.46863833196339e-006 
-5.527846715853628e-005 
6.374145247667859e-005 
3.495190172274667e-006 
-2.672245861066458e-005 
-3.689612730979967e-005 
-9.252959517885306e-006 
-1.640025235153565e-007 
1.408859491146125e-005 
1.140822467844449e-005 
2.002822216756267e-005 
-5.147431648029056e-005 
2.539098945652453e-005 
-4.399766031336637e-006 
7.33466381904962e-005 
-2.38738312414806e-005 
-2.630414953210033e-005 
-1.019626556254169e-006 
-7.609094144341971e-005 
-0.0001653435273270671 
-2.072499819692023e-005 
1.762462475908513e-005 
-5.050847154382855e-005 
4.883548582876623e-006 
6.711398488363689e-006 
-5.915570634807235e-006 
-4.039385615589814e-005 
-7.156813523724167e-005 
-5.416741025706715e-005 
-4.56681615350482e-006 
-9.173786215779642e-005 
-4.705328892970282e-005 
8.402102741614816e-006 
-4.790468944791196e-006 
3.881497381574587e-005 
8.093583104451278e-006 
-2.841560060567477e-007 
-8.24796682590895e-006 
1.829227305142508e-005 
-6.19012654843992e-005 
-2.236622009658269e-005 
1.814337778625788e-006 
-5.191299081758952e-006 
-5.171255625202041e-005 
2.80004318249637e-005 
-3.867097650116042e-005 
-7.818890006409937e-005 
2.419551241810078e-005 
-1.028601339126024e-005 
-1.019073840777702e-005 
2.043408069800543e-005 
-3.613609155196379e-005 
-1.358557719197383e-005 
1.63506789134945e-005 
-2.274290332718294e-005 
2.678161522537689e-006 
-5.691386098848014e-006 
-1.263294105850929e-005 
2.400260640078587e-005 
6.62470263611063e-005 
-1.63539786645178e-005 
-2.540416577997295e-005 
5.076607784210187e-005 
3.070452352433752e-005 
-6.021104895150084e-005 
4.024949105938947e-005 
1.939956177800188e-005 
-7.660755188482086e-006 
-4.383736029691116e-005 
1.835336492841128e-005 
9.43070504289828e-006 
1.792398897680447e-006 
4.694624133756406e-006 
-2.655978232750966e-005 
4.445512790212315e-005 
2.385939361107527e-005 
-6.125779207086019e-006 
4.323357736777582e-006 
-6.845432535830739e-005 
7.141192691402854e-005 
-6.021970777359775e-005 
1.57133711916299e-005 
-7.180396350289528e-005 
-2.013814511588994e-006 
4.238804570932551e-006 
1.220921269593051e-005 
-1.132090036996268e-005 
-2.168212157374779e-005 
1.191140847035538e-005 
1.823407555497957e-005 
9.500904165334319e-006 
-2.683476540384298e-005 
9.460961298769958e-007 
-1.600711021426673e-005 
3.843841058623119e-006 
-2.009804026889242e-005 
-2.346637610558978e-005 
-4.595062797322406e-005 
1.337815958487366e-005 
-6.562325169190155e-005 
1.055392687829449e-005 
2.33641698914946e-005 
-1.796317162409091e-005 
-8.820058649076703e-006 
-1.141643727406191e-005 
4.951057379745575e-006 
-1.235776812061018e-005 
6.093175063633469e-005 
6.034431826805382e-006 
-1.352259375049992e-005 
5.554556860259872e-005 
1.512530670314883e-005 
1.836224271800274e-005 
-3.987050739176789e-005 
2.689274058412296e-005 
2.880572287298924e-005 
2.133535265405864e-005 
1.496707829440818e-005 
2.606436212757986e-005 
-2.37975947542043e-005 
1.61968284110797e-005 
2.296528608556024e-005 
2.83929293311163e-005 
1.512799842777357e-006 
1.833138305991176e-006 
1.871573544150189e-005 
3.634476336664459e-006 
2.355460820645315e-005 
1.346340358232497e-005 
-1.605425063104538e-005 
5.016312179364201e-005 
-1.460544448012155e-005 
-1.643081620681842e-006 
1.541391483312147e-005 
1.446723748569764e-005 
-4.658270450222031e-006 
1.599010775323682e-005 
-9.221257975878758e-006 
-2.356262067027524e-005 
-5.775954361421352e-005 
4.319023244458735e-006 
9.445833960792306e-007 
-3.043068398151849e-005 
-3.715102666844174e-005 
3.762751916926801e-006 
-5.922253267179642e-006 
-4.337707432656457e-006 
-0.0001930165645805898 
-5.519949332448862e-006 
6.903116234173778e-006 
5.015863248127344e-006 
-1.563128696752032e-005 
-2.571036347185133e-005 
1.377373538708664e-006 
1.47169936528466e-005 
-1.183112112410552e-005 
-0.000151695605070033 
1.473961766815004e-005 
-1.666237422625858e-005 
-3.438367811544334e-006 
1.759742744158586e-005 
-3.892995035871523e-005 
-6.974443314578571e-005 
7.306422355563566e-005 
1.809451951545168e-005 
1.434497991073889e-005 
2.497695585633152e-006 
1.41542988983667e-005 
4.627538233519575e-006 
-2.233440280918814e-005 
5.114402139739114e-006 
2.596093828369185e-005 
6.173095900774653e-006 
2.083258474402645e-007 
-0.0001556304002250262 
6.64468617341152e-005 
1.828166612675396e-006 
0.0001026024953361746 
-6.790857934947492e-005 
2.223255493999676e-005 
-3.464967232921557e-005 
7.245563409459798e-006 
-0.0001002468711654875 
2.827253739466627e-005 
9.204663302176299e-006 
5.782328322474858e-005 
0.0001142823114726714 
3.341031157143373e-005 
9.182862395561874e-007 
7.040978804237492e-006 
1.539699064719674e-005 
3.444471807476901e-005 
3.834086542354674e-006 
4.240603448439013e-006 
1.515317506738465e-006 
-8.406364696823011e-006 
-3.301204004469191e-007 
6.431457654957183e-006 
2.077447564704339e-005 
-3.907929747703701e-005 
2.906204962063885e-006 
-2.688770749871462e-005 
1.008110224477412e-005 
3.601874342917216e-005 
7.68727974022836e-007 
-1.865872907373569e-005 
2.922080743940366e-005 
6.93072706485516e-005 
3.772376068226108e-005 
4.341864702538684e-005 
-4.278327889642437e-005 
4.993679538573609e-005 
-2.91945947265877e-005 
-2.419124466955482e-005 
-6.606719427044734e-006 
1.343059006133867e-005 
-2.82511065748292e-005 
2.986843726643737e-006 
2.554018740853463e-005 
6.493683236921864e-005 
-2.944713911755798e-005 
-1.41144854353331e-005 
2.546721321452059e-005 
7.535762108186919e-005 
1.45527153679484e-005 
4.543862653213496e-005 
-1.671657200550678e-005 
1.784913606778176e-005 
1.765136287107401e-005 
1.477075919765384e-005 
4.753368550955081e-006 
-3.268736250793527e-005 
7.095128048747e-007 
3.144046128640738e-005 
1.397767445121588e-005 
6.344127880148509e-005 
-5.679045077318867e-005 
-4.264937923273656e-005 
-1.905343679235574e-005 
2.821527802337595e-005 
1.115390744202531e-005 
2.568606025788513e-006 
-5.656674185596548e-006 
6.789111225141291e-005 
-3.274509290576645e-005 
-1.038491739960074e-005 
-3.359867763645465e-005 
-5.808431336311925e-005 
3.774130570676338e-006 
5.001546354228907e-006 
4.655895943711923e-006 
8.905077361940413e-006 
-3.462194261122872e-006 
4.202398192825665e-006 
2.369630006268401e-005 
-5.325131353539767e-005 
-2.174642458557192e-005 
5.279044042459792e-007 
3.574100718301042e-006 
-1.222968186509611e-005 
-1.041214842692531e-005 
6.449319195635217e-006 
-4.954778321924464e-005 
1.619144948480905e-005 
-1.047543980374924e-005 
4.311763723162771e-005 
1.214860214133019e-005 
-1.030540905071611e-005 
5.050409040133507e-006 
6.49348023150301e-007 
-4.562092465200596e-005 
6.693572854092485e-006 
-1.578090643430159e-005 
2.933303958304259e-006 
-1.423952550505524e-006 
2.850195515603941e-005 
3.02030110106398e-005 
4.300810393735566e-006 
-2.092050732121014e-005 
-2.768913667752451e-005 
-9.053313520804429e-006 
-0.0002218053475490146 
-4.628161269352899e-006 
-2.648208011307295e-005 
2.678467179127544e-006 
1.783335799127369e-005 
-1.862757638602661e-005 
-5.920422419320665e-005 
-1.910653723967085e-007 
-4.369020908743362e-005 
-8.433301924537186e-007 
-2.634458303877754e-005 
-0.000149945812368326 
3.288951878498852e-006 
4.401580692018231e-006 
2.22143117542025e-005 
1.21148803999547e-006 
-1.273164764459722e-005 
3.143666214290832e-006 
-1.279718848879686e-005 
-1.471227419590315e-005 
2.434694895891422e-005 
2.25641985409657e-005 
4.660078256270384e-005 
1.638222703298353e-005 
1.25776585345822e-006 
3.366008938721653e-005 
-2.871610329755322e-005 
1.764062325809489e-005 
1.923939891509909e-006 
-4.972931827579739e-006 
-7.184544800678741e-006 
-6.642504282569636e-006 
-2.823038928880539e-005 
-1.24278762984078e-005 
5.371192250333873e-005 
5.408322318495659e-006 
1.21511420658227e-005 
-2.531886716553283e-005 
8.765225083292677e-006 
1.60338438222313e-005 
-3.821219225853838e-006 
-4.412840502554922e-005 
1.092886448727293e-005 
1.543616761800448e-005 
5.609547737804853e-006 
1.456334469253135e-005 
-6.504024584271546e-005 
-2.454879520908413e-006 
4.9048274297724e-006 
-2.562748094298355e-005 
-2.270182066103012e-005 
6.490805827417984e-006 
-2.507089313540161e-005 
2.714755879962837e-005 
-4.515051583544168e-005 
-2.610427462921244e-005 
5.423402093155134e-006 
-6.69819467463963e-005 
-1.04934198043885e-005 
-1.396516483879468e-005 
1.402062477222815e-006 
1.526300658930805e-006 
8.021414023711035e-006 
9.736745716692943e-006 
1.054732549674622e-005 
-8.837141289600811e-006 
-1.857085074948581e-005 
1.028251568215028e-005 
2.438602415358902e-005 
-2.677410590851332e-005 
-1.136807430177649e-005 
1.133539198549701e-005 
-9.396561329863775e-006 
-1.889394755604603e-005 
-2.602953579215961e-005 
-1.584553778560498e-005 
9.593523496867103e-006 
2.329402689531149e-005 
3.319904538249909e-006 
8.802927188352154e-006 
-5.80274757013243e-005 
-1.777229907722209e-005 
-1.581352685109514e-005 
-4.362438222081926e-006 
-1.63563888673153e-005 
-1.835467129824229e-005 
-1.184932980860039e-005 
1.648979863695929e-005 
2.193045361747761e-005 
2.525741156586994e-005 
-4.512037600411401e-006 
-2.804497003835826e-005 
-2.646616252366152e-006 
2.484988549129477e-005 
-1.201490442214016e-005 
-5.896218097652383e-006 
8.541730883046959e-005 
4.705491459620699e-006 
2.902285156790908e-005 
1.401941398500247e-005 
-4.773893926423629e-006 
-3.16835809096517e-006 
-4.79591084410624e-005 
1.712614272760709e-005 
7.787393586750117e-007 
1.264839816627644e-005 
-2.218651768151998e-005 
-3.612258124513628e-005 
-2.028822486008607e-005 
1.876130365193017e-006 
-2.135852251726381e-005 
4.283267575174617e-008 
-8.400685797962772e-005 
4.165789545459158e-006 
1.720692559762566e-005 
1.939680585404939e-005 
-1.92137307970681e-005 
-1.50835688005603e-005 
-7.523522734739976e-005 
5.201722785094085e-006 
-1.460556090836343e-005 
5.150337857811283e-005 
-2.940709985514257e-005 
2.15371989031503e-005 
1.669117656165149e-005 
3.995016312394088e-006 
-7.236841713925017e-006 
5.857290988072845e-006 
6.98093401065828e-006 
5.483880729897701e-006 
-4.691022185425376e-006 
-1.682870944517098e-005 
-4.1932440854247e-006 
-5.579950999653011e-005 
4.300914613344511e-006 
3.181141462863746e-005 
-3.196621212789387e-005 
1.910486657499555e-005 
-6.407582108675497e-006 
4.719506456520861e-007 
3.400516718595147e-006 
-2.993007158594659e-006 
-1.374154388625869e-005 
8.05867542538392e-006 
-7.104014574397677e-006 
3.399790794020401e-006 
2.767898609242348e-006 
1.550878798892528e-005 
1.137223383363659e-005 
3.941659459916539e-005 
2.055288199990917e-005 
-2.010002184449083e-005 
3.44380069106682e-005 
3.380763190021162e-006 
-3.255428402705021e-005 
-2.989652063459622e-005 
-6.36309074376092e-005 
-2.841134443190478e-005 
-4.169040376347659e-006 
-2.550740407297713e-005 
-1.417581564555401e-005 
5.153703584973314e-007 
-1.562231192705919e-008 
8.635354363169597e-006 
1.404254046764205e-005 
-5.569014007289483e-005 
-5.613857933713109e-005 
1.442927724270084e-005 
-5.018095618103325e-005 
-4.591289065691294e-005 
-2.20356482107956e-005 
-4.164440743662213e-006 
1.717980316747329e-005 
-5.363256534544796e-006 
3.533750972258852e-005 
2.442560176913276e-006 
1.247975514984284e-005 
1.225905325179802e-005 
-1.065990704975938e-005 
-4.590669722919101e-005 
3.630584791501657e-005 
-4.462239811325778e-005 
1.430109730797539e-005 
1.208301849687467e-006 
-2.432194028424008e-005 
2.905935843885846e-005 
2.441134567259682e-005 
1.007731258073907e-005 
-1.00257512556467e-005 
-1.184839838250736e-005 
2.807934229019522e-005 
-8.858959272907496e-006 
1.811966127309101e-005 
-1.220749573601695e-005 
2.907181878795357e-005 
7.238818610101101e-006 
-3.620887377877581e-005 
1.105988504608762e-005 
-2.108885309233848e-005 
3.964218039994865e-005 
3.588544867725193e-006 
-2.717441554015077e-006 
5.348044395715083e-006 
4.848851118199537e-005 
6.566865221123066e-007 
-5.09682852819154e-005 
-1.993444632513702e-005 
3.189696678556833e-005 
-1.221370022692364e-005 
-1.32488804649288e-005 
9.121401746215322e-006 
2.988533666217754e-005 
1.567410349774203e-006 
-4.307185785115482e-006 
-1.398898860462016e-005 
1.787718302629031e-005 
2.598142435116773e-005 
2.18936850072051e-005 
-5.872156401127209e-005 
-5.821108652820183e-005 
7.752226823161873e-006 
-1.37632828136132e-005 
5.18156502654316e-006 
1.094995477139137e-006 
4.341413822841265e-005 
-5.377863265832875e-005 
5.947483020955797e-005 
1.065956073666723e-005 
-2.526332184562315e-006 
2.495587807637829e-005 
4.01998888158836e-005 
-1.482743586730684e-006 
-2.352200165800552e-005 
-1.145617305162536e-005 
-4.857054491668311e-005 
-3.742780919699169e-005 
-4.776210912995757e-005 
-1.367767525723781e-005 
6.892382397419181e-006 
-1.226866391393787e-005 
7.009755581657997e-006 
-2.745944162178457e-005 
3.495630939607229e-005 
8.316385211828926e-006 
1.806038061269165e-006 
3.915118312404463e-007 
6.514233199402409e-006 
-5.981881387946822e-005 
1.534496716921303e-005 
-9.102894828937713e-005 
2.646844606599356e-006 
2.373635073781176e-006 
1.673730861208844e-006 
-5.241274973994558e-006 
2.306603554620903e-006 
1.0010053739869e-006 
-2.12833161462178e-005 
-9.90520695853281e-007 
9.72047353181203e-005 
-8.303366849008722e-006 
-2.3541882213541e-006 
-4.280914953963783e-007 
-1.7475322288939e-005 
-4.207245834193952e-005 
1.19731045268307e-005 
-5.502072608990989e-005 
2.666041843322956e-005 
2.807855251306356e-006 
9.008350028668415e-006 
8.868210331930431e-006 
1.948469696350726e-005 
-2.886092806019647e-005 
-8.677842681063867e-006 
-4.022904288398761e-005 
7.190036021757371e-005 
2.46298595143334e-005 
1.127481661797088e-005 
-8.188590494108229e-005 
4.524673350598715e-005 
8.126116105263888e-006 
-1.527899245363601e-005 
4.052776935479806e-006 
-2.780282194110915e-006 
-1.994626927719147e-005 
-1.276505176115998e-006 
6.375218454907488e-006 
5.548981687527591e-006 
9.375755234054779e-006 
5.525098753958826e-005 
2.932899976233495e-005 
4.221602549646096e-005 
2.952791544949036e-006 
2.825162280912616e-005 
1.012876826721515e-006 
-1.440982165841433e-005 
3.206371010463539e-005 
1.743275571056107e-008 
-8.571121204795532e-006 
-3.26767497645113e-006 
3.129771850689119e-005 
-9.700877612980445e-006 
-1.845634915765302e-005 
-3.634632865854076e-005 
1.400099528823103e-005 
-1.57673894728063e-005 
1.562853885854969e-005 
1.026393129593514e-006 
9.345555213846814e-006 
-1.723000276231789e-005 
1.690950739009764e-005 
-9.404014178568462e-006 
-3.782553302374468e-005 
3.472468804810434e-006 
-1.678282687594122e-005 
-2.678211834325592e-005 
2.476990066338677e-006 
-8.384870974298218e-007 
3.032692303642594e-005 
-8.169119961696636e-006 
4.620396494984833e-006 
1.394519698159671e-005 
3.496100324937053e-005 
-1.021938667611293e-005 
2.245449810476381e-006 
1.196877490686688e-005 
-1.16057285925185e-005 
-2.735537004714143e-005 
-6.683389830200071e-006 
-5.595917936718622e-006 
5.770306999808046e-006 
-3.432822539151137e-008 
-5.641366052778827e-005 
-6.24437587663052e-006 
-3.038736811870605e-005 
-3.490293990979081e-005 
-1.480284351808939e-005 
3.725327735468837e-006 
-2.197357652905107e-005 
-5.604926905459284e-006 
2.479351168687394e-005 
8.3632961725522e-006 
4.340696540466752e-005 
-5.075089314034352e-005 
-8.08593983940149e-006 
3.426802799870092e-005 
3.922771456521199e-006 
1.516793103400744e-005 
1.217793092898428e-005 
1.560208196873135e-005 
-1.955181029070765e-005 
-3.259001807893857e-007 
1.275694857025502e-006 
6.424946814288203e-005 
1.844596782124687e-006 
4.260500581374991e-005 
2.355030104745039e-005 
2.441935956760081e-006 
-7.649830549611472e-005 
2.899072980050581e-005 
-3.20528539101961e-005 
1.94683441606593e-005 
4.287211378789112e-005 
2.160511138508074e-005 
-4.801877049678089e-006 
-1.869545731276869e-006 
-2.37853668315743e-005 
1.632941506977684e-005 
-5.39038739518442e-006 
3.136607659999706e-006 
6.261432946504954e-006 
1.290885119270633e-005 
4.998921911147295e-006 
-6.954807515199547e-005 
1.074196103155995e-005 
2.601140855761296e-005 
-9.201143493669348e-006 
3.408904551601636e-005 
-2.880403487202604e-006 
1.472295894796118e-005 
-1.775456706283157e-005 
2.007052191730919e-005 
-1.044015101562828e-005 
2.379183227801674e-006 
1.351912049112774e-005 
1.08379453412231e-005 
7.688750099401668e-006 
2.115861994279501e-005 
-8.238000141928334e-006 
-6.632238758625794e-006 
4.945207731790548e-005 
-0.0001012265683006387 
-6.546907593923225e-007 
-1.717071323600837e-005 
2.216513613923882e-005 
3.159848986525682e-007 
7.870326269994314e-006 
1.882395430613769e-005 
-2.755552438847897e-006 
4.084847553331678e-005 
-2.336012646222847e-005 
4.286124766901868e-006 
-1.145889609582221e-005 
2.440804474878137e-006 
3.411908006432945e-006 
-9.967016069641894e-006 
-7.322207184626371e-006 
2.850428861608645e-005 
1.069633076330521e-005 
3.169355142539262e-005 
-1.518731656371553e-005 
2.517042198223044e-005 
1.076128948975601e-005 
-2.160745568217097e-006 
1.027118393088467e-005 
3.179808527856841e-005 
-9.700253023871596e-008 
-4.280180106783905e-005 
-4.937151775250053e-006 
2.127757699212428e-005 
-1.433956657377793e-005 
8.474858964014451e-006 
2.216652293710476e-005 
-6.382536268929204e-006 
9.258586729760121e-006 
-2.294505668144425e-005 
-5.944497828502848e-005 
-1.276598217133649e-005 
9.723704667659042e-006 
2.107151320306279e-005 
1.77226496768549e-005 
1.129515801023452e-005 
8.510403450251597e-006 
4.116549711885906e-005 
-9.425147991074003e-006 
-6.56752235730012e-005 
-3.565786403707203e-005 
-1.478725272727859e-005 
-2.055374358901139e-005 
-2.021899695464553e-005 
-1.314294934739007e-005 
-1.228698021582617e-005 
-2.095548654733207e-005 
6.761793005220523e-006 
1.685624157030182e-005 
-3.273883209969709e-005 
2.543710280778859e-005 
3.112108370320837e-006 
-3.696425021073574e-005 
7.921095996847e-006 
2.825726362966092e-006 
2.215666219977613e-005 
-1.62352925218432e-005 
1.149033450321319e-006 
4.553579298316402e-005 
-4.327395468723365e-005 
2.498764092536452e-005 
-1.020864127421821e-005 
-8.414461401740185e-006 
8.797419630915329e-006 
1.120429254383911e-006 
1.003131078351421e-005 
5.012823067001451e-006 
-0.0001074251958135362 
-1.382949485708431e-006 
-4.777011304620326e-006 
5.827151668844812e-006 
-3.980575716296658e-005 
2.128909136372841e-005 
-8.423677725818914e-005 
-2.802499338035802e-005 
-1.470897383383508e-005 
3.173177439745134e-006 
-7.123483540371396e-005 
6.216818221367409e-005 
-7.405048994165371e-005 
-3.262646667924168e-005 
-6.495609835854401e-006 
4.096454936222233e-006 
-2.217056072962001e-005 
-2.213093884075002e-006 
4.755872277831778e-005 
-2.095443684018765e-005 
2.357650998691874e-005 
-3.260507730617935e-005 
-1.496502244472257e-005 
1.789959833630207e-005 
-5.097443061411553e-006 
1.419620967838647e-005 
2.597528779027562e-005 
6.207148597804272e-006 
-2.293741518317544e-005 
-3.329917129744565e-005 
1.18052342982722e-006 
-3.728563572192488e-006 
-2.985036439302821e-005 
1.341992963226614e-005 
1.329982721833544e-005 
-2.557611137898131e-005 
5.684866924464706e-006 
-5.571068761500342e-005 
2.003104275616056e-005 
-1.650016671528808e-005 
-8.520141119422022e-006 
1.264126469873539e-005 
-6.158192409847028e-006 
-4.741216093980695e-005 
-1.002847169125207e-005 
-1.310180922487302e-005 
2.146795404656713e-005 
-5.625812702452454e-006 
-2.869223674586642e-005 
-5.103737263880885e-006 
-8.758819784361161e-005 
-3.429886274315515e-005 
-1.710075619693577e-005 
6.35360697120738e-006 
1.228926461022101e-005 
-1.557599664464272e-005 
3.634280594310465e-005 
-8.781118543049004e-005 
8.801032899837085e-006 
2.232147460200123e-006 
5.072292290472226e-006 
2.200052727273529e-006 
6.836890283770927e-006 
1.142318808594138e-005 
2.60347014908007e-005 
9.850125198250407e-006 
6.478668974204635e-006 
2.677002730178791e-005 
2.747884033563561e-005 
6.708181486122451e-006 
-3.822206589031584e-006 
-9.122566096636029e-006 
4.251486391585824e-005 
-2.065821760279488e-005 
-3.518975758261349e-005 
1.793297015184723e-005 
1.144514039695529e-005 
3.918437966239887e-005 
3.890948912509472e-006 
-4.826612625468326e-005 
1.155373825538877e-005 
-3.769057420828253e-006 
9.234521431730944e-006 
1.553144600968854e-006 
3.915108786274831e-005 
7.285614090795579e-006 
1.695041767272017e-005 
-1.768260755714817e-008 
1.231651678441759e-005 
1.257231915216984e-005 
-1.3295073258359e-005 
5.723997176658814e-005 
-2.606207885968932e-005 
-3.112300898945465e-005 
1.918719384619642e-005 
1.651476358057988e-005 
-4.550017130681794e-005 
-8.821105080024694e-006 
1.868539253496744e-005 
2.322626374585986e-005 
-9.355321585252921e-006 
1.323420541816598e-006 
-4.140325387635846e-005 
2.554035153099261e-005 
-3.362679830115371e-005 
1.98218142603085e-006 
1.043705144310816e-005 
5.302499150467411e-005 
-2.889323080960921e-005 
3.412089536376146e-005 
6.111652014795924e-006 
1.475106274948167e-005 
8.866105376408021e-006 
3.712872001245758e-007 
-1.513709005457456e-005 
-1.517117890627368e-005 
3.26075950684965e-005 
1.305028582376709e-005 
3.700282498645204e-005 
2.197750768791588e-005 
3.928405642386579e-006 
-2.139295318540969e-005 
-2.084540192494656e-005 
-9.727239957202403e-005 
4.690238991256714e-006 
2.994593178581376e-005 
6.28535710012357e-006 
7.806422199966287e-006 
2.262596013794035e-005 
5.842765501147463e-006 
5.67595557748597e-006 
7.068474241568398e-006 
2.169695434822106e-005 
-1.442917708096311e-005 
-2.046118534824131e-005 
-2.379308389036545e-005 
1.098579043913253e-005 
9.793275076825959e-006 
5.136699523497157e-005 
5.481107050300514e-006 
6.000269493013071e-005 
-7.162557405996856e-006 
-7.963762611037045e-006 
3.160429066700603e-006 
4.272075458627029e-005 
-1.625737688252152e-005 
7.275273804773989e-005 
4.211012663266796e-005 
4.03048380453899e-005 
1.679153850818247e-005 
5.993651290718621e-006 
-1.91905289145141e-005 
-1.377604080957122e-005 
-6.12991068248907e-005 
2.160482902549282e-005 
