solver_type L2R_L2LOSS_RANKSVM
nr_class 2
nr_feature 6620
bias -1
w
-6.002923930096627e-006 
-1.301334465101149e-006 
-1.066919542107989e-006 
-2.975416495850415e-006 
-5.398127900486819e-009 
4.535806091513231e-006 
-2.194130994412362e-006 
7.132745934912114e-008 
3.96618693528921e-006 
6.875965980230709e-007 
0 
-2.058966081870032e-007 
-1.844327227742121e-007 
4.143721773197378e-006 
-3.009289581040318e-007 
0 
-5.429168424314578e-007 
-3.054146821754581e-006 
0 
-2.917839706766396e-007 
-3.360684152600612e-007 
-5.886167472850602e-007 
0 
-2.678027171310603e-007 
-2.284106005476952e-007 
0 
0 
-1.163022956875648e-007 
0 
0 
0 
-2.815105445345236e-006 
1.394651110091575e-006 
0 
0 
0 
3.8618398997382e-006 
0 
0 
0 
-2.678027171310603e-007 
0 
0 
-3.236653396941479e-006 
-2.678027171310603e-007 
0 
-3.60826900768069e-008 
-6.632740258745429e-007 
1.065100561853219e-006 
0 
-2.640804701318106e-006 
2.254746302599059e-007 
-1.63423884729254e-006 
8.435246136779149e-007 
1.029195867410693e-007 
-1.462433791050647e-007 
-8.063406413771111e-007 
-5.264306621487882e-007 
-1.355984923378482e-007 
-8.210345675901999e-007 
3.021515175723031e-006 
2.220902782541363e-006 
-6.310406181509384e-006 
7.656933076827826e-007 
-3.863621097176238e-006 
-1.690268373755858e-006 
2.028744909839096e-006 
-1.559747492843001e-006 
7.157811860694049e-007 
3.451369909434049e-007 
-6.632195579662963e-007 
-1.443719860562765e-006 
-1.055437507814434e-006 
-1.942087484087166e-007 
0 
0 
4.504723700690053e-006 
0 
0 
0 
0 
0 
0 
-3.387790232911849e-007 
-5.465503958604808e-007 
0 
-4.942287797698885e-007 
-2.786952319128872e-007 
0 
0 
2.212976694178964e-006 
-1.443719860562765e-006 
-4.79192754501751e-007 
0 
0 
-2.82230295391624e-007 
0 
-3.622905998622648e-007 
-2.443680495575787e-007 
0 
-3.360684152600612e-007 
3.890326728202324e-006 
-2.669890528630181e-006 
-1.883012263357358e-006 
1.401135739387057e-006 
-2.917839706766396e-007 
0 
1.559934454006478e-007 
0 
5.956258855938506e-007 
-1.377408024809314e-005 
-2.926934641008248e-006 
-6.045588998001258e-007 
1.206246440946501e-006 
2.337321228327569e-007 
-3.689758186249782e-006 
-1.780515529096561e-006 
2.109359568754098e-005 
-1.178399905299405e-007 
-1.915074048618623e-006 
-2.516512752634028e-006 
1.675382978296331e-006 
7.516882909565298e-007 
-1.047632351249376e-006 
5.731448517558081e-007 
-5.724460646342149e-007 
-2.919060063635348e-006 
-7.365857225402265e-006 
5.724359411164243e-008 
0 
3.409831906215155e-007 
-2.939430836086794e-007 
-2.116679438906979e-007 
-2.326279691456504e-006 
-7.308709038940971e-008 
-4.269927509443137e-006 
0 
0 
0 
0 
0 
7.874368882985573e-007 
-1.735503831239405e-006 
-2.271770300448662e-006 
0 
-2.82230295391624e-007 
0 
1.091588601134479e-006 
0 
-1.017292061240355e-006 
3.409831906215155e-007 
-7.860127504465287e-007 
0 
8.826268124235117e-008 
0 
7.904248535205646e-007 
-2.82230295391624e-007 
0 
0 
0 
-4.942287797698885e-007 
-2.805167338145484e-007 
-2.063511403950954e-007 
0 
3.409831906215155e-007 
0 
-4.790956688594355e-008 
0 
2.057360188976108e-007 
-1.471410495550071e-006 
-8.904824864869525e-006 
6.83269518251262e-007 
1.433293080384852e-007 
-6.558535970642849e-008 
-1.438341304255865e-006 
4.852877689631038e-007 
-1.484626875294907e-005 
1.424973308311237e-006 
-2.201840102259238e-006 
-3.02415991509724e-006 
8.51943378276674e-008 
0 
-9.851672821545329e-006 
-1.555743289433746e-006 
-1.372596225279024e-005 
1.199938829001919e-006 
6.405174413041082e-007 
0 
-2.678027171310603e-007 
0 
0 
0 
-6.038711323911218e-007 
2.538899799702005e-006 
1.190771255595013e-007 
0 
0 
0 
0 
-2.787476787294205e-007 
7.904248535205646e-007 
2.521151816235715e-006 
-5.705316494060604e-007 
0 
-5.886167472850602e-007 
-4.79192754501751e-007 
0 
0 
-1.391193328546411e-006 
5.931888110570185e-007 
0 
0 
0 
6.004523043473767e-007 
-2.917839706766396e-007 
2.243652212771956e-007 
-7.74745513584437e-007 
0 
0 
0 
-1.804134630483929e-007 
-1.799833784554439e-008 
3.858867074074664e-006 
-8.773114873204642e-007 
-1.116190127865844e-006 
-5.464979490439474e-007 
-2.917839706766396e-007 
-1.471183111589068e-006 
-1.029179196040438e-006 
2.901172115547061e-007 
4.657089812894779e-007 
-1.972297628918895e-006 
-1.914815886111102e-006 
2.305128637506738e-007 
2.032480950831593e-006 
3.333669433941029e-006 
-5.800392436379681e-006 
-7.171646949861913e-006 
1.696450817682172e-006 
-1.307382972470806e-006 
1.440244495830183e-006 
-2.550875421128213e-006 
2.399059059924897e-006 
1.33597242496965e-006 
7.748253878334557e-007 
1.154102635039606e-006 
0 
-5.711268233577653e-007 
2.973557462601469e-006 
8.661352962605209e-007 
0 
0 
0 
-7.924388537601047e-008 
0 
-2.476829834193677e-007 
-6.540745705389046e-007 
0 
0 
0 
0 
-1.062530235566473e-006 
0 
3.122163744599708e-006 
0 
0 
0 
0 
0 
0 
0 
1.091588601134479e-006 
0 
0 
2.616845021439285e-008 
0 
0 
0 
4.354840086163198e-007 
-8.266697934096857e-007 
0 
7.904248535205646e-007 
0 
0 
0 
7.656933076827826e-007 
-1.855710119261509e-006 
-2.626697529057616e-006 
-6.13960305185101e-007 
-1.88271179188793e-006 
2.387397384200645e-006 
6.981953459571259e-007 
5.896996747240455e-007 
-1.227517305011318e-006 
-1.466954236367943e-005 
-2.910152415528173e-006 
-2.254593211522512e-007 
7.938856651228084e-007 
-4.125762803138537e-006 
0 
-4.603614112815241e-007 
-2.058966081870032e-007 
-5.796392892007904e-007 
-2.859176331080502e-006 
4.132792105023441e-006 
5.270447764888478e-007 
0 
0 
0 
0 
0 
4.88426386419872e-007 
-4.80703166887238e-006 
0 
0 
0 
0 
0 
0 
1.841651066954595e-007 
-1.417782575584947e-006 
0 
0 
-1.097069673946258e-006 
0 
7.904248535205646e-007 
-8.240991542992769e-007 
-6.166604025152052e-007 
0 
0 
3.775573871821346e-006 
-2.82230295391624e-007 
0 
0 
0 
0 
0 
-5.814456919185797e-007 
-9.765600032721514e-007 
-4.23237486919327e-007 
-1.559148588556959e-006 
0 
0 
5.632810199793354e-007 
-2.939430836086794e-007 
3.196072822874673e-006 
1.421592998500785e-007 
1.726621165712948e-006 
1.887713712777454e-007 
-8.231611820898828e-007 
2.245947349795378e-006 
-1.784338074577541e-006 
-1.016514953828832e-006 
-5.649917665947283e-005 
-6.303395178985166e-006 
-7.620157550395801e-006 
-1.886689472848319e-006 
5.000439306029533e-007 
-3.162861818786009e-007 
-3.279389708111671e-006 
-1.379805841101851e-006 
4.657961647124423e-007 
-3.884196687596473e-006 
1.013060653311077e-006 
8.293331444780996e-007 
0 
-2.939430836086794e-007 
0 
-1.338445107789301e-007 
0 
-8.026482212398981e-007 
-7.50444305310042e-006 
0 
0 
0 
0 
0 
0 
7.656933076827826e-007 
-3.009834260122781e-007 
0 
0 
0 
0 
0 
1.556869347691803e-006 
-5.282310839863863e-007 
0 
0 
0 
-7.729240116827756e-007 
-2.917839706766396e-007 
0 
0 
-1.170116907111887e-006 
7.140826167448651e-007 
-4.942287797698885e-007 
-5.505192780857771e-007 
1.091588601134479e-006 
1.319126845629709e-006 
-2.787476787294205e-007 
0 
5.769309181216656e-007 
1.091588601134479e-006 
2.483363047830611e-007 
-1.521613357877369e-006 
2.359435596998184e-006 
-7.656203801324628e-007 
3.360630315727635e-006 
-3.343471638592153e-006 
1.783772026619418e-006 
2.054932998221264e-006 
-1.144218140598775e-005 
5.16444417177038e-006 
-3.533862592809049e-006 
-1.540593560772105e-006 
2.568604990934748e-006 
-2.49559583580935e-006 
7.364963699196897e-007 
6.094525001791615e-007 
1.960913826146665e-006 
-7.16743387650096e-007 
-6.105522357399945e-006 
0 
-1.744703286575043e-006 
3.963370255842951e-006 
6.56760986505119e-007 
-2.058966081870032e-007 
-1.443719860562765e-006 
4.143721773197378e-006 
-3.677260486889973e-006 
0 
0 
1.091588601134479e-006 
0 
0 
0 
-3.009289581040318e-007 
-5.804364648176392e-007 
-4.942287797698885e-007 
7.656933076827826e-007 
5.632810199793354e-007 
0 
0 
-1.11326630729195e-006 
0 
-2.443680495575787e-007 
0 
0 
0 
0 
-5.886167472850602e-007 
0 
-3.009289581040318e-007 
0 
-2.058966081870032e-007 
8.748189717896243e-007 
0 
4.277794152216076e-007 
-3.819039703931094e-007 
-4.728678336145357e-007 
3.906255093122186e-006 
0 
3.945971959378916e-006 
-8.109607900196478e-007 
2.012928174688945e-007 
-4.040231105915669e-006 
-7.059264227130753e-007 
9.651408153596648e-007 
3.672206544885653e-006 
6.323087299638863e-007 
1.568021297524212e-005 
3.166485435607511e-006 
-1.011327529054298e-005 
4.089398027210088e-006 
-2.606362148701801e-006 
2.361430038276631e-006 
1.619798301260138e-006 
-8.335803506685323e-006 
5.676847970224562e-007 
-2.314566903239449e-006 
1.322509394788772e-005 
-1.443719860562765e-006 
-3.009870486428873e-006 
-2.733042357378184e-007 
0 
4.769586804841401e-007 
-3.009289581040318e-007 
-2.443680495575787e-007 
6.20518637353104e-006 
0 
-3.009289581040318e-007 
-1.465719084389395e-006 
7.863068781931662e-007 
-3.009289581040318e-007 
-2.476829834193677e-007 
0 
0 
0 
-1.33064099069156e-006 
6.004523043473767e-007 
0 
0 
-2.82230295391624e-007 
0 
0 
0 
-3.009834260122781e-007 
-8.806620839374433e-007 
0 
0 
1.734356998068349e-007 
0 
0 
3.247651727866943e-006 
-5.719359566041479e-006 
0 
-2.495358520734991e-007 
-1.215101473484013e-006 
5.722268793743932e-007 
0 
0 
-6.779633824871503e-006 
-4.992382480056173e-006 
-2.407599165286322e-006 
-4.489680939958687e-006 
3.211483542158903e-007 
-2.023396497396219e-006 
2.923765189223592e-006 
-7.220195097636506e-008 
-4.281758120904269e-006 
-9.609427099162139e-006 
-3.498767522526644e-006 
-1.572858411107935e-006 
-1.417070097019422e-006 
2.523368251360755e-007 
-5.378446312478189e-007 
-1.659820125109021e-006 
5.646016090039166e-006 
-2.058966081870032e-007 
2.8837212783478e-007 
-7.801217126057824e-007 
-4.535795916063707e-007 
0 
7.904248535205646e-007 
-2.443680495575787e-007 
-7.001253879568914e-007 
0 
3.073791348297823e-007 
0 
0 
-2.058966081870032e-007 
0 
0 
0 
0 
1.734356998068349e-007 
0 
0 
0 
0 
0 
0 
0 
0 
0 
2.840740858140219e-006 
0 
0 
6.004523043473767e-007 
0 
0 
0 
0 
-3.643608059702652e-006 
7.904248535205646e-007 
-1.588794203151412e-006 
0 
6.004523043473767e-007 
0 
-6.409858317751517e-007 
5.894070890297897e-007 
7.889364176531055e-007 
8.317086031071234e-007 
1.215914521783737e-006 
-3.532496730717139e-006 
-3.857227837360719e-006 
3.486022967805564e-008 
5.67382115756309e-006 
-2.568219124085505e-005 
-8.382065164539091e-006 
-4.964303394321354e-006 
-3.730507389151918e-006 
3.725250120960417e-006 
-1.211875224964345e-007 
5.452739749423544e-007 
-2.282333390496706e-006 
5.325498670732307e-006 
-1.06027832098595e-006 
-1.146125603515851e-006 
1.069172612952505e-006 
-1.56250111159004e-006 
2.826578631535426e-006 
7.998620495299235e-007 
0 
0 
-3.009834260122781e-007 
-3.035036268755445e-006 
0 
-2.058966081870032e-007 
1.734356998068349e-007 
0 
0 
0 
-5.486119415233987e-007 
3.409831906215155e-007 
0 
-7.49692905448874e-007 
-3.009834260122781e-007 
0 
0 
-9.170448934334131e-007 
0 
0 
0 
1.238219013186031e-006 
-2.330253086000357e-006 
0 
0 
-2.443680495575787e-007 
0 
0 
3.409831906215155e-007 
-4.230162372485652e-006 
-5.886167472850602e-007 
2.106941053385944e-007 
-1.443719860562765e-006 
0 
6.684498358442544e-009 
-1.988043073682785e-006 
-6.821589667773915e-008 
1.349362647265848e-006 
-1.733226216757486e-006 
-2.586584738033882e-007 
-4.087756713510867e-006 
-3.908681983692242e-006 
2.287046986097996e-007 
-1.108156092034232e-006 
-7.774026552854659e-006 
-5.521936207184282e-006 
-6.56171946383493e-007 
-4.004578566913732e-006 
-1.498010221672949e-006 
-1.975571929727985e-006 
2.234001541608615e-006 
-4.63923315552694e-006 
-4.601293911922876e-006 
1.404129026425021e-006 
-4.830630375507831e-007 
0 
4.354840086163198e-007 
1.799278833632452e-006 
3.520273037623196e-007 
-1.459215427647284e-006 
4.602680771969218e-007 
0 
-1.363459193670505e-006 
-2.917839706766396e-007 
3.409831906215155e-007 
1.778116983480063e-008 
-3.009289581040318e-007 
0 
0 
0 
3.409831906215155e-007 
-4.942287797698885e-007 
3.144412891092267e-007 
0 
0 
0 
-8.825663643040076e-007 
0 
0 
0 
-1.655364591384061e-006 
-3.360684152600612e-007 
0 
0 
0 
0 
-2.476829834193677e-007 
7.700127207780167e-007 
3.648790213009839e-007 
-7.761341970227016e-007 
0 
-5.486664094316457e-007 
-4.094114506477921e-006 
0 
3.968434978188549e-006 
1.019041972232652e-006 
-1.627262010898919e-006 
1.36907337199888e-006 
3.017727438349653e-006 
-4.384201351347932e-008 
-1.240899373263889e-006 
1.338772436731399e-006 
-4.262490803216523e-006 
-1.236965268286746e-005 
-1.074111093116232e-005 
4.190766359346267e-006 
1.458108846459609e-006 
2.767936106874455e-007 
2.636828725913272e-006 
-1.970104977431253e-006 
-7.605987451696016e-006 
-1.358394965951868e-006 
1.44356347990136e-007 
-2.556039448344801e-007 
0 
-8.54530999882812e-007 
2.234057890861382e-006 
-4.736993253180636e-007 
1.129954387693105e-006 
-5.740142660682636e-007 
-2.221005253034699e-006 
2.153826954563222e-006 
-3.360684152600612e-007 
-2.058966081870032e-007 
0 
-7.855207982039214e-007 
0 
-1.138322234924427e-006 
0 
-2.476829834193677e-007 
-6.018579162080635e-007 
0 
-1.569767175815886e-006 
0 
0 
2.334583462166686e-006 
-3.360684152600612e-007 
8.807501440721526e-008 
-4.238187880527573e-006 
0 
6.004523043473767e-007 
0 
-1.98568488400983e-006 
-1.443719860562765e-006 
4.143721773197378e-006 
0 
2.719986000764197e-006 
1.062217801508572e-006 
8.376371077761414e-007 
-1.515398324959541e-006 
-1.039578175502333e-006 
-1.119903418913648e-006 
-3.622905998622648e-007 
-2.790346001509272e-006 
1.618179596168115e-006 
-3.009834260122781e-007 
-1.985517995637167e-007 
-5.683257624291751e-007 
-1.891114872126821e-006 
2.953112032034984e-007 
-2.445334096896494e-006 
2.769987441564429e-006 
-2.308888740866282e-005 
-2.145137922989989e-006 
-4.524073242489642e-006 
-1.257860711248914e-006 
9.9638426858654e-007 
2.111469694813094e-006 
6.445399717818543e-006 
9.08983383864687e-007 
-1.679399761519901e-007 
-1.406298440175334e-006 
-3.916867737802109e-007 
6.674489342432232e-007 
-1.465472567248587e-006 
-2.476829834193677e-007 
3.859093309661591e-006 
6.004523043473767e-007 
-2.058483507735714e-006 
-6.709051760341178e-008 
4.793767540223763e-006 
0 
0 
2.665670294969475e-007 
0 
0 
0 
0 
2.311093651970921e-009 
1.734356998068349e-007 
4.657961647124423e-007 
3.965982798967458e-006 
0 
0 
-3.009289581040318e-007 
-1.100787513973699e-006 
1.091588601134479e-006 
-3.360684152600612e-007 
1.779546609961964e-006 
7.676673215731567e-007 
0 
6.004523043473767e-007 
-2.058966081870032e-007 
0 
0 
9.627745394979175e-007 
-8.161189894097701e-007 
-1.806607913768814e-006 
1.734356998068349e-007 
0 
4.143721773197378e-006 
-7.031762656831993e-008 
-5.592644125439691e-007 
1.931356158065005e-006 
-3.986879844954754e-006 
-3.859767200471152e-006 
-4.309659026802474e-008 
-2.611083907670169e-006 
-9.893248321254048e-007 
-3.373530338463942e-006 
-2.880829781087052e-006 
-2.23701747667267e-006 
-2.484642331651164e-006 
-1.675656370058354e-006 
1.716166414610192e-007 
-7.791199162932564e-007 
-2.751023092865408e-006 
2.127846210446657e-006 
-3.310278220743589e-007 
5.153294493994839e-006 
1.665222966869586e-007 
-4.020941184690502e-006 
6.476688859639938e-007 
0 
-2.058966081870032e-007 
-1.443719860562765e-006 
1.538460772821044e-007 
6.004523043473767e-007 
-1.691402843982133e-006 
-6.520145845441542e-006 
9.247865840138613e-007 
0 
-2.476829834193677e-007 
-5.394669540960067e-007 
0 
0 
8.238188964034331e-007 
-1.286462425728819e-006 
0 
-2.786952319128872e-007 
-2.917839706766396e-007 
0 
0 
0 
-1.744703286575043e-006 
-3.48857685384145e-007 
0 
0 
3.409831906215155e-007 
0 
0 
0 
0 
0 
3.318475954486582e-007 
5.420648596808428e-006 
-2.691812807641199e-006 
0 
0 
-3.360684152600612e-007 
-3.472935790151237e-007 
-2.805167338145484e-007 
-1.367789345364644e-006 
1.836649967512197e-006 
-1.531309477058114e-006 
5.70159415455053e-007 
-1.479123657037138e-006 
6.356615573791745e-007 
-1.835378450880903e-006 
-2.458225395087146e-006 
8.52104962619453e-006 
-3.210673344491141e-007 
9.190564713104673e-007 
-5.693472950987074e-007 
-3.832578026587478e-006 
3.593984837004459e-006 
-8.065307515377446e-007 
1.564687097234201e-006 
2.433455233854248e-006 
2.084407412352905e-007 
2.573713342044013e-007 
1.316699323766716e-006 
-3.682597458999451e-006 
2.551483132932526e-006 
2.308711454368412e-007 
-1.210939888170937e-006 
-1.971919577796682e-006 
0 
3.537736835850061e-007 
-2.805167338145484e-007 
-2.805167338145484e-007 
0 
-7.469954716328113e-007 
-2.058966081870032e-007 
0 
0 
1.108650512194673e-006 
0 
-2.353204037039692e-007 
-8.329847968426388e-007 
-2.476829834193677e-007 
0 
2.590080382304073e-006 
0 
0 
-2.009208079611536e-007 
-1.060692914328577e-006 
-2.351789511674345e-006 
-3.009289581040318e-007 
-2.917839706766396e-007 
-5.83751398679428e-007 
0 
-2.476829834193677e-007 
-8.515541158104888e-007 
2.353231520333851e-008 
-1.038711645779957e-006 
-3.009834260122781e-007 
-1.962741914598275e-006 
-1.346262706703358e-006 
3.906255093122186e-006 
-1.491345590291049e-008 
-7.519698987314585e-007 
-8.155225643395311e-006 
-9.465411157620539e-007 
-7.002357042211568e-006 
-1.698514045150047e-006 
-4.615258978438842e-006 
-9.74220617060676e-007 
-1.209266243577376e-006 
-1.420951327492322e-005 
1.705887133045642e-006 
3.262298380439383e-006 
-1.532543783910663e-006 
-7.149425998337742e-006 
6.043207738366863e-007 
2.008917803240364e-006 
8.713529220319473e-007 
0 
-1.718791162376681e-006 
-3.172639155983333e-006 
-9.920633197870201e-007 
-7.437646318433874e-007 
-6.75570462362234e-007 
7.95420741306241e-007 
-5.804364648176392e-007 
3.970040237245581e-006 
-1.10622596488835e-006 
-3.122531242799005e-006 
-2.939430836086794e-007 
0 
0 
0 
0 
-6.293744191986934e-007 
0 
-9.734215342716397e-007 
0 
0 
0 
0 
0 
-8.806076160291965e-007 
-1.443719860562765e-006 
0 
0 
0 
1.394651110091575e-006 
-5.465503958604808e-007 
1.734356998068349e-007 
0 
0 
-9.116047145903174e-007 
-3.360684152600612e-007 
-1.030406868790544e-006 
6.275645219114194e-007 
-2.495358520734991e-007 
-1.242532273331061e-006 
-3.009289581040318e-007 
-3.770722590145752e-006 
0 
1.316394623340015e-006 
-2.690371508772157e-006 
6.815343751482378e-006 
-7.126620317581461e-006 
-4.502646577445817e-007 
1.132520034265433e-006 
-8.853190472495423e-007 
4.354840086163198e-007 
1.75760241087709e-006 
-7.4844467570552e-006 
1.979252653084353e-006 
-3.673951151345946e-006 
1.727673793455381e-006 
2.868933908552088e-006 
-2.161254468356802e-006 
-2.594527778282256e-006 
2.443398609362289e-007 
-2.455134300938124e-006 
-5.894979616174384e-007 
-3.987563376359787e-006 
1.014567415722103e-006 
0 
0 
0 
3.690912534542111e-006 
-5.983935374576442e-007 
-1.563792329902919e-007 
-3.622905998622648e-007 
0 
0 
0 
0 
-5.983935374576442e-007 
-1.172853354880872e-006 
2.613765134252106e-006 
0 
0 
0 
0 
0 
-1.979108889551819e-006 
-2.82230295391624e-007 
4.354840086163198e-007 
0 
0 
0 
-3.48857685384145e-007 
0 
1.355286462093732e-006 
0 
-1.724236594377314e-006 
-5.983935374576442e-007 
-7.511815801485615e-008 
1.182639551699801e-006 
1.292455463532973e-007 
-1.47435174379649e-006 
-1.172853354880872e-006 
2.58272401031367e-006 
0 
9.197146785466296e-007 
-5.970583528553127e-006 
-3.311625659009038e-006 
1.502434006576578e-006 
-2.659824179443945e-006 
1.469174978258894e-006 
-5.414158562763534e-006 
5.756745135892669e-007 
-3.441286248057538e-005 
-1.474509072817471e-006 
-1.27110562163769e-006 
2.431627785098452e-007 
1.662244683204186e-006 
-2.774840430657033e-006 
-2.930627855078876e-006 
1.503933515527583e-006 
-1.220080143696054e-007 
-1.335612218917872e-006 
2.693120932686115e-007 
0 
-2.135335350108405e-008 
-9.734215342716397e-007 
-2.713778613666042e-006 
0 
0 
0 
-1.647380159977307e-006 
-6.066586494198433e-007 
0 
-3.48857685384145e-007 
-2.805167338145484e-007 
-5.886167472850602e-007 
0 
0 
0 
0 
1.468398161595411e-007 
-3.360684152600612e-007 
4.143721773197378e-006 
0 
6.627835742559572e-007 
0 
0 
0 
-3.622905998622648e-007 
-3.009834260122781e-007 
2.619192569038423e-006 
-2.82230295391624e-007 
0 
0 
0 
1.133428457913857e-006 
-3.276018441581469e-006 
-1.758583543927951e-006 
-2.144835628959322e-006 
-1.106498341215525e-006 
0 
0 
-5.31766147465123e-007 
-1.120991012062621e-007 
4.513885472276244e-007 
3.311362298182576e-006 
4.143721773197378e-006 
-1.658390302822845e-007 
1.462690896207463e-006 
-3.806712446935326e-007 
-2.294424435818913e-006 
-5.973528340852411e-006 
-4.538053806854919e-006 
-5.760063604872223e-006 
1.230051165171243e-006 
-5.915726493296264e-006 
-7.286128987231154e-006 
-1.384037357646335e-007 
3.35072722227426e-006 
-2.558208798643282e-006 
-4.615291228537168e-007 
5.17257034673353e-006 
-5.000381011707683e-007 
1.137772586921134e-007 
7.904248535205646e-007 
-1.49827318155379e-006 
-7.863330730046427e-007 
0 
0 
-1.623445868186799e-006 
0 
0 
3.957625752284784e-006 
5.578067138554555e-007 
4.354840086163198e-007 
0 
-2.058966081870032e-007 
-2.495358520734991e-007 
4.354840086163198e-007 
-4.810181957402606e-008 
0 
0 
0 
0 
-1.443719860562765e-006 
3.780130758504665e-006 
-3.009834260122781e-007 
6.675849920871176e-007 
2.793551594317133e-008 
4.143721773197378e-006 
0 
-2.678027171310603e-007 
0 
6.004523043473767e-007 
4.08940399052484e-007 
1.259323613325024e-006 
-2.425747022527867e-007 
0 
-9.294574122463329e-007 
-8.329847968426388e-007 
-2.678027171310603e-007 
-2.678027171310603e-007 
-3.334001711959247e-006 
-9.55752444971822e-007 
-4.298933058488242e-006 
-1.337740185201477e-006 
-4.15563447451109e-006 
1.633232012187569e-006 
1.044566734955897e-007 
-4.265543770416821e-006 
-4.738107305323947e-005 
2.064263630588176e-005 
-2.866254977735927e-006 
1.96200751001814e-008 
-9.334374761351244e-007 
-2.196797657535766e-006 
-2.604781414368517e-006 
-1.04259468877808e-005 
-1.440061952164426e-005 
-2.239996595696167e-006 
-2.226302928567701e-006 
-8.64337119583116e-006 
-3.10637583196439e-006 
-3.672358502104113e-007 
-9.545267281458582e-008 
-4.543024058799598e-006 
-7.363927493259115e-006 
-1.253443613156197e-005 
-3.186438129405297e-006 
1.997077703167984e-006 
-3.056263648853473e-006 
-3.951556898260076e-006 
1.140300351455222e-005 
-7.371752185385602e-006 
-6.694012807556615e-006 
3.497811130644329e-006 
9.674679857390185e-007 
1.717005076978352e-006 
4.307708016178842e-007 
-2.671209597540743e-006 
1.245597659354938e-006 
1.049165384551405e-006 
-1.956555484226474e-006 
-5.225305642695733e-006 
-6.022793180180795e-006 
-4.379669124404489e-006 
-6.966814609618044e-006 
-1.85973792834351e-007 
-2.003289126971173e-006 
-3.661483435979078e-007 
4.710072537955848e-006 
5.269351578156478e-006 
6.101069594449164e-007 
-7.657530330054021e-006 
6.746844119149853e-006 
-2.586675594923914e-006 
3.322288851035566e-006 
9.722101476557597e-008 
-4.409532880300082e-006 
-2.23943266924304e-005 
-1.050880996409923e-006 
7.434775647535657e-006 
-2.984186579795908e-006 
-2.352466763111346e-006 
3.778920047444436e-006 
6.451756383532929e-008 
6.307347034229763e-007 
5.316463628396981e-006 
-7.328528960898475e-006 
-1.690456774713086e-005 
-2.292251246989813e-006 
-8.163386906186927e-006 
-5.056070575275565e-006 
-5.542126674164235e-006 
4.225532536537268e-006 
-1.274450381818576e-005 
6.071153153854771e-007 
-1.080372451244996e-005 
-3.080484274062638e-006 
-4.094938376304764e-007 
-2.104090564452811e-005 
-4.188994906155952e-007 
1.624831394987584e-006 
-1.1282452090128e-005 
1.085495394892632e-006 
-1.895257346443934e-006 
-2.660131270589547e-006 
8.578080894658621e-007 
-5.762624125452494e-007 
-8.441927213564008e-006 
-1.295440134157333e-005 
-1.076100299041979e-005 
-3.460353401712366e-006 
-1.505609479531767e-006 
-5.209053039273128e-006 
1.429803909333755e-006 
-7.507290250934162e-007 
4.29886301308802e-006 
4.159741332446278e-006 
-2.495507275548568e-007 
-2.356068579159167e-006 
1.484050611189422e-005 
7.155393206253367e-006 
1.149006416180464e-006 
9.518263452877235e-006 
-2.548489580047757e-006 
1.000513875443298e-005 
-8.910954487270899e-006 
-1.905873720951516e-006 
8.723718713833452e-006 
8.67833897892298e-007 
-1.382705454036163e-006 
-1.237813454117181e-005 
-2.654517149587579e-006 
7.062863455923982e-006 
4.65347173154785e-006 
-2.893148261609065e-006 
3.914591982476489e-006 
1.153498250473903e-007 
1.771218864721818e-006 
-2.489013824867155e-007 
-6.205326725401234e-006 
-4.719893397376041e-006 
5.22704379075465e-006 
-2.040676127838607e-006 
-4.20354541157794e-006 
3.131714561522498e-006 
-1.574395278182436e-006 
-9.863809526456733e-006 
-1.527690313757472e-006 
2.598228423241233e-006 
2.995335897737997e-006 
3.498583979362576e-007 
-6.330549103486559e-006 
-3.485519732136439e-006 
-1.802229499942197e-006 
-2.615425866835985e-006 
9.566214035171061e-007 
-6.910525386850945e-006 
-9.691195443123112e-006 
-3.360547437703798e-005 
4.48679299249685e-006 
-3.418457392740791e-006 
1.323533914054707e-006 
-2.203395387640782e-006 
-7.469949953159915e-007 
-9.372261909082099e-006 
1.524963615148111e-006 
1.999209996749641e-006 
-7.152646366214664e-006 
6.780947739968841e-006 
7.275527907059755e-006 
1.803142068084073e-006 
2.058292056363584e-007 
-1.206008294055745e-005 
-4.41095636973873e-006 
-4.261555874738657e-006 
-3.708175596041762e-006 
-3.7515966554355e-006 
-2.739746392063194e-006 
-1.419573055527933e-005 
-3.576479493072597e-006 
3.508782884582758e-006 
-2.526970596837444e-006 
1.824536719392074e-006 
2.908342145682985e-006 
5.189616286394237e-006 
-3.186564878378959e-007 
3.032518248512178e-006 
-5.508619029244979e-007 
-2.6605866127804e-006 
-8.51145073966509e-006 
-5.099192237625403e-006 
2.037751913320762e-006 
1.142202947938116e-006 
-3.147343877978981e-006 
-7.700340466266929e-006 
3.880882131525193e-007 
8.195324085201941e-006 
-3.947366914515889e-006 
4.292059405863733e-006 
9.316385844654293e-006 
-4.82614805767938e-007 
4.003371417857759e-007 
-6.510407496692954e-006 
-1.341828571937583e-006 
-8.106599082379663e-006 
5.75905244522075e-007 
-1.679299260223192e-006 
-2.330472136692205e-005 
-1.063092161267048e-005 
6.219967345282812e-006 
-6.436839372600159e-006 
-8.057924787350688e-006 
4.156483767249677e-006 
4.855770535880983e-007 
-1.772972658209032e-006 
-8.154719734299634e-006 
-7.031560414589972e-006 
2.287398507350695e-006 
-8.618305894178254e-008 
-1.28106282918711e-005 
2.37059486278822e-006 
-5.257799411612014e-006 
5.184585375353454e-006 
-1.78418965898218e-005 
-5.207331149316506e-006 
-6.707509326357808e-007 
-1.132834552287511e-005 
-3.003793926247403e-006 
-2.75934927526572e-006 
-3.129265445104056e-006 
-2.827165751474309e-006 
1.199904628298962e-005 
-3.352732357180463e-006 
-1.60657269691176e-006 
-4.786398383037177e-006 
-7.626312954464015e-007 
-5.75165347684131e-006 
1.37514989186415e-005 
9.394591876147839e-007 
-1.71419225723756e-006 
1.362792280324102e-006 
-7.049074492356492e-006 
1.642054496149598e-006 
2.54352871183469e-006 
-9.092609076902651e-008 
9.06636389784095e-006 
1.112761396681397e-006 
2.933344944407483e-006 
-4.673646278541837e-006 
-2.824662338170204e-006 
-8.00975670926126e-006 
-2.344137348797903e-006 
3.374908126623488e-006 
-6.353832004666294e-006 
5.106778517841195e-006 
-6.149105445904178e-008 
3.752999097626269e-006 
-4.60890511251509e-006 
-6.700707035918759e-006 
5.878267491345274e-007 
-3.813878167267924e-006 
-1.588221645375286e-006 
2.343592775505266e-007 
1.371848909378533e-006 
2.560407400645915e-006 
-1.614421450177584e-006 
1.472135597048578e-006 
-8.542480349645651e-007 
3.796694334255334e-006 
2.470413446009171e-007 
-1.005021298929939e-006 
-1.479813502177951e-005 
-1.081277469642926e-005 
7.758200234763799e-006 
-2.909422960503424e-006 
-3.885777790418672e-006 
-2.858881880082225e-006 
4.891316525391352e-006 
-2.251713362524478e-006 
-1.853720461800067e-006 
-2.390729114948398e-006 
1.188861534405526e-005 
4.222055748584382e-006 
-1.133296593105936e-006 
-1.516222572184307e-005 
-3.217356159590284e-006 
-5.002941696618851e-007 
4.828204522912095e-006 
1.521429953397982e-005 
-1.833771082501784e-005 
-1.205591379361978e-006 
3.056403027233033e-006 
1.027744176777776e-006 
-1.099880381405747e-005 
-1.14341708545055e-006 
-3.306175206982875e-006 
-8.390678496923666e-007 
5.388683091351224e-006 
-5.99995547883329e-006 
-2.165556471280267e-006 
8.065824609933188e-006 
-2.153775183015014e-006 
-4.084503379087524e-007 
2.730109905866217e-006 
-1.922165610426733e-005 
-7.112174161185698e-007 
6.747764680207096e-007 
-1.757568650511271e-007 
-3.558593058661242e-006 
-9.139882946981788e-007 
-7.625771747444028e-007 
-1.100593994145353e-006 
3.130586614141663e-006 
-2.276322193968276e-007 
4.68807836642051e-006 
-2.023632789043656e-006 
-7.33011400146567e-008 
-4.877365243298155e-007 
1.017063514234637e-005 
3.183789320409709e-006 
-8.543982198626825e-006 
-5.705089855749497e-006 
-3.275949560471242e-006 
-5.945096113671191e-007 
3.322403019291356e-006 
1.31663639388318e-006 
-2.705507309471075e-006 
-4.128170142152099e-006 
-1.762052178409488e-006 
2.91241132081045e-005 
1.681092183677249e-006 
-5.684856663805392e-006 
-1.491181941241371e-005 
-1.279919316544848e-005 
-2.080468740376154e-006 
-3.559661372942232e-006 
5.903307355843576e-007 
-4.365251060642628e-006 
-1.830122300811998e-005 
-3.466935406476046e-006 
4.839096310969319e-006 
-3.515666534366204e-006 
1.077114246811154e-006 
2.586984391972459e-006 
1.824737420732747e-006 
5.467418047280467e-007 
3.383149241647196e-006 
8.016697959173209e-006 
-8.564807393280171e-006 
-3.001264202197687e-006 
-5.129141432567999e-006 
-6.328735818179077e-006 
5.347970823310871e-006 
6.198127574583405e-006 
-9.660415694417918e-006 
-2.659063549863372e-008 
-9.590964500428238e-006 
5.164630431288719e-006 
-1.048187414896478e-006 
-7.464228735434162e-007 
-3.029178461449521e-006 
-3.960436362814003e-006 
8.616403040884218e-006 
-1.465488945806268e-005 
-8.672428649732435e-006 
-7.469908908826713e-006 
1.42661832333574e-006 
-2.815646697132071e-006 
6.019679354475096e-007 
5.271640151219051e-007 
-9.975326321350998e-007 
7.484092344022647e-007 
7.717575408434828e-007 
6.874503009205657e-006 
6.428318080010771e-007 
-7.525082411993846e-006 
-3.296349252237801e-006 
1.022357062976046e-005 
3.732444846688191e-006 
-4.814821112448249e-006 
8.571231938724828e-006 
-5.960712866657006e-006 
-8.195269838931568e-006 
4.454940959779511e-006 
-2.815340477838194e-006 
-5.481998858843204e-006 
-3.444482686146141e-006 
-2.329207695058315e-006 
-2.615271156155646e-006 
-4.464664238353324e-006 
-1.182299982489356e-006 
1.070913941530182e-006 
-2.262369837139249e-006 
-6.355114991550274e-006 
-1.353203503632033e-005 
1.368693084435907e-006 
1.034494558562149e-005 
-1.259043256411801e-005 
-6.349730181590334e-006 
-9.663425930907957e-006 
5.410835439817212e-006 
6.753657228086308e-006 
3.737518003912504e-007 
-5.620040199509984e-006 
-5.662145036278684e-006 
-2.779022724980035e-006 
3.076908137087879e-006 
8.482527882607804e-008 
-1.846395177357337e-007 
-4.586465159975866e-006 
-1.750909026073753e-006 
-2.293997735333873e-006 
-6.502172798794408e-006 
2.77611672854424e-005 
-8.959620189752629e-006 
-1.241270448591152e-006 
6.670577319773277e-006 
-1.365196127786031e-006 
-1.215813396635942e-005 
-1.54429355131818e-006 
-5.247092238109607e-006 
2.338098631246132e-006 
-1.588388140355796e-006 
8.456647710607203e-007 
1.307090584415075e-006 
1.503533783197127e-006 
-5.819653467613234e-006 
-4.393057874561811e-006 
-2.338055410729103e-006 
-3.838281826867983e-007 
-6.2540720339976e-006 
-3.788320206391518e-006 
8.194526304676256e-006 
-3.199767166740749e-006 
-6.591532621106598e-006 
-3.331658427543732e-006 
-1.19181765997385e-005 
4.208282701847891e-006 
-1.852292717770705e-007 
-1.44222780005657e-006 
4.599429552724418e-006 
1.324488947010055e-005 
-9.159180220974086e-006 
2.698246271430986e-007 
-8.716796932735376e-007 
-7.387173207148807e-008 
-3.688196232318508e-006 
7.113656953281928e-006 
-1.178894924284751e-006 
-2.221536480602209e-006 
-2.973302196160718e-006 
-3.097998312976704e-006 
7.515590918106787e-006 
1.145751157375934e-006 
-1.768277262062449e-006 
3.201556870847517e-007 
5.575770589194047e-006 
1.128885862705365e-005 
-3.940472584866735e-006 
-1.87481532796502e-006 
2.441816735995774e-006 
-1.566562091541503e-008 
6.030954342221593e-006 
-1.226742133020755e-005 
-9.202367633312718e-006 
-7.486385858054e-006 
2.21561285888748e-006 
1.223672661077008e-007 
-3.35080775344801e-006 
-3.201825764476804e-006 
1.814908159448645e-006 
-1.117565912049071e-005 
-6.677319119108847e-006 
-8.046164341913932e-006 
-8.161729907329333e-006 
-2.539193119952482e-006 
4.621501632888153e-007 
-1.295250045439625e-005 
-9.543023114299473e-006 
-8.466088250086038e-006 
7.82038227658436e-006 
-5.103303600085131e-006 
-6.400190892278076e-006 
-1.096056458666413e-006 
-1.840961463046048e-006 
6.560277776304748e-006 
-2.266276192138776e-006 
5.004749467348883e-006 
-7.22291712206042e-007 
-2.512773129994517e-006 
-6.05012003862272e-006 
6.828883286958376e-006 
-3.41739386098294e-005 
-6.160071742322164e-006 
4.051272750476049e-006 
-1.012689005764204e-006 
-4.236684432949491e-006 
-1.238822803760965e-005 
2.118992429518048e-006 
4.685546169763252e-006 
-8.171169064917599e-006 
2.46671227185665e-006 
7.85700842380154e-007 
-5.29951094981196e-007 
-2.593787164829731e-006 
-1.916561598367748e-005 
5.043563438233398e-006 
-1.35856728577628e-006 
3.065505694337678e-006 
-6.742842333889163e-006 
-5.754334206536539e-006 
8.350458164178146e-006 
-1.285537637301753e-005 
-1.896048564366924e-005 
-9.796453570268992e-007 
4.27780800989539e-007 
5.199010060312533e-006 
-1.634301152183609e-005 
1.359205894857702e-006 
-9.381186262011363e-006 
1.425901772737355e-005 
-1.09704301827024e-005 
-4.626361418264988e-006 
1.733287528228128e-006 
6.116237674370004e-006 
2.470552087159443e-006 
8.673748374322465e-006 
2.041434405714964e-006 
-3.497479833886394e-006 
-3.614434869792129e-006 
-4.74276423785602e-006 
1.183107955785775e-007 
-8.685856862611021e-006 
-8.109570920154778e-006 
-4.001197359831846e-007 
-8.765259765728386e-006 
1.17258316593008e-005 
-1.31298761181074e-005 
8.286222278892424e-006 
-9.071870982419097e-006 
8.033351959946718e-007 
2.571865350871808e-005 
-2.148108354915101e-006 
2.482717091513535e-006 
-1.185001933934883e-005 
-1.280174273356444e-006 
-2.192991031577675e-005 
1.050549095353769e-006 
-6.441483733047731e-006 
6.076334057085367e-006 
-1.635876429072059e-007 
-3.731149506677414e-005 
2.986074900046223e-006 
-1.524681870653985e-006 
-3.005661207955096e-006 
3.783455396134822e-007 
1.972292396357537e-005 
-4.849589101534205e-006 
3.548465112892705e-006 
1.083451334935194e-006 
-1.941874111265254e-006 
-1.311709528262381e-005 
6.377076214508835e-006 
-3.917376793283828e-006 
2.10157084062382e-006 
-3.870736354568863e-006 
-3.735756132473994e-006 
-2.623932339676038e-005 
-8.945129620050304e-006 
-5.557015653774227e-006 
-6.402161654100645e-008 
-3.810172664845391e-006 
-2.971841609521405e-006 
-1.57336233803528e-006 
-6.602981617074092e-006 
-5.358118766443869e-006 
-1.136757418798524e-005 
5.291294781927239e-006 
1.6643674073622e-006 
-4.395372071380105e-006 
4.988568249369883e-006 
1.774072753042071e-007 
-3.834240624014897e-006 
-1.969808993961247e-006 
3.182785870484585e-006 
2.673422760632643e-006 
-2.41463761774954e-006 
4.451388321198022e-006 
-6.722835624269312e-006 
-3.724410402512511e-006 
-2.464427333280944e-006 
-2.367530138023045e-006 
-4.390568869710166e-006 
3.19870781388728e-006 
-6.902692133045366e-006 
-1.264230509290671e-006 
-2.080025050843698e-006 
-4.884366804623968e-006 
5.269557939000824e-006 
-2.960219131743411e-006 
-2.141115997659792e-006 
1.049670205058895e-006 
-1.708480133717839e-006 
-5.244350980622178e-006 
-9.415971469908009e-006 
7.434583442977027e-007 
-2.912098932709264e-006 
-2.638573627131414e-005 
-1.269247106520529e-005 
-5.622634450316631e-006 
-1.840476331602468e-005 
-3.097945184282756e-007 
3.163639340046361e-006 
-9.209402591216687e-006 
4.256152826206478e-007 
-2.210208116536958e-006 
3.734364434775815e-006 
-3.947888713869811e-006 
-1.021924532356554e-007 
-9.188351582569161e-008 
-1.510952340429708e-006 
-1.937067807886333e-006 
-4.08453406139362e-006 
3.393912611542402e-006 
-5.182103575832691e-006 
-8.847199461228594e-006 
-3.115038635339747e-006 
3.062069152127005e-007 
-4.33768258439473e-006 
3.499874269010973e-007 
-2.773134295702886e-006 
-2.484413939360167e-005 
-1.462351620892119e-006 
1.904092414118581e-007 
4.921852560727613e-006 
-6.497958861136659e-006 
-5.752744070390276e-006 
-8.345791159980308e-006 
-2.479126696572488e-006 
-7.129712416662945e-007 
-5.56059044038923e-006 
-3.198777745130465e-006 
-4.47256832471978e-006 
-1.315863038695716e-006 
5.412726594355252e-006 
6.21521180692952e-006 
2.35862372127569e-006 
1.064916190623938e-006 
-4.955515395867826e-007 
3.55308662274035e-006 
-3.38129450813726e-006 
-7.004436669915509e-006 
2.001699319832672e-006 
-1.153488748027155e-005 
-2.572751999473573e-005 
-5.069535280792516e-006 
2.79233241944082e-006 
-1.640092971618167e-006 
1.664189639269028e-005 
-3.798698042627304e-007 
2.705783679870981e-007 
5.742255515324622e-008 
3.74188371739792e-006 
-2.038724111658832e-005 
-2.542891588549572e-006 
-1.40570040322033e-005 
-2.083907173022249e-006 
-1.22783028627102e-006 
-6.01531927435735e-006 
-1.039577964464847e-006 
-2.922658956439768e-005 
5.994791559092732e-006 
-1.162216186849903e-005 
-7.799432889895931e-006 
-1.766161906462404e-006 
-3.207352600344303e-006 
-5.952150310254062e-006 
-4.924315824123936e-006 
1.238491939450913e-006 
-5.897081080378887e-007 
5.539007711702218e-006 
1.307491857349194e-005 
-1.767410424255624e-006 
-1.16044691333462e-005 
-9.731481676556064e-006 
-2.38491989920674e-006 
1.36788717795941e-006 
2.096726440486128e-006 
-1.360852539118394e-006 
-1.876818080979007e-006 
-2.798619611958773e-005 
1.969279481356481e-006 
1.019627938698621e-006 
-9.499975219443438e-007 
-2.671859261478478e-006 
3.706582960112878e-006 
3.213929576212855e-006 
2.872119496801675e-005 
-6.037943076766885e-006 
-8.72468448416283e-007 
-1.244671565086962e-006 
2.763986543299841e-007 
-5.898330820306674e-006 
-1.025432776802919e-005 
2.865882531854815e-006 
5.746804852574818e-006 
-5.220962387332626e-006 
2.043424979578828e-006 
3.020306402410109e-006 
-1.009054880107962e-005 
-1.190872345916884e-006 
-5.99416971733023e-006 
-2.425490272818341e-006 
-1.72195186763928e-005 
2.835261848846199e-006 
-9.939905302257851e-006 
-4.957301419775739e-006 
2.982824507030588e-006 
-6.880990221523577e-006 
-1.595633053760824e-005 
-6.328089687674828e-006 
6.276221348622633e-006 
-5.00847396186415e-006 
2.443340334550327e-006 
-3.26899016560601e-006 
3.833616082149423e-006 
-4.240397882549717e-006 
-7.784109805705873e-006 
-1.806156339984869e-005 
-3.310177215061131e-006 
8.681243854243437e-006 
-1.774610238163455e-007 
1.212750854369779e-005 
-3.555550081013135e-006 
-3.617742037161515e-006 
-2.087398328369995e-005 
1.350901770586868e-007 
3.095102890401162e-006 
-2.009053732345401e-005 
-1.581211608535678e-006 
-1.131503922599298e-005 
5.441503062432718e-006 
3.722562966038869e-006 
-1.611939829865231e-005 
-1.858145530926018e-006 
-5.348819707676684e-006 
-5.677145285458196e-006 
-1.315931413992969e-007 
-9.305553848201169e-006 
3.931542959525854e-006 
4.289746800228365e-006 
3.056599046394787e-006 
1.855992965199879e-005 
3.601888901951501e-006 
5.045933889731744e-006 
-1.295148051639323e-005 
1.427558933434349e-006 
1.012444290352287e-006 
-1.031813297425123e-006 
-1.002549684892795e-005 
-2.586343937522384e-006 
-5.374796535042973e-006 
4.649422697423902e-007 
-1.367299184556249e-006 
-7.469627979651151e-006 
-3.09071728210639e-006 
-9.768380204665583e-006 
-1.199834777892976e-005 
1.138246663794803e-005 
4.426497799611333e-006 
-1.92045697441009e-005 
-1.708284395403887e-006 
-3.005084913335482e-006 
-4.11635925379082e-006 
8.261784234318027e-007 
-1.017966900379125e-005 
-2.807022855369613e-006 
-1.006234234075229e-006 
6.579902344278728e-006 
9.586416374404637e-007 
-5.864100734899617e-007 
-1.571156446123801e-006 
-1.72816542056797e-006 
-1.365111254829823e-005 
2.318478990858542e-006 
-1.541255432349521e-007 
3.033714806142729e-005 
-1.326237243630288e-006 
-1.684614719616377e-006 
5.571545372537507e-006 
2.305153573595073e-006 
-1.345621297065664e-005 
-1.357430140815e-006 
-3.38723234229336e-006 
9.546871626871484e-006 
-1.927423068941687e-006 
-7.296593933992499e-006 
-4.954960422423969e-007 
-4.333377847073321e-006 
-1.372957265903489e-005 
-3.182141742980456e-006 
-1.394158102148761e-005 
-1.03036105085067e-005 
-2.099040873689465e-007 
-2.103343789645407e-006 
1.320926060881091e-005 
-3.58934846613278e-006 
-6.442256059636024e-006 
-2.280804967085553e-006 
1.124059579900138e-005 
-8.558577281123967e-006 
3.671581768314945e-006 
-2.534058761942197e-006 
5.40912204657039e-006 
-4.796910416538485e-006 
-1.611120042844084e-006 
-1.099114428805072e-005 
-5.525341384993259e-006 
-6.090208276889782e-006 
3.657228345019171e-006 
-3.907762309321216e-006 
-6.310334884924514e-006 
-3.272925816721698e-006 
2.222790900964823e-006 
-2.203825513071726e-006 
2.294381107885478e-005 
-2.002364564416572e-006 
1.359838722710371e-006 
8.128063838064181e-006 
-2.98066087025832e-006 
1.021774399736974e-005 
3.810619889754836e-006 
-2.490599849993851e-005 
-1.073127070837108e-006 
4.892596885248204e-006 
-4.033092734018544e-006 
-8.83719858668638e-006 
7.694953338767373e-006 
-4.66904753726435e-007 
-2.280209519024716e-006 
-2.730252107376608e-006 
3.770186465844921e-006 
8.132597175495388e-007 
-4.484025621932113e-006 
-5.112302751688843e-006 
1.398776767924807e-006 
8.087228503991745e-006 
-8.872662196542201e-006 
-2.169902137624584e-006 
-6.262076228855283e-006 
-1.04307366564157e-005 
2.812154587085179e-006 
3.209717742960319e-006 
6.615087881028952e-006 
-1.711139231867302e-006 
-4.293111095619634e-006 
5.949959391557055e-006 
-1.014550104899459e-006 
6.436667611420142e-007 
2.594821031533493e-006 
-1.026926750071787e-006 
-6.79731645550794e-006 
-3.792039507319435e-006 
-8.024839136402047e-006 
-1.912562140232913e-005 
-9.819534198350332e-006 
-4.567682139657824e-006 
-8.409655974765548e-007 
-1.594393666764661e-006 
-5.310246254460266e-006 
-6.034678545710035e-007 
-2.149907065262369e-005 
1.654572860941416e-006 
-2.542847511682456e-006 
-4.017185118888839e-006 
3.094303288778908e-006 
-9.377321929716775e-006 
1.293060050525808e-005 
2.73768423046515e-006 
-1.416918922859238e-005 
-1.549949122336003e-005 
-2.140596925353992e-006 
1.443898478460015e-006 
2.212777799497523e-006 
9.942551527596243e-007 
-8.566475564827461e-006 
6.86982973902181e-006 
-8.955542789920935e-007 
-5.004100182666274e-007 
9.421800990768274e-006 
-5.825268273616631e-006 
-1.29129775331587e-007 
1.729494917660469e-006 
2.203745748503593e-006 
-5.683318415167807e-006 
-6.053677630306184e-007 
1.299390974811042e-006 
3.76042241037159e-006 
-3.873801979185419e-005 
2.893785532880701e-007 
-5.780808139098385e-006 
2.535864147760699e-006 
5.967029170387731e-008 
1.790833351741978e-006 
-4.145111930184725e-006 
-1.10788769774682e-005 
-3.687043055494339e-006 
1.601533103319609e-006 
7.611674920097268e-008 
7.146824444281758e-007 
-4.856696979468986e-006 
-1.505193986896538e-006 
-1.715614158735265e-006 
-1.133677738113812e-005 
-7.862396812429312e-006 
1.975633386580023e-006 
-2.331417088425534e-006 
-5.698476263561696e-006 
2.139437065336697e-006 
-1.342822102056036e-005 
-1.774339472266289e-006 
7.112469580903272e-008 
1.010577251416836e-007 
-1.072045776115643e-005 
1.173567139070008e-007 
-2.965319149179048e-006 
-9.864254571168216e-007 
-1.955121809573745e-006 
-1.240608781865548e-005 
9.52732597174535e-006 
-2.713053220627231e-006 
-3.319327753618377e-006 
9.289548852011893e-006 
-6.785891293989318e-006 
3.850154775344094e-006 
9.577517906350653e-007 
-5.043613771127304e-006 
-4.837727235855581e-006 
-3.374076340217107e-007 
1.734699318246451e-006 
1.060284102496982e-005 
9.414628912397704e-007 
-2.32880344123443e-006 
2.33389736994042e-007 
-4.743146183049824e-006 
-2.90819323103947e-006 
-1.380764373941625e-005 
3.649656479050603e-006 
-3.208361633980998e-006 
3.331585622247424e-006 
-1.667502282952939e-006 
-5.974979401330788e-007 
-1.945555246751769e-007 
-8.32122856582071e-006 
6.000788388467183e-006 
-3.073850157834959e-006 
2.789614148598385e-006 
6.559613503958172e-006 
-4.326721185852879e-006 
-1.01995357385396e-006 
1.190309293984543e-005 
-3.981154581532465e-007 
1.279528954921341e-005 
1.661111919300955e-006 
1.355999036463829e-006 
-7.524168761203511e-006 
4.055514719249386e-007 
2.087763034712279e-005 
-3.415778981010722e-006 
7.59756782142019e-006 
-3.138615179266782e-006 
7.599511097664582e-006 
-3.798223492955802e-006 
-5.595198286788906e-006 
-4.404325388494013e-006 
-1.127631256888689e-005 
1.040605656341174e-005 
-1.600301613539874e-005 
2.403595709590925e-005 
2.677399205492012e-006 
-4.561950631850015e-006 
5.916408067867222e-006 
-6.503047849089805e-006 
-1.996894478799857e-005 
1.277225651757257e-006 
-1.254366225584844e-005 
-3.083181314663021e-007 
-1.252827030114617e-005 
1.242051614625288e-006 
2.317042225620602e-006 
-1.284775769690379e-005 
-6.983025680897139e-006 
-1.297762095382156e-005 
-1.335020219103721e-005 
-4.614490248498979e-005 
1.747794618911438e-006 
-1.959281346827486e-006 
-9.210191807044082e-006 
-3.584731197172922e-006 
-8.90243474241041e-006 
-2.04433410573564e-006 
-5.061285529697191e-006 
-2.269858759032626e-006 
-2.248977413907524e-006 
-5.249177627743692e-006 
4.104931822596714e-006 
8.281744904771219e-006 
-5.015238275755828e-006 
2.89034350814859e-005 
-1.043882837388262e-005 
-7.795646607999387e-006 
-8.462994500016212e-007 
5.299559147698341e-006 
-4.150414648526273e-006 
1.470849022274057e-006 
-3.073025550533003e-006 
-1.305711016949713e-005 
-1.666845199262813e-005 
-1.188553738057669e-006 
6.006386482465559e-007 
5.614694736392874e-006 
-3.363324812245945e-006 
-5.283081172312093e-006 
2.862678318172002e-006 
-1.798136168180803e-005 
-2.837525271579565e-005 
-1.438556697281132e-006 
-3.707832916016767e-007 
-3.58275977870058e-006 
-4.639312182957867e-006 
5.851593244448488e-009 
-1.245129713394914e-005 
-7.298648137631524e-006 
-6.330644745020899e-006 
-1.054602978435106e-006 
7.003445606807572e-006 
-3.394237698679844e-006 
-6.091228595894674e-006 
-5.188556434913675e-008 
-5.599090530001207e-006 
-8.978003682141331e-006 
-2.973208212916172e-006 
-3.167726861827222e-006 
-7.85207791724117e-006 
-8.778349777015821e-006 
2.572521655903555e-006 
2.406075030158675e-006 
-1.370913002742462e-006 
-1.111760112035288e-005 
-1.016284539738181e-005 
-7.43340568489925e-006 
1.341424997051901e-006 
-1.587500825642658e-005 
-2.367994462180185e-005 
-8.686345112109562e-006 
5.698409751166204e-006 
-6.721059916684957e-006 
-2.350379885535359e-005 
-2.028250121423484e-005 
-4.331799244646149e-006 
-3.323821654170877e-006 
-4.484700333824858e-006 
-1.333867485174756e-006 
-4.968430939070871e-006 
-3.557974334644257e-006 
-1.683782833916846e-005 
-3.086660277585171e-006 
5.778871619868072e-006 
-1.952136891740496e-005 
-5.779251142886953e-006 
6.454637268200216e-006 
-9.208252834527602e-006 
-1.82993518259428e-005 
-8.116962085021855e-006 
-1.098282498254109e-005 
-3.241363460471381e-006 
2.863336609674236e-006 
1.955929491890979e-006 
-4.02629167875203e-006 
2.847504091466016e-006 
-1.051907199480037e-005 
-5.58511990963135e-006 
4.461454748928748e-006 
-9.351372219067055e-006 
-9.30642636248845e-007 
-3.170941975490193e-007 
-8.282073186617655e-006 
-7.414182043632911e-006 
-3.580935337083202e-006 
-1.705661272819236e-007 
-2.039076770812272e-006 
1.210125295242203e-006 
4.754711593588917e-007 
8.146551503467021e-006 
2.86215672349892e-006 
1.920025679167679e-005 
4.250944350634485e-006 
-1.539522752620176e-006 
-6.18039126212311e-006 
-1.604124783511834e-005 
-1.957997779626437e-006 
-1.842152246184181e-005 
-6.781331427623904e-006 
-4.41006952778313e-006 
-4.192775054975519e-006 
2.598819151677026e-006 
-8.37646058053868e-006 
3.374065975320518e-006 
-6.252771649485484e-006 
1.176936601995705e-005 
-4.082123208202097e-006 
-8.490181430832332e-007 
1.376285923172964e-006 
-7.154390778787123e-006 
2.193052556553865e-006 
6.196383802246936e-007 
-8.58555656412267e-006 
4.313845795609611e-006 
-1.091985846845707e-006 
-1.872918402881311e-006 
7.423820196777981e-007 
-1.925926656393894e-006 
-1.957009023866095e-006 
1.765126117140374e-006 
1.694095125674984e-007 
-1.40298054166688e-006 
-3.448671914509781e-006 
-2.695949251937891e-005 
1.781960235514143e-006 
1.621115469631613e-006 
-1.270442899563352e-006 
-4.954470384843228e-006 
-2.168303046255008e-005 
-3.577147655676531e-006 
-8.898811727536014e-006 
-1.98099909309475e-005 
-2.489800386813661e-005 
-1.758815845275936e-005 
-1.90847680295876e-005 
-4.25937070403457e-006 
2.99034642830277e-006 
-8.650213494542488e-006 
-1.06823120755259e-006 
-5.872057991373716e-007 
-1.201732319088409e-005 
-4.872969090328261e-006 
-1.214544220255223e-005 
-8.694874401113315e-008 
-4.339524459420744e-006 
-1.657098963240097e-005 
-7.814774736783528e-006 
1.832669337040994e-006 
-5.149948111949821e-006 
-7.112430639019074e-006 
-4.119095579954433e-006 
2.216778226246734e-006 
-8.008197500425678e-007 
-1.033405065231284e-006 
-9.037532789294417e-007 
-5.186761047151341e-007 
-9.444886026023156e-007 
-8.361701380724817e-006 
-2.504926532625793e-006 
-2.636533802508995e-006 
-1.047455137844614e-005 
-1.735179906618181e-005 
-7.29133562391675e-006 
9.352486079756457e-007 
3.418607264324872e-006 
-9.109158442257404e-006 
-2.556355072370755e-006 
1.097600030601663e-006 
-1.693186316429911e-006 
5.320937645861024e-006 
8.160712769124418e-007 
2.299115774656917e-006 
2.830428472598823e-006 
-1.922355195857764e-006 
-1.681242370506615e-006 
-2.034451071689692e-006 
-2.068044129533037e-005 
1.147312500704844e-005 
-7.577536483114196e-006 
-7.128655802292622e-006 
-1.285416479604303e-005 
4.330390091033967e-006 
-3.190807982337244e-007 
-3.465470428068909e-007 
-1.369735826146956e-006 
-3.35389218440015e-007 
1.16631040348762e-006 
-5.79764561120084e-006 
2.176722377104848e-006 
1.170102485030506e-006 
-1.908895974705066e-006 
2.280422761505591e-006 
-5.065633798614646e-006 
-1.394281221402922e-005 
-2.149427695713257e-005 
-7.662435520280217e-006 
-1.27208341807152e-005 
-2.804513497602688e-006 
1.226333908311901e-005 
-2.814318013212198e-007 
1.147882365888174e-006 
-2.640562313738799e-006 
-1.824526890408961e-006 
-1.881098502116621e-006 
-5.611974054942535e-006 
6.230032954746281e-006 
-1.196581306713011e-005 
-1.241965773169271e-006 
1.336634421802288e-006 
-2.516274978224433e-006 
-9.898242992567803e-006 
3.051134388167379e-006 
3.859779481975599e-005 
-1.063632086691095e-005 
6.798974604094713e-006 
7.567799868425959e-007 
1.756262248419139e-006 
-9.319098521455536e-006 
-8.028754629542508e-007 
-1.72475908063822e-005 
2.47816801215144e-006 
-1.065866648890284e-005 
-2.957857777043416e-007 
1.118969051438598e-006 
5.384606566224739e-006 
-4.38429263825314e-006 
1.154330767073625e-006 
7.772112147777846e-006 
-2.571286375484758e-005 
6.313371724033234e-007 
-2.075710052296845e-005 
1.513837730359123e-006 
-6.273444173894823e-006 
-2.043644434840571e-005 
-1.292640185476472e-006 
8.722583201551477e-006 
2.31055365808953e-006 
-4.336192594343465e-006 
-1.449215900476463e-006 
-3.808719858197873e-006 
7.302642818077011e-006 
-2.593491418221607e-006 
-2.871460159608355e-006 
-1.395405663465657e-005 
3.923521946714435e-007 
-2.423255728389169e-006 
-1.700687674931544e-006 
2.489247362415685e-007 
-9.423284372392472e-006 
6.758518255465557e-006 
5.227656704721536e-006 
9.098627832036556e-006 
-3.887128834169749e-006 
-1.022449147856424e-005 
-7.159107627023918e-006 
-4.740163935102337e-006 
-1.664898156636012e-005 
-4.601012252710784e-006 
-1.168708609844633e-005 
1.486986958431154e-006 
4.235931393053253e-006 
-1.263302068578532e-006 
-1.34327250019538e-005 
-2.619086358901302e-006 
-4.667288243866876e-006 
-1.465878427267749e-006 
-3.012307443091292e-006 
-1.583471886199387e-005 
-8.311072888431136e-006 
-1.88629119142827e-005 
-3.178492672344952e-007 
-6.890181868579457e-007 
8.073045004651839e-006 
-7.160511177218082e-006 
-1.636559451568501e-005 
9.787335172430879e-006 
-1.433498586483085e-005 
-6.306526406906179e-006 
-1.62000667210825e-005 
-1.796807331423647e-007 
-6.339585247700765e-007 
-2.422743923995596e-006 
2.424002932370376e-006 
1.205833753886506e-005 
8.503454010598737e-006 
-3.908498807787546e-006 
-5.057723326510804e-006 
-9.671155538699778e-007 
3.310300637929457e-006 
-2.201907928430859e-005 
2.453051009155478e-005 
-4.577887011744154e-006 
-6.542417673364463e-006 
1.493897112463064e-005 
-5.462518708261256e-006 
-3.512535867771583e-006 
-4.425773935560302e-006 
3.807293136129415e-006 
3.579928290976013e-006 
-4.102696120145985e-006 
4.997014625577191e-007 
1.082905866473637e-006 
-3.433197451120895e-006 
-1.176565457085409e-008 
-4.932486232045828e-006 
-1.129255892014015e-005 
-3.677170573538262e-006 
-8.210379846284818e-006 
7.046572782028584e-007 
-1.525870292818314e-005 
-2.134923332885628e-005 
5.883706962888865e-008 
4.083746149969665e-006 
-4.895361465816224e-006 
4.422143003516024e-006 
-1.913323074261109e-006 
-7.77960946053232e-006 
1.092407390720456e-005 
-9.77862687464864e-006 
-4.008840034855787e-006 
-5.121915450102329e-006 
1.161728113797254e-005 
2.318501852216401e-007 
-1.523115026269431e-006 
2.334948007636927e-005 
7.075937867710131e-007 
2.660353284877914e-006 
2.154727054142603e-007 
-4.059758975206001e-006 
-2.380877110516418e-006 
5.779799062391186e-007 
-1.059791901411682e-006 
6.228868945402775e-007 
1.376645661432894e-005 
5.911779770086772e-006 
4.097886426143617e-006 
-5.474542299245999e-006 
-3.91202198108437e-006 
1.851787964673089e-005 
-2.726141800556796e-006 
2.387645018873512e-006 
1.262430155517646e-005 
-1.366520692009153e-005 
-1.869990635455467e-006 
-1.584336128211161e-005 
-4.092016985821823e-006 
-1.025975211362063e-006 
-3.22645157721554e-006 
-4.763493349195174e-006 
8.078532364423974e-006 
1.101999269593338e-005 
5.900684720780844e-007 
-1.001555860141772e-005 
6.93809294441996e-007 
-2.043744935726279e-006 
-5.484332482369879e-006 
-1.222667503712191e-005 
-8.843702796196453e-006 
-4.797473910744252e-006 
-6.443903111480413e-007 
7.544997544858155e-007 
1.467269947605354e-005 
-2.366436214370046e-006 
-7.35675045519606e-007 
-2.66595058586619e-006 
9.863820706744845e-006 
-3.02810026800179e-006 
-1.314072468825117e-005 
-6.454717891436569e-006 
9.08789932881774e-006 
-4.085383996442708e-006 
3.034834278234284e-006 
1.400517728900183e-006 
2.145777092445105e-006 
-4.356352176418711e-006 
-4.723397452476665e-008 
-5.305480604809447e-006 
-7.289525768409383e-006 
1.162249570676705e-006 
-4.141360776948861e-006 
-1.532441142689154e-005 
-6.745784557413689e-006 
-1.26892008342032e-006 
1.443583560064089e-006 
-2.265665731235177e-005 
2.15012829120114e-005 
5.590238578870646e-006 
-3.82451848537164e-006 
-9.844881225825932e-006 
6.534720347516088e-006 
-3.52112065786428e-006 
-3.239672826609019e-006 
-3.59804854100236e-007 
4.326076887287421e-006 
1.030051027443095e-006 
1.657406314412045e-006 
-8.580130664638363e-006 
-4.226268650427694e-006 
3.386119826833356e-007 
-5.484100470928196e-006 
-1.332943864829898e-005 
-5.043066083377243e-006 
2.311432063278506e-006 
3.345144661345423e-006 
-1.934201222071707e-005 
-2.53379773940819e-006 
4.050197611594182e-006 
6.508103978701797e-006 
-6.148569950828774e-007 
2.795991463043975e-006 
1.183611109752302e-007 
-1.636549333134198e-006 
-9.489887585928626e-006 
-1.368710339351549e-006 
-5.433451423935572e-006 
2.803800956918928e-006 
-1.642977096068443e-005 
-2.416830830571456e-005 
-4.672596678040015e-008 
-1.706653183420089e-005 
-2.137158203145478e-005 
5.590640357215257e-007 
3.445732322504298e-006 
-3.784032295631904e-006 
-7.004292558810463e-007 
1.110886014081814e-005 
5.909095690296059e-006 
-1.479311814990398e-005 
-8.211611467015601e-006 
6.975188970177917e-007 
3.428584989933108e-007 
4.43452716425611e-006 
-2.029354407722472e-005 
3.830139102900298e-006 
-7.843317442141701e-006 
-2.862683255438551e-006 
-2.157358049350547e-006 
-2.529827110662327e-005 
6.334350483607853e-007 
2.301951362575132e-007 
-2.115198344576029e-006 
-6.737672721547872e-006 
-3.203544577047371e-006 
-3.02526687612282e-006 
-3.544197512361151e-006 
8.499173821860761e-006 
-1.907845654537201e-006 
-4.296641187108858e-006 
-3.182949161789891e-007 
-7.251930064726872e-006 
-1.13419433421503e-006 
-5.293413152013001e-006 
1.084741969388734e-005 
-8.939886220863164e-006 
-2.345540733711965e-005 
-8.569128850231952e-007 
-1.700657300350092e-006 
-8.629035875656756e-006 
3.28835019957009e-008 
-1.381902029157395e-006 
-2.053999063160036e-006 
-1.298754093529182e-005 
-1.588158417652003e-005 
-3.621209993209856e-006 
-4.788336646709134e-005 
-1.120403002295882e-005 
-1.342194323921522e-006 
-9.189436745017904e-006 
1.043988246265157e-006 
-2.190481915705191e-006 
-7.657265523213381e-006 
4.558826705569523e-007 
4.919688100224946e-008 
-6.404163094268574e-006 
-2.12232207801657e-006 
-1.167065560195741e-005 
-7.362604698620396e-006 
-1.498312457690062e-005 
-3.012438872510246e-006 
-1.268907858867196e-006 
-1.113379005012373e-005 
-1.028484529866626e-005 
-5.166489182602886e-006 
-2.489925828479606e-006 
-1.223341326382864e-005 
-1.736721418330054e-005 
-1.15688725493958e-005 
1.516080545589143e-006 
1.036801591792938e-005 
-5.580214862076686e-006 
-1.279193497667351e-007 
-4.944688323148222e-006 
-1.340392929210109e-005 
-2.140609209231667e-005 
-5.694828141568117e-006 
-8.555834173781159e-006 
-1.77689175582508e-005 
-2.428846657793889e-005 
-1.244542825558818e-005 
-4.193920575662645e-006 
-3.383723767913108e-005 
-1.456476356021366e-005 
-3.795200429309593e-005 
-5.162729697821424e-007 
9.203576426935727e-007 
-1.298925204432327e-006 
1.659525334002478e-006 
-1.141737450521079e-005 
8.980464755593231e-006 
-1.024962336024253e-006 
9.49130925091228e-006 
-3.13444216430453e-006 
-1.010735429808842e-005 
-2.831537925749218e-005 
-3.386950547978452e-006 
-2.179216760234458e-005 
-1.033628409020544e-005 
-1.024652722215422e-006 
-9.969826674446366e-006 
-1.304697028103103e-006 
5.061379053919182e-007 
6.742167861146032e-007 
4.75197000427792e-006 
-7.701304592483295e-006 
-4.509546475097462e-007 
-3.030387557660599e-006 
-3.531829463050599e-006 
-2.652630679216474e-006 
-2.5835576501245e-005 
-1.975525059667962e-005 
-9.426031337877488e-006 
5.1466281429171e-006 
1.071331639256812e-006 
-5.911249695539133e-006 
-8.454500191158892e-006 
-2.374393735589552e-006 
-6.616753202278871e-006 
1.586854263329175e-006 
-1.009228152808137e-007 
-9.48353944885388e-006 
2.130869483288783e-006 
-1.032993936418802e-005 
-1.691228896666303e-005 
1.670049576414738e-008 
-1.188183371067514e-005 
-1.670773549505877e-005 
-1.086990334822936e-005 
4.597955068101134e-006 
-1.923603974262711e-005 
-1.987488568371342e-006 
-4.679457916270889e-006 
-1.773689260569227e-006 
-1.161722520639169e-005 
1.827268739367128e-006 
1.165249758619662e-006 
-9.407266380185396e-006 
3.367704058538205e-006 
-9.555026430065453e-006 
-3.581143318088029e-007 
-3.567451305788996e-006 
-5.373720791220176e-007 
-3.520905627432197e-006 
-7.793631963556514e-006 
-7.688973528256607e-006 
-6.564987036072303e-006 
-2.274090640432118e-006 
4.007010885552719e-006 
1.016605617949955e-005 
-2.768611224082921e-006 
1.214101194250196e-005 
6.314476170740967e-007 
-1.86942460286939e-006 
-6.583546118670106e-006 
2.420182259420493e-006 
3.525486813657775e-006 
4.525547243659891e-006 
1.784013962053421e-005 
-5.231673965351814e-005 
-1.665423637212534e-005 
-8.750133622196323e-006 
-6.151511138584953e-006 
-1.345688592283403e-006 
3.40262061082454e-006 
-4.335254658698315e-006 
-9.095522683946745e-006 
-2.660291330482001e-005 
-3.007848637536504e-006 
-1.102803399186738e-005 
-3.526217100483871e-006 
-4.514010842316712e-006 
4.822818119884196e-007 
3.888241921312397e-006 
-2.338757718876167e-005 
1.056620383507862e-005 
-3.838319274131342e-005 
-7.18214314931976e-006 
-7.743642351858828e-006 
3.571396269064426e-006 
-2.799026750569216e-006 
1.79915538628613e-006 
2.817011529293606e-006 
-4.3272641301225e-005 
-1.502808228950275e-006 
-5.688288586493133e-006 
-6.438373636376357e-006 
2.536905966137013e-005 
1.767275488629648e-006 
-4.139106111782396e-006 
-1.406268708362975e-005 
-2.36662650201652e-005 
-2.617789326622619e-006 
-1.87450804319359e-005 
-1.348099863942876e-006 
2.741145952407374e-006 
-9.038304641477337e-006 
-1.417113716434758e-006 
-1.79800111226199e-005 
-4.793963504938503e-005 
-7.739269847063645e-007 
-1.112606854144914e-005 
-7.141918411658519e-006 
-8.387513616491917e-006 
-2.521968568342049e-006 
-1.806008042513544e-005 
-6.08336386634137e-006 
2.157286787183778e-005 
-6.040551876909464e-006 
5.449739343382608e-006 
-1.484579799299812e-006 
-1.522795762260341e-005 
-1.251614428930286e-006 
2.706119079616387e-007 
1.084634214233028e-006 
-7.284577961123775e-007 
-6.877501225847383e-007 
-2.642620937678422e-006 
-2.793100222616532e-006 
-1.778008707968663e-008 
-1.643007420455145e-006 
2.751955815898383e-006 
1.305481818552054e-005 
-8.266868349642012e-005 
-2.497639021957575e-005 
-2.574445312591419e-006 
-1.532278467479704e-006 
-8.211822984360636e-006 
1.440266601541652e-006 
-1.433868067975247e-005 
-1.805120189594136e-005 
-5.046708423399104e-005 
-2.758087177068655e-006 
-5.923544540458425e-006 
-9.064899969240529e-007 
-3.258696916855819e-007 
6.155830665581848e-007 
-2.87783481221258e-005 
-2.097637290673915e-005 
5.46872915976905e-006 
-8.107333319671908e-006 
-4.99441036274095e-006 
6.835900118816934e-006 
-2.854687885448009e-006 
-1.60003608687608e-005 
-1.210073651792635e-006 
1.19536310954792e-006 
6.058776789487675e-006 
2.872737937249222e-006 
-5.649999680566638e-006 
3.071799876972394e-006 
2.317508627020542e-006 
-7.62724337319826e-006 
-1.797090251816758e-007 
4.561695958922259e-006 
-4.118201391000023e-005 
-2.131427077178218e-006 
1.351345585763383e-006 
8.535835868207005e-007 
-3.393986910169268e-005 
7.045761648773359e-006 
1.990003405022053e-006 
2.562335396423339e-006 
2.597379187818715e-006 
-4.442139343963114e-007 
-8.872296932403518e-006 
2.07013259594627e-006 
1.139067893225485e-006 
-7.748176007667648e-006 
-1.142005213410407e-006 
-3.273799349205656e-005 
2.621907882152586e-005 
8.287285565541446e-006 
-2.188608116447561e-005 
-8.860717301861101e-007 
4.281064057751586e-007 
-5.79506177817674e-006 
2.507062393390062e-007 
-2.951011465881237e-007 
1.885209337711219e-006 
1.013625644951402e-006 
-5.861188209858974e-006 
-2.983367841691143e-006 
-1.974937894010031e-006 
1.633484174746884e-006 
2.342775525190682e-006 
6.960019411933595e-006 
-1.460995651186681e-005 
-3.191854061320254e-005 
6.543447329214033e-006 
-9.221130273089236e-006 
-4.49720861004669e-006 
4.38517487598142e-006 
-1.622631149745786e-006 
-6.326105777520197e-006 
-2.773340995396901e-005 
-1.122732559151248e-005 
7.498495434944327e-006 
-1.767916115932574e-006 
-2.266219286352944e-006 
-4.303948082712136e-006 
-3.015383021590186e-006 
7.287093234369649e-006 
-5.793502157189549e-006 
-4.176707548387993e-006 
-4.341608883543363e-006 
9.170936618339628e-007 
3.403962067458325e-006 
-5.606261135749993e-006 
7.68270924803296e-006 
-6.000857654856772e-006 
-2.199198734636428e-005 
-5.073889972056255e-007 
-2.718540720347602e-006 
-1.77907997502454e-006 
-1.273665027446444e-005 
-7.612634470744039e-006 
-3.324524487529366e-006 
-6.78904031317934e-006 
-1.405686500341515e-005 
-2.422415338022352e-005 
-4.089198125269485e-006 
-5.511938805529245e-006 
-1.747359284465999e-005 
-1.469377777900907e-005 
-4.650062868486428e-006 
3.215927422205379e-006 
-2.811955041776686e-005 
4.864688563138844e-007 
1.1893754000216e-006 
-5.128755318612023e-006 
-2.764280445652163e-007 
-1.838640454430621e-005 
-2.322803271210194e-005 
4.165961579626459e-006 
-2.567479608441449e-005 
-7.882250885194562e-006 
8.679126857318697e-007 
-3.732191676615499e-006 
5.059813344349688e-006 
-1.091681790946968e-005 
4.587530014138656e-006 
-7.884882915092255e-006 
-3.730548822281422e-005 
-4.840675590887103e-006 
-3.340472715861084e-006 
-7.434953746852069e-007 
8.194257037769336e-007 
-4.282410970720106e-006 
-6.490192291017987e-006 
-2.675224354014304e-005 
-2.560974397395772e-005 
-2.849055772254784e-005 
-2.076763967872276e-006 
-7.311400089806839e-006 
-1.357136209425976e-006 
-6.095033294722513e-006 
-4.147957559880056e-006 
-2.050143770599232e-005 
-8.843626698672161e-006 
4.526977877440334e-006 
-3.967325102063707e-006 
1.117455695753448e-005 
1.377363421373231e-007 
3.47536599842482e-006 
-2.75478045138747e-006 
-1.603626432902131e-005 
4.626336065701703e-006 
-1.413351791236081e-005 
-3.727841597848124e-006 
-1.811869070168851e-006 
-3.151918684825385e-006 
-1.960191381786162e-005 
-8.000629996975843e-006 
-1.690009612589321e-005 
-7.580553771414517e-006 
-2.108824906513014e-006 
-3.783336838045307e-006 
-3.224986135860609e-006 
-3.531715016988765e-006 
-2.113068330054204e-006 
-8.946167297474734e-006 
3.38355869042751e-006 
-1.35936225848476e-005 
-1.168871348936266e-005 
1.827601042081324e-006 
1.995244895227469e-006 
1.365984038419335e-006 
1.697978773873961e-006 
2.176580507223163e-006 
-8.147753001351754e-006 
-3.959788494119912e-006 
-5.173378528145835e-006 
-9.665623104142646e-006 
1.017775975222727e-006 
-3.648226940541052e-006 
9.256694364966427e-006 
7.864330231265747e-006 
-2.604110726926451e-005 
-1.325965089776697e-006 
-6.566685295320186e-006 
-3.700990892150374e-006 
-5.089955564126497e-006 
-1.474211506036829e-005 
-6.898116073038782e-006 
-2.863713399328411e-006 
2.230143885835708e-007 
3.020037462749101e-007 
9.020189456137513e-007 
-4.380077853604036e-006 
1.076182124818666e-005 
9.92658276480416e-007 
1.502457706243468e-006 
4.341886312343175e-006 
-2.118039122112899e-007 
5.190534931853853e-006 
1.856325417642947e-006 
-2.32026298959746e-006 
1.073084225776915e-006 
-3.542094910563887e-006 
-2.317707011665925e-006 
-5.419650234470637e-007 
-5.915907730286289e-008 
-7.503116628878094e-006 
-7.95774577893159e-006 
3.096586461133942e-006 
-8.855896731618797e-007 
-7.806227548397101e-006 
-5.11606794530184e-006 
-1.199954109488272e-005 
3.106122600604171e-005 
-3.365511752798281e-005 
-1.142547634913759e-005 
-1.094839800103043e-005 
1.587784158244126e-006 
-2.665893918919141e-005 
-6.235277012290138e-006 
-4.785535703735833e-006 
8.745912925119211e-007 
-1.215017128180849e-005 
-5.385733380359926e-006 
-7.389504611964045e-006 
-4.205011372081459e-006 
2.516671252189232e-007 
-5.065652461375174e-006 
-9.358285159697104e-006 
-2.839467530791481e-005 
-6.66583879669821e-006 
-1.134436563077839e-006 
-9.908102002982686e-006 
-6.55353168963946e-007 
4.558651443311762e-006 
-3.622905998622648e-007 
-3.167706651400922e-006 
-2.61038560796821e-006 
-9.484248257841504e-006 
-2.985835459035517e-006 
-1.348302464529042e-005 
-7.080372266491305e-006 
-1.071048425065659e-005 
1.637451317593884e-006 
-4.87939108872467e-006 
-2.582850619033407e-006 
-2.666040754757612e-006 
-7.768164452580244e-006 
4.346243695229665e-007 
-1.902627275492661e-006 
-8.458098889033804e-006 
-5.563161612214382e-006 
1.552074874499617e-006 
-1.358118242761161e-005 
-5.136564464306584e-006 
5.806149157626519e-006 
-3.43442492777716e-006 
-1.194838683224498e-005 
-8.143931755143796e-006 
-2.31071007416895e-006 
3.45018842366879e-007 
-3.147835311623334e-006 
-8.654302331763059e-006 
-6.485051826182916e-006 
-1.380697692324755e-006 
7.700256533544005e-006 
2.970873898877732e-006 
9.861126679948928e-007 
-1.05280901822784e-006 
-4.383248861302527e-007 
6.62905421225778e-006 
-2.433647010505762e-007 
-1.353074215468662e-007 
-8.779087451925272e-006 
3.400261317475048e-006 
3.861077752979079e-006 
-7.13296053310736e-006 
-5.65961486316824e-006 
-2.733510215949201e-006 
-2.500296425516079e-007 
-6.135728829189374e-006 
-1.31025298154204e-005 
2.299307969574867e-005 
-7.552131603705584e-006 
-1.266176574944201e-006 
-8.851673081980375e-006 
5.869275841373907e-006 
-7.22993821053151e-006 
1.179407498511892e-006 
2.260091558047441e-006 
-1.548648901799443e-005 
1.771471919437054e-005 
4.729948946899931e-006 
1.931545267162505e-005 
6.865165379114138e-006 
-1.573927847148446e-006 
-2.897171649125082e-005 
1.043353518573235e-005 
1.033970841455237e-005 
2.372578022687387e-007 
6.34843808377768e-006 
1.516077380836373e-006 
1.202434386272048e-006 
-7.773053184835636e-007 
-3.686737793026467e-006 
-4.142784012307362e-006 
1.453532599340053e-005 
7.935926321792903e-007 
2.141412452569746e-008 
1.644806883844155e-006 
-6.020572913347428e-006 
-1.457950200516576e-006 
4.101999107940672e-005 
-7.457336464474473e-006 
-1.123753694585063e-005 
-3.138477275574777e-006 
-7.666834363043845e-007 
2.560845296745636e-006 
-8.06898355277443e-006 
-4.842088972375077e-006 
-6.866795818494117e-006 
2.175840764915693e-005 
-3.28234597949402e-006 
2.099133764496363e-006 
9.341440359994471e-006 
-1.424445831454449e-006 
-6.68757696451583e-006 
-1.869398102093314e-005 
-6.671427605881751e-006 
3.052497334920943e-006 
-9.366780003046341e-006 
-1.049999458661685e-005 
-1.830564047728767e-006 
-1.410107327085981e-005 
-9.873073888544226e-006 
4.350819194598719e-006 
0 
-2.756849464313267e-006 
-1.107188354647685e-006 
-4.230040560324383e-005 
-1.649616468749768e-006 
-3.532661833223116e-005 
4.406099222739307e-006 
-8.541389367714784e-007 
-9.199394514781151e-006 
6.30851305948155e-007 
1.329372233484709e-006 
0 
-1.251836305251358e-006 
-3.462438897206434e-006 
-5.547296800950543e-006 
-4.511338647849044e-006 
-1.627926728921429e-005 
-6.270112258563507e-006 
-2.226568114134925e-006 
2.32829789105253e-007 
1.326858635094898e-006 
-4.894147385498357e-006 
-3.605575745179267e-005 
2.506713007153742e-006 
-1.434229892051773e-006 
-1.163334707892161e-005 
-4.027254031102127e-005 
-1.201921855788227e-006 
1.286670858409395e-006 
2.993255145625105e-006 
-3.292286224021567e-007 
1.889230209586886e-006 
-5.644771887654234e-006 
-7.331119857541187e-007 
-1.341868333487614e-005 
-5.82709320429831e-006 
-5.692957414201346e-006 
-2.34613607477977e-005 
-4.195525954159001e-005 
-1.570678098438654e-005 
-1.131017389320163e-005 
-1.641067353088682e-005 
-6.690482967433082e-005 
-3.648420739220492e-005 
8.758675498074272e-008 
-3.394425069411561e-006 
-2.013489631419236e-005 
-7.817970318063367e-006 
-5.301708965694508e-006 
-5.586581943861612e-006 
-2.201612387884125e-006 
-3.703740881653592e-005 
-1.101964812338436e-005 
-4.89643933511859e-005 
1.424451815550918e-005 
-8.16669539098879e-006 
-3.058900575798633e-005 
-8.340272112216391e-006 
6.3813615132099e-007 
-3.133225432830697e-006 
3.605615614923387e-006 
-5.131070019187833e-006 
3.61304209864755e-007 
1.31448109164149e-005 
-1.490804915920317e-006 
-1.329132634246655e-005 
-4.687417155655436e-006 
1.839714067252904e-006 
-9.925848023316011e-007 
2.47181037376487e-006 
1.710831006191572e-005 
-3.890135700192551e-007 
-2.360800983794383e-005 
-2.990949985171124e-006 
-2.545289931666348e-006 
-7.068000023031027e-007 
1.638908453124381e-007 
-6.184061519867201e-006 
-7.843329174788392e-006 
-1.406544907887031e-006 
-6.455610692636702e-006 
-3.50167986782682e-006 
3.36029107849853e-006 
1.903172950316013e-006 
-1.020402475542304e-005 
-1.244829906243316e-005 
-2.478000450227555e-005 
1.28869775037158e-005 
-1.887166046601818e-005 
-2.959135927122863e-005 
-1.064675933679551e-005 
-3.448502326647894e-006 
-3.014418017705125e-006 
1.142024159647996e-005 
-1.88522091197457e-006 
2.823363902239793e-006 
-5.410201388793986e-006 
-5.185152072916745e-006 
-2.249084592577941e-006 
-6.208392639507458e-006 
-2.275747679215111e-006 
-8.725650637101506e-006 
3.069465943881075e-006 
-1.021993325444433e-005 
1.867999471957758e-006 
-1.802377920847698e-006 
-6.405939051556718e-006 
-4.278598628907175e-006 
-2.046745970405277e-006 
-9.214385741775427e-006 
-1.947451264842249e-005 
-1.957027314953476e-006 
-1.778665469411654e-005 
1.733110482421125e-006 
-3.209812820806478e-006 
-9.242713576707979e-006 
-1.149989026868063e-005 
-1.191282881973753e-005 
9.053426952842189e-007 
-4.41634153612196e-005 
-1.7475760561423e-005 
-7.012715494827108e-006 
-1.896119867542373e-006 
-5.857569671341812e-006 
2.695220412515342e-006 
9.890926907227738e-007 
-9.464745606892126e-006 
-2.45788390765315e-006 
-9.395622053074128e-006 
-2.293640407335626e-007 
-3.124184011369917e-006 
-2.688874721925563e-006 
-9.031805810296885e-006 
-1.266636723120393e-005 
-1.119810999695528e-005 
8.536655788778942e-006 
1.817874784784861e-006 
-9.353177396248319e-007 
1.78508181091068e-006 
1.181522752319604e-005 
-7.609334720041444e-006 
-6.990455839591132e-006 
-1.339107107297868e-005 
-3.893606869958688e-006 
-4.421857037328923e-006 
-3.960316882812692e-006 
4.648138928239312e-007 
-6.954476845190919e-006 
-1.378711745733058e-005 
-1.954678525580467e-005 
-3.437827706390258e-005 
-7.550606340636048e-006 
-8.460819359617632e-006 
-8.09887608778753e-006 
-1.532091302457142e-005 
-4.475334869062697e-005 
-5.467992549549661e-007 
-1.234321703112374e-005 
-5.024956490964645e-005 
-1.986558309085006e-007 
-2.14569629161267e-005 
-2.150850449978262e-005 
-2.019555037758409e-005 
-1.634228305771429e-006 
-1.161081589300136e-005 
-2.079520490103354e-005 
-3.509366055542501e-006 
9.428248792731811e-007 
5.311949795176286e-007 
3.515467561271542e-007 
-1.011173097619721e-005 
-1.460010894413276e-006 
5.572288348923825e-006 
6.638735909530117e-006 
-6.101240702270764e-006 
5.491883046232696e-007 
-1.433306552884817e-005 
1.851761374557334e-006 
9.247865840138613e-007 
-5.830940047992009e-006 
-6.984363197365546e-006 
-1.098807592977941e-005 
-1.397732862872191e-006 
-9.287266040894614e-006 
-2.152085982103105e-007 
-6.935548638019386e-006 
-4.358264727571462e-007 
-2.840245678306765e-005 
-2.034273330790857e-005 
-4.757294636668845e-006 
1.619440834574313e-006 
-1.012618580204017e-006 
-8.932874694614375e-006 
-5.016698961430115e-006 
5.258524798080438e-007 
-2.729408594874822e-007 
-1.1903054890169e-005 
-4.895001693282408e-006 
-1.626736344392012e-005 
-9.005899876639126e-006 
-2.352653655952077e-005 
-2.093737375262325e-006 
2.106027889333321e-007 
-1.364962553896822e-005 
9.865210226265958e-007 
1.074776058356799e-006 
-4.579555027971252e-006 
-4.632036739103462e-006 
-5.430177960349347e-006 
2.817036382721258e-006 
-2.058966081870032e-007 
-4.110082652806082e-006 
-1.073311602153921e-005 
3.835435562713567e-006 
1.152099430706058e-006 
-3.712429161961499e-005 
-6.866472358386943e-006 
-9.374744326692055e-007 
-1.774225365824953e-005 
-5.649432727907271e-008 
-4.216789846399115e-006 
-1.764018802249554e-005 
-3.945345404463026e-006 
0 
-1.296995528714715e-005 
-2.290223355922813e-006 
0 
7.009056699056987e-007 
-9.062811132184688e-006 
-5.736971368383118e-006 
-1.370896598022031e-005 
1.880649086279184e-006 
-2.705077014391939e-005 
-1.737662944171444e-006 
-7.353941614236479e-006 
-1.827482832946763e-005 
-4.098827900447091e-007 
-9.704135975586243e-006 
-1.244461375073308e-005 
-6.065735906849953e-006 
-4.984187915546537e-005 
-3.08788395887501e-006 
-2.024696321686029e-006 
-3.087851232617612e-006 
-3.312784223656814e-005 
-2.410014740339676e-005 
-1.173137021789115e-005 
-2.67839438439146e-005 
-3.720886862335724e-006 
-3.263674274792774e-006 
4.418042883097699e-006 
-1.09852755890043e-005 
-3.702022083158025e-006 
-2.024161997018013e-005 
-8.088405106214336e-006 
1.27465362764505e-006 
-6.51912529929262e-006 
-2.323223415124973e-006 
3.679770075545889e-006 
1.210786919023211e-006 
-6.394758745245928e-006 
-4.687160475643684e-006 
-6.110640762032993e-006 
-1.42158843489452e-005 
-1.047811607567276e-005 
-2.322642658928806e-006 
-6.950966126088807e-006 
-7.142909139552716e-006 
-3.0541625553841e-007 
1.286986422311084e-005 
-1.384173861454274e-005 
2.946955422159196e-006 
-8.020977149990027e-006 
3.294022884465856e-007 
-1.013694218152162e-006 
-4.483289401321884e-006 
-1.152477080943117e-005 
2.054466016303504e-006 
-4.341096767731082e-005 
-1.127874971883476e-005 
-2.815661637504839e-006 
-8.678606535127576e-006 
-1.872145850717566e-006 
-7.068524937877088e-005 
-1.350459175863884e-005 
-6.910029640505711e-006 
-6.359525528385343e-005 
-7.235093845233959e-006 
-1.939200007207232e-005 
-2.432103696115972e-006 
-8.754118895487703e-006 
-1.119069296608348e-005 
-2.521267206035799e-005 
-1.578394055729864e-005 
-5.695998240524167e-008 
1.832805843424334e-005 
4.949707204898808e-006 
4.133356683882886e-006 
-1.046002479364801e-005 
1.765892249819546e-005 
6.780615180941118e-006 
1.562808965135989e-005 
-2.433147271656577e-005 
8.808611153590363e-007 
3.107543979696352e-005 
-3.178353989751763e-006 
-6.359229000709554e-006 
-7.18355789743656e-006 
-1.155063135311415e-006 
1.790840502309406e-005 
-2.546241203880666e-005 
-5.301460776504814e-005 
-4.056862765593965e-006 
-4.696087346171796e-006 
-5.291041325471573e-006 
2.833571007869373e-006 
5.202426725920381e-006 
-1.407892834767462e-005 
-6.756141595460651e-006 
2.564250578449551e-006 
-7.79025721440699e-006 
1.225944308508897e-006 
-2.992756112710285e-006 
-7.401777556763173e-007 
-1.114014891960986e-005 
-1.798467599093291e-005 
-1.423683059324284e-005 
-4.841760499802713e-005 
-1.163132078658527e-005 
-1.445655014312603e-005 
-2.094766505570137e-006 
6.260707369917488e-006 
-9.899178897722194e-007 
-6.796263748950714e-006 
-6.475123886465186e-006 
-4.018548852226687e-006 
-8.839099787367437e-006 
-1.044523102543213e-005 
1.144891348187765e-006 
1.425940181335834e-006 
-2.645994554821517e-006 
-5.753150289024191e-006 
-2.60823407092428e-006 
-1.638382987997921e-005 
-3.995886406871645e-007 
1.783858017930603e-007 
-7.805735749755419e-006 
1.030111976208743e-005 
-6.108795471816418e-006 
-3.77427988994639e-005 
-2.79920573025191e-007 
-4.213815584941497e-006 
-6.12579072200195e-005 
3.207907384276454e-006 
-1.684812379079505e-006 
-2.843377103383654e-006 
3.812115520697198e-006 
-6.328271318430869e-007 
2.350032576852948e-005 
-2.151522181167472e-005 
6.560248917916119e-006 
-7.036354277404072e-006 
-6.578159221268827e-006 
2.428099835567478e-006 
1.601809199200321e-006 
-6.903080370440033e-006 
1.516471581825538e-006 
4.604028726718478e-006 
5.4562861064184e-006 
1.597270256890292e-005 
4.843825046077509e-005 
1.421558000542576e-005 
4.094053398860707e-006 
5.019804740202854e-005 
-4.664810810530155e-006 
-2.209009751396116e-006 
-1.24531210163088e-005 
-9.226364228652485e-006 
-6.992825263723333e-006 
2.902378863225674e-006 
-3.180279120610519e-006 
-3.408270253125853e-006 
2.273218685874429e-006 
-5.069029411073989e-006 
3.968434978188549e-006 
5.140144038092848e-006 
-4.516971542664153e-006 
-7.127544399031949e-007 
1.416584124529861e-005 
-1.77862281296291e-005 
9.616059397780037e-006 
-1.082170038062153e-005 
9.517808274147876e-007 
-3.528365713094046e-005 
1.84132150144042e-005 
-5.926367576869028e-006 
3.632716605597517e-006 
-5.753718564863531e-006 
-9.013690413932405e-006 
6.294269562527817e-006 
9.393493305214429e-007 
1.2243978040345e-006 
-2.306996485943219e-005 
7.045123170658237e-006 
-8.403540681613484e-006 
-5.142519660713665e-006 
-4.183513185941449e-006 
-3.92350240004421e-006 
-2.721932598267443e-005 
-7.471911712646326e-006 
2.227738948534751e-006 
7.28198753250616e-007 
2.898621720068224e-006 
1.949487498751013e-006 
6.238353474716506e-006 
3.773714095978506e-006 
-5.97542443394953e-006 
-7.578123863459948e-006 
9.475277507817676e-006 
5.42732407252915e-006 
7.827890288977634e-006 
5.641451516137504e-006 
1.909898570342264e-005 
-5.182662756309724e-006 
4.922317635278564e-006 
-2.920104552754295e-005 
2.167739250417623e-007 
-1.117551706357099e-005 
2.133111361877636e-006 
-3.166603315801301e-006 
-1.468294061775776e-006 
-5.43439874815994e-006 
5.765440690035967e-007 
-4.779581284567309e-006 
-2.780116454748709e-005 
-3.597880761634054e-006 
-3.868574830734415e-006 
-2.064460924224009e-005 
1.226145759578017e-007 
-4.656204777232145e-006 
-3.278328864174633e-005 
1.825299695936814e-005 
-3.226174990743557e-005 
-2.998918189290813e-006 
-3.342567538316633e-007 
-2.016111837896558e-006 
1.391800463488514e-006 
-8.322109553578655e-007 
-5.411521422078584e-006 
-2.684965276508062e-005 
-1.66067424143054e-005 
-1.107327425521742e-005 
-3.667016320331421e-006 
-1.537833139307701e-005 
3.998347839973312e-005 
8.228982131316393e-006 
-3.907757578385808e-005 
-8.330026903594989e-007 
5.543346598344137e-006 
-1.927929859115244e-006 
-9.256747518382366e-007 
3.240101800741066e-006 
-1.369817840264147e-005 
-2.531744492707814e-005 
-3.8520210792976e-006 
-2.017441115860863e-005 
-2.422166387661529e-005 
-2.368313515562186e-006 
8.645675931539417e-007 
-9.971443855498718e-006 
-2.484203630896574e-005 
2.811707016911647e-006 
-5.46633052690386e-005 
-7.041716922044598e-006 
-4.111808139839777e-006 
-5.16225031060403e-006 
-1.360833259243965e-005 
-8.075481258989388e-007 
7.27937503191338e-006 
-6.692562004104493e-006 
-2.016920148916944e-006 
-2.284092152889808e-005 
3.097216792789545e-006 
-1.550054236422607e-006 
-9.884852255492533e-006 
-5.626148169529539e-005 
1.116239382689033e-005 
1.281355140968329e-005 
-1.981865003267755e-005 
-8.538500866506309e-006 
-1.823927961598889e-005 
-2.09816855782675e-005 
-3.285044822931438e-005 
2.344399828402932e-006 
-8.952209268398646e-006 
-3.011652098800068e-006 
2.478777766304403e-006 
-1.645855663508651e-006 
-2.24946301910215e-005 
4.427065456419633e-007 
1.039642983801479e-006 
-1.679341114066261e-005 
-2.909082861121969e-005 
-4.784094887970194e-007 
-6.669675923623447e-006 
1.182206122221458e-005 
6.292935561834813e-006 
-6.84656495069576e-006 
5.719009049916312e-006 
-4.356533924851441e-006 
-3.92535676230229e-006 
-5.883103363045594e-006 
-8.910002146795956e-006 
-1.951814885568734e-006 
7.352645248071201e-007 
4.751223950101609e-007 
-1.628102112202596e-006 
9.387061864359652e-006 
7.868482716670826e-006 
-5.626159786188892e-006 
8.278212420606207e-006 
-1.407181689705719e-007 
-3.360684152600612e-007 
0 
-2.843259515408511e-006 
-4.320797478832743e-006 
6.699188879092245e-006 
-1.6658586322258e-005 
-1.375163001925262e-005 
-8.32000765970355e-006 
-8.273745981939439e-006 
-5.081444176928142e-006 
-8.443349006915919e-006 
1.520169828134706e-005 
-2.880403616293081e-005 
-2.934841732116227e-006 
-5.209383669009177e-006 
-5.837665735193651e-006 
-1.209013688062383e-005 
2.33482889264486e-007 
-1.339124707190594e-005 
-7.816285530689651e-006 
-1.311194894475559e-005 
-9.047708202096845e-006 
-4.166319577254391e-006 
-2.57790218767526e-006 
-1.613433578211431e-005 
-9.219383566244634e-006 
-4.030806452352713e-006 
-8.371090901845386e-006 
-3.112812112965212e-005 
-5.947465557370583e-006 
-1.275211156408919e-005 
7.171433585020823e-006 
-5.839092577172836e-005 
-5.158602977860076e-005 
3.546389480918418e-006 
1.261066536128253e-005 
-1.232116538437641e-005 
-1.001536800893917e-006 
-1.399731618168945e-006 
-1.997272228695432e-005 
-2.813312374063128e-005 
-1.429865313704135e-005 
-5.821774484300929e-006 
-1.482190079983794e-005 
-1.358876784802992e-005 
-9.392098696495742e-007 
-5.123915146081939e-005 
-2.856586131951246e-005 
-6.836091758578127e-006 
-9.37164146725895e-007 
-6.817998235702711e-006 
-9.134745202435246e-007 
-1.359355257705525e-007 
-1.034920469404307e-006 
-1.174395410539707e-005 
-1.691950887606386e-005 
-1.768300901322177e-005 
-6.766847343296233e-007 
-2.019933451673711e-006 
-5.805531028077829e-006 
-1.226750933699204e-005 
-9.835410377123224e-007 
-6.474820625358654e-006 
-2.751700318442098e-005 
-2.461905768843366e-006 
-7.659443989331128e-007 
-1.026741814957558e-005 
2.488315837908195e-006 
-1.456738795280531e-005 
3.970770104713107e-006 
-5.91270148014761e-006 
-8.472305952960544e-006 
5.887757808283112e-006 
-6.312257340657138e-006 
-5.401826906368182e-007 
-8.141514132633088e-006 
-1.77863560022038e-005 
-4.748415463849915e-006 
-2.695177340067342e-005 
-3.397333467943549e-005 
-1.187360818425709e-005 
4.192106106491922e-007 
-4.230193671399514e-006 
-5.820914055678032e-006 
-1.614633966259455e-005 
9.188177427236219e-006 
-5.400709672187407e-006 
-1.322994166546932e-005 
-2.996235836345991e-005 
1.425089913472227e-006 
1.156561026661942e-006 
-1.409504641775092e-005 
-6.448964925756682e-006 
-3.485595360214515e-007 
1.011603978777428e-005 
-1.038485928469411e-005 
-1.068458570602209e-005 
2.579689491758038e-006 
-4.447480014337924e-006 
-2.637686822567979e-006 
3.792485153063528e-006 
1.476865334865848e-007 
5.322700593960045e-006 
-3.207591744728187e-006 
-8.119356007838199e-006 
-4.285631719091123e-006 
-9.846259315605476e-006 
2.867408265627301e-005 
5.020117958060403e-006 
8.238897823417984e-006 
-1.085297079425153e-006 
-1.45158222989181e-005 
2.891727878249662e-006 
-3.320226222455283e-006 
-5.841631125318119e-007 
-2.162317201158124e-006 
-3.978945388995074e-006 
1.707262601654429e-007 
-9.442389189770046e-007 
-9.199351053413365e-007 
7.075228721871133e-007 
-1.868613985104337e-006 
-3.666927463314928e-006 
-3.221140413371132e-006 
5.208121518595097e-006 
7.535376006949935e-006 
-7.553957902057138e-006 
9.697809923438775e-006 
1.156264933280192e-006 
5.698132231240063e-006 
4.711072169192838e-007 
-4.516685511216416e-006 
-4.143552135942298e-006 
-6.101921549255595e-007 
-4.502878882994085e-006 
4.159735812728029e-006 
-1.960646358314213e-006 
7.048750529490341e-006 
-5.854048149873345e-006 
-5.241525940506039e-006 
4.814299877540195e-006 
3.327273539273481e-006 
3.568588642320182e-006 
-4.11752133317595e-007 
1.772701035376185e-006 
-2.851309857269151e-006 
2.269885699695334e-007 
-6.795779440796503e-006 
1.76659027724086e-006 
-3.103607647471304e-006 
2.297935756818732e-005 
-2.848805054653814e-006 
3.926403017745641e-006 
-2.032597208117282e-006 
5.802389212531155e-006 
1.387310244982007e-005 
6.59385326776417e-007 
-5.001995710765413e-007 
3.675594807514323e-008 
-5.003728491355835e-006 
-1.881674681132831e-006 
-1.779981571078649e-005 
-1.464146983114675e-007 
7.062023884727199e-006 
-8.224473832784825e-006 
2.631007236587377e-006 
-7.89970821981321e-006 
-3.011494913853098e-006 
3.387729970826197e-007 
1.66271338248347e-006 
-1.329980221801681e-006 
1.11080060207164e-005 
5.584237643383486e-006 
-5.732201921995872e-006 
-1.475717422525938e-005 
-3.706004395520502e-006 
3.81139443672456e-006 
-1.003289922072904e-005 
1.383369839321723e-006 
6.05124365219278e-006 
-6.992539718948935e-006 
5.185657675062712e-007 
1.711747042271837e-006 
1.516190770693883e-006 
-1.975867930140205e-006 
-8.252439534506432e-006 
-3.307863885132293e-006 
-3.648456751630643e-006 
-7.111587220280588e-006 
-6.179935204318763e-006 
2.887102053202574e-006 
-7.625800800254907e-006 
-1.87832597188399e-006 
-1.025931522300656e-005 
1.938922436793046e-006 
-7.212035397061452e-006 
-6.215429300652631e-006 
5.755601282067115e-008 
-1.173264114282059e-006 
1.692589911388055e-006 
4.006031086032199e-006 
-4.546628471518e-006 
4.22532305278117e-006 
-4.626599239782193e-006 
-7.02808095235004e-006 
3.247881678176309e-006 
2.222525232530105e-006 
2.37646121147822e-007 
-6.287555658251692e-007 
-4.396985638530306e-006 
-4.520771068650629e-007 
-9.159789425878845e-008 
2.684631497094106e-006 
-1.196687612332314e-006 
1.407093144790301e-006 
7.884373851704896e-006 
1.838303882105372e-006 
2.597006743784952e-006 
-1.942629485667515e-006 
-2.314292080641125e-006 
-8.804210436512162e-006 
-3.577182856651589e-006 
-3.481555805295835e-006 
-3.895900213892836e-006 
-6.61285557440506e-006 
-4.197976757850462e-006 
8.07262668462682e-007 
5.182778785759571e-006 
1.375303189597614e-007 
1.756037949501924e-006 
-7.856845683997561e-006 
-3.92404490145463e-008 
2.257628409709084e-006 
-3.860367680985291e-006 
-3.219009834234423e-006 
2.811721013606415e-007 
-1.344023721736389e-005 
-1.491516011685541e-007 
1.891653032380435e-006 
1.280044268476058e-006 
-3.37219686828193e-006 
-7.216965582336755e-006 
4.593203389889797e-007 
8.480025531276164e-007 
-2.553444173216613e-007 
-8.014494789145645e-006 
-7.630896189018793e-006 
1.640168098812367e-006 
-2.004427967915631e-006 
3.136108663347688e-006 
1.967820745489961e-006 
-5.557158747462917e-006 
-7.403331817188403e-006 
1.268401149900075e-006 
5.86096261980677e-006 
-3.834883163893825e-008 
-9.130950901796131e-007 
-2.404007290589118e-006 
2.939676420881412e-006 
5.443470808349047e-007 
8.620885732654339e-006 
-5.605767660573007e-006 
-8.184615616731261e-006 
-5.831127557445189e-006 
6.25434777490776e-006 
1.623288636492138e-006 
-5.606166268991527e-006 
2.525703674077435e-006 
2.215645451847151e-006 
-6.474332891955679e-006 
-1.28476835904095e-005 
-6.748651163827729e-007 
3.319053508995693e-006 
3.826791390787908e-007 
-1.313374150055024e-006 
-3.218480927909506e-006 
-1.312845242557226e-005 
3.817426608887306e-006 
-1.368839352494102e-005 
-1.864926376453417e-005 
9.701339798599387e-007 
1.250921992049115e-006 
-6.256299484909193e-007 
-1.680882812009424e-005 
-5.857324955742423e-006 
1.083628428602643e-006 
9.819327117984095e-007 
2.25296786320247e-006 
6.144147420429773e-006 
-6.896335838964556e-006 
2.591609574646086e-007 
-6.016383973955066e-007 
-8.200401752170456e-006 
4.345589803474584e-006 
-1.453714996023987e-005 
1.73906332092249e-006 
-2.440239114197763e-006 
4.560505190974218e-006 
-2.590057018568511e-006 
-2.232210271503609e-006 
1.020907353532868e-005 
-1.329514948371217e-006 
-4.101230583697873e-006 
-4.08552623852667e-006 
-1.172439079096528e-006 
-8.285331907099035e-006 
-5.843001895679806e-006 
-5.629567977233872e-006 
-5.294898547577545e-007 
-1.597527184011564e-006 
2.167183585004513e-005 
-2.525446564802367e-006 
5.863290758661623e-008 
-5.125345941161841e-006 
-7.146642735646574e-006 
2.397895623519783e-006 
-8.610873497395279e-006 
5.342849208023977e-006 
-4.048337532963898e-006 
2.019558683176863e-005 
5.776358674539575e-006 
6.560284899215486e-006 
-8.275523446568795e-007 
-3.594095856856799e-006 
1.860752161356823e-006 
-2.871656155645197e-006 
-2.885481583290647e-006 
-4.396437786804248e-006 
3.146955000968411e-006 
3.086687442298757e-006 
-5.90213529046437e-006 
5.369919669480047e-006 
-7.715672505953432e-006 
-1.519736817799733e-006 
-1.678025774524626e-005 
-6.040916535680364e-006 
-3.497513238088358e-007 
6.38392941814532e-006 
-2.224928864161412e-006 
3.961990204052026e-006 
3.687935493276971e-007 
-1.844523041393493e-006 
-2.639576401023432e-005 
-4.575710178611944e-006 
2.06389941991627e-006 
-1.952396529957964e-006 
-6.138084850382813e-006 
-6.360065213789216e-006 
-3.404048585702763e-006 
3.339510170150606e-006 
9.496717920190889e-007 
-5.142147184628173e-006 
-1.647195571272888e-005 
-8.036188102152558e-006 
2.627457499678318e-006 
4.202861698804027e-007 
-2.922613309849849e-005 
8.819000037248356e-007 
-1.224972242117359e-005 
7.789499669556021e-006 
-7.542997966554382e-006 
-2.831125482419953e-006 
4.624990952827613e-006 
-9.681641909419078e-006 
-2.971957873306697e-005 
-3.049017423031741e-006 
-1.21289794180503e-005 
7.116194848084738e-007 
-4.192206073922211e-006 
5.791706812115371e-006 
-2.150777779132436e-006 
3.724265318417533e-006 
-9.312600822927833e-006 
-3.387193361885708e-006 
-5.866708379891077e-006 
-4.72105565744843e-007 
2.203238367105364e-006 
1.278754321769367e-006 
-3.052914590142143e-006 
3.546452593822165e-006 
3.849414534543197e-006 
1.145342312948483e-006 
-2.276208372794714e-006 
5.056932345759109e-007 
9.353696032313659e-006 
-3.822862268984625e-006 
-9.457028314870414e-007 
-4.046179176888248e-006 
2.928969180683458e-006 
-1.62675023868088e-006 
-1.537480767997522e-006 
-3.260375826851813e-007 
-8.720295167269734e-006 
2.108362976110272e-006 
-2.881132935231779e-006 
1.648526199949725e-005 
-1.272152212510065e-005 
-2.975070349056181e-006 
-6.842177698453219e-006 
7.655932740693093e-007 
3.558125050713024e-007 
-3.761821465813076e-006 
-1.084192356735815e-006 
-4.548692280203334e-006 
9.795221195403291e-006 
-7.028280495698848e-007 
-1.337881680110766e-005 
-1.145575903568516e-005 
3.232159404271356e-006 
6.836347607438746e-007 
-1.167692112018572e-005 
2.27042761121191e-006 
-1.530555566706988e-005 
-4.324557098373315e-006 
3.323155971781176e-006 
-5.740804694070027e-007 
3.11030958405558e-006 
3.154147819961825e-006 
4.5876373832422e-006 
-9.728185762859619e-006 
-7.328009471536052e-006 
-3.489722040671001e-006 
-3.745299821615775e-006 
4.748269962557323e-006 
-1.162653361995776e-005 
-6.485027821201662e-006 
-3.55968752487018e-006 
-6.649425137620611e-006 
-3.603908548744664e-006 
1.26700272510121e-005 
2.200622021164928e-005 
-6.034591815522201e-006 
-6.635228693336563e-006 
-1.903576361307223e-006 
3.445114468499168e-006 
1.73448455667159e-006 
-5.365706883480018e-006 
-2.898681669277683e-006 
-1.512056054646592e-006 
4.345645349315221e-006 
-4.174919978110261e-006 
-5.92122757308475e-006 
5.93667575655057e-007 
1.798998096512012e-005 
-2.070328301290246e-005 
-1.601868241204515e-005 
-4.327824679481233e-006 
-1.036294455575401e-005 
-1.037149075921794e-005 
-2.917268551459041e-006 
1.761881489853924e-006 
-8.436688909868714e-007 
4.572487982970085e-007 
1.713129969959547e-006 
-9.517061854550602e-007 
-3.712304884603245e-006 
2.418778216640185e-006 
-5.26403249816115e-006 
-6.287762588549321e-006 
-6.414495908952822e-006 
5.020013310528851e-006 
9.069830868330237e-006 
-6.516243593887585e-006 
-1.554331534722357e-005 
-4.798383796590837e-007 
-1.782400318587899e-006 
-3.537818357499471e-006 
1.466510759339199e-006 
-4.641883829128889e-006 
1.754583435162656e-006 
-4.196640721433232e-006 
-1.19126109370448e-005 
-6.523440142766969e-006 
2.736542149182696e-006 
5.861525830043758e-006 
2.127705082557338e-006 
8.006166134128707e-006 
4.670561729015272e-006 
-8.377205781077904e-007 
1.065130415423542e-005 
1.286872715116912e-006 
-1.155905867881052e-005 
-1.766136421559462e-007 
-2.653344392522997e-006 
1.138716716673176e-006 
-1.077409642420413e-007 
-6.150202931283367e-006 
-1.770429563641085e-006 
-1.598627387836513e-006 
-1.345019029434141e-006 
-2.567165295029063e-006 
-9.580147358156986e-006 
-1.096854618316196e-005 
1.637554503517967e-006 
-6.0632992724581e-006 
2.577202765192878e-006 
-3.650461003377311e-006 
7.118043483086725e-006 
-3.113426152698944e-006 
-9.150496661491102e-007 
-3.837380058659522e-006 
-2.553852616147064e-006 
-1.346860339592845e-006 
-1.569574467789982e-006 
1.489449241227208e-006 
-7.637700761916921e-007 
-1.728519072933252e-006 
1.046309709942571e-005 
-2.13370368717977e-007 
5.710963104125344e-007 
1.329746458900221e-006 
-9.805666030830653e-008 
-1.32630969102917e-006 
2.951517438651886e-007 
-1.438331904509386e-005 
4.411067831199438e-007 
-6.849895952798827e-006 
-1.124895659671136e-005 
4.747990913524186e-006 
-4.475010554869908e-006 
-9.939387716252723e-006 
-1.235926908624832e-007 
-3.215766764137468e-006 
4.240102815908015e-007 
-4.173689293404173e-007 
-2.735818550573634e-006 
-1.084773849966765e-005 
-2.453762766025675e-006 
-2.314867820670126e-006 
1.147232285787864e-005 
3.018747452150169e-006 
3.681801597070311e-006 
-1.600098799157572e-005 
1.032406564844955e-007 
-3.836230766619892e-006 
-1.690494415073563e-006 
-1.346109131800268e-005 
7.119479797351965e-006 
-7.226397717932814e-006 
3.247407607068318e-006 
1.914009185534375e-005 
-1.034073218169976e-005 
2.118450041810927e-006 
-6.576734929373266e-006 
-1.59695922750876e-006 
-6.770938005530467e-006 
-1.537952863763449e-006 
-4.58284577046129e-006 
-5.172786012815929e-006 
-3.198500341076991e-006 
-6.251108329799618e-006 
3.527798055414575e-007 
-4.088272928641554e-006 
-7.461029487969964e-006 
8.716007372732151e-006 
1.288166682084538e-005 
-9.652539341478251e-006 
-6.643892383277904e-007 
-2.731829273827494e-006 
-1.274313095644223e-005 
-1.152953241746515e-005 
-5.46518085037662e-006 
9.749386420843202e-007 
-4.901206125231551e-006 
-2.105467610675541e-006 
-2.397510583915206e-006 
-5.866770868172033e-006 
-3.233098756933036e-006 
2.52061422701071e-006 
-2.822597030328138e-006 
-1.848734397222266e-006 
-9.821202262290368e-006 
-6.095703943760977e-006 
4.310495990579488e-007 
-4.090864925161578e-006 
-8.22152994198837e-006 
-6.906316413493566e-006 
-1.979426219430698e-006 
3.472657014716697e-006 
-4.144650444166441e-006 
-3.693780311668231e-006 
-1.370407053946102e-006 
-9.518997650814165e-006 
3.800942030625718e-006 
-7.840374247856273e-006 
1.381442371437391e-006 
-7.739523870133068e-007 
-4.746647839364336e-007 
-4.064608227964755e-006 
-1.990182780816338e-005 
-2.779553757136287e-006 
-9.923329960092337e-006 
-3.91821197923813e-007 
-6.975149546131589e-006 
-1.955939457619497e-006 
-4.508433602098078e-006 
-1.804259207418799e-006 
1.204289304837871e-007 
-2.282211696624333e-006 
-1.085830335569457e-005 
-4.058501701836591e-006 
3.950648693862491e-006 
-4.112591023275254e-006 
-2.749893701559217e-007 
7.320307050424784e-007 
3.06252568829629e-006 
7.731844063845821e-007 
-5.817824675433754e-008 
-4.556496596835269e-006 
-2.500771383371245e-005 
8.835278412268256e-007 
-4.113125829926149e-006 
2.255423079478573e-006 
-2.982387682124862e-006 
-5.919566638155118e-006 
2.431017394259135e-006 
-8.362844631913553e-006 
-2.526746234657427e-006 
-3.295859853214246e-006 
-2.611666857789033e-005 
-4.906897625852361e-006 
2.713632511646218e-006 
2.687055734096023e-006 
-1.215366598840203e-005 
1.63618676505433e-006 
4.378011497244845e-007 
-1.626550941304492e-006 
8.067420561873471e-006 
5.592235591206805e-006 
5.241764476099471e-008 
-1.741028476857853e-005 
-5.66864038603902e-006 
-1.223394144492113e-005 
-4.462820826926908e-006 
-7.69810412305068e-007 
-3.792359940965892e-006 
-6.451513194751518e-006 
-7.042415810443208e-006 
5.559777735402081e-006 
-5.7485248941043e-007 
-4.881908516638814e-006 
-1.730506559713486e-005 
1.407984467423603e-006 
5.720144323657881e-006 
4.410170582587388e-006 
-4.493137099761159e-006 
-1.369802601425739e-006 
1.158620210246091e-005 
1.926882835823691e-006 
-1.713327976368532e-006 
-2.645799380820807e-006 
2.250632760523695e-006 
-4.268029304593094e-006 
-2.717134367645472e-006 
-1.01037330540018e-007 
9.590938322029048e-007 
9.17530661862579e-006 
-1.538707636160911e-005 
-1.843243151548156e-006 
1.183589274166139e-006 
-9.708497476246997e-006 
-2.986288955804168e-006 
1.172058650071484e-005 
-1.524650983974514e-006 
-3.952755502766132e-006 
-5.289708753928539e-006 
7.997080343281915e-007 
1.628626295275608e-005 
-2.230818317146307e-006 
-7.642559885247303e-006 
-1.95570902225344e-005 
-2.105012218781127e-005 
-9.125030256519793e-006 
-1.968498791393342e-005 
7.49820056524184e-006 
2.912417893208188e-006 
-9.537961447626347e-006 
-1.554093620049309e-006 
1.29427143066367e-006 
4.206750426152309e-006 
-6.222307922394896e-007 
-5.864891721265554e-006 
-8.990039761531965e-007 
6.741589576615938e-006 
-5.954406189942012e-007 
-9.646895558500541e-006 
3.135348098766465e-006 
1.179753275478352e-005 
2.801427953117827e-006 
-3.753715640101454e-006 
-1.841537879622022e-006 
-4.082612014146966e-006 
-1.191744127155942e-005 
1.557970614124235e-006 
-2.344904362065299e-008 
2.550516239457307e-006 
9.495278129480577e-006 
-9.185822179430975e-006 
-4.595578708925121e-006 
-1.507639496523472e-005 
-8.527392588799518e-006 
-1.376457751225454e-005 
-3.069994492923314e-007 
2.628680303517349e-006 
-1.25733161686691e-006 
-1.307695255960615e-005 
-2.027616896005518e-006 
-2.39089300419265e-006 
-6.608492650927131e-006 
3.837008447917754e-006 
1.206462815912274e-006 
3.805074852296552e-006 
2.714604022552552e-006 
-4.887479436770055e-007 
4.714794413770749e-006 
-8.336703504338942e-006 
-4.563084757701768e-006 
-1.261800532283386e-005 
1.080212430572971e-006 
7.726107741443865e-007 
-3.190653621016416e-006 
-1.115896245336279e-006 
2.939892105075399e-006 
1.596506320642027e-006 
-5.594113695646279e-006 
1.290571411493016e-006 
-6.333327825931203e-006 
-5.357053872700026e-006 
-2.474397666841359e-006 
6.21054035307573e-007 
6.666100630189905e-007 
