solver_type L2R_L2LOSS_RANKSVM
nr_class 2
nr_feature 360
bias -1
w
0.0001269569362406217 
0.0006329115071341935 
-0.0002428788791736438 
0.000193850293040291 
0.001038704330073166 
-0.002130783114986134 
-0.0002772982571769261 
0.0008831504201952331 
-0.0002198139913171852 
-8.17877752923976e-005 
-0.0001086021343772478 
-0.0001928330927884271 
-0.001218534317806061 
-5.082229243139191e-005 
0.0005510998194462209 
-0.0006547294406890551 
-0.0001534965030711544 
-0.001400681403289071 
-0.000615543785364499 
-0.002071211633282176 
-8.098499559773455e-005 
-0.000354570400621456 
-8.520582592367763e-005 
5.359175246803231e-005 
-0.0004164924020186639 
0.000192121733140022 
-0.0001707881800793007 
-8.327544412601559e-005 
-0.0002795072857399316 
-6.088162167779858e-005 
-0.0002432003293209656 
0.0001036682427373473 
2.849951426869335e-005 
2.903091853473998e-005 
-4.025138835820269e-006 
-0.0001748708032830462 
0.0005221890563308533 
0.0001435288698546697 
-0.0002445066237372022 
-8.587884084610257e-006 
-0.0003153244341386754 
0.0004767776126517963 
0.0003144432575604072 
-0.0005564411190204574 
-0.0003560710105938568 
-0.0001074863488653727 
0.0002639475195697458 
8.093218761170005e-005 
-0.0009946335375224278 
0.0002024052931975054 
0.0002904832359517127 
9.938905751380124e-005 
0.0009057285593474672 
-0.0002368394704829792 
-0.0001843179353495001 
-0.0004685918500642375 
-0.0002215120977990785 
3.831071413006344e-005 
-1.655403766283675e-005 
-0.000164651500007885 
-0.0004600799875491987 
-2.089303195919372e-005 
-0.0003066524715188569 
0.000517576504085042 
-0.0001801966477200378 
-0.0003613820651668007 
-1.891424683699166e-005 
8.047597605653017e-005 
-0.0001019859264100489 
0.0001630550243912729 
8.091846699323216e-005 
3.180696308901055e-005 
6.379930124689305e-005 
0.0002034286460009116 
0.0002098824298147304 
-6.078140237361889e-005 
0.0003752968542112965 
0.0001032154472444229 
-2.669965321706923e-005 
0.0001003772240731703 
-0.0004256483716439818 
0.0002737761626405847 
-0.0001453233545066524 
-0.000347961769180623 
-0.0002476910376415296 
8.594780097699814e-005 
-0.0002305875858643512 
-0.0001692818549698476 
-0.001034099593031757 
6.819813946302606e-005 
-8.632101951988189e-005 
-0.0006068762821808287 
-4.763864562964315e-005 
0.0002013119939112649 
-0.0005776129648091153 
0.0003487358180082136 
-8.385794453117979e-005 
8.003759935830052e-005 
0.0003108662367203287 
-4.330636128920907e-006 
-0.000373943558690402 
-0.0005662543791810189 
-0.0001611131086101022 
-0.0001153870124421826 
0.0003396455928803956 
-0.0001472500453832501 
-5.168859893981076e-005 
-0.001098423036367513 
0.0003643035276016575 
-0.001302007218403187 
0.0002005472315010261 
-0.000242400608339402 
0.0001330250590851941 
-0.0009188020059748001 
-0.000478692995643169 
-0.0002357103547223289 
0.0008760775549933402 
-0.001289742082112612 
-0.0005726527402397854 
-0.0007890678009570745 
0.0008748317888959545 
-0.0001494652723032188 
0.0003799339649549008 
-0.0006609658670170739 
0.0001905226038301859 
0.0002218636372702328 
5.80437367651634e-005 
0.0002151843637100198 
-0.000626986431367705 
-0.000242947815399564 
0.0002185748183446581 
-0.001648531474255802 
2.430200888782076e-005 
0.0007395318880749779 
-0.0009956182304349604 
-0.0001973744213238489 
-0.0001297215801975476 
-0.000397562533294471 
0.001121211389204402 
5.882760105362919e-005 
-0.0001757493368593761 
-0.0007463028916344988 
-0.0007364467673984866 
-0.0008244697934018198 
-0.001743959981541617 
0.0004964022702550875 
-0.0004960702853386021 
1.590808706706845e-005 
-0.0005294441530212686 
1.867164810495534e-005 
-0.0008126178862243037 
-0.001116162507097158 
-0.0006220915819772155 
0.0005158886655655555 
3.414357146035555e-005 
-0.0001484532085933106 
-0.0006066741502378599 
0.0001386398711668748 
0.0002755073941703609 
-0.0005928138407313066 
0.000935940433863426 
-0.0007551014653168944 
-0.0001381629470482781 
6.456606638070916e-005 
0.002156250173245968 
-0.0008305374750405589 
0.0001687825068380455 
0.0005535101568794396 
-0.0004438483902840688 
-0.0001642773666768022 
6.748361317187569e-005 
-0.000876697631146741 
-0.0004655925612046042 
0.000542672252907852 
0.0004934750256731813 
4.6651889379478e-005 
-0.0008702490611772746 
-0.0002641889543535439 
-0.0001985732530932165 
-8.523705998843567e-005 
0.001070049737720423 
-0.0001170976238833717 
-0.0002464840428460257 
0.000614324634113757 
0.0006144672207590287 
-8.035654457205413e-005 
-0.0001577863355021982 
-2.567992062499313e-005 
-2.795150952720674e-005 
-3.935637877839539e-005 
-0.0002145362991984296 
-0.0007252212639533795 
-0.0002779107595839467 
-9.464552560458297e-005 
0.0004320641763088981 
-0.0001788158597825551 
-0.0002920637213599733 
0.0001748352394827917 
0.0005766575486542932 
8.483359761317316e-005 
-0.0002363612602133626 
0.0008949494830439275 
-0.0001817201912910897 
0.0002387698041657534 
-1.643835227675374e-005 
-2.055764910055944e-005 
-4.046704515893518e-005 
0.0002891432826180919 
0.0002181177128232539 
-0.0001746699010563963 
-0.0001446239355626574 
-0.00010223221959968 
-0.0002944900709514265 
-6.591849651430184e-005 
4.612363698410365e-005 
0.0005370173012067441 
0.0003388573571449821 
-0.0005324052291189688 
-5.391519991065329e-005 
-0.0005993543148518147 
-0.000219867906707878 
7.576301114866161e-005 
-2.799557630947348e-005 
0.0004027918349398593 
-0.0005232638117726323 
0.0004150348792478641 
6.691679903015526e-006 
4.457358413504297e-005 
0.0007594525333187474 
0.0002950022539903634 
-0.0001868480881735477 
0.000286608440604822 
-4.568761374570852e-005 
-0.0002004004664144987 
4.591624606759025e-005 
0.0002729147905004528 
-0.0002043137838450034 
-0.0002919003705847172 
-0.0003460586680561238 
-0.0001901680661643837 
-1.416099025601542e-005 
0.000507529970332221 
-4.986452059770901e-005 
0.0003130288140797245 
0.0003702543030032498 
-6.013655276934369e-005 
-0.0004707875786769826 
-0.0002908305490166153 
-0.001024486987242097 
-0.0001527364232028455 
4.454620798618234e-005 
-0.0003992702006167015 
1.819059160760418e-005 
0.0001491338529444795 
-0.0009211367593331511 
-0.0001122923337479874 
0.0003182796251939024 
-0.0003587171132819642 
0.0001443062874518563 
4.72859098767051e-006 
0.000116601531019796 
-0.0005613582196872763 
-8.402496750785944e-005 
-5.419636926499873e-005 
-0.000237653316279371 
0.000794315456998258 
0.0001154265980576453 
-0.0005909592267856508 
-0.0001961981476259725 
-0.0002569553578631699 
0.0001280689327048667 
-0.0004343676907584333 
8.935260901938966e-005 
-0.0001725087971437545 
-1.184415161850698e-005 
-6.997596172561328e-005 
0.0003757710364034413 
-0.002143709787666343 
-5.85687124151661e-005 
-0.0003397634931301237 
0.0005118000686371979 
-0.002254233996046548 
5.893187487960993e-005 
-0.0001860097590876499 
0.000393608617946373 
0.0001600537147143105 
-7.79391656939102e-005 
3.784961522182507e-005 
-0.000601418265178214 
0.000332690111432421 
0.0009140192276573092 
-0.001413606346273401 
-0.0003997077631683392 
1.722998035440461e-005 
0.0002630575535682077 
-0.0006218598494441842 
0.0004606429303459756 
-0.0001502630053266747 
0.0002962417116849026 
6.561055812709618e-005 
0.0002989013706199749 
-0.0004470226375982386 
-0.0004386328977111256 
-0.0008960332205389043 
-0.001637547779093571 
0.0007198257567753336 
-0.0002149495736644695 
-0.0002001096277057774 
-0.0002523196221039068 
-5.807100844686659e-005 
-0.0004331444847557694 
-0.0002063606026351539 
0.0001331679793303189 
-0.0007921321390300823 
3.470588676010998e-005 
-0.0003000510016975774 
-0.0002250969998772909 
0.0001595133136476072 
-0.0009038404727449726 
9.704717859852018e-005 
0.001326801969106766 
-0.00038832934103042 
-0.0003514661248833026 
4.385213716069047e-005 
0.0009382741680438211 
-6.83121163888814e-005 
0.0009914970145718015 
-0.0004482281340218923 
5.592040907309081e-005 
-0.0005276658408782877 
0.0004229599230605412 
0.000142963982944205 
0.0005669178358976652 
-0.001323249430921834 
-0.0003278281141935806 
3.659049064829662e-005 
-0.0009507140666405303 
-0.000291104876178873 
0.0003783305103506511 
-0.0001752852765253903 
7.127945726690836e-006 
0.0007129122975303558 
0.0003573986810235736 
1.691282666173355e-005 
0.0004153858358745226 
-0.002702497809599883 
0.0009854190407481882 
0.0004119648363311834 
-0.0102598398425962 
-0.005919023359764448 
0.0003289773928849998 
0.0001926081192378064 
0.0004866021397663962 
7.87059077023484e-006 
7.269452519561438e-005 
0 
-0.001313658109739733 
0.0004816362256303277 
-7.52752413511248e-005 
0.0001245018976109814 
