solver_type L2R_L2LOSS_RANKSVM
nr_class 2
nr_feature 360
bias -1
w
-0.004029176926480893 
0.004174283354663007 
-0.00677321397137089 
0.001616390399314367 
0.001736433711554406 
0.005723050151122388 
0.0004594316252451085 
-0.01362557407233656 
0.008635571445693161 
-0.00264205928874541 
-0.01293605978034031 
0.006625116449206875 
-0.001066178333055453 
-0.002525648236905981 
-0.004046555406755919 
-0.006947737545722486 
-0.001634278754463232 
0.001860272703169016 
0.001568237667985787 
0.004701442540689002 
0.002392600981966597 
-0.003012056887290289 
0.002726527949250379 
-0.004337047384937537 
0.001008391902403604 
0.0004672999734470762 
-0.001996501999681484 
-0.005368460855366774 
-0.003974484668341677 
0.002383153978227809 
-0.002655641251002669 
0.0004429578842087819 
-0.004011376639117069 
0.00387876534947736 
-0.001152011581988076 
-0.001036602021475403 
0.006589222162808123 
0.0005117893322779828 
-0.002158297978839626 
-0.001033829005765902 
0.003919912037665774 
-0.005046952007251125 
-0.005967880032727592 
0.001528821294188401 
0.0005304441530653661 
0.001043358981099097 
-0.01166572142465058 
-0.003584807034872802 
0.0007250549974867971 
-0.001186595718541297 
-0.0003930881096234374 
-0.00414904528099673 
0.0009146625502987139 
0.0008643738366550874 
-0.001821428967359713 
0.000962892574910297 
-0.001565547391104598 
-0.003833050050300927 
-0.001478898014522721 
-0.009866184419730768 
0.002351671153227829 
-0.004080401994825341 
-0.003456942064980513 
0.001785935458995259 
-0.001397392006730462 
-0.001893619412595982 
-0.005832799270369305 
0.005343362191613282 
-0.004360695929125697 
0.002443862680961403 
0.0003702964947247561 
-0.007446506923475828 
0.004137073856914437 
0.00148257478150743 
0.001514165834493292 
-0.005740479856501425 
-0.001561593590401625 
-0.001350400387504338 
-0.0003810961603081665 
0.001302519658070864 
-0.005614683411229958 
-0.004880160194200841 
0.002645963192906779 
-0.002869050370255018 
-0.004697538656358902 
0.0009938461825186491 
-0.003846197414418681 
-0.005147017037056632 
-0.004044663033213994 
0.002025196415510872 
-0.006533118663196611 
0.002359843562793645 
-0.008862810718530189 
0.004315862819330152 
0.009585954290625788 
-0.004879493044872055 
-0.002844437459048256 
0.001154036505744859 
0.009122138624883522 
0.002916421361746761 
-0.0007604945377294339 
0.004660635883015372 
-0.006463685280433095 
-0.001760548647487049 
-0.001662872087867615 
-0.01733628525977999 
-0.01031252791758885 
0.004050834753105602 
-0.00917028218154076 
0.003487142959513241 
0.004470205292133404 
-0.01061338424290988 
-0.009881534827311101 
-0.007048630839733439 
0.0007638744260423312 
0.001052835301882525 
-0.0009190824692407432 
-0.002104754514353482 
-0.0009354946154155263 
-0.004178074525038472 
-0.00276518949508657 
-0.003277675867055809 
-0.003389531213042797 
0.00549081816987928 
-0.008832291577970245 
0.00209874018421072 
0.002684881342718428 
-0.002166072351077881 
0.003009518666905172 
-0.003701237572135009 
-0.009983870472889437 
0.008311207726383812 
-0.003741909605949497 
-0.005316853158569284 
0.003072872958257541 
0.007153109850288915 
-0.002372054148537584 
-0.00836660367880647 
-0.002368045343783825 
0.004061255469918482 
0.00502079554016491 
0.008171757954084398 
-0.0007831199350273063 
-0.001256352105421398 
-0.004772217284709849 
-0.006349019763851077 
-0.001498785173680182 
-0.003274617271264135 
-0.01577495177020913 
-0.005417104055444769 
-0.0005554979833725125 
-0.002715281129789077 
-0.007069650627279735 
-0.005151435340345065 
0.002650561624718868 
-0.004808947008638874 
-0.004782311613283311 
-0.01962636677624018 
-0.008190160624507706 
-0.001733687510256757 
-0.002140838102270671 
0.001192865602549801 
-0.01018080653199324 
-0.004524461476354839 
0.008565713920437037 
0.001451109439011928 
-0.003264432699276931 
-0.01704863008641716 
-0.005326291113120285 
-0.006843648720105882 
0.008284549064237746 
-0.003261206002943008 
-0.008445315262789322 
0.002638031092872573 
-0.005738898299938489 
-0.01261131116398475 
0.005116610687155646 
-0.007477543994433738 
-0.01553665591439907 
0.003981025159502129 
0.0001833651438131004 
-0.005255116319832362 
-0.0006990611736887758 
-0.0002536181363077937 
0.001375341715342252 
-0.004922908970505295 
0.0007825253745162921 
-0.006395699619903313 
-0.004253056643839012 
0.0002447205695177198 
-0.0005434083498510461 
-0.004771134472547757 
0.0005510446828606555 
-0.007275245093288103 
-0.002624488624682615 
-0.003121809779599264 
0.001288978784544683 
0.003254635214884419 
-0.006963617087252751 
-0.003420630269375829 
0.008382423813832463 
-0.0003121788484179163 
-0.007980866932969129 
0.001869571180216819 
-0.005024827742378901 
2.016877680513515e-005 
0.001600519201038603 
-4.618808039047212e-005 
-0.005579706235505995 
-0.00718046284515275 
-0.00610382303914793 
-0.003371767601250774 
0.005397014895904511 
-0.005371639306175152 
0.003159872644823298 
0.00660788777048356 
-0.003182129503853489 
0.001074170754989698 
-0.001664306125125418 
0.003865655049569473 
-0.00302008228228473 
-0.007640490365984142 
-0.009341003127426258 
-0.0008179844507878419 
-0.001529238056122215 
-0.003091781133531486 
0.003507156225432016 
-0.005496530608689725 
0.003836452937479595 
-0.0009377490944623689 
5.577427697004943e-005 
-0.0007944911689178171 
-0.00648504724398298 
-0.004296816294883194 
-0.0002351751327294118 
-0.004438150683439684 
0.003237038609570576 
-0.002372502888796774 
-0.003882444187954586 
-0.0001792924478841343 
-0.002697938018167634 
-0.004179273476177354 
-0.002487917413068885 
0.0008621569064032207 
-0.00659225128147806 
0.00230854178111992 
0.002251892326261804 
-0.004559462550574845 
-0.0004643814509194013 
-0.001157963735750014 
-0.007377479376944897 
-0.009522005553027745 
-0.01152640398725341 
-0.00061026878530201 
-0.01315361670091729 
0.003665785241745665 
0.0008790428081036187 
-0.0005262550037987961 
-0.006874526054559756 
-0.001323730337750761 
0.006462674387439738 
-0.005015689679766303 
0.006408619888718256 
-0.005454242775792608 
0.005748220209500087 
0.00221261942585421 
-0.0008987868677589345 
0.005576092161381553 
-0.006702683868035048 
-0.003757980780353686 
0.00209070045310194 
-0.004544809977903463 
-0.006386741685657068 
-0.00664906432665456 
-0.004721592962938229 
0.002027969626353942 
-0.006587405521325336 
-0.0003959816030248765 
-0.01567431814289001 
-0.005001639820795917 
0.003805660915458433 
0.00453053594547295 
0.003046958348286007 
0.003996553057865661 
-0.01185948034225431 
-0.01370456501938848 
-0.009501962997770969 
-0.01574163326624828 
-0.002268701445875325 
-0.002955496136874275 
-0.01215950808974767 
0.002121310491047836 
-0.00787586617706126 
-0.02592746770612114 
-0.003771205005176683 
0.00291540575107304 
0.001272555582957011 
-0.002084209465085367 
-0.00782703099513744 
-0.009798372176531508 
-0.006542102778093493 
-0.001477750088759669 
-0.01157865472301668 
-0.005660210659125958 
0.002973363967243196 
0.001258931310685464 
0.005844041928511951 
0.001270070744682244 
0.001394249675255398 
0.009274241121855917 
-0.00948029363299638 
-0.007636391012132026 
-0.001268224031585863 
-0.004871679595758019 
-0.01766398786164925 
-0.01314768370626351 
-0.00670159729579202 
-0.01135506775743126 
0.000650265637297992 
-0.01479114050797806 
-0.006186116660503887 
0.0002319649734152592 
-0.01221643661304527 
-0.002520156616041265 
-0.00139967598394479 
0.001859384985860082 
0.006447318263611298 
-0.002993608169489632 
-0.004695990248520608 
0.003989872897599185 
-0.002233566556804778 
0.003245818625431864 
-0.0105926102867281 
0.00176310089777974 
0.005579674258553904 
-0.004841294730364346 
0.002019970630371354 
-0.01311908161182945 
-0.001916638949650524 
0.0005710421997488007 
0.0002304801105278176 
-0.006450041924843669 
-0.0009843067092057943 
-0.01761121664294702 
-0.0005391761045766424 
-0.006631235308602369 
0.001693561986941305 
-0.001100829461184838 
-0.0002669778990863678 
0.002696194203016979 
-0.003488200268263711 
-0.006967429112050763 
-0.007153157203849818 
-0.00620320215859722 
-0.005754140858868816 
-0.009387021425733657 
0.002799250302708281 
-3.533711937015984e-005 
-0.001091527197385373 
0.01590673997791163 
